{"BatchSize":200,"SerializedLayers":[{"Bias":[0.0,0.0,0.0,0.0,0.0,0.0,0.0,0.0,0.0,0.0,0.0,0.0,0.0,0.0,0.0,0.0,0.0,0.0,0.0,0.0,0.0,0.0,0.0,0.0,0.0,0.0,0.0,0.0,0.0,0.0,0.0,0.0,0.0,0.0,0.0,0.0,0.0,0.0,0.0,0.0,0.0,0.0,0.0,0.0,0.0,0.0,0.0,0.0,0.0,0.0,0.0,0.0,0.0,0.0,0.0,0.0,0.0,0.0,0.0,0.0,0.0,0.0,0.0,0.0,0.0,0.0,0.0,0.0,0.0,0.0,0.0,0.0,0.0,0.0,0.0,0.0,0.0,0.0,0.0,0.0,0.0,0.0,0.0,0.0,0.0,0.0,0.0,0.0,0.0,0.0,0.0,0.0,0.0,0.0,0.0,0.0,0.0,0.0,0.0,0.0,0.0,0.0,0.0,0.0,0.0,0.0,0.0,0.0,0.0,0.0,0.0,0.0,0.0,0.0,0.0,0.0,0.0,0.0,0.0,0.0,0.0,0.0,0.0,0.0,0.0,0.0,0.0,0.0,0.0,0.0,0.0,0.0,0.0,0.0,0.0,0.0,0.0,0.0,0.0,0.0,0.0,0.0,0.0,0.0,0.0,0.0,0.0,0.0,0.0,0.0,0.0,0.0,0.0,0.0,0.0,0.0,0.0,0.0,0.0,0.0,0.0,0.0,0.0,0.0,0.0,0.0,0.0,0.0,0.0,0.0,0.0,0.0,0.0,0.0,0.0,0.0,0.0,0.0,0.0,0.0,0.0,0.0,0.0,0.0,0.0,0.0,0.0,0.0,0.0,0.0,0.0,0.0,0.0,0.0,0.0,0.0,0.0,0.0,0.0,0.0],"Weights":[[-0.59260764669538224,0.35136578968078158,-0.55073766826765069,-0.14930262746879358,0.1246509526935545,-0.31635957390143438,-0.21813301270353164,-0.67576505210772975,-0.57415342679727277,-0.27670912744706727,-0.67081981832827953,-0.1626985577563109,0.28414102352614157,-0.26518475359828148,-0.6854583197059102,0.44491605854882105,-0.59321203365404818,-0.26904391051850046,0.16464036585372796,0.17783791603011528,-0.57799180147285578,-0.010258466920697696,-0.14579247026932488,-0.083305942355632934,-0.22693740113061772,-0.73976357710668561,0.37243680898037174,0.30055042337884891,-0.28600261336853222,0.855948471483974,0.57191748718729551,0.029977370748120107,0.10466584702518869,0.69485986489463425,0.70274614858568618,0.063612997371815513,0.11886350710676948,0.0817887514855147,0.025492942066575316,-0.035019617208584132,-0.43959540250027074,0.005160874222636308,-0.29059172147074669,-0.692721628028783,0.073688779133288834,-0.22451524923151203,-0.011947156101846638,0.035479035564095804,0.42868388441212879,0.61802053319362216,-0.63794636798521631,0.098688897165785411,-0.22329207076040744,-0.58743254546595314,0.10389460868864309,0.016228535750769379,0.0062065576085947958,-0.42889260388630956,1.1482718182615854,-0.75714708757944271,-0.14606959015443755,-0.33824112206639773,-0.069424693217277025,0.069660696251130041,0.17206074369965205,0.681454327685219,0.25715535557641611,-0.22790899185987285,0.038998889696162282,0.23663296987106816,-0.14308916558783169,-0.48637915155782196,-0.756027801172737,-0.4231168575976002,-0.616123920648493,-0.55011645338783666,0.38054962650061247,0.33398817948053006,-0.20537336213919644,-0.65714224479662375,0.28655870670925576,-0.131305339166177,-0.60377846907488608,-0.49980209328820485,-0.57713322809143719,-0.055124556735833136,-0.10694702728956157,0.082285565157305771,-0.29834045176700369,0.18495708857458937,-0.86931558930001229,0.044555351845868119,0.33741153926194534,-0.36696668703585811,-0.027280945802890658,-0.71310210495757065,-0.17700459689791978,-0.23648955795053758,-0.95321348399307693,0.35714923759264006,-0.053806251045536657,-0.66080924766898774,-0.34029497381972029,0.35964069009146388,0.12846800801926298,0.53125251735302459,-0.67897956363156553,-0.31615989194487776,-0.17297741152643673,0.09260345681369879,-0.5032061721475013,-0.34727627752961204,-0.71114576135024521,-0.15179565073716417,-0.34084562132684754,-0.35647623030041253,0.01915005478138998,0.32173982425489817,-0.429625357184211,0.726228277045008,-0.61572361814640775,0.5755166365764931,-0.077193320491885722,-0.013748695005786205,0.034889369890109968,0.37627035111922219,0.1233409865330459,-0.49067387330051743,0.5722151359999279,-0.54694246680180936,0.085786591419578562,0.34710714358463396,-0.034567303287291025,0.42374067668946142,-0.36717671394879869,-0.12084402582930046,-0.088358619337419217,0.32528616174158004,0.26805609913621004,0.13779625342129015,-0.700908698386073,-0.13508134925131546,0.082086861536254732,0.17437641359051759,0.24574725707071571,-0.33332831037853561,0.069071872834752,-0.026430857788907643,0.34487126592296258,0.26095307738494544,-0.23630952929887633,-0.00059177431237003087,-1.0797154907182214,-0.09140248712252122,-0.041801450400699193,0.7575943541405914,0.097080285277636055,0.3676657686620915,-0.12373929871591891,-0.2155956465845294,-0.11015550267884808,-0.82420816646222383,0.029838348208208961,-0.47036686567213892,-0.12656235742002461,0.23279381674274988,0.30484159574361092,-0.36756211899200192,0.16389116747837129,-0.49332867135703745,-0.018331002416629039,0.4715039899998793,0.18207012895392305,0.56198285458876918,-0.22863135984185584,0.696596574851705,0.21294500063563038,-0.28233196619439832,0.040820850170992552,0.513808815704319,-0.0964812278327067,0.19051273751184106,-0.25244628347799219,-0.37841044562815873,0.30302606859736864,0.0914051045948952,-0.58964630197973733,-0.1778147237111464,0.0406196505479722,-0.34597162120748431,0.34738591453446016,-0.22098630883214365,-0.024747846316643174,0.0061728699150524063,0.10040279696229731,0.40194800347867288,-0.003575948547945977,-0.28834348776545082,0.29912976513029355,-0.13336509507064998],[0.21052824254003005,-0.18899270538592997,0.14455614618145354,0.14084354955304876,-0.60857722936734282,-0.600033169892992,-0.018714858712553923,0.18881184504856804,-0.35112699123986241,-0.36212641100034065,-0.22765013083131833,0.30122211055154535,-0.46367899618959235,0.650990948774773,0.42696575650590929,0.15918233943090809,0.19931433887027683,-0.35840965944156478,0.22006058182151039,-0.052765909619524362,0.1568961599013684,0.048130796450696969,0.063074683738454415,-0.23493040782023142,-0.16509571094071238,0.23980973475483533,-0.54190341124013075,0.099449346792453056,-0.65545792224398347,-0.63658792885152271,-0.066526202872481149,-0.45122605981326469,-0.14302728799626324,0.2638168372647523,0.057448888867731487,-0.1172435733146197,0.079697210523645159,0.064212889526039055,0.95060904198242269,-0.50461048626379379,-0.099536651270237461,0.37716482147537472,-0.48830112637836343,0.32570764969565097,-0.18765898014018664,-0.0989389269123718,-0.23700603718599125,0.47210762344189211,0.15958930715496467,-0.21271512594605826,-0.07642568452494175,-0.34313738561029433,0.16614685014383793,0.38126381229680917,-0.13410741516469166,0.058665441927575321,0.20068503307397681,-0.5113872002251777,0.2208394016044648,-0.22257155625837524,-0.19507050095377754,0.14569977437823495,0.31387048691946356,0.38363148989450008,0.16304800235066558,-0.44763829777399494,0.021775669772358269,0.074443450472851863,0.40615584438325159,-0.48500429673940826,0.1073515697050985,-0.31845881251922276,-0.38587697188627412,0.12930683453874375,0.26091244755733278,0.54795654920427406,-0.457014893686976,-0.19836577090679622,0.18322155007122329,-0.2026001574534646,0.55203085095268389,0.13965885758903204,0.39418918084810217,-0.33230406003934693,-0.30929301194451636,0.36678569169079256,0.35860332222141389,0.20840620884739125,-0.30524294314614075,-0.14949931895650959,-0.21084742501931822,-0.22036523933614655,-0.89663419204709416,-0.32143443953927781,0.14098952950620078,0.065358613107695737,-0.14931392338771599,0.23210503916089106,0.11102193024280356,0.40631898691604712,0.30342084085782539,0.16302730272863544,0.073629308213691375,0.09791507576063252,-0.41462415113576662,0.48252797022033983,-0.0978005941839045,-0.59396416458937162,-0.0650985059575155,-0.17893075309788659,0.42335253245968563,0.19379125660715738,0.14949178964234083,0.25460804566360218,-0.622826930139656,0.640670348835527,-0.0949905969837488,-0.027938986208876606,0.017719026782800962,-0.55293525113723607,1.0605357407200178,-0.58087401528172733,-0.21604946713824097,0.34627325143440518,0.70858666630803668,-0.43862438337276966,-0.18643399279122527,0.3275977898324236,0.089516839211614962,-0.088052701824601273,-0.11465876163805691,0.80731693707297814,0.088589385550440616,0.45132506273923961,-0.48860614536282293,0.56864188617830014,0.18481656524512033,-0.30890990600655088,0.19637987366080215,-0.61898516479935184,0.1719998631014194,0.49645821532507495,0.16047354099787933,1.0218801993709226,0.17155961910175577,-0.14555146965008234,-0.77014697755553141,-0.5718259529209212,0.559651272878559,0.47975486271623674,-0.025824554339106975,-0.2143474709916397,0.54411092177254572,-0.060882155186341436,-0.32932267532882609,0.21414403327058412,0.25872168343532864,0.26903377532285133,-0.070834466456021872,-0.4993450292800064,0.095870872955167677,0.35059806688048256,-0.033026806801677765,0.10174788971024248,0.11070258156444179,-0.085776419707396689,0.012960706488467675,0.063054863700393288,-0.14505048205022242,0.03213970331810146,0.25143952485340915,0.66320859339721783,0.58341230500389918,0.10057191400317687,0.43169323146520849,0.41636888663819854,0.011003999149741529,-0.28732240493897765,-0.19953320366308575,0.52570193229992457,0.28522527459952729,0.1589326731936665,-0.25067925467408841,-0.19615962985550398,0.36251305639147258,-0.26472274373257387,-0.26230146304117735,-0.032566380419725142,-0.38738016444155743,-0.22248800620014525,-0.85004470330145343,0.37810574553863124,0.29745148273820865,-0.5368321680138527,0.18409509673855279,0.29393778288233641,0.042401568294186259,-0.54376041138769782,-0.31075410383941876,0.30354740764885918],[-0.10734643503840934,-1.0379194531597233,0.61788189493223344,0.0073863360820841948,-0.27037361945790211,0.84012512415757867,-0.2773774608818283,0.21388713526579939,-0.49211460949243518,-0.4346886307487976,0.44271832350274976,-0.52406939835538635,0.40538746079255544,-0.38818343404593852,-0.48150379996639081,0.54060553793829924,0.70414122373458887,-0.56928663205333452,0.24949402306121846,-0.716295333928272,0.511300657531477,-0.28996725715584937,-0.13249896595011199,0.51047485703119377,-0.21737439174157971,0.038514945764895454,0.014832924515275932,0.294277603788481,0.19120880217159028,0.7831342577985192,-0.48742445884235724,-0.071151649562230634,-0.14389384193451033,0.40141926502386149,0.81080226640252862,0.49075475706816529,0.061089707066743153,0.16341425920836153,-0.4589688141460766,0.1393746456210998,-0.30803811219851485,0.56352914236846163,-0.0730738152043677,-0.1189862587426096,-0.46947223298038276,0.50737758277864187,0.10979756922578829,0.75849885501369374,-0.37623143979467832,-0.29273922471080693,-0.1882625263873571,-0.46537993643772158,-0.69229971841607807,-0.29488432537475578,0.19319806255644414,-0.27016040808342989,0.10891071111062262,0.54319558551317726,0.18293862187490778,-0.16356196726986014,-0.35415421243713058,-0.27434419545736971,0.60160272235615175,-0.15919658832493744,-0.54827551236870342,-0.69611397144705156,0.3765425542039732,0.23962978084019529,0.43266280935162776,0.036418839239869633,-0.41376101293213935,0.285838846906219,-0.0715344965293209,-0.45701866416739717,0.22613050298624174,-0.30911859132153396,-0.34770435906006253,0.39562012907997496,0.35179806892869897,-0.0977874155591631,0.03598758409573731,0.405499550384169,-0.35312640857882605,-0.65559073313045624,-0.70559073405423889,-0.15222723917887185,-0.62935364427169327,-0.11253045977188032,-0.0796743440570619,-0.022944900406752795,-0.033378212221409694,0.26691275532554021,-0.384855511502732,0.012840077522176432,0.45968468869420653,0.12508891828181365,0.23493188038423288,0.54802781118208732,-0.70599381123141358,0.29056804184071688,-0.47073217981344684,-0.27678645545544739,-0.61621366847137082,0.016455795842476376,-0.2238098992490902,0.520730025052098,0.54962527192408517,0.015046168758922791,0.1382702156153918,-0.068091008856219382,-0.58490828208922419,-0.096992660771083969,-0.0084249548522602122,0.026958464729298498,0.093323647163707724,0.2020185941219815,-0.10997392333680814,-0.14988859128141885,-0.54330502823863513,0.7640632628766264,0.13594123448073758,-0.47922421629711526,0.059185688065562243,0.047676773657615523,0.51174404511864424,-0.20271725580101316,0.027362388743088911,-0.13948856152016564,0.61977069254716455,-0.1385544637281409,-0.029392065081433941,0.07631112083067508,-0.1016982408520621,0.35056041418656908,-0.6123789178870318,0.031614858915419153,-0.4981657701232251,-0.17057957009730768,0.082071048643463262,-0.085496321780035869,0.077249290545208169,-0.30490385936073516,-0.41317535288052204,0.19045695539626337,-0.35966107869700276,-0.0092926091599441017,0.38170927068408295,0.0058800934362882419,-0.024909650301237131,0.38364841613622641,0.63111385364650963,-0.20422848412084693,0.19314630519406975,-0.60913233160397828,-0.17320850679352468,0.32249897967658869,0.15017318285611706,0.30754261065429245,0.44052482602925536,-0.5994878428260515,0.49175215764179814,-0.15845939164752138,0.70869832356542217,-0.067695771519894823,0.057517811378533332,0.76686688366450073,0.047553490880715671,0.37641142196481886,0.42420707374572386,-0.21541988138946777,-0.089120793351327138,0.38822131920237274,0.66576027130646376,-0.2142074461741435,0.08728214534557395,0.3449174389527635,0.0187592306118166,0.2549587774359971,-0.223217276708659,0.66670287372281745,-0.28459476977032228,0.11580954938042951,-0.30739591077100592,-0.17555404563138266,0.25481085007329934,-0.44000835942019723,0.45342184063193558,-0.093233162617888818,0.00898325968892417,-0.5725811171908135,0.15182754571690046,0.094054230952063458,0.39248819697739734,0.050386795149955158,-0.36758990782583234,-0.10611291494372256,-0.15055610464728358,0.5127746815172104,0.27997175001125385,-0.24173555741288619],[0.02330571334063836,0.14805816001122729,0.10558209499065945,-0.0761626000059573,-0.7536485710481623,0.32601227178073122,0.08738061164539887,-0.37278171219194572,-0.15284140233997595,-0.13163763796986047,-0.40041695778007336,0.938273584082298,-0.098905491740953325,0.0067455421724361151,-0.34350343497094965,0.17698813188314505,-0.15835090191384768,0.095901152384184007,-0.0048344264078477965,0.44981616891871357,-0.2872755944440073,0.14632070136417541,-0.38535511124674982,0.56143125027026386,0.37060920393593844,0.047743734718657983,0.39377963405541205,-1.1695866870419795,-0.19381731307670061,-0.55357079786903363,-0.11197694860084216,0.50161523994047386,-0.51068356897102674,-0.50789278178044917,0.2582761552891526,-0.1899023370224367,0.17828310111879606,0.37789536923398842,-0.10062819203274749,0.15812131474316055,-0.16390151921099874,0.046400236894913884,-0.085448945408190161,0.46328386115785525,0.3371957222385395,-0.2663109799311183,0.004282409237300654,-0.40560953057919275,-0.40413815968278577,-0.3406959558365269,0.14276229181096142,-0.35257992259804988,0.59689236751183927,-0.52324012070000858,0.28591935646458189,-0.14310401617668242,-0.067377425619964917,0.0850210450830583,-0.77345972804354524,0.071095367565932779,0.080747651058738365,0.53038681510810548,-0.66338929338375019,-0.15893445819734628,0.060717139262974548,0.27172498507013942,0.072960233979364769,0.34013866185690828,-0.095932754764509992,-0.18896772004006915,0.13413157399874823,-0.55981213944753982,0.29062186822771285,0.4278664648246413,-0.35642122537525733,0.0080879524243169191,0.031346184384555519,0.23842519366665355,0.11642554592431227,0.36551618999162688,-0.11973886840518572,-0.49883418490420289,-0.50048965190115058,0.35040995787851537,-0.29613384765958195,0.13139555243186404,0.76312831191083208,-0.15754382335226727,0.097702941319108588,-0.0596458254878549,-0.47812248142275404,0.56343312337797624,-0.16675733474657994,0.22600239144358889,0.048326187051717893,-0.47041338394945165,-0.18972677574904551,0.27761988611254956,-0.36993034761557458,-0.59103989720894734,-0.21963011904939295,-0.12178362948355159,0.4344704241692206,0.75803668682718817,0.59915774428616919,0.016997813073298635,0.056341375202925717,-0.023049894972532285,0.15986682282333634,0.083187804652994149,-0.019308577073047,0.40194698395206174,-0.6188171896959046,-0.15760539150587788,-0.1298656533685025,-0.12541435390483893,0.40416852271230597,-0.16921801592391239,0.038722994449247823,-0.42642774903107472,-0.054831590479639473,-0.057148817460703022,-0.12597695638284595,-0.46305349769818016,-0.24296714993950702,0.24341538683037223,-0.39527217549078519,-0.010716445539011011,-0.57504200314701759,-0.45752053562314754,0.050332751859227337,0.0717087550191366,0.36255128084738092,0.19217976055479358,0.3459541715781615,0.038183641560886661,-0.53499412853774753,-0.68583037875469222,0.043455627089170425,0.64183161393580168,-0.19937112833975898,-0.043417032860229729,-0.084004145912230627,0.41339476804181019,-0.19812341284978235,0.051297637372905991,0.067361545641237738,-0.41123873345419754,-0.15746230152980076,0.26399970002075351,-0.42008731859347637,0.34217401456760282,-0.19476244529615688,0.43355713068553159,-0.0010882452007870353,-0.39323001288094267,0.047300350733023,-0.26332979038206078,0.035081726600599758,0.15696342055822118,-0.011815003080987317,-0.54861340771162581,-0.24369394920343332,-0.26844691815219823,-0.5915557443801942,-0.0791556026359994,-0.40823181265884456,0.0049603239012083579,0.093751343066327833,0.23254312625027074,0.21969111266366803,-0.070750929324208345,-0.57046197830762113,0.055966509439980154,0.24112456266284216,-0.21819361701816198,-0.2604557206765219,-0.22569897539223705,-0.81267443014109653,-0.21275296572310451,-0.16732454025036264,-0.8597412912634731,0.61906069487626947,0.29689011312161334,-0.19438045557290537,0.36974732606851024,-0.0782902260303826,0.13474187924667908,-0.20773042128519242,0.17126759395087587,-0.069100019045273034,-0.11350818321703245,-0.0021907791856144729,0.11758207482449277,0.36011589169815017,0.47075511079137189,-0.25304281618142554,-0.23873451852346034,-0.051935808614791558,0.0738038319031552],[0.090103189160111924,-0.0414102216721819,0.057025016990038771,0.16456588508033271,-0.29196860134999153,0.13916954826447878,-0.1486686264331949,0.37141583762743552,-0.083193093508128937,-0.28006881349326485,-0.10998365181822627,0.51076009961427782,0.3840899733371127,-0.070006933612790243,0.045047595132023728,-0.35861110895657661,-0.56513651109143959,-0.37649059934116436,0.26438612317355792,0.6988143163723789,-0.16973002212207583,-0.19926869988320092,-0.27018772340967384,-0.19515295595219021,-0.53251644110929452,0.29480628452375407,-0.15842903269696784,-0.5481221285597454,-0.64627138330874823,-0.44886894192709714,-0.14965581138196807,0.049193543835613626,0.18433485308370096,0.65416634762921722,0.21785558183041728,0.10479937555285486,0.17372746157242766,-0.032334471965507892,0.49621641050629262,-0.12018663433149752,-0.33734281200927158,-0.78818231195120514,-0.884583901349539,-0.10825751656605173,-0.23593635348919051,-0.50880118439835575,0.57268395326530686,0.21126203638754973,-0.9603327700043669,0.3691239303570194,0.33200357582422907,-0.048113918853020521,0.0079259597458232675,-0.099215781580532986,0.63515487841218643,0.46282664935060963,0.6944587281980058,-0.55072576007431207,-0.047930508880355757,0.36501532851592583,-0.75611637858060632,-0.26630016784385235,-0.29562845500366369,0.47670415521066095,0.49630615720604454,0.28899186165487462,-0.20103690393103182,0.54086272912043587,-0.44017772746121109,1.0618361667300904,0.19832503415989594,-0.19316038120764917,-0.32763908297587546,0.30194922290805654,0.5853754038364356,0.28372187337181953,-0.037116122425380947,-0.17351020564294867,-0.32703670666538753,0.093638899392111855,0.38068185716519515,0.33357377051673959,0.15062092823353249,0.0017838866674536858,0.34961007326658206,-0.26194239731413238,-0.069336058328332145,-0.70497033492655747,0.039659803468137522,0.22329637386335866,0.69329113180458823,-0.022193883025118714,0.24765124707801525,-0.54183810569286084,-0.095572386925501629,0.30209145152658207,0.391817023759526,-0.11823200766820859,0.2992675220477567,0.0048460494100116677,0.48149334894848617,0.32883572942475808,0.14705324404808545,-0.012612923316542433,-0.13193746819436744,0.30627257987726053,-0.50756325458094875,-0.30015626301250614,0.7644907965337725,0.35146506710603964,-0.44357566018432903,-0.03243904677015972,0.0064026125517746141,1.0785852714551281,0.034178670905246962,0.27509332822659238,0.20476169831482546,-0.52807078853290634,0.38332148538584371,-0.4930342695064483,-0.33053118662699132,-0.37519896257565882,0.12294119359847155,0.810558358422116,0.043769710433036034,-0.046031836552989251,0.028441962762419597,0.931254673854961,0.085177746056106035,0.092286802076724669,0.052392594149409791,0.24011385881876526,0.38124719548398173,0.03669135630068969,0.054554661157831148,0.090201190721829957,-0.38024031030950328,-0.46213243238452656,0.42236401764496234,0.17969718198622109,0.087083436823429033,-0.015141679224207042,0.024609749852366872,-0.41304063660260859,0.3211948886627054,0.16808159818988849,-0.14030326959885209,-0.17558395198842453,-0.49356027729769897,0.40275857837177492,-0.14292315844050679,-0.1331185768915,-0.074217169811880979,-0.43764895839453138,0.10040499491304901,-0.14722304307078943,0.14853511782512485,0.48361487390106417,0.187797399566408,0.48620390345340914,0.43561338046861375,0.3577856547545889,-0.521607853530576,0.083177360135008968,-0.087774184201356048,-0.93442483800647047,0.062325417186273636,-0.44885844831020755,0.10703584143059876,0.14235702868738648,0.48120170741688673,-0.0083723214808605791,0.15403459461587762,-0.38101531710777903,0.3785047017420427,-0.49510074749071264,0.846653177607724,-0.052838209044681221,0.31223404579118125,-0.22617774229551943,-0.010441703536736631,-0.32595768061714681,-0.23196431685243324,0.11923292187386708,-0.20270922168691602,-0.12505668568050959,-0.36465454116403595,-0.59923771495159728,0.1016545189801235,0.20431030616245746,-0.812498994752011,-0.13452029203980784,-0.10368809621245026,0.13950004751074963,-0.01831697999429812,-0.34599105947574016,0.25884365652587094,0.35140349289175793,0.17921763991331863,0.2009591811767743],[-0.14769402269770662,-0.59870213089410251,-0.0096295886923225219,0.16510379752043361,-0.037393269779805019,0.27822495715702628,-0.52468841204116767,-0.090538285241648891,0.52582872097178179,0.75096649349193956,0.51907361092949156,-0.75949849963126526,-0.041373726473525746,0.37118368031711946,0.40699414978060533,-0.43782729629756439,0.1949097010129773,0.45584205101220593,0.33888656372974407,0.553637075359046,0.33680428088140651,-0.070789365344797558,-0.23602298467713326,0.46881970878498724,-0.26993085912876635,-0.3015279767227082,0.47531262508124184,0.30172325699881908,0.10549155417843223,0.15914171888302353,-0.1194429345919247,-0.066175183548081787,-0.18788662779315629,0.39236066493333921,0.42459501881281564,0.21785490636344837,-0.09669698193403406,-0.56093253901015772,-0.40246418117290977,0.52231204828048949,-0.27350678339977591,0.43364247715335258,0.7272566312905735,0.032684955902835655,-0.11648234183995385,0.51262767971447354,0.53480718308696729,0.19166442017505606,0.37580378694369826,0.11079921508481067,0.69464211747747484,-0.0093365884074594115,0.32432119429806211,0.1571259071364,0.83788226838045254,0.27047759366695889,0.53954900977773657,-0.3307883592235823,0.4555995303802558,-0.51832086014029277,0.14556701010424863,0.72112536612295353,0.35693028706566343,0.045584478481968067,0.018479592088027352,0.14639413954193978,-0.35360119341995189,0.77519940832551149,0.29118766477000696,0.2414376694859755,-0.43815421791315562,0.16431579466579516,0.58061592503751469,0.68647709752666575,0.11910301100243657,0.37014975086630436,-0.42164321998417237,-0.44929822441694217,-0.16213928263090566,0.6348628172106614,0.33836951009628013,-0.24302086142382259,0.32104540438383722,-0.04710332430762168,-0.083597328106460714,-0.4737451517703456,-0.35086530703214119,0.1324580294197672,-0.33437418384050394,-0.020265393355013258,-0.23860494477538802,-0.26378839355389061,-0.24201108860039503,-0.57236874308902252,0.16280002308176736,-0.0555211465341966,-0.028489045345826424,0.288435694177359,0.084070107784809278,1.0977905945637028,-0.37177630542368656,0.2658297048191316,-0.0996581144493118,-0.04234427441122289,0.0965408037450526,0.13368648112540843,0.040589021600288058,-0.43703022208075182,0.11978322124743975,-0.761928521377778,0.17639320418598317,-0.10464437773890288,-0.28824339831675116,-0.36541799022838434,-0.5168178536500182,0.19718246527313982,0.0078795377498728676,0.11493722585295188,-0.15228483797036055,0.41985055236251539,-0.016919195067908729,-0.15237164488062041,-0.00051249638656970765,0.604814593427834,0.55308226273721206,-0.56727248324065638,-0.48078044865186914,-0.18656496034390913,-0.027245577169404567,0.15898417141535667,-0.31709369187402481,-0.51136020598662424,-0.38438404469074489,-0.54158032266310707,-0.0095363472491889235,-0.12609845326248459,0.48934883496906711,-0.13669002072807887,0.14673031200740541,-0.31879729382069483,0.51083281719685991,-0.12179648582132779,0.39987687462530919,0.13576403225764105,-0.52348667251227343,-0.079422879890024972,-0.0075198956756088254,0.031201541128313363,-0.039383975745026334,-0.381855012457184,-0.037629142173536752,0.039209721543101018,-0.0026093683128461786,0.044715288735717888,-0.36731030967441458,-0.095392027202134411,0.20456679547150231,-0.065417888528804286,0.44852572161570003,-1.0106919424194265,0.070500574101374835,0.16428817349179292,0.17339138528850925,0.11084342786095598,0.5561943714129608,0.01425031638334468,-0.035507388013677824,0.15145447567798911,0.20551854094773006,-0.016945702500509013,-0.32509214611349796,-0.29142117180550037,0.061569722549784073,-0.28211568150574645,0.35992134669599063,0.32357451850463792,0.0024409140915187615,-0.034155700603165466,-0.60458157746869579,-0.018975745187100077,0.010205630895569827,0.573495685951864,0.2413599090083498,-0.61073202475877653,-0.0037021489378552585,-0.35607393313139496,0.25711363261375941,0.66061829698273633,-0.13209304175082676,0.13783765456862104,0.024036003232852897,-0.632562638367096,0.9030327636493749,-0.40964560248425075,0.075660485393630558,0.0058648226367158844,-0.66362446096958472,0.35529625630967659,-0.17802716767918911,0.35982553817548629],[-0.69607822379817752,-0.819699811787764,-0.18610926156822449,-0.44809099180519441,0.52915855457658434,-0.033204874301455987,0.51463573878799218,-0.019184826373854116,-0.31868898366305659,0.44207918158942733,0.27527239489999578,-0.398847770737036,-0.46522402260309459,-0.027407363159490005,0.50755732724674207,0.6601802857341591,0.33362581559351384,0.27847832368434056,0.11068175308749693,0.31999161330703324,0.2036787566998941,0.35043774940132155,0.17379001319887541,-0.91728801084216172,-1.0386344717855816,0.16025505752108779,-0.16631456039537451,-0.56521160567878959,0.061714942004245876,-0.40741065750721867,0.24614218132496987,-0.30366313468004968,-0.013055839439152429,0.70596125813647348,-1.1249050240230643,-0.10714725912406944,0.12367994543550222,-0.25982083801608996,-0.36854874668641135,-0.58206961369063659,-0.24552596065366381,-0.098470489677413842,-0.2979586455362675,0.274980480204944,0.093977215424854349,0.21351703474473166,0.050045958746329562,0.22586014419889311,0.49326154255645793,0.067530215398991,-0.35149012406827168,-0.57483027890697858,-1.2357560347915442,-0.32467211165931881,-0.22243497639937482,0.074838669128641844,-0.49593317976122953,-0.07929980259454239,0.48004123195780263,-0.061142255211335719,1.0606559361388783,0.14028966634555831,0.16399130416436245,0.17911228662793616,-0.29350264551469041,0.11566538374838688,0.43287809980456721,0.47130368341339174,-0.58107013243044581,0.47537215269554911,0.17098644129166563,0.023608933995896926,-0.294961557665119,-0.10864082676771653,0.34447322120330753,0.339891327531186,0.25081550944008146,0.26370948595629984,0.1204431791281228,0.14208322760550976,-0.045655247535217658,-0.39251443707901212,0.2750982409769131,0.43534262115468025,0.14201535722029279,0.096050587261067452,-0.5560737633056656,0.14286875655830625,0.0082623522180760838,0.51116545219104936,-0.47086342539742115,0.36228211329252419,0.35429743636563865,-0.38345695132741631,0.87423127436828418,-0.29914222319750439,-0.21041084282835082,-0.097982475325600032,-0.1316070160328135,-0.10481008034367088,0.28580585266475861,-0.16691619554630027,0.30961300007340881,-0.11526077468299978,0.012083998667197898,0.069639546461790963,0.057511003102566675,0.39733986980781966,0.12431630073330703,-0.20581150420150654,0.019101245691403479,-0.16996152932504044,0.13671096614729608,0.022878431220996687,0.026268089726855327,-0.06257034738498056,-0.91406608483124985,0.24367180685920095,0.043379909837061061,-0.41649637684570878,0.32345069564912127,0.14565889634972626,0.034408247922643687,0.0018821945999856725,-0.057117549686642566,0.27486722225294946,-0.39245440043795154,-0.85996118816498568,-0.50024060368359291,0.48835708358010227,0.022022006226684203,0.11097263544382136,0.06474280497095572,0.10619054665992855,-0.02174115831815018,-0.32267886201432677,0.12142412514075025,-0.073505569678608454,0.31329278727886783,-0.58097662556556062,-0.095558414753771581,-0.32579135078158961,-0.41338363807494116,-0.20943593891618309,-0.01541619349322099,-0.31606789843068317,0.40598928143046464,-0.21114261123332304,0.58779506816073568,0.29730968914772615,0.015783451626992007,0.12046130037192829,-0.39182972985138836,-0.26667941174922771,-0.28316833987228374,0.14335069214004928,-0.33393304056397183,0.13712387777730586,-0.0076122519017085451,-0.55828135244360477,0.232768082859838,-0.073564978032830824,-0.05124337083227546,-0.10221835334161547,-0.091622253971445342,-0.2923856104718307,0.35162913980817373,-0.43623392910846842,0.27776652081695952,-0.1864888983620786,0.36133379060482729,0.27484805714028226,0.31517171863789972,0.022509879991021411,-0.13556578493420296,-0.16277345447926778,-0.0871501668402598,0.30441127558166625,0.61095271475739166,0.6067148445839996,0.37167770452583565,-0.0068223321262443409,0.058064478921111627,0.060168811965446919,0.37680092711456104,0.4110213253204219,-0.021146750062138051,0.24505891112283557,-0.57287858127635793,-0.3390014082004868,-0.17268977404139513,0.059286834274158387,-0.42469289685246447,-0.46827046045863546,0.17955541688836915,-0.0678267745905501,-0.12772581404537192,-0.35257220311266463,0.22929808619910105,0.41559161515109949]],"ActivatorType":1,"GradientAdjustmentParameters":{"LearningRate":0.1,"Type":0},"Type":0},{"Bias":[0.0,0.0,0.0,0.0,0.0,0.0,0.0,0.0,0.0,0.0,0.0,0.0,0.0,0.0,0.0,0.0,0.0,0.0,0.0,0.0,0.0,0.0,0.0,0.0,0.0,0.0,0.0,0.0,0.0,0.0,0.0,0.0,0.0,0.0,0.0,0.0,0.0,0.0,0.0,0.0,0.0,0.0,0.0,0.0,0.0,0.0,0.0,0.0,0.0,0.0,0.0,0.0,0.0,0.0,0.0,0.0,0.0,0.0,0.0,0.0,0.0,0.0,0.0,0.0,0.0,0.0,0.0,0.0,0.0,0.0,0.0,0.0,0.0,0.0,0.0,0.0,0.0,0.0,0.0,0.0,0.0,0.0,0.0,0.0,0.0,0.0,0.0,0.0,0.0,0.0,0.0,0.0,0.0,0.0,0.0,0.0,0.0,0.0,0.0,0.0,0.0,0.0,0.0,0.0,0.0,0.0,0.0,0.0,0.0,0.0,0.0,0.0,0.0,0.0,0.0,0.0,0.0,0.0,0.0,0.0,0.0,0.0,0.0,0.0,0.0,0.0,0.0,0.0,0.0,0.0],"Weights":[[-0.026363714736236055,0.022753228472190287,-0.057616998905673178,-0.0539754233431927,0.00015573572832259903,-0.026546292646205713,-0.010056663227315686,-0.10230028758672859,-0.099232717672718879,-0.049487978636585862,-0.00042995997809719633,0.00035324009323563129,0.12517297374093894,0.078822566555704437,-0.029042002532180412,-0.033682480982820791,0.026619786846046822,-0.075659246763926324,0.10848733445449892,0.041948262309758441,0.0048168074319259475,0.061726369874577046,0.11905091668844571,0.066229635471381623,-0.12373408693475874,-0.026496226540356695,-0.020467715541564461,0.025115908021408083,0.023744011159422269,-0.00948477038786055,-0.017627015460713002,-0.078130814083424344,0.01156440652073364,-0.040100222784617952,0.046293796818524968,0.021866202066068995,-0.050860056522255323,-0.07454788238560793,-0.10595608088135329,0.058704414931772933,0.081361766743990468,-0.038112849228028392,0.012024305184039122,0.11525075930249976,-0.075958262460539064,-0.045289992916610053,0.016665593906341418,-0.046403153641016957,0.0161442487531375,0.11333942834650868,-0.045143146509577445,-0.071498706052979283,0.0329865176999068,0.02129676781974332,-0.010047773125712181,0.020352333941612035,-0.072678847839041563,-0.018030532957711922,0.025430340608661891,-0.0033149817250907074,-0.014070603836236298,-0.15520222975877274,0.067219674638294716,0.13516357042409949,-0.075042644892797411,-0.0071723240146359269,0.036523835912968053,0.062198444305926512,-0.020222413226243782,0.072320134696617008,0.036756876630319707,-0.080899442297580088,0.074218930132918068,-0.041375373442927174,0.097263621412371978,-0.096812133856330251,0.068182402173871712,-0.024527648169451292,-0.13803384767583526,0.024462332762989765,0.080521634713305937,-0.008309613730753649,-0.015396378939851487,0.058806762274982965,-0.078853009437230212,-0.0094351550568023447,-0.041641294358399326,-0.083569913159916229,-0.2697206854406673,0.030785427316927339,-0.030715276511587074,0.076551047575306314,-0.00049080148372910291,0.024811225615273005,0.041659452479652012,-0.10400838334403362,-0.0028132706917436885,-0.041579104525875113,-0.11285121313461487,0.040824885951824895,-0.061304421056748368,-0.015809437975884962,-0.089416516740289151,-0.0440904284585093,-0.1375268418376023,-0.043904686802322783,-0.011803302159554916,0.0334366028092752,0.0076845110522477094,0.028707376249150856,0.11742582448602923,-0.03780843842083103,-0.056575112288568812,-0.035019997228420661,0.1380121258443561,0.0703539651494965,-0.068025826753937049,0.1266541127840759,0.064122755534350859,-0.043429710322873252,-0.046783426396140353,-0.065652591407403843,0.076210446313767152,0.00610212854586887,0.1229886114117494,0.023495292256955621,0.019993795662332333,0.059805308007431092,-0.01981982724158168,0.05842428428242339],[0.04034452411572504,0.039500858585300322,0.016082678949845049,-0.0065059563595752795,-0.080187364936494809,-0.012039793559382225,0.0061661348286988571,0.11434582267448533,0.031621179274692421,0.099433903625922776,0.056189896032570304,-0.00927075386016593,0.065019153998672377,-0.02379301582604838,-0.067040383339779019,0.0776596138296074,-0.00902866790408087,0.10474955956902611,0.094943438804292207,0.02009711340598714,-0.18191938458490251,-0.080931056522710335,0.045305035508877545,-0.0017625435018196894,-0.011093179418732956,-0.046488032440077494,0.063575578342381422,0.081615311654834322,-0.063634848375408615,0.03180406030698181,-0.1131730807538842,-0.094675449651138111,0.14131230401933781,0.0588772677587492,-0.10830266636502185,-0.12557012908017923,-0.066168859642539823,0.080703267008719021,0.10618427590763636,0.079866126245630151,-0.058103425735468041,0.017160190011897371,0.086452554503558529,-0.19894156804434615,-0.035302282487548575,0.043986951208628805,-0.22198233066358855,-0.11751510662608768,0.03190256594890295,0.010597845956834356,0.072308414116765321,-0.067955538945100216,0.10344820335533522,-0.030756458213423446,-0.024422215372623648,0.00333929945891137,-0.035206675010314131,-0.0053844585213670033,-0.0004763151225999965,-0.07077828653958558,0.05614108119965916,0.048978654084201587,0.0062004765694717613,-0.05109581768083838,-0.013856040334887097,0.037307302673570047,-0.015241089262204969,-0.0344776991092175,-0.002678140439162798,-0.02719052186142332,-0.12484460595873655,0.063205980697309844,0.01388960232059392,-0.0773005612331528,0.0030187878648748356,0.0012438644032914431,-0.037806826950650747,0.051114683505809062,0.0587256370821441,0.12809358637045534,0.11861118104712479,0.095039798483726873,-0.057482781480475989,-0.02410392834427259,0.057177478641490906,-0.10796476196341617,0.037904844235917542,0.14745839184625298,-0.083729323414731216,0.08302527059020394,-0.065049540759810925,-0.072478813175058041,0.091346496847610148,-0.080058017674367848,0.034384146664676866,-0.094088213812278512,-0.12520812433894987,0.072163106565254057,0.049164163603135344,-0.059368664290353958,0.01091663455013255,0.03340760295835065,-0.022399576106114902,-0.0713819472041688,0.015894201101094806,0.129166359176678,0.13754423015900083,-0.0684866401237957,-0.027448689972536661,-0.153159625557996,-0.01410477995880507,-0.048705102614146067,-0.0045731225294883817,0.1666713276266,-0.05371974092945854,0.084802603662440079,0.044828268641962828,-0.061358948331980308,0.11548168339337826,0.060791116969475513,-0.037069688455152863,0.069688514931149748,0.036354440950576647,-0.14537679137912449,-0.069568003255849983,-0.016023661545471017,-0.14349255307636896,0.11992841226016196,0.0072891538522386178,-0.025979355617042392],[0.0433919597674412,-0.001417374538545699,-0.020445534609557312,-0.12280588051994215,-0.11025577512281379,-0.01248507870327246,0.058099075342314663,-0.023643106760553364,0.032209525339281175,0.032970772453759269,-0.11529562089926192,-0.0030914482008652412,-0.047806026388608161,0.063533762141722669,-0.1395030599302462,0.03976573961560001,0.058380291400508391,-0.11796619681572571,0.013486244425419118,-0.03183045648802621,0.0061877064729301068,0.055358144649397312,-0.027293642699050186,-0.013597908604272948,0.041727560923498885,-0.00090686416472404653,0.1136889459126192,-0.072006298680129283,0.0908355307743169,0.00056044398708819177,-0.14015307219511008,0.13376226743466194,-0.051916387811146873,0.052357029524844376,0.013466055564255286,0.052285673922857566,-0.16954908621989617,0.10618114650488376,-0.019349948941334422,0.042865002609785451,-0.051985943802382251,0.074548670296362557,-0.07833679537667057,0.034185454443550062,0.012781561170999342,0.018899414641268725,-0.022339456710146973,-0.046870916691937083,0.051553136399660977,0.031750701213487713,0.019085313394270123,-0.065930754732718533,-0.076130126209599372,0.074965703970139116,-0.05279041664935602,-0.0069258821988713061,0.026726828096894206,-0.025353399760914622,0.043092326255099553,-0.020722661800945081,-0.078163238295486076,0.13592730723741148,-0.055084432066725621,0.0074244951888785635,-0.0021066289217244695,-0.062273899034200081,-0.032115085791656985,-0.075585273107782666,0.04463152993032931,0.0046436528274735045,0.029211433809281474,0.020828961267709566,-0.0040687476401864734,0.14968539813246487,0.019599593966684349,-0.14171765919742752,0.018683758777221011,-0.067739030379550313,0.061527548971397068,0.0041711881849420731,-0.105000893239163,0.039281131902629926,0.14631827963298036,-0.092682719923609963,0.059108809273958875,-0.026373927198938059,0.072247527863528727,0.080454511765419817,0.0015756414879205874,0.11992920367846294,-0.066141150567331122,-0.042697103021958609,-0.039839448768779331,0.062553907127077465,-0.034775471805479692,-0.060248348355754267,-0.034048393635593338,-0.077330599798437719,0.073819301389866421,-0.020527324718799936,-0.17896934873406334,-0.0028807152824447,0.085352479692967526,0.10361044038784514,-0.039338762483939006,0.0865988822910062,-0.079604473757871316,0.041145987527145732,0.045405786113130335,-0.047588445907137761,-0.02613277192875112,-0.084937115828645729,0.03396681208724546,-0.04040667070179027,0.15285344359964129,0.050036734160701507,0.02628883261295805,0.043690383992572655,0.051413098961700696,-0.0974552058596729,-0.073755760239076887,0.018801592023008191,0.0064019688723491227,-0.021132179420815932,0.014903829342196305,-0.11206700990848545,0.091400288593936882,0.092782977707655839,0.13319597176039602,-0.0577212237147715],[-0.026513337221406738,0.098297184360512213,-0.10301184588145523,-0.029388246992187162,0.014305052222444513,-0.078966935246838829,-0.059064050010300254,-0.059362968674585952,-0.037740406752931291,0.10746602585318664,-0.030641126578274475,0.0403164743102088,-0.058816038730862316,0.030610991673137383,0.0757580032163315,0.053095772137114756,-0.081605895523225558,-0.027718543262325507,0.013944698881316926,0.075833690989541291,-0.170396087116362,-0.0668453845129208,0.035652052256559735,-0.021581259255875538,0.041328171167321862,0.035684607909202221,-0.01032602543299709,0.068678123525956383,-0.080501080974955549,-0.025972251209073129,-0.11356606417545549,-0.052230470344410633,0.0024168476384944619,-0.029553115817557589,0.036245307614286862,-0.041815714783127927,0.051195761441673288,0.00075436924808750785,0.0985265979135903,-0.028349729181495049,-0.16914581421054015,-0.032511701969394687,-0.015313664961862981,0.033815789713411877,0.034583658200007757,0.091690132163976382,0.02134385556167703,0.046649736636804065,0.098141072367210438,-0.0060722550904702766,0.036788287199659271,-0.063883054407238,0.11075169375162776,0.023649536776623976,-0.020665689939952738,0.088715622845788891,0.0042345048692167143,-0.077094696633710311,-0.041585126105631906,0.043613858903829676,-0.026671927099063644,0.036246403820712834,-0.056961961023125951,0.00051127154971179745,0.053584722625090418,0.011559260459273676,-0.12871802149992839,-0.12393183960959701,-0.073013770085521928,-0.014678622068207439,-0.16685613357395537,0.20242329253915464,-0.042571547224833341,0.0814263585687677,-0.081066175708355878,-0.040050947772303676,-0.074595446022096293,0.036371356490201123,0.044109117084086685,0.047714558509058071,0.082417918167241241,-0.05964902015596469,0.019901370085448136,0.078324828347413569,0.092939695014056745,0.026559477863110029,-0.12977076212206889,-0.17852667218302146,-0.025729871835127861,-0.085041982776924652,0.04914908767252818,0.054800848467062679,0.023181207734804837,-0.096467061967231371,-0.012209043656810791,-0.040081792833760593,0.025935598316104192,-0.043510660766080032,-0.035364499913435044,-0.089292704917501436,-0.024756950264146718,0.056601460875800272,-0.077078303906193066,-0.031094438567478531,-0.07561149466513703,-0.064811824764645351,0.095530857809764252,0.028006643566987705,0.02359890928179785,-0.021783812318375596,-0.030317340919252096,0.02016646893810008,-0.0855624395964488,0.065644080475061359,-0.035722381830651524,0.021329224942156028,0.081227061236794282,0.0562854515420747,-0.0013129763353145652,0.015058194160640099,-0.06228372842259193,0.057715575106538811,-0.069748238413329611,-0.058419768328113936,-0.053008091973440294,-0.077466560029998688,0.014284103084745287,0.10706037305768967,-0.0015269947283725726,0.065461991264712222],[0.065881334186590521,0.080519383786700177,0.09923171999751848,0.010568236894547433,-0.021317540954244103,0.0253406295584827,-0.047787031756844268,-0.041590503933866672,0.052834900571991292,0.05366555650692361,0.053847920300582733,0.011051229805969481,-0.052863440527214929,-0.031830615623343828,-0.096069550215762231,0.078375427161090833,-0.0063026327194027664,-0.097940418667706725,0.049492861111069028,0.01691235140100009,-0.090042210990945018,-0.010120928898632267,-0.03000889897447457,-0.058686371577882895,-0.013901089697288363,0.048937645314071826,0.019488609956295377,0.049510841318400889,0.056340165692104108,0.17546325093465523,-0.070088650697911148,-0.095689280679423727,0.15570272907165872,0.0065390787178295825,-0.050005811473661108,0.046477361878892377,0.051942279886460836,-0.046806582067320072,0.052979414042179408,-0.12499599101605614,-0.06177311177900139,0.14013337848041377,-0.019861196894200669,-0.067770316772835862,-0.0012652135076212342,0.031776826361846935,-0.035626521587475472,0.02385810593273649,0.039775110577346028,-0.015171205267347996,-0.060234228719001214,-0.031255084177334115,0.0092269050798029426,-0.079159010576903319,-0.14382585582125207,0.014140420720351722,-0.051347792760599295,-0.092823744656246737,0.036670661399074232,0.068335749267080428,-0.0823914583371616,-0.0842966669479122,0.058455612579486393,0.019846446896524244,0.018975044280145095,0.02573151449394178,-0.028638767833783354,-0.079049472107030241,-0.0019446701330710656,-0.024609046161578524,0.061525246088702377,0.044241724665063181,-0.08588930884256446,-0.039128480868453608,0.036657143982222452,-0.027453887263496408,-0.002282180241724,-0.0199802356527747,0.01598625578791189,0.068689272596667808,0.077334614020768938,-0.022650729606593461,0.0660334255577892,0.079035560098468946,0.023650235900333241,0.052264788091035984,0.12566768245364157,-0.0046905209410636039,0.040125118655305166,-0.049135179046806463,0.0015983488819156825,-0.046125271609558767,-0.061975497795641495,0.093568484389405737,-0.17447937524004778,-0.054813440075424193,-0.071920579613729024,-0.0897277151615375,-0.010101686360372239,-0.036487279547778778,-0.0789687039501685,-0.039082220794933925,0.017641367726460112,0.072649681325597446,0.015912417601132666,0.19058073366614531,0.043904978265714767,0.042445454479636359,0.0044568352348881247,0.081020417863524777,-0.053556222794676089,0.037034947979337235,0.060835926624663937,-0.048992344760338619,0.086651591407639422,0.035962166204360421,0.023164867702277443,0.017917874032589664,0.019198833526796008,-0.053018603486137746,-0.025854127586082128,0.011171720756484685,0.013060663511814966,-0.0046420069370077194,-0.049240307486558492,0.00039448577552588177,-0.0052167813441766032,-0.018702188885867155,0.039935268855038536,0.14740232902703115],[0.020961475615138205,0.068708729256177589,0.082990908808606087,-0.092011108324213442,-0.0093008121890588887,-0.05361776633072058,-0.012551088866484235,0.0098543563092420832,0.035238032753822666,-0.033903087080053088,-0.050352511692329079,-0.0018464637063408272,-0.050281592820745909,0.075361804066443785,-0.01257558930228557,0.069857783922988,-0.044819286332669239,0.021193369616759231,-0.067905262619205389,0.044998016742974968,-0.032631268235365662,-0.02246904702027526,0.025125017421583486,-0.0011525916581170042,0.016486747967214752,0.079591603047583143,-0.032976452172875828,-0.046674836552076833,0.013917790194466526,-0.0092765822985000339,0.049799556676128433,0.031860310499324328,-0.051790072121070625,-0.0040897192400909388,-0.030535165923989679,0.07365629481490453,-0.034471583110311982,0.07411827962410901,0.034238525889550064,-0.10264997353841905,0.013570829786909008,-0.1100183897816535,0.00033912616798870523,0.037043833607032957,0.036904312908673222,-0.047051343971110264,0.087018870068061471,0.094844714239024477,0.048338663976644644,-0.010116561851356017,-0.06062931430673385,-0.05521987413159278,-0.0051614606642512171,-0.0364425316088838,-0.00563008819814305,-0.018212285299109413,0.17709431916155549,-0.044192812646531514,-0.095670777891384354,0.063345734327606679,0.064360285675037585,0.023749790560418555,-0.020983784595347475,-0.055452973968789468,0.095253363049601816,0.098950325010553258,0.082780428184923233,-0.031115555397736822,0.14864684321830546,-0.047410259735143054,-0.0560069754221904,-0.042927183642263014,-0.043568900787003553,-0.055713067020261159,-0.03538789603453437,-0.0029463615081463473,0.065682356389181545,0.097498492943001322,0.040240393151595,-0.01798235291529161,0.051910838341599833,0.071552027447297689,0.025428913391272515,0.0019292657484494503,-0.0047555938401937876,0.012207748923348853,0.03710927904535704,-0.05758505360525383,0.036535105711893411,0.02934710791051115,-0.093628882930522281,0.0093357879454086749,0.0053112845701299739,-0.02024738143250833,-0.037590529260986008,0.0734144674843906,0.050077215746821807,0.0052730823433926191,0.11319730278958809,-0.064636290774046048,0.03457961986819913,-0.00096368699326005835,0.050568111471897118,0.013319134338363582,-0.051722150738699277,-0.14969423365315979,-0.14280461992694016,-0.017190843544374966,-0.040996953775019628,0.017591349561234468,0.037540797673479884,-0.088559613684915189,0.057186997439544522,-0.12355993735818127,-0.10061325402744027,0.0080514988019557421,-0.046221071216092452,0.0823975714820323,-0.093490753571583179,-0.040194021993412835,-0.0413380669668828,0.001292627526848318,-0.0097285079669898189,-0.05236731760489121,-0.010800829022577859,-0.0081584726933442049,-0.01003557768303744,-0.0029985418520698543,0.052349300507536882,-0.023333518042455956],[-0.078380779883718263,-0.091046660333955726,-0.018024313495695502,-0.017405921409397687,-0.0674142883347641,-0.06631532918724499,-0.0278635876012434,-0.038000622043706841,0.089143538888573182,0.034871271013965907,-0.0540224678799316,0.022168870148112776,-0.16016311623108526,0.018520620966622769,0.028615686343049597,0.11460615220979362,0.11430313651949604,0.082009210494161336,-0.0548765244116499,-0.0934210050980611,0.068551105444274632,-0.10992323474908,-0.10331448081722922,0.098564004824187243,-0.087566680198458036,0.027100353614350727,-0.14522749406423671,0.014584966351822085,-0.083330672575885847,0.008041471078529136,0.068237706939836662,-0.044085103194488946,0.0656913425225523,0.0083875871811125019,0.07051181469984627,0.035703124940606137,0.15875714953178408,0.021426234401949389,0.066054157346436729,-0.0608823066862594,0.062407009476108152,-0.064793867588619158,0.014077707949882988,0.014047729541525746,0.097347529196766452,-0.034780066045873123,0.11723961246599045,-0.078390949030518242,0.013877508627183559,0.047399919911685913,-0.053589222492823316,0.03123637291099993,-0.09127550319306911,-0.03108615301066836,-0.020833140538914934,0.02552920642588025,0.0860485585733751,0.1014222794484725,-0.010038451931323888,-0.016294748065975122,0.042395869068281918,0.035936965354522253,0.084139458100397344,-0.0025480793376823113,-0.090110837817415634,0.070223347612955719,-0.038359560211954524,-0.045211495660398143,0.043981646294488273,0.0016163130510987243,0.09969764781568613,-0.013612498726963228,-0.01002442759174038,-0.0068264766660185916,0.03524217053681173,0.057897702241153717,-0.01196484286906583,0.1066899793497739,-0.0098648212742532548,0.028625954076285324,0.007122783811553954,0.036646002186961686,0.095366407969417588,0.032070541961582461,0.040438259724233941,0.07790121251058299,0.053175502471301733,-0.0081077087699223151,-0.021280583292826928,0.077374403213564827,-0.0850192531595182,0.0762620432888207,0.043712576087565909,0.0484870213619157,0.017497177254127007,-0.073707570576291778,-0.047746435426107493,-0.03032184081142392,0.12137309820983912,0.031189354872596758,0.13373965391139911,0.060318587687816505,0.077278533837697241,0.038765115672257905,-0.056025533296883333,0.025118120155739145,0.0459301114335204,-0.021999182126957766,-0.17395582583622624,-0.0039466233870762146,-0.00020051861839254307,-0.0379363460513793,-0.13359517867304704,-0.022459366965285853,-0.054380242807277483,0.061497323138787092,-0.018353157171185162,0.0082314985611386289,-0.11887431776728562,0.0034636960607528876,-0.065328043184838,0.065532652359902951,-0.12529238379431354,-0.042743329192849844,-0.0839078008461862,-0.0036237510917628618,0.053182964262638174,-0.074385874947173719,-0.083626963726439546,-0.01776525778339632],[-0.0576944573094846,0.0030231207265954668,0.039216980342075158,-0.0090220973749172671,0.0059886679977191508,0.12058131851264266,-0.052464257812226613,0.010597496275340746,0.036912604083968133,-0.036922387037161906,0.019895475420980933,-0.08240717731239125,-0.0033470121562291766,-0.0536087136376578,-0.13472470376121759,-0.051478361421852449,-0.047978497506424529,-0.0036975915519836216,0.012916346613492356,0.033814947772897994,0.045428065796146881,-0.028236962976418933,0.037142602253492342,-0.093339867958095235,-0.25199610811049916,0.17130125179851746,-0.11079725072253489,0.13389743599548984,0.011211577949145554,0.057322787827262738,0.051118922198795706,0.0931574297782999,-0.091518415393862212,-0.11020413242672147,0.042598288964546982,0.047796177998648708,-0.086806534028536969,0.059566316693426227,0.03840441863646931,0.034740348979285775,0.006298469209443402,0.0018758709848389246,0.0022465659026699334,0.045252440875038484,0.099754768858212356,0.025615837014725085,-0.044633984063535,0.029303976168770705,0.002990001652562059,0.1055691511717208,-0.015226164444583332,0.00085381239591463844,0.18047313164659634,0.05357251847412936,-0.077966547044211465,0.10111707194766657,-0.10371538102485624,-0.1005563054114761,0.016997892619088,0.13658627567161055,-0.086437179517681248,-0.09218813098841637,-0.11450271749192698,0.066672154073582679,-0.087590893244671092,-0.0028829527468564342,0.014289916488103745,-0.0815936405273648,0.025060416718907307,0.011805464979738464,-0.018387536582441043,-0.027995216205519022,0.082349140376039548,0.148837828622269,0.036620253642072081,-0.071299281976444084,0.0352589975728314,-0.022792575224852563,0.019282628810981757,-0.057246082752463491,-0.01369011321878485,-0.062105984038237409,0.00394517358147546,0.032334809738267918,-0.0837764804784216,0.00055044138316017919,-0.0030049050879149487,0.093864560652972454,-0.013212906499617278,0.061428049743129751,-0.034701119322873279,-0.10700143021039374,0.12691019435551537,0.13973536154590682,-0.14112208228221088,0.022817497545097789,0.084702468720637733,-0.0008585045633777641,0.0067680176877158021,-0.0784593252428802,-0.11268762033257575,0.082980849752721561,-0.013132279584365999,-0.025792429565268327,-0.029062470164301243,-0.030179159793118783,0.0125611192760188,0.14144005858396444,0.085372072830231155,0.11093936747682191,-0.063049418643281119,0.081282486585143379,-0.053960396790697078,0.0022969048737373197,0.11031369090013643,0.027638191050292665,-0.11036482858467665,-0.073123349851739572,0.0048115268920698642,-0.017246274275017206,0.029920091371660212,-0.060707572110087454,0.012953814810334884,0.026619179603624882,0.08035701891051944,-0.0093905045679060634,-0.068571085699606238,0.028001459550505221,-0.021109510623879207,-0.0069846015754737043],[-0.088055739590750512,-0.059834696309942169,-0.1192214937143995,0.11458723710801454,-0.021709980853326385,-0.019205983155249396,-0.079393612095861613,-0.024364174083685509,-0.0088299258471650661,-0.010118290467370925,0.080314917422170812,0.0031196767829503283,0.17291370546068594,-0.029215473565010881,0.052076699163519875,-0.14819154207208524,0.042301346232997777,0.083819142653731027,0.06159133229227666,0.029750229245118547,-0.030596527507746375,-0.069126701670386551,0.0045650813109217262,0.11765265824294417,0.15430150859873712,0.031277190618096994,-0.029808474013811582,0.052037269471316809,-0.026233225527144709,-0.13728121391189069,0.0074187136251557453,0.074145540564057949,-0.001388866224391909,-0.024411693433609067,-0.012103214607095229,-0.049719406061052726,0.050283861371985095,-0.064704913692313848,0.04358355946464456,-0.072311116538205669,0.052029694793913672,0.014711905153734255,0.10055636052126682,0.041227099646974644,0.054069066090611205,-0.048089160178968186,-0.0336314740129977,0.040172925944282067,-0.11628659015547409,-0.01676269294785469,0.029292100655224647,-0.043674009492416989,-0.060331469049661343,-0.039517684411325346,-0.0625365577323064,-0.020953686120637898,-0.086601104312774027,-0.08815551626277833,0.043369532506880193,0.0676816405055705,-0.040307400663673019,0.021004719647442868,-0.092073066128576589,-0.089868902706033246,0.00624061749673522,-0.096982131953762485,-0.029081985161556786,-0.13083393422700443,0.060689397437345242,0.16417281330882344,-0.0808905270218649,0.0012525880072622616,-0.012474534211924824,0.074485754166251958,-0.084457961779142388,-0.13696642181292174,-0.05576163579927633,-0.071131067401538,0.032853946506262832,-0.037431808448819416,0.027990590001604983,0.092330094288902445,-0.015128881199770326,0.061257734136150425,0.016854558380706278,0.094183542146741156,-0.032304502625296765,0.047134808937157539,0.084129698106019876,0.03157823171420434,0.021713632480016634,0.025817931017760181,-0.017999532807684852,0.0414451004130039,0.04964509471992952,0.10199246434784694,0.0031420219864999508,0.022248190321718944,0.16991052850972743,0.044696017936652344,-0.21530202876342369,-0.04650837073153942,-0.021695728915694303,0.074944044111202826,-0.0025630550586015995,0.044917253317153093,-0.0052312897915313067,-0.024296282166527346,0.055509699109736153,-0.018296211159997942,-0.044224818196046956,0.025765457472601085,0.041446835651871128,0.053332457392622649,-0.037181932148891352,0.048729296361523365,0.10556750317355834,0.082955064996286451,-0.055407576010390321,0.076741754123011874,0.011689462969570347,0.040041917735826119,-0.060981106161312415,0.0050986478352246971,-0.0406721098843045,-0.038366838968997292,-0.12519679666589825,0.044401022019295175,0.067219028242165343,-0.0085347041434458131],[-0.049310449962367789,-0.020218241940756176,0.12043931159633847,-0.1641943335972246,0.00803931624065842,-0.040302991596314446,-0.13937783132949086,-0.0069723365554017,0.14490094101920992,0.014886729237305274,-0.140704264628101,0.028743656425412271,0.079715419153380554,0.13391578333622256,0.0024591891935925357,0.003464529818823117,0.11273107685356094,-0.071239965916684855,0.071842640966432669,-0.080044496426432687,-0.077863338865499176,-0.039661532718865175,0.0881533483873717,-0.057924343543410292,0.056368471618955265,0.038010219871990936,-0.031814178366951482,-0.01278652401182182,0.14011324349615525,-0.012496486360645888,0.0392466652702896,0.035398312065067904,-0.034594306931832033,-0.03443536987234512,-0.045681471753077296,0.039481756420732365,-0.04355286579557769,-0.046963563904767275,-0.068260966081456542,-0.017825788134859629,0.032440817463205908,0.148896088141712,-0.050041273711943911,0.061615054207537504,-0.035573824983491459,0.029987766093827015,0.018853405427593874,-0.0076672970610727762,0.043199239931562078,-0.010419237294946702,0.10444380367794845,-0.041779350999893453,-0.040300150311415511,-0.021374606897244044,0.026592239635850771,-0.010067737916910357,-0.0073554151661450445,-0.01040448044934084,0.12266019691631655,0.11503607518129211,-0.14985114678403128,-0.07681391318484404,0.065082254257405617,0.067735101165940337,0.013380240671442608,0.040740637110669088,0.018944082006590229,8.8010525208893851E-05,0.044876167390986051,0.089602583181246559,-0.021407666327052842,0.032417536901055859,-0.040634601591939094,-0.0305001532704688,-0.029128805109985757,0.046921405727256171,-0.0062041578826705123,-0.043580760742650208,-0.056792651081014757,0.023553819890267121,-0.027662818944588302,-0.0222866517537226,-0.069868195074386408,0.074920411460964259,-0.048222320067271611,0.056483251777882257,0.014207520349074538,-0.10776769278224369,-0.011447847436942627,-0.096081570491200488,0.10480940731652039,-0.040239613117891322,0.078202339206672647,0.020042254360497717,-0.069422724652875356,0.0023993866040273389,-0.14056382900361653,-0.059806450310737454,-0.0516704958419976,0.045531160358416652,-0.0056626369768801484,0.025407408247266169,0.032220866939258117,-0.076900951349251664,-0.027919779109205192,0.0237828574515341,0.00059515823656868091,-0.018320653865493159,-0.05959141621595368,0.073335486429729993,0.061006516583650243,-0.062755568643633811,0.0892934337581956,0.033208475464013759,0.0403409523434976,0.01611031707392924,0.054720194357846988,0.056373083693529828,-0.0035398586489657317,0.089979419212761008,-0.13203508425959171,0.11222639954276739,0.025673119748131724,0.040138165179300238,-0.040903543206550173,-0.024841663911725678,-0.045071223333098376,-0.11192657534969874,0.12339751353018495,0.16714218505938736],[-0.039762320159060185,0.030996207132767184,-0.0087393243905373487,0.001960783875138128,-0.0195079126040226,0.042119790097281694,-0.091449034276951863,-0.019519414241764847,0.018510742889536233,0.023479395692671698,-0.048342703500819768,-0.036699154602514945,-0.09276184064224588,0.05209003725481489,0.11203468082590236,0.025412505937057957,-0.086356314305335566,0.04750305526966285,-0.023518033627717809,-0.015726301679739464,-0.00842382718967085,0.026894705883138564,0.012086743313669631,0.0044309055134106011,-0.045961684203566916,0.016475456874713953,-0.014241782142453602,0.09913941290545554,0.077459324015240985,-0.070363851364426425,-0.072586654731609856,0.1914892295626342,0.034698359836359396,0.030843651304224153,0.017266875614530382,-0.043255988504658019,-0.1023149425128238,-0.01112930579843628,-0.24434389950773916,0.050358524546866061,0.10024054725444183,-0.059317294643270443,-0.076429118316117386,0.050874027245527052,-0.13418255203951918,0.054977629090020345,0.0066588032781644182,0.010332202731608974,-0.035828355457330208,0.027400755071590486,-0.09064567464065991,0.01366207748143693,0.02469481493481333,-0.036328838627728476,-0.16878569160097492,-0.0027635106389845821,-0.038854750396059012,-0.031587677479804711,0.10656880616586983,-0.085647881811874549,-0.038618134111921554,-0.058570641539455272,0.046903879651058029,-0.085363955599412122,-0.16187947434668218,0.07037914802663181,0.034728112259644714,0.02289002655345309,-0.048733766509494153,0.022577639429304928,-0.018326662430142686,0.056054744043139725,0.05582337784717209,0.033696077630178761,0.076667413450048516,-0.067084425623099034,-0.0030416861872827427,0.10918068804011663,-0.011660519176788413,-0.026775173669282219,-0.04477470799441588,-0.10148087832335778,0.059378235581962972,-0.036265644717851327,-0.0067730484222661086,-0.0010046356593002106,-0.019511451953731836,0.059661139427403385,-0.091589078677807315,0.01255328861502367,0.0094823655399450136,-0.038534244576326017,0.013368013922315977,0.076344856646160308,0.027694802034854367,-0.10289188034614513,-0.17375750851284075,-0.017075602673209164,0.018534048452548978,-0.010063785010458931,-0.015151996777433256,0.0026899509812900683,0.107735764047924,-0.022011284593507818,-0.079895877921167147,-0.0030098187768899643,0.049965647634598848,0.038338732759611631,-0.079869412540974363,-0.050448051123613911,-0.0062665737551787209,0.058175521760328121,0.038010468312130036,0.00065140383936342181,-0.062299014387445839,-0.0027384280684092793,0.12549120219469562,0.032025125417974781,-0.040026952428253292,0.12842632931227971,0.034409169841905216,0.060117030814614385,0.062550062811758469,-0.0210355501687686,0.075765691247644637,-0.03207112637648251,0.048440080443442078,0.039550064757756631,0.043281026734939387,0.0032535771623568373],[-0.028235295875316539,-0.017590079203683696,-0.082534324364239492,-0.069573655165568668,0.03751117555050431,0.12374367839559482,-0.080416479295280674,-0.008486342009729907,-0.1095269576609369,-0.0018766335646257925,-0.087534929647266724,0.045726212363110891,0.12020326522898744,0.00492433331338477,-0.049999741667991482,-0.077921025457353688,0.018684097087770142,0.045301201288676644,-0.014824178769223834,-0.017412773729582786,0.0637654690443967,-0.15497003398303244,0.087684675746451168,0.029558849510542131,0.033851770937145163,-0.094019847687489888,-0.0225840254254478,-0.030770587504572348,-0.0348739925128545,0.066602557412109464,-0.0698662329516235,0.10413618354674836,0.048520376552846155,0.081098427366265671,0.013408726422276474,-0.048992088867495377,-0.026034508175380118,-0.072913069653116627,0.0286030547213771,-0.021665484170366275,0.12178998978360624,-0.07405043169598341,-0.082014077718121275,-0.064563814359551011,0.04843618488108626,0.089878189272751152,-0.027809032042098829,0.023542474386458637,-0.091701784230754174,-0.12354057012935872,0.0085524778081500878,-0.0080403075423670645,0.080913193790346546,-0.011755447934222629,0.016782817241635339,0.014170150489784731,-0.058610897442380294,-0.0002032479780814159,0.021304156071815527,0.13883716211367922,-0.011533806676929086,0.093817066405525645,-0.14031994010216059,0.14525904289337846,-0.074260228144293783,-0.070661036820389087,-0.089779765176933271,0.025133983643973404,0.041256062268822072,0.0074298517144188682,-0.040277844647246541,-0.21383951812833862,0.16270251074164366,0.096015191937278407,-0.018529836187996373,-0.025893139600354928,0.067484945267789531,-0.052366489934567044,0.093755346155191752,-0.10378133627513526,0.042297954397813052,-0.1031208712169096,0.00046256225479924119,0.036839929531274504,0.085904158200456229,-0.038095295099645737,0.043544391050350982,0.060343305925541622,0.047885728342724039,0.13083699164004098,0.0094061719851884478,-0.091166921534246562,-0.043795706545533261,-0.018036390480572251,0.016355391598562117,-0.027237081158857295,-0.030520876146543748,0.12813963666761824,-0.01987554620015539,0.012518666627344159,0.058384765962327452,-0.0066010865036121068,-0.10336910066981908,-0.13026365509296617,-0.079470014042686984,-0.0017493292760610661,-0.021400052928947845,-0.11424476889341285,-0.073890372253947414,-0.019050864926277129,-0.035834253502558047,0.043688320811465287,-0.059482259458988877,-0.0092434075251621155,0.067866011951336874,-0.0685980954336916,0.01238427634912901,-0.032371367822815779,-0.11417841255543634,-0.014982264313323949,0.0646908892587647,-0.00988299631496457,0.019294815858320429,0.020774948001529743,-0.049152809853284192,0.12026049624991542,-0.057423574375347688,-0.097869270405242223,-0.12783953883241372,-0.065478366152741982],[0.010600001145601301,-0.0019630839191734058,-0.11135030665094155,-0.043630627798758544,-0.069996462400183368,-0.054349602450232841,-0.049716463922074842,0.013435404075485409,0.078935947929714992,-0.10397370819408759,0.01851357455993622,-0.05075222176229572,0.082122206651708066,0.10559008290210208,-0.052658829861642366,-0.0014433813576298106,0.01690684358347936,0.066347181128138519,0.19003806326964184,-0.061382241150022193,0.1079090326674681,0.010555153180311956,-0.028429846596783673,0.14648916255885355,0.040211271628077187,-0.020103768751095361,-0.0775123393138795,-0.066857877769449361,0.091771987948068609,-0.031476536903575214,0.017399725989332013,-0.032107879008339259,-0.00832047958307974,0.085903421938857014,-0.052162016193403125,-0.0347306334066549,0.072094157541417556,-0.016268550405018171,0.07000079009810356,0.047293261404907645,-0.086873806907174458,0.021040044408240876,0.076964049516780528,0.067845812125600535,0.067990957865633528,-0.094769558468950077,-0.10014325169003012,-0.074057560196972932,0.13643633845465067,-0.0023063077534207204,0.16273301731730949,-0.041366489609961261,0.12273109889121921,0.033200519710000868,0.13161124668564742,0.018281207164391713,0.05451180786499104,0.077253474684586876,0.10788739304118895,0.02420944626275694,0.044250756714369004,0.15783208696981604,0.13529883464899106,0.023955624880212883,0.00064751902697558457,-0.15133939541329722,0.16841621488386102,-0.0696436951328691,0.10257942641688143,0.00930106623476574,0.032503081079071239,0.026759737973331092,0.093219665463758553,-0.028411493204475051,0.085845442976649616,-0.052390912260766406,0.056662204233880666,-0.0366395432423212,0.012355673186435769,-0.062979047437668093,0.069820342163589857,0.068764057261155948,-0.014952730569169136,0.046522037198759025,0.011804753113985385,0.14373928282098963,-0.029760260502767703,0.03442348676361618,0.0022534738713390493,-0.035420684454550322,0.076829234578657452,0.10595930921558977,0.023282229721339465,0.044406714059520333,0.07865504385845401,-0.10887711397672194,-0.009927206418116629,-0.03791185209723065,0.065584571739535164,-0.053150194819961728,0.15783050279763766,-0.020511232380053767,-0.063659871000766768,-0.11830724860061419,-0.002286025219147668,0.13702136047182009,0.055530538748634894,-0.018888928347276679,-0.0055962980279398045,-0.0046574927404234223,0.0316407230770771,0.0599553647188269,0.046158941753343029,0.049923880311487742,0.01504774696922438,0.027631025645311738,0.055750173497360681,0.0074419078326100974,0.13398369490123108,0.053117437762477529,-0.050081038504815614,-0.12020301334839748,-0.053866760984880767,-0.0081321585608355677,0.067411285507596369,0.00088193238016946349,0.017305185497445839,0.046656935250367938,0.071186678857628014,-0.027588075748830841],[0.015865725993497441,0.038669864490839652,-0.02409781460817836,-0.05669774616003434,0.0050232530252355828,-0.05196180207892661,-0.012563723586416874,0.15167314273776028,-0.021724601299508959,0.0656163553524287,-0.018532286473335616,-0.031762419450336393,-0.027615148269996833,-0.025762362990703312,-0.023541028704948716,-0.019752255999783152,0.018297652247625383,0.095834366009780847,-0.0070862338320750434,0.037837078136282745,0.087068513771003886,-0.17196161135389343,0.081080515152627569,-0.056950573389885309,-0.098721836719755013,0.0023811893545657064,-0.17357468092922437,0.055104702764687548,-0.18629721451347192,-0.069541508001237137,0.12847158095910957,0.11847388396612306,0.033883575604807828,-0.033642902351370289,-0.040485262111702523,-0.015470238241351061,-0.032551432986493288,0.10032413899523601,0.023425323600390957,0.045429452186575132,0.011068445644778801,-0.079692267532719449,-0.02136885452645243,0.020477782655154118,-0.023776230017075194,-0.038707234647881596,0.0087041861974505325,-0.22417809777193168,-0.096017230927049085,0.058701309540564121,-0.060671918034655395,0.0012037668406821151,0.1557364388645314,-0.0622719726936819,0.13153335266842367,0.097719381996851137,-0.099677799971409381,2.5415944520140705E-05,0.033467454382380316,-0.09862676695774622,0.017853002490922414,0.021029189972460945,-0.036669270227580708,-0.056227857833503619,0.10308347582199694,0.12422412181853916,0.010010980042730331,-0.012212229165306416,0.12005693348171138,-0.010721231302014488,-0.044206255745800463,-0.0055532096796648495,-0.081108373001521031,0.027249757808997462,-0.083900359164415877,0.11815527566118489,-0.018038722598373646,0.0090599925284190839,-0.0213693884003418,-0.042002059789546228,0.10936035137038308,-0.031749093124237987,-0.0921668310135463,0.076469885578980559,0.058734710275432589,-0.034919014250986743,0.046042987680409452,-0.028949574819781668,-0.071052795879169281,0.053385076299609091,-0.031974498057511312,-0.0907021274600853,0.011226687127063997,-0.087765167163849592,-0.048048753752461419,0.016405527143580685,-0.0061556835105710649,0.035215690016054353,0.13977120724514211,0.05050577721498764,-0.043992681982138869,-0.077097457069042225,-0.095312120344853951,-0.04050621714083092,0.05165789187628473,0.064731177133269022,0.032871462601730607,0.045055903621103441,0.084028661355972756,-0.16405788033682373,0.012267062070554054,-0.038505749307057233,0.06667050096004605,-0.067540002856239859,-0.023664893260737216,-0.096742024939540622,0.0093133187623014538,-0.022491476792610064,0.081782175796962772,0.107346222957729,0.069949524528416268,0.0097631857261507825,0.04645433288980598,-0.061676487724668105,-0.024390422710133572,0.032170820631845141,-0.0036532358168952909,-0.047986868580038609,-0.049449314925376776,0.030550029809990838],[-0.039652917037724222,0.048812841930614519,0.12986388122057063,0.10751864651508389,0.0055247553372625505,-0.01528311629985909,-0.03105284438167745,-0.038969797340014614,0.056712283567507918,0.048830895748764244,-0.021062247249705363,0.0008216304415871289,-0.0028640060838133036,0.11073692308916248,-0.021330819430936093,-0.092621090188382271,-0.0252841400094367,-0.035083811352643018,0.064498828314142734,-0.12393541450860589,-0.099808081548649466,0.0016257615420957122,-0.0030867991066906128,-0.035059443527794359,-0.052022243584262169,-0.060054287497871339,-0.005535586394972424,0.030449879337667962,-0.0032960104292959085,0.0080610665487650321,0.021476266708875331,0.013406158700677006,0.027845159884588449,-0.045476834685692087,-0.077562199770182416,-0.11283747543601953,0.030271273595008849,-0.0738698223611445,0.0393680537189171,-0.13102828855049442,-0.026300492235875508,0.13580409489166895,-0.040475141780275982,0.0079368717485472952,0.011515188056138192,-0.15478965125640537,0.0314877442505983,0.023414237937870137,0.087387346495979748,-0.0211510636338319,-0.0056997263121303463,0.072668560558763681,-0.13281155088551466,0.032856333165694689,0.013585398980756017,0.038319665042737885,-0.031479484393135783,0.062374077788152911,0.11053931553429411,0.16939061334014927,0.031322791232979333,0.080686631359089545,-0.025288771405173577,0.019707787683624203,-0.015687999353295928,0.0182700088719807,-0.054908117100306957,-0.028898775086985046,-0.03572488226780033,0.011381263460935527,0.13754994133185494,0.0007392263993468652,0.10666720264535035,-0.071235544691586036,0.040270811108655796,-0.037509566690248915,0.063056671809889289,-0.029663857177317787,0.05532664566586331,0.12697046230328044,-0.042423063949116588,-0.0106259589902911,-0.035473554377808449,-0.052008031153452525,0.012045219041921424,0.018227802474118183,0.16072199567446446,-0.081311585432791725,0.00909184782705177,0.16384927482152986,-0.021016204248309314,-0.022674155250206305,-0.134579161958076,-0.14529026129872444,-0.019987511349801559,0.029674579012464345,-0.002514727194696963,0.0031682641060749531,-0.0051191159087609064,0.03757190418401251,-0.086519066860014274,-0.02409120674670762,-0.02440160751707279,-0.040456761069209278,0.0488324891496707,-0.080781669800271183,0.026952058755556021,-0.15732903769116355,-0.0030450942203240181,-0.11711125323520528,0.011524173274849118,-0.08775419863326743,-0.12153530446220484,0.17110513772617167,0.017307270915874282,0.1180901356939647,0.016504994806329689,-0.013805932145696072,0.0083676235982020619,-0.057324535901693882,-0.0092849784277643042,-0.13518390766914351,0.037460024012599,0.086219401586749927,0.12812165966749683,0.037705424919268864,-0.01709169543410477,-0.11351336170395671,-0.082953370530642945,-0.046682084106859555],[-0.017266442608790303,-0.069578220076017,0.00041592373038898525,-0.13003564258142261,-0.0053133681661719709,-0.0419434672836272,0.11075566796117546,-0.031230108412034649,-0.039074753499491938,-0.033862412501483585,0.044280915434508836,-0.069361115328007344,0.022966165266912943,-0.03099967809785192,0.071971848930409241,0.0040773394875408117,-0.061613637954656471,-0.032468251690056009,0.018234917764276395,0.078107459758001846,0.044853062308233244,-0.1569327192106163,-0.049904714136230675,-0.02170344192292838,0.0070673332950638174,-0.030447582110556329,0.0070978484891841111,0.012297008460782766,0.03830336483134214,-0.009364951985081393,-0.081287898607857886,-0.050075522031962971,-0.083052843281859967,-0.026475418071813805,0.08558680605614831,0.12586114122143255,0.00946667751060419,0.039033618733914352,0.0087442987100525352,-0.003536134160901947,-0.10743385914259734,0.033261973626535296,-0.046708675413429719,0.0948897358490839,-0.088475242336872817,0.01794820655177452,-0.023717210025604195,-0.13407697735274324,-0.037033552965067017,-0.07096855386939023,-0.027949398672378604,-0.15682418296697565,0.056085989446814442,-0.065713241687800059,-0.13867591190776854,0.054485523919416877,-0.076629355499212862,0.033887848863704037,0.14149045977943933,0.027559634224487706,-0.01267312053919871,-0.043088310827279167,0.015178043889763125,0.022525303272131949,-0.040781783498343306,0.013394515969014255,0.01127818208396318,-0.011679305300552128,-0.015983903867572393,-0.00404098064955158,0.006242437929610079,-0.074944230470890744,-0.053475604726133205,0.011111989674527048,0.030454794439977756,-0.012054684426554106,0.037463941482949306,-0.093482360416671961,0.0054474699510812319,0.0798401262710307,-0.0692497060437661,-0.044743460828603338,0.11045379699449526,0.12476259878917384,-0.097650356939205152,0.10628374833424947,0.063546811129105832,0.093721775590162024,0.057808648290365909,-0.050763772335418629,-0.062623200392729922,0.088621163940174538,-0.04037296653930255,-0.12259693370969459,0.071547207851678576,0.0468368997269322,-0.045042201413056475,0.038546496064426526,-0.033844536037405719,0.022862511515012496,-0.02452092886665062,-0.12089997132755059,0.11984082727106424,0.056773864082439569,0.030353177145906594,0.065021804419190823,0.0012149362084611561,-0.037807129607035306,0.11277530323913444,0.049094866314760378,0.0074014615933745975,-0.0082205748869410879,-0.14747929719789468,-0.067780772313620688,0.082773460668141452,-0.029427117617330877,0.046238707698264908,-0.099158862949589838,-0.027424143738306074,-0.18004232130449341,0.11761612150923738,0.046040255512842194,-0.0089097349244118551,-0.055096986979352787,-0.12094286870075512,0.09469971267563522,-0.067930187307975634,0.066006121831234638,-0.075464695593666059,0.056132055840743565],[0.0020020969568935775,0.071156852403286758,0.05184067623327656,0.12346213511632444,0.030345529018016019,-0.11276671087263503,-0.0089783993564743723,0.077621415599881241,-0.045718485567611204,-0.065635049576705018,0.068370871625865914,0.1135211538380376,0.084861278661086878,-0.014873046473878025,-0.015866505608954792,0.051394977736152612,0.00950500025588856,-0.0898654515353442,-0.0037234973957563726,-0.0075345211976894,0.10288220439409976,-0.035333949798422568,-3.6538984931829761E-05,-0.084487123322661256,0.095424591331260564,-0.069104057981034014,-0.012617453912349207,0.19834393055092647,-0.013573835465425694,-0.049131954992125422,0.016319878251289013,0.0056020139625686059,0.0026128238626550717,-0.018776101567854031,-0.029725494199098663,0.1603759300550405,-0.089677590749509511,-0.088089392610991274,0.063616538357653615,0.0405920786855525,-0.04023033934213089,0.090721864642424044,-0.064143297708232391,-0.026192587870321735,-0.033363330770059395,0.11513178200354779,0.0060541744341284414,-0.041360638890300568,-0.040863153255360635,0.11187410498928832,-0.023629260811903537,-0.052505416900505711,-0.015094070073442552,0.01057691712505595,0.039381386838711438,0.030164516760964558,0.014933478942841227,0.090465129412398551,-0.0046088346413114944,0.0670409865180882,0.069579543780171962,-0.076543574842270937,-0.06746242555811291,-0.11542863451369842,-5.0164883541763972E-06,-0.027156816233194978,0.0035213299663438935,-0.10004567725250776,-0.10116500062255369,-0.0018074523381677355,-0.081266788112603169,-0.008669109405919629,-0.085171612679796158,-0.02762309918461265,0.033739358609488977,-0.15746100025049914,0.037919274158215027,0.0647441901180217,0.033358517066092289,-0.027721512331638609,0.065392064804574476,0.03480498391273696,0.035743284803041196,0.014680749164347084,0.068482839315655852,0.070906025192062808,-0.022640605858370064,-0.0017398989847200225,-0.01758534517346199,-0.020475922176444512,0.0073948384396861156,-0.041655503734938822,0.055848615290279222,-0.017614577858365954,-0.099289289166625341,-0.030431363583536982,-0.0365378601186366,0.076274553852394955,0.19859565426202852,-0.037719359254483067,0.01783210199116449,-0.037795802631145965,-0.0089506958011364868,0.13830467790197659,-0.06291746996490663,-0.032982077079752224,-0.053634035535754541,-0.019661937996680246,-0.12264959393227261,0.084739936670185825,0.022832192117873577,0.036434275591960288,-0.092209830895113531,0.026768845851554247,0.062863539085921918,0.08840156448920812,-0.0082878836702557131,-0.13386847605769389,0.09148037731997273,-0.11719305439610456,-0.10080684155261588,0.051244909094199563,0.15115690639589338,-0.055888392410438033,-0.0724554929671692,0.070950163801447766,-0.12458336049060254,-0.015948716147234997,-0.033008198106237757,0.020866082553569684],[-0.045151913651527022,0.083803623999592652,-0.036641174807403844,-0.049224296145120271,-0.024273594619463462,-0.035481068951535771,-0.0041273139223927365,-0.058967422344475579,-0.047203454352951091,0.11352745068612376,-0.009786228796863472,-0.025052367392283791,0.063679102435748092,-0.00088052673060783819,0.00078899861627498911,0.0725322493417472,0.084934644385481484,0.038860707976308854,-0.15323899990694698,-0.1323395318202597,-0.051056228074778436,-0.02991810815897112,0.052190947720483022,0.025708408021930747,0.042275173662984271,-0.034425129363083153,0.02842755327736993,-0.069864538185143862,-0.08672076708097344,-0.0926991386583054,-0.031575007506645963,-0.0050004327582709677,-0.060668441517785443,0.021748826624023717,-0.13528085302326875,0.078783617425688179,0.060798782952636223,-0.056694722323888329,-0.067932724310583184,-0.011844068803127907,-0.073412328552067543,-0.074760034748475881,0.069453591658485941,0.0038346964637161638,0.047202687249343289,-0.025270046379277447,-0.037772334369640885,0.057710383685832464,-0.072666799171046917,-0.12380893258933805,-0.0578958801979333,0.16292289367599713,0.061283136160807404,0.10673602402912054,-0.020056503637363728,0.036527393047581784,-0.099054710726603823,-0.044394317792868829,0.021321238164606047,0.013494540613757936,-0.035555374845233668,0.087829332567589777,0.03490385131661819,0.12215055849405736,-0.035934887757903933,-0.038497657102180304,0.12194373131777361,0.018604549693688438,0.01761535786064989,0.055545015052899063,-0.022698402476204152,0.069472908162362373,-0.072520955730057138,0.023308639742410795,-0.066496121470609862,-0.0937565702212493,0.074598947691950857,-0.011350571376703851,0.01905824661570828,0.000904626883805653,0.046317798400321811,-0.063117232200972026,-0.026673504275643922,-0.06563041334074679,-0.068690496118301025,-0.026775605200420678,-0.0633330909560072,0.045477485655984036,0.020773697504268471,-0.10726531495141631,-0.023474997509589226,-0.076534088238037867,0.05316323158607577,0.04934625804181645,0.045593461122427292,-0.07152043375713335,0.0047833886544708139,0.0021468940714488957,0.10609697819794618,0.079380847856155026,0.00029891667188951747,-0.046893121654440581,0.016213033657467214,0.052075260535644007,0.013786024463897019,-0.047070148497871993,-0.06760586708214486,0.019996434871388802,-0.091690183528612954,0.0074977068648595076,0.038662064978727928,0.0859111872180527,-0.14545898918392833,0.0073249727711851183,0.042731230313381809,-0.0016007044765510557,0.15445402205614914,0.016913599960985282,-0.14500198362008024,-0.061798584991364404,-0.033512807107805895,-0.12888703473986285,-0.0096758275359637644,-0.14684365381936509,0.12324701288060008,-0.11669853128517757,-0.017296780796323703,-0.063651326644863337,-0.12663389381182713,-0.079613563109036792],[0.025899914360250135,-0.00023350032121741688,0.087952787236462132,0.034639606309153449,0.04645792514602208,0.066625438781423574,-0.11118052660089992,-0.017889173654190248,-0.0586249302630567,0.01041134529170836,-0.02008609732334482,0.061220302981099477,-0.041428627309179539,-0.048813894884237985,-0.038049536376077067,-0.13124767664813405,0.02013473715963714,0.064578503407667881,0.11733098116785269,0.0019946420958362556,-0.030417534567075539,-0.074969288584547614,-0.093460426921533349,-0.042305681300095606,0.0926919687002237,-0.10323164630060602,0.096948748124302389,-0.12395962230472483,0.11088393933857246,-0.046420064124661251,-0.04594475612868934,0.1250177650320331,-0.093195075014457673,0.054219977279116129,-0.012609528955954538,0.033789867207164731,-0.13300382015185608,-0.054411726543704672,0.0023566556167554033,-0.046090455531601779,-0.014084028620173664,-0.02745684694235297,0.06026882557070383,0.1301560791503969,-0.045191623550981143,-0.027772529766641171,-0.011380071058847691,-0.13203741524218751,-0.0026462016064198704,0.10028742370448823,0.010914172172417479,-0.056911319162576648,0.0023472233895628003,0.012219314039452305,-0.004846064839879329,-0.086605695619894715,0.017502500483879191,-0.03471499834159858,-0.10084202788412622,0.16208396169791023,0.050336016538192731,-0.088489871475559076,0.09562446537996154,0.0042026096431098635,0.084478632228674758,0.028092827562078898,-0.048072705357022377,-0.028884208044423345,0.082060587240635627,-0.0068968242143653607,0.082849181202533678,0.008235983520933186,-0.13230472464891507,-0.063257320060190816,0.053462934520588604,0.037501794797476111,0.017781160193870514,-0.070849462178609809,-0.042358338509648957,-0.12409945424766553,-0.096610067243964412,0.061208371273327157,0.042849752555270723,0.063415545462008768,0.070862456505767363,0.10818391430077215,0.082405208531730376,0.066745089223675225,-0.098556911783517581,-0.023965775270573624,-0.087423919752048926,-0.05349543809682545,0.021827034504231173,0.060024292147901767,0.0086424644719047573,-0.031707612445011718,-0.057940271938537333,0.017145955787561826,-0.070400171498537042,0.12752618329197638,-0.11753133317309039,-0.022051849137267932,-0.0024009699240472014,-0.0084179930799676422,7.587216571490154E-05,-0.040801869677908782,-0.034780508551529511,0.098570854507620917,-0.040993113729988755,-0.051495184320051783,-0.0021214295426294706,-0.24604227166153958,-0.12459956930798409,-0.059315874374012804,0.005737125970326622,-0.16164149606478487,-0.034178896355353219,0.0021054525976327218,0.076042554406394527,0.078011049135272945,0.028720779483393466,0.030263720554684858,-0.16427667164506202,-0.031453355482492118,-0.014914442674768571,0.0027214787081967671,0.020861033744987816,0.15672756701299107,-0.0033957442884968367,0.031650581929630855],[0.077519584535733946,-0.080255325275948461,-0.036857307609968214,0.012260636451097269,0.065380456043218918,-0.021290342006664867,0.028066211805839236,-0.084990136716158848,-0.10661127867655491,-0.091248388717446408,-0.027388539334142356,-0.0401953915363065,-0.094700983894502169,-0.014409588825401457,0.15145089240144882,0.0053987016534638183,0.052805583734439464,-0.046098630356029173,-0.13760429916127959,0.0629088493219738,-0.051551303243655547,-0.05261604298843825,0.036061554283858023,-0.11600922881220158,-0.1135272710888173,-0.01567518645119453,0.11043169383909607,0.010805748760364121,-0.0183477913340639,0.094182683207814449,-0.057165229355863968,-0.20999461503277578,0.065860412297957416,0.012097686008964253,0.0051221476934541982,-0.057400291008166744,-0.0055635471203894036,0.057283106829373445,0.010939356144583343,-0.079450966151747723,-0.066386368035730572,0.10510466364121296,-0.078785069072917213,0.12511612316901435,0.0021312234791254878,0.033487603216623633,-0.13415590846557629,0.018525076021535716,-0.013124090248671365,0.10327906813567991,-0.017212198559304628,-0.03286730586274423,0.093256690767244327,0.004148987308195279,0.037856252826070656,-0.0068701915513111984,0.018801350520274443,-0.029036675513805978,-0.012081853992148667,0.00095035553948618332,-0.0819270508401095,0.017118987854378161,-0.066348819882405985,0.030863921043947643,0.030617250094606072,0.16113819389015247,0.17972027451056225,0.032357377473709752,-0.038086248996603067,-0.070530483578421774,-0.024943730268057598,-0.098984761261056875,-0.0028564833904695911,0.077311675765515134,-0.076930131718531275,-0.040473090764438682,-0.044446170260004809,-0.0087001482419707815,0.018765542632891444,-0.15818069249160582,0.028690680772179913,0.04341392340240658,-0.059445991532157544,-0.036610094543097674,0.048486628078651443,0.0065786867837843363,-0.026504344264968831,0.043119320522806114,0.011381598010491234,0.03441139582331,0.019677292201783221,-0.043879537093364146,0.069611155823350312,0.030552280820692581,-0.039937009732118486,0.090503519127387549,-0.072822852661783039,-0.0487593217122565,0.061129066434419073,-0.051872112036200124,-0.014338060915972855,-0.034697407404151344,-0.052914732723260333,0.015518730331238224,-0.073537959146271759,-0.032159872766329825,-0.2038630045511716,-0.0097973679383414319,0.022846854651692491,-0.08580266964314,-0.0268380025980329,0.00920054452716233,-0.056731841429586843,-0.065654466193374658,-0.063678343444053015,0.08076746905402607,-0.022311098960905013,0.014347499767915481,0.0795072697570912,0.069798248682265959,-0.024067179648987597,0.0404823918729478,-0.019154887630821738,-0.083195920109891852,0.033283867178977758,0.057618034150620126,-0.064976034145715872,0.026186145080004671,-0.013076622355418585,0.0030395208507017308],[-0.053564589323106711,0.047289442747970423,0.090206839375785872,0.055833332578803414,-0.0709502682369511,0.18110530531952082,0.0058728041130807337,-0.026832782502516198,0.010187273673241638,-0.080903226294271116,-0.018990423119136537,-0.026747335025641403,-0.0053813164357801443,0.081827043269159058,-0.027158248178429146,-0.055388700380712114,0.080055808155286956,-0.026503583655276275,0.029112722774701064,-0.11474846549695626,0.0096483193610412653,0.10312240678564617,0.10749606265876832,0.067107978705925081,-0.035067451764136073,-0.023892489316913557,0.0039463707997415293,-0.038353729324751132,0.081342700027705162,-0.039324902661361,-0.083774079174557939,-0.029080047715280336,-0.10014417173557334,0.090617964963484773,-0.019900579983625669,0.099179620379704111,0.0058395252261232745,-0.092756026114501053,0.058215249599453095,0.09896430461186366,0.11974786431797281,-0.038311284052863631,-0.035423407733009345,0.039924302011845512,0.08457709530450544,-0.027142028515358359,-0.067338785064032736,-0.050738931298476432,-0.054488034871157422,-0.10306556968552752,0.032925047352439687,-0.034236108746924107,0.037278086053532423,0.024481397738483096,-0.064109237711250058,0.054881756732128355,-0.14767984570095027,0.035729359907212425,0.0933104090406941,0.048570024566366762,0.093227140773415512,0.039555765378718834,0.11844048684106173,-0.0041202684751806481,0.084129456442908493,-0.00069158312972232984,0.08220027530481204,0.014639395237160163,-0.0092738272326572321,-0.016441647883410338,0.109280899559723,0.032449008440042795,0.044130370025660434,-0.057734021864774,-0.1198772834702051,-0.00596493194267706,-0.04047015641627754,0.027145418030084516,0.029477138360245125,0.069140765080110661,-0.01618636705347128,-0.066471855702938135,0.035052257895073748,-0.02169561740997214,0.048775836906514866,0.0339166159209061,0.0020554740555323633,-0.063320766974374762,-0.11499370466904529,-0.048834035848827395,0.127775619270002,0.034181987554495287,-0.075526558688531184,0.038180365172568766,-0.064884195260557817,-0.061121809414781229,-0.074230230630999192,0.11496619035617714,0.05577443449666418,0.053236551658522029,-0.041066988696532192,0.15129213739912067,-0.04323786856402731,0.021002278131139959,-0.077917909465881716,0.016095100340625022,-0.0020850216471084873,-0.071888600937055874,0.013822553733904966,0.038456115344332215,0.040608729265976758,0.070474652605069368,0.040274087194983314,0.027121552494648794,0.0016624594502230483,0.035377322538270695,0.022696043583592587,-0.13766825091931817,-0.011034254836392211,0.047526972489677591,0.011865197437000249,0.0313037454140701,-0.11006092555237643,0.14581838391843138,0.11385601328310577,-0.00160679311472818,0.1709496850439379,-0.003466419872946352,-0.10357504354597401,-0.019561531365992264],[0.0046679769992777828,-0.0901552567383649,-0.035927396325541809,0.05414902906032646,-0.03544919074491451,-0.046255537086643157,-0.16422105481730409,0.011675262450325212,-0.017089050649530653,-0.016949692246083396,0.044371675339605871,-0.047086269510729667,0.10099861009710838,0.086455356576315867,-0.058057705083654931,-0.12281174344413237,-0.042787157927348413,-0.0022917842926799231,0.11449761504638345,-0.016792797243323283,-0.10359955278603207,0.018094087263141958,-0.0094284545575261669,-0.019310417490142659,-0.10393393728600515,-0.026987102638323171,0.08426715855861043,0.0024028015190601893,-0.036941760850491882,0.078528717351424943,-0.017096632890003238,-0.0070645614943189716,0.164945671965819,0.015086712436681643,0.0082639133971176559,-0.068786703216544259,0.0740408773172114,0.071060770088651568,-0.058947172818331631,-0.13703282574632686,-0.081294359180572789,0.030337709836952914,0.050188943382897394,-0.0843412229855683,0.047678595161448151,0.0747480268912694,0.0356483745302714,0.002939295399401797,-0.067976683379391278,0.0188015400172826,0.027082528182329528,-0.0814042449172482,0.03030356053668069,-0.0014388079014838351,-0.14291882066161207,-0.10608934367582244,-0.14965594749823283,0.028610170521155304,-0.1715202478783843,-0.038372934674837184,-0.01251625653838118,0.049718387551594349,-0.17965347841639676,0.098352966761859,0.0173613192005283,0.01744427398014194,0.16915136196220765,-0.021069484187392146,0.099466896356940518,0.048993672730893591,0.059591461635978817,0.083881868321216468,-0.0096887983902681756,-0.002575541270091243,-0.060372790973103441,-0.056317366609139691,0.05218685596442877,0.11813300752871182,-0.0053093683512363855,0.0012490636397883869,-0.03823970465023914,0.058177266978152294,-0.069492843119738315,0.015095837286849686,-0.0074724286322797855,0.031675289249519782,-0.092671024292720547,0.025444730541881958,0.034425220609835556,-0.062236183962281831,-0.095168478955078462,-0.063913589090948186,-0.079949963643471914,-0.027036498499956384,-0.090816470103803948,0.059517622345750164,0.079900248572278551,-0.0053819643295887386,0.0038862615032916161,0.206916499088851,0.046850963068192683,0.011076020340814246,0.062533727911199335,-0.0069944922399937581,-0.068838530963359457,0.046293741076055037,0.15370654471653011,0.085137332587153128,0.091561851907162428,-0.096207809670951008,0.058193519308720271,0.053248729085193243,0.013232307844632276,0.091970952882878723,0.023362755381328298,-0.10842503695025398,0.096345484647424387,0.040568889245972385,0.063386321977737553,0.030350545770873896,-0.014723582924600402,-0.070226277833054185,-0.030399828402580258,-0.02505363781199195,-0.045433897290905793,0.024932127967716339,0.033763635362030628,0.061175258406841064,-0.10322362768780782,-0.015632258750968318],[0.074775876658436824,-0.11520270431607013,-0.086241907644383553,0.059038437393099934,-0.13249060755141678,0.032877177662624116,-0.0046750918493236185,-0.067559435924524625,0.031728568329109065,0.0050777567218108438,0.023000035399503405,-0.061264363331913735,0.043315250581453621,0.052836486290501194,-0.077939648227416683,-0.059123298230261419,-0.018075423569370648,0.067513130059694088,-0.0118823274476947,-0.0801996588498315,-0.011855693462059686,-0.18593411565032775,-0.0068784624526665433,0.068239158923167037,-0.0032989153994113425,0.032699699436015452,0.087776436744202643,0.10206411311938819,0.051248981063591527,0.023022345302209122,-0.09540858325159722,0.026366078808490043,-0.033685310187875933,-0.026315962675675906,0.020385786455667038,0.04122135702686338,-0.057200670988725742,-0.03156458833962078,0.00020096436520264008,0.076844052040416166,0.092843069707377171,0.010409622960861847,-0.084964809010681333,0.017291064440100846,-0.013161708729914403,0.13982109432966194,-0.006022634794018566,-0.14167346782317389,-0.034732844715470668,-0.14375776364686971,0.062871090061344614,0.046003133135922691,0.013876350276550539,0.017824531915567154,0.060989023291236739,0.014153796530447526,-0.067220321550503115,0.072356850677255474,-0.071885041747013809,-0.094516540649688272,0.084801260265891423,-0.007935811678989494,0.073695680219125051,0.10809018538158326,0.10783179398553154,-0.004365235919649958,0.082570133404017976,-0.060385139296756644,-0.013830742737197102,-0.0038596031992020577,-0.05023310073482843,-0.061592623479097684,-0.18331209813058086,0.058336636803479856,-0.11925520538623544,-0.0235303953840731,0.13042793296212757,-0.016078692003195921,0.038604174236027328,0.034667907597433364,0.015749778856629648,0.10967452395759085,-0.045805882760442132,-0.048392199957767494,0.010752107598482014,0.073202929934907915,-0.0546691506328634,0.0097258308342912589,0.060241391707331414,0.036031469679646447,0.17857823151999919,-0.10898191081936261,0.061363366363944828,-0.034909064490554066,-0.053379831860791552,0.10580957514965524,0.071875396169274436,-0.11584257723161343,0.039605191697628737,0.0041926725604366161,-0.038028272401288095,-0.017668468880497241,0.055760775576377784,-0.047404618150984359,0.037781477263101264,-0.18785252638827174,0.054927096625400684,-0.0294310648044119,0.0783846283634288,-0.00606091500005316,-0.094350640444765932,0.02590069416108989,0.00545745961814038,-0.10560896291546702,0.011763071434215297,0.068868262175497075,0.03485174671593471,-0.00023959946892773329,-0.053996390992683441,-0.054925600110654116,0.003892673361786704,0.017168322220003026,0.051007320179459172,-0.05162440423528649,-0.097433690283109692,-0.023644169334621025,-0.097452980878370024,-0.036321205058901844,0.018772894489760814,0.038935893613162888],[-0.00033204204561763055,0.022816127591139997,-0.0888101312006956,-0.039226555647926771,-0.048810149882209712,-0.10154594390435326,0.030222196451074882,0.059263672853236804,0.11437839307347245,-0.057378736750367407,0.03659669085052699,-0.07935994180670998,-0.011379482209032217,0.01180690917068083,-0.1089638121965808,0.11757059810992294,0.0053632966972945754,0.1407612778635588,0.072824610142673371,-0.053777050039140475,-0.087615772782751747,-0.064320440108322552,-0.030091312842234132,0.076601737124072783,-0.056227585790190021,-0.010125862049720102,0.10003243017680624,-0.031103925085468474,0.033575156495269418,-0.017202750182702266,-0.012774281700772626,0.051939671881839143,0.10875290682379292,-0.0466321042870651,0.092644024770471234,-0.014393680587904576,0.034925836556385911,0.0985253694042137,-0.087116535060830391,0.011267401389770903,0.034003269021394986,0.064839035451605451,0.0162171935541058,0.017335801575212095,0.037900255435472784,-0.028094670243534625,-0.0021043499469274251,0.00644580084028236,0.10180906552680423,0.069508908946974049,-0.034237595591168485,-0.081904858808664771,-0.011105209975747236,-0.0042112272287829757,0.038389607726841427,-0.014420347643386325,-0.0035276739128917976,0.048777315371802604,0.07233808592395162,0.0035795114374938563,-0.088108685073763751,0.059503828127388289,0.13206911973675811,0.03199840553405673,-0.15373012574664971,-0.099692491558142526,0.0555502298998021,0.07858379674904363,-0.1008433928172557,-0.01459811689345996,0.0056949962177460112,0.082112979587047483,0.035089089804029645,-0.029086913912967954,-0.077743341004239644,-0.014658599486821831,0.040671456931823106,-0.059469589823162743,0.010530121866210331,-0.073187548840883271,-0.00683949414171001,0.002039750692935308,-0.017786834714922352,-0.16123969448198453,-0.13768033126992435,0.0096247085834011217,-0.037707532733231117,-0.025151714544978547,-0.0880302002532351,-0.077423701995246619,-0.01975904425474825,0.12643626682300244,-0.060770133935567516,-0.035689791487592271,-0.02657126636268712,0.052552217201276535,-0.020474531153483543,-0.030834944838503412,-0.12778558633292236,0.095369099518451239,-0.015143890074113861,0.060671964962193077,-0.043639186584623332,0.1269553763648322,0.030437841723598317,-0.052560600610094349,0.026930705396386933,0.039952965163685419,-0.028334629106249072,0.01185179670657106,-0.02387925735829188,-0.038720983451861736,-0.033563497959393382,-0.082491352334189486,-0.087812963800184746,0.012770445622940767,-0.078111374930133634,0.068374804330286379,0.0028002167220085544,0.029706185715696127,0.022540645972191423,-0.19555638025944652,0.085536332583253744,-0.0758911778336409,-0.046814200765641252,-0.045698063236926531,0.029206938851530511,0.1243372985873426,0.05077613758925828,0.051429406581283636],[-0.029907382632712972,-0.052417354766394773,-0.21765437257650541,0.082645826672070336,0.0090505844289190639,0.11205671622451797,-0.027141440540380576,-0.0578664588737472,0.058548885116088648,0.058739836238339262,0.11609983659311017,-0.1397227331015671,-0.0075374909577416169,-0.057573335910340605,0.038453756699926178,0.05879783966345075,0.048083538697737613,0.017255848952687048,0.051062827254324664,0.053201084648180512,-0.084718250808227258,0.057454496925934018,0.0059736129923497836,-0.033720060251064388,0.0739024246844987,-0.06526728922731076,-0.0046600803508905645,0.14775303414674695,-0.043517674760129951,-0.19301943510616271,-0.041349224104971834,0.12892667837711716,-0.035375611429728865,0.026305184910002007,0.045045070947293493,-0.11707995690615067,-0.023510558819695798,0.066814009552028084,0.047374616420701475,-0.14944318703593881,0.023367217690160758,0.030119842563577491,0.025672441786530442,0.11214561171172588,-0.059362443091201755,0.0041484097214168738,-0.016409190149320262,-0.002563369058120552,-0.0092399640088158975,0.14539836228595407,-0.16598017681895524,0.034467252009463822,0.08961319833826091,-0.023712901522526329,0.11302154848827095,-0.00020443190529090613,-0.11230326217571103,0.07637649696820889,-0.13267203923859133,0.019752228262351967,0.11004945482126266,0.040851933209883014,0.11649587000569467,0.17297472466572073,-0.06023580830646949,-0.099152349440196616,-0.039953692371531804,-0.11300103217215389,0.0067441717070664212,-0.016853876588164712,0.03519121724956982,-0.016169996362202059,-0.011889222504678755,0.053347057536853149,-0.037735534552115889,0.05941525018434541,0.040559617600211012,-0.056823246033086791,-0.13375831800203675,-0.022726423219227191,0.0843134494230891,0.074948360744957379,0.030020703275300105,0.0033641003494900169,-0.09405492763700106,-0.16893241904001735,0.13623778366442449,0.051073075601443287,0.025564760978304232,-0.076373550364434953,0.12845503505153219,-0.0023069754570035719,0.086642827753313834,0.021792801227115136,-0.051409922047030293,0.033839356313129246,-0.07615139352053063,-0.095708914530674385,0.065923977128961184,0.010249661429983072,0.10356560367452841,0.00943577862199764,-0.028497940655696632,0.0019789777420727394,0.071659934396826316,0.043622191209166716,-0.065476788484419818,-0.017175511255396236,0.051713616212347345,-0.023438450991045339,0.17311467770651415,0.06556024683525892,0.061749776757833816,-0.03407022894330887,0.07815531628138335,-0.0883668573439377,0.0044931130583390332,-0.022779455357140089,-0.010283882274980118,0.04183501723839321,-0.068739309704615892,-0.0089942470604550441,-0.012523603625881976,-0.10319404390624211,-0.0094376276922503825,0.064102138469236292,0.13285304650908242,0.035183690911113917,-0.071952726860859559,0.029529812448591951],[0.090100211163243751,0.073307728043567444,-0.09415999542050911,0.017027685628131131,-0.0793459361959814,-0.095429968170500534,-0.040145673285323057,-0.077685840419075933,0.14712843866030742,0.060924745655422857,-0.036536988862796736,-0.069410050537998785,-0.051088123126680429,-0.038260418929986405,-0.045428183439391819,0.016682401630488525,-0.027230030051485804,0.010494154537902048,-0.12586169531584479,-0.02045292742029324,0.0078245892820183582,0.022113338426342853,-0.11528206771777895,-0.053309484552393378,-0.082811006612170154,-0.15195381960175322,0.060537176626064435,-0.0455293554034743,-0.032772411793706768,0.032490522145976634,0.02463788674233789,0.052573095350078362,