{"BatchSize":200,"SerializedLayers":[{"Type":3,"UnderlyingSerializedLayer":{"Bias":[0.0,0.0,0.0,0.0,0.0,0.0,0.0,0.0,0.0,0.0,0.0,0.0,0.0,0.0,0.0,0.0,0.0,0.0,0.0,0.0,0.0,0.0,0.0,0.0,0.0,0.0,0.0,0.0,0.0,0.0,0.0,0.0,0.0,0.0,0.0,0.0,0.0,0.0,0.0,0.0,0.0,0.0,0.0,0.0,0.0,0.0,0.0,0.0,0.0,0.0,0.0,0.0,0.0,0.0,0.0,0.0,0.0,0.0,0.0,0.0,0.0,0.0,0.0,0.0,0.0,0.0,0.0,0.0,0.0,0.0,0.0,0.0,0.0,0.0,0.0,0.0,0.0,0.0,0.0,0.0,0.0,0.0,0.0,0.0,0.0,0.0,0.0,0.0,0.0,0.0,0.0,0.0,0.0,0.0,0.0,0.0,0.0,0.0,0.0,0.0,0.0,0.0,0.0,0.0,0.0,0.0,0.0,0.0,0.0,0.0,0.0,0.0,0.0,0.0,0.0,0.0,0.0,0.0,0.0,0.0,0.0,0.0,0.0,0.0,0.0,0.0,0.0,0.0,0.0,0.0,0.0,0.0,0.0,0.0,0.0,0.0,0.0,0.0,0.0,0.0,0.0,0.0,0.0,0.0,0.0,0.0,0.0,0.0,0.0,0.0,0.0,0.0,0.0,0.0,0.0,0.0,0.0,0.0,0.0,0.0,0.0,0.0,0.0,0.0,0.0,0.0,0.0,0.0,0.0,0.0,0.0,0.0,0.0,0.0,0.0,0.0,0.0,0.0,0.0,0.0,0.0,0.0,0.0,0.0,0.0,0.0,0.0,0.0,0.0,0.0,0.0,0.0,0.0,0.0,0.0,0.0,0.0,0.0,0.0,0.0],"Weights":[[-0.39867882589110409,-0.20351559853317089,-0.0092928186696715088,0.34881156597309004,0.53726997109568753,0.017234362158723374,0.708261196872264,-0.36984449811453129,0.12311318491650171,-0.0076522323329064629,0.127052786930634,-0.21420811794717515,-0.036742396969318039,0.015628675711108091,0.15873749669289639,0.43114334411922595,-0.22795883324739888,-0.053811785435144296,-0.39702319674587738,0.266016719868693,0.15816953333753073,-0.17992530699921341,0.39885149993476826,-0.21136675236210709,0.16066192565245249,0.18167431605027798,-0.00037823846759497758,-0.029345717351155841,0.10863839203162591,0.41396836853016733,0.10645801115114831,0.13947685331344592,-0.41795638647780275,0.38439923455560981,-0.54452148807248357,0.76347886070130511,0.32687110528575336,-0.35706652321249993,-0.30777918569793461,0.22731153094130452,0.55491996858836212,0.13017182229726912,-0.784901546389265,0.733333984394705,-0.68543658886803482,-0.24423839584855181,0.097385958278459014,0.082185264591188287,0.32263256023203873,-0.098348433793289364,0.17592546440187104,0.59843711376713726,0.5027081791268736,0.52556067619549507,0.29012001742165772,0.16589657578859224,-0.11064153370731655,0.52456891808715056,-0.28650327268857551,-0.20680825517333998,-0.41023511541011803,0.050188088672293525,0.66559121098101992,0.26547564394673462,0.0689339582383691,-0.5047351041562772,-0.46090072042370983,0.32402531174572535,-0.92920746526937115,0.099737508796458388,0.28768978512355337,0.51445395152367279,0.37231089632878522,-0.15373186125367422,-0.15302967371420362,0.07772298271455548,-0.34084512230335334,0.18756168206257967,-0.171519134685149,0.7086548062370096,-0.1800264174129918,-0.30284235382491076,0.61005150218471182,0.65988741596953637,0.0737663299246098,0.13512156962381924,0.53477282865466924,-0.52609575214147575,0.40424959712608788,-0.89896245083375381,0.36042169023461629,-0.065744934427193646,-0.1377941753717907,-0.240857456147687,0.18793194173659836,-0.03716076926825649,-0.11288459556265316,0.13950340890867696,-0.036655997520555483,0.15189453275110881,-0.54867539818374489,-0.23840765141681627,-0.33724269738015233,-0.32868254749069431,0.19086673483935779,-0.41173625058044189,0.69824043845776851,-0.25929515406938725,0.044669990833263916,-0.16483431522675132,0.0029796749274265196,0.14628779639367359,-0.3798547452693683,0.083086448022354931,-0.48969383056626026,-0.48789736202781014,0.26061558492346326,-0.48200053448442615,-0.50592529887712478,0.21949851196600992,-0.40261894047873675,0.33128433874743241,0.039733643354986067,-0.22713300810413034,-0.20804837482311647,0.1331901913786723,-0.63053652123891091,-0.19544478614914124,-0.64393054116198656,-0.3444140346788695,0.80424577048527635,0.72176698472957967,0.3927013586702463,-0.337391925879817,-0.31524760636654187,-0.079820740601390286,-0.030622976457554175,0.66540245753936733,-0.28526167568306954,-0.0034320427822735551,0.74067042003595163,0.14083815211550507,-0.513524445244574,-0.72804654749002629,0.1941304109246968,0.513610212929578,-0.23985778795883236,-0.62397325757889854,0.34766784440006926,0.34414870693415733,-0.3331967099620991,-0.3399290588674812,-0.27528099435599757,0.070946549213456972,-0.29238205171522397,-0.17843517289824193,0.28012751634355554,0.42952461304022777,-0.48189118760016769,0.439681190480966,0.13154626268148198,0.084286954742658279,0.12561551759878425,-0.17602542737138463,-0.19589396075661331,0.39535423908280637,0.18428421345130525,-0.63319670342234347,-0.0762759943717262,0.20359229508449844,0.16698244822484665,-0.5186844890055623,0.66907804190008091,-0.10522235781056262,-0.085169648344548612,-0.78905876594665969,-0.27313570187899588,-0.24378092644237615,0.10158921938501285,0.2816339874714528,-0.768513346300074,-0.15625252418827065,-0.22613131361938155,0.51966827127376547,-0.63091940991740969,-0.57714351957698318,0.77119786034998128,-0.20102439245118897,0.28419837771395967,0.15530683325173822,0.020557376453399848,0.33253919929109033,-0.14790300239486934,0.26447321461067808,-0.039934032307196249,-0.31520229291086904,0.53542777348761661,-0.56658844836771238,-0.4013476145309815,0.12346794378590265],[-0.15612109003916752,0.031047385039624006,-0.54324041509034171,-0.00650330084050906,0.19326505903641436,0.17744013405197651,0.069345380146091221,0.50483650549851788,0.20793557028435625,0.027761028845773146,0.31263222530371421,0.37594560698007717,-0.8058044585182832,-0.055895513703704845,-0.32773887287156417,0.000568227836521153,0.11454773626835153,-0.37771766936463774,-0.21776744947552684,0.35792858545768952,-0.71819269690266774,-0.2346944977461404,-0.82814400113343567,-0.025448617747730034,0.77768346569098545,-0.424931326260485,-0.01459111170013655,0.039565428536304709,0.28510544684736738,0.0064095480588649764,0.41986026147323724,0.19785275944596925,-0.17316735653452703,-0.028738963035313671,-0.23294751978996289,0.74037643513636919,-0.41448936265873543,-0.45597072735556038,0.12067816856326952,-0.26796989426973111,-0.55654188900769475,-0.14053817398271051,0.62784983019225016,0.1564160594713018,-0.19653380901386319,-0.11715170343116028,0.08385497690808924,-0.23551704226722214,0.30494514974733455,0.15482547052749862,0.16160362669701517,-0.30810391373316137,0.080201135866113313,0.27338100955690164,-0.010441486622593425,0.0832384336631729,0.08149916837357922,0.14889526317349464,0.27263557762936,-0.20662410498651976,-0.40381818661605823,-0.0058489708700377669,-0.033878570321857815,-0.22139231974653417,0.05187907471047009,-0.0874564816077601,0.36075236757554741,0.8427384647943138,0.0812703084544202,-0.4887233868198847,-0.41170794069494326,-0.5283718292098547,0.89762035359141867,0.0909213048436729,-0.28118106129888693,0.1884320437032031,0.0590738665940562,-0.24630686849265795,-0.11908544886000472,-0.66737853924023349,0.076502364262536315,-0.1131374095223624,-0.61743383536903806,0.29488953661693573,0.333649575449893,0.031019851820628,-0.54835961020544155,-0.15709262947873881,-0.13414354430433018,0.19307016367988961,0.086980862010463983,0.39701320426458575,0.11544894134046387,-0.46948269499450346,0.665719356414647,0.11058132577366514,0.58348047955584681,0.10403779333603125,-0.54816648007244828,0.13033897381841395,-0.04483549007567135,0.31727076330834075,-0.50532773527481556,0.22016492107243327,0.030786051435122429,-0.37134097609175182,0.59312480652019051,-0.35089386178186716,-0.0700203482947523,0.20657510090670506,0.07716460797102899,-0.30808093094134115,-0.29534880178417416,-0.061743363654006435,-0.33871446506906383,-0.021645865585870415,0.1249470542002193,-0.33129898115927009,0.758967690354953,0.22255413900347412,0.467950625462588,-0.1190537700946506,-0.039466393604408775,0.25375028664414412,-0.5613885329219005,-0.509250535181023,-0.13058181393616838,0.16541217392353175,0.40211374993991605,-0.56112629415219561,-0.10313022685191452,-0.007441933723604478,0.22228316230703876,0.317642348105517,-0.11154303682630767,-0.39129419119341186,0.043102294104650794,-0.18315778673063407,0.11458603812140453,0.15880339429172158,0.33149542189597159,0.033553254041551815,0.69573018372182327,0.094904293875281917,0.36260084856931329,0.305031461705569,0.30063432030355175,0.087661641165414736,0.43650965886895166,0.54185346128736245,0.26557464690781996,0.60963194024788026,0.24343288475036526,0.93931284161719908,0.50873464981585848,-0.027264819076822242,0.32817028632795503,0.10995503090363647,0.20945024902923606,0.19816981823729016,0.49388291821570018,-0.14092345476956011,0.12087454675895719,-0.091031735620211926,0.16563877511350411,-0.13767162557237905,-0.02529267048087298,-0.13838287383040621,0.047653948608496685,-0.41819790931529671,-0.082497770546618457,0.661806408855771,0.019404382645672118,0.25094388953787744,-0.26556168096016,-0.18660575055223905,0.79580943071430132,-0.2040752731719267,0.68861908327934085,-0.72923589916820108,-0.29130084653900018,-0.11468543740750892,0.089611929485092529,0.0107692571731143,0.49702707567275939,-0.54443625539552087,-0.17711376964601913,-0.64780028494227238,-0.60800647230823546,0.053141856603625047,0.10038294925501914,-0.31363099632989505,0.59368224522039614,0.13643199992554356,-0.17575997153456607,-0.37046658612625255,-0.27439598038063479,-0.082905948286342387,-0.27524304622727574,-0.33792111664913621],[-0.66777345461845894,1.0193147228817652,-0.071417772625302842,-0.21030146994966412,0.040002143037545228,0.42747900654203258,-0.1527226120888539,0.32701095453719514,-0.0833532424036289,-0.29773871390150475,-0.80486954493705032,-0.63948699367315187,-0.23301180215874726,0.21209904499486962,-0.22474643152725751,-0.20828516082242216,0.59766597150739509,0.24636174515677967,0.42404989500045187,0.57167499692485568,0.35855099622679,-0.36474767090678911,-0.22603972571914124,0.49291437605200095,-0.69882619578868221,0.64448374453592416,-0.24550741679064017,-0.138749883336003,0.14576459295999103,0.18788935320297398,-0.37651455725761357,0.45108862134341987,0.38697781300993889,0.0897456775773144,-0.43505004836095779,0.45417389827078275,-0.85816554687473756,0.25275568918176949,0.70817038491309192,-0.46879234022532335,-0.61660785166375343,-0.34831392870641215,-0.15719737843272338,0.25381796821012831,0.61289029803990769,-0.22733165754333248,0.26363929037829564,-0.46127640367311473,-0.17184327730617011,-0.30372072787034871,0.15145623550022513,-0.33667952995327094,0.53367551268886115,-0.51721045541321808,0.1287680103460799,0.65635305393428867,0.18083682269781368,-0.12685592542803992,0.31832951172044655,0.30852300140185507,0.13070915691254018,-0.06998833663673594,0.06477347088498385,-0.15260525541053371,-0.6078261510466767,0.2000017640871572,-0.36386075896143361,0.16812511453260232,-0.57397242860552233,0.10247515183574689,-0.23248222076734709,0.29370189672635522,-0.084537939994674224,0.090965280368574777,0.12727108318416502,-0.41870317299920384,0.12889171396002855,-0.12757168236987507,0.03891313067970778,-0.46200885989741014,-0.63328751655014059,0.45721884722053163,-0.11100749529657859,0.068642568156742675,0.045741125869151189,0.43503338912533879,-0.19848275790026421,-0.12194428161119142,-0.25695327554955616,-0.4920505276008737,0.08112836935589085,0.38328941494069818,0.52848177294527676,0.40868843406651084,0.40811404275637186,0.30021268502830795,-0.32582315601212858,-0.08928272384821577,-0.38624710391820405,-0.28262399763797719,0.32464002734824726,-0.047034784663537166,-0.21562792720521021,0.15372846961217565,0.21647359769252869,0.38870071094783226,0.54467634066505677,-0.51555242199062234,0.30211607444232236,0.19219990058456216,0.45254683962274922,-0.33042562242095064,-0.11243096206417283,0.45040841418601613,0.23524602619841398,0.37095712630259464,0.29381988047655333,0.19014161695276069,-0.34340604576466688,-0.17055365049024551,0.20300409533080532,-0.060713761784481887,-0.26254741275295868,-0.15753985227849762,0.0069576446225699884,0.54726397565229323,0.50821992572933261,0.19347234262832808,0.06217546517795134,0.36150339244570667,-0.16501462279770376,-0.26369394301018628,0.30428465687736733,-0.459743369518225,-0.12513199309831197,-0.23975848101033478,-0.273957225231541,0.90480243850325326,0.12716590792598723,0.92850640730343159,-0.43355578610644374,-0.61211024822120685,0.44063148388661721,0.33284327847356276,-0.08880194965601361,-0.35686643358134812,0.18339027992480936,0.26471856795266835,0.22920871453761502,0.22461142649475768,-0.39050516247826039,-0.16724878036241178,0.573344997375276,0.2067042483818638,-0.18633238377377814,0.19243085624973924,-0.36846811580894678,0.079417492194858275,0.49434296768538855,-0.40254760412110518,-0.82783090191312581,0.146422854003584,0.011311332725622814,0.39678149729150963,-0.47697100177571239,-0.57726258010425513,-0.24279994906182639,-0.56883708172037728,-0.16242186677351478,0.0752293563756701,-0.062853844612622042,-0.160035178159796,0.28455303534141413,0.16991923956527213,-0.053368203998323871,0.24763653484707615,-0.034819810220967341,-0.06854938552133269,-0.80303440144018068,0.1355444329627542,-0.064456291578496014,0.15502629449584132,0.74164296120700679,0.62895815197962546,-0.34292871664847596,0.41626448429509544,-0.0096042920645539216,-0.075511428639424241,-0.40735939820517658,-0.31019300273151157,0.06171066281296584,0.21873863389229081,0.0591425214252636,0.067239087190975211,-0.12207388838426012,0.29292326129476964,-0.56883175238072192,0.010382168530618553,-0.12758040232873411,-0.20868640749085371],[-0.21372358787671403,-1.1364631738832669,0.44793894604292983,0.20005170815346887,0.40929484980796449,-0.19237463455576451,0.17969338253340716,0.098980360566404774,-0.25078540656472237,0.015274875028854882,-0.59353603951868161,0.27465384213675526,-0.057908535912205093,-0.036856796080038307,-0.42206332271277525,0.25635226676315209,-0.084723483648625073,0.28780106855010429,-0.23061241222567874,0.27953964449057861,0.055971853208628145,0.24575832865437883,0.035620197089209271,-0.34057449432949671,-0.28961403015019282,0.22074477536964951,0.69931066824121513,-0.14747989108481158,-0.32617039525968866,0.48099341401832407,-0.22712838322940571,-0.20104333664339441,-0.34893954818919215,0.76030484273001775,-0.86698580436820694,0.44700131512890828,-0.838540205776374,-0.12218078404881268,-0.21252004164360541,0.02641772245401041,-0.010530344578655331,-0.44483609763197285,-0.38345027922207758,0.36740740252146165,-0.17834863999031017,0.22791931394284526,0.215573709339691,0.0984800954978811,-0.29010049940818922,0.37683002107997265,0.70766590751201042,0.72919827102135426,-0.10840568708397577,-0.74625658161343622,-0.83866624810095447,0.26289160671654938,0.30279098882364586,-0.21672627914130324,-0.13409779384175133,0.18986784896660655,-0.0048793822127050366,-0.68301479599199233,-0.14135517891790692,0.189401853352924,-0.8385172040343708,0.35978865403125521,0.15957111337098714,-0.082316179951363658,0.48064260930343983,0.20199046965823522,-0.14923748793325017,-0.17148426973905179,-0.082489629233872416,-0.23622906022135057,-0.25890505032334943,-0.54542819422119249,-0.65980788951398861,0.419205157008229,-0.030553866460340771,-0.23356551262859907,-0.42465570098400357,-0.52218491882622864,-0.15718743445879574,-0.45166169326010314,0.26594180385565525,-0.24740593049954021,-0.50391347501318984,0.61216005726300415,-0.29784935340268259,-0.52803592978056835,0.052408547913840524,-0.11020011506022706,-0.027514744035227461,0.33417225980978305,0.035707902677584204,0.35404028381312053,0.21765261478067507,0.086766435515388651,0.38198944719746397,-0.069099598530736883,0.1130771979917678,-0.14890545436116226,0.44272804588548936,0.17677522683294827,0.48350058931296563,-0.11496954500141138,-0.12558298162921355,-0.37544071515708821,0.17726259465762084,0.084303410981135127,-0.00594448026984122,-0.31278479558490041,-0.19482092977907475,0.21378341901506093,-0.34664894139937391,-0.061436417813162746,-0.21721027647270538,0.25607715231593031,-0.063271062775393322,0.35073541178776174,-0.4383009333707365,0.24809177765756088,-0.14736158131494798,-0.34859655603729611,-0.14220598275614216,-0.6726497993188687,0.13771949353000476,-0.20919502564713477,0.029884548061897952,-0.17720645988199602,-0.34961410151977523,0.3061529834617891,-0.29268010909765374,-0.15154707638736434,-0.09682524644701522,-0.12385289316537534,-0.42510058399433592,0.25956979383020723,0.46181091158777576,0.23920471265335311,0.16198831853198048,-0.041051058319274754,0.13280860962921653,-0.52798535924703938,0.30370412665022939,0.35304044756701175,-0.25170836278243958,-0.032176992545015159,-0.014388027824254161,-0.1120002926067792,0.31454793879325332,-0.14361307601571208,0.21734489607600818,0.26382079488268517,0.15857051332118113,-0.20738822460559578,-0.27752929736287718,0.33369048888884495,0.728606697252876,-0.011882663590495612,0.078108805224148314,-0.604663982006217,0.10330023927434041,0.21990747050823525,-0.22701060407367021,-0.31171673648730674,0.24012563886637456,-0.91091105704805253,0.26050652995250129,0.41353549156131886,0.24660314207947648,0.19478804041614528,0.39606794402421525,-0.38739292428045657,0.28027693358147676,0.097341909293474665,-0.45512668555628494,-0.520610418068258,-0.56957896272549746,1.3318841022660981,-0.26137536186251048,-0.74591278275552308,0.36941167388250878,0.74478926119106481,0.53717490844360993,-0.6023918361602143,0.19427532752974641,0.44328441460161971,0.00087265621258247243,-0.56520153870224743,0.55323110937011877,-0.019235818119879372,0.031634740560801705,-0.091120143475396723,-0.039641420275610163,0.16985236866058906,0.57649776632823158,0.16034290140280647,0.49019262412708781,0.074622692884061564],[0.59911984760642656,-0.45712497185130518,-0.037645418178575779,-0.21306113438544194,-0.18377482500682141,0.23022774673604313,-0.45727231510972366,0.52002832132596211,0.21526238177744997,-0.35370717026901227,-0.13024592996772991,-0.021742197115607754,0.071978926164838863,0.1335030399018794,-0.55562071936845436,0.53814501995109343,-0.29323408935621165,0.05030798292676085,-0.0210338320439004,-0.29279908369466051,0.11129472865177222,-0.375185849779128,0.55464518551881459,-0.51196559954872467,0.093333405141520345,-0.515220166958707,-0.1261270982810698,0.2471868112435377,-0.19882809644388697,0.94815343313165579,0.017193972505141708,-0.39958992900886436,-0.6373725580431161,-0.010180854736222537,-0.17644838696979179,-0.85506665012237093,0.31653612445376694,0.37453878550734004,0.47281406039139318,0.047314050369077362,-0.10557834212694833,-0.2844955878997027,-0.14518107288637502,-0.20218601426416288,0.11551763063114547,-0.76420369488617013,-0.394562358917284,-0.18108348388261267,0.17654338664129773,-0.042975961271323131,0.73482993312009337,-0.33086123892796954,-0.32357216232946256,0.0096598024537733578,0.54927213444813117,0.12148043117565462,-0.28938440385548475,0.28875612633484854,0.085148115768099525,0.28866980598677883,0.15099758939364233,-0.22430088420679653,-0.49552585045373332,0.20239733824306827,0.24030034799783087,-0.036436433410214172,0.4800087259909136,-0.10954812131640843,-0.28984568118069942,0.38430287863604568,-0.091956278479515235,-0.60360142741577461,0.21376233353960564,-0.75299675792463139,-0.57176432094717733,0.077547295843964317,0.30195196813419811,-0.23838712959098043,0.12074846821178938,0.4009215237008521,-0.22092559146546514,0.033661068836651153,0.77216803348840657,-1.0302809560495994,-0.19296020871691774,-0.38301760874897217,0.07746968496036355,0.049754236168312684,-0.039003643752575243,0.34170173586891961,-0.11513957512854328,-0.29831508211616553,-0.14339254703868931,0.052773186752907,0.45789973787432992,-0.17755053672209387,-0.58512634166789435,0.26953166273919815,0.098709304321650135,-0.36721220749208638,0.41183284563936812,0.19063219526244102,-0.13760690412574589,-0.71376243443716614,0.013327067261821547,0.31157408514402374,-0.29396696455466381,0.4740318778647577,0.32515342077094539,-0.33556469874121819,-0.058049176577997887,-0.33607092567041064,-0.26237327075021682,-0.73969940283263436,0.44366331869531195,-0.087395693441104677,-0.46376068404611814,0.066464416524880568,0.36333558867270888,-0.0758366739311622,0.29196571421151074,0.050331464750619864,0.53591929291380025,0.19781522370026025,0.37908362395011,-0.39221408972786392,-0.374800123960447,0.29364230002414277,0.43122974443659806,0.24401102350814222,0.084188659597327978,0.01210337699982017,-0.08115668430957601,-0.975751690913356,0.19687430827400784,0.20648468969711625,-0.36783700780537482,0.36244138197311077,-0.033152241717356389,-0.67124549855605231,-0.587058328936109,0.75124177705015827,0.20134289963788538,0.23892516573106504,0.18573792591681582,-0.37515859946229935,0.12074963080207943,-0.63833944996018133,0.10595185069979352,-0.33028401738911944,0.16781261963128316,-0.048081766526743987,0.40430622426128238,0.013200443504914436,0.86642055653018035,0.275595595000251,-0.65250879963393382,-1.0302168867127282,0.019559236532526253,-0.11038023381811406,0.067525310861501861,0.2535275564400245,0.72469304313383243,-0.64796313106519676,0.028657380566370842,-0.013176064338398437,0.088196680422746282,-0.3732364100689563,-0.38006986331606885,0.33425318038167573,0.3838876591169168,-0.3527590623457848,-0.40083342734662181,-0.69296840884099808,0.73059010494365051,-0.35958969804679053,-0.24377304812512896,0.606044997282013,-0.6073399928173594,0.12841053120869478,0.57333574191677206,-0.33385637058690831,-0.09955691590250007,0.46307181138930964,-0.069169817474357936,0.10304988250356997,0.23064399504142838,-0.46745138411049753,-0.022370185297591015,0.37128923407652481,0.27931421851509741,0.099925154701170749,0.088310738647576076,0.39492056061127845,0.09198354931589621,0.043630942420381659,0.5560713928641422,0.20470910703973566,-0.1767288427578956,0.033983988309356811],[-0.499755319817727,0.28907532840468381,0.045603351654519009,-0.13654074037562025,-0.017371803629782114,0.38104247963892818,-0.42423279023265476,0.32234227365953705,0.41720616740071803,-0.011296541965559247,0.17394622835626794,-0.44345100080784833,0.36068804825014927,-0.11656106784848988,-0.095845451802580667,0.3944658146966144,-0.729276571240246,0.42704171399822377,0.1175514938573909,-0.015068817672011974,0.20090306803311986,0.015167836476269358,0.569425716423,-0.380703744903293,0.27922312414811223,0.063755404078802758,-0.12455887801376502,0.2839905973451442,-0.0030687757289437258,-0.32550938495080434,0.36766319820241689,0.45621369274806928,-0.14403204392603916,0.16115070460532069,-0.051019028902504683,-0.45377370652169596,-0.57344743259848729,0.10314695814430509,0.093775053346527026,0.096500907539337044,-0.48935587768652339,0.013349981399428182,0.26903989573997084,-0.20392644009820016,-0.050325076146168907,-0.39260060740346653,-0.26879868780605781,0.14179950078665995,-0.16285059335542013,0.55024394489754147,-0.025413080813014157,0.19748859276999098,-0.17418548604877668,-0.26641901217515379,-0.59751210050621373,-0.051610061755150455,0.32746841161463375,-0.060047464524753985,0.18603085243630707,-0.36727752051968332,0.023892888901961631,0.74668271616242843,0.08990301906690995,-0.13436729355095572,0.38710105788652838,-0.47790119121342445,-0.9248943410567716,-0.68660863250794446,0.46877902248397341,-0.27635632460412768,-0.39276855628537577,-0.11610858419888435,-0.38439338714014964,-0.42450024962393745,-0.31714023081160825,-0.95461666614166374,-0.98159316533799112,0.23075108147339643,-0.29671862111234415,-0.366884850023146,-0.0029018389794747217,0.32782228302256211,0.11823034640131688,-0.10614299419557188,0.6432234034290375,-0.056542867106010912,0.21466480822036432,-0.27942115784300292,-0.51373908359793818,-0.19338883111205341,-0.026178683051420119,-0.28985848896645539,0.41382358975080918,0.434006541617304,0.37909973623717752,-0.12306601080258768,-0.00054176214595649634,0.83521932702879886,0.17800928488793369,-0.70824168641804186,0.29524495778180404,-0.1654314585232918,0.38792203162542505,-0.293533595191412,-0.15655549455829679,0.049248184224016792,-0.0040561171547854342,-0.3136214916126901,-0.51556757432951361,0.53019071341383728,0.23295175982442135,0.066612061867385719,0.4798001174280121,-0.059889314494897442,0.48366869750726144,0.14697097353815805,-0.25903888094032251,0.35758894201785751,0.39073393059961842,0.11173787299693211,0.55632717850589974,-0.5383899879032692,-0.94677811407837975,-0.44719068503370329,-0.24440432350740063,0.018873191355352266,-0.2031326753304771,-0.11766853652832342,0.28680436432664935,-0.22401072261303145,-0.21261262932682337,0.44801898579629723,0.18960642857849086,-0.13305204337571422,-0.073875776951251249,-0.27039833576381039,-0.074658277790745187,0.2727551933585507,-0.050573155781109769,-0.23379710909851284,0.2724442793849936,-0.23519713424115302,-0.23920388651164865,-0.28813745363116849,0.056348952967344247,-0.030937588504756534,-0.68248884679024868,0.54220684262341345,0.078636541534217175,1.2515518866278905,0.22700232353745856,-0.44543406002109009,-0.44565301105445437,-0.25200181429310281,0.442227825133434,0.28278223403524866,0.14560879554872963,-0.83099732090699474,0.38314571139971665,-0.098489633366746654,0.093433007208601662,0.16363766017333489,0.17276410115010207,-0.19400304569768415,0.47788580004633052,-0.16196875508606484,0.26264016056462608,0.66398532018834666,0.515707265547581,-0.17257590464420705,-0.0027968916349834453,0.014734783687288717,-0.514047529816064,0.26633621892121018,-0.11747043406735873,-0.056929496565653881,-0.097596596741551647,-0.87763044032293669,0.01856557721348959,0.061587287618262758,-0.0096350098983014228,-0.36136359889025466,-0.16382376426474879,0.0517924982786899,0.0032451649141251137,0.20744564216144376,-0.19501494218301266,-0.18999438594215218,0.24436991280641759,0.51986873082943863,0.056435717691924861,0.33921842216294679,0.34139021107265144,-0.25966104848943039,0.054321645061843359,0.06694106440275828,-0.20819942013614814,0.26020300986059852,0.29280533289496047,0.19151325045710349],[-0.12313912131449215,-0.29181532902179058,0.2501686960005341,-0.49531124066081844,-0.11734721650157651,0.47268411231332375,0.34855613695053106,0.22213584482318674,-0.2966235621690686,0.37000156927180533,-0.87929601848039773,0.12543407919822497,0.5346146551541181,-0.17740548374345011,0.12589913178500684,-0.56991016900027969,0.47906275809049409,0.033407351686099769,0.66256337341175364,0.20430901278806554,0.065805168720774562,-0.35009075536563533,0.60764342789911763,-0.50221090726492812,0.15508876846172762,0.49146729056002025,-0.23208066622370963,0.31782881071472191,0.081084243769103739,-0.509412478353577,-0.34218734590883593,0.084071544183004318,0.11997807118787165,0.1024217356923476,0.26127019120008688,0.34965523180403957,0.23044577906126615,0.43758092986632857,-0.27468583754132636,-0.73902619574828321,-0.34713001213091138,0.13332445080796607,0.40073064120972324,0.13710292474214322,0.484883518776377,-0.13550848167543478,0.15159273226857115,0.19971066601611368,-0.3573532880800705,-0.41433737486652283,-0.10872826503635817,0.060421931046010242,-0.0062984080457543353,-0.16489481429731312,-0.047432547548293444,-0.32911005057800563,-0.11965526195702092,0.60056364301164833,0.19680067603988052,0.14119378224941157,-0.47098692514504087,0.1047868102743523,-0.22245237124204431,-0.055955976637198729,-0.023114446298168886,0.6938289437830899,-0.29853814346947072,-0.16583907539250956,-0.032054265146729176,-0.10751664409752269,-0.20312598402474358,-0.49088146904242208,-0.10920058489092926,0.030184929894916272,-0.35761778667085431,0.4902144613346851,0.44079215652681925,-0.8207225489975426,-0.049563976199960849,0.02381743303726758,0.51944500475858524,0.78332158204748192,0.18906435012831757,0.42474503802489827,0.128214398085818,-0.02153424509073398,-0.43619479984452825,-0.33619778918952453,-0.0793265443477602,0.23666986084568709,-0.11509722292145347,-0.46681109246649777,-0.93811939307236136,0.25675655200802716,0.29117757406190681,-0.30620234887911735,0.2229447293519623,0.16942448561916104,0.19537867543345985,0.39707001639341793,-0.23361631709703837,0.51176995376533074,-0.90099578234528,-0.70890000755959548,-0.19392480910559617,-0.20435929957957538,-0.18025119407497584,-0.026918356217988472,0.0064973637855035753,0.37612094514275468,0.46310551294582775,0.0072484361738164573,0.036145061294606262,-0.016012057347747712,0.0054344468803973816,0.086367985135732933,0.25810534754195885,-0.52000452677155085,0.54947529751274626,0.14984758331791084,0.18996496543621635,-0.056022172978008059,-0.23918730835896748,0.32367728897880083,0.28950094344980187,-0.78399149073737606,-0.012266713997327447,0.37913188827607974,-0.31104301293688291,0.15870368345938904,0.38154030523946914,0.088229290464910473,0.63869760071300341,-0.0917034900696158,0.678985590435155,-0.21542251570605137,0.055387710540942645,-0.79657640243840822,0.71376060907243233,-0.18351369698734507,-0.38153580977752627,0.35504245298274484,0.26147572825323456,-0.57942038234721249,0.45777820350423487,0.077756939852144519,0.21005796689154954,-0.044987298742926889,-0.26366867974698088,0.77501531023331682,0.23045880930999521,-0.03928602280337852,-0.25064848508162696,0.08145029119115943,0.24023418658085155,-1.0015414233003339,0.24837294271578206,-0.14236332193805545,-0.43023139752915451,-0.54539123812188084,0.058977248860771089,-0.26723941624602077,-0.14906294025468039,-0.066861129742193062,-0.4393696422834743,-0.3184469400338748,-0.020441529099585624,-0.12018446563844126,0.027792204302476177,-0.58504056197413223,0.0063458396640680469,-0.092666118225745719,-0.27688891051607517,0.18056254667499044,0.40637650517684126,-0.24979051467707036,-0.70363820422182188,0.55714674071139247,-0.36606571922711084,-0.14993924607762449,0.45071993018625162,-0.14082343326209984,0.035632951852398308,-0.050522850532995343,-0.25114160825007975,-0.34638228067231119,0.07777996869529831,-0.23926875240245277,-0.18324047359392828,0.27913714309821341,1.0659883302074769,-0.029446838111415758,-0.0040777840922421186,0.48579697670440064,-0.080424585805461524,0.00838030425844376,-0.2491073483419477,-0.42091526992518996,0.11073959946020995,-0.12106249554559886]],"ActivatorType":2,"GradientAdjustmentParameters":{"Type":1,"StepSize":0.01,"FirstMomentDecay":0.9,"SecondMomentDecay":0.99,"DenominatorFactor":1E-07},"Type":0},"PenaltyCoefficient":0.1},{"Type":3,"UnderlyingSerializedLayer":{"Bias":[0.0,0.0,0.0,0.0,0.0,0.0,0.0,0.0,0.0,0.0,0.0,0.0,0.0,0.0,0.0,0.0,0.0,0.0,0.0,0.0,0.0,0.0,0.0,0.0,0.0,0.0,0.0,0.0,0.0,0.0,0.0,0.0,0.0,0.0,0.0,0.0,0.0,0.0,0.0,0.0,0.0,0.0,0.0,0.0,0.0,0.0,0.0,0.0,0.0,0.0,0.0,0.0,0.0,0.0,0.0,0.0,0.0,0.0,0.0,0.0,0.0,0.0,0.0,0.0,0.0,0.0,0.0,0.0,0.0,0.0,0.0,0.0,0.0,0.0,0.0,0.0,0.0,0.0,0.0,0.0,0.0,0.0,0.0,0.0,0.0,0.0,0.0,0.0,0.0,0.0,0.0,0.0,0.0,0.0,0.0,0.0,0.0,0.0,0.0,0.0,0.0,0.0,0.0,0.0,0.0,0.0,0.0,0.0,0.0,0.0,0.0,0.0,0.0,0.0,0.0,0.0,0.0,0.0,0.0,0.0,0.0,0.0,0.0,0.0,0.0,0.0,0.0,0.0,0.0,0.0],"Weights":[[-0.03633908936272965,-0.060649976363218443,-0.06734144541041065,0.092147600637359883,-0.0976578077636999,-0.0025661056280521857,-0.13099808462792983,0.062022044674265933,-0.091311805743705066,0.11118879681507035,0.082801100711601169,0.038827241757513606,-0.021680503343785337,0.05903920365695605,-0.0062870233025785283,0.03361454076035135,-0.0010181922668884757,0.057145645565513548,0.051042179276135094,0.050241094560816962,0.012822496926757968,-0.010291367149497419,-0.076171612455852036,-0.022089830319691636,0.063325579865900178,-0.071859646826332918,0.073049245153302883,0.028176544793086095,-0.038657884968461995,0.0011688837184187027,-0.075488610810821546,-0.086536592677197141,-0.024812277344800692,0.14891394161122928,-0.030625662642269097,0.017814267203828789,0.08405294705707006,0.039015683103534843,-0.019418207430317136,-0.046278987111607404,0.020071050614813388,-0.035544873447457694,-0.13814617466279955,-0.10551404282406292,0.095410200639198153,-0.15399359803192383,0.065019360014098623,0.0060923328893486717,0.11467324849279958,0.10034414652827046,-0.031971934925435173,0.035898179483676268,-0.0096793974654469112,0.041497592643544884,0.086047646714693227,0.06493958239234017,0.010239736118518939,-0.014404318138768059,0.024591142886173954,0.07413066904037996,0.079041924275836992,-0.056538752161056624,-0.021271485761459978,-0.11297795637604315,0.069300275171042952,-0.066228041756035541,-0.057518541495029975,0.017355450860183887,-0.059082708324788076,0.074242434373086238,-0.084886608589132453,-0.024342008182307563,-0.078576832273284949,-0.12645511880021484,-0.037196029175771882,-0.038808925474812773,-0.026225651409319987,0.045379956522855126,-0.13060706484628157,0.010132447924304176,0.049931477686939549,0.076110133091836965,0.030019952130901934,-0.14525735361450337,-0.047236860205280354,0.1818848055565129,-0.0091701113756392019,0.032797837306968239,-0.12587224277294468,0.12375529868919863,0.046041928584760763,0.033627078313384129,-0.029316857578204823,0.0384678404496373,0.097902249090413007,0.020731966807371528,0.082815184530582939,-0.0012514737006472595,-0.27018267219324704,0.031916720105741793,0.0068119054476896285,0.059435526133623844,0.089166860183330629,-0.038101574530813392,-0.068896321774955083,-0.051238666352885605,0.032583449818460841,0.007047011441476644,-0.10220877262278913,0.051980380712422031,0.020541073565998259,0.0028360838715106979,-0.11643485638364241,0.043300767595398394,0.0015560381396631988,0.0473261727855677,-0.17924729868010542,0.056832533776334425,0.029621937674669814,0.020282479028424439,-0.01869319284914928,-0.051506863398473851,0.04623943934999384,-0.056857560131114718,-0.03533777995983322,0.010598286532162335,0.019211268826366132,0.023667657208949363,-0.015653820213717539,-0.11044446366728741],[-0.019736484469957041,0.13052960671442707,-0.0059624770990755679,0.0848854278016963,-0.004120601180893111,0.10193976911821202,-0.028315218576063266,-0.040382337422651529,-0.094412000877648963,0.13648291451481134,-0.0682970916567273,-0.0062661125096920784,0.008238283882982993,-0.00017577154999354647,-0.042729215482620826,0.075764582790986371,0.0644058880953022,-0.031046366178245362,0.11136624070891256,-0.12745527536099213,-0.074350280638677269,-0.075085199123971658,0.015553566616605345,-0.024094751796503576,-0.0615884271229926,-0.069200780402746159,-0.029293284140549738,-0.062114855771723675,0.0929172157447083,-0.04285988890208775,0.10703883750955456,0.012971306806227911,-0.056586232563842744,0.11383889314721797,-0.071009188707228971,-0.034967241777523181,-0.11793824288222364,-0.12475384551448074,-0.0010195906913855147,-0.11203583178340539,-0.13344155251066417,0.035177520281035594,-0.078664174106758522,-0.02727775212166101,0.045156822134525307,-0.041899100377409772,0.066993507126131155,-0.042656656413622152,0.054203000610355968,0.00084461348365044838,-0.063011781221970389,0.0973614802190934,-0.095117555876639559,0.15795071404199396,0.088845310761285171,-0.081460716013880885,0.036140332797658069,0.013241656726621729,0.001673758059287757,-0.035177120593137504,-0.0069231924031051585,0.098246541022768349,-0.12930473267933579,-0.094341791715874188,0.12219449636028906,0.060919356867502536,0.17999015927896636,0.033065649077969515,0.030089887456586504,0.096568675152326158,-0.043550896639226677,0.063677769241217055,0.0867085988297667,0.0093467760367201419,0.11020180336091895,0.022528308119672037,-0.0991644631249915,0.01587549061474517,-0.048331326967916304,0.024444219932644513,-0.11506239775752986,0.12046585473873341,-0.029078604830787259,0.11244423568526023,0.14044965729000591,-0.00084885933501138765,0.048739014246860869,0.066664254522034866,0.12793164636290461,-0.041023418498533436,-0.0093249975911778,-0.02927106264923604,0.019659917940699236,0.13399064336108796,-0.014439914634307141,0.001280661519126371,0.035591737104837796,-0.15085948175746464,-0.028010490478271147,-0.03080358569309866,0.021077747561572508,-0.072616740898545862,-0.011502757169809582,-0.13156673888476164,-0.1172091309516711,-0.0077616528893683923,0.045794552259279586,0.12084387586971365,0.068284964780691487,0.0576662962609822,-0.038537606272848704,-0.036802276347701376,0.043890508011481554,0.039843793317262843,0.044873805589980158,0.10193718903838803,0.075200293311267583,0.066563851181501529,0.045330042082753944,0.045511367789725553,-0.058911156865512078,-0.084119201788541653,-0.062053071435273589,0.064369432051931588,-0.11411428151873844,0.10387262629351164,-0.03215212368984148,0.025734113276059609,-0.050558203196348434,-0.051328738974545519],[-0.045334421143202054,0.19872821745640393,-0.039803939264708092,0.19062076875139489,0.01474291662649028,-0.0370407220336093,0.033615071148767994,0.11277883682787498,0.043724656695620506,-0.061978482160023586,0.088555681683085932,0.046200714128164226,-0.024962355722555639,0.014282494156582561,-0.0162111280579618,-0.042132358827477207,-0.034321236330498855,0.023788192317197757,-0.092704265945976361,-0.043685111450801305,0.040215172152485178,0.1423892583141918,0.014604542328985974,0.11531498391946082,-0.13002591574930003,0.0060330165626964246,-0.1829834151730568,-0.058489103621516776,0.071458939179302475,0.069139431875266166,-0.078270138156951025,-0.12378420851090728,0.08544056903644244,0.14631984531318315,-0.16578330065208291,0.013758715845899189,0.047396735980419,0.087481390720173968,-0.025762797910755916,0.038950370548289759,0.0013089995598710511,-0.045268802870595565,0.032131111729786846,-0.13547859046332036,0.0501770802747887,-0.014376359551635642,0.026739866681230726,-0.028009351277069081,-0.00030442592441036281,-0.020951434029669612,0.065762128396171127,-0.041642946111918107,0.19817164189719269,0.017174702200212884,-0.0486047553326845,-0.029374928823606868,-0.03435110794908966,0.060387164108652906,0.025287141911241172,0.043422105133912023,0.023031728375528051,0.010290656101817881,-0.026079438171592247,0.10973079664184422,0.096817835008919523,-0.049010409523689395,0.0160160742009596,0.12241402883282473,0.038730339753232493,0.008300411935421385,-0.025033153105101076,0.09836030231099778,0.057055355213967249,-0.0028921991169618762,-0.044563855315287441,-0.079660973528043369,0.0558669546300202,0.08551377727464439,0.071902044454230485,0.071648178503030263,-0.047264348369844472,-0.061573764109123262,0.14102462518311024,-0.0070838911889174209,-0.049938359114676145,0.13474014490533978,0.084357112719684241,-0.00014932038792825003,-0.066931457931770813,0.15956731768874544,0.01507408421149283,-0.074201488591575118,-0.019906863728994008,0.0755162848587715,0.04118578531063382,0.0021269184501283346,-0.13565634958622019,0.028915075382856623,0.019533597572042361,0.083487979386881891,0.057157511414179456,0.041388520378050443,-0.042858962622376588,0.10694227303847746,-0.029677022807569831,0.017621383889636813,-0.086207469071354834,-0.13598308134743042,-0.044546833344755975,-0.043382892793827704,0.0028983801043435675,-0.010114988418765684,-0.0045982036491044979,0.087802515599117184,-0.063142841204808842,0.051489532870191833,0.083308452261758509,-0.05186222710188719,0.00033603628574492474,0.026325157854058402,0.025177710811411534,-0.056413924152795426,-0.099332634535417991,-0.023697176356927294,0.061309249282552075,-0.10363131087698228,0.013914156208990294,0.017748458814710932,-0.11146980924237408,-0.12000446076337283],[0.027012127893262766,-0.0037906353861584031,-0.10102257510967223,0.007774376442964406,0.010720152016888786,-0.10894454684949111,-0.013281097119786641,-0.10739353586578886,-0.0026745047098978418,0.12130446964253182,0.045446372109515881,-0.050800744337360343,0.041733201057957713,0.021723925773843293,0.02272582260183666,0.12475064634706254,0.15405817797086557,-0.0315701333797604,-0.036417935818800082,-0.0788173498598381,0.12048828648642357,-0.060231954742453457,-0.10345727911518624,0.10949651941728503,0.017281082605569605,0.0034793291220592873,0.048927321923033278,-0.023313747253020586,0.002982376363233237,0.037233637921156588,-0.10042588273926036,0.089523273134065759,-0.058371745695055231,-0.048482741480895319,-0.026401021014638593,0.036948607121894281,0.00808796690744981,0.07546293060782848,0.067446535186834577,-0.043239379445120268,0.046714278355330638,0.012884508882381731,-0.11603972313963654,-0.056807392687783072,-0.015540501782180834,0.0035832667705956575,0.01465493244751097,0.023625873918021116,0.019840567574783849,0.066107848048881188,0.11043190760755692,-0.050027166869434196,0.04600939003442487,-0.027104965466719238,-0.013404518488787601,0.070899364499647025,0.019266095680518822,0.002764906516980201,0.052772414266216747,0.015688449994442594,0.168265660442496,0.068228109801940148,-0.01544255413887418,-0.053272181548751608,-0.092669415442163422,0.06348296103181468,-0.017558321917785152,-0.0013077885753190392,0.0012279840668544934,-0.089940030422188608,0.029181538706394526,-0.045963615963206535,-0.018667370444117926,0.01500852844088706,-0.018511919792226088,-0.0097651965304862646,-0.083237437883128373,-0.061605531942184384,0.14475748409745717,-0.052946607394005425,0.079987742797615641,-0.088583386889247648,-0.00041023290754651869,-0.071622682909613211,-0.008779258118204826,-0.024044959138885696,-0.017839896078585341,0.03066826531764047,0.06740144421992178,0.07349077487767415,-0.0067193373548937495,0.021496279124727589,0.032924862312245166,0.024659496114882634,-0.011011077565832752,-0.10185581660931874,-0.030155617507568729,-0.076122334378644366,-0.022390197899392228,-0.0083745119733514371,0.0049402727744442976,0.044584441162953861,0.0068351366165737386,-0.0960205312327825,-0.08330850102389678,0.089362537607424838,0.046644728640235125,-0.092077363478794735,0.028703525143123392,-0.021315495116580461,0.20699481099481892,0.056612112906219134,-0.076972141182962514,-0.0841539412108939,-0.026458200101053715,0.0075826766341778873,-0.0071209011421788024,0.082558955163846259,-0.13773896007512962,-0.0037782235037523274,-0.084119849662479484,-0.20362819809918897,-0.11946175344900996,0.070556883304699822,0.021367856283114873,-0.042390538115498727,0.05062044337252207,-0.072521354080831574,-0.033609582350791326,-0.10290437551877935],[0.030964207957686118,0.0953651244772471,-0.016237271783139162,-0.051948470779314061,-0.089390274888071108,-0.16026326266155261,-0.049211998877896262,-0.096945862179653092,-0.033065693553552863,-0.034471138692813069,0.089603125705068537,-0.059565661854397482,0.0806112878736498,0.061961637524886107,0.096858306574749239,0.017363915143873757,0.078974833059056115,0.021728998075129256,-0.0431491842385003,-0.034400962005109781,-0.049156396881667806,-0.069764132243015725,0.18510795453526055,-0.045398350749086339,-0.069629571751093383,0.025020105177411874,0.0025963825296737479,0.01332771788854843,0.00430303662286582,0.048612743479252672,0.061399048070536748,0.13338477369742552,0.01289817968230143,0.074731260718145551,-0.0405689013909064,-0.009556718603521969,-0.099149354406437976,-0.093526766216854865,0.049642378446247845,-0.0013267921543779705,-0.11561717067163239,-0.049775581162383446,-0.043852940286910037,-0.15870408227448363,-0.027268726842108949,0.021140979107613395,0.0779512953442249,0.1191887162206548,0.041269410676483417,-0.0026272655946482739,0.12536072932137291,0.012478018788952756,0.012253016866122957,0.012295383297043213,-0.026145836640016889,-0.0014822781514099324,0.0040394274231091423,-0.0081728620112290016,-0.050355847622492837,-0.020572039329668688,0.040649817634486912,0.021868221992515209,-0.096521637749048761,-0.0301365225294612,-0.055913587586171411,0.064929096135692033,-0.047847584884054245,-0.035335033977620695,0.046337332344965045,0.057250029002802669,0.015108229759843102,-0.0072723397477309831,-0.049608983201668948,0.051396276161840282,0.042666060995289926,0.013484437682780343,-0.089830857701736475,0.082324548284709739,0.037301085316494564,-0.052478950262483393,0.012776704682006465,0.025946435551763705,0.076421176582204528,0.01494397359949301,0.0862691565587374,0.068837041455563783,-0.010791163955028741,-0.21167578188762137,0.0015456667792634932,0.16132772050589583,0.0093778384121133,0.049253373760672917,-0.11936413072785022,-0.067538993359035793,0.037996449270788366,0.0391142895510249,-0.026323259426726406,-0.00908463946407594,-0.058523660336931578,-0.0057495560077117525,0.1188177954700145,-0.016930494917009743,-0.082675160557557359,0.0076025979104366662,0.031073229376019924,-0.024242146154198216,0.072400451505030231,-0.1113245581644132,-0.028838901702616732,-0.021850688573501423,0.04418907148506656,-0.015905240115920784,0.018483423559269376,0.15657316594488516,-0.074782093340442127,-0.068649691485578909,-0.040442819148612315,-0.097838945677379358,-0.074144556096042272,0.07941033117818902,0.0787012134300748,-0.12851983919600171,0.022556222410005645,-0.0085714720119960709,-0.135499031405723,0.046964651417964423,0.044730126291323648,-0.042048566256996184,0.064768153753935034,-0.034157712671685929],[-0.078967563401190891,-0.016439472922446245,0.018138348450189877,0.022850614277042439,-0.099697203764037581,0.024129955479540052,0.11071177635562819,0.008060871450328343,0.027053362542672682,0.10298866824393879,0.040263843117487472,-0.18614775841405198,0.034797580803363683,-0.096749028461054,0.00439163012140122,-0.12109145729131365,0.0024169659073900278,0.0030410106970865896,0.058816600377251074,0.022578599186527416,-0.08460172347792777,0.11393842167320707,-0.0089244910354892067,0.048867077729210749,0.047426197012539015,-0.032594832076579851,-0.0055513731701580154,-0.012767789641818017,-0.066750750718659269,0.033253666907535583,-0.0036039736421126347,-0.085541182037780189,-0.041081787705592211,0.011051611022555904,-0.0042992301149887471,-0.077883194983132578,-0.075292464480603644,-0.016438105058537114,-0.03599674479819498,-0.027960276664191177,-0.072611929073804621,0.098643760408271913,0.070509437100258268,-0.011303768479187735,0.037206661117358951,-0.04759782951300974,0.10492989627189692,0.012687432202602463,0.043967751013208586,0.095326459631234,-0.053922883081344353,-0.037378039040733953,-0.09919216085559833,0.0648789948429893,0.11385636515088585,0.031680801295451672,0.096639059304047439,0.0713902118314701,0.074638901567572177,-0.12584792971534031,-0.076025373021027284,0.014484461682351305,-0.024227459353282074,0.10630057601480314,-0.037139111694353959,0.0047450895718758905,0.049759036749369066,-0.001513755642663462,-0.14713630103739261,-0.085696880505867531,-0.028961970536079157,0.030312019994551423,0.030747727751133526,0.10989170525366475,0.16089792582874604,0.0002912033854875507,0.055646710272738889,0.016100591130208886,0.015690836392375927,-0.027478883984416152,0.048528925929421915,0.073464654639015747,0.1149286339524605,0.012080520182302977,-0.035954386801729007,0.028818923164230677,0.023320937823147266,0.0095529749462650373,0.03715729750787726,0.076923068435414271,0.060805756408644385,0.058957036758193554,0.044460829714079345,0.11966547383740728,0.029723038630419082,0.0092474950809511673,-0.023929379038265617,-0.0068016113191812656,-0.071509777547725681,-0.095396462298857176,0.057756031277805965,-0.015196958485653079,0.075463128401739077,0.0626429895258927,-0.0025415451261293614,-0.0014365672975072301,-0.036639374456426746,-0.2322226811213941,0.1674751580032374,-0.024083143977731716,-0.00739679183589219,-0.0907623737888169,-0.058893154582165638,-0.12551373341464669,0.059539270803823,0.090575398639453783,0.009333542235723238,-0.058326520555875734,-0.0089415605422652148,0.032454301545698346,0.065268823316986635,-0.050047476979581181,-0.0076946984641446557,-0.048914113156418845,0.074196473245981692,0.066890533494639817,0.049353567517059396,-0.10243126423360602,-0.20615492380980408,-0.055028370465142952],[0.014296332397454986,0.090089496703859823,0.082156309701458763,0.027331531205427667,0.078401611137012453,-0.042983275649650619,0.024897623349071651,-0.013898679474038425,-0.060978617531608478,-0.0009108816308619227,-0.05060706051422563,0.014766027870892767,0.057112452216857151,-0.025128952289600329,0.10749415214858978,0.046105113721658687,-0.0894233422711711,-0.076666918806500436,-0.0082629714673609616,-0.0765668161691754,0.01270615499508778,-0.015999944449169461,0.055346827560097449,-0.10258040074671063,-0.05500081041740984,0.027771725949039386,0.0170610501327074,0.00072968029156521351,-0.11176296538896409,0.091160508479916039,0.039220677248333967,0.021152187361097561,-0.028346870983021719,0.1271917168071294,-0.11418257698835339,0.1947576796233591,0.037781758884555677,0.006718493757229646,0.021292617158373696,-0.14353830130017262,0.024074486370451322,0.048967359079977929,-0.05176066572346702,0.13497204036832217,0.10768552838451159,0.046567980047698652,0.11567106791981284,0.054538891330795473,-0.0052094152362796168,-0.056553062806882437,0.0731770099325559,0.015107967580264545,-0.029104348856981106,-0.099872905639785792,-0.13777654163339026,0.099026439739684516,0.039372327873623054,0.040464934105906548,0.0095613575448175378,-0.14141831252832432,-0.038706178786606454,0.031629078093716047,0.032218666217335379,0.079404621217076407,0.059129849550358431,0.026279904718840865,-0.042345777214927757,-0.081928605460163187,0.086142111668157023,-0.0080604401515880011,0.0593246755967571,-0.058943828439297935,0.04084808669464686,-0.012598724458469183,0.038942276992165459,0.053361013749827504,0.078981163643433619,0.00179248184837722,0.0096955412100343929,0.076996825076573766,-0.056895481604701884,0.0052390001809955828,0.18612161020734452,0.14882835254349833,-0.10351463093443139,-0.013169898782179132,0.098955459406595989,0.045838166999274649,0.03828168209059344,0.0646399925599801,-0.10497022103677255,0.076722413434042777,-0.010284670503632879,0.10999731676521474,-0.019958554633049495,0.11517329655880811,0.045294996673891086,0.0063051514871210381,-0.04765172604368903,-0.022339816616660083,-0.080455530419302312,-0.008360976026662071,-0.0984612335437173,-0.057075874087038035,0.011266381401006657,-0.11510156359882667,-0.0071081930319752086,-0.091557624693160936,0.06488917920574068,-0.048305957527023588,-0.00152973617963168,-0.023301359002746509,-0.07916098789192548,0.027829475449290993,-0.061913743950081944,-0.033819621034917126,-0.050273626625830063,-0.15118510281344588,-0.021539578579204081,-0.09830480834859695,-0.055819644006578316,-0.037322122945880977,0.037682392595982647,0.002855700769771115,0.014008714859214283,0.087974467312100277,-0.21125452105051934,0.12507781064576032,-0.085100364866760356,0.011832391566476912],[0.064573003281356553,0.056717831657055143,0.018411779573882306,0.046888681464939672,0.028379783141888472,-0.013514184928630683,0.21762035363029691,0.0498312355888207,-0.066000014719557562,0.043331435030143806,-0.094592836503132133,-0.053748767333140213,-0.0762436339927661,0.10903095676416887,0.049530449853823287,0.063793129957092451,-0.088507644103701835,-0.038376043130721682,-0.0872149045602761,0.0070501845411849867,-0.019260771117317693,-0.11361975288015024,-0.076221163595389635,-0.0078474808031579971,-0.0070852233671738572,0.021966242232759111,0.046153971928300119,-0.19552602004218841,0.070632513139105957,-0.1324254370923236,0.012880380715786845,-0.074293481314771259,-0.056408379449770139,-0.071613115673220637,0.099208041386500551,0.16613546650208183,-0.048102720592024341,-0.11004378383609584,-0.079244983916166648,0.010689171374652707,-0.036334507404254229,-0.0018389240415564519,0.012980567514200027,0.021668403259023909,-0.16705422843201817,0.11966511168704715,0.054249906873045504,0.06035801595895865,0.096213336616400622,-0.10123371293178179,0.0062831211920534261,-0.082181774506028177,0.023104059267115416,-0.022923944487596493,-0.0603770253911583,0.029224721867430616,0.041291362886200111,-0.09227308777570345,0.011214544981499796,-0.0034446504779761279,0.0031588211969518607,0.05623104050065058,-0.016793387514936902,0.091743037405600414,0.015047379027697205,-0.018592469783346867,-0.14356590435845132,0.068509335387253678,0.0950984873367056,0.046662772012317923,-0.023578108657350282,-0.042907525880499238,-0.076782026720949817,-0.0640776510311717,0.033269594307725019,0.06678666407336073,0.067329119426401268,0.0096872189547338276,0.0939800410795618,-0.0078320886855860264,0.02589104848235561,0.019485191946918744,-0.069532454547154,-0.0346326231346917,0.062255413290710805,0.051589332470912359,0.0023525183483228455,0.032964290139348394,0.077033475166107923,0.018446603444613827,0.05994664147686319,-0.011132787336144716,0.0058570565094241238,0.083780934805616408,-0.0576423688186921,-0.11441979404839651,-0.1051995367383568,0.033216248194278992,0.028387758719010166,0.019488480736707055,-0.10015660315932644,-0.024525608569411751,-0.0309175631733519,-0.001828538601718826,-0.056089921436705409,0.035877252401889111,0.0391072863380049,0.028834849709144447,0.019699369824627246,0.14774441023746418,-0.03611766075133243,0.027723515766866259,0.00074633292258603594,0.0087684272793391582,-0.015178718159599624,-0.069563233857892259,-0.029028395301218427,0.10079816600446794,-0.02080969342422119,0.021521701629036709,-0.10536337829484921,-0.14684771404038827,0.010376444276766293,-0.029575735221732437,0.094201601181490735,-0.068315181673723566,-0.046637838831797791,-0.031475091574170853,0.073997626627453836,-0.2072123965552623],[-0.044103050409828183,0.020732741161169188,-0.052555904044935049,-0.036451999789299853,-0.067092176016930044,0.014176986906354109,0.018204052609478796,0.14715252599505141,0.0784575998887865,0.10718346852273125,-0.035010143719339866,-0.03877676550858343,-0.0796656699624288,0.035900511769281544,-0.010809513298208567,0.092711745672499818,0.0054695041084270955,0.11192615155590828,-0.0048134178851857489,-0.083698391263179087,0.0038448599799590769,-0.049661544356093615,-0.065290948644497415,-0.029319309317413254,0.090959654342420884,-0.14410791946336005,0.019392401281759349,-0.047274778076293274,0.065121769433361662,-0.0010460525787312196,0.055530299086559987,0.015942042544304692,-0.00610048434824419,0.033280744697027617,0.071896944341231547,0.087661922729837263,0.11529410550988174,0.016242967133831835,0.10854729753822318,-0.077998566270126954,-0.031134330516334342,0.02066834907463122,0.067609009404232159,-0.085830723051363036,-0.027384584747866755,0.10442019525523529,-0.050383910899744325,-0.025778027717392755,0.10214327473650178,-0.096110619273149664,0.0027044313061511858,-0.06902042519737242,-0.0069159466847933965,-0.019864549209048472,0.011476882185023402,-0.00063335487593934128,-0.057389655167095405,0.033379168693634075,0.02790833959404776,0.059900582712827631,0.092671444364652189,0.034234567987938634,0.11749002718200821,0.0063619201127788775,0.016512472784782857,0.12063713705841768,-0.064740647880716012,-0.011225179064606253,-0.13529067525315686,0.08213548785891342,0.0823345924751599,0.04368274789782467,0.088963671231436892,0.11488102360724037,-0.19562265604793194,0.033821352243727509,0.02128562872039028,-0.038002392612067157,-0.057626405414993885,-0.0790168328800044,0.081065561667283653,0.087304854948942745,-0.02297902187080755,0.17199029413135497,-0.028925501280763696,0.045151913098987077,-0.052661151234130746,0.020430085408620995,-0.0031953732894834191,-0.041148896434231239,-0.043104349718952162,-0.084575602362334829,0.029761772270118246,-0.077134754231973635,-0.053673690959491809,-0.08876723683984053,0.11066448330887872,-0.034255432823249742,-0.00070386610324041636,-0.021161565254477009,-0.019353738410705604,0.069163729324101891,-0.03980568625753142,0.047097616207456554,0.085773790115268783,0.089219247302812443,-0.094397754478468834,0.013766362413179049,0.011597178001100763,0.020131191099899103,0.025090233219390454,-0.14986909495471779,0.029052160093106169,-0.010648576000286845,-0.11947939024304588,0.13435661205946578,0.057571653163540994,0.041988276356199818,0.14348697496268986,0.032577598183585917,0.064267310538642264,-0.0938528848989284,-0.063088984949209878,-0.011734017803811924,0.094263859822903043,-0.03883525441163007,0.063749222138854922,-0.031000877948504951,0.14658221753782294,-0.13293502516994585],[0.18570596671690792,-0.095161240543789286,0.062886544052627974,0.076952241469363969,-0.099356969582217083,0.037116599005347223,0.0098845107317522413,0.0020784751378051408,-0.050788134393857674,0.0067323480021142957,-0.017596668294811126,-0.11068385969332657,-0.086985595475140148,0.026626598354947312,0.048327019354834182,-0.068373895374108609,0.077118597800666586,-0.058322577555733064,0.024666312267987434,0.024296961680145751,0.035302632386335367,-0.0081857431964864769,-0.012279957991450458,-0.13497953626303733,-0.039296297583082666,-0.0984478382794908,-0.014119880702967063,-0.064217950913236843,0.068095301787887752,0.071365659098976686,-0.10149659346445812,-0.043693735746815565,-0.13951296632837096,-0.12634717905169998,0.064698494822005251,-0.080833707874363753,-0.000898425552303924,0.070028195722313752,-0.0081817997501899484,-0.046570982302449174,0.0039949721869494892,-0.058577114504505437,-0.12632183309865527,-0.066335245553452715,0.010653516354206069,0.05513877044811144,-0.029512518487819328,0.0999785752147567,-0.016685645137027066,-0.16359713113557328,-0.10578309379564725,-0.0007792563374919751,-0.032352311839383682,0.032809934399435414,-0.14532087744864031,-0.11482313232617712,0.062578198695933285,0.083462973128218931,-0.12199357034544094,-0.033525939638330039,0.077166232915454269,-0.0089836718201780751,-0.11208334751378586,0.084410421313305326,0.0070877459480251093,0.093192204090817479,0.0021832975352188079,-0.06942694196833897,0.045756823644519787,0.067175322762460535,0.019040472716054413,-0.081560955652782208,0.02258962031054481,0.074301889117542916,0.010200904558703429,0.11828651854727064,-0.095621036597519971,-0.045078280417730709,-0.0633018824846455,-0.053656923650400361,0.020647566913344861,0.10394159337769657,-0.058205370937892291,0.16739823292341646,0.019955432871511664,0.020610179320124624,-0.019852819432730356,0.074145092286223777,-0.13010813241694527,0.010554645411653787,-0.011354561379537007,-0.028153093756370873,-0.12707749330147855,-0.065032903517421192,-0.066246828524340023,0.0031485677975239645,0.017683542734036169,0.0938232963836597,0.05376427622386689,0.1189235798576582,-0.020159948345716511,0.05816847080173989,-0.067373940023205875,-0.020482513490625874,0.017993701053706946,-0.022260424093973264,0.18933296192540061,0.0065264449288222988,0.062422471351390681,0.009351463522878696,0.018623310330565572,-0.12867883353638274,0.028059161130553047,-0.19562577090893757,0.0050020035249360387,-0.15976068286679399,0.12123411664823076,0.017412274467735182,-0.023287547992239446,0.10944959844240232,0.012384768343509498,0.11911230691710667,-0.050271237849399075,-0.16228938699448606,0.082222576251875248,0.010587301348106561,-0.029769013092322969,-0.12163816435474896,-0.032600397188383624,0.076719365266192011],[-0.0058108320053464474,0.012723323127850199,-0.148306604189716,0.075592509560748047,-0.071452852383081508,0.16328465866470837,-0.072308980208769941,-0.014943017647205233,0.043233564950037127,0.038886742863973166,0.064875823075178238,-0.043876822590724271,0.07981667914920311,0.11530712357094959,0.014900845990814954,-0.012170370687002979,-0.0031189989235302935,0.078988220552606264,-0.05499475851625038,0.057925421459028147,0.023346194866250582,-0.13080412086590076,-0.0099144744722713448,0.033833269689146662,-0.13001649243309574,0.068960972449324143,0.073267024234100614,0.051624361102063539,-0.038695928572027208,0.027390048812675226,0.0052311459990436477,0.062244045310243683,-0.079467194881508954,0.058716202619659166,-0.050747025606905721,0.12417201412242754,0.0093061138095297778,-0.00029426959449663594,-0.012536985729471236,0.029738344998112374,0.040478780124260615,-0.021779172844326938,0.10719433844421134,0.02902255904550316,-0.084372998832826826,-0.012830314365907236,-0.076715959731962782,-0.071175673367295952,-0.068839375695722974,-0.11113529572270599,0.042000170541515329,-0.081480415611863991,0.16320546012709339,0.11599963837168578,-0.020821018166627181,0.10968156091299616,-0.05828206796360022,-0.095599999243455441,-0.00088678947120536913,0.0095326185069252722,-0.038424923607748594,0.030707925808781525,0.054908437782239229,0.08423387254679135,-0.00089184529353850931,0.02744281800864367,-0.01641993748598429,0.080482966238899417,-0.056415670566150239,-0.11739416029955349,0.053453106325424125,-0.053348344469885407,0.0093977038516489756,0.0224842354640244,0.06785627088107743,0.018804980716941734,0.05447596724197247,-0.18420244691772883,-0.054461190197958323,-0.0043044091557476625,-0.00845474921845052,-0.022976988356647729,0.016541058013500462,0.092768282878276431,0.084711385555202731,-0.021736676465793126,-0.13364263013178374,-0.029056383180034579,0.018758777466916628,-0.0085667269750490035,0.13982536195571824,0.030915184221257039,-0.049136319646913257,-0.064422109972117322,0.0611207339909752,0.044567090903897544,0.062168685437598861,0.052052215076929975,-0.020419173236946468,0.070243307319201073,0.022522778804495509,0.079506272288916047,-0.015175075735559703,-0.044399570935217486,-0.0052568137695979626,-0.028446933214694749,-0.086979383433259144,0.027592102734003452,0.128275486685467,-0.026493386494804105,0.050035308548436047,-0.12810502717159777,-0.10623689737415357,0.0025434160457238181,0.13319150280276371,-0.042843764577665651,-0.0901618275682563,-0.037556802115014193,-0.096894184269895267,0.071749177275996737,0.020449977299159022,-0.036192299782534569,-0.12234785258692443,0.011135354991082178,0.019969940283042591,-0.068661205589608212,-0.0010768673304701716,-0.016932876441421,-0.007974465109146997,0.0070474873576955874],[0.021785838528202362,-0.064158880539835983,0.091916219517676,-0.0610419158536007,0.053828812960641653,-0.011094952487046934,-0.061309488905227492,0.037189441426659024,0.060816029423468039,-0.0078999780914052586,0.048554471810599124,-0.11583459566211694,-0.062457688884964328,0.026331844347901229,0.082110623481045461,0.028049859783004363,-0.060245417363939263,0.075063497225043088,0.01225399219534533,0.016914803767264,-0.13943199849104213,0.098945916933811454,0.10193860127477128,-0.0728244839717273,0.072934448889125716,0.0901799813534027,-0.0869813267214103,-0.006236281565664469,0.043400395751326849,0.025164108746660634,-0.062176682745165954,0.024238570571409993,0.012932640656055129,-0.04989156687695645,0.00076002341584495837,0.048286190288006285,0.12236404208398888,-0.0019655306311802839,-0.036290786254866647,0.017530629495893516,-0.16657966885579417,0.015347477568211129,-0.026602472398581031,0.071179043523212721,0.046558397352647121,0.048162659079295671,0.074241404539448858,0.048840658184471239,-0.0022345004171548479,-0.1504965161158614,0.018068069475160452,0.006363794230338434,-0.050550721925333386,0.026059235719295967,0.0671986525384048,-0.091084382537629058,-0.007560002292689918,-0.095278021456463427,0.0078009233020714889,-0.039651063324637151,-0.08720229784515722,-0.065659768364495566,-0.0030130915850584638,-0.12046673494355853,0.042223324039527867,-0.0075639448965833063,-0.056277811924726667,0.13130380966210367,0.011950231570781518,0.0398833830783441,0.0042093937622855416,-0.050376015476088984,0.089280387974809167,-0.1001894234415608,0.019329598290941465,-0.01066173972619849,-0.069674348108951387,-0.025103588409397658,-0.11893654035274011,0.01799742702746189,-0.054240266750947112,-0.082131478466577951,-0.047713994336639753,-0.052444666052116728,-0.010347103758638492,0.054378638581101174,-0.0624241243596227,-0.051916777558707411,0.019766387295359546,-0.0055774234288013258,0.072422325030907453,0.019870751389647948,0.024196622440585888,0.035564231806488739,0.065285541704151,0.070502231490041173,0.070011053885010721,-0.0012214445192488788,0.028133455635596282,0.099679405756466707,0.066824941614647526,-0.052820209528273807,0.048155177869005188,-0.022955812173339876,0.0078768555159413039,0.02475959237989685,-0.040546942476786925,0.081747932012086549,0.090520643027826558,0.038006494242927326,0.014636064808185422,-0.016298240651702229,-0.046006310529367239,-0.16319969039494198,-0.12613265754560382,0.030624072985393363,-0.055236823584595487,0.042809606797650467,0.0019445605979896,-0.0358541821553718,0.08351869671637191,0.0017311294280695434,0.040075403424457354,-0.0725110350527824,-0.082064631144130429,0.038471746360570443,0.092715028185156256,-0.040241507634154614,0.043184005677452765,-0.011679299839717291],[-0.034774185924399424,0.067496588500786339,0.10132336350156423,0.030179857039037104,-0.036439976393703812,-0.11469720519416334,0.06661821883991062,0.014395307790008527,0.13314798124643007,0.005003821577268551,-0.047212427713098887,-0.0059092233990691873,0.048632297894162638,0.12431198830796536,-0.0060033266041175466,-0.021655147540718379,0.047689458860093244,0.056085158562381186,-0.079016582902203147,0.1488019151337239,0.051533936873689949,-0.022651234867534623,0.1193071348177728,-0.082117302263238712,0.0917099864694916,0.11373303281399545,-0.018301715030158691,0.11815810703749605,-0.01615943359725381,-0.074406128079306272,-0.07817023023247037,0.078269658694828562,0.046261752176560818,-0.055281809104613527,-0.1887596910833487,-0.014882230802478564,0.074818752748345957,0.030024905461424115,0.077181672918953781,-0.084583764214083423,-0.12676986082029593,0.018106830957830954,-0.033599063078511571,0.0062855134971271471,0.085701129676318488,-0.029815950361262528,-0.072117179982616686,-0.041379826431270542,-0.01081827442274985,-0.093745973151488013,-0.01397276872342967,0.13261075049079249,0.026439411008683932,-0.026609976658694919,0.036820464068180188,0.022354703066714266,-0.060167824350242829,-0.10897284488548203,-0.026952139597061803,0.10107376808157843,0.015793513927802524,-0.034395964198141039,-0.059547035661551465,0.13707708119576292,-0.069605936873200311,0.0720751995606164,0.051560869442197392,-0.02761053339958738,-0.18537730286043694,-0.10435069808606233,-0.028905250172773511,-0.011674094486646264,0.12043382211606275,0.06913702286372235,0.056126600764305937,-0.082318880298708652,0.0816545746316959,-0.026524930412891164,-0.047011135599152695,0.079480590247743441,-0.014193293455231359,0.01319884555306654,0.065312242928300221,-0.0061405212422745931,0.20228832449224082,0.052289330690017212,0.054761019965753263,-0.0041288693421825213,-0.10575081878631158,0.11232180793558244,0.0046699775775085545,-0.011929797980965686,0.0083395024207971336,0.083270694453768959,-0.0077505666184916906,-0.00030924180089647997,0.059033643503355569,-0.11760395263961736,-0.012041177601680433,0.01873745655449666,-0.049113184080746851,-0.085680504088038123,0.070049642477140878,0.10465939287407633,0.063751282368852677,-0.058871112603598147,0.11643373630522386,0.1572051927013394,0.00535315381905404,0.12752677286354935,0.0686637155425,-0.070488038488155366,-0.0033168559779384026,-0.075681236569901361,-0.026330452527047705,0.0060378128012839134,0.0076602730452484651,-0.0046843218793384015,0.11811928420084876,0.032435887152524955,0.069963546463729515,0.0059975387513616007,0.11888363041637312,-0.11409408459585053,-0.0073764188894360153,-0.020777460570275717,-0.04900924605115721,-0.064405993425621255,0.15357027980538107,-0.028267730049119387],[0.013728673763881141,-0.0023990923404323345,0.14733813756503422,0.07184300780931839,-0.020233048573494325,0.034429888476297937,-0.039324035732868932,-0.02997028144854981,0.063082440236555154,-0.089082551066748408,-0.08293590514194242,0.0385280698497143,0.060042047245795704,0.143487265413681,0.053908752906208411,0.038109745875124855,-0.11080809986736775,0.0045905491052853232,0.079181808224855543,0.027089373631394562,0.037464296290004077,-0.11411052907030521,0.011905545043286187,-0.086457115916133254,-0.057426908133095436,-0.18411907177220896,-0.078497967827374754,-0.085920430452327931,-0.045777268398380547,-0.008667966295443327,0.014016925612605702,-0.15846140827382277,0.0073140552917751985,-0.026850508643604214,0.10184508993253524,0.037705817386680676,-0.057024709338909081,-0.054521189457026609,0.027480984586141993,-0.1394917410012573,0.03756438513913829,-0.040987494409754285,-0.055939380819408191,0.0404657517391026,0.037438578665909591,0.066153399056740919,0.10190900255664254,0.068386904383845357,0.011172852280292153,-0.075956783631300234,0.0090266154565850718,-0.086569119431776267,0.10477306934800822,0.019849104236443212,-0.038900195146189608,0.10562487558854744,-0.0026027479132748441,0.13072921641463681,0.065019718309923771,-0.018643836206950447,0.10769310952354658,0.081241892383102449,0.017743125822473171,-0.011436630890938593,0.012059436342031906,-0.058170829132991958,-0.045055896110560038,-0.025687758050361949,0.014258533407869777,0.03757683403829274,-0.010885025508704764,-0.012851753807330791,-0.043001239008245568,-0.0093081315711425038,-0.10592923190810862,0.018447938915479967,0.057016771078759729,0.076807081232260641,-0.058615405101840309,-0.05660578441407639,0.0077027014589330662,-0.10460068986087337,-0.050884144625449865,-0.11917571950568449,0.0030694238027449759,0.010979029174210569,0.043419919094576993,0.0094723562635142238,0.13174243674429734,0.017487145840783435,-0.051996726422726985,0.041109726921539178,0.12512004532270515,-0.042079462506645265,-0.10074773345029123,-0.0020218272305341295,0.032763646170560309,0.045519930500545015,-0.06160367376905003,-0.084161203321350131,0.034597068292025905,0.01696184372311843,0.025426318935125185,-0.046070539194971019,-0.012541958001858623,0.11368164057515161,-0.043254116881346068,0.083537124645723076,0.014725496351657581,-0.0075623492915339536,-0.0907876967885823,-0.023851007645507787,0.012965843185214781,-0.064893722676454685,0.090455893267665885,-0.075022539771355076,-0.080435575665800257,-0.025978336558194034,0.064876739087939644,-0.092734487256114176,0.037495320883097844,0.0091631409492310776,-0.0844031540674199,0.051897925990695468,0.090231734340860709,-0.011507618649269817,0.057407366359107689,0.096339973405622129,0.084173913037572615,-0.0172238105006945],[0.040435386354749435,0.015257325588723385,0.080988806879043376,-0.12889068750350316,-0.0053698276925158344,0.1329541757577524,0.024508525558548017,0.014187689447233585,0.047556328571838065,0.0088953324701630618,0.019191108578585289,0.013988933184153691,-0.0012069539678586734,0.007209057132436701,0.054171262353053695,-0.033210585587889752,0.01144289350751275,0.05567179922475024,-0.062334663283997456,-0.044450675059973847,-0.10365108735144413,0.056811387978189271,0.16145354628443751,0.0064061160988645536,0.0015281520311470414,-0.054956017088578134,-0.011648295889670448,0.058776823635505279,-0.064852247477377209,0.06465356541408121,0.05029682938414707,0.080106415724869873,-0.058768221188424834,0.14339448182787051,0.097157064319689665,0.012421507262850897,0.05810525907053455,-0.061301327921373779,0.0971321784117823,0.10659240044826851,-0.0015669454445794955,-0.09827603208754504,-0.0029523594328434012,0.076418497928721407,0.049047482036219364,0.030961189681501439,0.23737506799178518,-0.049401724196849746,0.099506637148093269,0.07397972023308394,-0.10172608608977371,0.015707878788939214,0.0017261387245582328,-0.049929539100739682,0.037507572159590073,0.019315119063044638,-0.030825421628596941,0.025650499530562306,0.087051971063234188,-0.1156258859907561,0.011143903230268355,0.12434819934416783,0.15386014829601413,-0.023394894682796437,-0.033942850391398216,-0.090853156381401956,-0.0022158361546628859,-0.057478770121713811,-0.010549917345755827,-0.057198170953992836,0.0046422961726993381,0.087312621710349272,-0.10107763982977741,-0.064453202831413384,0.018368422363425573,-0.09667056623126398,-0.032745276215780383,-0.065904164300454066,0.071079273895504141,0.0085158091835623225,-0.0319633594710346,0.0868211066158287,-0.14097072297850022,-0.0017246075971830614,-0.10705279863412434,0.021867890958938197,-0.14644988807821863,-0.00953859919545123,0.064163392617945875,-0.0097432189725205,-0.07846612650398993,0.01387603737909884,-0.05954536935194063,-0.088197907138575934,-0.13205897943561659,-0.036235457647791756,-0.042415485792633045,0.072590017602420343,0.062738025691862431,0.14847908799960144,-0.054151945466552019,-0.0040734114100033861,0.11122979872846008,-0.12484349239214659,-0.015128289526776249,0.017757108201930806,-0.041694680801863976,-0.012097983877113879,-0.063604540588518707,-0.13710974294565978,0.081930624126494433,0.005745153022054356,-0.083909641177954464,0.041273945678489347,0.024092166923021567,-0.047918986253180633,-0.046278667068193627,0.14846942061021379,0.14609229814914607,-0.057934017530318078,0.11808099875928754,0.025345669596052969,0.083116979588904308,-0.050217293693830163,-0.097217469389944008,0.008277541965263778,-0.0894974456390283,-0.13377319033669063,-0.07444020611898973,0.0467881900300062],[-0.079796868795345643,-0.014917846031320606,-0.055820133748191877,-0.0044830579178190893,-0.0578443279736464,-0.036365627267466373,0.0054789847141983924,0.0071704594676762039,0.061965653374600194,0.014774941793554512,-0.032387865840102704,-0.0040260031956229712,-0.013551280069410993,-0.092892825727654185,0.015573789256257076,-0.14045000092468829,-0.042424907035056018,0.10280844511954534,-0.0714160912919351,0.043510433407642234,0.12087585827530169,0.092241255981740961,0.10616968386596269,0.0076564836563825928,0.097405993297283847,-0.04261067227104065,0.0060625515964657772,0.060072998848830307,-0.092227092418135564,-0.037312052653063192,0.021916809876813492,-0.0056156995979077086,0.030618211011404328,0.050897135757404573,-0.081373304924201376,0.21522054570688451,0.011052697897805844,0.13764510598690408,0.047008819022111389,-0.031457298234500185,-0.030681302237416691,-0.013407228977738724,-0.087694375749294326,0.017150843190906141,0.034869533969885479,-0.0079553320855086183,-0.072987604901215447,0.055860740153031573,-0.0024822026919481392,0.042177286470294506,0.034316521053831879,0.018919439001467423,0.01225398953458165,0.01402511007494477,0.010501039504246962,-0.11573843481531204,-0.097422243019415045,-0.095345574957916526,-0.0103726487637824,0.080959043019325119,-0.036046749932766367,-0.022703968263952656,0.024726425461599963,0.14896264273576168,0.023823016633992063,-0.070487812460048149,0.0794721466051882,0.040097523021459677,-0.038202669628363543,0.031204429416665406,0.074895626888672587,0.020562034197491069,0.048331205240870589,-0.0838483552966496,0.17388860537235187,-0.01864712885384558,0.0186269664632391,0.036413732291215715,-0.068467650252918566,0.094882937233817,-0.076081947622900409,-0.025650221821941904,0.059433497645048225,-0.10550233995825568,-0.041983528802843256,-0.11096690646139097,-0.13210532106833958,0.062535926226327421,-0.048997220989055984,0.016185112073645223,-0.028155346771715696,0.019362788939884981,-0.0013396172668725538,-0.018751737204486859,-0.12410128850485186,0.0505166089913756,0.17647780004939234,0.079462380409851791,-0.11573146661493904,-0.068840183095473476,0.0085324640216511028,-0.001702550014367032,-0.12742965611184484,0.021602297532311927,-0.03598977437388292,-0.041886961985328972,0.10241381958022885,0.026945699305577341,0.13204383291549432,0.073497305248062417,0.033730934251550986,0.04093392113967962,-0.16546779516062107,0.044043548618869055,-0.10485184955866393,0.058799715004512823,0.070621154910423076,0.014158664931006015,0.082604241439327764,-0.013875640913573236,0.0576608250470153,-0.064793366596936922,-0.12682539140898858,-0.068696704115980819,0.02051887570780736,-0.022222446644331498,0.1087087096980708,-0.03391198909139595,-0.029676409627150027,0.087298079151617719],[0.10909790570988102,-0.045140875604138209,-0.0015337016908945364,-0.088615164971243374,0.078893119019374125,0.028474731385102734,-0.083045713976515112,-0.0065540574928021934,0.13501303732735062,-0.03297308971402068,-0.028581956602305905,-0.042412300452940616,-0.058761760929114136,0.022609240983769832,-0.078931120735372479,0.022222108848530708,0.010990695441446522,-0.057055329641186051,-0.019929861751264086,-0.01494500976874287,-0.017516028975879165,0.074313067480384451,-0.075334579181501687,-0.10659621654618644,-0.085243617368947477,-0.034162648393459928,0.045912453722480734,-0.037085560146441245,-0.062270517797996451,0.087032752846963241,-0.0354596584375085,-0.031872186602982515,-0.066079402608053853,0.055156950038562635,0.063454843133731828,-0.0208699383572968,-0.070961502088949344,0.039422906582805228,0.03726487663714511,-0.020885109957502437,0.03515448011072695,-0.10045713533435971,0.010293432295471855,0.080791068421971549,-0.046188955428293391,-0.0186721890002339,-0.026998592364841596,0.059118580494332384,0.0921488620719831,-0.013244206840058642,-0.020819179177008883,0.14670572459808629,-0.056915845453293486,0.10292453266894187,-0.044900944301178532,0.058614620294212952,-0.03452147398275212,-0.064142319622630117,-0.12439243097348841,0.06673660429341173,-0.014023166205790671,0.051018320832646943,-0.018489930931052397,-0.1199537105009881,0.13366560747127776,-0.039416772010306605,0.022760875245839991,0.016555890053622048,-0.023852003802040066,0.045226702678280009,-0.0088226316128973484,-0.070473630620709271,-0.0083210157800481365,-0.041279872969954071,0.0062224266306005879,0.055865413306010747,0.031666286910811296,0.20388818347956741,0.084298622734121975,-0.029545749346148995,-0.0946130342044677,0.017321056281030405,0.04683083525076541,0.11247130102385111,-0.048364180515879693,0.055954730076625853,0.057467390172271288,-0.01580336258461108,0.10156296954386498,0.070206462640724651,-0.13146530926599151,-0.037112755766707264,0.047015123350162107,-0.066853101953762775,-0.083444623290642034,0.05072360044140236,-0.028452121996574771,0.0091061384718049074,-0.019331364887695979,-0.036060082819684904,-0.080370644762938273,-0.15919104114433261,-0.018672692771869046,0.040728270466132449,0.046421989635249655,-0.15837770911390256,0.016573275949835611,-0.014050744987090058,-0.02657945212957882,0.023137785426748429,0.07415459205325485,-0.06301637054890756,0.035774368373720077,-0.11328645149624066,-0.0084877328606233638,0.059240706406962017,0.10371661387694997,0.0058477122575470962,0.064790646465218774,0.014854096495069314,0.041045105895497633,0.07052574351975989,-0.068979192062923037,-0.011046198852686975,-0.080339780791010881,0.0063440796174056187,-0.055607651512185892,-0.03512284795439239,0.10675464828279535,-0.12108165822106679],[-0.026590588372770396,0.0070722372250933739,0.0055294629509601723,-0.021938194679640564,-0.0067763678310325563,0.015212042450388038,0.040629180966678786,-0.013547837125174808,-0.11573195269400551,-0.11387609142536809,0.0039887355677246713,0.017625754414831586,0.14271583179994105,0.12555932862002106,0.013465227707770719,0.1119187032051904,-0.085998398881834151,-0.098752815694868615,0.029019051746583518,0.027001407852452322,0.069717182075036868,0.01689871568517284,-0.19223271283339211,-0.099816048418387343,-0.0010406742259105361,-0.009448685245192736,-0.0084696355288637,-0.0084517852893847435,-0.15245080202609174,0.0053094125735415314,0.030681059752189013,0.059960393127814017,-0.12660067139511755,-0.070872317708303822,-0.003832828182506872,-0.018903347858482491,0.00950818206649008,-0.037281030170928424,-0.0067494201528486373,-0.071107879891801354,0.0334983955058493,0.045432728003968095,0.021325138982639723,0.16943895644871856,0.069290386196440609,0.0076306231819215373,0.071094969457891316,-0.051716807052616713,0.14131744054401066,-0.061561413098173035,0.077138591208251533,-0.082574493981275046,-0.051459618163583527,-0.07319059214874972,-0.050149458819142935,0.051709770470007396,-0.091769479804730408,-0.03219672343630376,-0.071647302920546663,-0.066999089229410225,-0.1026178101084035,0.13617388784056073,0.013557425599392936,-0.0026655388114122671,-0.1032647477833999,-0.014520201560621596,0.09638827305021648,0.02409718023839107,-0.0732657987601158,-0.040209933417306089,0.10692282043346472,-0.056936170349653654,-0.0071491529135093313,-0.018076131897784363,0.012177675087724556,-0.08723167665278822,0.059798851290684588,-0.11137784759499023,-0.083034041141484966,0.025368726309086046,-0.22488064361590579,0.024663648610538796,0.031970913575051774,-0.056615991420832644,-0.12427795836435718,0.079934876957409542,0.18739224505457147,-0.065342737683589627,0.041802955459527495,-0.066650745113780829,-0.047050162688323759,-0.016542211074816866,0.0056800362423390788,0.062601299551001,0.18636372147668479,-0.029494031166511926,-0.06244939723975558,-0.016849566097086464,0.010393986489936755,0.021500822455248116,-0.088112593307137568,0.070599601776780346,-0.10390010062343488,-0.083494731639757763,0.16605804666721322,0.10148447280655726,-0.073144257729058609,-0.063527837342578414,0.040816938599538118,-0.052871773470310295,-0.070279862678624336,-0.12225109076916338,0.072294574225478581,0.028095786352824628,0.014428343694249781,0.046449095792256367,-0.037464813388673891,0.053199310798911228,-0.030511063962732527,0.037245441723846306,-0.017122141183180652,0.031448252844868678,-0.047283216842127287,-0.027023515566484434,-0.040390847573799092,0.12150322745947913,-0.13225482636696115,-0.010061015105539436,0.036151413203149463,-0.034589013898353956],[-0.010713549744438056,-0.010830747434465139,0.010940282061293084,-0.025848772728459025,0.070175429980350243,-0.12839944689852378,0.0073394042290533855,-0.0031037848208972565,0.20637954397030761,0.036691588907471595,0.16440702446082278,-0.027913438809749957,0.030841109029375154,-0.16618741208122226,-0.016060804434473698,-0.05047907414703133,-0.015695965712488626,0.13921796431923073,0.049902243107100806,0.022383411747593604,0.063737560231614213,0.16067054261728272,0.10107142746380107,-0.05556370593067686,0.011012185555421368,-0.16154400236080832,0.14548522768551192,0.03281094929274752,-0.10269799725262929,-0.069950297162076944,0.035541268485328507,0.039932266479352108,0.00070445011974838029,-0.058515318782090812,-2.8650873374735311E-05,-0.08587914761398191,0.043785193160376087,0.053507806325446682,0.073148218441151838,0.084529592393789668,0.010656753955391937,0.051402619094914434,0.11106373945102885,0.046676649702092739,0.12750821150107666,0.087196519417700277,0.0058991628900982376,0.085448460406279111,0.093664670363308972,0.033753645681966406,0.12899587137289095,-0.030333595100525041,-0.0091572552961959944,-0.023211162459090821,0.15412783616022593,-0.037365610981244642,-0.033963331617574179,-0.00083611162034711911,-0.0078609370525614067,0.056131725373717585,-0.009610699497419925,0.039526584226685237,-0.053105965737680873,0.081828030694788681,0.030317256796551308,-0.10392095015650825,-0.11604013369730258,-0.0414304948384038,-0.037724876668933177,0.087370588914570585,-0.087432424715902374,-0.037485979568963865,0.055768838385253629,-0.10669953259728474,-0.052879670584247723,-0.077966903112307528,-0.022878536210740912,0.046883513637686038,0.060858259915355234,0.0084719310452414532,0.002703828255890767,0.036435770697141642,-0.056243349294974959,0.033823535312718381,-0.085139126362954121,0.04251148753655893,-0.053689009107292629,0.04300493380010971,-0.027886494534538064,-0.0350293695225698,-0.17877434809549656,-0.039815797839423218,-0.06066091990946941,0.12400683113205142,0.072061458196679737,0.015025399133967426,0.087393816805468025,0.082704025777105977,-0.10358180883556722,0.028397967478200462,-0.0328574861985932,-0.0056845718152484922,0.0651723810916021,-0.063329399082172388,-0.0564048534972324,0.0738188235903882,0.070662782651705572,0.0063022852299327251,-0.047177212810529674,-0.060281334284303816,0.024830672017587742,0.02278474583160546,0.11373518360285367,-0.046341551825891975,-0.040275354284394382,-0.032238446436382226,-0.031359465658408976,-0.21017130034278345,0.029354963451197608,0.1321080395422419,-0.071747708669576957,0.039990917835638747,-0.027722463805879071,-0.011657909129021413,0.087529881514152336,-0.16469607792935273,-0.052476595682207111,0.00073116707848493189,-0.031672932559263782,-0.12917030560609896],[-0.021854398827845508,-0.012888346047439252,0.038282974348432107,0.057704681267035561,0.012877563225505906,-0.0021254648772825908,-0.025308947781908595,-0.053686966881171257,-0.037519590056430942,-0.059712330728237006,-0.037007592622835338,0.05434549250984131,-0.016364488818012276,0.017272724136847308,0.13853550450583829,-0.067036236548463191,0.013334020990663931,-0.006797699969439624,0.0093921592647564656,-0.078104488361974936,0.1039115022124191,0.054530113983905032,0.072309061344357745,0.0089673534726974948,-0.019207436066579296,0.020701258701726382,0.00068226842997793637,0.0018455694972852126,-0.00014484020455151633,-0.010532912400293689,0.037464534370214173,-0.12462065733233853,-0.025963746060111658,-0.098914923775795929,0.027092011235705593,0.016503785970164084,-0.0089877105435737462,-0.0043907345114297253,0.1927525043310018,0.048987282454008518,-0.065295959252787458,0.089520433448523243,-0.010661657619795345,-0.041407516762591107,0.062865297600590689,-0.033746108177273075,0.0247765346036614,-0.021392376720329176,-0.10911697119711969,0.067595240770577714,-0.062633098023134645,-0.018617473317450429,-0.023543209092861093,0.097359024459405433,-0.11590227157104197,-0.063926284132359734,0.080062120060354861,-0.032665499195350486,-0.12138852186548529,0.11862755042532956,-0.069163406483800538,-0.027620437857563213,0.049110805699837959,0.017366056125664973,-0.13354308598629444,-0.015254592713597677,0.075731823815364668,0.010692833391243826,0.0467511223467585,-0.042899501166062573,0.0742454603131291,-0.050817970878812749,0.017864300077275,-0.059163922332468692,-0.0469309974699586,0.029788151872094434,0.017337820154775963,0.042876550729935459,-0.015942984250151424,-0.019555117030866365,-0.087220710094367784,0.0090920519506201922,0.0037656789430282945,0.002573446508050635,-0.15248286800479374,0.043846578197463133,0.00545648514129857,0.042956241320811148,0.057439953496229046,0.11275133129108378,-0.0369213143288931,-0.16882826804082551,-0.050493735962805361,0.16594216962210337,-0.0143537646601131,0.032109481443466793,0.01999373281250762,0.036361857904321476,0.073477719090738872,-0.12918093567698832,-0.038084473019629812,0.090212078770007545,0.038441980803411525,0.0087857751366596966,-0.18488835815289736,-0.029436714141511004,0.028624745089021814,0.040333097357282473,-0.0027768969644799166,0.068193705234063,0.009265412584069474,-0.055378297446171648,0.054829343747354264,0.023334918332001377,0.10545860118184069,-0.027392981927441506,-0.051498204182266041,0.085271308409746324,0.071142934466107213,-0.0017971838859423966,0.10513912467529314,-0.10532275582912772,0.086148920996553718,0.060281552922536945,0.052636340870748387,0.020676219414361843,0.03596034818482096,0.023427728491194295,-0.063632360803222224,0.025679590378447179],[-0.019239427751141007,0.058718510386346033,0.016454132082485539,0.044147306565258726,0.019627226643157171,-0.042748233385612712,-0.028866716859920108,0.14593304624128353,0.083750263189238283,-0.080829962512742312,-0.046193225292426796,-0.053638260538071282,-0.17702595679980102,-0.026007732408154509,-0.02581391267338768,0.018128857990201502,-0.17517394188339958,0.023420165803682617,0.0247263719762802,0.056811463909833007,0.01526626605393679,0.046318589703432514,0.14984586717307569,0.031175170011981244,-0.063397987191601737,0.00029984218460393124,-0.12617796991391012,0.072970290061174822,-0.060674786323068261,-0.029917828845187761,0.0085060410507574579,-0.030112474905253313,0.064058054199526718,-0.007005059895146294,0.010580994132290238,0.0889790465191237,0.059633233693772075,0.027651722589092348,0.014070108481965804,0.052646184129166357,0.17814135059788125,0.054682687097562591,0.05144862259500136,0.083775179827459911,0.073801410856991365,-0.0543006107742951,-0.035827727973514495,-0.1593871256365417,0.15405406714601005,0.0066636971620681286,0.15796691186530068,-0.071678875857087973,0.0062827935503084534,-0.060360346154791668,-0.048016670831336733,-0.063561677280107226,-0.047877739104327244,0.030624377495258173,0.078085472733445571,0.059536305221489068,-0.07216240674259472,-0.042737120209134151,-0.007967024596897597,-0.011631920373614003,0.015246905163677308,-0.15111797842836522,-0.014701684339907805,-0.018064542950228392,-0.068333647428982958,0.080151701851358212,0.05987976081242545,-0.098890047616953441,0.067770436579943957,0.082404580736045271,-0.024870618003650927,-0.051750860774815145,-0.00510676444124791,0.086156253156660687,0.11493470704970241,-0.072083803384122083,-0.028677086873189261,0.063812022070647761,-0.0072180919189753258,0.14237024722335856,-0.0411888245000328,-0.021267913172915626,0.014443793748389009,-0.056716187273576225,0.0064506057149830327,0.022783932902101921,-0.10993026335961577,0.038575151752407527,-0.10384142556327419,0.023530694690967198,0.085735901305572751,0.028554001820822652,-0.012511936250905678,0.052084976217919528,0.10772408783430031,0.033631564734638311,-0.032204926448642236,-0.07774362766353235,-0.11652699626367268,0.059478550844873267,-0.013699512932894271,-0.02116886168715907,-0.056213140226737311,-0.010615718721486528,0.061557730935022821,-0.030208993171535563,-0.0016735776793158949,0.14284652300891665,-0.013290395608428665,0.1116386475069949,0.020569955604443219,-0.0248150456517076,-0.0818581395506437,0.038898384365561887,-0.015050853838657438,-0.098104563354802846,0.063692451465914734,-0.00415572115717872,-0.080557012427231151,0.065795278340458771,0.014277294026393316,0.053308981470312822,0.10628875187788411,-0.027501391049493656,-0.083686743700862515,-0.0041996191882709578],[0.021457857609491034,-0.07101139191979898,-0.053407917709870342,0.095841581443979071,-0.026954596861093739,-0.031924060613069724,-0.041630443686257353,0.086151915344162208,-0.075185302040584739,-0.13276901808301539,0.014088721718436508,-0.020990749298984996,-0.0089975972622128291,-0.024885657596483351,-0.079447118898286428,-0.014237963532121424,-0.051049215360573046,0.037515431606959068,0.019894862963735091,-0.0063799283359303139,0.00070809745045848776,0.036900189035379186,0.085050197271957853,0.047609419992578748,-0.095333307012302818,-0.04706361934040814,-0.056904778146723373,0.11525591195593184,-0.00750079461976063,-0.0880669007365384,-0.011651216576630154,0.0964212856856737,0.02571514361043532,-0.22976975939135519,0.091942059616981028,-0.069832417025142354,0.081897902145667376,0.048857529948656955,-0.0183378879602588,0.1426796776741181,0.034493581931481235,0.041281413198600722,0.00961798077051194,0.13950028061612049,-0.01204010459053325,0.0062446765884410504,0.093141009741444125,0.039463950166631477,0.037147398125787483,-0.01214784629170956,-0.030244105894349442,-0.11210009261449244,-0.0048290898895679817,0.0801458418022442,0.011845037708902412,-0.030783707303655591,-0.11237205894673898,0.11785419020324414,-0.028241476953637223,0.06581850553048639,0.065925653308172821,-0.049566251728640286,-0.033961296745345523,-0.055541246311785995,0.14619478676135655,-0.015807856011210389,0.0240906996726973,0.076259927846174649,0.040021569528108321,-0.15222886883849066,-0.10083944890990834,0.07699458646028054,-0.021293976483763074,-0.011128808902948661,-0.012400181781705844,-0.076613661126150548,-0.048216701782167942,0.025946691738804022,-0.00068842370371637691,0.014458930610182257,-0.022102607480845495,0.0030257083808095148,-0.19848202158137046,-0.079383241281036965,0.053330027449087936,0.10021394088318983,-0.07376874972035985,-0.037406482224386119,0.077375367604555254,0.025386090148891698,0.015499694568975883,0.010429101033057397,-0.020419246139005632,-0.077973228198332065,-0.061773357815241264,0.057062692551923866,0.036274863092718261,-0.015123120292008243,-0.030486729706997048,-0.039467142208288911,0.031848855028483281,0.06864758541625908,-0.026445780778543634,-0.13890692367631802,0.02784634897326908,-0.0049623874606896752,0.072698676862676712,0.010950064253627516,0.015826866227401135,-0.090313560982360416,0.047326506126642118,-0.011394271862234824,0.051269436613616264,0.015655649511402771,-0.069906733697618628,0.03512838338905868,-0.082087626110050535,-0.13025286473131095,-0.028313837184887052,-0.057593193585508143,0.06116799028720693,0.078156040236865482,0.00041103096015791607,-0.070649426533639134,0.14734945081765841,-0.069564297761088856,0.075802047134174919,-0.034086662654084617,-0.07418961138861227,-0.0064227832455415667],[-0.171170442999098,0.058177891501676161,-0.1757976453193274,-0.086637794740163587,-0.074072912970179136,0.01909931945942079,0.0865104835700095,0.0294120730830543,-0.13298149608971133,-0.0036739624501949419,0.029723612407759847,-0.077599399853192391,0.15506354006557849,-0.0219143569435583,0.034181837306879986,-0.084958039716161921,-0.092405563957292769,-0.066082995311066289,0.082837390937122668,0.017374766734477756,-0.057918883385314736,-0.06936105804066052,0.03876298436975268,0.043792061446852888,-0.089137710787985242,0.001556458480857371,0.067655103244414025,-0.13253060196521754,-0.097110937529672745,0.10393628576371332,-0.065022912773727959,-0.015044645732341018,-0.086975852195324166,-0.064104553181340951,0.094383912898049052,0.09199809394204439,-0.08603086078445,-0.077566231476384556,0.072241355312444869,0.00430110721966583,0.055183092232021849,-0.014364082370797171,0.034711810484309373,-0.044616595946132133,0.032520916754139387,0.084211411010854414,-0.056659232532732071,-0.091230586240375611,0.038610424576002042,0.082136447354594966,0.00974508858173553,-0.07665073404821128,0.10871037879972285,0.0353013271990633,-0.020107700217013247,0.0885528133999171,-0.0342915125137179,-0.11791249915203522,-0.012694895945380515,-0.034489610035696727,0.00023208856383937989,-0.19334621010779002,-0.10390150355693914,-0.023716240074847617,0.10982475954563471,0.015138318281806415,0.072636127508262413,0.041748957814237667,-0.022544509544077461,0.034764346944766059,0.025705314982736888,0.083642917497095987,-0.043214764673949489,-0.076591470863075,0.0058122967368901424,-0.055825507054136352,-0.10230590267027909,-0.045169427428684336,0.086070142032290881,-0.02921517081259636,0.047642649122666726,0.031818928329879481,0.023522298603317879,0.14431431600919328,-0.0048971469709195624,0.12587860380246546,-0.11701273071714646,-0.052176880183751842,-0.103000883976832,-0.013967191584053344,0.048909427459115827,0.030748663878610756,0.0043506423678636936,0.01193354624769198,0.036515348947972474,0.0091459409308951717,-0.014110997023250091,-0.0344781532366295,0.027317881853168365,-0.0043443614059007259,-0.048354230048080343,-0.087118387654919319,0.05716939555057389,0.073730934446391019,-0.08192352728843412,0.037706900360872368,-0.13653083292315779,0.021993716972486938,0.0013012390116596145,-0.054248501326431171,-0.093920026902068354,0.044819878096038962,0.11084318609947236,-0.038340642980350094,-0.005967281637946434,0.03829032138061262,0.046279809907575915,0.049292341731304867,-0.0010269951799404889,-0.033254759867062438,-0.05030620814994631,0.054999154116722883,0.061143336320414784,-0.015414917077060039,-0.18316707445241931,-0.030286140524798805,0.01806750101017791,0.058355498305155934,-0.086107911738611334,0.039985029625910287],[0.054794577591912259,-0.0043259004501466089,-0.00079114518419360713,-0.10009834932994691,0.005616582103405523,0.17488714272723471,-0.072404961830763781,0.032283582950946313,0.12589525222206269,-0.013922405422587124,0.054607311628335216,-0.15149066718927687,0.0032584990801350394,0.024013325363762616,0.027586625857102233,-0.0029947888535579404,0.16926089381957579,0.04746355435639675,-0.11440397670831239,-0.032084699509936192,0.020660453232671135,-0.035791936290906649,0.019991600355633916,0.082992715734962572,0.076110078712577231,0.050207478209118105,-0.038230538465479337,0.044577254879984637,-0.11026901366639094,-0.025428607624988633,0.03934695332255192,-0.12992507999035738,-0.014847143844180762,0.064583062840483541,-0.038957193999922715,-0.053298707159493627,0.059178344929337857,0.1383972645115141,-0.057753858683294877,-0.11613332851478496,0.068396365897669786,0.027520204992939376,-0.052384272286788922,0.029526023004839062,-0.074012827382557586,-0.017149139360201428,-0.01624923766545178,-0.07097163779222164,-0.0011145864657662527,0.090946389521216156,0.047554234045528249,-0.067816849187316217,0.08560264307980639,-0.062436244369892833,0.024091995583638674,-0.017233715844129281,0.033874653133873361,-0.07882794064435425,-0.047104949012525751,-0.078339916753713962,0.012545057236277218,0.059690939520300142,0.017190928076312992,0.018635437300312158,0.0037739178708253037,-0.011514158145011545,0.0055510032969612252,-0.035188550982404455,-0.041284958356704739,-0.020652360696296258,-0.070985822963658032,-0.025342427438373824,-0.051204268002367083,0.085441992674085629,-0.034292010532990531,-0.044223935495535466,0.0320707794481694,-0.0050788916739717633,0.071551406384694913,0.014394000704945483,-0.049698523505767311,0.027666286906973581,0.07775502648786084,-0.13526772385726338,0.0738177942690814,0.0060768862481442977,0.041222047957657861,-0.051284360294666,-0.15819812873035652,0.0523851594968194,-0.045912770099468606,-0.030085032796130156,-0.0055671265532293906,0.026990560467460317,0.075519743658540736,-0.05340385871307686,0.022771114823087645,-0.14313500657510223,-0.13930563595090045,0.071535245893501,0.076715182317504,0.020794998101439966,0.02880525565804146,-0.0091717036631824671,-0.1121673472067234,0.010547596433871095,-0.049074756016656451,-0.11252541411413462,0.056927512412347558,0.023549378548996996,0.024435404806985587,-0.059319929892746759,0.025853953408237016,0.010380198933206335,0.026323921093467005,0.0084624574168797352,-0.047928098167252388,-0.021308817993453549,0.010120843845463346,-0.053179336021061563,0.021334610997253124,-0.10516358469586953,-0.096887084741440949,0.0523223600117986,-0.045947374578849794,0.065961378016757069,-0.020730807536334602,0.21415614648209203,-0.032946133900147237,-0.061400168566023247],[0.10391059956794814,0.034516374694070227,0.098607357344519073,0.030017133000997575,-0.015950805778990534,0.025445061832053237,-0.0075085903967581843,-0.022439149892958095,-0.052329176093521779,-0.011937465453344662,-0.027628043697398363,-0.11366592579363988,-0.036073975667989984,-0.15153435539149038,-0.10314755782450667,-0.080182319027811644,-0.092355713238800485,0.012335476933262668,0.018771278798423729,0.018033287026643655,0.018919774527630724,-0.05407338906329056,0.11360285763803867,-0.078536406369742864,-0.036874052054924979,0.1618398582585088,0.032488099947794051,0.17782108750451786,0.065992176447910084,-0.0040384059969252378,-0.10058512364119192,0.00818951670229279,0.0098185733851871848,-0.057345279429330355,0.16003827338364352,-0.038213550315074861,0.029632000892707316,-0.089422024433805355,0.06903058339214671,0.071282702119651126,0.066575154083295382,-0.0079007258809313842,0.017769293504445213,0.053944053420235512,-0.075464480949489043,0.033462172526493764,0.020070027592164804,-0.0066365041728895383,-0.0274723609327407,0.047488864771256543,0.06373618957036542,0.13235007412963143,0.022583490675421813,-0.092543853497977668,-0.099704762371869524,-0.12960854420035542,-0.077213570703459911,-0.01483327909810943,0.060627498119089143,-0.11634441690000823,-0.011098910160855463,-0.093676189372984317,0.039428194057778372,0.030770245971529577,-0.041571651675158153,0.016144865466378902,-0.11270977487429132,-0.018612683187227721,-0.048412933545642793,0.078498931402633171,-0.10444401909156978,-0.016080043641818139,-0.082090016540171715,-0.14732116649524601,-0.080107779275562424,0.11801911574240129,0.001867079244973438,0.08104162660116275,-0.001633734725609967,-0.07849144651358822,-0.036764017928963277,-0.039829461765231375,0.038912317566837787,-0.040035903632039009,-0.14779495117843416,0.13820993319403455,-0.046197069858631756,0.024516488533957843,0.047248839475815138,0.016246942454159748,-0.02613155293380057,-0.034599643910015743,-0.090536161521536054,0.021795335619989475,0.0081432720111906665,0.064354483461564957,0.096762102502093689,-0.0054336553854571236,-0.026404130273508065,0.031954289507189718,-0.03343263269679627,0.0584124231828401,0.029394220437057247,0.14097721302852509,0.023167562151607764,-0.0052089222827048122,-0.040116850903727255,-0.051089437747568356,-0.11165743271310731,0.0692182607618691,0.026293235704455815,-0.15423277351134412,0.040362682056253971,-0.10044223133749483,-0.11404255961808134,-0.067313965344938054,0.10103509171905151,-0.0047223767327399463,0.087541469920318721,0.10830996629216477,0.13825729460219804,-0.097163554660784857,-0.074510636759386156,0.16231478757702647,0.029141286450497919,-0.063470983583804569,0.019866591120847259,-0.16148330481504306,-0.0097969988616047419,0.040234798020729018],[-0.047132499894230205,-0.010793953676503975,-0.098715483879494512,-0.046861792658461653,0.25250116402891576,-0.078878122255707575,-0.035119787044263308,0.028598174305491428,-0.07528224896471071,-0.047930994996528378,0.040366902039939929,0.10312719901074911,-0.089034385438722774,-0.10284137558231024,-0.063925560940814252,-0.0198473024996272,-0.057075823329881925,0.10458258865028514,0.038384399610906325,0.087515864113448985,0.17240863841832732,-0.11004614821316056,0.094495776082624591,-0.044794309438274317,-0.01349323963072906,-0.012007731851426727,