{"BatchSize":200,"SerializedLayers":[{"Type":3,"UnderlyingSerializedLayer":{"Bias":[0.0,0.0,0.0,0.0,0.0,0.0,0.0,0.0,0.0,0.0,0.0,0.0,0.0,0.0,0.0,0.0,0.0,0.0,0.0,0.0,0.0,0.0,0.0,0.0,0.0,0.0,0.0,0.0,0.0,0.0,0.0,0.0,0.0,0.0,0.0,0.0,0.0,0.0,0.0,0.0,0.0,0.0,0.0,0.0,0.0,0.0,0.0,0.0,0.0,0.0,0.0,0.0,0.0,0.0,0.0,0.0,0.0,0.0,0.0,0.0,0.0,0.0,0.0,0.0,0.0,0.0,0.0,0.0,0.0,0.0,0.0,0.0,0.0,0.0,0.0,0.0,0.0,0.0,0.0,0.0,0.0,0.0,0.0,0.0,0.0,0.0,0.0,0.0,0.0,0.0,0.0,0.0,0.0,0.0,0.0,0.0,0.0,0.0,0.0,0.0,0.0,0.0,0.0,0.0,0.0,0.0,0.0,0.0,0.0,0.0,0.0,0.0,0.0,0.0,0.0,0.0,0.0,0.0,0.0,0.0,0.0,0.0,0.0,0.0,0.0,0.0,0.0,0.0,0.0,0.0,0.0,0.0,0.0,0.0,0.0,0.0,0.0,0.0,0.0,0.0,0.0,0.0,0.0,0.0,0.0,0.0,0.0,0.0,0.0,0.0,0.0,0.0,0.0,0.0,0.0,0.0,0.0,0.0,0.0,0.0,0.0,0.0,0.0,0.0,0.0,0.0,0.0,0.0,0.0,0.0,0.0,0.0,0.0,0.0,0.0,0.0,0.0,0.0,0.0,0.0,0.0,0.0,0.0,0.0,0.0,0.0,0.0,0.0,0.0,0.0,0.0,0.0,0.0,0.0,0.0,0.0,0.0,0.0,0.0,0.0],"Weights":[[0.534998859885708,-0.58289107222729064,0.38648095197136478,0.22882898930559631,0.33696845675453757,0.2782916016083965,0.31790774020739643,-0.48158834282796203,-0.12247107862495786,-0.47145119897274218,0.15243146762624157,-0.16155265050767026,0.3426090757000968,-0.091829571135321766,0.11475212859836165,-0.31966838351599736,-0.065804087939008146,-0.028817422569502964,0.18645179252070493,-0.36216348869013004,-0.24944050110978955,0.19287804530740302,0.20410584368258819,0.058484727690355037,-0.20359019297332723,0.17034269251316378,-0.55581696488575916,0.04798556674597234,0.098167864601692009,0.23188109740731652,0.54178991502940677,0.19806363598772375,0.20985346301328139,-0.15791674479748138,-0.11717946394565863,-0.099479552413928155,0.046903813308699263,-0.10791999349006692,-0.46247407763394655,0.088077567402968751,-0.52611382339257307,-0.52158198942996425,-0.34182440943128695,-0.37699709679922877,-0.2576855274393276,0.45836396788393624,-0.66333940463064045,-0.39350022516766409,0.19902159309433562,0.095289047354777279,0.096161227870889487,0.41192243441092707,-0.14732072176302305,-0.38612389614592779,-0.45679576449590137,-0.34372034776898686,0.44384653457478856,-0.72889483759808171,0.13069300994947367,0.15218362373253921,-0.04226878675750799,-0.23133815564144383,-0.4972557611884339,0.23138229176445682,-0.015714060495959938,-0.32711668541586036,0.090632692514731453,-0.2713262947325123,0.20466247721211603,0.069257655058550777,0.518738817513996,0.11477989056187704,-0.87645221083893976,-0.044447584478711485,0.57735820633714585,-0.63579682384245562,0.30203258731922994,-0.071884247064993231,0.18016307169051246,0.43088257175223005,-0.44654153475252895,-0.55309565062358368,-0.12968412770710186,-0.21852991456349261,-1.0173016632381693,-0.29302435655169468,-0.30847447115855825,-0.29294303627823426,-0.854540378357848,-0.57879975730944433,-0.1375472336035406,-0.047528242565106349,-0.028734698541049083,-0.30736793505665183,0.25790095471186031,0.037646542547145077,-0.3303195748824384,0.041407395505445782,0.67138231233154166,0.1511887478265464,-0.29722884096455865,0.26876676538233008,0.35984130763742889,0.14262329905503463,-0.2981951523124155,-0.19709810866835506,0.42900371548026395,-0.000998355352361474,-0.33431722528197233,0.21497284934225192,0.5642755224952708,0.5191259692408885,0.15465057645573946,-0.23025294277019931,-0.24000346869851474,-0.086299372764459481,-0.52557945910440906,0.0032134725089791316,0.49449461224365987,-0.55676251954403233,0.09699608602117131,-0.022132220093456223,0.45268776662667609,0.27828758336297349,-0.030354341785054858,-0.42736900847072073,0.3236981363277211,0.98352693478799358,-0.35816701056632583,0.28524063308462044,-0.39245726299535882,-0.20797557786123411,0.68795333332644171,0.33818808816560558,0.2113821780502077,0.49356338426262736,0.08450803058677242,0.43151725936062207,0.44685258530004845,-0.27543096800130257,-0.81097883316691333,-0.25359638333422613,-0.35648687054407935,-0.064233766718340954,0.16648857741911163,-0.32878946143139909,0.36462658103394391,0.002147595623987115,-0.00049183526376550676,0.30766973637509343,0.34222369341195324,-0.32664648774726934,-0.12650857723844108,0.31485908447259892,-0.1052872532610129,-0.031169808729430672,-0.26448490597319013,0.53826497647713034,-0.72611358252507585,-0.2031518398535207,0.35858542891745621,0.077639320217748733,-0.61661634002660315,0.36614965318993359,-0.038940284055522557,-0.72308967072577357,-0.14209506608684044,-0.712609671718163,0.20089000125582884,-0.39596030888720307,-0.48244977658034621,-0.612713737686755,-0.14908191256359929,0.24933597860780424,-0.46793183845067871,0.22818325860072553,0.17359153166416996,-0.30943898729624786,-0.11348737023212083,-0.082214230709791322,0.2002545264940245,0.097562412144075392,-0.17294340633336161,-0.0027742764894134677,-0.13459425909812864,0.26358967218079576,-0.097153654446518231,0.74609353633804421,0.655423907560049,0.035208693967451361,0.076465913262774049,-0.30400845889201489,-0.018675828085161182,-0.070615561119930323,-0.34366127466709279,0.0741632694781492,0.55071940465557834,-0.028510459872245517,0.48432811218695315,-0.22222777221564682],[-0.24966927304696748,0.48137614224306796,-0.47883628017269103,-0.28906995490413334,0.039338796303721557,-0.1162322740911845,0.014398062113649432,0.017149704880213688,-0.38348664286872136,0.6020455484840006,0.07060321552259291,0.137830748656981,-0.01347403429010245,-0.51736887633652529,-0.30960653393123005,0.22524183163094835,-0.1431927333896823,-0.26372826203095912,0.064469918450787922,0.24990396999536488,0.24705687568983209,0.65644597453797338,-0.28882729668082707,-0.20199597520828025,-0.12578578171965207,-0.08438463774050449,-0.22986152537178686,0.22452272550672159,0.025756914992276937,0.43703534512058184,-0.07495931651116497,0.77468646605708735,0.23553725505360906,0.018834377776001228,-0.0467380917951238,-0.90665103459397778,-0.822770186188254,-0.2538691416727139,-0.041977235574983757,0.1152818061346202,0.042345645169417925,0.36316221364019508,0.096675915342215341,0.46382914937864317,0.021572961514724005,0.36987391536412884,0.652030094628168,0.0643418234619261,-0.00793245709975901,-0.14132684971543336,-0.0774786630296571,0.45220550068862275,-0.08715076055036397,-0.037624422183100539,-0.16645653643008262,0.20128770917502167,-0.29762682266730772,-0.049067636429991547,0.053187671532238467,-0.15983457346523528,-0.26019498809345082,0.21027477523089616,-0.3355794468763923,0.12815377631901329,0.48431661179875291,-0.4453594204085744,-0.654988620708635,-0.38800029890915894,0.14054419118370432,0.23875855800252874,-0.231558219632752,0.7167896088905813,-0.706520609597586,-0.041828055843959745,-0.33609524289598985,-0.56407684846227357,0.12311324116795774,-0.0044660010989531988,-0.53717659537923879,0.81098340533063018,0.0832781452594873,-0.51560462956697384,-0.011566768264191949,-0.58044294485879366,-0.65440791365262641,-0.16039338102819967,0.11509872425204117,-0.09751916174287184,-0.43204867411962794,-1.1408442578494902,0.364123740204396,0.060416404191859216,-0.40566735481931582,0.36409312902206,0.57343557275161139,-0.18899176841420548,0.10468303527771446,0.52811070933839765,-0.56007515835110711,0.13707486255890169,0.038812189930236635,-0.0726372850080904,-0.12045692035363682,-0.95568227013034479,-0.49403576691937651,-0.86234809750323338,-0.36483852222221519,0.11691836196451554,-0.27441853859385529,0.0056635879104402617,0.27928684879310323,0.04518161614114246,0.26928771119299433,0.21636529675474078,0.22002179445775708,0.19983145167190586,-0.077888210210692713,0.08818345231759292,-0.076202875546532767,-0.30164163273656908,-0.625054108741167,-0.041752128634905378,-0.32168653838910083,-0.67608964101511826,-0.21318386522036387,-0.15597053787400622,0.260336737144904,-0.384862471770303,-0.29754451773621721,0.25437542511175537,0.577425009662374,0.43246468268803212,0.62766801558862106,0.24405923772801097,0.1323230470801586,0.23464252482198589,0.69180528898168236,-0.27385898964228261,0.23572996716629838,0.23361920600341832,-0.68842303722259623,0.61798290621747631,-0.1962089575179691,0.44405020281151952,-0.066775560528512135,0.60772591819276,-0.30559307304204036,-0.046119747242828066,-0.000418380566214428,-0.34276859293241879,-0.16820142416689091,-0.18341549358356002,0.29458268289705936,0.66748302827295369,0.030336438703253719,-0.47941209321853989,0.17028029782761089,-0.68530218415755773,0.15997396825117019,-0.098634846668971918,0.32151952403554507,-0.24769452479031584,-0.59467833078587318,-0.95244627246989255,0.32212189219096832,0.12941593752902258,-0.064573096570752622,0.19824694573592819,-0.014348195578425685,-0.29797954782718428,0.39636619256051614,-0.093072657398482916,-0.011919896161977835,-0.11420432493598046,0.13288097738445728,-0.50506631074804431,-0.098420371060186085,-0.038345435701087623,-0.012117566768596771,0.38029662399466813,-0.057880239067581322,0.21169994315676963,-0.1524773592368725,-0.057338538869551918,-0.28593146939140474,-0.336096690584202,0.14557361035675379,0.98229666878144117,0.1655221085112166,0.24555841218881355,-0.3600158355139888,0.33503705905111869,-0.437351648775931,0.13405967449966225,-0.48660167075099542,0.47189577900437729,0.3180586924071746,-0.21385094158168264,-0.094584045058596217,-0.027972977360123021],[-0.515822691997779,0.22048511461968809,0.12595487505801334,0.80948133812765966,0.60926398420866146,0.37373155705346511,0.22871862357475326,-0.40110604474116046,-0.064294846878278342,0.40074616841655325,0.25270350307518141,0.4522792178552984,-0.332998378325278,0.31230084354730797,0.56164556392375542,0.38029100306388119,0.20702597619721783,-0.42555967894599228,-0.31866106668237687,-0.17083442515014929,0.14547174597176171,0.041918634802930545,-0.087580979461030758,0.37411096096365909,0.15993756027142878,0.17706265240611366,-0.59984985754924047,0.14480521691300538,-0.11558399081728114,0.7435690937871422,-0.097430939846696776,0.6949886225012587,0.26249496764016073,-0.44740112108259589,-0.14716991106989005,0.21823692081888371,0.15524764354740891,0.056076243604556583,-0.16014601075793214,0.38897571830267391,0.29513241667824752,-0.2181711208447667,-0.33946174649478744,0.065674208849314436,-0.32979023057300849,0.29584600250853238,0.94299283956331537,-0.35885072122434875,-0.31260088717582035,0.0038980543198050156,0.1341065290629759,0.089151862417435918,0.063942099698348645,-0.68738007420165426,0.25667898003899658,-0.10721173432986179,0.33987742461977755,-0.40982546645042417,-0.15351742974682708,0.26158254805445563,0.12978454870629072,-0.13806333290038703,-0.61691991472512031,0.070199194011780056,0.29588708525484636,-0.008651908174337114,0.17986564255700549,-0.39278958703151923,-0.13358908834530373,-0.41383173457446182,0.11845234428010557,0.170075153558079,0.19883793329096028,0.79885658686158589,-0.063093589057426833,0.46756581195868785,-0.039117443158274895,0.39391981862599967,0.013282046098225888,-0.50698806301570953,0.645233177033028,0.20497758188804482,0.42722479253432055,0.011223237232098345,-0.34970881318901348,-0.10233295352124619,-0.22168738194718662,0.52553753207025367,0.11679974931602567,-0.27265560287265389,0.40131569494635305,-0.46909408783467216,-0.65969899254538311,-0.47002328344732625,0.60766723453799421,-0.175483384175781,-0.341993373712487,0.39499533719975077,0.28615274946246133,-0.45634694717495339,-0.39070023281454086,0.35155891468898265,0.26815897959073826,-0.10774412290932005,-0.494443592830631,0.47890333746335945,0.084901079392931733,0.97210214269543216,-0.64778719532112339,0.4702252135756565,-0.56362503837734279,0.25286258089149394,0.32927675317356569,-0.0086472794488477427,-0.65097073070963785,-0.074100666057929143,0.11866822406322192,0.79374813800643285,0.7378219115286252,-0.42574245069571826,0.47404147494172694,0.08469853030129107,0.12638583120730421,-0.21612132108819931,0.068502702555810063,-0.37510106821947126,0.33732422148170027,0.30724624869443667,-0.058096766201331591,0.084169967078633126,0.074864391719591056,-0.16086389171987181,0.13734758271798228,-0.30711766372969562,0.7107710691810476,-0.6237830724632808,0.091894507906429238,-0.0768723297562598,0.40835320002168279,-0.99506783714455549,0.30932482945206868,-0.1582577247035992,0.09080643292370022,0.29065833462727281,0.27457830782860637,0.148770593193472,-0.46645371391205709,0.33920232084912877,-0.3003723029765496,-0.013219367422661991,0.35832550172264194,-0.16844392241227985,-0.62702942791124727,-0.27862861701396668,0.76164146801300969,0.086496551155090209,-0.507265331699114,0.077508701008350042,-0.71402420889524187,0.61058643285288516,0.86372127991622538,0.18069152789138535,0.30338396746740581,-0.11419631879733611,-0.23167792478725574,0.54584559472108285,-0.026695282935557986,-0.29885261361515369,0.59632542010639478,0.409272874233026,-0.086756401144725825,0.29655991502864226,-0.37716780412670692,-0.59560448493620743,0.54212863899882235,-0.17176367120674407,0.64805442737814045,-0.11699996035359452,-0.21376480540792972,-0.078481256279140724,-0.24527725964681532,0.41945110540644476,-0.12626793944535231,0.0022594542947458811,-0.53802911853634128,-0.3334816090659079,-0.20470989593490105,0.16243938505403063,-0.49511418498796167,0.53861818391690086,-0.22538524844611918,0.04450081560146444,-0.41182606536849448,0.1686267244361313,0.046200238750688419,-0.55999944058404061,0.15638048785047518,0.052492683094161011,0.33043914154226911,-0.0055037886041148275],[0.040560822709568983,-0.16576298341114817,0.62705393336890447,0.18930225929934533,0.967153158538866,0.1873942242746873,0.03038270805906898,0.32337292936974582,0.29764283637654332,-0.41490796814347342,0.43944932326410124,0.250147125089438,0.1475601668064491,0.56497124919134578,-0.51390773684812918,-0.35657997312015483,0.50098427549152091,0.34996428133245733,0.0703913835283875,0.064902827993488607,-0.59535508688707339,0.21887272113425577,-0.36679449034393391,-1.1861381419358863,-0.30528431898633568,0.024370193101708352,-0.39191384078575442,0.10796822219419534,-0.17747612479563982,-0.33892980559413155,0.29518065464263848,-0.64416628429216538,-0.11329632040711016,0.11537857514538136,-0.39405835038901771,0.32509656671649334,0.077422047207221567,0.65209214479435662,-0.34368826509474015,0.4950593203835042,-0.43777905047872456,-0.260312913786866,0.81787233867991549,0.24607608403587727,-0.2799284077190432,-0.10353896428264503,0.2849975174380327,0.0059888975701156508,-0.13770042314313957,0.54815828103397035,-0.023032645830482215,0.25307502362550471,0.21388904648692417,-0.044223290794362796,0.012498705665140985,-0.17494990086807488,-0.24314849288525328,-0.35713235666615917,-0.54782340773807525,-0.24200857133821535,0.24743350759243266,-0.10362700377588414,0.47718629503938226,-0.51503400514527886,0.12000275509866007,0.4818742331268675,0.20496212834359115,1.2916797544145418,-0.31786289684865637,0.023639827034276865,0.5102305074936998,-0.35950877141991039,0.54019305164037834,-0.08743349752727847,-0.39085760086153221,-0.64028611765081445,-0.16194664973019857,-0.57410322913980638,-0.68122688962304967,-0.017095002797409012,0.13974547770200371,-0.36683127520485109,-1.0228426614727759,-0.3974414445940489,-0.20695413904614113,-0.19720086173526466,-0.020841834686771879,0.32243993119410169,0.55109552928830041,0.54406829343658836,-0.1761512451057845,0.15145584994281958,0.11479448459865729,-0.61453148140487079,-0.75787496171630664,-0.16865529221313763,0.25494860299927125,-0.10729244163353546,-0.17121383043333757,-0.72668564755566034,-0.388629064743883,0.36522937857016508,-0.21699060861592914,-0.58268343906010989,0.66788921473635632,0.088995665428657181,-0.2850844460166056,0.10546816074588238,-0.026512411696626208,-0.52849026878037586,-0.32273448969220314,0.10288593476195475,0.060390907253729566,0.11347570173270222,-0.21751317863791661,0.41561734570824144,-0.32321448517000034,0.13156451276096007,0.3449315594757108,-0.82943148596380845,0.33202875912331231,0.21688909825137795,-0.29525181449799937,-0.01076394889804781,-0.029532214521410676,-0.068757839440213353,-0.33987763502785884,-0.15381284558297442,-0.45074261106947117,-0.43395039088378295,-0.2569820307959168,-0.92340707499265218,-0.084991645936723342,-0.34790961677076487,0.13175408785671944,-0.50770730123148744,0.098119719461602084,-0.19368611386920251,-0.16761185002659917,-0.15937070917898785,-0.3696918526374679,-0.22453655973671041,1.0735194011277607,0.42436629775876045,0.2831645319964704,0.41596308369825441,0.046712198254238814,0.549100668392312,0.66415125750578308,0.13095544177553753,0.0052706494471081913,0.56305948709706644,-0.055053967739132466,-0.52517259166258523,0.31640855392548434,0.3696497837674505,0.045440953179292365,-0.20707460602632441,0.14255328982750604,-0.32643623448508735,0.24423665413597689,-0.26389707850629746,-0.42695766932530183,-0.52202769689236839,0.37836479647170346,-0.0011723738709385019,-0.73053040583421347,-0.53347193477146615,0.4261175097640767,-0.096440672668913666,-0.19133485978388048,0.572005300856373,0.10030810430557964,-0.090039355719823466,0.24345650692527421,0.46745500902746567,-0.22291365528082868,-0.14516935528244684,-0.060759220329491513,-0.30308400222137349,-0.13587952532556835,0.1508474426620304,0.14247826105732042,-0.5280824003520076,-0.65058012589574854,0.20330388270124469,0.70556103920676627,0.26574628574773679,0.044224255997210533,-0.11036108142893333,0.38864695010866263,-0.0010914932218341234,-0.025935294362120023,-0.627960089199274,-0.28076642782657157,-0.53712431818216155,-0.11148414664419219,-0.22387161202453237,0.43129081477847719,0.33380459098188792],[0.43107578833623678,0.29616902937990808,0.47944246067320007,-0.30342956401161075,0.046397006218042991,0.57037196784888489,-0.34327789001073394,-0.18224177743271189,-0.34622901600145994,-0.2808016190300634,-0.69220510912776678,0.11462117315797965,0.43784017220345917,-0.11208963713065757,0.23193248561118426,-0.22525295977247681,0.14481823155815471,0.355169596019352,-0.0042517969937017038,-0.19131350369158609,0.034080290329149325,-0.048346933836482121,0.13496064015079612,-0.13220042799729434,0.054871471480311677,0.096851639520157656,0.029310192856372527,0.709973601060719,0.13611247702461904,-0.74665111465684331,0.53415280790700714,-0.40465192353174728,0.072777424646147559,0.45521108603916444,1.3143015627479457,-0.096102260672497455,0.34519994673041043,-0.031571516967888555,-0.26075923177730026,0.059938853007729075,-0.05414383201698568,-0.60390328330273524,0.23173109255979565,0.2102098488546042,-0.17727776346055091,0.27965809936818004,0.078866239538551042,-0.18119976936333568,-0.40320766428002353,-0.046799759193861756,0.44687605346393833,0.086558627904202518,0.32080184460216143,0.22155166131357237,0.1546103687389839,0.15480419864730524,0.29395559786785586,-0.09662709291314997,0.66970653919567946,0.10439691937005662,0.42004683474789556,-0.029938373441506551,0.018172225216391259,0.17456067460706309,0.091020893006684353,-0.44362518795923617,-0.24811212773460642,0.18789669288228039,0.608189925828737,0.20796625154406878,-0.24122861705370649,0.35262275260665238,0.25682110252101231,-0.094817887789792568,0.0913732118677891,-0.45343475012131107,0.33643559590556604,-0.21399039084999566,-0.016379361090846107,0.24671887719398139,0.49733813757303236,-0.058921691378321761,-0.93885297840598225,0.093376467676003508,0.09513063289009413,0.94024293980364837,-0.30562194215523325,0.12799385191764726,-0.21780030237464845,0.0744414163074898,-0.77935075277242,-0.51565052916406073,0.84516640191218662,0.39899775714677488,-0.39202269578355109,0.29793194549628843,-0.48404000341136166,-0.65346866434701134,0.22804147079846687,0.65555667491497438,-0.17234704364970785,0.53494625274280683,0.059191576320719558,0.26587818251132445,-0.052319896765724835,1.3422986612103833,0.10555187347058795,-0.39970966547549747,-0.51098198250640814,-0.2818912005376476,-0.12537860513403606,-0.34128760366144351,0.098601026974596093,0.27919472661661987,-0.052112485663801215,0.38918084340806686,-0.047037092834452052,-0.050449340189402052,-0.12668896804797705,-0.73933263850627617,-0.36956319874818638,0.2856523721113563,0.222549248320902,0.24079312506343703,-0.20767830748666005,-0.065011507050423509,0.15603125291314654,0.37052675269491986,-0.22330388604361481,-0.04272948730554646,-0.86477969879107552,0.084010410821017525,0.44273809826444382,0.29922788991384269,0.40550530442018451,-0.1898525694701485,-0.8623202930600411,-0.80008426041041447,0.20612935405341723,-0.412483120368179,0.24819929847652361,-0.20152423077387377,1.0617899196357998,-0.12443500986133609,-0.47762743035305655,-0.39405951961010871,0.2133703788329866,-0.46422107918978905,-0.049501293499352179,0.1704070625652338,-0.58809244050550724,-0.0386953319685382,-0.42560509490949888,-0.448035698127855,-0.38443660661263679,0.011972708760528915,-0.14714142291803331,0.22547472128399776,-0.12651992964219433,-0.099851382901924232,0.24580013700627387,-0.351403315809894,0.045360787784540113,0.28220558445183147,0.25060820925795946,0.4719656274387875,0.035615415174077944,-0.22436402489007146,-0.37600653458090483,-0.28398001555940744,-0.0932308680983511,0.45769189184865472,-0.46298711069940146,-0.32199118482254979,-0.15057590844927976,0.54133580247488011,-0.13439886361435097,-0.20474269617138721,0.14762033663199387,0.14110527760154518,-0.080693865286806971,0.37807479484270312,0.64121696437142173,-0.25106793122644933,-0.14983213474573814,0.27888910769096886,-0.57667887665896922,0.10110123791682589,0.12694094333920769,0.38179986700425722,0.14321331105130841,-0.54201226959029181,0.51851738738294018,-0.55884419715153377,0.70707807722097982,-0.072065221706447,0.05400078566995821,0.23164185397171741,0.054587601524307042,0.00798969117652981],[-0.3269000210345413,0.38645478501679054,-0.18891056602212883,-0.046821978207516893,0.20647982337143289,-0.438916362640009,-0.26205620511353261,0.030959329160223863,0.43285612034546744,-0.22528839624644562,0.13436270840158082,0.15528806274340926,0.0083686119219569238,0.19414291337789533,-0.0016081192412042396,0.5101340805962673,0.873914112461469,-0.24966177408551549,-0.72425306586275606,0.12612753420368858,0.16426486515413771,-0.20388276036714378,-0.80970641139215616,0.0699513504855867,0.1217970106824018,-0.67675814506924681,-0.44885317481398,0.080897042585549708,-0.33141434895725252,0.027147632418208698,0.0744319138712519,-0.06935040689931192,-0.26004534900101722,-0.15327969330437971,0.00631931632954746,-0.03928132120056458,0.41767079565367121,-0.03264482782274563,-0.1260678265463937,0.66983420057582377,-0.17165877846002942,0.38842763692779159,0.026417721772385244,0.19930660369403541,-0.029928527020656185,0.0084611169601577652,-0.091516199778176488,0.1390624921305133,0.02944733306047996,0.21117859217058008,-0.38762083407596509,-1.2681966835826242,-0.057699694786297683,-0.069974590359623612,-0.21323161278789285,-0.017233937063576021,0.025270848164809009,-0.46671928575896837,0.048957025442141526,0.44965424110163449,-0.18782811464986984,-0.38355326645107396,0.61951152261883091,0.448434170255718,-0.21018484273483351,-0.3047316544205943,-0.15853216486807925,0.063084473244772149,0.20958814787061419,-0.13830623423179494,0.0835897969790808,-0.34735457853369189,0.065683407599355967,-0.31093836742695707,-0.24730521792292959,-0.13259143416310226,-0.266293272942087,-0.20538345394717814,0.17681908062772492,-0.83832720289158935,-0.40707653166294877,0.097280512009579961,-0.22924749226033772,-0.59262508687640925,0.157089756693268,-0.46061481744401028,-0.015800150452523486,-0.27674839837784604,-0.67591427759763045,0.025733583819032974,0.066641844782252227,0.29481621804341562,0.75056292128673974,0.047291701707571278,-0.15805330893909603,0.22817808460455721,-0.11129722214016502,-0.084793761754783481,0.23847604590391264,-0.21832465781672678,-0.42169949338594537,-0.35845994493703082,0.112023499393396,0.13594283152606335,0.35403640955953514,0.25064194766852754,0.3359983862116685,-0.59934168170005764,-0.37404878061734614,0.20688866965562097,-0.08293787397538116,-0.13272591720044005,-0.23304822342308557,-0.760242329005447,-0.33013018637456981,0.32178070326210972,-0.22132569018968107,0.15452849294996196,0.59170355410771325,0.04888771393192224,-0.36556135105382082,0.18611992004566658,-0.49665904304371683,0.45683620866083763,0.16469094181366653,-0.2089390638217912,-0.13344689593146844,-0.12647089653100377,-0.036593955551752495,-0.048525364919481014,-0.14691534370963696,-0.20478741464436814,0.250997160970014,0.11739513933398535,0.66432633312552614,0.085314528914045257,-0.55427097789723956,-0.21341721797003554,-0.45148874736701233,0.26124654585568835,-0.43771774497994365,-0.39164830183841015,-0.46830827090211086,0.0509763966895001,0.14065097710831567,0.034868304564155413,0.099827480710041522,0.94848521375517658,-0.56794617089386012,-0.096620311517149476,0.47888776128729282,-0.51548816716678791,-0.68185200788567157,0.53264516103851423,0.26004986130646995,-0.015475684415940166,0.2237153384717904,-0.93565024660571217,-0.034816017779704243,-0.17076697509718691,-0.76307052866422087,-0.19882522933123742,0.033335267705061844,0.099180110759544027,-0.018334900310467434,0.0739202423860215,0.23144535971332625,0.24316284880147018,-0.039666425403775817,-0.31877617672244718,0.033600360256427604,-0.008991475880664632,0.0020372541433050697,-0.39716423424810926,0.26497749295419293,-0.093948327686230321,-0.021247310398179616,-0.44518687467937895,0.04644838203164834,0.9647849923883256,0.15053790692692648,0.14912285013778348,0.028792068365300797,0.43114074224231036,0.12466264613902819,0.19872037104182466,0.18554210285802916,0.7177508967521895,0.66487139021755759,-0.21632488100840219,0.12410311596989844,-0.93328454648770764,0.067741464220331532,-0.55318072176980715,-0.16874165650238007,-0.082743604278756988,0.03228472663869246,-0.24904668508055083,0.1443435417024275,-0.5897805547470728],[0.50764693258638272,0.66987338385149653,0.22184305164746621,0.15341612545601335,-0.39119363221741,-0.2303160352118466,-0.20724013759338528,-0.5811547387817243,0.77091736177350656,0.077099618025402633,0.077568444457980987,-0.11392116208215523,0.810023003504722,0.56030459347174044,-1.0894369347796111,0.5225560623924,-0.026490345524207107,0.227793900909515,0.193662688882253,0.017656136282772718,-0.073375472139671619,-0.44154669298996885,0.054820473553903085,0.5489388999985374,-0.612439839119026,0.29081906979664829,0.25515562027105976,-0.55970268345301144,-0.68961544648371631,0.36795078007440257,-0.27819822079724049,0.2497882646606357,-0.60401226525145379,-0.71452469151948328,-0.16723294933588681,0.312545287494908,-0.15436207623957274,0.56710018723089883,0.0714569577593041,0.27233122515247532,0.021616159921670527,0.46428592849979472,-0.010892094289951845,-0.71395604858725481,0.057456016517484172,-0.30882405714436184,-0.50067382277934147,-0.22461719358110349,-0.39678847323391875,0.33687804702702134,-0.023931771496991338,0.37513224285786745,-0.037876913371202831,0.70403163702492877,0.037875472165939492,-0.38380053350376137,-0.047796388215632937,0.075969502285831589,-0.3094891525597005,0.629122890340466,0.073550751714939508,0.18083838251130424,0.25646098548747065,-0.28052956644371496,0.59459251807315561,0.16441204346027225,-0.15727217517618083,0.76375439203591744,-0.12118124083024939,-0.10042451791785101,-0.69878691951528726,-0.057721589548225392,-0.14810952686388768,0.0045317455563676223,-0.013952597022698335,-0.06228310475366438,0.036765538906621105,0.010837572657550346,0.12656272058403312,0.1726804873166452,0.0964598305852535,-0.58324657078688569,-0.11391398751803371,-0.13236921623542255,-0.033694671805640668,-0.3457621621949809,-0.15684909565073063,0.024544680941395544,-0.22613355926370662,-0.072633459879101608,-0.41298747866596153,-0.48062585712721956,0.133429469091841,0.0156300108788797,-1.0079955077733966,0.15082097926147398,0.040790522488267165,-0.20281851088000363,-0.063275534241179612,-0.13626859991856336,0.18843147992511702,0.067691718433035467,-0.35997106720418554,-0.28531211999458478,-0.18344187917271543,-0.72324627413462383,0.038355640482151308,-0.019271031970567624,-0.20911748226059951,-0.35797524581660611,0.40692012598735183,0.066740509000142709,0.27023501472889455,0.21736826295326872,0.20076507798496054,0.24091564119122763,0.53177508974156684,-0.16398657141071263,-0.15005758906420605,-0.303965997315371,-0.15206599628304696,0.16836441041092581,-0.3662940705758454,0.085126338229040338,0.29426407155618661,0.22636694472037472,0.080170449133278893,-0.17828837723793672,-0.28094486855243134,-0.16868929637856817,0.27720333888830068,0.10240478836908044,0.30460491044245769,-0.22388793019975706,-0.15221030080816508,0.48596584574669555,0.29277448926147409,0.37487534806989969,-0.21414657649455593,0.11670999904240564,-0.015287335322367514,-0.14340429327736903,-0.057566450320643947,0.23703071325555783,0.070262448356156124,-0.34369285081856793,0.26658190640672347,0.46012799949464245,-0.21603753057491967,-0.47771847649641275,0.58376698125901327,0.06262327670925591,0.19814095558001665,0.37192311706358533,0.11689211531058968,-0.18318978817832068,0.31766105080637619,-0.14331315553208668,0.27615894250259748,-0.59909541722479087,-0.0822285369095532,-0.15038323197897513,-0.28457414887612731,0.12201980789614746,0.24867262695418849,-0.0074172981831963592,-0.094391355349671538,0.11013580629897908,-0.14481185599534291,0.48393965413932771,0.7786238302134918,0.036940847189020951,0.066161338449305732,0.014884218277000644,-0.46714469756517812,-0.38777284808619633,-0.2938109400615202,0.38587157684366191,-0.72713598881762376,-0.44287710094319943,-0.13351898561292963,-0.1919543796064678,-0.0400752403222091,-0.46063206541444551,-0.00031718694454965215,0.085479979990575009,-0.15663385440604602,-0.42593254143367509,-0.45510054792622773,-0.066377652106211937,-0.088106156417030276,0.17809471332938837,0.2766064258797391,0.4095245219155525,0.079090350231346959,0.59748151706780506,0.25520936432307356,-0.045894354844858841,0.52039142842240182,0.097080288681567942]],"ActivatorType":3,"GradientAdjustmentParameters":{"LearningRate":0.1,"Type":0},"Type":0},"PenaltyCoefficient":0.1},{"Type":3,"UnderlyingSerializedLayer":{"Bias":[0.0,0.0,0.0,0.0,0.0,0.0,0.0,0.0,0.0,0.0,0.0,0.0,0.0,0.0,0.0,0.0,0.0,0.0,0.0,0.0,0.0,0.0,0.0,0.0,0.0,0.0,0.0,0.0,0.0,0.0,0.0,0.0,0.0,0.0,0.0,0.0,0.0,0.0,0.0,0.0,0.0,0.0,0.0,0.0,0.0,0.0,0.0,0.0,0.0,0.0,0.0,0.0,0.0,0.0,0.0,0.0,0.0,0.0,0.0,0.0,0.0,0.0,0.0,0.0,0.0,0.0,0.0,0.0,0.0,0.0,0.0,0.0,0.0,0.0,0.0,0.0,0.0,0.0,0.0,0.0,0.0,0.0,0.0,0.0,0.0,0.0,0.0,0.0,0.0,0.0,0.0,0.0,0.0,0.0,0.0,0.0,0.0,0.0,0.0,0.0,0.0,0.0,0.0,0.0,0.0,0.0,0.0,0.0,0.0,0.0,0.0,0.0,0.0,0.0,0.0,0.0,0.0,0.0,0.0,0.0,0.0,0.0,0.0,0.0,0.0,0.0,0.0,0.0,0.0,0.0],"Weights":[[-0.066645382206434886,0.012542448245448572,0.016994193796290514,0.10175775698538339,0.036801350695372159,0.072461347815328911,-0.051542423601571873,-0.0052894885922602358,-0.077159414454300343,0.074854906250072947,0.054784514477576304,-0.097576402151979366,0.098877430898914612,-0.026922320172699885,-0.050757105710102904,0.015804108016872025,0.018904467382863988,-0.025137400080993948,-0.031990584700191026,0.014717648604339677,-0.0021875170899728568,0.10432869527667261,0.096599903444701554,0.079288726995133285,0.061020845609961447,-0.030610754183464151,-0.017803656991646443,0.082665192453106162,0.076317974539702918,0.095219859523613143,-0.018189544281554858,0.0080167260965319839,0.098420751426371383,-0.0085206342175935916,-0.11785395058637668,-0.092048891253000392,-0.074981968701872112,-0.10184784410658437,0.12790110898337373,-0.094162612770039941,0.11320521757856367,0.014343572152971721,0.055680346325810863,0.065611665113755324,0.064676101547508927,-0.077317963402818546,0.050312586996179375,0.0941269747603075,0.013006026612771515,-0.0096370774811682415,0.045254896172909793,0.09321222506918371,0.025562082731246598,-0.018587268611884537,-0.084794702434688812,-0.089849381294615477,0.17289165122715966,-0.16456720236983288,-0.046807793623610733,-0.060377040546573016,0.039759074934536676,0.005478618616748491,0.11037878556732537,0.028443689892124722,-0.012767300894653257,0.014231925085844779,0.10924115622583026,0.14054591267277874,0.025975810690465482,-0.052683624237337127,-0.15340343953775545,-0.0045597919779593659,-0.051259199666640984,-0.032931730286114055,-0.066198362484674991,0.029371050503853437,0.098001332667033619,-0.073469791570897058,-0.072598453549011441,0.069121530709476867,-0.14740574807055049,0.066659789020987917,-0.081341246076100646,-0.061664222279151464,0.03910130163840532,0.030163758956071589,-0.047300593811228975,0.12009105605928143,-0.027562415297262215,0.043692858760987052,-0.042169458389980791,0.1153256243023119,0.072879596495904517,-0.020971512805776551,-0.072381455724891311,-0.109768411072551,-0.0080052778490579731,0.08114883892615081,-0.15429061098319072,0.14894573620141482,0.10058149820364146,0.098585695272362051,-0.048125862882938443,0.042297308728618088,0.0660691838887444,-0.03349312266562382,0.016944493434159338,-0.0026394742828011394,-0.073045377069614156,-0.0727192671187328,0.013685579465798837,-0.0712932528685206,-0.14397372927789132,0.057549820637672888,0.1034367633194942,-0.01781634167237077,0.089702451302466332,-0.12811365849854747,-0.029110940229719259,0.085236517295560241,-0.092511391041433466,-0.051503308454045583,-0.0063221502995221661,-0.014643876293669242,0.0793389673876614,-0.11748776683662712,0.073807834709742476,0.039194839307116654,0.00554035590499289,-0.038822771396541153],[-0.14033035087593518,-0.041085679567535179,-0.10597202704529575,-0.083133333764401254,0.054825042023136435,-0.10680320642219575,0.038108236715430281,-0.099530045955301627,-0.02355423793540469,-0.010299840369839414,-0.0013049824135269198,0.013282977724526024,-0.05686132363316318,-0.0313620096977545,0.00811929269996279,0.054521099567605785,0.042639422054635785,-0.0085210647686117125,-0.03191628732515412,-0.03822398951115253,0.0071043989911692305,-0.081808137238058423,-0.032677421764231836,-0.023947169339302049,0.072596552661687033,-0.017361102425974422,0.072187819526276883,-0.041435047252779508,0.13849971290923344,-0.038226429539477594,-0.05452317216161609,-0.07856312228350848,-0.051709485051847096,0.030123733817308106,0.069474475127998675,-0.065899614823021993,0.047914930573076511,-0.079037968629917923,-0.090075164400904614,-0.057704285755870284,-0.014702740729373876,0.027956355048064537,-0.025744111549062414,-0.030729935470061691,-0.012231670383777581,-0.025608710356991457,-0.029812483568122605,0.0082638137195159989,-0.021556402100325153,0.026461855080998156,-0.02308522269698601,0.040863429644710215,-0.024101351156345697,0.019077403202439166,0.060385653784020159,0.031418077356769644,0.04181649852122829,-0.0001626033494385951,0.025503746979671876,-0.02373467828899745,0.055740295198887471,-0.031502560349629963,0.0088610487264159741,-0.05032822580179093,-0.052762922489803715,-0.10537381837846208,-0.055808436459332325,0.16554112346067973,-0.0665904603034942,0.0637357150148938,-0.049778664333594007,0.021273838721403683,0.039241810150700079,0.12974119775967882,-0.086870148614291556,0.07450794287646112,0.030978907789530628,-0.01176455805953704,-0.033656060135122186,0.072905104151887751,0.080164025337365788,0.15022702809432115,0.081295591772379952,-0.0056659813550951022,-0.02565633525575247,0.0056379216084665416,0.085304853457988272,0.022797680468424505,-0.041668109129349075,0.016334560464002022,0.045006992579986353,-0.060899092713914915,-0.045277188085934547,0.00570184423035913,-0.069654997290185386,0.078660359827471216,0.095383925361096328,0.024935455393198091,-0.00011487140289735591,-0.027543956584781162,-0.075613399910077234,-0.010392795433768231,0.097949001860689333,-0.026090775092795122,-0.055337895619830609,0.016777541476436651,-0.0755279724850308,-0.066607818837140675,0.11825852328636047,0.030911195919648013,-0.097706539551035032,-0.10914639666804266,0.063943776987244683,0.0073357342442230376,-0.00047342763643680761,-0.21055213292963135,0.0381442480001688,-0.071318650236337683,-0.03818910297269755,-0.088886450501403036,0.011851328203544223,-0.075255503628836581,-0.097111029080611672,-0.017621210002187842,-0.0067250451189945857,0.076083259197452069,-0.0019728489039080263,-0.11388136431531126,0.0056185937925940605,0.14619238194097553],[0.0092988846320759284,0.082109306328359735,0.013067515233534621,0.0035184086503977172,-0.13885188132251275,-0.015727439197716898,0.01198535840154622,-0.032667802027418563,0.070834928059842914,0.04713521545722598,-0.12236871095234092,-0.0601316866282822,0.024648267120516695,-0.046175194707469849,-0.015113381145847817,-0.168537659021994,-0.028270634779689413,-0.10499573724088604,-0.052916834848902743,0.017224444467154532,-0.068143487563905022,-0.044233198978750762,0.09315558278152905,0.19052266732590498,0.065226442385440911,-0.0039438935097599066,0.099255628341636884,-0.052792571376325773,0.0593355716915026,0.01290364770373769,-0.006587587973922655,0.037368189175521482,0.057115441585586735,0.076301360657710524,0.00043786209715353962,0.051054233544146219,0.029608241981291306,-0.037881211103065318,0.048530248383968126,-0.17966100024196477,0.016117846066811343,0.068672011394122781,0.089318790606777373,0.10790020019058313,0.0478089282212595,-0.066813710540972307,0.1114689600952444,0.083350601114905,0.022066284469074795,-0.015367097584503803,0.15487633666339934,0.00844776603643511,-0.11075518691600003,-0.034728733152438671,-0.0061292011756937277,0.20499559791927488,-0.029195037944682704,-0.0072696121968804667,0.044100169516106756,0.092678994065412815,0.051787142385867811,0.0904396739872387,-0.024975030970743252,0.052106201405587173,-0.091481828167441687,0.0006601516962849199,-0.032052984024959791,-0.12234677160737643,0.021524922162159271,0.057366616590359396,-0.015785471269743761,0.10151748968478384,0.072208179103357417,0.039249889004206007,-0.038101137040650733,0.12041410362301958,0.12333202310139763,0.042250278757859305,-0.0015188389512897813,0.048898732651441561,0.089870836956692429,0.0740746456663408,-0.020297988075958825,-0.1039522342401797,0.0043062469637174857,-0.0095272602748650154,-0.032421745802065187,0.12023612593887426,0.16617699157404839,0.012162964732902138,-0.031426084822270113,-0.0017756509501282213,0.093627120574715519,-0.0031459545420416146,-0.14868073946907129,-0.014569506033433179,0.12946632705401498,0.059543116250816479,0.012114403814579726,-0.090065011793477118,0.0025187379673939129,0.11451806363311731,-0.031212909337986004,-0.017862561599963234,-0.024749106141545692,-0.12245460544071563,-0.095180293653140083,-0.00059412907121725452,0.057950387582586312,-0.015065125823058646,0.045661191684512874,0.052258302985538276,-0.0051407116122481923,-0.062927870947291326,0.011053075654408016,-0.18216853869162339,0.033555914722262041,-0.029685765202060316,-0.067457420290580619,-0.032963733429018316,-0.0042805047006461037,0.08904406748943855,-0.076686997768123738,-0.079150880295050546,-0.10408446232130986,-0.0917421668809077,-0.026789618203275248,0.00024196708615096665,-0.0023572805046643674,-0.021349767693507923],[-0.058017628588277137,-0.10935413018170984,0.020270078317212056,0.016750630451207345,-0.053586061939427033,-0.1121542122788283,-0.065783587909295171,-0.041091180325664924,-0.092267128228024631,-0.0045273688747122631,-0.076781056997104816,0.020424150643332889,0.023217873696423745,0.026816322059849872,-0.0034682486669337996,0.014329647587732057,-0.012833655402058913,-0.05996477371267335,0.048456866447166465,0.091048409425747559,0.05623250954125282,0.12205006413967261,0.088900152133638263,-0.068913342714444936,-0.056518445569871442,-0.045378462733355177,-0.0007761334021184473,-0.020475930597790563,0.00879271277822167,0.0028299448256151804,-0.00518042180398284,0.062805385429855143,-0.029152300193871748,0.029907209073756741,-0.0026150170541765234,-0.04085243222980061,0.17008646148319323,-0.041329029575790537,0.047379346310973278,-0.042191540091719562,0.0055058617110439172,0.049657594476845,-0.0056890026301271036,0.054302043122140375,-0.16070131418208361,0.015514792394872176,-0.014974492970641119,0.0049837685576788818,0.04593827363789342,-0.11159094169487251,-0.057918967945002696,-0.00673567619975345,-0.019044285787944145,-0.026338537237925626,-0.0026083415820373022,0.053804974321183877,-0.090487169090378836,0.13514514516748988,0.13241376946305206,-0.018242204685789548,-0.033149616789238077,-0.046257842566614221,-0.050183189457254279,0.11904957173909923,-0.030263155870784566,0.034157857502873368,0.02212463372672677,0.018346612706801615,0.1436496809547344,-0.074969774630747221,-0.10407966613409697,0.052230298295044116,0.065531529615372244,-0.15919663724771885,0.0813126076269842,0.13104225996317395,-0.010367004148844285,0.00052868943493458915,0.067616891043034116,0.0057670655097740806,-0.11732336026530869,-0.0654474572824229,0.043744044133359819,0.13847259954883884,0.055208835488941496,0.010286000667219705,-0.011082679175306098,-0.073133394968690632,0.15889874042551275,0.056884368379998732,-0.13613078655471692,0.09852455574919193,0.016076880443152943,-0.014218721902056494,0.0066475024887052989,-0.045163453371609222,0.059672740817223943,0.23479433294834656,0.068304505059656115,0.015064884699167076,0.038822855572231668,0.08167677700755864,-0.053659345846829333,0.037756053003092427,0.13798285078433967,-0.0710249710343582,0.018513036903268314,0.0434868910521092,-0.14135226689833055,-0.090438959415239231,0.075221152296432461,0.05103766750214897,0.009429059409461588,0.052517850335504754,0.027736901242952527,0.054394218506548006,0.027117013848501938,0.08413454273417241,-0.017568776759136852,0.045207453277114069,-0.046472464226847,0.10860264329834671,0.0241491729617719,0.02521312754816878,0.0040371886094735443,-0.059056635654909047,0.0356375233573893,-0.025929426750897482,-0.01690152273034087,0.026429544258812138],[0.019430215764189757,-0.091948655172618091,-0.20422586254104941,0.0707560199301028,0.045876256936522711,-0.058872552316583629,0.03026390017085093,0.019794733012569014,0.037712204078430608,0.021360229637876406,-0.011039494086793831,0.040977664597036181,0.089708484146667752,-0.00607615997382999,-0.20413892890197305,0.04164092104832,0.074618285544528887,-0.039539255191931688,0.015878117171234878,0.038278768779204532,0.076841807625345426,-0.030084786774649316,0.030326339080190549,-0.038732484591802945,-0.011850438648121128,-0.098313008303629,0.146584311079704,0.017931498939428563,0.036670161097491022,0.13910660424015836,0.14527781912128335,-0.075420512203553461,-0.057085687090453412,0.055441641536895174,-0.021554095661408059,-0.018021095820688969,-0.034483522522117817,0.13832404400330672,0.11380443636474184,0.02970872587384342,0.083228194269189759,0.062897539545765449,-0.058566489465909553,0.073037734234747,0.056106973919621037,-0.089907047938482879,0.043870758199959559,0.13023943009744296,-0.069447257804377979,0.040028681827592116,-0.050871460770396483,-0.017696113727099984,-0.02366429853943789,0.049453603413638615,0.0050570609260493782,0.05863011295602942,-0.036625395811099477,-0.094477402063375973,0.016503292850148159,0.051963319634029857,-0.04060478448478981,-0.017848529735416681,0.039086271020472976,-0.038029185754512369,0.073979227873513687,0.0023675260692865669,-0.021444095164591438,0.19931929566028181,-0.010599797306113701,-0.0084010744311552241,-0.15108871023232554,-0.036050812432990686,0.032762619129819849,0.11507519036569661,-0.024062214055006012,-0.05638637479155393,0.081496080031718224,0.017683349957554363,0.1286264749606065,-0.0047350551880174308,-0.066885256023763,-0.0020924871498737524,-0.01586871920893812,0.046985825699856786,-0.11078822814241959,-0.0011845857910082627,0.061291941358593865,0.0094321214128544779,-0.02815668480779427,0.037148337197514425,-0.050100445968196357,0.033683504520132621,-0.091287661540236778,0.0085525075210057429,-0.022645595226042058,-0.077570472204670712,-0.086555384307444388,0.0915740679065304,-0.029813952925000484,0.054792927729567759,0.055148860930544469,-0.054751013964615333,0.14739931652211352,0.031659180898134943,0.0022225147501541052,0.035484773570843668,-0.043707674839401092,-0.019863364972904661,-0.076466918058331057,0.086901419753098258,0.12288678452993757,-0.037353801798816734,-0.016472433046880574,-0.063750337483942016,-0.022873088870563569,-0.053671871903940016,-0.11383284452281098,0.020187309341703211,0.064062553022861374,-0.0605328258749152,-0.11555321057938757,-0.081244400731699515,0.063453810064316427,0.033234488859802604,0.045544160601906053,0.12032895057738931,0.12363368322915891,-0.040581578604703808,-0.028287398453780727,-0.030643879808121041],[0.01896338571106438,0.182759370773976,-0.071941533476060665,0.043326425528624514,-0.088592767490806509,0.23504622884584767,0.00053164792309593324,0.07230442135629922,-0.064393920047926739,-0.0014661976849320391,0.063794160432543767,-0.016988700596885509,0.017417922529632653,-0.0014010540998511578,0.014873075919511378,0.018086186133941924,-0.015869856537148147,0.016051437631201579,0.099638339914366575,-0.030492440624416334,0.1376594857377412,0.0166583907004838,-0.097656726165222016,-0.068380612132283136,0.066270587586025845,0.12142088140025382,-0.15715469854889844,0.015250268760793002,-0.050156500864726866,0.066836479498826984,-0.027225462553623354,-0.031962787717435881,-0.014378806285659932,0.034648661419221571,-0.020332537657009719,-0.087748093590786,-0.011310613436264107,0.085339212997219152,-0.052692648742930885,0.0061361967797883207,-0.0092052355741653654,0.1242463279040521,-0.07744702536422253,-0.002868852343069655,-0.000475748228881081,0.031020600811959925,0.069185626357853816,0.034342396592011319,-0.060588738219402465,-0.13937600966616473,-0.090683273580231233,-0.07249529770381731,0.0073266911268760546,0.022207340796848531,-0.021000070318949859,0.07252968352733187,-0.10447347398632355,-0.097172682003914657,0.087932554301912255,-0.035811647454423737,0.033099085121079307,-0.029069736630393046,-0.051675979823905989,0.0046320251696493385,0.083819938747919584,-0.0074723428878283827,-0.14939855627832185,0.14899879544310776,0.086541689875134942,-0.078170913437904527,0.014073108058500167,0.066897330231888513,-4.631865451261148E-05,0.0043179297188359255,-0.09579183951229929,-0.017264946717279944,0.074758527346229176,0.014827955578695451,-0.15596194115521911,-0.017300404538860708,0.060722069179267389,-0.038262720219078963,0.0605045923369589,0.019531916008222384,0.10798351642469163,0.0099788218212609036,-0.10121520514469669,-0.097369521099891249,0.057544189377195146,0.016801533336653032,0.024925212911332567,-0.048120481125608947,-0.059713572596095534,0.027549375029432756,0.053604124546779493,0.054565497066537461,0.062390104782088875,-0.10418504670931088,-0.068207207902703126,0.073853254100751373,0.015939158565286739,0.026245806214504345,-0.019655332034847737,0.0050969741650600184,-0.091713721686797492,0.0528949759983899,0.086767003291956649,-0.11838071487099633,0.044510157090413865,-0.14559717154832297,0.0027507882813468205,-0.10415839752445517,-0.11004904941215951,-0.071995569974837817,0.031520415702072847,0.012885438170990688,-0.14961931572490661,0.031569156952616022,0.18116264423361853,0.023587031140227997,0.11900654731392921,-0.082439152114986619,0.12948647362876042,0.020908751257106638,0.0020200348081339035,-0.0080390735617587965,0.034513583029806227,-0.11920503811449579,-0.021601115916505504,0.097663663366927431],[0.019171715717077466,0.020908140242413168,0.055491027965789162,0.068100428384840331,0.025398664418768983,0.011521302444786443,0.10844075774187002,-0.070013720737059845,-0.1132078106698501,-0.077032145769583421,-0.035905644616472429,-0.049561115728523938,0.00921829752420056,-0.0877965265516363,0.055678126685137004,0.048055606629726647,0.0064772482187524082,0.069413576664676221,0.069535906874929387,0.074212161406417024,-0.016610147841969472,0.094928210060925916,0.027847066206191894,0.006210220117522515,0.1276040069445458,0.091475117843506,0.032839099282226732,0.079410280178990308,-0.035773089079241004,-0.070042715263673519,-0.16553878869464175,-0.0354509865289801,0.094506557752440629,-0.0052613343728891175,-0.0663250311081967,-0.15862595149064079,0.063237416655843134,0.026989309731630089,-0.093246236937570934,-0.084364314308334784,-0.081512189627952591,0.054097998200608871,-0.12842578837719429,-0.055567084615252754,0.004646801980355054,0.021391662683971153,-0.073412634150599176,-0.06387314664262965,0.020926184696300348,0.06728047657893732,0.1163600074464417,-0.0035388899633335157,0.020370313147613943,0.049733443161544877,-0.10518759603767319,0.0076840294486736228,-0.01655873372226838,0.045440970696828849,0.023165176217505638,-0.064411066193145544,-0.14845516157091782,0.031216376782850677,0.060991308634587828,0.072687162292763285,0.13836824457847122,-0.13410624082991013,0.039352122431047548,0.030207849175992545,1.8566987960380045E-05,0.12200727789330162,0.076254956206406557,-0.18014089245599654,-0.059174255322801558,0.0069972179318643826,-0.030031792021528472,0.044188544369624626,0.090261766351005218,0.02203498450155111,0.031017646082825104,-0.0057799453032424493,0.040600372054954585,-0.054095137775236918,-0.015388626015043545,0.0019975578310150181,0.067741396260710879,0.062177671502570579,-0.0037238168715891485,-0.045950311885508029,-0.050325278292659967,0.0710832810355726,-0.11777815915274821,-0.040787041986211449,0.088219394172212334,0.046088047509859772,0.070029437644655371,-0.00011556749011458728,-0.04948026613502074,-0.054940418669430363,-0.070026546328548545,0.0059671684793450039,-0.037396307672489179,-0.024046023181662404,0.0028004088951679778,-0.05947383428957595,-0.044614983400046965,0.05918136007667358,0.1065768259581477,-0.075063187263847891,0.17748782871773736,0.0076080738596280041,-0.079512275214459416,-0.13231602943388762,0.12907265366436871,0.027009139317811161,0.00067782734072734541,0.0458156127805496,0.025878573153853869,0.004049705135966003,0.12008638833461803,-0.013210829487756145,-0.093116431034638777,-0.0070959794197596815,-0.12728678219227138,0.14802568740092095,0.003908817324335955,-0.0090816433984216433,0.045740183237393373,-0.10410847481093243,0.014275930784672304,-0.14307026547136267],[-0.11235388489301269,-0.052944111817086248,0.014402094942674883,0.017502510556575365,-0.040619245037778542,-0.034269418301298142,-0.05156534195282448,-0.052349957298533943,0.15809649469540896,-0.039838443327425539,0.015236655740100325,-0.0254399679526741,0.020565442067258414,0.016312140923998381,0.057175699272139419,-0.10168611105985527,-0.004031646770444112,0.062632162464746746,0.0077041302950952451,0.11529379647358361,-0.0717660275913465,0.00951690477812902,0.011753918962374474,-0.0096773863506696232,-0.091013664011222267,0.020947250483647758,0.02282253616747321,-0.047433755229090976,-0.020713941457207813,0.030813565364640423,-0.0064531108652375177,0.050609835015736675,0.10482359280887429,-0.053247640568898573,0.14109938280962694,-0.038591632124203433,0.0831520042476862,-0.024728666290406914,0.071386485105606315,0.091169842493700234,0.0013440049200324886,0.085490882299964086,0.0090894083576309112,-0.11022848587167894,0.1050418054378981,0.0478027520978356,-0.04832267092440095,0.033899081971166145,0.01328820013091497,-0.097911073442781146,-0.10233092130337765,-0.0464326697376337,-0.036780685634950641,0.10391252910790315,-0.01410624870274862,0.10821805878380598,-0.068825688284419928,0.001099535589499865,0.00029512599876143627,-0.12662463666026488,-0.058308767319294019,-0.12909557640473854,-0.10852390852166093,0.14945261133906249,0.0969657274822605,-0.10441439792490873,0.06973411730595222,-0.22209044551035068,0.015909561566212389,-0.0072392505116230261,-0.064840935864999463,-0.071978748310421461,-0.015590337299281963,-0.038512260223138049,-0.063295159235260121,-0.0696325605845423,-0.025554871807118056,-0.0502079759586974,0.10759986216269785,-0.083962503836924135,0.021345384826469204,0.028014879461110653,-0.018157383175112642,-0.050949255297584546,-0.048159147329191514,-0.030750641906407319,-0.00651070692440686,-0.015875846575716782,0.087369942066591072,0.081447634967910576,0.079405199955153841,-0.0091548349543640745,-0.0227784261664377,-0.0733332557082749,-0.0013354155022529423,0.094815814931924772,0.04932217256835851,0.051884320230855374,-0.072522772918163947,0.074059475954669385,-0.071655829935974372,-0.121573377730165,0.157902925083809,0.062077389984145692,0.10209712917882183,0.11350329488079002,-0.060115236633372426,0.10044026626391034,-0.12893245801862094,-0.059087597206615959,-0.082519772530564653,-0.001424849477353544,0.03590656763127642,-0.032493479043298253,0.0099131300285861135,-0.020900763827529017,-0.12776697310175725,0.086896631626335943,-0.05993915716577617,-0.022863013792698776,-0.027266948864388966,0.032013001495722608,-0.074923890126917553,-0.011612545646047414,0.070945827558038466,-0.011169878210277102,-0.0299949488131207,0.091928907403932655,0.10216565599911991,-0.071695811836186021],[-0.0645722047930049,-0.050745975554772324,-0.11712021121541583,-0.0090666981296953358,0.023107897921283108,-0.0042646318417333112,-0.014525170244494994,0.079660454104651252,0.10242295586797365,-0.012400893673743947,-0.033795736612880746,0.031200680195948398,0.028705512850514567,0.07013425713794906,0.03221338966018486,-0.0196890412413724,0.018014649562971136,0.11248190421078098,-0.027185368369884423,-0.014059437223817585,0.087757179266659727,0.010127191111731068,0.088085931384174837,0.0031933837366803523,0.0923639665764685,0.10708679745621627,-0.10455288788408866,-0.014247986086549844,0.03200741946843836,-0.047126330959600768,-0.15576245273144848,-0.032815985560824733,0.058524987345647241,0.026919630192320257,-0.063345196887681629,0.0059268800121231651,0.010166350503194366,0.06739239184733295,-0.052190354533724892,0.048880057070908478,-0.1118603066023376,0.032171771435442968,0.00018932081109150446,0.0845885798643316,0.053964860599468263,-0.019335222745031459,-0.02031302256355812,0.0049166636239438869,-0.077089610072115317,0.03799467517587482,0.042628091068296278,-0.0329155618860223,-0.027348832662457162,0.0080807314781793978,-0.00680029493174158,-0.12816453994731347,-0.034220479994732246,-0.038858764413562626,-0.073271264646639189,0.03806806720994188,0.0049890966646017176,0.0749683123852174,-0.068658554454065532,0.018225039798622944,0.012557868411451397,-0.037028827201353968,0.10695666764133656,0.051731353916167476,0.0799201557972754,-0.041966542388954531,-0.12094033617064083,-0.08540610714939359,-0.11583424555469375,0.10141374228748387,-0.0044455373475803563,-0.052407061989940384,-0.077657824000977552,0.057852501715218663,0.0054768368038254278,0.013802469202695927,0.072337794294391522,0.0258174184071483,-0.049469648719128269,0.09601010474032165,-0.03533999634854261,0.0077787982717487684,0.033189460846046952,0.0061742797697022771,-0.063025494078633823,0.033716282942869345,0.15569714315972008,0.0821365240443062,0.062106160031083622,0.052819373210186288,-0.1131060215415325,-0.13199937838779027,-0.20572918134999557,-0.025232514380413937,0.039258382365572046,0.11176281108888364,0.028074556489030948,-0.055306295641342644,-0.17574442619186406,0.093242577021852749,-0.02367588758915766,-0.052213332584299062,0.1854790027414002,0.10143070968093212,-0.16974826696417461,0.043456394055385414,0.0085510838580262379,0.18173235220956679,0.08643871607745833,-0.0097903195151687137,0.054682467798974621,0.063432774775425027,0.067763364206062,0.062995025790651429,-0.00061323019855609,-0.092584971629648571,0.07085600272800692,-0.015092467929066622,0.046773109752207692,-0.049843113062768438,0.038013922861266737,-0.004910986217555563,-0.018794154826026348,0.12639981058563549,0.0963229199073439,-0.0012565850614166237],[0.0263180192788902,0.12685328643778271,0.075174638860481285,-0.085792342744637581,-0.068126053248245083,0.0713771960643987,-0.079343099232535866,-0.0053471658544369327,0.02923907160815967,-0.0979981169307263,0.028219238449286407,-0.00896027814063015,0.032589935280368888,-0.09436695111810299,-0.057831358499660167,0.01645125278402464,0.17777664728352183,0.093925820874698168,0.099777212052750863,0.0027055988985337084,0.086503692806198684,0.045803392490923071,0.026488881142435194,-0.04682585774794893,-0.060907525537813534,-0.032377677416402344,0.015499800921156095,-0.0559197436766691,-0.063668050518786129,0.0085347820278212569,-0.052629429074916495,-0.0099204356849205821,-0.18531886862660454,0.0871700379201227,0.074280166450938309,0.021660880905326717,0.043669654448824556,-0.0020628532260564729,-0.21617719074857267,0.025380767076768632,0.083256423477195668,0.11983181862686446,-0.037395867343043863,0.0052646541055090144,-0.0171051144676852,0.0014161513578461336,0.13362198284825816,-0.0076609949870750987,0.0619362942120419,-0.12045549580558085,0.11710480413856815,-0.031454125654907447,0.13422796578923676,-0.032331894894017207,0.045983388631953552,-0.038040944015914104,0.03630151939505042,-0.1113017070107208,0.051245907737020077,-0.073505677719174739,-0.032042547839004815,0.0741760496367054,-0.13390923300723046,0.087255573059720246,0.032322495856970272,-0.0075177256060092387,0.0132840479351623,-0.012190168124439772,0.053435797397857629,-0.062943866860011466,-0.0644253423789575,0.019581572037472919,-0.075485969581652088,0.0040207406026361771,0.022105781095675434,-0.051083253663343521,-0.04176185871830667,0.026646766467149807,0.0010709584567056805,0.015474021137921751,0.051007668761527868,-0.017036505068550332,0.029772636946534474,-0.040767154590607521,-0.077498455765243585,0.034704595851212716,-0.12176669021189898,-0.027449949265348522,0.10719682782092919,-0.10030577049891278,-0.084116312458084569,0.10755878875635878,-0.1509673474225568,-0.057422852084762228,-0.122924469019619,0.11768602991033467,0.037534282027450572,-0.11605762479606978,-0.11247698858802403,0.035608986083410767,0.058256535254435325,-0.033981050524160457,-0.025834782281476697,-0.033813893565843953,0.074223439708040642,0.066446547582700827,-0.0625412098101499,-0.020201542156610228,-0.061567355628632685,-0.14703068933000985,-0.0097166909210166675,-0.05589603275717623,0.11229222852700364,0.041836802372586482,-0.0083725427608592282,-0.097478308679860029,-0.039781896245631637,0.006431946122147366,-0.023446518624585345,0.11183883886093025,-0.072100085323332327,0.08663289760975261,0.13969251851198408,0.0069778751401510788,0.093246049679684084,-0.021565645194722493,-0.045710872807125193,0.0036545250010142881,0.11862520878498069,0.061390402606277178],[0.10253406126832231,0.045209417568285705,-0.042671884470857381,-0.0059646868062666761,-0.066283565550870241,0.061919480819175761,0.081924663611947085,-0.038573241465475118,0.07216527029562543,0.0082727748764036043,-0.031947414268464973,0.054784134994109113,0.086314391684395808,-0.075236309077370361,-0.11514831452493998,0.01226534823865497,-0.048707360295448955,-0.029127142854096382,-0.029966775765116832,0.043529723816876878,0.031999418702707866,0.015429108817819483,-0.037964508157603126,0.16598551150848417,0.03506699132335965,0.083444305669370042,0.00378475951424796,0.046104698398358013,0.096677429909647283,-0.13022895154455855,-0.043332760193826252,-0.15120671697500332,0.17595701580893436,0.029599450509077228,-0.0937438717511522,0.12875115117538244,0.067150520606329062,0.02509932502067801,-0.084949168945103709,-0.070320881045426054,-0.005064590419439817,0.10347686655913055,0.020361261486239682,0.0093590887466092568,-0.039445392935736179,-0.023947675192285786,0.057780487970173759,0.0082748816597705849,-0.040748956429990324,0.011258738870136368,-0.027218345671737067,0.05530972287117155,-0.0439014586016281,0.13538005658967842,0.006814873741423989,-0.046336634609679905,-0.072255626109321971,0.018488862730409235,0.13668684620633292,-0.15031797743107039,-0.04948322759255866,0.014029539956876664,0.072142877176442827,0.011586880393329276,0.043160106092191418,-0.067706968188079239,0.050201754881960436,0.012345063269281051,-0.030036789252175736,0.050774582971915221,-0.0095905912580854166,-0.014131982931655931,0.021024364184925242,-0.066428892785810031,-0.028530954703249282,-0.19331485888437938,0.20772069311672589,-0.050609657745820172,0.024206518925230229,-0.095633238105949259,0.043264859236711806,0.039432593654014192,0.0066228930800981663,0.23408964938953389,0.088034794352464238,0.019310439332205886,-0.023873419021528362,-0.025651276701839722,0.030225600149158333,0.007662829894046941,0.0064572901745259459,0.028983967458012131,0.044234632217274576,0.025202573391164225,-0.023758932169732638,-0.21271310372378036,0.14013125557644235,-0.0153536783464989,-0.17157665309216039,0.08108546996311497,-0.039316977518212788,-0.051461801227655521,0.05216983239735036,-0.04704447598761851,-0.10059468906182779,-0.10944583980411103,0.057635279192207567,-0.0095966221670668386,0.064927413450383414,0.0091588917575199068,-0.050716818004715433,-0.062778467441778993,0.028717744256101917,0.073114104007381719,0.0091711455950927757,-0.07040071426486133,0.037016795924831418,-0.079710607591459287,0.035431082589622458,-0.050538546061988376,-0.015730119583144447,-0.12763047028536773,-0.16468222705816943,-0.07420045820394465,-0.074333804313668581,-0.044629994072454444,0.013302930308813729,0.10669663199171786,-0.08319566012354479,-0.00876864375671308],[0.081175179218579654,0.046255102528238286,-0.11201547163058939,-0.10051761915241375,-0.035273575359022195,-0.071385402787214156,0.096044967377588275,-0.0736049831864002,0.012755581744246323,-0.13037723062678708,-0.020596451319892364,0.079197201443661658,-0.073289690084239967,-0.078768386599512782,0.10855067830579167,0.02387130588214274,-0.054673572768072463,-0.0342232185229993,0.084153892075697789,-0.036148504191065536,0.1029568686383019,-0.029345216027508402,0.024292088337723144,-0.0024740198869486378,-0.0073209212280735377,0.053698099750314025,0.0023852893698619888,0.081218565502921988,0.05610093386001188,0.12073135222822053,-0.061135894523141887,0.049497971730281434,-0.10709649676058963,0.10014747860751407,-0.13342793237629919,-0.081935932483484644,-0.056519587884039157,0.040711911580832483,0.065273118960141763,-0.062068643709388506,0.09484318092938103,-0.089975176806623092,0.013714732619326502,0.10215552683236642,-0.025912373444713539,-0.027983853351911482,-0.072062594270779323,0.0013624942482670058,-0.012226337286795369,0.12042568404986877,0.060507515800020804,-0.021216754916105651,-0.0056690304605843157,-0.031428678079512974,0.014093217984816888,0.050440099313911191,0.012581039836477159,-0.13861426963999013,-0.0029046452248938865,-0.043011722714049384,0.011586463680748163,-0.048171750048333781,0.087608420475928553,0.039138408092926742,0.041908207024326724,-0.038881081660439222,0.04249868503950216,-0.051649463154581625,-0.018513828568561652,-0.00994311508089534,-0.030669618539841511,-0.085319957923942091,0.051433812696478669,0.025364938301341129,-0.13580264383144172,-0.076453231005464445,-0.028212661748155878,0.11694623052012876,-0.13640426863700514,-0.14456529623438172,0.034664777116258212,0.037378915509118892,-0.037417861602358694,-0.02736484523853417,0.10211365754476201,-0.161953862534357,-0.0013232894720220365,0.066119889993677045,-0.012595000364380455,-0.16797717197782405,-0.10453485231830687,-0.032023375978511577,-0.018986932592204166,0.03823970130034926,0.042710209187123059,-0.12706181790647758,0.025723596250524745,0.0748702752417988,-0.040583603459773611,0.029797777574403782,-0.066943612073711065,0.16396376376301827,0.0042975691959948317,-0.0062710544333165414,0.05025458804741853,-0.14332962173384448,-0.02377282218149333,0.010871143056558327,0.043752286102806869,0.0099093977638393029,0.16548370755196784,-0.1975725837451543,0.068303706333035508,0.0024177840008115211,-0.024782662807906537,0.03825947689802519,0.10336099128357069,0.15098014126941547,0.04297401287962492,0.082399699643500343,-0.033802331931567287,0.0030823499291913166,0.0087329303692393542,0.05958064554767719,0.001099013789768104,-0.079636632927719359,0.0412129653941173,-0.10401878532433724,-0.034667106207944026,-0.12421908498576674],[0.05280765649346264,-0.10075272823993273,-0.0342075335888378,-0.0092750238576954375,-0.032555439148635325,-0.0345942394866718,0.12553275713772266,-0.020033110127814661,0.061515728064236663,0.050414615694452623,-0.043202971309937832,0.0073474791952250771,0.0899456964395687,-0.087057498557901208,0.10919422610067989,0.11375810464339442,0.058691810386605647,0.028096094012374111,-0.009239887077669694,0.021104794028687233,0.046802994755540839,-0.046064073337777282,-0.071581096845498238,-0.018303031840432863,-0.12624856628218728,0.090148002516882667,0.018293796671546778,-0.15110429827677033,0.051568941897672763,0.021429158162345779,-0.0073192031652718282,-0.0015548081897434982,0.053092327321302167,-0.021434546071692071,-0.022732350022242342,-0.01503974130211214,-0.011994868226280939,0.014493014721946345,0.02655733362232535,-0.042585009445424392,-0.097500504445627953,-0.0163047385960377,-0.030104546713544313,0.085981127741544344,-0.055651433362988972,0.032483116415276278,-0.038966719529444846,-0.029571807382345269,-0.052057627968557778,0.053086136248527691,-0.06499204811896106,-0.026123539880473973,-0.022178376856704117,0.017381643806312689,-0.046928676955312186,-0.016759309958114248,-0.018125464102743318,-0.045324269783091176,0.083265589936114048,0.028915326776924533,0.02891880436918029,0.086267498345855759,0.059694266545576573,0.058864957846375014,-0.10086751929469846,-0.12065593646821995,0.040946020421912109,-0.0077159615662628243,0.0738427471125024,0.022193635294709479,0.079510447284036542,-0.00028404728296407378,0.043127010770607072,-0.014999155598352775,-0.11223037520912652,-0.14449758250639219,-0.19780489922707806,0.027122153499019593,0.22954588512244284,0.030077706527216575,0.056893924241853695,-0.012835745579337851,-0.0024856719093385954,-0.032592027211159592,0.057531748247169417,-0.10022616088812338,-0.00076061146126490237,0.13583587565119618,-0.043437575502768944,-0.030660817698356296,0.055716952392279036,0.019799592395721,0.13659485547500128,0.065922120083547836,0.058488884622996333,0.14173563725206209,0.11497693613171182,0.029661381833608509,-0.028619658165683789,0.14549081884232526,0.022765930109606005,0.089200287085961838,-0.00078647306905770106,0.049663639641104831,-0.10329741683876911,0.020634429613042723,0.0090825409211548157,0.029328301393632305,-0.02753028066193345,-0.059823520961166464,0.049267861327726266,-0.035169402552665964,0.030678718515573536,0.17514347480196196,-0.0435805592777824,0.080598681804537151,-0.067640602692847177,-0.020079070749060988,-0.036587869839689209,-0.015130593889726377,-0.011647747416949607,0.015439174106560372,-0.050203534132744282,-0.11660771714157557,-0.047859102089675365,-0.018956669271592355,0.031102526162620041,0.06081794328397877,-0.038554068500332335,0.054355785696789567],[0.0963628306824507,-0.08636254756757171,0.11459803387391231,0.10409575683479293,-0.032853956730696306,-0.037979394462699011,-0.037001974761069693,-0.16495100654227612,0.039745581773787793,-0.030818697072668086,0.094847901679235874,-0.0074790973959690324,-0.038450801839816112,-0.021429606482701306,0.020037032296015927,-0.10752360996153523,0.083299388897721607,0.033526294097882471,-0.047992256419329873,0.21757831808327782,-0.032120786369695391,0.0082201563774412286,-0.0040636423433888244,0.029988058551264997,0.015457602974186335,-0.0092591408845496721,0.049670859502475705,-0.12181417429818428,0.023623836959281257,-0.068258195827752888,-0.036062760644872537,-0.0469806412722304,-0.1774287299638353,-0.029796843222594318,-0.0054457022916246595,-0.13795402555695002,-0.011047511450696292,-0.048522279340171989,0.010085656291500329,-0.023791693066552856,-0.10527146008319312,0.0096403671638545622,-0.040730096257067916,0.053217865947359763,0.0516010244405655,-0.014059709628838199,-0.06395397883664572,-0.022999288213012968,-0.094704936840721385,-0.04057622426379566,0.098711899063431932,-0.047055416147130442,0.013984645292203364,0.022212803863242279,-0.077159126188230676,-0.080828038615105846,0.034902942271068695,-0.052036301547224453,-0.045739959274121,-0.053171423539748561,-0.027942676337635742,0.0069738407069339474,0.020794415634913566,0.09103258309075446,0.0509995273171281,0.041900973878121021,-0.0016248080629248708,0.017601017990011968,0.089698735091003623,-0.0090797106194885156,0.090402316235587976,-0.11025814450760406,-0.083660884442826433,-0.01908681878123732,-0.14766105425232595,-0.072841600729649056,0.065650241484835253,-0.0046521671725430714,-0.043226072805041441,-0.0065832973533267222,0.0791189793376544,-0.061255587580312826,-0.00041264237861361985,-0.14127564415002258,-0.13306531667879404,-0.064154366295650966,-0.13499256121543501,0.0077854791537149554,-0.020078143800755524,0.032662253778195524,-0.092706338724747345,0.011068247551174529,-0.057670249179051392,0.035112600672603231,0.06672814589386053,0.16682821046301122,0.0566024457961254,-0.035491463409720467,0.036242814847684823,-0.068040222192686309,-0.057989954148176127,0.010061904079209538,-0.035650074453083484,0.020825609742588992,0.026858387820795679,-0.016738075589978266,-0.13957983313799841,0.062959242442596708,0.073277252252232264,0.07404842811094213,0.011312339312160189,-0.0566076051179482,0.10548164971735916,-0.0019413027371587505,0.011683329969764336,-0.088633501554929092,-0.088932244006978869,-0.00015557826722245016,-0.069854761458469652,-0.051941102068677039,-0.013723377161703609,0.041665552388248539,0.086552761436998929,-0.1418555798391056,0.070637901207676282,-0.015151761258815356,0.12303028052239605,-0.034273754267627334,-0.045512230767401754,-0.030252838235345355],[-0.080491770584419073,0.10123362825142798,0.043557170174014892,0.073423790314912,-0.025980881236367413,0.054761694923776305,-0.063021928791391416,-0.025618350608673023,-0.014441955137761208,0.016323928728519125,0.042167969052193853,-0.1523773500010539,0.032024720726121676,-0.12555800438920536,-0.01183432339117628,-0.058632839601870074,0.11568789345096854,-0.0043414183179912962,-0.0074050122531254224,0.048665531439213532,-0.14436526075533795,-0.0092702231410796785,0.038734872643695656,-0.099988714522237163,0.013354364926546515,-0.0152709611421888,0.026077236222128576,-0.0926596927631976,0.027575946909081651,0.069416600130587119,-0.10193211184854172,-0.098136834729175337,-0.00050051913231000859,0.0038549787200248932,-0.12443307868887905,0.025142780780034551,0.0081710798483065616,0.0083863647452517,-0.050798216520121876,0.088322887320669577,0.11807092879923736,-0.054729940444061605,-0.00092139211283595059,0.058063901377567596,0.058486838739922019,0.049151596343483261,-0.00097565697318356952,-0.097980232082660254,0.0072789858392134652,0.067264015657245366,-0.073132220768872561,0.012249819984628575,0.10885915036708356,-0.11850398922279262,-0.068024633159026321,-0.011493767747338167,0.026445838572888604,-0.035233481164921351,0.033798556230243179,-0.080551279725515387,0.051111882600440216,-0.060444485360179365,0.017537621170064018,0.037860145610014731,-0.0044772844205474257,0.029798702653078622,-0.10867192296763426,0.050161571098521873,-0.0290677002802635,-0.048227036193904574,0.11073420883374811,0.059383898459481152,-0.0628740855333441,-0.10945284905377507,-0.14748742758051156,-0.001220070253427228,0.021228077724686222,-0.032439074081669045,-0.10623232726224592,-0.030254288129314154,-0.063159492481884322,-0.043484557119318736,0.031652272825341173,-0.063917636253327345,-0.093538713641056939,-0.060868241245478669,-0.1013823088580529,0.059337201442382088,0.12318421015479994,-0.0091504503394613038,-0.038451026398572369,-0.0071154820557108294,0.023157441494209771,0.0231446003438292,-0.027095886238196597,0.076826593356253192,0.036002769886878894,-0.039317325738228888,0.037404260558737121,-0.089631032806288369,-0.05615123047899459,0.10151465964559729,-0.084562398621275986,0.060911747679011086,0.05084059932490842,-0.067695441755348515,0.032299578007926551,-0.089457205977044735,-0.12669370556781598,0.0074543829300544664,0.033707382905685639,-0.081704432611358124,-0.10657917759635945,-0.058559728564177939,0.016501271851392413,-0.050951669887716183,0.012262791660258081,0.0045498998005962313,0.014514732155181825,0.095242861773320753,-0.052242199341605372,0.14605908492208317,0.044539288767539459,-0.0024326420164582515,-0.12020082195311511,-0.057410024520476166,-0.03246896671884289,0.049090417683789606,-0.021639138831276855,0.041073433698489592],[0.022771312053755887,-0.042401756102607838,0.0417510938939873,0.13065956416449356,0.0047499546991236347,0.1242754326130428,-0.043608402229997262,0.10472607843907136,-0.0108190648280994,-0.043632874203618131,0.1673848387109943,0.18504186417490914,0.043780885104757014,-0.039235865137524716,0.13725242041618946,0.068731987917260942,-0.198073331235943,-0.0071761156506451066,-0.039873384842362969,0.058516808890277022,-0.085589980290964179,0.0031968156346575279,0.059145011816731409,-0.016004250475813917,-0.014130687094780815,0.016547641153843887,0.15072560879644567,-0.026122041554501336,0.0018371946582975156,-0.16115001769567525,0.087230090824562526,0.038534992957903351,-0.019147799411366011,-0.12793181072919624,-0.013288668601999277,0.03615739789841637,-0.017251918034766573,-0.035083833977403847,0.090697764517903179,-0.043635283862974279,0.016705792402767133,0.022808929535173827,0.011582717041590536,-0.069547786343053725,0.074696265199797621,0.13706704165863418,-0.091736474514365729,0.01511573226479292,0.059219404072868062,0.15795103933580421,0.062280731863424456,0.0055659257017203626,0.045903817751943632,0.0553933062306994,0.031732714075974229,0.070691772180038845,0.0497650302029361,0.14325903113753277,0.010315942330231708,0.018429734606853546,0.092384507030800367,0.064167738646106032,-0.041307874210449257,0.015924884734943173,-0.00362566589430035,-0.052058229419037379,-0.010306253722987286,0.032924593114856945,-0.027129954016222015,0.023375933232116661,-0.16203350759961716,-0.079356410037286121,0.064902851644349308,-0.024668330961328887,0.072871240096673631,0.03891398970217564,0.065946414491660152,0.015082495792160786,0.023547054373342455,-0.065365664136383839,0.056429861804384945,-0.066333855686708826,0.078523576656008717,0.0048967163524107913,-0.023567554102835078,-0.05216960329752738,-0.041937815210617582,-0.036965801275281519,0.037253638343223289,0.0051650947839070255,-0.031165220422500434,-0.029725343044936858,-0.023740344285800775,0.056240021726981615,0.064799070164026917,-0.03335465215717108,-0.012421575922414016,0.10843628135918368,0.014883553543973702,-0.013591888751091555,-0.079471653642107287,0.069602674533602527,0.03961878911079228,-0.0075869760868505932,0.052560032563755382,0.0267186421495556,0.12024757692907828,-0.10555898634080238,-0.02495094449846243,-0.087193367199256674,0.10735602923110169,0.022023814304634688,0.056700807694556446,-0.036498760353220132,0.021155121954469943,0.062579989548067788,0.059188396828472906,0.0272723333450525,0.15079711802316978,-0.018206261369105935,-0.0062382726417626192,0.0076031849472710878,0.105393780841964,0.025874416775623476,0.061868945683113991,-0.024278188244462855,-0.015925443659267444,-0.020576137243612062,-0.029599908552513102,-0.059307409805801022],[0.0022644294229023114,0.039332307073684694,-0.034103360347244788,0.040218185378386569,0.029253302565957404,0.06689856413053219,0.012055727440948376,0.097237665561002815,-0.11488383600856093,-0.040307074756323988,0.018740847266734556,-0.11578972713904023,0.02131106646722614,-0.11687472897193776,-0.025276244513322891,-0.024176048747479636,-0.033962160180920034,-0.04020431626582175,0.041471462257359537,0.084811958533330234,0.1118223763855998,0.022810545930343019,0.056888858286960615,-0.0029301413255443534,0.074090954891427072,-0.017223184798392792,-0.1119791252013294,0.0581010897486945,-0.049648430988984978,-0.040285611174412865,-0.084945502926657035,0.0017088028772204746,-0.05566241077582685,-0.12440888785470708,0.14320672661160244,-0.031636334967169472,0.05308191326570192,0.18196817218593603,-0.029912132540126216,-0.0057471011409705947,-0.013987245735124635,-0.13091164323704191,-0.051973355120357487,-0.023469246773869731,0.039971503400039181,0.17691738477808733,0.0059320790919553832,0.044272983000514653,-0.016832175280925225,-0.01999591902328024,0.016287769690770022,-0.067040158218104412,0.19308638719992874,0.020179908898940436,0.047963789976960693,-0.072891654194386812,0.030925504810243316,0.049607886721262012,0.034483034719980453,-0.02618328097063824,0.090447960884077444,0.0804504878796134,0.0017655755055036855,-0.033719310104732628,0.012361811075729605,0.10325068644555209,0.022734057352978464,0.064361523251226238,-0.032035319410234964,0.12614431333064696,-0.007553990578766487,0.10290327398384606,0.13721091509990213,-0.0051390376975534221,-0.010639429853696626,0.029467694070548722,-0.075111483889438654,-0.0387870401662923,-0.048947121196410259,0.089449214448070344,-0.047291805078028409,-0.019445872526040506,0.053638331604268542,-0.10578762539777638,-0.030700659303184871,0.019886420635189944,0.077094618079023361,0.13619731432511062,-0.006710221412415663,0.049923720426325056,-0.036834244767110294,-0.043048309742541722,-0.11504640655652469,0.012437396780292294,-0.024678866523181429,0.0538461455107857,0.0133080828549832,0.11775395714411888,-0.090161065839618165,0.049258865519090936,0.023315518084139838,0.015264496489945812,-0.031145845122571052,-0.10872025576957289,0.00412745439415733,-0.043029517652158893,-0.083962028193404786,0.18484657488530767,0.092407019171067389,0.08738799354184941,-0.0044186915994159489,-0.0593732363066275,0.005074929834387505,0.046711116883016011,0.036696846575542882,0.049411458153847794,0.10704153458375398,0.10735414274594288,-0.033219246801803118,0.0098229927471373876,0.06584910779497459,0.052169208320159748,-0.0583240745964477,-0.015342005172355368,-0.15916891600472005,-0.047321604145571815,0.020845274853044861,0.064808831641330458,0.054187407451541963,-0.022409386038231449],[-0.031215634606261932,-0.02609291438925597,-0.00908985927594792,0.017996161031228586,-0.030277017141839755,0.050943580134971779,-0.13452415080365246,0.027990186172203405,0.044716129277759482,-0.01459928462398714,-0.044895839535092782,-0.011057693985342749,0.1330580571171871,-0.063787365319725065,-0.012842968543570293,0.069023932138967931,-0.015703089682723256,-0.063364668936687726,0.028779669328551347,0.069178387173903191,0.016590596202302049,-0.10515001506893638,-0.040210200201008,-0.13976994545471538,0.035601602838472954,0.18949268658863988,-0.067781726072650289,0.017209647017504229,0.058022834768183137,0.019880235790111469,-0.079679841283926314,-0.079617311804919613,-0.087634463130884147,-0.015989784580966986,0.024268643002572383,-4.8576759366709796E-05,0.05501078770896143,0.017132883742916265,0.095953410876024076,0.057295920476483776,0.11616138411777612,-0.071659778730762749,-0.012316118533349048,-0.030474706686845716,-0.0087461450840325278,0.0334329411832896,0.11243815887750665,-0.054481329192299456,-0.07961240513915907,0.018866872697511205,0.0045762210295968962,-0.024941766824963137,0.0449951982016577,-0.092220960928491941,0.021992447829818428,0.048174401319373755,-0.016776617751867208,-0.16914548455833475,-0.16573338311887823,-0.069556681181877342,-0.088359185080803648,0.0086729822383504011,0.044511033888621036,0.11386905970925819,-0.012035730243371878,0.063305714403583971,0.082096585364418009,0.038105488749455074,0.056427090571348128,0.045049495474486528,0.048665390113950865,-0.071724046794227336,-0.0701382761184448,0.071262067609712126,0.023925318395859554,-0.098202442687872787,0.12918104166401534,0.022683225146768737,-0.062966077132104573,0.093548173773299187,0.00843289503142599,-0.018923419084368603,0.024307990008163985,0.048043918724020446,-0.092827902942830512,0.080789967217489433,-0.042016290460946959,0.13313863584211358,0.050407307765302743,-0.28137789711575217,0.090122342145976045,0.010537801930096425,0.0021792927050881092,-0.0913890725735535,-0.22549702212602341,0.021461332427040323,-0.04841432467228296,-0.072524865685434328,-0.052841058432521015,-0.0712939450960851,0.012512577901236492,0.029110355425483844,-0.089960875988847139,-0.014681187054166265,-0.012461999380584428,-0.098883337748549918,-0.049652268951712535,0.001691818698846836,-0.054867683973046026,0.052227939806073688,0.13368924210253336,-0.035964273904214056,-0.016233535580488814,0.035693976855930495,-0.022107877345617144,0.15046481839237957,-0.020248306750932189,-0.0095094278325605231,-0.017425662300892809,-0.011055122583230088,0.093304524582529441,-0.0021160259574320318,0.097956029494863275,0.10070497600684426,0.020575341767202698,0.0677994970697111,0.031729688423200744,0.031729899253368429,0.0076275215129491128,0.015651722687082995],[0.033907902011984264,-0.057362839075668616,0.030027253912690986,0.076195089232965654,-0.079734901442157516,-0.0450639610159983,0.022451668933109542,-0.042219716321794408,0.00055698774466190852,0.053469647502824139,-0.032609643500023093,-0.066158818740042119,-0.076046471822291,-0.0023187617668731864,0.074729294452835729,0.043648283731556027,-0.087710905532866493,-0.027330268351386956,-0.04136004292184,-0.0039275965256580347,0.0089458824453520786,0.0782585439818485,0.00612531937994957,0.16576368943589334,0.030957773784183015,0.02251624424737602,-0.057411400814605044,-0.036337001325200811,0.11419927255023195,-0.035353987390119183,-0.024641205412852678,0.010823008130578689,0.023900989226790036,0.10151618517810751,0.068590955010156662,-0.018905819134247617,-0.075962930444589613,-0.038435123506232724,-0.048423509252625667,-0.033600587582211447,0.00892530374086596,0.083766109802872316,0.12996095932791887,0.040200500942918167,-0.017473792965122716,0.090886044958978146,0.17156094209009729,0.073847484748785178,0.089523141709842435,-0.037295821220978506,0.06616394655926916,0.046253591071078452,-0.062809202938695227,0.020601780531281141,0.015912037942219213,0.03107481766184006,0.029094115604317437,-0.0854491714957917,0.032527354895151357,0.030237201752508495,-0.018717833781355754,0.052690738709688358,-0.053096810431347431,0.016137549529836013,0.0097040596604802565,0.057331022491131825,-0.059779080896247554,-0.035148672090369613,0.1257072879980988,-0.0071977749530081816,-0.0034860885265678289,0.034944912734381745,-0.079825641889105542,-0.043925901245156732,0.064834457531956227,0.040075839352955556,0.16175583878459063,0.025108999610629602,-0.024119880743726559,-0.019004890376976714,-0.005545580102050543,0.024710886391895625,0.0033105468604981013,-0.0656096066254573,0.047297867253371852,-0.02566035083716417,0.065689505966371672,-0.081892136282911074,0.0041495692344968461,0.14379257830958814,-0.0939358276797503,0.092249036934399814,0.0041798830368896377,-0.028234691612996823,-0.10109249856608991,0.059914961698035882,0.070974917561562115,-0.043191073338296408,-0.072977065551217912,0.048873043631533664,0.026890971670159924,0.012751722217889786,-0.10699624623538115,0.024661422572687941,-0.11985629813899516,-0.067347489105816352,-0.097068523880184471,0.090331515358979847,0.055001068242287052,-0.00631799254208403,0.03180988427000319,0.13813612809291409,-0.068509034222072843,0.0817159616239603,0.060543618777066641,-0.097012957786467041,-0.1420933408698476,0.047871100729811204,-0.058083393370253811,0.086763745143322607,0.0027770828918396075,-0.13291192731894666,0.049632250262086869,-0.041900732043263236,-0.074214828691723328,0.032652373521069672,0.0083743315340834221,-0.11184514569996751,-0.060480288134690925,-0.0097865173045036339],[0.044562973252990044,-0.14604643259920228,-0.024039975816277641,0.068080956794996955,-0.049187035801434312,0.0782227180887791,-0.077366018488710359,-0.079712971023323378,0.014772405566744053,-0.038817212257990945,0.027138621466652184,0.056141698962717236,-0.022480321347941212,-0.019151592896539039,-0.043364417103551732,-0.08622003538816847,-0.16070832251335845,0.08387080805253791,-0.015384212422703639,-0.07454727314288051,-0.15346284838785307,-0.043279962643570292,0.060386034570221368,-0.12792824845489809,0.010975812624317679,0.030196492464426097,0.054308488719769475,-0.04041779062084893,0.0018491827975581879,-0.077804381125524388,-0.091328228170433359,-0.023522826956460623,-0.07304979284157237,0.080911935899112178,-0.12561319760992176,0.047255818725917505,0.049060693958162774,-0.016886361475018281,-0.11894486307905933,0.056425773213809316,0.032306356023776558,0.0364628982688017,-0.043342056278877716,-0.052737849935824435,-0.061846324060607541,-0.088721063041961673,-0.10615668489663784,-0.023180758098786742,-0.036823435820104257,0.012017043993139728,-0.025975428502977394,0.027939309906952346,-0.0889930161248554,0.0099603595743440066,-0.083825606197993938,0.11100557777855266,0.070323082926175146,0.0811814555114372,-0.018742282899674417,-0.0051883641245031569,-0.21298227428497055,-0.0044123842690588,-0.11893704505512451,-0.090481970460457167,-0.020326988414908664,0.1468626235922354,0.03434211482636855,0.034863884218045975,0.063230980197804654,-0.07516546631319683,0.01916176212108165,0.05643326439658522,0.14576243718779447,0.081183942420620769,-0.12845974831325621,0.0020989573836738343,0.012569287861627105,-0.0099938003269351063,-0.069256747043126107,0.037568813501238522,-0.039965025226391039,-0.031164589570759148,0.045540276048490591,0.051536419868497267,-0.088348053585982,-0.006814614459385842,-0.0020528324648199838,-0.010397859118877128,0.012785203814150419,-0.012584845340591885,0.0060964742862554327,-0.00044508992110795539,0.073515409667669021,0.12760090665711998,0.071935966657898975,-0.03162449010522457,0.097495441369808991,0.030478487074093764,0.043039134560901651,0.018485997402192481,-0.02754559087709477,0.061493870699892733,-0.040655102700586546,-0.07101368405086618,0.052002756291494444,0.017766376055160783,-0.037545087532358037,0.013935359426985868,0.015268882967681549,-0.082582096009381614,-0.0990628207726684,-0.0408582983673021,-0.023616555889942815,-0.076857168024558054,0.0053026156069477153,-0.0853927376735804,0.007852367538311705,-0.057989589967902586,-0.12322795019042429,0.00017988912359908677,0.12515639975951443,-0.18378456457796127,-0.070983423759191963,0.032210274287354186,-0.15147885502938968,0.037642406740368443,0.046149642620605343,-0.083359542896546665,-0.05377683621318749,0.092753727628881483],[0.043650390305401479,-0.1690866954112665,0.0086033453335025781,-0.0991845811917524,0.0070141191719312341,-0.063376937205256084,0.0080472623351179762,0.0079556418626591414,-0.081882264841772037,-0.030558941761126807,-0.034347189566069476,-0.012864480703512319,-0.099278903095409821,0.099568486624367,-0.036882116078360547,-0.053840249500769918,-0.17335542278640961,-0.12560963903185024,0.002918655309521206,-0.048434930009910171,-0.19123753977580113,0.099995651449588788,-0.027265370793423307,-0.033735214405725425,-0.030586031076830642,0.11253734481556588,0.014418018128853382,0.0013588995456479524,-0.0118544711802922,0.089214952254475052,0.00087352194862999079,-0.025646995050448724,-0.0716162501777606,-0.13605216136231882,-0.11857172135400949,0.014370909528486634,0.040275190467114641,0.0012641580473708445,0.02869185973384222,-0.050705890566125511,0.052376469993451059,0.0613733822745673,0.0082094773580493711,0.035731866806419793,-0.026363062527039727,-0.017028736758466886,0.071211771159806772,0.071374753379803715,0.0131654029649703,-0.033097667333089942,0.1122770275365312,-0.074223152217479466,-0.13969275122855437,0.014116022675946362,0.091811058431613579,0.050360969464464111,-0.057496432012456279,0.0070682795778097872,0.06793274302097535,0.096566091583528038,-0.069596467848030572,0.032776552031607488,0.025305753612815077,0.054738123122083329,-0.070194308639933159,0.010021009820423404,-0.063066032262211108,-0.098386113461295027,-0.0058395462020428114,0.16395814452548055,0.12151369012453601,0.023488420934509931,-0.0053136056081203005,0.021130884944058539,0.1000616986397186,0.00480396869116385,-0.00472726677830482,0.065058937309008635,-0.078953324422974841,0.034699107044753985,-0.069165228080294211,-0.048667183553133486,0.13317597113114238,-0.077466235720024354,-0.002497058492751406,0.0652069784805578,-0.0630872156354752,0.00094365969785400051,0.015058008511545202,0.027785404412502605,0.0027223927996893943,-0.10278344159973728,-0.032240469785748696,-0.11006402597930753,0.032148407616856244,0.085359034291473887,0.068293524076013634,0.095355376453879828,-0.0093693494436768755,-0.003532540196441203,0.040327818482429209,-0.053610855998326767,-0.11476248365451577,0.043748131805386371,-0.10662008003857657,-0.031202322150553994,-0.010634967349792064,-0.017589386331494344,-0.012821131442495881,-0.00715387752584083,-0.0040698309420646147,0.029085454994849422,0.024832406143690543,-0.074897938285038462,-0.172488788458099,0.12210734985376126,-0.05171112854579446,0.14433635669157013,0.019433152780998438,0.12234840477488623,-0.10790933134815299,-0.10912673424527991,-0.037682199082006006,0.040946458022103095,0.083655477757177382,0.03072633259137144,0.041169168152603006,0.030957032435149356,0.063169237345005569,0.10291904612691046],[-0.070463203862418861,-0.0031228132496466349,-0.016239604842493902,0.034454701190100114,-0.01200503992413739,0.17095064791626574,-0.044600944421556016,0.0096831791184702025,0.031462035224951813,0.059175132466415925,-0.023952971331586526,0.046126420472788754,-0.074359715061494955,0.095840678232858578,-0.085857474198973008,-0.06790406741968523,0.023061223762191656,-0.052819985365319268,-0.0026315402713367872,-0.045435343821932726,-0.057425905835008721,-0.0970973421094513,-0.069739515186010875,0.018229901374179222,-0.10409970203002168,0.064726213651397066,0.010918865229652422,-0.056015057996051838,-0.01721176047014401,0.026902879325574783,0.025748361119316474,-0.091660324560117357,0.021500774477263358,-0.033394290393883155,0.073679226351742816,0.009752172413664259,0.075356993500889674,0.00716265418193913,0.087991077777646171,-0.025727518647537449,-0.062750978435370586,0.059383076841397743,-0.074740505609304425,0.12940032120238221,-0.061054423881337229,-0.032141336765302529,0.0456824031721512,0.061013349465418934,-0.067469915572154163,0.032590554026273894,0.084271075149266517,-0.098616611298362036,-0.087766403278763436,0.097795560518778274,-0.058155087055166629,-0.081526103071933129,0.0028384418691322745,-0.18980347796247571,0.058816183487946518,-0.14649556324966431,0.13504553693193058,-0.058658099688236806,0.10604781226833923,-0.10679377415535968,-0.10398677758542768,-0.0956954589625503,-0.01875360868105868,-0.13597363163304119,-0.01990335682505999,-0.062667911862608255,0.079914763092959154,0.001075548980919476,0.066568039147340941,0.060124174037324847,0.040202828995593409,-0.095593430653126463,0.094629164404702565,-0.013741183886470025,-0.0056573391877489882,0.028511835273439774,-0.056984788473491255,-0.029384998838386203,-0.15331530983911318,0.042067567603578278,-0.025651893535667117,-0.056000858240575588,0.087936135350621072,-0.058236859510915437,-0.15952486178369402,-0.08689177319156606,-0.04642402497872581,0.028440853586065525,-0.061861448962745029,0.10187219662566503,0.018838718789591036,0.036001787870556891,-0.0804967940366948,-0.01784508260022398,-0.096553715794227321,0.015830057439434095,0.046382456294233862,-0.14855667499260195,0.069455874311017671,-0.0709177731704876,-0.055789915159335936,0.099655408784816685,-0.021306264208414763,0.04517372206306304,-0.012731090689821241,-0.14480565709525389,-0.050926927619855754,-0.0093361007581968022,0.012039591218909313,-0.0764361735883733,-0.030091219552116209,-0.015611256787517177,0.08218252721382166,-0.0010826873020960753,0.12451375717604996,-0.16296085145692024,-0.048552846677655553,-0.035706350746863479,0.080637608474205119,-0.027656704851634094,-0.024582646120922372,-0.11808401794860006,-0.016075464519036436,0.088832383561477338,-0.037491786577479487,-0.031431282551087042],[0.09393283127244699,0.016895777436029248,0.04922923516415853,0.018395593857644922,-0.05603412329072785,-0.066282128860045683,-0.025940876940369065,-0.05651220492346664,-0.091946211600460126,0.019604202087511662,0.041630814487047828,0.011219489421440087,-0.037339871203771295,0.023133861976285863,-0.093962953839296676,0.045573009057292141,0.15871674059879234,-0.04992205640849532,0.0803147237518639,0.085071058696941357,0.046869780051211819,-0.0085850836913251953,0.13031526340493874,0.10276799256615263,0.0639630819141778,0.13395576761985792,0.054360418295928289,0.10589479524721104,0.073329996372395276,-0.022943252132946398,-0.00090837539529687488,-0.067299531360418371,-0.1142063768935592,-0.0044387455503518657,0.044898436571314523,0.01911911482870151,0.0677149510530174,-0.048097196475521325,-0.070147199318591355,0.073456401828664974,0.019104302386256541,0.095124884743583965,-0.073960486940820178,-0.08743084122204843,0.0035644394127929157,-0.1110942548765604,-0.044411893680595567,-0.020769331692684051,-0.13923839950104722,-0.094679479189014121,0.0040091580809619685,-0.019599161177783212,-0.065758113022137535,-0.039897037104922553,-0.032311639754163207,-0.071968853602595445,-0.14719909565377404,-0.059515494076033557,-0.050745283861513772,-0.0082852851972019352,-0.063393434014109531,0.16004202873934645,0.0640624147806077,0.030510684739763663,-0.054964722622168304,-0.086872325962884,-0.086333674641361838,0.17478708079916602,-0.0070226864023525811,0.040294808502086769,-0.0051754184120852966,0.19920424881607102,0.10589563001408026,-0.050334305019062414,0.039096965873603576,0.0020420758240900041,0.013842643407778748,0.10108626916362155,-0.084645977261854674,-0.025084676379106711,-0.025392621589342235,0.070190513077823952,0.0017634214459634867,-0.0607023726376715,-0.07204695113147945,0.012616731213377327,0.031554897318066488,0.06012763106679915,0.084102766408936075,-0.0069507878557455473,0.0514347224641954,0.13426784479536166,-0.090197211470049207,0.0784824224205458,-0.0050306405038608188,0.074794559326483614,-0.032119128617205235,-0.0062473038011301883,-0.018201951677237694,-0.026406627599875998,-0.012590924220732616,0.083680221745035643,0.026090632455262892,0.00829798535880878,-0.14470317715258516,0.065741222962669488,-0.015921300123823295,-0.033228585567319169,0.090229841968142724,-0.0014046863895736312,0.054318316873918429,-0.1121377633492433,0.05448265388283955,0.023996845468282287,-0.0739947436365418,0.019585439363404129,-0.11368265334100629,-0.030970260400232232,-0.031161317613550649,0.045004123933451247,0.041604992438102076,0.0388933812548008,-0.077065892959780072,0.095362482343752927,0.057114302921472189,-0.0675687500418562,0.089360076287208517,-0.039526647766578493,0.015408810680062576,-0.0055973633394491244],[0.00076948114209022536,0.112913369802817,0.034327813272803508,-0.049510357722968037,-0.001070963145551688,-0.070950084588611351,-0.11800114951170961,0.051118154962375824,-0.062012244492685158,-0.10729933913270334,0.065013670173427615,-0.19126303661389149,-0.084669458531947808,0.034341521677010038,0.036576345994697272,0.059477501137254724,0.045393815643978472,0.034702952788212574,0.10210308575298434,0.044372215279421243,0.0099066040639241883,0.007707160862905623,0.054694613433951586,-0.0451431465319816,-0.085141466343024788,0.057991338642631424,0.029394871733733913,-0.085990488092285752,0.05609097255981333,-0.031806603863645366,0.019892501833027949,0.042487754390369094,-0.030310179112055417,0.0055275124063853447,0.020985141956352354,0.16396347440937811,-0.059064747950012896,-0.0895484062453561,-0.09719643252645109,0.0929213978749739,-0.031444247208647455,-0.04781345275279595,0.044596436624982,-0.12881847196244062,0.026086935487562381,-0.039835498911528024,0.041100534816963782,0.0057410298730218795,0.017199188141913034,-0.017817899958034976,0.043100709878912187,-0.024373738075828075,0.010719329267624053,-0.027066985250677453,0.033501099550130774,0.061228596461927035,0.0045938742903492745,0.00069987847087348985,-0.11661476081933982,-0.0073705137102845686,-0.064781563020655353,0.019284283214858408,0.012813139716255162,-0.0841078856024167,-0.10764113450347401,0.063338460485753686,0.011209928001905602,-0.10891768822778049,-0.027881287909576027,-0.042268742721069161,0.09336801914908982,0.0057554889867241317,-0.075524851729797324,0.17772875342981867,0.0085096647130920855,-0.013902225654044356,0.0093734002129706312,-0.074007332020332828,-0.10179541734761093,-0.051146311285080674,-0.033916495636640363,-0.00040768709527825751,0.018841121509190831,0.037432746110832527,-0.025515818704914931,-0.1359171879146357,-0.11206843798657827,-0.047905771677984536,-0.16329002016847385,-0.020018555720385661,-0.014244019436884916,0.057437857731870809,0.072309032951143354,-0.12106384010444808,-0.09905591515097846,0.028160085951461324,0.16224593000622589,0.0431267682498846,-0.032679327343528089,-0.0026691447511592173,-0.009919805696745821,-0.11676094885091948,0.047695341439489627,0.0034404565791152815,0.018081070181890591,0.13750141332195384,-0.049916422328664091,0.026783516379834268,-0.079463864721884228,-0.010395343402346841,0.082145797775962481,-0.052171264265489993,-0.048943578885303554,0.042249054232257478,0.0346898682270053,-0.017448865651086005,0.00012189139124117627,0.04981721280511188,0.039834378558129227,0.069813823253989632,-0.086542963896750522,0.04219567904927516,0.064747998558995379,0.023926565543432251,0.068776065288083027,0.024562064909156578,0.056395982371071011,0.039948717607033064,-0.013215780097148674,0.028436013724412949],[0.035184893830649995,-0.00850444903946717,-0.0094753140747175224,-0.1297363044486948,0.11279175115680368,0.060576544975432418,0.019946011809196296,-0.05751150889715826,0.14419305680133598,-0.03191125822634313,-0.014993666291252185,0.072827738133098785,0.0766846214948217,-0.033495503610183219,0.0097595976674835251,-0.073447026482780134,0.013086020614681577,0.01355274276413212,0.0039108379497017655,-0.018428110982753279,0.023876066645228625,-0.10759838953578273,-0.075314624972858166,-0.093357315983449457,0.10717582775977244,0.023727166893288274,0.0831988733873127,-0.11218839665953852,-0.028488304152829231,0.045410732006626472,-0.010549768085627123,0.12155524603787982,0.030216389615400747,0.074522346625189667,-0.090041549550817834,0.023923365270931998,-0.040288095505101644,-0.025687459192044761,-0.10786977303092503,0.011418046512023689,0.076962947287107439,-0.0027948718570794734,-0.024520298518840477,0.11195000030380832,0.15908636289881076,-0.11179609121547179,-0.00401672309181818,0.027809349542513923,0.016281573103411367,-0.036348692347247823,-0.0034685000160605815,-0.15167197170280641,0.10803031497232186,-0.083629724804303168,-0.066324647076610024,-0.053848333726899379,-0.14113684407615237,0.017720282021785837,-0.028340661356890243,0.045198693570766744,-0.0076265272760383191,0.092978805100353112,-0.024875038339045346,0.038812462208651123,-0.028999054925032051,-0.031012683576917412,0.092841593927543084,-0.17765676202741657,0.089948989919182126,-0.067471059370658976,0.030635083278249868,-0.0023671321844736756,0.042933429034711271,0.018573886984476092,0.055905318852521445,0.03774578426617229,-0.1160282462111594,0.0026202677556084772,-0.070741367294621743,0.046957270845930529,-0.08822621107356432,-0.056072342824304747,-0.010104923358139202,0.050594721587766692,0.0033610702344316146,-0.0029473904171958649,-0.038808826915585452,-0.052970974165385466,0.062705957340135329,-0.11441925376795965,0.032601434079501231,0.034711795158689024,-0.02498205803776294,0.0421167778416461,0.0064606614657472831,0.081476236548942343,0.089328013796521472,-0.053743246307528837,0.10366669242885687,-0.025774152378699674,-0.010211136331353269,-0.11503275222783065,0.085188137998749872,-0.0851111824260141,0.031325061763430161,-0.042292720314493618,-0.023712259713360852,0.088242982359818783,-0.09183143871966383,-0.025450912407276493,-0.06835017927471454,0.011761174214608133,-0.068249716996553314,-0.084761799595526752,-0.034700117154951533,0.049565900258919521,-0.078578010787006713,0.00067487813263704844,-0.0028173836074269509,-0.0053896050994429,-0.010210105506387191,-0.047532473722667459,-0.0053714971364578167,0.034681283889217512,0.034721286620706414,-0.020193253138196147,-0.078669973243374589,0.01761753267152584,0.1357789851836376,-0.037971590368641513],[-0.039150019589014359,0.013687065004684085,0.010169083857293777,0.023724523509019078,-0.014698517319607744,-0.15811303166298021,-0.017199230962089591,0.10412117747053348,-0.12270204225485476,-0.00042635260630612414,0.0078643137157590227,-0.017835064035971293,-0.023743211601406061,-0.027810123445158375,-0.027075431522177357,0.12272236271085069,0.029200069036304198,-0.13086569009547419,-0.068348916304911689,-0.036687625354435711,-0.041126041435173677,-0.056999872139259174,0.0027118896672709055,0.0723974066220331,-0.052216226216583186,0.021775563755562676,-0.018462275996320662,0.055643377099975889,