{"BatchSize":200,"SerializedLayers":[{"Type":4,"UnderlyingSerializedLayer":{"Bias":[0.0,0.0,0.0,0.0,0.0,0.0,0.0,0.0,0.0,0.0,0.0,0.0,0.0,0.0,0.0,0.0,0.0,0.0,0.0,0.0,0.0,0.0,0.0,0.0,0.0,0.0,0.0,0.0,0.0,0.0,0.0,0.0,0.0,0.0,0.0,0.0,0.0,0.0,0.0,0.0,0.0,0.0,0.0,0.0,0.0,0.0,0.0,0.0,0.0,0.0,0.0,0.0,0.0,0.0,0.0,0.0,0.0,0.0,0.0,0.0,0.0,0.0,0.0,0.0,0.0,0.0,0.0,0.0,0.0,0.0,0.0,0.0,0.0,0.0,0.0,0.0,0.0,0.0,0.0,0.0,0.0,0.0,0.0,0.0,0.0,0.0,0.0,0.0,0.0,0.0,0.0,0.0,0.0,0.0,0.0,0.0,0.0,0.0,0.0,0.0,0.0,0.0,0.0,0.0,0.0,0.0,0.0,0.0,0.0,0.0,0.0,0.0,0.0,0.0,0.0,0.0,0.0,0.0,0.0,0.0,0.0,0.0,0.0,0.0,0.0,0.0,0.0,0.0,0.0,0.0,0.0,0.0,0.0,0.0,0.0,0.0,0.0,0.0,0.0,0.0,0.0,0.0,0.0,0.0,0.0,0.0,0.0,0.0,0.0,0.0,0.0,0.0,0.0,0.0,0.0,0.0,0.0,0.0,0.0,0.0,0.0,0.0,0.0,0.0,0.0,0.0,0.0,0.0,0.0,0.0,0.0,0.0,0.0,0.0,0.0,0.0,0.0,0.0,0.0,0.0,0.0,0.0,0.0,0.0,0.0,0.0,0.0,0.0,0.0,0.0,0.0,0.0,0.0,0.0,0.0,0.0,0.0,0.0,0.0,0.0],"Weights":[[0.0604456777100951,-0.49704628188000266,0.0020209490354903526,-0.24078249831767323,-0.40985393843137752,0.054919847597988576,-0.56977846198163618,0.41619514872394525,0.336666290104302,0.019519052728228365,-0.0087939283680494133,0.92475583722654231,0.13351382960006969,0.223782316317706,0.328713251950803,0.27220760973913832,-0.30734775492452748,-0.14694548468089125,-0.17015891498817426,0.51792024238862666,-0.20295102415768795,0.18558971973738722,-0.40664765581029455,0.25381875559954176,0.20767683062768647,0.022069104714991603,-0.40853450802138691,-1.1228664336009651,0.21305844068134147,0.16773205077598902,0.67420972519165479,-0.53735556724399292,0.45301870523974858,0.36148715159729577,0.74863388947954645,-0.26750530150776847,-0.20174385837401193,-0.15956492523025012,-0.41828528335163673,0.658944169330984,0.012379875940405781,-0.59948460646488289,0.41521240555170308,0.000944419191926295,0.058482322166221609,0.12054844405563935,-0.26972146212292036,0.52796745929197264,0.57235444824412052,0.12244459662149301,-0.56417800589839207,0.34658216610849335,-0.60550762356302912,0.30997782928746004,0.25472133562881494,0.15526089391835693,0.32668586096015756,0.16402506627684402,0.48770729537251717,-0.27949811648461825,0.10903302927876506,-0.521310766928067,-0.71336321975150474,0.10312039864851548,0.70888455335542488,-0.0087827447930374416,-0.56096136900191662,0.20962227949403592,0.0856787443989499,0.034851918854292653,-0.65335432646175107,-0.17268524734750212,-0.15755303871915569,-0.60068724366139248,-0.010788701174580778,0.73199645894456189,0.16134452227361942,0.13716544977597922,-0.70435446632451881,-0.46430150391126995,-0.7553200794170859,0.48134306358970869,-0.38234710064002936,0.57617544657212261,-0.22748389373039515,-0.39926869528475006,0.16527428519973691,0.44432356923560706,-0.34554002559092989,-0.39658089714725908,0.1194198675607568,0.43005077368326911,0.19510496868199365,0.32732053992116195,-0.28657655330680287,0.18243466496424837,0.662176501030849,0.027605249016997811,-0.47261922051956667,-0.22407717388528059,-0.40362234464155761,0.37631577017842249,0.21515663746822833,0.042284443354385817,0.6078100379956618,0.22012547383249384,0.10590734552364309,0.66720936379743268,0.622848295176826,-0.095396635649424716,0.37144656431426287,0.12212313941386287,-0.34770895797502471,-0.14698274374755335,0.45195219349481175,-0.24200182225445244,0.010880657105670832,-0.51640989768829637,0.52045471008177469,-0.10157394251806196,-0.15374306935339577,0.15470620435276536,0.197453723337122,0.13598421165315014,-0.046930240118918241,0.39772378676796044,-0.44664919175265233,0.60355630050762787,-0.60518143513150746,0.33500884929240143,0.24337330285051298,-1.1334817446661929,0.68888130642372747,-0.3551590334778354,-0.25074747198137742,0.633813267530354,-0.035123732978006715,-0.4803746660918059,0.2771884652365032,-0.10800785972983029,-0.077235421123659331,0.85588194075150392,-0.37982717715563119,0.30957534219539579,0.28429287357000504,-0.2422824902984225,-0.48831025563428504,0.51793710038070229,-0.12545234263393792,-0.47611013600436913,-0.17918049277687576,-0.27110180944748236,-0.43361763298755512,-0.10593350171365683,0.070299040336726293,0.43446429172730933,-0.19018570943070648,0.28592931128343041,0.27029872278984218,-0.18137507242257442,0.27558901638582939,-0.027291404382095583,-0.26217916302910055,-0.05975082537601252,-0.55636083268996972,-0.41531734959034811,0.11258547269737994,-0.13379981495242022,0.066056397008310008,0.80479018012603742,0.35574932468148424,0.27278760545357067,0.23861415084169202,-0.1679377747197377,0.10913232999324198,0.03927249049289306,0.19516003061486106,0.66405996905030462,0.68252274443201544,-0.25226096899672756,-0.11483143829179954,-0.21803911563901607,-0.14153265671731669,0.10571220414801033,0.035433614888148675,0.30821408012188889,-0.74886120495866393,0.013966889263902362,-0.047068446753946155,0.40222799481815291,-0.088669980133398121,-0.058369361333470669,-0.37105285196492388,0.11199578665932092,0.37770752006975883,-0.050777409940042192,-0.58004085479745515,0.26145352169982833,0.27162621667989917,-0.84693200958749826],[0.14829756222008467,0.27711284422328314,-0.24948421280082678,0.75879495592779567,-0.74976941602944991,0.14269381916161852,-0.27609980913787185,0.51830172201366909,0.35472322340747831,-0.026270584598042383,-0.25910316904458575,-0.039171503144247215,0.19648531953775783,0.20732480520522176,0.17609763673987286,-0.19854917820073867,-0.084807788951249255,0.29031494554887255,0.93786429782468472,0.24161160565967263,0.15448027300396225,0.5696618198345792,-0.399949946845653,-0.18616578359485481,-0.38766960258360833,0.10198133329931333,-0.24767332434619069,1.1086412070690022,0.27707195507760157,-0.3148886096490574,0.18186714316531782,0.61424940419260332,-0.79583195807080254,-0.67368696059474187,0.22399788037136451,-0.30488312768690229,-0.396541032708011,0.48012730715355084,0.16913725317182318,0.53776181170268322,0.27752962792273206,0.402724724277987,-0.148900645860382,-0.16510760308541525,0.098122174799148587,-0.34394650181996467,-0.19887241871869896,-0.4552187479240965,-0.30231650921858716,0.12638461819926014,-0.38284707089831854,-0.071982664456660836,0.21948523405073009,0.49902950469927154,0.27541774922522105,0.43055662858511273,-0.43901752674347266,-0.11735836759772726,0.14206301418486547,0.34049928714889982,0.023132107014436718,-0.36917170858083681,-0.56178736785770944,-0.32911554429294859,0.36629280678393827,0.1211952796310274,0.50563677427355336,-1.0068242026103718,0.29808322808443544,-0.0539392903779394,0.7467817763653205,-0.017894200599431063,0.81061548540870865,0.19119532591434435,-0.51606798501688711,0.043840048335352821,0.55957794301192476,0.57749335990427375,-0.42775484103000166,-0.21985674905838895,-0.19882316147573773,0.10591473373486782,-0.43419888842730525,-0.42947797949651134,-0.22502762573528914,0.052117601599915291,0.047599803868013719,0.49239014107894918,-0.84665765318532049,0.25962595579412351,-0.15110777269613493,0.37286310128427697,0.19424155395590786,-0.33756447952785851,-0.42566571991896451,-0.17932232272917983,-0.40234055465811969,0.24531119465894816,-0.1094005214812017,0.3663669667751191,-0.069165431547089359,-0.44609474334785953,0.34240330778609834,0.27532513382910723,0.32291476069373687,-0.067709529962308987,-0.0951742645991514,-0.042974815804893325,0.02174970242119156,0.61827633291473849,-0.35062362525505225,-0.02822277218298418,0.51717410248487683,0.10413498681092497,0.12503809417850564,-0.1336273992972255,-0.15401401661296049,0.058283634342116315,0.16649330544275848,-0.82078513646788009,-0.035334164304445463,-0.02809324105948385,-0.22032263718976622,0.13033869029997608,-0.18952698344716429,-0.44027435783034957,-0.038055057506141604,0.081764866607451317,0.031147087783729363,-0.17589053034644778,-0.05374131259276721,0.18962285643458163,-0.26471894790490835,0.44614497175447304,-0.35178099026740478,0.23838116334596757,0.22067155802687594,-0.47481311874594445,-0.083231747169313711,-0.7775321826541195,0.2659751493632197,0.41744030882649891,-0.50030346640537848,0.11573564358884399,0.03164059985855748,0.026394616014475451,0.48349568849561453,0.022881901992613207,0.2573356662555461,0.127306022225358,0.054533261864790683,0.0070278572131351772,0.15588778460412009,-0.43439745946282515,0.30802962344237378,-0.0776863685675626,-0.41205974779722021,-0.88547072878742106,-0.25821972545760452,0.20197593025843771,0.11767941717003772,-0.1853843124228628,-0.20063641732706394,-0.35742374827940304,0.7333918693636986,0.38690563847257237,0.12014271695865096,-0.22278561445575343,-0.089862401563593333,0.095536729114847424,-0.326598004509207,0.14758622926785675,0.0073889502574678448,0.10581566161029542,-0.28400740190956442,0.19169813169115557,0.048562273082728522,0.519036931298662,-0.22402849617800733,0.10277515878193633,0.61005865605631437,0.18313772164043363,0.027194225310351743,0.4784248565556779,-0.78363796608162506,0.64971055397083644,0.079704210515668866,-0.10046641311866524,-0.341746227219335,0.44097175525478505,-0.19043381433107087,-0.32923991069616787,0.12145547275103802,0.31390997913337004,0.10859141302541593,-0.27637415348384403,0.68712933698124767,-0.38877030512938171,0.49593639733182854,-0.11980630766987842],[-0.544349753369591,0.39417962246714444,0.4013339061422726,0.20393079610695469,0.23416144784992768,0.27574252667351712,0.19775299065115395,0.065444247650739737,0.060630798444175051,0.46417700038026904,0.14827533675679139,-0.24673644918609197,-0.31162147553918595,-0.54397366507104683,-0.20058998801223466,0.35249728288648785,0.081425690178005758,-0.325468596259512,-0.060982152755390706,-0.31928822903319237,-1.1119817900086919,-0.14737705650267804,0.20212791538975866,0.30434085238705944,0.19155553678152212,0.21894768700855646,0.0018032142986932453,0.20065409689801503,0.3344771176047211,0.065456977832044419,0.34747568659128353,0.012951124000410848,0.042357510391447785,-0.038469753085868828,-0.084548547356813886,-0.46820707708699005,0.48665201728430407,-0.64498427840763728,0.6320121566876491,0.062257358046620533,-0.18255242221031978,0.0014796270918946404,-0.3111762801203633,0.5656545302082312,0.43720701612812912,-0.25218106776893956,-0.49300136369132669,0.71665936871943037,0.069666451268763155,-0.533418108170383,-0.21501097695609306,0.5141976579281774,0.23156319722543692,0.25957410573232442,-0.34221074882784996,0.11529748322329909,0.2833771245664875,0.29131333319471203,-0.37035576834603406,0.40606886100277395,-0.088158715534139148,-0.16577151105522991,0.30545786793526131,-0.42704066289783232,0.26976667417574629,-0.13350195126854203,-0.51119750997480617,-0.56353676656806384,-0.16477269706575654,-0.27948791509356508,0.25715510064164004,-0.91831354169410129,-0.26934026077946033,-0.31752242472687092,0.056146432299575839,-0.25775495935443243,-0.11290014579657563,0.79415820575803342,-0.23304674176455181,-0.35764482108201784,0.21763012498194448,-0.20065396696682925,-0.61329922919755708,-0.61420244050453021,-0.27854212667438921,-0.18432368221817289,0.24488435022540531,-0.10357520166161446,0.501948146926308,0.02940160036095096,-0.57276410025333668,-0.5390300096984193,0.78612752191518143,0.22173520276519543,-1.0811408839091719,0.17672305292560997,-0.46074918333264608,0.205686138620207,0.051316061946397873,0.022836833586014155,0.13982692501389474,-0.49335600610627295,0.41273478739362407,0.12392710821246845,-0.39102740169179123,-0.022742202484541309,0.090909392624869634,0.51437339657523418,0.58600780238640682,0.3854690075015097,-0.21482262976520589,0.19899389389915898,-0.495960068397072,0.40144125121006452,0.25830952284944769,0.76848418639796856,-0.093787808268153319,0.27030677019834271,-0.3744600184646858,0.39321177459602186,-0.25232129264174424,0.011818430152023211,-0.316376510351601,0.13420784734272351,0.50158691507813236,0.11315180615088534,0.39029869570114656,-0.0610563263700647,0.5767939838586803,0.023954615500432472,0.80899460935719847,0.42448405325220734,0.0010033756907518151,-0.2547113457232329,-0.063489791192723466,0.59238400052379325,0.13529525736994233,-0.20416703480179213,-0.63290812664207385,-0.17077055751835119,-0.054741243003329193,-0.11337025509305695,0.525085947891016,0.776342966354575,-0.080870054291261942,0.13259517664932688,0.036839853970651093,0.048933783543677938,-0.2146588969225042,0.62461470733121971,0.370369962234707,-0.52930886569778968,-0.2664137246824535,0.34179882694538738,0.51154510968917855,0.085159341223851784,0.92961713025598458,-0.31649912927095131,0.363994791414984,-0.3947387708505305,0.064395392605579013,-0.58973024629056181,-0.16442389566939758,0.18469671228433596,-0.13319501695070729,0.056808532126703434,-0.23056917792726339,-0.26679406226246011,-0.11624801442523544,0.27237889767776013,-0.42435406327595948,-0.04261553966063665,0.20665273486697428,-0.047810956842501473,-0.22526920225730579,0.12436517024688477,-0.55549386228678921,0.046366154566125452,-0.64626176126404111,0.0383027723153396,0.032297113120562056,-0.54421435077817182,0.17049020601434703,-0.166676445719654,0.51834649249249476,-0.24242974521514171,-0.10088250865819412,-0.29473588752510521,0.5223765680752378,0.016782699374338947,0.12324858328193956,0.0030971492236524728,0.26655694151160764,-0.0028785399048343262,0.2759120225328987,0.084958472006288963,-0.17375653093958626,-0.090851623103534687,0.43151735283641185,-0.35381454105532895],[-0.46742396725233976,-0.25795284736804608,-0.35429300164444044,-0.080520855992705573,-0.23867734206763705,-0.29165779123315966,0.32903066766033007,-0.26314900496903393,-0.20734166003412721,0.13826986043736927,0.14610628563101455,-0.14877322747078253,0.72203672905735383,-0.42837735692356965,0.53719356924811312,0.35205200864558878,-0.055238445100693548,0.43223051518609051,0.30637289796874467,-0.040082782701088629,-0.319373491699838,-0.10923849469918573,0.12045167172560985,-0.1639152732489052,0.22060568292087598,-0.23827499826601933,0.20092777614684987,-0.21577249378700486,0.015320550194131049,-0.4374197859711782,-0.12131542293362665,-0.33667199324603642,-0.18847825895434961,-0.035468657575667674,-0.55698011020070437,0.46893706238916621,-0.43547791400587377,0.42946453666327944,0.75060396408170449,0.15911033026168675,0.35610935166122704,0.0013623827715025442,-0.71496916112938524,-0.47668521109695872,-0.0051528361538311883,-0.31691101164446883,0.22369763864048739,0.24620700832951739,-0.39585363119968375,0.048421266415283506,-0.081670993697323627,-0.081561257591367425,0.23544570959721986,0.33711599859282865,-0.11009454362373282,-0.082291479351870228,0.55898157813369465,0.058057598908083305,-0.46229138596330166,-0.034149684503418196,0.20054318683386127,0.29936567770360184,-0.15455815898454989,0.29325158015980141,-0.23329065925567055,0.22111087025741591,-0.34644502329833643,-0.030348181204122304,0.4335135984747634,0.49643548340897353,0.42521022353829674,0.29736817393309306,0.29692933256905873,-0.061163191630271757,0.11988841747535006,-0.13861118365773051,-0.39367405741451011,0.41692585285397166,-0.19115514477531503,-0.30472301739884722,-0.022797257397193498,0.0087534191688620616,-0.22531834806208576,0.21141337515461409,-0.096539475968863045,-0.17657408586436407,-0.12303725665941159,-0.18414480569559633,0.035762950395133927,0.45563964267790596,-0.6604089172872688,0.16715517614899353,-0.38586906606503329,0.024485413567440915,0.24627292177391666,0.083230070796623354,0.090792162412278263,0.019433553777619763,-0.29959632531320374,-0.27979943633172033,-0.29555586069716655,-0.42183269525611949,-0.010536710288805651,-0.2047403384469198,-0.014523405540243131,-0.31306925125513146,0.043159822140039376,0.36177347779533914,-0.053026016813041733,-0.14080856070004369,0.30953728828432675,0.30442938426481925,-0.74936354616549283,-0.01099749013751204,-0.48877894313678255,0.29815855006646236,0.3396405852110026,0.44130743234493658,-0.34775120013827,0.56377669373929862,-0.017741670402244,0.11346608140409199,-0.102828482076541,-0.52962848874344293,-0.14142564030826665,-0.11366964866535634,0.080318583223654524,-0.351707744120742,0.16467353205082277,0.22276457728462909,-0.17843820032595464,0.17798438608748041,-0.48383656533931746,-0.0231999433422371,-0.053115805630349164,-0.24524312820538052,0.018297483524059265,0.20969839319336103,-0.44998310768219552,-0.20741648140847,-0.27666182684649759,0.55210342823460357,-0.16316003164347309,0.016069124422498693,0.85942306583516315,0.089311319992850566,0.065848585230702972,0.097328111059326011,-0.64898463933284689,0.34813337805999717,-0.21759570203528933,-0.30391608238448803,0.38854539206923117,0.29209531431619151,0.54126524408751386,-0.61355596975347415,0.2450221797528612,0.075290620597635388,0.12352941357897669,-0.40660753973771335,-0.14272020186010753,0.34479292753443408,-0.27650743379598297,0.13801211907916078,0.659439711340202,0.13425620098083008,-0.342558812302368,0.10838915955504237,0.026755265740113894,0.11994654958593032,0.30671006179530258,-0.10058053205864731,0.613263109933754,0.1353568874918174,-0.39646886471018378,0.30288724196887568,0.15674770272941102,-0.32005410141823487,0.5827259353852049,0.13855507333143047,-0.0089836079466309934,-0.40791714298470777,-0.051504771738692966,-0.32862618742222804,-0.63746727830162808,0.39905788644728918,0.32428325831403337,-0.0005941150766876252,0.1268109177981098,0.29353272316894458,-0.4539104922030936,-0.20892322908723096,-0.2856531458376525,-0.24166768053837778,0.068113787698567171,-0.36912567867409363,-0.39420358148600854,0.18515897053255559,0.1429400246950473,0.45842680774891253],[-0.93122344471493945,0.86932925683851581,-0.29052798033435084,0.37058783699029191,0.01469834321807275,-0.33677649873186455,-0.60582323337926625,-0.057406936939667384,-0.079567420455238763,0.51534310941642714,-0.29412625304369727,-0.47370658526119269,0.30710523540450846,-0.23006368884550346,0.41753954033171742,-0.3011616688669097,0.38591292424566587,0.23384273801730332,0.51976793879908811,-0.039278003818210547,-0.37086611054921442,-0.049351312153893982,0.32616897699547376,0.065896394029669764,0.1439991860655645,-0.35611261072319489,0.21281787744958519,0.92009108736533773,0.26439392990032212,-0.026720685487178684,-0.098163885684410063,-0.0034950391891196962,-0.34585305195026672,0.10920843536479308,0.085265516611390452,-0.25857811745750531,-0.46489425762069203,-0.3828637061955073,0.18830535446580696,-0.11124401317253801,0.46844065611863872,0.049934194256953654,0.254718368253364,0.17642051052785532,-0.2165357837622349,0.5235052324691396,-0.15283077878843895,-0.29725607470534554,-0.099728311992487537,-0.21314853631243405,-0.28635607008353076,0.50972036156936706,0.43678614761715273,-0.46077591196646456,0.56284898941283,-0.27264563783008527,0.18286214168142218,0.88299067987762,0.19991995830190751,-0.0024271909585568715,0.217504317817356,0.62000107866485532,0.19752180334494313,0.35001730740609882,0.22288360723248493,0.16635424417911077,0.26461961570764897,1.0888506482770544,0.16696044264761722,0.15110539375689924,-0.091589661543159492,-0.24433756762189474,0.095369450275151271,0.10031682404668428,0.57789721408818606,0.30454281202106537,-0.067007992085304238,0.59851492994794275,0.737573099217177,-0.41765431699457489,0.073114972825302368,-0.88190241666768121,0.090175164608761377,-0.14955836152349661,-0.13394157942205454,0.046009277660617603,0.11084024108655322,0.14250212756102443,0.033963484729771259,-0.2072559235758849,0.015958737035714286,0.2277916261862461,0.59010875377599736,-0.14690658356977246,-0.30107085495541841,0.38117866221011393,0.37184032087180147,-0.16836528832553829,0.23894266229311012,0.21452260337146528,-0.2496578976127535,-0.055599695117182504,0.13758417406158732,-0.15679252013934006,-0.23850182629889088,-0.45063238776497716,0.00099385421434227132,0.45918051043818964,0.36268444256937704,0.041982642162817989,-0.060844800447077872,-0.15119453123778592,0.18716972866764092,0.18465214202732685,-0.29572995371088645,-0.82396840274058025,0.53356472678639155,-0.0034615515155871253,-0.46807960479602068,0.43509462827280843,-0.085052073140335846,-0.61232132657435667,-0.38102995680607182,-0.26155182341336358,0.069308816876844537,-0.65602401690053769,-0.606202417284887,-0.27400049181034175,-0.070752367292993737,0.54022725330092847,-0.35356070505624043,-0.10627979187267771,0.13575361374744691,-0.16552048747673667,-0.14724970357788461,0.80579116164182729,-0.1468503013460768,0.7640507357773384,0.15701745655472604,0.49720949521543012,0.48632242432941752,0.35767869190011015,0.0736396055586644,0.55737811391060277,0.056995177398623649,0.2337135496291958,0.36042339156125974,0.29513083349857916,-0.22189372370361202,0.011966125991208429,0.56010746482028317,-0.34941880013389109,-0.39906364615362561,0.2184328030081332,0.27495729025810234,0.14371756400579014,0.09375304801376963,0.546727163701079,0.061073069056981968,0.18416004994527385,0.34676062256031465,-0.27399054450167692,-0.41629148037604014,-0.35484061278382756,-0.079664486609614824,0.54007298152377226,0.071597349574213792,-0.16422069595640551,-0.22166411923176538,-0.22600102240256517,-0.04121668148736754,-0.11918750135780393,0.60479141676853165,0.28540668096233562,-0.39064889001961511,0.55173888095763757,0.23455127655836786,-0.090528318247977468,0.77565050896086163,-0.22070003779805658,-0.011325701231276892,-0.23859144378291119,-0.36699108315007983,-0.11086477459282723,-0.054142431843515963,0.18320796845873505,-0.10019831075685022,0.46558457066769532,0.097886751680819992,-0.21442146625739683,0.56471527925654574,0.24974295741403188,0.31555265183774378,-0.33425674565906971,-0.033302860549321751,-0.49553549309889844,-0.41075594635056828,0.35915690300621567,-0.34105941357119735,0.30980749964114951],[-0.1812256526297204,0.16081819124791244,-0.10824677998747372,0.38170523668410328,-0.010168889703163812,-0.06701827043633278,-0.046088967751591638,-0.091405166165828444,-0.080587247119728991,-0.0797828891944272,0.17274091683620932,0.543946990959043,1.0258873125475372,-0.0709795681691709,-0.17024964170189874,-0.76734572714965654,-0.029412699026871464,-0.11942563117356593,-0.29499706630595385,0.88332930761689477,0.27507559675417143,0.46964963685357181,-0.025181917280487177,0.27560471069323333,-0.26615568505107828,0.12383223830317819,-0.083487769917130028,0.23868178197172188,-0.11871095065727998,0.21056079073154022,-0.22944381148894877,-0.045082516173284175,-0.407079182982728,0.0982324309843633,0.81185751522889349,-0.014604263963774957,-0.0025527772824905761,-0.93052820018644822,0.17023902662752202,-0.87900931135438443,0.089391187574024922,-0.46822665605592034,0.12478146785569944,0.2160430541176101,-0.44950435654878873,-0.20056086875830234,0.22939406990214045,-0.64294718281272878,0.5273000760968406,0.65565609498030852,-0.0096548365529059831,-0.13515281950129526,0.026394653560915686,0.21532877584377816,0.005364436869554433,-0.31530852840319179,0.44870033476044963,0.23046008361822598,-0.0931372165146965,-0.57919841025865937,0.044124937707889028,0.1878710267832045,0.11767837645872775,-0.0332772323838283,-0.30599572686202625,-0.09751545802088836,0.033495301769173959,-0.28091122246745492,0.22973218152122737,0.21629405526719431,0.43872490884774307,0.54669442268959767,0.014795369152462894,0.2718254282650111,-0.10163178733612208,0.11596166480718359,1.0312690257685224,0.022686313410535387,-0.37455010539402678,-0.34148975219162792,-0.029864317566878143,0.25635694541902987,-0.45802499484989079,-0.96645089841921206,0.92500980657538456,0.44295754285709626,0.28102294278384282,-0.42556719658776809,0.20534293875631093,-0.88512468429640523,-0.54603847990040455,-0.15412852640654176,-0.15981813741722456,0.5517591717189847,0.773112773817588,0.37868663076631509,-0.082569270794684374,-0.686001733411088,0.13777063825979011,0.19131724159248092,0.26034859954363593,0.573240991606847,0.75083465871509492,0.25796725699493622,-0.59989744779164,-0.14256206763661689,0.013355576795311189,0.70556005633050389,-0.52610300481893435,0.29880788307642764,0.50839312603027509,-0.23315981387903967,-0.705679214121874,0.27763548096653318,0.19036335195192219,-0.15495972812409353,0.78069953371330059,-0.377492986618922,0.0827780531906699,-0.42103708159683934,0.59972201446640083,0.218231733508379,0.028531707565414875,0.2424047114804451,-0.74232519882477555,-0.25361585636780026,0.332978122976377,0.17631199723584776,0.23581619751758315,-0.13085227558814561,-0.46017234458122241,0.50985297379748751,-0.076267449207172835,-0.042346898421121146,-0.22776446005839721,0.013405800243973896,0.2790355537587057,0.30485145912504119,0.29391076374561176,0.27293171938311211,-0.028916903224511761,0.23057817339186246,-0.1331520597123507,0.342926665629576,-0.13799116389597504,-0.36897353913305597,0.39099252051441968,0.10806667275345964,-0.079154826758205926,-0.10972628224867628,0.11112138564986264,0.06635272380412581,1.0835363399663514,-0.27058800703285429,0.33610537343387886,0.16227200088891211,-0.11819503961348245,-0.511248231022187,0.18490046639398816,0.2176029008445145,-0.95736323470247331,0.43633108793555836,0.21595931543699073,-0.40552447694368482,-0.086457830103050637,-0.11123306402128681,-0.26020284245206404,0.2640735438649458,-0.23262163595631141,0.69387606618023745,0.038677370800742954,-0.045371459301896996,1.0346543508699806,0.44827723375220108,-0.046859882732218333,-0.61611001821466549,-0.75254640071416334,0.057047115492692334,-0.0036977853732242027,0.62290684091576065,0.10755191822546448,0.52089347035890465,-0.33251494650068059,0.048888168079384293,0.45661989567670841,0.27245643078182247,0.35463003185538983,-0.1416907264870379,-0.17256498105966719,-0.21449398909020198,-0.31524602160286908,0.47033138729154494,0.145582134755359,0.38638241970155435,0.43037748330572984,0.62188977201576756,0.082427059416125478,0.31865590353198381,-0.67548970180459833,0.11882728281874147],[-0.046847665326720647,-0.27652128190887082,-0.5492818519525231,0.067301276336404509,0.31983235906498958,-0.17201781088571613,0.033457457915440705,-0.64530480724370565,0.22678672284597592,0.066607427865220628,0.0337204644913924,0.67644417508347565,-0.077128299625373528,-0.42278817196802937,-0.54456480644437333,-0.065725118429458523,-0.32022314757407422,-0.083785036396101631,-0.26898053855448323,0.076288688575486235,0.23552358132198908,-0.60321733150125068,0.34121102088172095,-0.39780912372341926,-0.53576104219040421,-0.042130669656120091,-0.10457703793534329,0.24324241906304581,-0.016847760674189992,0.07902336272551938,0.23060193883341043,0.23290366224783946,-0.60653945513605145,0.40329670392818656,0.39293274348765173,-0.22601683940294551,0.72547052016369318,0.31104744297526782,-0.5524642123222504,-0.0035371073412690979,0.0014379312422796663,-0.3888588099964353,-0.65472183554299423,-0.26657401001578207,0.1253240928169472,-0.18687416262794118,-0.0282702105084321,-0.0021316712578326883,0.56460663264860722,-0.0869910085072919,-0.032626112312991805,-0.025838971505586034,0.11271160563778349,-0.31985400148741033,0.17841319924176285,0.17942283872321932,-0.597885010915101,0.059893773219763233,0.8652639805509329,-0.37043228705448755,0.20467796072819638,0.018640410544798508,0.2803156825238251,-0.72206944755403923,-0.61898872478291034,0.10862721479702812,-0.58215961469139588,-0.16024251497893766,0.13505706982378044,0.74635494293871429,0.81650147905749793,-0.10585805385393905,0.2697785468407593,-0.52250475747879355,-0.087877454697466217,-0.22679756527069775,-0.57207284196440289,-0.2546673767165622,0.090910063423200627,-0.043746850717492756,1.073624266885953,0.0639809539862297,-0.3124814117870896,0.65167138321745433,0.43971000658511872,-0.25040959887717051,-0.47849668839663617,-0.66234388139957312,-0.1396790607586256,-0.10643541816951796,0.42770712218017226,-0.20428798266728959,0.32737959284932344,0.54282837721009447,0.35398194894737173,-0.1906960522952533,-0.22892672828472116,-0.79722166218896906,0.049071099162874526,-0.33425736093876351,-0.35147892011281462,0.084055372363347758,0.40089813175190753,-0.76247917235541429,-0.458590878452032,0.515740396321555,-0.54560009785320052,-0.28790295475443123,-0.25528864011504776,-0.012476979062621787,0.034934859193223415,0.41519784138166344,-0.23263711724906011,-0.7325998076333774,-0.24932245752295437,-0.14175269294977808,-0.35492535795266439,-0.40725077191195763,0.14293725472513513,-0.31337800742442512,-0.02390497052224887,-0.15149140415945162,-0.7426835590289198,0.23206930165690018,0.0779862225289623,-0.47879805500431705,-0.29653757885571436,-0.63941585088200281,-0.050454810832324823,-0.092370124174996737,0.43213322845117552,-0.36150398962884628,1.2126290154198098,-0.20507370949803921,0.45747148809367061,-0.18819123547190092,-0.056365477184445713,0.23001177240056109,0.0347310522810965,0.79160742289066022,-0.50941487844097433,0.46686609627094067,-0.35845379360819485,-0.053892481256993689,0.020980216220634774,0.031922451994520359,0.35342200798770462,-0.70677773025213986,0.21746421646925512,0.86491805930755461,-0.066201777301143239,0.28763571133050564,-0.406109008171301,-0.297820448047167,0.22769388195572007,0.5268281419180918,-0.11311588969419854,0.49989653391619449,0.45732473951797359,-0.11526369844751731,-0.0066035779877754146,-0.58788710968603319,0.571401275083666,-0.094888757972719229,0.067118023368654384,-0.8780499758789273,-0.22030766780693942,0.23708934563338951,0.37288462240606679,-0.15551234794709823,-0.13178818294144518,-0.40559739801988176,-0.031727705363623,-0.51850603136758822,-0.11414678673555069,0.37434986567014888,-1.0404656378845467,0.55910098606135539,-0.25063271284920124,-0.12644536651958585,0.32689861747919052,-0.78324005365681271,-0.049476450556984096,0.3396342509777821,-0.55889737351178947,-0.1104649222998257,1.0634611615734986,0.48396095077361762,0.11087162119067344,-0.19827705622017433,0.29325356240526035,-0.24609851055618098,0.62033821745710449,-0.34957745764998555,-0.15190979022237017,-0.69265271329221889,-0.34477381100323423,-0.024930854546290165,-0.036122416365506879,0.035157472270152507]],"ActivatorType":2,"GradientAdjustmentParameters":{"Type":2,"LearningRate":0.1,"Momentum":0.5},"Type":0},"DecayRate":0.1},{"Type":4,"UnderlyingSerializedLayer":{"Bias":[0.0,0.0,0.0,0.0,0.0,0.0,0.0,0.0,0.0,0.0,0.0,0.0,0.0,0.0,0.0,0.0,0.0,0.0,0.0,0.0,0.0,0.0,0.0,0.0,0.0,0.0,0.0,0.0,0.0,0.0,0.0,0.0,0.0,0.0,0.0,0.0,0.0,0.0,0.0,0.0,0.0,0.0,0.0,0.0,0.0,0.0,0.0,0.0,0.0,0.0,0.0,0.0,0.0,0.0,0.0,0.0,0.0,0.0,0.0,0.0,0.0,0.0,0.0,0.0,0.0,0.0,0.0,0.0,0.0,0.0,0.0,0.0,0.0,0.0,0.0,0.0,0.0,0.0,0.0,0.0,0.0,0.0,0.0,0.0,0.0,0.0,0.0,0.0,0.0,0.0,0.0,0.0,0.0,0.0,0.0,0.0,0.0,0.0,0.0,0.0,0.0,0.0,0.0,0.0,0.0,0.0,0.0,0.0,0.0,0.0,0.0,0.0,0.0,0.0,0.0,0.0,0.0,0.0,0.0,0.0,0.0,0.0,0.0,0.0,0.0,0.0,0.0,0.0,0.0,0.0],"Weights":[[0.17455433665530307,-0.14570687687232986,0.0022066401419658919,0.00068025211118957958,-0.0036166584364734494,-0.014653015165406709,-0.028234161613992986,-0.0795810875866617,-0.13270352283060052,-0.0497573423384783,0.022503916239419917,0.1319378667901365,0.023280563352809903,-0.11277251464847006,0.048124545347570422,-0.032286266641428564,0.042340395087539076,-0.028922193971932665,-0.065141025536867833,0.0427292657905742,0.037154280429258557,-0.046207598164126722,0.016254025923631406,0.12950783256198012,-0.050109614378401328,-0.0891615429507714,0.0662902775289781,0.079016319602459487,-0.09409557511474459,0.06163262441166243,0.0089573063297434512,-0.065706209141154118,-0.0588623212977715,0.086100080416526309,0.00675261151505081,0.10397664999546033,-0.046436864923629993,-0.017298380269408789,0.021132031742282967,0.10259298031556841,0.0066235366439293467,0.13039644442398046,0.061896346628180207,0.11366193521424517,0.077275146780021911,0.0201669887327659,-0.018825767030324868,0.010153261038695571,0.0030478077394949545,-0.0076921087622580714,-0.019131167806151206,-0.026762718586603014,-0.10130773984359244,0.046729402309238721,-0.014721465825285319,-0.097830115225485445,0.058480753161827582,0.055298985193831987,0.050173281468503896,-0.14527627661608017,0.013039540637376581,0.0036486904047815811,-0.12854537230644245,0.049158780298556644,-0.078907369771554076,-0.047329675819948638,0.043809467367580839,-0.0071395676605183183,-0.023383592102909388,-0.042256484669264516,-0.082684051651520235,-0.020202466794318943,0.22488301005402173,0.090496562501349409,-0.15496418504432091,-0.11244179152006149,0.0074065857017391384,0.051382486041797314,-0.011472845117232771,0.017674467180887186,0.017033973790625781,-0.0027391314560671017,0.008341078402071796,0.0041395868716261981,-0.0049243730135438042,-0.025295432698152692,0.059137633801805277,-0.017896158770150855,-0.13888785708018919,-0.12325403803835892,-0.05300422067193665,-0.0025791538929353605,0.055955615695305688,-0.14762853881168264,0.048118712093326604,-0.11816033680197619,0.051291393072573348,-0.090271931154237525,0.13715706440303591,0.093447200201493261,-0.1051725820197927,0.0031325801336302556,-0.019217625050089809,0.012624225561640914,-0.09378501917624997,-0.047829171816495618,0.00175617447929062,0.015376696098909713,-0.11743849781289088,0.050911031113382327,0.021051908750720355,-0.083354858461578821,0.073082405148054586,-0.065962508435539219,-0.00928880025883569,-0.076120292849571752,-0.01493361483397085,-0.009989902493674107,0.0330714724278917,-0.054322679856836649,0.045971845898981879,-0.049744613306310491,0.0926510164333164,-0.07183701045382844,0.0955649584727205,0.11984246210085649,-0.095789148650057956,0.021575175349171125,-0.10756939233449778,0.027668430884688476],[0.034595921507260666,0.010475597504869177,0.063550008737617236,-0.00407344400735738,-0.017509413401106781,0.0058107647691102221,0.14005611350595659,0.0020931529920282695,0.049959679492674693,0.03050244337501589,0.1128289848777177,0.058801912865956665,0.059555868598712307,-0.045725058344801985,0.069695943645338293,0.026798367199109871,0.0021057887209575115,-0.022319844466518447,0.010495778603568314,0.015811744112086114,-0.0045110337620166453,-0.046556622594212,0.074654797994816335,-0.045138316417715076,0.11883031642981048,-0.066915433880127329,0.1240406445739702,-0.0654004642885654,0.018821564810164736,-0.11465969314986831,0.047527861140762448,-0.0059747651550169619,0.074366959507313868,0.023825895615884097,0.052262914595597662,0.040609285021755939,0.026791469133217512,0.0710975539774128,0.021140150912680452,-0.075327924412523867,-0.039163580522530494,0.010000040027883541,-0.020742375849221735,0.092522908844250032,-0.11278665711928047,-0.028258544281780183,0.078936063154579267,0.10650917361196333,-0.0069308678371876016,0.1175738529047405,0.024985362773982934,-0.029590135122678361,-0.094989013872374212,-0.10611538019293103,-0.01247904826719772,0.045960879976858694,-0.013687033232120153,-0.056713634679706963,-0.1639333437242739,0.084432844588844327,-0.07598852036005603,0.036393541599365517,0.13938832633741596,0.029269010693767382,-0.077694408209370222,-0.044321068720603443,0.021315059932690939,0.049372606033582574,0.015558185772084175,0.028632134150358042,-0.057381684655193804,-0.021548448534066986,0.00621514094449225,-0.086624532647170571,-0.028004730125725935,0.023171305210234722,-0.030110596308867869,0.026945524036842267,0.036202221805679516,0.010385046463281689,-0.054810327172133251,0.0559284759499122,0.0038527053278942457,-0.060979267925772004,-0.021694323886754924,-0.05735554172307062,-0.0041200432839099558,0.049292941503490562,0.033382384801108868,0.11425035811385725,-0.24111129244405727,0.010035435134735447,0.11137585483668061,-0.1063190563353975,0.0736919833746679,0.058603230080499127,-0.0377764116163003,-0.083015495303612213,0.00012285048736446308,-0.083247142875404648,-0.037334719352680346,-0.091115777972233608,-0.12170278752174983,0.010413684349047334,-0.071738582876806373,-0.076801174943944436,-0.021090444087248722,0.0049559224272343405,0.0544701249900515,-0.0086449925247351449,0.035884145341719222,0.01777521498623141,0.03550347724568214,0.1664499878420041,-0.042388888639341732,0.06836970575923966,0.075122168786737081,0.10422086904945997,-0.069118911274609326,-0.12262808502373991,-0.013960141651826019,0.001465942362246029,0.040771487137780921,0.15755223026293216,0.014977630783305971,0.082912742642298864,-0.078215995761772766,-0.048515871618484321,0.055639011758046766,0.0089611452952820386],[-0.13356383951207068,-0.058094789686905846,0.091915193902524076,0.090275547971367914,-0.062901748975103117,-0.025571526947451642,0.081014341391183839,-0.13937199524468513,-0.0037286746355168704,-0.038220383502708961,0.028679327065403219,0.028120640052758938,0.013483549626494069,-0.030589078253268585,-0.0035072791085503027,0.1851641390270248,-0.022868046079488339,-0.1661073533713385,-0.11679271142289957,0.024213276637102349,-0.048995960224719262,0.023542086772393275,0.088469517087468585,-0.075005116156112661,-0.038475743433576015,-0.015078824442839896,-0.032804732911375582,0.045726856021274367,-0.0077710712408853352,-0.073334962542737955,-0.018175420174225392,0.068247346987817023,0.071444273624072019,0.052635736726267209,0.0945779785440898,0.019127691720791044,-0.12274772432704899,-0.020622479778964625,-0.013660818908848302,0.010547572702639532,0.040295078652583513,0.044464308470459027,-0.011622643260671063,0.0550452021530595,-0.0067195874125494711,-0.0982160825275142,0.053800305322308624,0.033339815584474485,0.025806805572039151,-0.062125138762494696,0.037907301930773,0.0959386307148414,0.13793537770073694,0.029881012040382432,-0.047468070926856634,-0.085104739425528125,0.041302066266076333,0.12555457455276373,0.056812683185805977,0.14921792976701653,-0.10332004558948035,0.027305566854040429,-0.11420345285248346,0.047779019253320662,-0.0185076692360053,-0.12581822262160811,-0.0089627937503407,-0.0671583846150582,0.051876708955859996,-0.10765796271112553,0.089409997696126217,0.011316550278618911,-0.044026520754012831,0.026033535724674303,0.030703517949444536,-0.014906961124708231,-0.0013689067558365991,0.067850207212903635,0.04030348330602268,0.060502726313214031,0.047263200827021505,-0.036038617432972979,-0.071645780730376543,0.17009843531873964,-0.1122789082182222,0.027794810089717941,-0.10273271716367277,-0.021746222290401514,-0.005231908718019828,-0.026709240605859916,0.056270522997005516,-0.025131560350219396,0.0034905167965332416,-0.060400440149783477,0.00030345838621162718,0.023881049617446064,0.0371249681135813,0.017319841741505384,-0.035114801695589087,-0.027789338746548906,0.0925039088015922,-0.029048318678944356,0.11352517818225387,-0.051004543366986267,0.00424249812135402,-0.09771492935798505,0.039281224907940657,0.048181997119127976,-0.081216740280386321,-0.017677090586928679,-0.049987020342323184,-0.014941066465863202,0.088679006804511226,-0.056169706440807772,0.034380788633521467,0.072291111680929138,0.10547240451305023,-0.006667903245616019,-0.0794208754121039,0.029014515984067478,0.028569493043374181,0.071899871467203766,-0.026456508646223613,-0.023374028015578172,-0.00065904596612694074,0.0657521392773639,-0.13092143526837541,-0.077432828930744477,-0.097407631302048464,-0.033087587207470029],[-0.048702910742713358,0.026878773455550575,-0.11231532558537943,-0.0037830174153234654,0.0538021264334146,-0.11960703343135619,-0.030272618031037032,0.036869471305280191,-0.0042581510761627254,-0.085297534498838951,-0.035482218558523362,-0.0077067062480921334,0.09279323868770907,0.064522477541960679,0.080585261224679877,0.010291637625478823,-0.055524702417994787,-0.0630454099671487,-0.055549193243036143,0.032794158132238176,-0.0057016050971325609,0.027727852419882345,-0.0609696875722603,0.010262779796053769,-0.016874713998816109,0.0069763020729443868,0.037485302758977906,-0.052401455659911993,0.054245093074428825,0.061208186706899266,0.017711265297976567,0.015164299958794409,0.1081083869419827,-0.041187996502158673,-0.0042176498664324861,-0.023875133864032224,0.0339834302398407,-0.010722818873730396,0.068506786956629581,0.041612621097518648,-0.030892414954871768,-0.032203275009535286,0.066467629309721027,-0.10090924014246369,-0.095104954042718584,-0.0089704568572028555,-0.023997524965042275,0.011598050935409041,0.027528006067862376,-0.026998009532472875,-0.15444098934610059,-0.024581978547531153,0.015225277975293451,-0.0718782946058535,0.09051869533876189,-0.0090381019154133577,0.061979854453667695,0.029496688368380871,-0.019671602749033981,-0.018947182778585828,0.0012703786588281198,0.039813749130255212,-0.010424722449686416,-0.0046293649825706164,-0.052603991303610244,-0.025896359737870338,0.033021945478914676,-0.0887560472872356,0.0048729183107530053,0.074906348759965574,0.034764298040012728,-0.053652961766116038,0.10011729490741952,-0.061949426004001239,0.10307909021956521,-0.028266730260769635,0.054095128231907083,-0.094741169185722493,0.13795662560719757,-0.057368777633568291,0.039978528860379683,0.11450762615466685,-0.097455982654149786,-0.044109298003962689,0.10990694769408939,-0.051375680624371686,-0.12000739480657117,0.054847810537107113,0.077328646986629446,-0.0500236476040348,-0.13135635559395928,-0.0081186668431105849,0.0040297302489200873,-0.023016739949735163,-0.038518658036371715,-0.013326302816838135,-0.14082861289839771,-0.030132111218874231,-0.118951204941608,0.058819899866484636,-0.16504550307880758,-0.035364694589935318,-0.053541381321305363,0.066238408038489474,-0.13034701553618783,-0.015468546108669335,-0.062467941759581057,0.02405996667085146,-0.049766974261980831,0.1653219910349753,0.015139715241171848,0.084720539260614319,0.0040206999945322213,-0.016397373615313848,-0.017311763469709678,0.0098266959682564679,0.034597713926213469,0.11316330767598787,-0.0675236009809702,0.016505993496561931,-0.10094704366179766,0.14783276623555536,0.076295398407211848,-0.015228304099020405,0.020023625687345184,-0.17233135115585679,0.011169427017370606,0.0691775660745229,0.01158381585826161,0.00040444916669662425],[0.077762331074785959,0.024494782646275706,0.090342430875102631,0.055103671568128919,0.031762487019349743,-0.11569536801200227,-0.010754911877540277,0.022804015647366335,-0.14518608408530442,-0.038321088859859673,-0.083582131366494783,0.039286111612670878,-0.0038223009856110609,0.029658000467015881,-0.10605292307836291,0.016804946767198577,-0.031422503081234905,-0.0065202871948386084,0.033572222919305027,-0.032895218747546591,0.03474953111640236,0.1179079520044914,0.0052144887266502155,0.10248685022483264,-0.043149794814342952,0.078767844641199639,0.020494790617835386,-0.038774112339123513,0.015414653787520695,-0.033617196018120944,-0.022674320160911594,-0.13352451528227002,-0.086768518509487372,-0.023364970496364556,-0.080516309563143665,-0.06582936726023704,0.055206426714492732,-0.031040366411352983,-0.11396652179221449,-0.013168733289762454,-0.031151056109971528,0.085961743163257442,0.05649726476824532,0.064456829645367184,-0.026653660723319959,0.11208422131666983,-0.17276608962894113,-0.078666444267630337,-0.047118442400820935,-0.091700030403115917,-0.13817316981930694,-0.045529491545149743,-0.035538489595360288,0.031535472917735584,0.013925602729156569,0.023861994954556872,-0.1579740778790488,-0.039730090434879024,0.074671188341966718,0.046428923675088607,-0.048022895792452419,0.047015934373572509,-0.0057317888842018973,0.013742735122685961,-0.0922285059348589,-0.13600143720547372,0.010536821313742161,-0.0026130463117352751,0.12389508283820236,-0.00025292557144080297,0.0766919842692706,-0.00075923125751711058,0.0409127576536996,-0.10243094406876947,0.038636294650478041,-0.069237594669004365,-0.06500603658716575,0.0925686667273878,0.088903702874175455,0.043278308029850728,-0.14921198946841588,-0.052879007729056668,-0.067561980041402625,0.0081836516841575,0.02033381789034221,0.12463156733150299,0.04938568428530947,-0.051970901020382348,-0.019905823630023783,0.041166395982581309,0.023767203794565279,-0.047155644318765337,-0.10650136345739707,0.029481880955689835,0.06968986348962744,0.039924667233085256,0.00018149731030230837,-0.074063637992210857,0.096887119277210124,0.038434560617621717,0.016383221682362309,0.038500257477591004,0.0097323367871981776,0.10355698236939868,0.061038077573235171,0.056271764036196541,0.01750174359764143,-0.028394924342932195,0.0017574526217011589,0.0074084654767895986,0.058455129605640005,0.022534361152436337,0.021104432870628808,-0.066681114296820942,-0.07993191383771997,-0.078901657243405934,-0.063075950465792,-0.038486927990876586,-0.059465929859831526,0.024905744729953515,0.0044283028226258956,-0.00455274414079094,-0.088246605650343729,0.060703083321471327,0.0087925225688202883,0.0734103001935004,-0.0036802313408476769,-0.024801135211539368,-0.034727355396915738,-0.013849095023634277],[-0.13202332350940926,0.0091708789131773136,0.050023266847860529,0.027928835856401674,0.015146772526473357,0.057786686222683577,-0.0098537626855113632,0.00091480942192762537,-0.0083644480770169744,0.0143888079707042,0.09514219647831057,-0.0783862211411931,-0.093504256934248742,-0.0030866624895515009,-0.0540499078309759,-0.066886855785637717,-0.045403153151237004,0.0696794687923331,-0.077049716274119745,0.011868446186484314,-0.089353444668306067,0.096478933029089789,0.082490290756405182,0.14235710525557435,-0.11155623333519175,-0.0062641862823405248,0.054768488654631284,-0.014852446310070525,0.049181529042985318,0.043838652198099425,0.03129208670382537,-0.10367333905152201,-0.028474011765094828,0.056414541721231705,-0.070712402333064237,-0.043311650063661326,-0.016410968842548293,0.073991222102846227,-0.10504881680545433,0.018655463601432908,0.034359484159699069,-0.0075474840577876663,-0.007691419426715646,-0.10122578971253647,-0.11121115644277255,0.022705570832126494,-0.078007209993597226,0.033166806593060733,-0.043131193137162273,-0.0011865170630008385,-0.095821112499097708,0.09054799593481902,-0.060154330856737104,0.010485295680119369,0.0035718483611858341,0.027435696850745549,-0.0035715215974486407,0.026610068276326549,0.033225915918261677,-0.08786322808242239,-0.10154280546405323,0.0162916451640683,-0.063264255491955551,0.045815667586412152,0.038617385524607493,0.0102744525007115,-0.11779216765173287,0.16400058414041976,0.0082429239601451865,-0.011385054250517515,0.084863510366882042,-0.11603253860818386,0.0094691357837147355,0.12402389087723074,0.0029510789054022863,0.056335762605601032,0.0488113751770616,0.11348774069565686,0.039795126223073241,-0.044079526792981279,-0.14873898733205362,-0.036604613104295261,0.0013598615508482869,0.035336244371901027,0.10252916832479952,0.054220294609776266,-0.0021919071398091125,0.0351936196467289,-0.046682998662134621,0.069824557442313237,0.0101047339160502,0.21026018230465629,-0.062422356823920888,-0.078625704861350856,-0.025158303518446022,-0.0047590687621094155,-0.073377282864400178,-0.035577937475512411,0.051784732415559136,-0.061764913555624613,-0.029464599306558086,0.045649900348936324,0.073564242559429,0.0067615066931975189,-0.025212057082072522,-0.0050023275308500393,-0.035893270914407027,-0.080511348556777329,-0.112673442198475,0.1095844007141468,0.02134047756132736,0.12407535573349925,0.092043404454705033,0.060929144575188651,0.10626226207987424,-0.037760006530834146,-0.097833388978016342,0.075347163317856986,0.064903664999383243,-0.010445781692513718,-0.059162007605604083,-0.10143657261485474,-0.023650869936073491,-0.056499645365493928,-0.13397893082323675,0.018015630889864451,0.088715315345414117,-0.036016323242927153,-0.045639610631337119,-0.046036303506048017],[0.082400025222823955,0.028984642219163189,-0.074042627627574881,-0.0756507130609908,0.014848870981042057,0.081291950985145509,0.10397246166719218,0.028765581407997863,-0.058684923786837324,-0.036562957972516491,-0.052591015847013436,-0.00070649279267877914,0.025261051427435042,-0.07361645588432443,0.10638108281314189,0.13605087460656015,0.10342471783305685,-0.0049861023169722359,0.013994105807503335,-0.028872039182936213,0.045657342332645519,-0.021395779348092531,-0.0058088047432168213,-0.064701810224953957,-0.061156226418917194,0.0879769686362361,0.029148413169967809,0.0879545984100417,-0.027818310360908267,0.0159892990548585,0.056851216177565521,-0.067853932510894777,-0.050578633105215952,0.17643380968329753,-0.077011467584321439,0.10806953374032569,-0.016522332329286047,-0.0917432528853816,-0.010601807684544023,0.086393842606303159,-0.097886487731974892,0.06174939307359649,-0.05247542171680699,-0.00023150214375520305,0.11117155091096877,0.081810810499155256,0.067937262878519866,-0.029377722322571725,-0.055887012856390104,0.038962963177476231,4.7403565805474718E-05,0.11975983655037338,0.044444279640006024,0.082859617651877868,-0.04603860982778709,0.077758845071156921,0.098437190540237765,-0.03525620616762036,0.017738439912843587,0.066066438611617914,-0.031405489448586517,-0.02183756199357224,0.063892418645909013,-0.089621640108531839,0.10355463770290378,-0.053191869111802223,-0.030779389485196144,-0.067973247766714054,-0.025033720421440652,-0.016709832003691038,0.036829544265947652,0.0583807219771935,-0.072541397950090417,0.085985113473640726,-0.002292119210725745,0.091239301717815,-0.07425140339480818,0.020338380008177979,-0.0020224684532209637,0.050540411800722135,0.085781067066598576,-0.017872583841912034,0.070110539011474515,0.081185778414606,0.003344503423669144,0.019415376389169674,-0.019592519452180497,0.063583764938825144,-0.031912641848547689,-0.050884955508596064,0.016118729687393918,-0.0548222563956162,-0.01562334649803614,0.069922307721220156,0.06430733507918189,0.015993998064434831,-0.093045961961708126,0.005756935803455856,0.15540309241186945,-0.051164835133700057,-0.0068630844186554334,-0.036912777256404121,0.097434999510210368,-0.059644115807584559,0.011473745530223468,0.11159421546211126,-0.0026606846788019859,0.16535045125501574,0.16372153847267615,0.081431732577954455,0.12983329184076353,-0.014083448693140439,0.095371788305527852,0.067776034897823953,0.027967781791354836,-0.0094948818565042982,-0.14034108122319239,-0.036725254116656579,0.024106169681690773,0.026939599236250767,0.0062160539359890164,-0.012930288597313938,-0.020840367042847831,0.036966414066898066,0.021155291852388149,-0.098493133830537247,0.051041318992245885,-0.15900240777066627,-0.0064709821505362346,0.184380374292944],[-0.119432338703018,-0.046634219616224847,-0.019757902462861569,-0.028781404511740636,0.031160325788222875,-0.057054585958547975,0.1003491273584672,-0.0010692516636013466,0.033262393672259694,0.016855570745861217,-0.083871024202826341,-0.01302225356680432,0.0021922021081659496,-0.031536625424106658,-0.010751883875844442,0.063935061070281948,0.097985885840874948,0.10679600369987637,-0.049141537151676226,0.074548173667139436,-0.087456771108425785,0.092449072632621657,0.098282901116707719,-0.040423626692697529,0.1244395925805484,-0.086249876024102209,-0.1584266423020988,-0.11408515885053003,0.053200629465745095,0.0489390556412684,0.02811273727107106,-0.022439575437360408,0.10566270750795574,0.0764225760174609,-0.0070656069400571531,0.056002992782641314,0.061991443724234929,0.16894341761234896,0.03886716974552476,-0.076598252968342564,-0.077669874827782856,0.02811101971924521,0.029866824663020427,-0.013725878665219826,-0.023894957392449886,-0.036837430730320544,-0.00060760911178006616,-0.012020536687944176,-0.0013254551715511369,-0.037785803325732614,-0.062900541395954537,-0.092255483019675344,-0.1056249430285587,0.16286104823727465,-0.080111927792868187,-0.064766043293276745,0.10409235387854809,-0.023102631091863245,-0.0046019002848136726,-0.02362169162745556,0.075363168102646982,-0.093675254782878331,0.031346241323661143,-0.055296788282079595,0.070703804892408323,-0.07281911185289193,0.021058124487831203,0.032633228573523125,-0.10782717571807921,0.00924703010743764,-0.11049957133237325,-0.072844503948235245,0.042466509746048008,-0.060515061401560745,0.06244142421273461,0.04581656031738162,-0.065178608351659,0.008943824117402974,-0.016596517531997472,-0.044776794032352227,0.023920749060569547,-0.10707810883619764,-0.064425582859584191,-0.010067498478959802,0.0741186918746721,-0.049977623642213122,0.10857226227278095,0.028138024277337491,-0.0399174521089457,-0.073798850586438272,0.011844124225522291,-0.057585131241418876,-0.05206330335423795,-0.0712963165746271,0.10876554808138912,0.017613832816516194,0.039371287887884382,-0.051356320590928622,-0.030316215417981712,0.044592990539206616,-0.0082718034064187818,-0.089849876368743531,-0.03129481380173809,-0.074771412458130238,0.098187581199258633,0.080137992767574662,0.016335531318854485,-0.063977776251137264,-0.021365284118263488,0.0053717587866169278,0.11035033905130573,0.10468260249748128,-0.017133678166344424,0.024647871392153024,0.019198577765589839,0.0659932222693913,-0.086248347652028656,0.021412803036054962,0.017285610254065685,-0.0020450274511679377,-0.013608513684028859,-0.049934120732523686,0.020985018709813865,-0.0651088258610817,-0.025550832214750231,0.09498039167040867,0.024098909134413198,-0.072046889506344719,-0.049249208614667285,0.035937862044379709],[0.11143326645761265,0.049838625739169279,0.06745108432603629,0.0928157317078331,0.05328477611474846,0.063626337573026673,0.054683473895087126,0.036110052096007594,0.015518356308359545,-0.0588964451633887,0.044203333049246139,0.045549344614454639,-0.014155036868861687,0.1377409100262221,-0.020897335584671637,-0.010907007846146908,0.0050849749653968154,-0.038849717480438126,0.0035401603270343498,-0.052181967100620431,0.14915415302671545,0.015361392990551379,0.035152211129617243,-0.042183005564616564,-0.022895253065149678,-0.013020933975519646,-0.046122449239684095,0.040037757796539189,-0.029498462771850097,0.12437847379565009,-0.023157913787710486,0.14175344241089644,-0.074075315812490175,0.040378523692702534,0.0075242292789832613,0.028159304102796295,0.057112099151364386,0.060013456094480964,-0.0099643464373064573,-0.052514776229105067,-0.065631081426027457,0.06549823050306175,-0.0025424861095201937,-0.075236877111985248,0.079603973274701811,0.1329397031375491,0.020624190414851043,-0.031755141956202541,-0.032964255905229695,-0.018399388478255403,0.057854675336739179,0.14759775404311962,-0.059366572120212589,-0.12564833772688189,0.050954475162785923,-0.028767406296200469,0.075765943167325253,-0.050681369050309961,0.03888082578335731,0.021240551766024005,-0.0084801179690940556,0.08604857422608464,-0.055571606104234242,0.10884512619375822,0.11865621117129874,0.022528356193943326,-0.016070901419614914,0.012735804760973944,0.0029143710965144976,-0.021834405559310412,0.019358239273595063,-0.0407148579795487,0.068226804437878943,-0.061120771286999886,0.087639095145492521,-0.023554291731251519,-0.12411289791324547,-0.098874106904440387,0.0093780540615681588,0.046576067571451073,-0.0077945450806243734,-0.093943461653341886,-0.058538279875688472,-0.094260118075508784,0.039972700148486043,0.018192324492313585,-0.10231101011778614,0.00060725329757063749,0.08309039153505407,-0.010553298274998421,-0.076421300968634975,0.028573314923871426,-0.0083289931285890663,-0.0095328977247834557,-0.13527337027095235,-0.057594732347989036,-0.051029116621257579,-0.038551782585777822,0.071119209118856552,0.021073220764276306,-0.066841217564429983,-0.067825137745537334,-0.012839879421100256,-0.02171781370777805,0.0086038399766885758,-0.076737173523375071,-0.061096343657385477,0.077494336825739307,0.045401745888925545,0.038823883645050447,-0.10748464897703396,0.083993805558971124,-0.019575352282264782,0.035376361250005109,0.043769754642127463,0.00049038972493978586,-0.0019518605783585355,0.012441881169118176,0.073601636054158814,-0.037480543131687985,0.10060326882063297,0.0402108070644906,-0.030937552661619617,-0.010150001542448946,0.035437292999896265,-0.054054529163274571,0.0882685096179494,0.10682978712167517,-0.013399429729935332,0.05708735899549322],[-0.090049770344140911,-0.057923251645032842,-0.060746880870484889,0.0093876795466872626,0.11748552011689251,0.11194429638389061,0.0379546088889155,0.036005047230823581,0.06614288044516077,-0.078496959053615492,0.0358496545926434,-0.033914366926508753,0.011719151469450365,-0.0061538426765659487,0.06016378717096247,0.064779518753727366,0.073873489901220973,0.048670696523474478,0.1180970376421062,0.14425645540116736,0.035695931615289139,0.0060326717185134491,0.045035320568958426,-0.15800497494512589,0.058973460043241915,-0.031731516448086972,-0.014278297009438222,0.041224699216421468,0.032827599537337618,-0.013426249213393839,0.0034030824428239537,0.030058350618326467,-0.1205312267331939,0.11051065533803978,-0.047176143163553744,0.079809791414234485,0.02267619920522811,0.002431502060442031,-0.1450965673161782,0.0019546854143616147,0.0062903272765875481,0.042989861809305981,0.0043395698543042044,0.016989400176483579,0.012469295361847156,-0.088314466800921074,-0.024513913684290425,-0.022941258109050695,0.025088576075851757,0.0795661409743667,-0.056567293378361562,0.028523466484131017,0.014631637457020565,-0.066029886877026753,-0.012505799395895743,0.037290626041003722,0.11514024876410352,0.019756760328366124,-0.012099168974089775,0.14318122431200756,-0.013063631720833139,0.075557136892223514,0.062797038448848111,0.080139892439434354,-0.032508825691468735,-0.02488203272688809,0.013506705565528725,-0.0036118358211484998,0.042195332317039681,-0.082687239387647965,-0.0033919598016963655,0.092672337992741716,0.0019725732886301953,0.045345770853613826,0.031697218783436794,0.083618226874795185,-0.097342804794336019,0.039660294881349555,-0.047863893551135059,-0.1449696812711844,0.0689978022659632,0.027280507216481769,-0.07130793966450405,0.029755666656729539,-0.059105774747761922,-0.036594907474684267,-0.063183948061075315,0.04662414733590918,-0.028371301102308111,0.00606703395984785,-0.053822220788112676,0.0073780008054712765,0.0234426547600293,0.022292707719725784,-0.0042315013170926754,-0.11441371357836627,0.16460846192061018,-0.068784940024394739,-0.042546676921458054,-0.049286908026701881,-0.00022453261035573654,-0.0088681834780972319,-0.086201248781534623,0.1204684504527051,0.00938719803281319,-0.030239173796857373,-0.08488574108941703,-0.0062473103831884869,-0.0045332389610958958,0.04726156473476617,0.027819488220811976,0.064542414550026461,0.093364744661173685,0.021328147205083123,-0.15616935835653747,-0.0058881395590489249,-0.088741819129202676,-0.0037481760882476628,0.0020202184373248953,-0.033586338597257057,-0.1316784675971874,-0.08937430417258857,-0.12210520681427714,0.019602406913656924,0.023504982474527633,-0.024357563649674729,0.065822458472021839,0.0192375682024069,-0.077882399560357932,-0.0093729428551118984],[-0.012353401173814161,-0.043572973782457627,0.0034007720757384132,0.078130531260905536,-0.09217942517006425,0.006239100765752824,-0.085052088162960074,0.029495323388700298,-0.02022225921017427,-0.010271739860212438,-0.011855331112501231,0.052067962307131462,-0.013375071787668332,-0.043231122772119442,-0.0797511104873238,0.011164647889974596,0.05763590186095801,-0.12993751782672711,0.041889463085536489,0.0799643522159204,0.0855368026286535,0.048351121981165715,-0.0330524773986737,0.040756468219947391,-0.038024761771699084,-0.091052330276200522,0.0086040269340948074,-0.099834476911282777,0.10170609842662708,-0.0092794573440496877,-0.054304225508745384,-0.034237217953582755,-0.026390807195324866,-0.033104727367187475,0.096625430036318363,-0.024875668685282321,0.069716563477928831,0.024296192637466012,0.044855080231265172,0.1563921120303971,0.029072468176010634,-0.034332330229566631,0.17714564779753089,-0.056640796722548258,-0.051669032266242886,0.069490975202201183,0.054750823030903215,0.012950770350002453,0.050809660553766844,-0.15819734521979412,0.011108434360680791,0.032569809968293534,0.10513107200313844,-0.060540150237638424,0.095703222352072931,-0.078071228389160807,0.020127037833823122,0.052219239747259519,-0.048864920095681184,0.064204049498543414,0.039899476231732255,-0.058064531297602112,0.013885117255119827,0.032116094929345716,-0.17711476598686332,0.0040851420242587234,-0.021475999017244021,0.15004966919960466,-0.0066524848043537565,0.091659555607356238,0.0547469016286638,-0.039824194863222986,0.038793413092203917,-0.021826963618070266,0.053849657867955057,-0.048251495487407765,0.082579068789210425,-0.00543083463387258,0.029536922035231613,0.035977846897134853,-0.036815252897598183,0.004585407107787997,-0.086228002905157627,0.028816187970120508,0.013026738153849693,-0.018582906651038372,0.193086306692564,-0.010648968119602408,0.017586542822946805,0.057644853741682392,0.078746007313703417,-0.11101406445277263,-0.049697203890674883,-0.030880383788957209,-0.059023038410042319,-0.035951850877421344,-0.0022407756310694311,0.028560530047355006,0.057722552462399823,0.068469864518268989,0.020663788198004775,0.010144759347019373,-0.074720746669971042,-0.12911454354366109,0.06898221737979289,0.19006429634003696,0.03532300989969752,0.041459733887421316,0.0036801234581866284,0.067415925584096037,-0.067047069062017128,0.046505884183580565,-0.004725961676456867,-0.055529753689539059,-0.10157360206309585,-0.055328201331343675,0.074543773116027848,0.10497870434239677,0.10417270749808881,-0.0076009570144749804,0.011674755854285873,-0.11364961912171548,-0.083590977845125314,0.0654787834742408,0.041696902216546469,-0.07049408034033805,-0.020097712562268562,0.059095229039368764,0.093307339427663269,-0.022270457707703566],[-0.1501927539631446,0.023129240958509989,-0.041281029796690356,-0.035558206566395779,0.040829838174260211,0.1157996038125081,-0.048178151501553482,0.10250873266642738,0.0313063719554036,-0.074667222300776465,-0.068628340818374087,-0.0964101668039492,0.0054855177948476223,0.0058429892715915173,-0.027082235839517479,-0.04441668132729984,-0.073834077935238246,-0.0317945042479025,0.01608112554374546,0.012053964750633413,0.0638965527385528,0.0437431221210295,0.046476552245264716,0.019914610930371408,0.21288380998127721,-0.010877639045489178,0.068441972887612612,0.017515682705727963,0.048458711790256716,-0.13961377356731583,0.01836989738868252,-0.0979640803135024,-0.017683557418410024,0.067485553339723545,0.10310917925526651,-0.01134319044432943,-0.062091496575981141,0.018627392751109695,0.0387089932145642,0.0671830159213735,0.088773509146891,0.049446504746511473,-0.026243623665723585,0.050820181835077111,-0.10134499690680728,0.1210437730512049,-0.061658743514033047,0.040826937376698257,0.012676834871563703,0.054848891667673032,0.054668869481061921,-0.0064837102830877713,0.15335227429393794,0.024620090781789013,-0.12291260584347913,-0.18528792889580795,0.018999876755777238,-0.03385519417212169,0.12824913381087347,-0.019362645447988217,-0.087151357803013862,-0.023687317093264819,0.013829123040947626,0.088080916699156866,0.023612619695920427,-0.058231372579031618,-0.073674124723114,-0.039282990102804817,-0.023878027075636847,0.026437450563769435,-0.014638705281652082,-0.014310882836742851,-0.01548827353012956,0.035773632168621089,-0.042980947792727368,-0.06053828629613394,-0.06796196433356759,-0.017871530150828409,-0.10088766765253175,-0.016015114699694862,-0.052984794503971651,-0.018468343257434818,0.099624668402125541,0.070156610804856745,0.054118906600645916,0.10957465475695026,0.11315384227819202,-0.02636699552317702,0.035632936082885709,0.0059746302498720786,-0.071079746536828872,0.10823692387146221,0.047172677144959915,0.17281393914411081,0.031593520551020084,0.10923082290636321,-0.087230950796161916,-0.0588860636856449,0.010747908834956306,0.0030804847884064322,-0.15390398381690321,0.13627785032287629,-0.0092716033665875153,-0.025265485521953679,0.097253948831687781,-0.051637548315384522,0.022747679770951667,-0.075019024603898574,0.058791990765208961,0.0081534482009156476,0.025810122264099657,-0.048238265090923341,0.052257371920322843,0.0010574732711035725,0.1415403251290675,-0.015843962342723471,-0.088178128553995483,0.20639678003672557,0.035235204215858441,0.064967625066665716,0.06252225079007985,-0.058631979291783584,-0.081050848999658157,-0.0856918781009698,-0.041428658007419461,0.0159673391914977,0.029617355936551994,0.021232519367708216,-0.0509240205837174,-0.0079573556681135915],[-0.063058320756728348,-0.063921106010986328,-0.014924496795778331,-0.014753152821017869,-0.0045129092733815924,-0.047149395820621817,0.10643491645948475,-0.033409597052727606,0.060533737672138231,-0.065943826310801021,-0.053634401764467217,0.035720507474825948,-0.12194099476372113,-0.057731794198201881,-0.031685483207119142,-0.010668948004487493,0.054102253481426693,0.018510044888335426,-0.080537898591855978,0.098785148990656407,-0.038201368605441516,-0.012173444496628742,0.046531065517933692,-0.011541903925236742,0.1534215215978022,0.062342915472157555,-0.045076903358609956,0.043011769281203385,-0.0272496494228873,-0.16869133346042148,-0.03827390102338931,-0.15640000978896212,0.0991443280985711,0.11422179286243557,0.030007467708485794,0.033105471155126971,-0.11025794945563178,0.082022454977717041,0.04380602458638664,-0.021409926202626002,0.10097009716902156,0.074013825439716019,-0.024482874139773056,0.014202466838034354,0.021743664303669873,-0.013747123876320553,0.018884713174545431,-0.098740245805143817,-0.1746625889475785,0.045436715442132396,-0.041766224577358374,-0.0907850906167035,-0.026348312007144433,-0.088605426098289863,-0.007134607507097805,-0.077536662671790407,0.081390758957362738,0.15352911684791029,-0.040716436437465232,0.028308154313362338,-0.089646866522980539,0.044648919586815716,-0.013663369222668548,-0.025301723944803418,0.10058217801881363,0.011518088114365816,0.032026214106026511,0.048809895701764285,0.15581021572772941,0.037684250661800263,0.083992275779101969,0.01159886651790056,0.019748287108509597,0.01093744040597696,-0.033878505006953427,-0.068311307981299932,-0.00075135040074719359,-0.018753221219139918,-0.080504003452456743,0.05027867491059354,0.051102607090108561,-0.045189221862580807,0.038161838042727464,-0.000809579174926377,-0.031101586663011903,-0.088824499656562778,-0.12832359482800199,0.12311223840974064,0.0316763470219004,-0.029531002214555582,-0.0989151858904528,0.013414805446291638,0.027220360693134837,-0.035364686685010784,0.019824070049721924,-0.0019627844778842187,0.052020292098773839,0.039809520312520642,0.006159961444078728,0.020627325654152279,-0.053167171551814663,-0.036030971217172171,-0.061069556146077127,0.087023060634319055,-0.013042078295572581,0.12060166010101608,-0.16983982351117535,-0.13866929561128827,-0.068690788398858046,0.051648711578349479,0.02843945877981699,0.13856768544346909,-0.07329671624886748,0.11066012564149988,0.072032221702597418,0.058675342538068047,-0.093768032700455334,0.049897940029065585,-0.062746505367001076,0.03264619371984448,0.022800847826749189,-0.077861895320621974,-0.0063427902762131852,0.0612213843089552,-0.02322446954979878,-0.080803455513449265,-0.067227578644247693,0.012748057883610053,-0.027141524555223753,-0.0450044533371103],[0.12299637330721043,0.050842074649171655,0.019776679294804724,-0.081194090666607932,-0.031097887895673627,0.010693867780238207,0.060923931841053186,0.009526991394221071,-0.12963997709847214,0.051500666333851239,0.086413915212655235,0.021036780458462096,0.0024130894823344478,-0.042217854656703233,-0.019475977961291149,-0.043084363282980521,0.065248496971538991,0.0038398010507406512,-0.024990230159359448,-0.045223857494698108,0.010793642066074754,-0.13546790760307792,0.022419611064920367,0.012324855040554843,0.032243634625479266,0.033081920963866279,0.14646444495892308,0.060657968298308919,-0.049906510760899588,0.11641823225073882,0.04534213739222246,-0.16464257773378682,0.020977966863877633,0.038983405664573208,-0.0696791366807234,0.0039623866378461691,0.094479419394652556,0.11507581819995627,0.075626003035173583,0.095721893214486847,0.078347907060162009,-0.029432829844086877,0.099739410957701891,0.028595731794587163,-0.0030035048081478734,-0.040913495571350683,-0.095809199403441944,0.062225291489263895,0.014230947203124776,0.1514715512558911,-0.076478187780005119,0.087591495595908037,0.0884769627413888,0.0019113935260149102,0.12936317325916028,0.067901467997020418,-0.067942265559452986,-0.041440417202553904,-0.043001586750075586,-0.1677822183566865,0.12430805955606523,-0.00917064136221897,-0.042006981452604994,-0.018618384121259466,0.06834019915480799,0.096149601975400484,-0.084922079842978837,-0.05341449236653991,0.078172137461440611,-0.029640997846256994,0.076699325078982986,-0.031608204055299322,0.046680288232899686,-0.057286188224060189,0.053884240268716327,0.042422132530861287,0.0187597928869552,-0.076042452103455907,0.12718481670967005,-0.039313003350004212,-0.0959499096034681,0.16069797391845569,0.04016444275685576,-0.045636916272103943,-0.0069038505701971,-0.1974735615411809,0.096214881498726215,-0.14559764226731947,-0.13297904568803376,-0.00048386981641201145,-0.12284629291848748,-0.099894288632154632,-0.028729875536603409,-0.090916984540301893,0.16123392868961231,-0.059899354798911134,0.0077749387134397148,0.063617043855629121,0.0042706350587804372,-0.073073785301079691,-0.0213656973802963,-0.06032376089242461,0.03532917190910876,-0.01906642694721461,0.14950670654829593,0.0024890402381003104,0.0523176509368107,-0.10470424240058057,-0.089145241483886611,-0.051756836499250246,-0.14371610233753523,-0.068317296369669586,-0.029127516278737383,-0.019187990340489958,-0.0015266740110823961,0.0075542603000264153,-0.11118835441432762,-0.038318040757342894,0.056294975774883418,0.068036762303171877,0.085543842968799938,-0.0059096025293764176,-0.025696836816235621,0.073223842329562236,0.098016835340328623,-0.16006186292036179,0.029226452165173396,0.042008456268301381,0.089969392663542383,-0.023084903949187816],[-0.066699523233925764,0.016510828958170111,-0.066934868611385145,-0.034996074455983163,0.15449519297302827,0.0345657336588374,-0.028013784343522304,0.053970753665885621,-0.0723691388704366,0.07414058380955181,0.066986373321570772,0.055832732147113831,-0.1410982774444603,-0.061560258471927906,0.10591952558213053,0.10414074129854052,0.01171144480506133,-0.021726961004371471,-0.0059863544149218895,-0.0300697651419317,-0.030213449534441755,-0.074150525824446617,0.0034357865971995673,-0.011682930257471604,-0.12956892444034632,0.12178544625090473,0.0532594395197861,-0.063105106934037,0.019308864877585312,0.054090563584493934,-0.034279325181435075,-0.014833512123062637,-0.04491933073246674,0.15787583520389562,-0.18395322725722313,0.081956567630886448,-0.058347385113340658,0.043811017281915533,0.072656207606015724,-0.063243095425190549,-0.021923267595245363,0.056674137100586483,-0.0010974753505635598,0.062267233706579925,0.031305061108224667,0.0077180134312317458,-0.0861528394982372,0.090724357473098635,0.028458336277729777,0.090935903762332182,-0.016908151022152981,-0.012283423785634618,-0.032451924028978334,-0.012449823091021878,-0.027559707069340907,0.1174037432130696,0.012972864224783163,0.14008564953392289,0.027285580498171622,0.030742066296391451,-0.07860326678332781,0.063953883432171926,0.077080511847528288,-0.00021915822000494881,-0.014279507052246312,0.041611250167456551,-0.025215248500381673,-0.072945076006853543,0.056849052517243252,0.0322250639154955,-0.10490653716834687,0.016488523335622778,0.19225750624547947,-0.15546561966308553,-0.014506469239976299,0.039655512704897387,0.0022556191883731139,-0.0060223733763253729,0.029365319643264651,0.1088783202592736,-0.20371475358113392,0.090607707460823861,-0.031426071760444145,-0.022213730024940783,0.02409528253703486,0.0023591198165730898,-0.11284625218246025,-0.0051320810406699988,0.10155319982619039,-0.0074746128181252059,0.019594955484236263,0.015173995283672507,0.061341026687426588,0.057412014245743367,-0.06759673012609288,-0.009028678929923312,0.01888194098616567,-0.0641781236187172,0.0648903658781864,0.0021562981942416111,0.1185727001724626,-0.0066977351209515654,0.01094684043870673,-0.035638275074618316,-0.10602657678783142,-0.10219814367000407,0.030326963419643325,-0.030576924436069366,-0.029288889418576505,0.035899350980844555,0.10071229236573689,0.14810468269305074,0.12321503061363626,-0.089988120988422307,-0.024073015423788237,-0.003687410977195881,-0.0210266939403662,-0.0031133819109051947,-0.083348841380071551,0.015757528772201407,0.040383182137684874,0.13207689279482168,-0.15189885423353064,-0.063844217859042637,-0.035594390090911768,0.0536285724392642,0.04880535005537092,0.012673758470990653,0.083602939913082749,0.087875318464545674],[-0.0070658281246892473,0.01441477166536179,0.0367641758774395,-0.088171586742134517,0.0053698852188623749,-0.026776403239494036,-0.00092274781445212523,0.08183072809735735,-0.027780702012675764,-0.019873949909113831,-0.060203193688192068,0.099203698254756,-0.0343752843104724,-0.13933018448840556,-0.065344086218010911,-0.09981705799381467,0.010407366784630742,-0.033794454724709252,0.0029649149141626674,-0.034253621640086794,-0.02349091311672381,-0.073499347834799764,-0.05645777855731525,0.010613283012730391,0.11756141626382702,-0.08401601099627061,0.097071261480504475,0.042849191785861121,0.040562445739588164,0.080894817444258887,0.046833000967190924,0.0076628296139543712,-0.045563707917070574,-0.0742607341654012,0.01473987017252262,-0.049576844062794341,-0.147739892716997,0.0028696820958709953,-0.064704768737845628,-0.054275310212297784,0.024491753712756026,0.056359304119699812,-0.032004974820157413,0.05059805519761363,-0.072187531551797635,-0.07576562962640164,0.040070994670906655,-0.064341377473287373,-0.023329206066652893,-0.11051069562360542,0.055961612953717044,-0.035820923618478474,-0.060157884408615074,0.001440669056941029,0.022550832503952834,-0.043419585630661013,0.15441771705024276,-0.13693571509321309,-0.10006237280785718,0.155121199900771,0.11566948262206477,-0.084099888367261261,0.13088071823271472,-0.094139683154726261,-0.028279229671159842,-0.076752161508528288,-0.044129902818929069,0.10945462643116123,0.070859758801970152,0.026702226214931197,0.066204443694465889,-0.02769019325910365,0.026142161869762225,0.01931877960070991,-0.0033251562541619091,-0.011017081673518949,0.017348450693903169,0.0047928608876676854,-0.026074083916431168,0.012801035252121389,-0.027266650226118964,0.14468078140861085,0.019433222720740238,0.17999190244101831,-0.10290073531594464,-0.043086455991604815,0.11154841164733963,0.02326957409462958,0.063544868846684407,-0.046040107154602071,-0.0028027960452507543,0.10086806647548641,0.035024617629023681,0.15925781180787532,-0.20457949544658158,-0.032371586147899194,-0.037964504178271109,-0.098945881259034474,0.062428056052232346,-0.10472576017102733,-0.0639151439823787,-0.017869598557697219,0.071039080767493573,-0.00030936969308139749,0.036446700599899629,-0.13978590440878286,0.014040586478086625,-0.065412747465723051,-0.059294768148254212,0.00064363726877417909,-0.076198611421041937,0.070196622454676616,0.062981958362072585,0.063561582066991265,0.044333007902502809,0.03658587716046293,-0.060345028495728932,0.063874938253400126,-0.0023158017386047656,-0.034508801514969378,0.029327355060814079,0.0042604292206817763,0.076278947522852,0.041512940223507933,0.11111678826335086,-0.0932411626693401,-0.017950596837733014,-0.024258310814633904,-0.040382365053135458,-0.11322425340121523],[-0.042380118474704305,0.15473542545761002,0.012418206191259228,0.079987685815954432,-0.043923814455723451,-0.10082069526672569,0.031615982989369566,0.03485705625798062,-0.0929392123505177,-0.020068805174608552,0.011373179846390349,0.059595528457219327,0.064997450150874242,0.033781740778089327,0.0039511320106568777,0.099334047202424308,0.0137243804582375,0.14014299948052653,-0.045522933497133093,0.0002156687555949922,0.10286216410177575,0.0080123016927964291,-0.10229558257034037,0.031733340795144532,0.013926270158421709,0.025836375733559618,-0.14589994818874405,0.14201125953548391,0.12091300060200252,-0.1189762690390055,-0.039919948478173047,-0.14899226031895074,0.0309357316681878,-0.034048307787744966,-0.038158028979974994,-0.12193926433024374,0.03622245318344592,-0.063389907955918881,0.077455760874700214,0.044034518350297869,0.014709515447622336,-0.040337754564005526,-0.0397578924554458,-0.011456107657672814,0.0416609721070975,0.091747480322582509,-0.024549141409412514,0.0275745239636455,0.045514479615188105,-0.12192986157158353,-0.083065509552495767,0.014824008790142642,0.080556171808527754,-0.074264572768856854,-0.031117723454136794,0.037452038421138145,0.096650784897628392,-0.040691264483819239,-0.029434722705613776,0.006339900389222353,-0.030593365691001191,-0.057799694314500924,0.011522540897795116,0.039936771077236817,0.019985315997529292,0.090392220534254053,-0.01822583892771593,-0.047991917308802423,0.020792932322764517,-0.086381660003062161,0.058240563627152034,0.0620803819836941,0.11017416959583691,0.052004086463693235,0.021817736841553841,0.12182764395707704,0.037508298240286238,-0.16878381040309717,-0.01195069808905965,-0.081062104037671862,-0.0011876779356188166,0.092046002154823725,0.00981726505720983,0.12301247019251757,0.063893841274372379,0.073572623964667766,-0.03726034104696227,0.062290272284118861,0.033969235202432495,-0.13815909703516627,0.017588623241737111,0.089010283497545944,0.0022272869639570056,0.07059301431908109,0.0802360855258705,0.0011635871197443191,-0.080560551940226433,0.0220655964920714,0.017111095117747419,-0.0056461458608115739,0.0145009571219343,0.039308843258990853,-0.10230921540485342,-0.081087383484214168,-0.099968383568682914,0.05508362549597038,0.013768874264578011,0.029435237748538946,-0.02709796475213843,0.063727270727383753,-0.038109302711815833,0.056818643536617204,0.040760832493165415,0.082513504321824749,-0.19258092438716723,0.028804647153789442,0.11921503673700126,0.010659288684917541,0.076322160968012684,0.12442205154982049,-0.088595808466474066,0.088910882013822176,0.048682573303092551,-0.050247183262145043,-0.045658964987863808,0.088090124802122277,0.018512219562569061,-0.0504010978890511,0.00023338618001031845,0.0041123214488248206],[0.072861618859527341,0.0061869742939449045,0.00060774654032661715,0.056469744235819651,0.020726695744776334,0.078915578620532278,-0.00096240000253158885,-0.0784283076500595,0.12595140882539804,-0.11437780146217492,-0.027413811789356809,0.07064190371543469,-0.014310963222758452,-0.10429313360255615,0.055986213368513636,-0.19915723476705574,-0.030983778918372718,0.014597525585692616,-0.022413534744298393,0.04219099883011089,0.12848227162434739,0.0077833805444580684,0.024971898204963251,0.082683576569863873,-0.11895444588451108,-0.014698352514707377,-0.04786981808647689,-0.032372332892618996,0.057226719073522336,0.026982255641324098,-0.13452172614120098,-0.087939731885952263,0.11753801314064656,0.060260518597729032,-0.0058838851422641641,-0.050472265955071469,0.023320641047848516,-0.037945188135285343,0.1033728827240486,0.0627861654991258,0.049968178228380788,0.039609053469687752,-0.11338178629522357,0.022750990867632156,-0.043986342912569275,0.00032718486863408572,0.018406037766300707,-0.10078871925127901,-0.031336300524455928,0.12641332693334012,0.09353974534167582,-0.068211371676594024,-0.11277816304948454,0.13123500782721551,0.089320423551851907,0.016951971611517163,-0.03934515611965686,0.00093736772942054885,-0.053170137676768529,-0.025280830670998955,0.090666182574206125,-0.063730105431695119,-0.075381075679095716,0.11836893041133907,-0.067575029833298744,0.15784860044043525,-0.06311400654186794,-0.042062970778205151,0.076076806909527991,0.11969413836376855,0.01397918174249981,-0.037951782611680883,-0.084560208567391534,0.00095343250300540441,0.03796863653882309,0.0139763255371048,0.00837874898915264,-0.086213058003250409,-0.043809481207033693,0.17435871784485926,-0.029075292210737028,-0.10232607969599407,0.043260183826608054,0.0045209218632571947,-0.039911384373035833,0.065161460666078,-0.15011147934118455,0.077094398149884141,0.077953347572686238,0.00097733800272866074,0.10713552388539414,0.029381409299574848,-0.048615238300683684,0.01147796239288915,-0.020143360666725469,-0.012147830075711009,0.021401641838478605,0.0465429628585173,-0.029943941280408531,0.037730609823826311,0.0073071439458436147,0.069366939787841433,-0.07588987074891422,0.035926384765247461,0.061256652970585017,0.063520619113006258,0.0042223128656481987,0.04422836410902025,-0.029899380190902942,-0.022555089694264355,-0.015628423895457932,0.071747207070321659,-0.004624173506236574,-0.10950022822692802,0.0064464472246940126,-0.04488753545006631,-0.058877036071196508,0.11246018930754893,0.0064529232398476567,-0.029393030833274436,-0.055788888735764305,-0.072071113025312189,-0.12337647158867002,-0.0689681662417967,-0.10000114161933185,0.022364465179943414,0.041403329095294907,0.082098776100779314,0.043718327385497358,0.076754341082110974],[0.10343298612468407,-0.015788284440207013,0.047354842329670827,0.085360260348798025,0.19110416432846597,0.09021969705289222,-0.065628479609676521,0.10512013029202705,-0.016143356959944209,-0.015459260520764623,0.017158323386615302,-0.038109756945445064,0.16292918386994598,0.0638634978080148,-0.055359997407172311,-0.10102491966198461,-0.072666450316487149,0.050838387585414216,0.060125723877927847,0.059325891974664174,-0.025028567996455406,0.077235053278255944,0.083742468983120086,0.030185894703620108,0.0052034007127001076,0.018051632727905831,0.07625148780084072,0.038256262700618125,0.052757116094256408,-0.038117797420036327,-0.039439046409217894,0.031618198550218274,0.04916770763606821,0.0095105987881829446,-0.025193002719366194,0.012270257194552076,-0.075178004673146989,0.0026259460941989786,-0.013270646364046526,-0.050606692395413225,-0.017597043577402206,0.033597792280304711,0.094420824972554121,-0.022136379921108972,0.14452718648114746,0.017861452737001422,0.087189688969064386,0.037748012932643543,0.075118425795105,0.0056748341704227732,0.10343766086886087,-0.012501428326878743,0.061995962627300366,-0.031640560182397789,0.04376660439192559,0.11580652460047486,-0.21014228130403542,-0.044331782657824781,-0.11976722905429942,-0.068425883894320957,0.16116649728110091,-0.047611196017785885,-0.0046939539804292793,-0.10051651425084612,0.037305852740949996,-0.016816325692915638,0.021625989109950186,-0.0022641912369668056,0.047484287309532046,-0.048267217970017165,0.06650026675599631,0.064081021210530484,-0.034757644498639786,-0.017587616654451091,-0.072674312264817589,0.051229610166793137,0.062366484868661962,0.15992511024988648,-0.14325669447289377,-0.1799410121025124,0.13078584448332148,-0.13833299073580205,0.047118536845101436,-0.12866922618552079,0.034490549741253873,0.0043301546084466491,0.15261708942441826,-0.02566534030252357,0.020137499837641491,-0.051368556775178889,-0.054204059600841105,-0.048272230655554721,-0.031337209946668193,-0.060876402419667894,-0.018375360237545772,-0.10525703041874746,-0.0048446397858880365,-0.048169036327312009,-0.035765591618798415,-0.00927954950409962,-0.022944215571148591,0.00823180710855046,-0.022430645231790468,0.086927486766569528,-0.066973580968549579,-0.14701720919434672,-0.10252388935953766,0.039810499997939008,0.035361131216849535,0.080524520633196858,0.055887062725679892,-0.035134660732773312,0.013029867141691055,-0.016419490822024711,0.017853836812492432,0.055947262409226685,-0.035031782775280851,0.024414700936753343,0.0333088016295278,0.0682856791833126,-0.035569977275682778,0.070435229300678887,-0.038318200723107383,-0.0037410787828113566,-0.10430177917801321,0.043741577697646188,-0.022103867225502043,-0.024552055812592774,-0.013786800411445475,-0.0452465013759963],[-0.022302550676671251,-0.0814031030374624,0.00049602169692453731,-0.092660846669902652,-0.049778028414860051,0.049605937483154824,-0.013433675689139652,0.062294261978949952,-0.016260129892257037,0.15496332391046058,0.0058497407909458322,0.070393719302038513,-0.047979404109636213,0.14251277933743736,0.0967942192891583,0.04145081586628134,-0.085909572387924529,0.016990358070086482,-0.067854812897504,-0.052202635710125761,-0.0614239354344156,0.0113785219303666,-0.10236352570692436,0.060907878415249188,-0.1152864900440258,-0.0882205518571752,0.05914061008772644,-0.08547233757282241,-0.00075250927204262741,0.012596675404740175,-0.0088296408312906784,0.031781093082177518,-0.0003290609908980079,-0.050609117554617535,-0.14027785249358313,0.055357288210455963,0.029764845903124216,-0.057507619262370836,0.10079394587101467,0.10609922511825129,0.025213865115535413,-0.070889843387159174,-0.0087821267749983844,0.010346803615217491,-0.06823582638475563,-0.055218536544309568,-0.0093670359453350924,-0.031661167601333744,0.014687076674783509,0.072371897705791707,-0.032873271797225219,0.01933184474768437,-0.0017259006552584847,-0.01595771504290782,-0.032270232975049336,-0.032519238768369527,0.072153160266895472,-0.10061853750254006,0.017349614558121632,-0.075416220624774891,-0.013432192760982599,-0.074219961618682329,-0.13514690197647478,0.050494183258813052,0.097444663486677408,-0.042503753419320979,-0.017021608668510688,0.034067549780620925,0.01141473539037305,0.10833590436521953,0.0074597269697043453,0.14410420534762777,-0.0070427949855656705,0.02172042648905681,0.089520551201486109,0.061006413365296164,0.0030815598217946876,-0.10795861130801816,0.011223641165695474,-0.00878269123802963,-0.002040109849638384,-0.084477759035862715,0.088386465041568954,0.026035811785298582,0.076176330882268356,0.020969730127512638,-0.01826291971589902,0.025637726275952719,0.014963629666617658,-0.012860494012920221,-0.095068853683293458,-0.0088944070792896877,-0.026096549136531394,0.0068839432540895385,0.04037746764286114,0.043924816936983184,-0.019849690066450786,0.10185706566894777,-0.037111013012026212,-0.12502585027487495,-0.01288544017494965,-0.12283773734762296,0.029624940178448522,-0.031354145409236991,-0.01393507641101503,0.061820834334225187,0.027986074487635963,0.0053283321345321466,0.12002961644959206,0.0502739138313253,0.036338791575540645,0.064301240153042255,0.1112910697468036,-0.030970504929008838,0.039068550034275014,0.00081023352604691755,0.013957000253853342,0.036985179780745996,0.17775470450901446,0.053361808605335521,-0.062389836339049966,0.12833188599819129,-0.005194570041992125,0.08744008329267372,0.10969622554365584,-0.023144458858783797,-0.067359047823212517,0.040182070459634414,-0.0041911689804777,-0.0065373594094626664],[0.10097627372457135,-0.12931743650822605,0.10904807380248609,0.072144441204851639,-0.073278409392244073,-0.013320887766525165,0.094509947933294008,0.0808299123506463,-0.032752876510404032,-0.034899187346671648,-0.018661018244050014,0.071538274365092649,0.048084233698661855,-0.047557406569663695,0.17225661608858542,-0.0072014911553523395,0.13065378484730927,-0.047903831938001351,-0.0543839714840029,0.042377563495111369,-0.0561063663930257,-0.033803919375691223,-0.087762346128470309,-0.0850875575680619,-0.083826343560474192,0.014865270101115373,0.054537869837701342,-0.071722371077002467,-0.062956975675825741,0.1387476291261909,0.015563548683252338,0.0061061787823263394,0.024943424481394593,-0.02994528896048318,-0.06850455536054538,0.019382664740183332,0.024047427420573884,-0.044196829146527394,-0.005871282930725313,-0.017152226100654,-0.030543367133185256,-0.025063316496380328,0.041616006842173085,-0.00055023902686396158,0.065327483362444413,0.051264958754204309,0.017764728212708261,-0.026321391739341907,0.0018613258106529326,-0.0038239785343358685,0.065940495825404857,-0.023422643008020463,-0.1513491005774269,-0.045942142056702433,-0.028142347583257805,-0.0744083921597719,-0.025947447306897551,0.13144414359197429,-0.037039929312448046,-0.016261858527826415,-0.041345133594189273,-0.14791950421314018,0.084296883665193584,-0.042021693872062976,-0.0072703192132859079,0.038619610344657086,0.0560824567671385,0.073692726648600174,0.11301315863950422,-0.083124195092917449,0.0485517660901389,0.00076549646945337369,-0.11031870539172328,0.06017643615716247,0.093901285535983051,0.023560352246933775,0.11447625574084672,-0.0049675100598009251,0.015576733989113229,0.012226145465183021,-0.088475239981220186,0.05984283265663666,0.0942708643572148,0.031903760918191353,-0.033659453078280659,0.031440160905586427,-0.034869004832280788,0.0021515766631354273,-0.041231779525493673,-0.060700280952276947,0.059424099394037977,0.014119006686455816,0.00061341023809815393,0.037459535392940217,0.036324807079972481,0.034347381433928709,0.012447218673055894,0.05831982952598265,0.031954635983911968,-0.074843219992564491,-0.00730286931012488,-0.11038694180558524,0.017426053946006204,-0.084410927147180487,-0.1273243982847424,0.02633971609016739,0.010184866158727643,-0.072145758566200618,-0.0081051862858263317,0.0367917048687253,-0.085391915040532923,0.012718348985209949,-0.073948990236925249,-0.021839101242943342,0.014196181796325006,0.048579312619658012,0.011885204008005098,-0.022688292974639625,-0.15426296294693345,-0.094143987673438692,0.039138736743875115,-0.022191086665871017,0.012135056461834083,0.051069090282796339,0.10747458219302918,-0.12681405219067579,-0.060424957472334305,0.069059594483878287,0.053826452019968316,-0.0056324827694563704],[0.18617586082806145,-0.032205189414316077,-0.0332926592659013,0.0369668731179644,-0.064755960932685055,0.02895302364867965,0.0653034648182138,0.10852616856921801,0.025012201671220514,0.032667952463074169,-0.088855823183251012,0.0099646227136384723,0.039698337422010718,0.048568062407362007,-0.066353662357533427,0.044081176450880076,0.00097561875988472614,0.0061459873364733417,-0.0049138343277745269,0.0913510861529798,0.0897340781610479,0.040279403015433896,0.0044761786034060976,-0.054474674490097678,0.14523951884685069,0.034430963937451375,-0.073359150214989191,0.0062403330519871228,-0.0058839782061819767,0.16718688687787828,0.045325661154868344,-0.11620160035532064,-0.06383310134379605,0.071971635507900839,0.099601432892422445,0.021342025046580382,0.1083542421442884,-0.0801255761656121,0.012866512966654203,-0.030173562563672998,-0.03149427963691831,-0.069608284991559757,-0.078687988553384089,0.16143480371053709,-0.0110035707460397,-0.038648765841153211,0.048342951374599846,-0.012076659057195334,-0.032498141039780409,-0.047501522258704888,-0.017845171107560703,0.072256916598691823,0.094542676905024617,0.022349018471417608,-0.0028729484508685649,-0.074743274768712162,0.05780237883124921,-0.067921328367657116,-0.096866041937671774,-0.0017725726465600933,-0.010876691670546631,0.00028612711110242777,-0.0026964177470454437,0.030040057052282274,0.11401178188128416,-0.063688176821865519,0.015888977428599297,-0.060195365553841494,-0.0876906246141033,-0.0382425958700171,-0.08522123273911815,-0.008705100835205655,0.061697535778248117,0.047898826588070008,0.035968240837041213,0.074306684102651718,-0.011357700287080269,0.032771532044355338,-0.038997935745163283,-0.10854086875021582,0.0012791747206613549,0.032887581282746436,0.018100030020951972,-0.0086843782791647568,-0.028985826675185424,0.078600857229565654,-0.0019653295149974826,-0.12432677610838976,-0.030166053355020449,0.0050431528620189636,0.036903391251590492,0.0082406630411399565,0.027019243160845408,0.11946473201726171,0.1174843430655923,0.03129120870623766,0.13357876380770437,0.10731511559406549,-0.012454757062562829,0.078784721754579387,0.021761927407495395,-0.10640003776368313,0.036752363394598871,0.054012581228534175,-0.074569365298388493,0.055039119929527043,0.16860259298196034,0.045304182507454847,-0.11996311074277996,-0.022439755546935874,0.001642070893400895,0.039923538545505968,-0.028406960625292025,-0.019974869346113023,-0.020104239402667267,0.072953561557973265,-0.039949379163708158,-0.089127132030346792,-0.011974838398833209,0.054002439490059985,0.09780025352054246,0.039117354670339055,-0.0317691006228539,-0.012965976018215423,0.035860010054855146,-0.10222840975047594,0.021401611082319676,0.00054409600697497159,-0.1756151029292739,0.048226880611400354],[0.031475303309881013,-0.022211166043890059,-0.082581546131473088,-0.050840381385902578,-0.00056702970468118518,-0.028644201358218366,-0.066583875198231515,0.045254371915742657,-0.027818341591178186,-0.054205872910516179,-0.051151730372957456,0.055806655571902966,0.09942353052422763,-0.088974447847247728,0.083715921987664782,0.11117478458692408,-0.085369336204495244,-0.079828479924757667,-0.049094137908191143,-0.028612161817091072,-0.06989004206552453,0.069125781557171945,-0.046700434069174887,0.023328401817009115,0.01689023995869713,-0.048337925627170583,-0.0426487068469269,-0.14669241709789582,0.0086603321850031081,-0.13197228853039572,-0.015664055220850129,-0.00076192196707846411,0.015258674743573307,0.029006464784393452,0.12330342879684066,0.10750840673493756,0.0523826681311904,-0.036798695774529974,-0.11090341473843457,0.033320220880758214,-0.005989017152713526,0.016669348499726216,-0.042280831352268032,0.036303634626986762,-0.13557252404555281,0.013395038262558846,-0.078562671354802147,-0.044300682163576778,0.083598188437141022,0.024638018934571772,-0.086169532347201469,0.041860139970157008,0.048509351080315968,0.0368719274993047,-0.080124961621174356,0.0069647579079264122,-0.072666128095193516,-0.16621516765609379,-0.04456311349359765,-0.056228276294709063,0.014900503267378427,-0.039296742781942472,-0.06760242550434642,-0.027038238846289048,-0.0077482913949757839,0.013560106842625017,0.045719872760616377,0.033942723380939351,-0.057244170911710787,0.0731210923639436,-0.035328166151043776,-0.15738921865431094,-0.078682066501549686,-0.1359620738740723,0.1264145591442479,-0.11621909568309313,0.076122750687493773,-0.074234744513901427,0.028187506362266839,-0.060712026053228327,-0.069044070065694185,0.040020345790046444,-0.061625293324887052,-0.10290990221717514,0.012174796300461522,0.030997709795421966,0.0068692622654109615,-0.061693365111091081,0.1315927234278628,-0.05614511805005961,-0.019540486442726445,-0.0957745574606189,0.037022000139382026,0.015555950254330733,-0.0032050702862277741,-0.015971894082478611,0.039609158412014948,0.027435521382142922,-0.076627988896224131,-0.043919658596563771,0.13290668325612903,0.064049471351070281,-0.083915147426346093,-0.003239759422799682,0.025603062600776945,0.11788572301636804,-0.021260308472172536,-0.055844962418910328,-0.06642345005490928,0.011017669936040472,-0.11028375553618798,0.034647087774004257,-0.0068366114577771038,-0.0882992330910886,0.029919011197180212,0.00018305025484239841,-0.004117941908607415,0.086766314086290208,0.0066610710896098865,0.048208513247131789,0.062748274774920051,-0.0076098321811676889,-0.0024868443733692728,-0.15077247023063611,-0.074419778229108474,0.14696355544371706,-0.11957777170616146,-0.075406063123504757,-0.091311637120280828,0.086635600186056774],[0.051159518571969945,0.070166437265540185,-0.022846350620304091,0.011451534114348638,-0.019504098272635096,-0.094187199301527635,-0.086411386097679135,-0.13536333310727311,0.098143209962253272,-0.082829061684919741,0.0063668641485729906,0.088385714594212059,-0.032592236346083381,0.077657366077349355,0.027535376129927742,0.000493170490477597,0.011152807004262097,-0.026443363020697167,-0.10335361487445785,-0.10555292405267361,-0.11390074130149124,-0.028856804120496335,0.041821755442297083,-0.011111885221182392,-0.08837990225402606,0.10399350083622273,-0.017274044652539369,-0.14130276235183084,-0.019068514755814378,0.014758151826088211,0.0625827136666762,0.076467740531728154,0.13660056008564708,0.0738194654827303,-0.02718225657419383,-0.017862037452737983,0.055533304585807679,-0.11416383264150552,0.057500982667165065,0.051218937888776461,0.049188947170863813,0.010930875709593693,0.074790821748983577,0.06840224397590064,-0.042563577366822279,0.034793789189706,0.065410822519773718,-0.052592276437714545,0.068963675468955821,-0.014958897475403313,0.050543052424667251,-0.12483305212556968,-0.019931065286150049,-0.026945747450879839,-0.049463390534024744,-0.027759588835568467,0.022319975991381514,-0.11711727171517329,-0.041976836176485142,-0.19960470737901184,-0.1004314570584996,-0.043075441528889029,-0.14697153615924311,-0.0056825782384823751,-0.07387130703330673,0.072717210474989913,0.060931610692071696,0.00892447275343713,-0.038915329302147313,-0.091274359061532653,0.068426806623780881,0.040615118080931205,0.089454908414428047,0.12121559618371544,-0.041519757569250013,-0.024759705977710256,0.072306385209249563,-0.017132606069923392,0.0028095283436995037,0.16583795026699974,0.07005639922116759,-0.10592156348359987,0.02364720554402288,-0.1082534980840302,0.12048553464205646,-0.096788952537737935,-0.10481336643396576,0.081704369598281326,-0.12197686175782573,0.0006388004273046897,-0.0040594104524604114,0.095623670794519541,0.034447403895308051,0.059270830652688428,-0.089185067232688958,-0.088568033586576209,-0.039692913626943049,0.072790235463194367,0.018243854032017916,0.11295975319183911,0.020564646114093366,-0.061572798578664524,-0.063699780146010868,0.051214008422478113,0.0173137156029807,0.0642856163467495,-0.089385072488772213,0.084414332895073926,0.100809841259147,0.072055028645698932,-0.051907984843884265,-0.058221399613856473,-0.011286372289700301,-0.082084055811872572,-0.023796001279199126,-0.045485107918549705,-0.016053500570082167,-0.0607972493330639,-0.046612861007774523,0.055220774841924648,-0.031870681715922312,0.041172645362167394,-0.070927327136472221,0.0014598789574667623,-0.013698311380961925,-0.075900109210776223,0.06158739067141239,0.005766549871641569,0.014777089331349776,0.050859471061369892],[-0.0508087215630817,-0.10741450203823892,-0.11331309499338285,-0.029964723932031253,0.064578871353790257,0.049123814410282893,0.019235891496127554,0.0034983717656770141,-0.095318136699425973,0.028443147094088832,0.14612657067004944,-0.015827240209422017,-0.016533844527906478,-0.12031930917082599,0.054344218700035647,-0.11541887109548472,0.03206225502563901,0.01702288047200055,0.098875555410520982,0.035265975647356139,-0.15878457470451224,0.028954415068378498,0.031815906771544195,0.069637682377296423,-0.075449570180308567,-0.12788159191826293,0.04680514349522133,0.092187373269920977,0.051301462209922544,0.03612791698165025,0.0870228718061872,-0.069700408382095208,-0.1205768479721656,-0.066473781120847508,-0.0061552102176150262,-0.0035531761879488808,-0.010248817103263808,-0.03903480897800167,0.032896460831953384,0.084994249950409842,-0.040197510624862272,0.043318307811763788,-0.076187851013806443,-0.02792011766611812,-0.0029632116376600219,0.053267562494798124,0.090381580867241421,0.06025259734484751,-0.025532154136345346,-0.081954704255758626,0.069576477291958636,-0.029358890913155293,-0.030525689691652494,-0.057892516688082124,0.02803125523835864,-0.016875841327937964,-0.03875876511187152,0.044060423289193212,0.046422196709622193,0.013837809470438892,0.066202071907633067,-0.0026112978833762392,0.0087874487269082487,-0.16158407314626982,-0.024702150696955947,0.044695271375814027,-0.025761120603494753,0.083953526624873459,-0.032163954997114226,0.0064040567908950456,-0.014323396466840941,0.080825491728214349,0.0873843888508432,-0.010073328192363253,-0.0502932958742398,0.086928218294320153,-0.057537141730367627,-0.10211889991782612,-0.0037442326704308993,-0.0583932059762565,0.0558783184441626,-0.058261959126605971,0.002216528788302669,-0.06113773120186923,-0.0097284862915414279,0.00059103669031743014,0.093783632168052758,-0.10363272980420769,0.016390971056642518,-0.0083745063619514813,-0.0699058473432403,-0.13429755648283853,-0.032180120840115407,-0.024491449061334224,5.5795074290275683E-05,-0.021656995244077361,-0.0080114933013829548,-0.0839248624856774,0.10574210449380408,-0.023172337585215357,-0.077131966789571,0.071189549290622142,0.0332869795130174,0.010661310681854492,0.041583003671203454,-0.016094707866948176,-0.0040353454651717788,0.030196435323088439,-0.19795423452835256,0.022145185176560112,-0.022787206932365824,0.036581184849646543,0.044002624660841379,0.0038813368820088483,-0.045346877122230012,0.036488362689107955,-0.062223841120692285,-0.047150906315225935,-0.057984289486899335,0.057576010252555834,-0.086817186412330508,0.014037454489348088,0.037989666383898169,0.038922203254661704,-0.025316173587520106,-0.057571969166203017,0.05407430478183535,-0.084161764042695555,0.12209399329023563,-0.070032390736241415],[0.083424507486417054,0.0721465423128291,-0.099372540707334978,0.063048779942092653,0.030836388342416619,0.12110319069892606,-0.033303635619682755,-0.078504980571824021,0.036781097261600629,0.18889406358561317,-0.0024428964684504138,0.026182470969301194,-0.040104635532408908,-0.041530842571183134,0.047526253176661738,0.062949464843600325,-0.0065294562708595729,0.058078904529048535,0.022963674314819625,0.06911058332979618,-0.097536074684894614,-0.14589119019566565,-0.0844992400459457,-0.04949401463749805,-0.00911659758399993,0.15234124126026474,0.097298748216701023,-0.14934744885767748,0.029418425145905095,0.019199848309318677,0.050157344025554468,-0.099172243891243073,-0.079164769469070237,