{"BatchSize":200,"SerializedLayers":[{"Bias":[0.0,0.0,0.0,0.0,0.0,0.0,0.0,0.0,0.0,0.0,0.0,0.0,0.0,0.0,0.0,0.0,0.0,0.0,0.0,0.0,0.0,0.0,0.0,0.0,0.0,0.0,0.0,0.0,0.0,0.0,0.0,0.0,0.0,0.0,0.0,0.0,0.0,0.0,0.0,0.0,0.0,0.0,0.0,0.0,0.0,0.0,0.0,0.0,0.0,0.0,0.0,0.0,0.0,0.0,0.0,0.0,0.0,0.0,0.0,0.0,0.0,0.0,0.0,0.0,0.0,0.0,0.0,0.0,0.0,0.0,0.0,0.0,0.0,0.0,0.0,0.0,0.0,0.0,0.0,0.0,0.0,0.0,0.0,0.0,0.0,0.0,0.0,0.0,0.0,0.0,0.0,0.0,0.0,0.0,0.0,0.0,0.0,0.0,0.0,0.0,0.0,0.0,0.0,0.0,0.0,0.0,0.0,0.0,0.0,0.0,0.0,0.0,0.0,0.0,0.0,0.0,0.0,0.0,0.0,0.0,0.0,0.0,0.0,0.0,0.0,0.0,0.0,0.0,0.0,0.0,0.0,0.0,0.0,0.0,0.0,0.0,0.0,0.0,0.0,0.0,0.0,0.0,0.0,0.0,0.0,0.0,0.0,0.0,0.0,0.0,0.0,0.0,0.0,0.0,0.0,0.0,0.0,0.0,0.0,0.0,0.0,0.0,0.0,0.0,0.0,0.0,0.0,0.0,0.0,0.0,0.0,0.0,0.0,0.0,0.0,0.0,0.0,0.0,0.0,0.0,0.0,0.0,0.0,0.0,0.0,0.0,0.0,0.0,0.0,0.0,0.0,0.0,0.0,0.0,0.0,0.0,0.0,0.0,0.0,0.0],"Weights":[[-0.58259553733348,-0.055924768495988222,-0.011526399058439536,-0.24501590160831044,0.12462997196540954,0.42977010122713427,-0.12326683584179542,0.44786892507420756,-0.27441055579154022,-0.2265158263635757,0.35416962858628009,-0.24128802808585884,0.1147470229083233,0.6255280125844469,0.01096701446476956,0.23926132405698256,-0.0015511784326659012,-0.16069985277285834,-0.055015212579787323,-0.774526032258478,0.38921161473442528,0.61196566607521263,0.39036754281102626,0.26486506965883383,-0.59549566088245731,0.35618014167265571,0.056427032236804016,-0.25209631650364211,0.27988681319408382,-0.11583616645246903,-0.036600818115894718,-0.2088393674503426,0.329707936281926,-0.31433123765234944,0.11014717938151285,0.081536861515821138,0.24945566169908276,-0.54869564034604912,-0.19524727768505057,-0.4058881694009292,0.642197417065183,-0.16613205205410037,-0.15526857503235017,0.030334564904708705,-0.45073693388425112,-0.27779492941648321,-0.1712103424594098,-0.38629855470659158,0.10878663653002907,-0.095940093681359237,-0.57322965429554973,0.23519435734586888,-0.19925446438056874,-0.387633626668448,0.0574771970105909,-0.81520427443085319,-0.38269397568954194,-0.22685973237944196,0.37205232547260447,-0.25450236557361361,-0.38971737098531978,0.31412387523051605,0.12303600164567133,-0.01760440858460861,-1.0471303649121049,-0.53159990866658657,0.13646108260510495,0.12197366558141769,-0.2322524635899455,-0.45835162359406245,-0.45678131492892837,0.0031976580482290951,0.096296441412623418,-0.50429864519138712,0.80941799407300674,-0.18628111304377445,-0.1609138124080203,-0.71064886550620554,-0.574991475108303,0.19863303919620109,0.063209201049342384,0.61855071654475535,-0.8039628028536091,0.37224460609144594,0.30392513482318712,-0.10153085466071872,0.076306011486517375,0.30793560969492939,-0.67842019351115512,0.68815528163164053,0.58542635565738066,0.21876735392119626,-0.59641735567788934,0.71746661713157156,0.026649676918709227,-0.55114491895710838,-0.3468211725140779,0.193456689392477,1.0499706652448222,0.70233271038677725,-0.014346501665399818,0.057109568947284105,0.078478910519934789,-0.23398989119434926,-0.42690287673654631,-0.26157769491832189,0.32417925649783597,-0.39737438390537738,0.36892717023815408,-0.36807598506713624,0.62248367690020534,0.18308813779247138,0.29339291613357416,0.37261192944677646,-0.021442964946030079,0.88105091530130186,0.56998780714187525,-0.32201945295308781,0.063905175383848725,-0.62167730590814807,-0.51517602420680986,-0.28630948401235135,-0.012686270182317936,-0.33568186631993169,-0.98588798850471437,-0.30370901899730857,0.20048572579423532,-0.35695957372014969,0.11451081293626311,0.14845858971940371,-0.048206410620320161,-0.12868953354223542,0.035654358194185873,0.28135997321759443,0.16925450743370207,0.19801962636616394,0.0085090113246777659,-0.38274068125467176,-0.14849876436156398,0.18418028716054219,-0.64372370582719973,0.4460574435953289,-0.7115084231731752,-0.14832751059195862,0.46111832318788365,-0.24708342003361775,0.46352711523339152,-0.10750571506770709,-0.67350764554413689,0.40823821492161932,0.13065098666072558,0.1395803030481132,0.11337978690365611,0.56141895800121322,0.088442000704700832,-0.34570864657194333,0.39549304899921084,-0.0014635122356239378,-0.13471319707294668,-0.28236115449999949,0.1066553866393614,0.060461931052015874,0.67816759458123588,-0.14838288109929443,-0.46584807483181445,0.014346578987719112,0.54155124251517528,0.37529609526795377,-0.15229298777352521,0.31362560835804026,0.61974859579605168,0.055186822027729412,-0.19629687591448625,-0.20656851268629692,-0.26491241033622692,0.26282582025976436,0.16790523717331896,-0.54453489857444581,-0.13839391603981549,-0.49983166808711632,-0.3613734649551622,-0.186691517665374,8.1043341033878129E-05,0.0825331485485194,0.222282779786784,-0.23876319519822159,0.1109030631564448,0.04548979360232152,0.013965145425109621,-0.57674094606575654,0.14587009995754557,0.24942085227722666,0.52014467610581971,0.040855663771724844,0.098920600398372277,0.30677476654595831,0.40873358301315682,-0.30077210833486606,-0.37298007326716232,-0.14685690441071225],[0.18184819263193444,-0.20390678380777647,-0.20301766284495507,-0.21780088795718566,0.065591909143181554,0.86303376454052938,0.025320434209347369,-0.64283791547044711,0.834648458449266,-0.0020046673135497703,0.80715516468624626,-0.13158109381437649,-0.69837433622532774,0.2264530573300674,0.5621989769432123,0.61017734031397586,0.6540350304626632,0.28180046220832455,-0.26026631175821818,0.13101703978909041,0.40137366280838083,-0.20329039798530785,0.30770544506253433,-0.2573461383880648,-0.67344899774398714,0.2103601363512638,0.36698401384020218,0.451572482652377,-0.20923891224550198,-0.18332615893046284,0.11051082089507196,-0.18063154943048987,-0.24669829428246476,0.65417475416969328,0.20297134228626176,0.82864385028508225,0.27888777080132937,-0.050193159168522725,-0.10865787015612273,0.719323355501144,0.8559626454395256,-1.0612345257361011,-0.27983337636979466,0.41881354618992805,0.34123760897421274,0.0093051874800350251,0.5000146388692529,0.044250507425446062,-0.15776173336441077,-0.021441027023918348,-0.3240460907560373,0.36191170173555459,0.2575523417363611,-0.32963169315199303,-0.37074827971806812,-0.48128146868791033,0.53716830758870937,0.12423311830403233,0.28578965816303725,-0.19421184125656113,-0.012264103185117278,-0.00029063514766449958,0.41912881016267545,0.17653405089509877,-0.066231001240099743,-0.15781605952326405,0.67169210936154433,-0.22620153805651996,0.073915182468136109,0.33081266999677261,-0.060795781272534884,-0.20006008840165074,-0.22360558884333553,-0.035043129231837868,-0.35210721126859462,0.20404307984184508,-0.35117834137887866,-0.37788524882986541,0.073644311508318919,0.34148592872777322,0.24050266466981177,0.11965673353754487,-0.19037608651894561,0.028514516752066718,-0.521016972578325,0.051466878047204206,-0.18855434562363468,0.17529539466748167,0.42297679222393936,-0.42109282033741152,-0.36554438342609513,0.26509939812549932,0.74606820166331045,0.20754101087592963,0.074736498315216129,0.622922807388169,0.10283422552076789,0.53856954984524885,-0.074128055097453766,0.15967364654050914,0.11067269461378121,0.45033908593901567,-0.10712417328539982,0.18350226397775382,0.86171966008176437,0.117971622729189,-0.31075738658098284,0.022139845622881987,-0.57907175815929712,-0.52108955921327749,-0.095636943233530086,0.13001437570877567,-0.070814913608322622,-0.46067406238474862,0.26280452575728269,-0.47308919099795094,0.14078703324749403,-0.028658865217377334,0.08823013038161609,0.11492081754259206,0.3010493245771681,-0.013093880289016429,-0.68555919655302877,0.21528267955337418,0.17032315952739466,-0.2862650445925688,0.28318814821413496,0.062123654419682123,-0.20090367242961316,0.31150188992455008,0.2030109081506499,0.78216528173963462,-0.19609798244982987,-0.18066360904511555,-0.060921413672420231,-0.18383787834103246,0.54499124057245163,0.58900942123272659,0.51618012292568771,-0.048114125731683,0.11202597018777162,0.31284760861346528,-0.4305002566706595,0.37265464784243324,-0.034776026118583325,-0.19609055429552563,-0.25560829802659796,-0.041948770937049677,-0.092046124873664759,0.22023146230695734,-0.18844800679894994,0.86186028334314624,0.717329476605725,0.39567858249339966,0.87096143474998677,0.071168503307122807,-0.43319029966298528,-0.14622511123065776,0.16050898353255458,-0.38386476150789012,0.19607366077953056,0.20943141158663348,0.7022407567266471,-0.10125713904398433,0.065965967961048422,-0.346807255630123,-0.42210156582870595,-0.015673659181784195,-0.31256941988095904,0.024507306349846963,-0.096240033762995461,-0.3206790706440481,-0.17162375540059871,0.21476426778955246,-0.75394565770922017,0.11801758193504351,-0.17164890671640978,0.19677427673189141,0.54097330610751659,0.53885910600059728,0.18420395676288617,-0.087269452195402886,-0.57511219910952061,-0.068212573058548692,-0.079584297667565584,0.33074131438996,-0.51173063636523108,-0.24144617105123242,0.33426035152285655,-0.0763481480883761,-0.028462888814463627,0.03664290061955245,0.62065364470693785,-0.42156892857875278,-0.31045878386936393,-0.1081908583369194,-0.539852691146281,0.041192735719109343,0.26860849233580059,0.043751254057137472],[0.23831655546248398,0.63259428726082667,-0.29488861642531505,-0.07192979504137674,-0.070141939981599843,-0.3090044249610544,0.37894694512352106,-0.37497363438122733,-0.35934475782940922,-0.28526008293087352,0.10110215478942788,-0.017749288771420117,0.15731330799866972,-0.018070199934016193,0.13151969833891125,0.14489429264164194,-0.29868258706551665,0.78505039848796987,-0.409459779539943,-0.26234489531069,0.24656620442397731,-0.19512311591101472,-0.24197589843423442,0.12151022864596123,0.3089353583439679,0.684795114247581,-0.036277244434203541,-0.54235709632502715,-0.085732052819538038,-0.15024585317756131,-0.32739259841742063,0.54591563553035649,-0.3895553912686297,0.057510966319409877,-0.4367988132737,0.20214120977252179,-0.07366924294698951,-0.874779230530866,-0.16886732541415642,-0.54903199605645547,0.035971140925529277,-0.27252330676209618,-0.57481555382731675,0.54508199400685631,0.46450824360210985,-0.038052398071534335,-0.020528937487918456,-0.14671976730959263,-0.052087852421542111,-0.687991555651461,-0.376637639991672,0.37744035710698992,-0.095436423282158761,-0.014382472159250054,0.37763322681739236,-0.7074359031924059,-0.54448518168476956,0.41029064763303152,-0.733360189214953,0.52497770029815483,-0.010052402493879654,0.15741233436634924,0.34100236966277697,0.01605766367675775,-0.10847346688535682,-0.073347053163159329,-0.0694527423636474,-0.3083082545855021,0.094018023726760866,0.3447302783104132,0.38171545769623583,0.35083001407006431,-0.44692723906349335,0.15021188710652078,-0.10683905076847719,0.33780506754635975,0.20818443609733645,-0.39031835677640142,0.49969615656034594,-0.47998319678830753,0.39706460887182193,0.060721848353381264,-0.42219130283423972,0.12004378056805398,-0.52756819939233635,0.48451329780040087,-0.01289891252135183,0.34536831650342575,0.091708735285865928,0.28825479972660178,1.14816235375464,-0.077464648679654913,-0.225401472587037,-0.46455165773141943,0.24338743226492782,-0.48463219627433507,-0.14866099812440248,0.08546651315369759,-0.10637566739606877,0.34756508423541671,-0.012415951808032451,0.18205968484726406,0.26184387902027867,0.13642643874086396,-0.24964606825722532,0.0692376105160678,-0.092017590082160039,-0.23597112729994949,-0.79668652618679114,0.35570119180343179,-0.15526361877978123,0.76325581186732283,0.77985854297486,-0.34193995056163518,0.40959048043635538,0.23453412914879254,-0.12153059381879178,0.84205612655264817,0.43054482852785719,-0.47581692182893376,0.18192413073092603,-0.60677271348590422,0.64770696493155389,0.12113275532911688,-0.15853628259510844,-0.38020287308440565,0.2651382880746217,-0.28045746772763108,-0.50699196821921066,-0.70055042158971359,-0.086212661029171508,0.21192449410010322,0.61831862718671993,0.56249155041601429,-0.16769633796332961,-0.086888041631270216,0.12607451532128036,-0.45352648274357021,-0.43391308522073074,0.063868994930975129,-0.097439593988543252,-0.37583300170536488,0.072076703655460636,0.017791451331554048,0.791992443716696,-0.053296894355527209,0.0042520567692977866,0.0059842924552016338,0.26214926567440749,-0.46367563508016968,0.3688099323344512,-0.33351159877233177,0.25443207845689475,-0.02582971773991254,0.30931291208278039,-0.42688450038701137,-0.15664715464940712,-0.27565705270979973,0.45826417649765094,-0.15744807766041366,-0.090407898915814411,-0.85758796254557335,0.16068085382791686,-0.40706012458536395,-0.24077359049550245,-0.039646332249789147,-0.058601271279486007,-0.0724482269084319,0.23120982749367441,0.37171037590414896,-0.457421845827998,0.96855199500990019,-0.94518338118241774,-0.31990566054142477,0.29372091315200605,0.36219920523273469,-0.8753891227417282,-0.33458001365239354,-0.10037748347198294,0.3779952222194361,0.49008370661547662,-0.13158717918898003,-0.42423486735520755,-0.83822223641809224,0.19563541918006644,0.5367005506635949,0.016929895258292509,0.025531544243863977,0.20127840298712649,-0.31533405100295203,0.29664868246844978,-0.41723806910478983,0.067219151572085536,0.31596780483896764,0.49752591574823879,-0.33108060735762662,0.1712965489837226,-0.27880735262525524,0.50006158608899076,0.033994222701242312],[0.21898500551017106,0.22764059964790975,-0.22429268614907369,-0.053675602223149488,-0.30273950610779,0.06122909363843352,0.36428745471286933,0.64316121755079647,0.62794007699601706,-0.19495149681033114,0.083945635009947714,0.286743787340242,-0.22512195711401786,0.69079450592703329,0.2214449852867445,0.690275051604033,-0.16473537247244149,-0.95937236016811966,-0.14434052089763413,-0.2258015114121075,-0.32129133419650491,-0.17454936047543626,-0.47852825340633331,0.099508518333711035,0.41396683871106565,-0.72871225880853108,0.42314980168966876,-0.22812926159094235,-0.30801860389930952,-0.086722903562049355,0.45012969169956712,-0.046980101121458305,0.331623806978646,-0.092909877132492921,-0.42528292081403513,0.34231178987159772,0.34033433841213162,-0.056893254410973329,-0.18866635994534028,0.10686883946603436,-0.5064146246515201,0.20939586316168551,0.0020314595043329831,-0.55363720806899774,0.23933213122564229,-0.0670930549728191,-0.039144200629809417,0.22496839164930998,-0.74874172922199511,-0.059929890532167358,-0.24723175372150869,-0.011880037991668882,-0.25436436377380078,0.059728764222044484,0.15882368797417223,-0.33926163985750224,0.15407804133434233,0.24059049117868916,0.025058529916872806,0.27949618930256126,-0.20384564207903216,-0.076650912330839718,0.37445269480225984,-0.66337894356355365,-0.087332876596742881,0.068345667585419753,-0.15396305335908445,0.20851605188431749,-0.346188029901239,-0.19493673299784259,-0.046496966612691058,-0.24733327023149707,0.26194340844796238,0.046224805129657633,0.16050247255295547,0.69428192569081115,-0.31740919458409661,-0.43237819051204568,-0.84455828925103693,-0.15981603757022386,0.24578891177444465,-0.046510107255516443,0.19857939098592137,-0.28856831543255451,0.35506402883977928,-0.21519944731194116,0.058560602131300286,-0.763407520065917,-0.20722710868508151,-0.4701916880967949,0.087454152416186426,-0.34390854571363283,-0.17732825471758595,0.78636765134461684,-0.12899946857461594,0.33793026596282666,-0.21808205521790161,-0.700139026189477,0.30258938410852049,0.27141415896139048,0.52097530702391981,-0.445471623584245,-0.45019448279037272,-0.2158290257373775,-0.98112960966865914,-0.44991290500547887,0.33972374096148683,-0.16307460623552622,-0.3732996338510145,-0.26731973049231667,0.26257386270694294,-0.29923693478674157,0.61067888501929757,0.094563408514127534,-0.1770549565469863,-0.26419389056706094,-0.56671680480780617,-0.12824642002474196,0.18774176127738895,0.2425496486402651,0.29555738506776258,-0.12672852796852996,-0.5020384758079397,0.11206058225103675,0.21044692579809846,0.59818044817432914,-0.29212615402561481,0.13473828648914021,0.2860182331616839,0.060081709085568064,0.10003938201532681,-0.068566078317106843,0.50996687458838963,-0.2806199283569622,0.097954609396443376,-0.052954831514064778,0.521887644920295,-0.25790767476316256,0.014049410537810824,0.084577252695429886,-0.27207645686675958,0.20584924961095655,0.13788303682581943,0.4376665189519367,-0.0014765005291999993,-0.27949419504315387,0.27169749908760954,-0.059195457962364008,-0.070226985776948081,-0.34109590586785077,-0.04817257573061328,0.48428154541382806,0.14128952372123119,-0.026982376630803603,0.23032143817143258,-0.5779989643702681,0.69866136215192765,0.58616453750195263,0.57387139139678156,-0.35816315469912469,-0.51535712512858456,-0.15299955914370844,0.7945882841730193,0.37752412496683219,-0.351537215471906,-0.17882725370698938,0.42363483651376038,0.39378387215857558,0.037348836385118635,-0.23150376572452097,0.039315678353993452,-0.0046763495321118231,-0.0013625612024194623,-0.20548599094984277,0.2918425241466977,0.50203172837071786,0.23413838097719938,-0.755492417910521,-0.0357188933926304,-0.185883180266897,0.38659323888919339,0.38867191445771504,0.1676176043070754,0.10732294581166009,-0.20367579589643012,-0.60804978361212847,0.19241672329811133,-0.802764320047664,0.279972386470414,0.34576339072722662,0.13944507661385475,-0.10443591672344989,0.17837930820771578,-0.28386016158490862,0.44085500364404517,0.40372923244392894,0.48374680338692139,-0.3145471248561153,-0.026198267352173961,0.4142856765960613],[0.0014535958522904748,0.14640106999188973,-0.66420101595488668,0.062026019528969675,-0.099210521255464534,0.11043914058402719,0.10772125833269028,0.37108258418750256,0.079577594289960557,0.47911670499108788,-0.17073543238566291,-0.41613196384927326,0.30079945693646165,0.28961285661967373,0.19162604258148597,-0.088455835007813538,-0.62618947801038882,-0.1378210654266899,0.36649603296400068,-0.54644327258500092,0.11639901985082451,0.13968937647704183,0.37351670004572579,-0.22058258871353384,-0.28105135785115193,0.064934555089345078,0.32350597739165404,0.13540062493078364,0.30692445139364272,-0.026031544320919513,0.1322257534323511,0.30934328234168978,0.59461691574052067,-0.71233696816180658,-0.093136695865277258,0.67028683663328548,0.21745750127800539,0.701801274527041,0.0989367666548958,0.1997029727913601,0.57270579584295167,-0.65047348943246763,-0.94172127383520565,-0.069989509017895635,0.12096204751229304,0.00978312496006287,0.035308119498858391,-0.65657092895039937,0.044039702619958349,0.024548198975478483,-0.50536749997302743,0.77890694328417243,0.17584576817147149,-0.62708366538533089,-0.044190072122152015,-0.15047683373533172,0.23202888115813306,0.66200759351512239,0.039199642917873756,0.22784633636361243,0.83620457017478822,0.33960672446320667,0.99454760984965762,-1.1123428687900105,-0.28183374344762924,0.11260162921092559,0.13282306440089872,-0.25084176767295729,-0.0076510242920424989,-0.39746660119676608,-0.24583451239635693,0.3680032121422141,0.13577626276349486,0.56425853806173432,-0.044742870866259644,0.10988033715714732,0.35999190661487279,0.22361469021893232,0.041667959975187012,0.061772677459000863,-0.04107282695302189,-0.65735110494417115,0.085562332268366792,-0.28643820793610769,0.4142718629267772,0.83663247630683846,-0.54927830333190475,-0.31009397805574196,-0.044440572528215989,-0.0010367615625797529,-0.52129892977400116,-0.099470709384171754,0.041914786708373619,-0.17016254552555055,-0.21391955421930783,0.09757863758993604,-1.0052182225409221,-0.090814215901022288,-0.082783259945620108,-0.47598353710026542,0.10189857779504775,0.89811425270407186,0.17972575398784282,-0.041957839417751268,0.40507581399936327,-0.50794579272883589,-0.40322556249370395,0.4288139082475706,0.30084668934397057,0.16098136690654286,0.020933465028779758,0.11610660007999216,0.086655471749446766,0.84106470769133346,0.58674199881414424,-0.11173449072793949,0.10286045632242789,-0.13075285284511851,0.14029679072684811,-0.10006450626535934,-0.7570237399455324,0.7546328461138192,-0.44873657160726294,0.17125769833141105,0.0092823165549856344,-0.60268547637864089,-0.501336745593315,0.38038135622470526,-0.54148800859460089,-0.18235682643407455,0.65033495949716469,0.37949496448817605,-0.12686136944986876,-0.23482680448739049,-0.24667135783620969,0.23565700539452858,-0.11463320206827443,0.324711145045809,0.19070731759061488,0.15177156371049752,-0.021908375187328154,-0.5920787237017815,0.45592036674399805,-0.18434427868810657,0.44293024056549091,-0.027774450214968507,-0.17820211075779319,0.11354348762772538,-0.25966110251944124,0.090250925816249383,-0.4314452927943962,-0.262580572040248,0.37085662772328265,-0.42109648954421636,-0.15829278564530702,0.72898850627362888,0.0038009908639282551,-0.14737152180962723,0.14307206629376937,0.29043242859707796,0.331137899648624,-0.15783597547422665,0.30910659589774958,-0.045506931947644068,0.41533365767293889,0.13284538437745808,-0.4471079653792861,-0.21776633785997718,-0.12049553539193476,0.034536688704935724,-0.0757187524148925,0.056840185670613858,0.0988899226378629,-0.079246300176271045,-0.19129624169306181,0.43480922457718879,-0.64791207740654633,0.53002355145475211,-1.1567191889962416,0.41356963749079723,-0.12021487493810085,-0.016927453782236077,0.16919576549975238,0.10706670884379399,-0.13822071639365968,0.259373700885386,-0.11058895867005841,0.30443213290674509,0.13439299242798278,-0.207270052641697,0.0616962189344287,-0.37552311047446052,0.38466804319391212,-0.28007670166233639,0.29233088610006613,-0.074058604491412827,0.12590093543335781,-0.31514247819097,0.34969356906235627,-0.16039445652805218],[-0.26558694551273054,-0.2631708491825665,0.17624008208419681,-0.031460021203365156,0.38709615298284306,0.229054773483855,-0.30986902134778888,0.16697660366244974,0.736543677083238,-0.28102337030929064,0.27733313730940928,0.1625918277103208,0.271781302678485,-0.70102695189654807,0.34932368561194121,-0.15375616536332679,0.77089859562711271,-0.26137493040910109,0.38241851652256248,-0.079503651282950935,0.054682463176225722,0.10579565413027012,0.080576248641426054,-0.29651082855616662,0.040546585848588196,-0.50078753307316337,0.553967721596996,-0.50613639589696358,0.25377106270903677,0.44576535289153385,-0.27687397880243714,0.46346209916240871,-0.019998968527289166,0.2941935174342169,-0.38588186464032875,0.57217359716793392,0.1319867664693124,0.13026866497896203,0.50304448846966177,-0.12100489820220041,0.034746684864718415,-0.23739447639765354,-0.36169965646734603,0.012984154481787146,0.18793944877111593,-0.29284278523249913,-0.0075550230787283746,1.0203634304743023,0.10595325096227296,0.029205805301865437,0.47938504417201072,-0.57828076752302038,0.53755389921868191,-0.52725950899328822,0.6539812502171064,0.15566312847403868,0.29854898646635275,-0.13819921050388972,-0.62725006219914237,-0.20544335364904268,0.39362068879641282,-0.49496665895869318,0.60981664593226192,-0.12722708237230188,-0.27239479621582735,-0.42546375281561971,0.450055921752354,-0.0043655681587944284,-0.18619752556069247,0.15647082899699819,0.74905750376220215,0.13152991803757949,0.71126906366303122,-0.51743336058238831,-0.58919329737599924,0.19873078078689144,0.53617254887458443,-0.432721744379957,0.03024933542513487,-0.68726675889219957,-0.23967364987766673,0.5705109769125245,-0.031340204485495654,-0.1923461554455263,0.11782622992685596,-0.3345166896068697,0.41942243901366105,0.080087225663611886,-0.66157486348548322,-0.2594545069854956,-0.59049872080574073,-0.30893072881971234,0.030932454776862385,-0.27983886916185746,0.14773698851247663,-0.40883103060154086,-0.11251868537109298,0.013831053001219031,0.34803278068210736,0.16333822361024455,-0.37046492868782621,0.28201255008852028,-0.24215652567679788,0.054852826223930437,0.17250885492162019,-0.49245723862532259,0.0045102903458527537,-0.47138860133454463,-0.32736658492610243,-0.15510233498493639,-0.30457746906788413,-0.685343905458882,0.059874457555910782,0.1310197357136961,-0.59420443088510477,-0.54218547591151234,0.82819699933946023,0.5464822486090023,-0.03107904525202947,-0.034962057218313615,-0.66030810048497968,-0.26728385441614905,0.0244945225124916,-0.025600541088652867,0.20604771049248469,0.78983273358175887,0.42572156667795119,0.623584432377146,0.12336031973208697,0.46841142872436514,0.26169141477558011,-0.56544116662688249,-0.16876294158262575,-0.10926810022787542,0.30517899321764946,0.025044955659270039,0.44156854291311004,-0.47183188761522371,-0.060742544928675327,0.7129629562409675,0.397080476590883,-0.4632326061759488,0.12937024434064351,0.34006343293759977,0.036486040090057285,0.68707029836333045,0.091819796998611536,0.065109832782030419,-0.00018448683505833025,-0.014412834391984106,0.4971438542236748,0.12350588069728145,-0.18233950582191644,0.03903781813499542,0.37586675691485305,-0.17360296435188455,0.21456334307250349,-0.36016213860426083,-0.59569609291848769,-0.49266057793372775,0.44237324314248933,-0.541224632996857,0.3542099780772483,-0.1745058380811,-0.39237380583912324,0.83465673546278163,0.92525042549062675,0.12005009804544911,0.18069299254696156,0.0749281674836753,-0.64839629658395714,-0.16318924263141571,-0.308881735984797,-0.04460847177662,-0.52057405867489959,-0.12741321658072413,-0.28948537961578708,0.22166701222475885,0.61690228008986,-0.20353679073329717,-0.1837599145966354,0.50716259226502824,0.40682649371014629,0.20002418912110576,0.19359533633831957,0.170829681258204,0.26865748915921395,0.662451595139863,-0.63401774342877237,0.928431302115856,0.14925183512126641,-0.036304229118855065,0.016019241785792265,-0.083074596814905435,-0.10814638022072581,0.68206062138950307,0.022127256267472757,0.0635540630432395,0.13403709302636507,-0.021373233177101214],[-0.50383098622231892,0.15036429504601839,-0.62399144404147766,-0.3655122326229811,0.28421367830370547,0.51821866097240321,-0.10778985843348593,0.015422200878529437,0.885194790614085,-0.12001549334587475,0.42652958191704665,-0.23232842511416094,-0.12564563849518329,-0.45584383234208858,0.27434052319254859,-0.51216526378889882,0.18588416163315177,0.39923290400884193,-0.48829200889199559,-0.14690842346469613,-0.017017224292931416,-0.1198931771288471,-0.047449707794800823,0.21030860444969349,0.32650810420773169,-0.23153516254060827,-0.30157718469302225,-0.44064073864308362,-0.29607197054141876,-0.39552586416091629,0.14557546578068947,0.20483257241876768,0.02723583605811437,-1.1722236755672892,0.25734745003576659,-0.23643300284698129,-0.032205262215085489,-0.17695750233856614,-0.73304424725263762,-0.22654709732992417,-0.11464151736787077,-1.1999272672230248,0.21902645100245974,-0.3485738042919973,-0.25764632021268591,-0.013874919120492758,0.5016993972362559,-0.65453738641268955,-0.49434718880909945,0.31406881492307959,0.64640106423382082,0.36414641230664907,0.30943784189763507,-0.16368276983776839,-0.3503438618925872,0.10900395549117833,-0.59731493899213373,0.08367397950753544,0.24156294120790356,-0.34923755420190455,0.3739455211714901,0.52064136489322255,0.81589851810908431,-0.694970682207372,0.16462424139393153,-0.29592403614324575,-0.1395941310225812,-0.19964777405786804,0.700482411216685,0.57921324332148583,0.90462112834586983,-0.2402716859472056,-0.11905845660956731,-0.64447282065635259,-0.027805898263057294,-0.26323254383483236,0.05775430366532195,0.98870721029340769,-0.132541602966059,-0.19603701141619187,0.054315414688614845,0.16510641556055319,-0.31981925914461845,0.0804191354739802,0.17631654843544603,-0.32284061938683872,-0.41171953444449638,0.1109692215190663,0.087048903515190928,0.28956938086277684,0.080041130456363921,0.31442552138482971,0.019104024068879465,0.4825184776919626,0.3235056497786537,0.11176062284403908,-0.12569042273106962,-0.068465654880532245,-0.73461513659605093,-0.11495928012250715,-0.56252933077534706,-0.6678338503571,0.075313707766129334,0.20302313928728538,0.07166443085795432,0.0851774475264532,-0.13014110554262723,0.11110390806381434,-0.19492015030249865,-0.048790618254636112,0.26517594174258685,0.1822923089497509,0.64994985421192764,0.51554969135698858,-0.32810530082420813,0.13491764267033887,-0.28181748201322609,-0.67247085617860536,0.44052219774772955,0.50664126662010189,-0.22363329308233756,-0.12633128072742003,-0.66083067587094446,-0.12362621576566436,-0.0080488134714423523,0.1310758631474053,0.092960931496302426,0.11050659124721374,-0.57244215983843638,-0.4228819513228817,0.79980907858260375,0.15135275348537514,-0.41408060877804775,-0.44165562285216536,0.208323785592985,-0.024506079442653525,0.19761033539303821,0.41082400481558123,0.026991821121054208,0.752122975121789,0.38739582795833444,0.13630722884016888,-0.31097690732165345,0.34033545317794778,-0.40430088395116914,0.33509177723199135,0.11112864121671251,-0.11224087530477936,-0.074794158593204207,-0.11623008018699572,-0.24407562681489392,0.0044957966933194451,-0.6291040479294705,0.74036482252421554,-0.11244135232615554,0.32845904167113871,1.1185334967224898,0.49602941498289238,0.084165426309611643,-0.21221862652135998,0.13330117444841011,-0.51732404577571522,-0.19652526421951996,0.66786659087967037,0.16457421150755092,0.14466588059391922,0.11490563105897685,0.5888451166512837,-0.037001944713973417,0.10854805598465443,-0.54105169090327787,-0.028778984418767587,0.061283750613725894,0.2673342925076499,0.24192077784381449,-0.25866157517219135,0.39208334526245536,0.30846461564570643,0.36383939471774851,-0.70442971656641939,-0.40125007476003549,0.38797477274217207,-0.26322881488224709,0.29197102301374761,-0.48516968550138179,-0.40623365849411441,-0.66215262967557065,-0.16934136448285084,0.23944595869396346,0.11569249760268534,-0.45722427581185032,-0.28185549326372,0.56079247446549374,0.14777818433864193,0.11270095816593867,0.29645492284765373,-0.31314552452321009,0.16012682872085962,0.31500685741139645,-0.13226028612123289]],"ActivatorType":2,"GradientAdjustmentParameters":{"Type":1,"StepSize":0.01,"FirstMomentDecay":0.9,"SecondMomentDecay":0.99,"DenominatorFactor":1E-07},"Type":0},{"Bias":[0.0,0.0,0.0,0.0,0.0,0.0,0.0,0.0,0.0,0.0,0.0,0.0,0.0,0.0,0.0,0.0,0.0,0.0,0.0,0.0,0.0,0.0,0.0,0.0,0.0,0.0,0.0,0.0,0.0,0.0,0.0,0.0,0.0,0.0,0.0,0.0,0.0,0.0,0.0,0.0,0.0,0.0,0.0,0.0,0.0,0.0,0.0,0.0,0.0,0.0,0.0,0.0,0.0,0.0,0.0,0.0,0.0,0.0,0.0,0.0,0.0,0.0,0.0,0.0,0.0,0.0,0.0,0.0,0.0,0.0,0.0,0.0,0.0,0.0,0.0,0.0,0.0,0.0,0.0,0.0,0.0,0.0,0.0,0.0,0.0,0.0,0.0,0.0,0.0,0.0,0.0,0.0,0.0,0.0,0.0,0.0,0.0,0.0,0.0,0.0,0.0,0.0,0.0,0.0,0.0,0.0,0.0,0.0,0.0,0.0,0.0,0.0,0.0,0.0,0.0,0.0,0.0,0.0,0.0,0.0,0.0,0.0,0.0,0.0,0.0,0.0,0.0,0.0,0.0,0.0],"Weights":[[-0.037713522148798334,0.01511416807142821,0.11833383459248904,-0.013709616193006244,0.074359268216987379,-0.022448941957050036,-0.0095857186062417,0.01007534923076674,-0.088505479520087652,0.087293954074586913,0.051801663444576464,-0.051036910967368586,-0.0056675047266040212,-0.020642914864690227,0.05599435190252517,-0.042233608772890091,0.018124794028578667,0.055339340331473162,-0.012382817955847334,-0.014576184950607,0.062906262808862953,-0.014650331373285549,-0.018120710251711646,-0.047416622448808038,-0.0302985477790326,-0.052289963162682265,-0.0092977451151626481,-0.12214734206218479,0.083001677306642985,0.10026394158198126,-0.0034121455959896189,-0.12984477435464042,0.0777332436061059,-0.13241876172049288,0.062452868087281711,0.02137625946220904,-0.043378556761630375,0.10485707113244487,0.014844159770511357,-0.027943330232649957,-0.0034227045649041781,0.017142270102471935,0.033375318587130769,0.11996141740670822,0.0020536046915966442,-0.076927886171202386,0.075141218509295754,0.0087210863310172061,-0.079433880244446822,0.010554430373026854,0.063642776847807156,-0.11550550705367516,0.043478171285757455,0.059076130759788327,-0.017227664311510838,0.15213770344076535,0.12057440311954545,-0.056605520350493328,0.027789927473405945,0.064604942301212359,-0.059108684293010465,-0.048683202581614092,-0.024633175743227331,-0.010440958517811559,0.064595149894639492,0.029899386287232807,0.045381665360072855,0.00276194689654615,0.053816714551637918,0.09013408304399495,0.055104569231319185,0.00019713438918964773,-0.0016903400466868632,0.096278979725744784,-0.0693313294749565,-0.035472277891441951,-0.14107561424210535,0.093939975849057208,0.0048111437226234736,-0.050994707794480724,0.0390319324840692,-0.02261824882496383,-0.02114591002608911,0.12010234243084804,-0.082038351399251808,0.00577388530906559,-0.02841004823823812,-0.040957176607755205,-0.11129941427489061,-0.067632724688564946,-0.045040803840698182,-0.072151019571194339,-0.091556492290124469,0.13679742651071417,0.081833240444994765,0.12467519474804389,-0.14934788650846209,-0.0022990350800992125,-0.087541332872947436,-0.049507875056060711,0.035863306031303832,0.0025959828542906405,0.028563143634074081,0.081095834127291558,-0.0011290823251324522,-0.0877264657644679,0.15946781098308857,0.025772108782747761,-0.12105675421419976,0.0026795988328493516,0.086787822239461979,-0.0466248747018234,0.064137035539701251,0.11320818727453423,0.071176562247209224,0.028894738469600424,0.12968008257114649,0.14756636548704646,0.00419519691500328,0.007376509190816445,0.13212043300181872,-0.016223457965521153,-0.20290052555949306,-0.024718172586597725,-0.062517017578693643,-0.11330956483793279,-0.100512268749582,0.036713897895711854,-0.1206885805171404,0.051851774272750992],[0.032182541732399761,-0.020028761671610332,0.07950218803563161,-0.006260864474047125,-0.033266736891020207,0.0064448038313049466,-0.11567255535774573,-0.071505430139048351,-0.03994025126734764,0.21808439493268256,0.097182007189877254,-0.027781179186433396,0.10669331925975778,-0.0378604983483475,0.041051125243624406,-0.11490134209077607,-0.062856672559654755,0.015718248185579063,0.090269447315020485,0.048852799614189125,-0.018730863151510974,-0.11525702543789498,-0.038560250703434246,0.11408688848812433,0.10773163566683829,-0.0080052723023841012,-0.066426215831672547,-0.021673752386071551,-0.082892102436274123,0.071685874669502242,0.021221487630855747,-0.11230330866104415,0.085566658616523072,-0.009418024844419854,0.026098927388379923,0.036290483125159624,0.091555864358787153,0.062885446663973069,0.023126829907034345,0.038978607667528344,-0.014020157724111776,0.035439345041063455,0.017961189679468935,-0.024849242937857334,0.11588207773423057,0.015601436495558764,-0.0208968640365325,0.049366568953336916,0.055694372616549741,-0.036671558236294206,-0.069626015832709831,0.0865395505059093,0.062514201708792919,-0.16786382479423662,0.086249659766987313,-0.136316663969937,0.0822415550701754,-0.040370819895689268,-0.0051798471882333287,0.026293459041900669,0.088817456572653261,0.13052536427072958,0.028549409577129627,0.080130273078053607,-0.023641668569332315,0.0098063186184375855,-0.095483907685372585,-0.096748959084880834,0.008256191748139699,-0.035300760507146152,-0.013194307374561308,-0.083613000093265943,0.012680803730518263,-0.043529653317283409,0.059531427720587331,0.0012721474649370586,-0.0099086846503479917,-0.064562474242502277,0.052738406509771775,0.016972653553991825,-0.016138165640430236,-0.047306618924228348,0.0902164584980645,0.056344807953591071,0.16115289392251139,0.096428737799516315,0.02821857441505397,0.074400638024447518,0.02742797943592986,0.01831555031084715,-0.089040580459249619,0.025058334655941608,0.10051389480788388,0.051378060463838415,0.13893366349143704,0.012238137150642677,0.075947492627128313,-0.089967966614542913,0.038177730724405431,0.0238343671869257,-0.010403527877051687,-0.03028033170217918,-0.030875074523774935,-0.081192367365785986,-0.082536459668431025,0.0035409410745365828,0.021906330491267854,-0.015730987924503174,0.099764174036145736,-0.059122531299427343,-0.14353426432848856,0.099631355935878407,0.030313132915757521,-0.049819752864451373,0.0040649614846978294,-0.031478264120286863,0.04642485375243207,-0.0055216515274492195,-0.095203972420622715,-0.037550362463056652,0.22350330265429,-0.070418740463469479,0.085787178301845832,-0.0503059354773347,-0.065039842691454908,-0.1200659050992425,0.083075867781565976,-0.10632791467838371,0.074596517464394232,-0.015590308406382362],[0.00947091311896205,-0.1071056123803545,0.08566326408239644,-0.00904986400138075,0.11755175753080775,-0.16080409396076667,-0.14703845239780555,0.030180586911381525,0.0058475061578128016,0.023673941745698181,-0.0065993645587618457,-0.013076335763227091,-0.067416883717281245,0.054434347477353942,0.069822305661924614,0.081783592899698443,-0.062631281310028847,0.12252719749715973,-0.10491290945090423,0.11354833517864081,-0.036758064265743788,0.074875814789752457,0.15500679617614241,-0.13634410762650057,-0.063975646915723217,-0.10590321851778387,0.04238682875755001,0.096992573092113579,-0.0082890033416530614,-0.06045395169724771,-0.074737629097837183,0.029302527189345295,-0.052253803966727581,0.019883332647792643,-0.074163726194328025,0.031397521933204178,-0.011214810468634465,-0.056951784023046792,-0.067794556683094628,-0.020062351143525958,-0.19788032217319185,0.093499403805596654,-0.077245162100052014,0.027285727029633083,-0.054245136418257754,-0.021908266771860616,-0.16875244645707249,0.026815059822504615,0.098404316695950317,0.07266244727307973,0.019410460298548704,-0.0052711026403731518,0.0238590193976629,0.0970513932505438,0.014792629438043917,-0.011090953044903654,-0.022590631359735904,0.0026656152484900307,0.0098007139659484349,-0.15037753825057362,0.0027262246285116262,0.034734570505511944,0.065664663523094718,-0.066386861315757745,-0.024269165832634353,0.071142301666574315,-0.00818161684845349,-0.024738965813721533,0.0014346926008236437,0.11286793638722781,-0.11834185606730109,-0.0042013474223121,0.014172547212434121,-0.032828784270855185,-0.036137952811804194,0.063708902498385622,0.10799097480943956,0.034924696684851562,-0.0057942604587090055,-0.00022352351854065372,-0.012932247427288749,0.0502025551786521,-0.033981694614277441,0.077995310142578517,0.046270216460795051,-0.045707973740332752,0.057879510754044718,-0.0082778341761657829,0.029851122017597664,0.089619866031577872,-0.016871021466909449,-0.035923470355947042,-0.072812468191991483,-0.019482873370410082,0.13816291619932811,-0.07047665099685943,-0.0043967310886982988,0.06588553565300681,0.0014477296822297562,-0.06578136510591201,-0.11233986917003475,-0.048691590491800926,0.060343302637716915,0.019926897507374534,-0.032088860812936382,0.03331797272409108,0.00836364401046524,-0.076799914604231648,-0.061554723014678354,-0.065693198213004955,-0.027801142907507442,-0.00094513232462194576,0.058598590339134726,0.024204632614807823,0.067461080173146032,-0.08067830432615139,0.079837856316706785,0.035113302245391269,-0.037968657221539442,0.024415777307659009,0.018534138556405951,-0.008937959196923858,0.026220771154756163,0.081828913512648579,-0.0035287648284909119,-0.015066887078654688,-0.061982129664861808,0.037120132253684227,0.071740194608755734,-0.13452028316779591],[0.016800364405157985,-0.17537488791221673,-0.040863708473003836,-0.041487349118256869,-0.097976494373124681,-0.10567608029261329,0.0097188479007454115,0.12352462239812734,-0.0062009442930189554,0.012534959303862404,-0.029792659735185745,0.042262788586346189,-0.069483153588356758,0.11145091752819437,-0.1081072657419677,0.019682779241862486,-0.11290574414932371,0.074755006739041674,0.12135385063527028,0.046360486759873247,0.01840998282236388,0.070547173356382525,0.032048270038585472,0.052357519647979661,-0.12183380857759302,-0.060614302036252163,0.0064117387648863731,0.0013121647610454049,-0.14877722219448838,-0.2562738184461848,0.0097678902441241926,0.043209927384124533,-0.020552193495363458,-0.033122284667610413,-0.048859324057542924,0.11280919581408179,0.041663074624021065,-0.015558494559110816,-0.094762944277075142,-0.015007249172556417,-0.071494863678419632,0.0624782805984315,-0.10518149925294947,0.052132974697734216,0.041056201955952519,0.04258195399375643,0.047814700200659865,-0.073895228754482872,0.029817153073083053,-0.089182970675008855,0.033012145676959925,0.11566161228029556,-0.076553326242402825,0.071829677540313955,0.0053530651068537539,-0.021066640887230991,0.023267726245934088,0.033534404154716008,0.053575823555726369,-0.0013060261604086088,-0.032301948418896186,-0.12376303431658921,-0.075189014429414169,-0.012039434174525366,0.015481909820616714,0.033986035366018831,0.042407346731309865,-0.0060592840085662951,-0.14476133747105466,-0.03318597540171369,-0.075373002179808662,-0.01572391207501031,0.065629018104370107,0.0713940638440533,-0.0617256023495045,-0.0344278971430328,-0.08978753527665663,0.073268045410878668,-0.0096561895770951259,-0.03410974740216699,-0.0065145601640748353,-0.099277658953187978,-0.0951126595557579,0.036785978447257894,0.052994134532589568,-0.0660641398256443,-0.00932973757701067,0.069145400704757443,0.018130731068257046,0.037100433300420052,0.13095397556192792,-0.035466249347379207,-0.062390938716042427,-0.0234644649105916,0.10186480692835914,0.086802698948319656,0.0026703226072388522,0.0056070993014673814,0.057732778690127086,0.050981325174514237,-0.054389901793930676,-0.036114808686654516,-0.045932144297083928,0.063898850926709119,-0.092396609681021979,-0.08109411849349614,-0.12141610933854724,0.0076622278942699894,-0.058095810964454826,0.099261339955252118,0.0062361838883213524,-0.090531995763926024,-0.028999555801524031,-0.0040158429307887928,0.069400430344780675,-0.020530788517413887,0.071664349219088735,0.067016798260509075,-0.034285959326220722,0.020881725651305819,0.11812263460280253,-0.022209232401914469,-0.034028065894903266,0.068216237522039716,-0.054923164862828132,-0.0047560410341906754,-0.015233564857309466,0.14645112384579703,0.040953820186140931,0.0047021889178768305],[0.14477411912121921,-0.16169675218194088,-0.026884686219849518,0.0030968701804211288,0.023100947596930637,0.045047196383836287,0.12736264231703887,-0.024662680833728488,-0.073675416304406632,-0.10418661190548674,0.04191907162842199,0.058162568607225081,0.10250520762283991,0.015667701423531775,-0.010008436917063348,0.02965354738418409,0.080508523979179167,-0.0062339790331382271,-0.039284309703146121,-0.041386896874061906,-0.060859954701092435,-0.090560018356202157,0.062713420655324328,0.085185351976794915,0.015185682358520873,-0.045015756467868366,-0.060277232640165247,-0.0099519929321379378,0.086032418316085768,-0.0374050142322374,-0.042171382026412664,0.13265084798811766,0.040482271004278189,-0.21350637786555207,-0.078919081080442752,-0.094447704132391674,-0.035925260487542042,-0.089401338544998751,0.033093357396343628,-0.0811484410177332,-0.16478720464731009,0.042604484380429089,-0.019154140306286024,0.04890829051849848,0.054904426566299971,0.022688011373556308,-0.032754567088770711,-0.040298351762015912,-0.00893449415801772,0.061912102194098075,0.095047075091087979,-0.012279166922879857,0.074637936943975025,-0.02480361252310093,0.045787624300384008,-0.076439166768536945,-0.084156690146536151,0.014581204042062614,-0.00936545645658654,0.045700288005259208,-0.064646194617497141,-0.064004104174941984,0.041007380302222084,0.0418961442278434,0.085025510324892042,-0.14947647905806583,-0.060509945808120434,-0.01222865961152067,-0.095109398061498138,0.022710964668917654,-0.10520629914754562,0.089984828528983249,-0.052745632666995258,0.057232564020790237,0.054450969899552726,-0.090269635784169466,0.045358072606553321,0.017707793511471667,-0.029695162190475865,0.032596115653240068,-0.088542432334701077,-0.0035150836804013403,0.064208789811730227,0.09580790648432691,0.0028249580623160089,-0.10550809426236825,-0.060024325043844064,-0.018973752188298613,0.037880613555200934,0.0019689701286172089,-0.046054413390270089,-0.029933917305112932,-0.038333585253143267,0.017030066167519595,0.16536677537113978,0.030610991827413957,0.087936156081875869,-0.033955974415813481,0.010545510921787052,0.018921416492608052,0.0068363740392781477,0.0071590001137521522,-0.15713458003354264,0.0206535786670123,-0.07142064876929885,0.011219562378111506,0.060181492598247878,0.09062293269130145,-0.066636665797898578,0.041960425686176854,0.148415134746096,-0.011300423162974624,-0.043310875223920867,0.14449668206269412,-0.090445828425944244,-0.021694163686207024,-0.019807743419024981,0.023872180572797882,0.044315967395066727,0.030705168895034926,0.0816761229475464,0.10517187619550568,-0.087617235362949963,0.036465145049429742,0.0026751173824963595,-0.0691211498205291,0.075618386182548736,0.036581710095787444,-0.045419671265613547,-0.078132073563385057],[-0.0060125711770438895,0.056466314383520816,0.049322914675810355,0.11453359921890151,-0.11692513145606921,-0.075767873075475514,0.076973665901401089,0.038078762926168748,-0.18181346293696446,0.14955373704555466,-0.065704869294459428,-0.00022324407973227985,-0.042973309411883182,-0.023502784228034739,-0.023612935832921133,-0.14297193748643164,0.011614531481421209,-0.023074968818914129,0.018931755339497845,-0.025092883295203979,-0.040764205810466643,-0.027426164103278416,0.041636623460555806,-0.066683057443426341,-0.11222064708751338,0.059389458981704925,-0.08756154805367973,0.056621102941213752,0.061456099837141613,-0.0052721984491123216,0.017869644808005094,-0.025522215578875865,-0.1533451720996335,0.06436349671117822,0.095727331302834437,-0.0067287438127587923,0.08569701420246445,-0.072890161850351062,-0.10514883550810142,-0.018494405754327922,0.045903051659080679,-0.097271203292326261,-0.018318578207048384,-0.083295008474798662,-0.09067816186123269,0.0034155974133212954,-0.0005009743757837836,-0.054026756791502865,0.079487986899082944,-0.012799007673829998,-0.13549166950472272,-0.012781486141758084,0.012575290522876417,0.012351054363539294,-0.11694487072621479,0.039536282091842616,0.0025477638727587275,0.049580220011268356,-0.024671286482715722,0.06544111341026547,0.08629602291937831,-0.057648625687823418,-0.07198410709664492,-0.12639566152894208,0.018960211362942007,-0.14754518731993405,-0.081859255599177283,0.067848995009094262,0.00724254156193688,0.079867040854599614,-0.018439354971458953,-0.066993239856595055,-0.10632140947155344,-0.029270190606418087,-0.0038187966954170323,-0.011282862920832514,-0.029720344200366296,0.068186457716509524,-0.019738689507865205,0.021806239274306676,0.055243545392127648,0.036283799940797189,-0.10669851241945388,-0.028195906854251218,-0.022605694266157016,-0.024798084077745024,0.10435733161777477,-0.0091108715143248219,-0.020369485821286469,-0.0178975201191983,0.10188704981076355,-0.12881044919951343,0.0046756224686384986,0.060226772190702264,-0.022684724885803444,0.08373811599769547,-0.035004512892003022,0.001944645051694004,-0.02288304835771288,0.011968020191340136,0.022078598293974114,0.061843548986108145,-0.0080699406329524121,0.14241771737689452,0.17168568285859995,-0.032682096727172046,-0.01488420086014822,-0.092682404332687443,0.048809268036527326,-0.0028781187887308422,0.060094374442221148,-0.11697247630353289,0.032143419815406096,-0.10705821655394893,-0.013582944308650464,-0.085099143759740467,0.037116189286843279,0.084152687395438935,-0.048342597155722408,-0.13265621662999205,0.047189293178744728,0.01892522222674764,-0.071486590508628267,0.05413290761227868,-0.0094855542996880021,0.012316560545901837,-0.040744496440298018,-0.019436958090245909,-0.056861473257827484,-0.065503125168937068],[0.037930018718326318,-0.01187790433923479,-0.034603959730950283,0.017163965530482366,0.077672911970727024,0.046118972411118592,-0.019592842829985527,-0.11988464964839182,0.048672985217192273,0.056943587167479971,0.050975228401291338,-0.046923781583242695,-0.062530687795415166,-0.0014173193527406045,-0.038169186029587576,-0.038158670755343967,-0.067199674901213841,-0.12224299324617323,-0.11630333332106234,-0.035590822070249849,-0.081504147028242629,-0.017964817726806359,0.11520021802513658,0.076243684598633413,-0.0099564672570228857,-0.032492882859221944,-0.038670038372733105,0.015858563077378283,0.07501444341334769,-0.024441381691346537,-0.11056843180349785,-0.027753001893695294,0.024416535246338245,-0.083907073820585223,0.077553934097129532,-0.046300687559619941,0.0022095575396916122,-0.077486058694362814,-0.012132846528264647,0.052298296919396955,-0.094380509404405524,0.11941391601250005,0.075685335795261752,0.065619682268532639,0.0016914397197840376,0.00847315020009507,0.018386127995160737,-0.062321941845744723,-0.086476889795003273,0.0076483041024116537,-0.072383365564828814,0.065654202710756934,-0.030723465799369788,0.013613343074925675,-0.086228284861752644,0.06037813196007779,0.010152831299409665,0.081169712702280475,0.10435022148734288,0.066148061062261468,-0.061493340182163909,0.032513821289363719,-0.010661380052677912,-0.022874336533151646,-0.042955854709784171,-0.031482773446812315,-0.0011988949872995499,-0.039321501648563,-0.046296108240157618,0.067378138222360773,-0.018121118882501806,-0.039285012881811909,-0.012954353312745364,0.024674641987143746,0.050491860159081352,0.12694682146770961,-0.011817714661807978,0.17534086747113384,-0.046782778326195089,0.033165070369384118,0.10228464825031571,-0.050867200261467169,0.029041161502482055,0.032311844793148588,0.071190820231265675,-0.050696333254742577,0.034714130028871894,0.053502511683423959,-0.018229150337180894,0.013452190452474108,0.022096849492635521,0.027859667044487349,0.01092283804252322,-0.017421489299384692,-0.0062560584366353322,-0.13747399990070452,0.052112176263933607,-0.034445874929828181,0.16435139686425127,-0.038496318168179562,0.051616354138551812,0.0037907475257264278,-0.01312257008532111,-0.034888421469269404,0.0501439732233562,-0.035366266511052617,-0.058518974182777524,-0.080511294182855631,-0.017710474935947153,0.060524763613263546,-0.018451988346422532,-0.014654141212080779,-0.062706397915961332,-0.13997757992793974,0.067353134378695445,-0.052511797689241427,0.036023660531846073,-0.003054028725183957,0.049773303407690421,0.026417602817233137,0.051021881464892047,-0.017303504466828736,-0.24893370417781607,-0.12243774129084178,-0.032226028787621756,0.067569233266236928,0.03022282176126868,0.043622934784907183,0.063688778952324387,0.041368873655021975],[0.052273735581258127,0.029096574700016874,-0.050540321226408023,-0.043142387466077105,0.13319458138697776,-0.095718659329816574,-0.030889131852310847,-0.0060879171488611734,0.11858278256850985,0.018342595834185314,0.070640066197066115,-0.029867232524708624,0.075116039597454762,-0.012211414079709758,-0.021927210852479145,-0.067750450864073525,-0.099240607141916251,-0.0049533882193042895,0.049845060781076957,0.0079743576435940353,0.10619248948567818,0.090546855150023711,-0.0026185140383639715,-0.026531446908361862,-0.039982897157181341,-0.0068835183236519689,0.13369830957438211,0.10133934849551131,0.11499361121518274,-0.019897683400872373,0.14827727859989345,0.02512190201602266,-0.030667625457657815,-0.064324914981073469,0.046403902420286552,0.022957440442032139,0.0065923813485024825,-0.055276733968359616,0.13895557613882542,-0.078450336094754256,0.13372446436866908,0.051332246586950271,0.0012076157623337278,-0.025403214698745135,0.002023808884151154,-0.015367851095267358,0.061006925756906631,-0.18877156890921246,-0.024725404086038259,-0.088428042216521563,0.032688666853679556,-0.10569521588393026,-0.04457861848354891,-0.064094186675906828,0.089900022105822056,-0.00028061288490382428,0.016878010155215908,-0.061073263884362419,-0.10104670887434823,-0.035173913946581349,0.060615380385758193,-0.033514684879851472,-0.0601538582870599,0.023609296249358126,0.027011888380912126,-0.048728289883112744,-0.0085516389517903881,0.042049348659578614,0.0037874881178393627,-0.019468550677068968,-0.018161149078033872,0.028968372950792482,-0.0086663023506465091,0.048958147683921593,0.013855042775476554,0.067610004759394923,-0.092113507972236552,0.10277019616473548,-0.031388742194968726,0.17130489954650124,-0.077176805510407953,0.026438488124105184,0.20423208266284723,0.047067133100272364,0.038810137683246274,-0.028408418492440003,0.097081818965785785,-0.097182804101045683,0.049881901734894839,-0.021003227695233981,0.050211415375872467,-0.051879350595250895,-0.030127512347963379,0.00047191943130437921,-0.1063874706747165,0.093134239766966512,-0.016561659576280023,0.08153182046199664,0.063693371384095171,0.15473700272163912,-0.080856090510741829,0.014129580642543368,0.0094879322186384972,0.01662478518947624,-0.0761603907383641,-0.042599702150746627,0.025908833105454828,0.017728622339186883,0.096447296109419683,-0.039443063453277277,-0.1238906091852463,-0.04105966967492973,0.064891851192455691,-0.046640135940413219,-0.0069572065397955586,-0.027256319699750672,-0.019934339078652771,0.01937840478367165,0.024809612173211159,-0.036008399997124033,-0.023005053287785883,0.0018432462268670095,0.085578893913467471,-0.15948101244316443,-0.024630108702384235,-0.097760250109986332,-0.012627105913944232,-0.068996037853000028,-0.09267930202341311,0.09019120589969648],[0.087692027750181645,0.023466542245559659,0.040154761379283768,-0.061681871997257706,0.020245348705387314,0.002381244196775335,0.067574578145413691,-0.064098951358021877,-0.032128041619979182,-0.020375093570068663,0.039643859206039744,0.083916479119221454,0.01891486274099707,0.012648096095014631,-0.016446638755710213,0.038821609529873076,-0.073547935062251837,-0.012808655104555469,-0.042466721534836847,0.0615429930821355,0.040379899432051447,0.079558222737918252,0.062126684011861666,0.026415456102350632,0.083370280513800465,0.017160038289696165,-0.04512326950876016,-0.031601782753117015,0.020084132731160453,0.0039219443010170057,0.045722286366973314,-0.046294926769433163,0.048336130784079258,0.035052355661865549,-0.075828045730255741,-0.13034176396785319,-0.040052703841014163,0.020186653443668327,-0.024703363911610477,-0.0041525479192311074,0.026357612887267137,0.098668074151995716,0.088742274727733952,-0.070099578047179714,-0.021212492113959529,0.074505239138140777,-0.043741325031264294,0.043774058523908088,-0.041039483855261231,-0.024438421153419956,0.081262499124041362,-0.073493620871450158,0.022889066363576561,-0.01028318819827701,0.062404848683711496,-0.17560611609829513,-0.15275012442333,0.10966204867835368,0.028461326933302257,0.044276688577202787,0.045045347312276163,-0.19816099017549327,-0.011960404827360306,0.038162754270691136,0.024823964670445751,-0.060031467315735713,0.074203350951454,-0.0097613083934324323,0.00067679304532429973,-0.024457953738583997,-0.16191755174483163,-0.0097495399219844226,-0.061513496292491705,0.0862125616546841,0.031931115083512915,0.11648851301966895,-0.090629826049496917,0.063020770907131374,-0.062853779450927308,-0.027607932550741867,0.012026800250423646,-0.0800206524210475,0.03704914890605749,-0.015839545675111377,0.010909939406571105,0.010650471495501588,0.085305365836630481,0.0021320287289457668,0.0240437758438415,0.022657835756186608,0.12292712660165135,0.0086749365674479786,-0.0021899872197068972,0.07505412266609135,-0.22434286494253841,0.12079234346956815,0.071016170846777041,0.020861465543058906,-0.087432238082485458,0.0075450685792522957,-0.0723786624842706,-0.07366349322125984,-0.053344770045341487,0.031148580042665113,0.14971960214964605,-0.012411797598429072,-0.0330938888707282,0.039735510582634456,-0.011720142988589944,-0.0024565683609718879,-0.076210288438396,0.081012698615261419,-0.1168463513514806,-0.00080391354683908417,-0.010677426682036882,-0.10139401804867057,-0.049224552409340254,0.044309638516620224,0.059175264933247963,0.037159959842605984,0.045052998498490607,-0.081592002230590724,0.0062510425070787445,-0.12744191021259652,0.080240110854073884,-0.010159955323486809,0.069647979406178742,-0.027474047280891079,0.071882329521079188,-0.019877447745124743],[-0.0076907091231200944,0.044031992926782386,-0.086173894706015317,-0.025651794667077343,0.16358753659437236,0.026961587305971577,0.058616709638532154,-0.023205730057335588,0.018114810744488802,-0.046809093004983829,0.028240303412662593,0.1154861278230022,0.015325305143979749,-0.19496668891183733,-0.038013134004962416,-0.034159165443369617,-0.0053444077825858,-0.08147932327548002,-0.07099103515770655,0.04993196773636991,0.034978625972176262,-0.085738877249731324,0.0464576544565959,-0.0067824894632324481,-0.037143130475502106,0.024742387728401757,0.015946422403768871,0.049211507122211291,-0.062948779946126868,0.03973023721352735,0.0804042965618426,0.10593746838294206,-0.03153550509921034,0.058097948260609711,-0.0081079912919872245,0.047584681387352092,-0.043303076909120046,-0.030708457655654095,-0.094457876999421625,-0.15172463338394995,0.019341664278428657,-0.1452102363896805,0.087576367980625708,0.019170948462725563,-0.0075999403421137994,0.002037558955761281,0.17689930370960003,0.076843079942169781,-0.049582465124482639,-0.070170936505826648,-0.061045340959076683,0.040330091898067522,0.021100117334235904,-0.073278886449489336,0.058723329358652251,0.10954763188065722,0.053280610067988475,-0.01534265516940631,0.051071807591338135,0.077087896432223052,0.025578615086172811,-0.032843879388579612,-0.076850625387973742,0.010866136381583565,-0.0915816630629563,-0.058297529044063386,-0.034606928111051254,-0.082904767916130315,-0.054059236107838,-0.00431512798184773,0.084852089017984036,-0.053839579128465737,0.13676665543738845,0.020674700482822866,-0.0770660476982352,0.064178989584476515,-0.093134386181034465,-0.03710555689890168,-0.036893188638023357,0.039359928674446945,-0.041401864530599949,-0.047941411481497505,-0.14037331013099216,0.067584579001036454,0.049510337417237232,0.0066951217956795952,-0.07981563502473682,0.040057756996539094,0.12470183124260784,0.12082546778501804,0.084991127902030061,-0.03114365086649349,0.042905201696551244,-0.062675751739059954,-0.010730553364712134,-0.11957254897491715,0.065792374021809916,-0.031922197985875186,0.077240086010952932,-0.1548449514156629,0.016231239232550758,0.018251074951908534,0.0058255901916671069,0.071322088591485686,-0.014019701742401487,0.020431102405803387,0.051602514809601138,-0.028513443397520315,0.048467949292040291,0.00598096007387663,0.0876289242221677,-0.083639443842867547,0.047617728252077648,-0.077775453894897484,-0.041830902542634336,0.061271252416703226,-0.0749969547773842,-0.067542286714868116,0.023016132251854313,0.036514084662698586,-0.070015005684305423,0.037944291406243613,0.029876036475297952,-0.023684732730571478,-0.049940111740583458,0.0154360742174029,0.0099722373243156352,0.021528062884479081,-0.13356737870639265,0.0093021785863477632],[-0.050679178299349134,0.053322914685041432,-0.10049375186007319,0.10116292997415378,0.11782464806383479,0.1072191886492026,0.042861948757569941,-0.062085037214466759,-0.03577529573273229,0.032570787811492231,-0.038845929812893684,-0.0076525820308868857,0.068373569432903583,-0.091689326358196308,0.0017695936829628925,-0.022111139430175682,0.05374507408828947,-0.034798564061840065,0.024749809347718702,-0.039399417130582141,-0.023288693597754869,-0.050935238132992187,-0.11593577292192184,0.00049567654821831831,-0.040065258445934657,-0.052727409960482294,-0.021730213875520453,-0.062593082690614477,0.08642181319286607,-0.076555221643554716,-0.067491853205241842,0.0029993257603362143,-0.080335337271487783,-0.0051329566213780767,0.0062994923981150577,0.040751481377002678,0.10790056073755708,0.12178332814081636,-0.17089821818378756,0.063984213896202444,0.10053164844398788,0.046486709065919792,-0.037916239497532825,0.08170214083390534,0.060262199946266679,-0.0714536174975698,-0.0097748826871977713,0.01026429699182236,-0.063091055140593891,-0.0029755612178296283,-0.021348271808071678,-0.076605473994691115,-0.085672201593364486,0.022718300939810886,-0.039703237740156987,-0.012624763752714669,0.090188727174341107,-0.1464098689935755,0.013413287905699151,0.065506248135791423,0.029182241039187231,0.0503849054161698,-0.00095886325835528032,0.034588713514848275,0.044261178565775418,-0.019071420154707728,0.052735542523496527,0.082300520092602442,-0.064973061972061319,-0.010441348865958539,-0.022485997763749366,-0.027926439491376583,-0.12921267947410281,0.094013721681966977,-0.11918923638814495,0.1061969546781537,-0.021603958304811502,-0.052764016175263689,0.12082657615215879,0.10833234703959574,0.033061765830863669,-0.070164508962770322,-0.1033833808624806,0.11145565651846776,0.052575970691821121,-0.14461076535084275,0.10361110678780529,-0.091669752814106387,-0.0023640263062531634,-0.017939287908506477,0.12742537247602898,0.0598762928242504,-0.14792691720857321,0.013724860822730183,-0.022832266806890107,-0.016478760810470443,0.012287729964221516,0.037423307494772746,0.042752798194503547,-0.021614105796567366,-0.028519788153832559,-0.058836366986821716,0.014096806793447325,0.090701478272926309,-0.10148857102875088,0.012405428528120937,0.1150523047622031,-0.019534357748926177,0.050031705506805454,0.051058968224080764,0.0076210686494821676,-0.11003801081450236,0.003980375811739368,0.05025350050177612,-0.15119242205912858,0.0447802857234082,0.0798504613868264,-0.083822848796067412,0.12246856139134134,-0.085434282857805521,-0.029040952032526747,-0.0016112547795189233,-0.11757585437671629,0.027945296654795036,-0.019498120948096765,-0.02129812011722269,0.097928168484580552,0.0424125710217794,0.12119945231253228,-0.00020988252629270109],[0.11359740031439979,0.044306262525565514,0.01851831936296125,-0.12284111937993739,0.076500558200684188,0.10459712691641181,-0.04792975758123294,0.022880947596464196,0.0035267413730243097,0.055863602492609646,-0.031316685867558432,0.08118561760691638,-0.0093544641718674784,0.043432874930413583,0.010323704720493593,0.030033044403667615,-0.082639893168403117,0.0051754528378152786,0.054269859889197587,-0.15842235513731917,-0.044302180297570055,-0.091634707041811966,-0.064811289641006825,0.080572891965359814,0.074163709293215349,-0.023962213232386367,-0.072003189992569827,-0.03684501083241646,-0.017312828942913056,0.15140316416547778,-0.0512563796795058,0.016806733117376807,-0.036691872671056738,0.0088623366079623664,0.075358979247265,0.031693789869882368,0.11061521823756092,0.00081665194385061328,-0.090039568926883654,-0.036096365813655849,-0.016599306842273513,-0.1213206987838877,0.0530334599687237,0.033994965140906448,-0.028869592886101171,0.015469513332730864,0.080881744723834123,-0.026605333987716778,-0.0075846737096305393,-0.028128024649579048,-0.1334541714089183,0.014300676887988556,0.11331298418327991,-0.064677923608438673,0.0615261281666377,0.038184731150847737,-0.039806841260082763,-0.10266064190611982,-0.11766415426910437,0.014731779827960477,0.072397223396120883,-0.072652117565947555,0.13235432727410432,0.048689361965720879,0.16202468373565448,0.083400208282420979,-0.032392328152002735,-0.1264170088135283,-0.13353967290164021,-0.00020927222997614388,-0.029373597758826031,0.053154345299062551,0.0014673789172078289,-0.0053523117446013652,0.036986020826022634,-0.093740865175688123,0.017835217918280456,0.0097452647004398849,-0.018311689386385263,-0.00029028604593842408,0.12471852118182981,0.10209750648294586,0.056018798510523042,-0.051276418431097426,0.037507316923592909,-0.0050260402423367356,0.010521266117779307,0.051351710304894604,0.048593580349835255,-0.026305842992857202,8.6322636676026469E-06,-0.041894943569943915,0.12223515915710137,-0.029532900256214838,-0.023887617527869186,0.044314360179232092,0.065512429797701291,0.0017880545020733576,0.047196321887651306,-0.07080827423655936,-0.1257000340136139,0.0448023104051665,-0.051917601273188077,-0.046357474537146066,-0.064299713182830828,0.019094792442983854,-0.050197222023028246,0.084488188010172521,-0.092252813748409129,-0.17591660279022783,0.070305991544699617,0.026178602027459946,-0.026760403677643377,-0.0203937363293034,-0.0018305937228298324,-0.1192379082083538,0.0095361245618596734,0.026695561556011,0.011450353121182371,0.0995367055585262,0.0085997289375489231,0.015247764999832636,0.087941038971195831,0.055471102296950028,0.036687068219903446,-0.058156226912094426,0.0041642707756213782,0.0012363285054285745,-0.0017334414605805254,-0.006857028877224591],[0.048935405015097279,-0.0033605300597963966,-0.07072550831456903,-0.038839266978495365,-0.023846796297491948,0.0146696945911572,-0.044079292648941219,0.036953644064911806,-0.050685580877787,-0.084008700326877128,0.077601845946806566,-0.079139054751786592,-0.038379047094490359,0.064946102702565262,-0.11235454520048357,-0.0070753955582085505,0.0452870549882452,0.038836353978100459,-0.01876110830690484,0.0592184613055253,-0.068545437326784364,0.045882941532362317,0.062825935700611069,0.064203166823090907,-0.049612349816466408,0.054935086546195139,-0.077965399143495678,-0.042242993816105953,0.0089949919013549082,0.039314049601026746,-0.017518171411724921,-0.051612609385224321,-0.10398694766848646,0.031672037921477554,0.075743996273704844,0.011171830655643396,0.035767390768801671,0.031549217297687178,-0.05114140634054,0.085353651111765516,-0.068730527945609091,-0.11723547395804206,0.015381001626555759,0.043120320716932739,-0.052692370464551004,-0.033146860234977052,0.16481344158460407,-0.14321224752602665,0.052668795193148071,-0.033078630936730156,-0.034816320385352088,0.025580099673116391,-0.17254790430475103,0.081161682723479539,-0.041381719467329207,0.0885184546426761,-0.08948207109509794,0.088335216402577479,0.12809754448237914,-0.036166615317018015,-0.020595107401621841,0.019554025248557462,-0.009707465975127812,-0.042720268664108364,0.080067515135628251,-0.015277952066025852,0.066540403423385269,-0.015515982020641871,-0.02603302786570107,0.019602967582729981,0.061437009991803238,0.060966961471224178,-0.066216020646099716,0.094840754240097011,-0.050066791368877268,-0.018569817230446432,0.063980854955689781,0.17040205322094343,-0.0044371462402558251,-0.038181980654148011,0.02320855734109176,0.0860035604087405,0.047434000825952005,0.030949241827217169,0.011621704119625207,-0.013903924679864137,-0.18159138178315185,-0.085114512292748565,-0.035034378300432968,-0.024145272500057862,-0.085167207466090925,0.019386721711595951,-0.095831704116343772,0.022290446271245178,-0.014377314358656197,0.14438094046310968,0.065176303190206869,-0.075768014029353681,0.048661912349409316,0.094217124761379112,-0.05446521063671024,-0.024997278716480741,0.11199364868725395,-0.03783705969681838,-0.137144844849884,-0.03317098724443699,-0.018575820758668281,-0.17740745893959822,-0.014260348066579824,0.0941621232721239,-0.087595960663532341,0.020763449074447174,-0.018922029683810918,-0.054555918810072129,-0.0670260416133108,-0.093356776099820932,-0.019879283613194004,0.036386162784271724,-0.070852599190499979,0.089970766637258309,-0.028279243695560823,0.060142811108508436,0.061071505091212591,0.011188417617137594,0.10418236173763501,-0.1124043985747266,-0.079410442271634116,-0.020828978437581521,0.13054860506032506,-0.0069207051592852205],[-0.03817757035424553,0.037275345810658146,0.050000299905137012,-0.0043879440942543712,-0.076824918061621339,0.0073831147883221216,-0.076475929020185643,-0.069667138755794653,-0.00596228568694229,-0.000854560740291718,0.10448640769739286,-0.13240327199936638,0.0038259355976380488,0.0080414321407284474,-0.086765879559453363,-0.10096545270894505,0.016733577435346567,-0.10710962787919232,-0.13806986854970912,0.14215889427649259,0.018519336967742266,0.045987321584597014,0.024612169106177788,-0.018360194551020323,-0.063107398542383425,0.14693627359359116,-0.0070188990913761058,-0.054576969292569749,0.024405119647129093,-0.12957039984332786,-0.0057024207587358213,-0.037624061532439974,0.047544745998665823,0.12318369143103058,0.046437886533789288,0.088808361852197981,0.0501611747967361,-0.13233565778322179,-0.022435841071447967,0.09698919261344599,-0.010266018273609429,0.030420924380593597,-0.029825077269028902,0.022164148646714912,0.027576626144065385,0.07044443663007649,0.013201323606122063,-0.025416766930642671,-0.096345822273513765,0.013631082601702881,0.032835369393487315,-0.054190914497775862,-0.0092925820437792846,-0.017936317384192588,0.021269607593044998,0.0067883937412627137,0.0053222656520244037,0.065323768144700242,0.026461132562221233,0.087464603693798687,-0.0057664686054689895,-0.0660865664852601,-0.099703001850768649,0.070782678282627493,0.0020220980412344754,-0.046363373069715538,0.0098012998422006021,-0.0464785777471718,0.011549475989789181,0.0081403080808068011,-0.023548373776903615,-0.0043552609991644063,-0.049028550311304236,0.11096573101647288,0.057430988098468715,0.14976139117466336,0.0055041380484713246,-0.058891179485917815,0.004356211119614573,-0.11577387882395882,-0.13672559982249738,0.025581101765085861,-0.05159441434888213,-0.0069791324603000072,0.08182824664910264,0.049759910383593273,-0.020622422558237593,-0.044829949481533113,-0.13058525341886346,-0.050103242785772162,-0.12347300612731335,0.087481995755298733,0.089751355293672216,0.034157772962857783,-0.015976701273363841,-0.11156015746822764,-0.0080359995202137838,-0.069345590911919927,0.11555445913116418,-0.07914339284686038,-0.045862541032859958,-0.0806757912294748,0.083521103113971956,0.0019599729516895184,0.027009339132317529,0.099886358769550349,-0.032351224216392846,0.11748492182048824,0.039188755590028546,-0.076731714038488219,0.0039871780983169328,-0.029708909520886347,0.028887873361311763,-0.011181451735447889,-0.04217540055334236,-0.016503190568521998,0.063167094837711546,0.080317430839711171,0.049329266856766,0.090287228549166848,-0.10549484557844811,0.0371989808293079,-0.068065653373711246,0.018719662221663148,-0.08576010523553565,0.025890711426545605,0.081877180169969407,-0.016903943268545805,0.10553268960235536,-0.030018276827947065],[0.01406110605558855,-0.06741131048826994,-0.053957268679252442,-0.031483172884537287,0.077707083827487644,-0.0035673018076706263,-0.0661553256309,0.064437853715798007,-0.031520398679766692,-0.027633524756433766,-0.08282305648852685,0.061619998424266527,-0.0036059753722387086,-0.064757683674915509,0.093984341992529336,0.083558640835977777,-0.067753175336921018,0.10901834397274199,-0.021996126419542229,-0.0490855362763158,0.010689915674104914,0.021857599329037431,-0.16254197799027675,-0.03436528251063848,0.037221186177477675,0.042860926326441375,0.086220914768019574,-0.047519693672577593,-0.0023125228263885882,-0.08919504220384758,0.053432276250434639,0.012869520862254949,0.040432667236887682,0.0852085197613683,0.04613377967060981,0.06145672028558688,-0.046560064770969009,-0.040724200061532163,0.11431169357710314,-0.094863013788020742,-0.0069484847794780312,0.016778485942158451,0.12244743898617734,-0.01066261507003719,-0.0011833553224317856,-0.0776825167985691,0.0084308849874956283,-0.10425160673422909,0.018932426331280474,-0.12665764253073386,-0.01753572816850682,0.078669644076566528,-0.033736534615749249,-0.021640954518536658,0.14148946045858485,0.026863362652647129,0.077682369614419114,0.081495375555095159,-0.028178948203002631,0.073134567080334723,0.0043231843813520531,0.08247120451317172,-0.050200445931584549,-0.061401127108299369,-0.087645904722611231,-0.038366759991105816,0.028186628916007605,-0.13473778834556288,-0.041593695519965494,0.0051589610561166566,0.12759624470768474,0.080006657420080868,0.035908929384947816,-0.086691039884524632,0.024562734616683062,-0.026428170286363361,-0.084726607145655053,-0.043534578901347439,-0.036108798905799884,0.021722989810619583,-0.046834241652268994,-0.088550448126080969,-0.091355145193209614,0.052018428112273959,-0.034859855275487558,-0.015357793600120963,0.11130355416969023,-0.022309541622354226,0.17987350489600676,0.18448787805172118,-0.053118497955633379,-0.083307799220548664,0.062673347395852466,-0.073855491941132612,0.088603814616079787,-0.034748655053964121,-0.00831745880490907,-0.03562985038962551,-0.057001954687794579,-0.056293253036411667,-0.05080494790007805,-0.049118910679832491,0.0351153020365208,0.10175904176853781,0.021742936545827148,0.017028848197238221,-0.044210057208707833,0.1311246802084407,0.021005183019658626,0.062672306835507133,-0.024527286977617226,-0.080220724656205014,0.016172875294862225,-0.077348697023918,0.067268348957301521,0.018821342003671387,-0.060851583931945986,0.026841694738081821,0.022782509909137882,-0.029324841055690342,-0.11060060402608773,0.091870404624933372,0.12065671235083,0.0083245656058921914,-0.0577848155749428,-0.075116105055886534,-0.053550531560259844,-0.016637335208744716,-0.03021107263382463,-0.0038340870951388997],[-0.039986039270772877,-0.066089065348721013,-0.008800654924110583,-0.056024267611812534,-0.021594336870893606,0.014766324894502615,0.090612892267028955,0.094061050857263157,-0.015676920559912769,0.0053876074935977217,-0.040514456880903486,-0.09620787487958396,0.023534521214496947,-0.1591357306004621,-0.04068421411187783,-0.028371803491382391,-0.09362368428451906,-0.050146669647134594,0.022458145843201587,0.018844442943831755,-0.03245952741635786,-0.083924762501943931,-0.087751279948322769,0.0370628791031749,0.10139606504419563,0.11307617172787832,-0.057771547973037615,-0.064572083176607314,-0.018735043903324422,-0.020818520815063215,0.088855972918845491,0.11545366914233324,-0.015080400157936953,-0.0055860440590639595,-0.10646819416613983,0.086956795327224071,0.0148095812727375,-0.012658798083535493,-0.063189638565692249,-0.044981989995281767,0.09400623128815519,-0.092407438135669873,0.0775358031205366,-0.0073691857386570473,-0.014567477961592195,0.0493860810012523,-0.025178061851776318,-0.047074086052779976,0.002566991303212958,0.084967441575416525,-0.035605431074093447,0.077459119075061061,0.065404473539958957,0.009992851127773773,0.14370330323914921,0.00346365124093482,0.016003717040953283,-0.070397155397728867,0.075620968965293453,-0.038306838228380574,0.13058641822200928,-0.067284114747754725,0.0073500593990159279,0.010228176102209309,0.014183271337393708,-0.13550732308651883,-0.0906148693536681,-0.081752286298048718,-0.094342037017293684,0.035988472192247864,-0.047644832110474392,0.078450593183911857,-0.0987434349505663,-0.033148696702053,-0.10783830232576636,0.087451292696466135,-0.014893626212011842,-0.10529986924843718,-0.0317702257242706,-0.038450116434084018,-0.032670208438639846,-0.0458831990157897,0.045649027308892545,-0.16776758658109822,0.042855290280258952,0.13350370537301226,0.035663141243486775,-0.033247804578729154,-0.10206494698217086,-0.0517372156398689,0.087742354110907639,0.00557392803205198,-0.05159000990764713,-0.1612618857330631,-0.075024241055261787,-0.0784613119898014,0.056196266379492446,-0.091845383145958678,0.038328886852505004,0.044737826570150963,-0.027419223056451707,0.073002840963537166,0.11395542090786358,-0.027673164391617846,-0.056335606143851476,-0.13391993069820898,-0.11476300465937675,0.070099620685738537,-0.016443957774518621,-0.073991641346473916,-0.013707292756208148,0.11066022934916907,-0.13477308774884084,-0.069327293537217685,0.012045169490140457,-0.0065886811454492792,0.042350571767033413,-0.00851439344519576,0.0043432036557896634,0.046248531395893376,-0.031498164668253267,-0.14115681733257948,-0.15920009225699708,0.031996050809797123,-0.099475529974793822,-0.03753104743889385,0.040988669863991967,0.073432940404783625,-0.027826658689546906,0.012778286299028779],[-0.044937213608833126,1.8258101755449817E-05,-0.20740999154285508,-0.12210049064688792,-0.087344282977392509,-0.094595501025750275,-0.011601124170434159,0.15836714331581769,-0.017493421610839822,-0.014708529094445309,0.040337865668567674,-0.048472864370107178,0.1008381837935942,-0.05124599519886805,-0.032037684331739688,0.076311872536910852,-0.028332952869347658,-0.061444948799429994,-0.038773699545477124,0.08947917261307102,-0.072151528006931434,-0.13781998767000678,-0.053867954110839243,-0.031037041591056642,-0.013499989644786778,-0.1715188974224445,-0.034847001489771955,-0.063437956511059837,-0.011857360601145884,-0.10093787145377155,-0.051432057713811472,0.013148797828172975,-0.04071122773866423,-0.020501884752279865,-0.054629624774680842,0.043077376482835356,-0.0016645326090667545,-0.014467165010856908,0.020682145479107589,0.052967592602346035,0.04909875951790954,0.004310781740216491,0.018891884780450115,-0.05091648824429814,-0.046041514377657411,-0.16687486403736751,0.030022507879428881,0.079678632014041822,-0.029252002486074763,0.069440379748892042,0.11530265633969725,-0.11585921473311754,-0.0763670657049224,-0.026113586437856388,-0.0017503166885073065,0.019225741756888553,0.022549784632183191,0.080055806435165536,-0.0065021123751687069,-0.090066673471817543,-0.078170546815937408,-0.071387176055734469,0.037028048272788189,-0.076578614912309065,-0.023339899020361356,0.078070763251957026,0.015926437732011186,0.019782497502908638,-0.10635690972318933,0.038869873986222638,-0.087881098366776017,-0.096931508638185865,0.046668144774135667,-0.07492298375040371,-0.099242225479754059,0.091886812617170854,0.20224304940197407,0.018275662255455356,-0.075664843797475012,0.078995236708458733,-0.040118507958627141,0.089986056280146054,0.070829131164529227,0.0068113058054026232,0.028775483075038483,-0.017224679647421311,-0.078394032456004556,-0.091549569796153779,0.020517942760684558,0.11875203593850098,-0.025334025610219284,0.084372330440340718,0.0337952523099319,0.050757610729492614,0.12029417145169638,0.031266788110456169,-0.055014977453952188,0.0794036249407872,-0.091187962153523844,-0.020387118532284851,0.026589506192172197,-0.061788643453674241,0.034613953322246184,0.0072540513360547986,-0.020403480113513329,-0.045132659434453645,0.029731066674289562,0.024906468956480098,-0.0081242059220770473,-0.044234296446026278,-0.076463677799398971,-0.11929064973509954,-0.0030127197640271632,-0.10415971769039654,0.05984240212294261,0.096592956353620488,-0.065658980052090962,0.011828094188431473,0.12940809379138052,0.064498955706062178,0.065087546628864346,0.00844290512382899,-0.011732358101987448,0.0015790313722974002,0.08902838809896331,0.076875503377614465,0.011356195224885297,-0.032593208453314759,-0.042810145580683724,0.11283416547549435],[0.082851705951221155,0.00051171867799725446,-0.038873240628021194,0.053160471352988015,-0.013767844947685473,-0.0998435355991614,0.10032883066532956,-0.042709591515777516,0.0012543178658460865,-0.096615323940918152,-0.0033891077212773375,-0.0825382050602005,-0.016896599955326573,0.05055067342687096,0.0021353749886207102,-0.079744860501085355,0.053239165708819786,-0.031795456563434923,0.099378752016215641,-0.046211867981556444,-0.0084085852727293787,-0.0044213475182033153,-0.18891361651637892,-0.014931878016241108,0.086631295052861518,0.049471097241208427,-0.0452351669124037,-0.0591742575106171,-0.029960059241114462,-0.14107792070595496,-0.022201934241938805,0.010748706067266044,0.099176012331815125,-0.0089503354060261782,0.01890237881167765,-0.080349145834485269,0.060484852389996492,0.0292929736885586,-0.13988992405293796,-0.058976752002061983,0.04111096357383158,-0.0238219180746417,-0.071245901374161758,0.014456465143698185,0.05916025189772732,-0.056857150775389151,0.0048209520541048732,0.026128670440385561,0.029976267394268705,-0.085389864776804547,-0.0277931018387778,-0.077550475296464846,-0.24537798591649168,0.01530215187315701,-0.062820034967532065,-0.014492398268664891,-0.019541670567382721,0.051799503315208682,-0.0151394891165664,0.039660125211067439,0.033449954076259225,0.13985898535375083,0.031675981656784695,0.057716907012134139,0.0823206254068868,0.10500256891029366,-0.039581929064778386,0.029249402058025856,0.15668483437859834,0.14582999770436178,0.070363213403736941,0.029471137132700664,0.09318021123670292,-0.06987873319083282,0.080856665138102191,0.055125652421630887,-0.039582175889435932,0.038012265879270021,-0.049715713693948768,-0.038345832215813121,-0.14625640903237527,0.026435799627504235,0.063245671599228767,-0.1209257588438474,0.056202671897995118,0.023487996275968294,-0.042706959420982286,0.155718600844206,0.082724931181860126,-0.010155558356213002,0.040072010618525257,0.024586476752717017,-0.045403352688581436,0.011394136706160702,-0.095071331782212609,0.12819429870292906,0.1059733195893018,0.053331733359130322,-0.0862485305317592,0.082577923140152373,-0.00543980289251568,-0.040952624783369335,0.15881543012081267,0.051274676175423715,0.061490489760130926,0.03110444004575701,0.036234620792497195,-0.080537107546776482,0.031999990659941288,0.073089921727053142,0.12454568702796855,0.016624377735935374,0.022695065764465804,0.047054281990299381,0.097625348135510118,0.081561992082541543,0.0095647471898032688,0.014147825301765782,-0.038352559721959362,-0.033035451211279522,-0.0091305567921199718,-0.11613635256917729,0.094458526413797678,0.025671974208525603,0.081873442908264343,0.046691976537298452,-0.063864949555241829,-0.018459667174401131,0.0961661800797462,-0.052277366452405112],[0.055158112610996859,0.016603667349708612,-0.077330617504899765,0.12810604300740142,0.014870961796600418,0.011328138058205864,0.012822333101876672,-0.087829780146027284,-0.15789056858764208,-0.013541753521771725,0.014071214669858485,-0.017839373864789052,0.087684363908450275,-0.0090674435636114228,-0.088067502972754952,-0.030365647691011882,0.035370925230714667,-0.09613788949852245,-0.072294445611569086,-0.0052239679316383016,0.13595045129693997,0.057410016571827663,-0.030130236783193726,-0.090215050496612562,-0.065360342838280711,0.0075661665078265083,5.1729537399702408E-05,-0.012266849241975459,0.10093229604962159,0.0919274906501945,-0.026771882908324166,0.058321957071075667,0.033310216617063321,0.030194419562335366,0.052774206917678396,0.012800655355421596,-0.007302560602068243,0.096196226840763011,-0.046126392128027056,0.035861354115208924,0.0659381274469554,-0.056567913416549334,0.019103432588323973,-0.066832172575706242,0.040911327999617705,-0.017533083565131467,0.087465814648764129,0.0022632460455812597,0.0052704881324226044,0.076654683710387167,0.044582545582496011,0.057012705878457172,0.0048059452032629115,0.10034678025869898,-0.048924966591478013,0.052347832298991141,-0.020974817253726706,-0.032723665842321593,-0.011822442550422866,-0.031823501575962011,0.031956828870462861,-0.038608574957817964,0.12622073990778768,-0.062667936267111923,-0.17793890207528743,-0.00012196314618650761,-0.13843325453465374,-0.088506915202686262,-0.03388702130217857,-0.076835398393411428,0.076433086120454338,0.081816976138117628,0.029830901038534016,-0.02661769689559166,0.1461217460752384,0.022291472562987278,0.043472722726824682,-0.029116256832927952,-0.09652035877824984,0.074175944438967578,0.0568074991328398,0.0809379371091966,-0.026755110236368923,0.040346457096115576,-0.016465982516002137,-0.15821512165049734,0.049246146822729077,0.1038754888920753,-0.06814303278816998,-0.017422551162085059,0.01333537199703558,-0.10382452004688311,-0.057547233977005043,-0.15950607781919388,0.031962916028889531,-0.054096215909961685,0.050358656516977268,-0.080210203921600776,-0.0016172792309861262,0.00075333250408295257,0.015346820356299534,-0.028771226842461934,-0.0732853101553378,0.0049003629455894619,-0.038890578589859039,0.059973187036880822,-0.12848606087356396,-0.084768288072427159,0.08784952827392839,0.03724904151580849,-0.04695135053114681,0.051497789740790036,0.1304520530662748,-0.02856587774943406,-0.10562698320842402,-0.0079089837508432761,0.059564803367233972,-0.05697356053518042,0.0063774080451837068,0.0834109207219443,-0.072433119454792444,-0.096556266929898341,-0.07752249106657555,-0.029396789952916391,-0.020365498090719282,0.067045604342487561,-0.071591419766182315,-0.09492286126588656,0.076695514453289843,-0.058539687334586629],[0.0084638001379928485,0.013273771215210568,0.051590605265735834,-0.1180650644327484,-0.091246843247440021,-0.062701785920733458,-0.093943662713404291,-0.12154933256287683,0.013064822615662363,-0.017741722042682151,-0.058828594248346674,-0.02171239170615535,0.04525754999416496,0.0072673561049390531,-0.12460001109144887,0.065384349273051715,0.014803004809303804,0.0080382222969925862,-0.018832225988020732,0.019215866326629687,-0.031469769895457474,0.0054126773928160534,0.15012101948189052,-0.019253748338076512,-0.002823357613829033,0.0088831325008362078,0.15988501987793147,-0.019273656592142703,0.024818168735552048,0.025533154408952631,0.11517154005097532,0.075566104517459112,-0.0496380297364105,-0.05508038453289904,0.073151704466827741,-0.088530593893574649,0.054207169277391505,-0.11233408379469981,-0.11670724605022419,0.046407595886209761,-0.081630963678368834,-0.022270956599404194,0.13422909076977746,-0.039119396612651437,0.1046515524045905,-0.02208724906297635,0.10147034664286062,0.058595253602853038,-0.0049918481902495194,0.042611788308686192,0.061608559346689851,-0.049149902762305193,0.060528585021676989,0.002175136985163494,-0.14428412461922233,0.1076318648190301,0.10700415185684759,-0.026009277196319076,0.03142639877628757,-0.0031033648468222451,0.04137806988819713,-0.11957804234684086,-0.0029852075232698048,0.17319711316720385,0.038364642774665364,0.059797813259366013,-0.01068185013786445,-0.042425951690409164,-0.036819316381060126,0.010057267494952213,-0.040754030028001861,0.062511096862347668,-0.026992040681463072,-0.053377714175594573,-0.12040141398540513,-0.051714025791915412,-0.0059913968556793732,-0.073316462909768232,-0.065892305367303949,-0.01739658837609365,-0.0045100132522811823,0.03949619316832232,0.017737749935120829,0.070784111985483941,0.01146632719323093,0.025674142626334891,0.039210475877319448,0.00570771094638179,-0.037631559751592068,0.074982538405706636,0.04852578832476679,0.091491052355302555,0.057928427048781678,-0.047089707472195666,-0.039064202886111156,-0.068763906643937139,0.0216519352570113,0.052544931792881028,-0.0324617180706801,-0.13147343811185802,0.040590218603571121,0.090613782410708735,-0.12273848178317678,0.05330548859529724,-0.036300965647303091,-0.118085668579344,0.082662979503676515,0.013450810372964981,0.061886229079826958,-0.0415724919404756,0.024666235903112087,-0.051716352718649931,0.14097507458084557,0.061574549031985115,-0.030117340529127297,0.062980085629814025,0.10551876079863597,-0.02788865934330912,-0.025592035921939892,0.032433945927807246,-0.13600267831097077,0.058826593048500284,0.061621425443024382,0.03526943830661531,-0.015461618557754272,-0.077048586921772466,0.12389224557316447,-0.0050380403712372507,0.03367940337617166,0.12161855416079803],[-0.0046558271586986093,0.1919438725517931,0.016945915154842419,0.011308716010429898,0.13841116031390821,-0.014081173642337521,-0.044336458662920769,0.029527752990254487,0.029802517160428473,-0.081419076067982793,0.072008318176466413,0.076115548467208374,-0.11295104315813964,0.056765711456649139,-0.03142418173543516,-0.20230164612768845,0.076566587842478467,0.089583228804215917,-0.0084318099989491371,0.028641286100332813,0.14515994943330468,0.042900636725257374,0.020834240518426049,-0.082921342806984932,0.059070333100085255,0.083133984333279648,-0.084985887454069667,-0.10724141791224158,-0.062388887216576476,-0.055726165507561452,-0.051311149068255076,0.091382627806575648,-0.10096916893126935,0.036069253870605687,0.058530159699129385,-0.12277977914951048,0.097569564750051227,0.014124168729133203,0.050067381641834607,-0.10405251186557463,-0.017111181759969361,-0.040184677732392184,0.10445596561566561,-0.021911475928212583,-0.022246582985211354,0.0715360227502613,-0.093211129548434815,0.13270083388509935,-0.12365674753161256,-0.05934693540394332,-0.042631177128558642,-0.1372537268123738,-0.041772170822703993,-0.021797437170352478,-0.12480155424821017,0.072888889049513086,0.014119754946516027,0.16096075137746935,-0.014455127640503942,-0.0042294256153052956,0.017053770751652222,0.049847620664974931,0.040424644560568462,0.042122197937709993,0.014177739803048041,-0.0663426167058275,0.076678437408154082,0.023543971375634676,0.035864120760425673,0.076615064275312117,0.066694990587810837,-0.08457004183556642,-0.065007205406126339,-0.0049635763731389962,0.082330788843093361,0.054037030221710358,0.069002782003651508,-0.028035330940008783,-0.023906664416308343,0.089899817556879313,0.023814089524787141,0.033859370946767248,-0.052804768701917561,0.0098077691421420386,0.033770621695756488,0.054930596639738066,0.059121943801745853,0.007161287187184508,0.034333515846288673,-0.020182347026769656,0.053616090939652611,0.023028072642202822,0.000906111426907562,-0.097945706707889185,-0.074232630848804756,0.069582882112061664,-0.079890273621144411,0.0063516304879032235,-0.017998022456592645,0.072470618183979832,-0.19721662007535462,-0.14065344930784798,0.050037378913867586,0.026989511756174034,0.087081211921474513,0.073148841358424865,-0.014768400713989251,-0.031637329322060613,-0.022791226065357804,-0.053053223039575645,0.019065106868011921,-0.055240244561406526,0.11054949377493871,0.0062761146554599235,-0.062147078466436946,-0.010450871609727276,-0.002930731875039479,0.045778797457785028,-0.028339252008052377,0.11393524710600084,0.12905797559165916,0.082329144123000242,0.0516148013536191,0.12423400434198491,0.054815854090631007,-0.0928192349537514,-0.030066378203101932,-0.072741335602164614,0.05596148268774042,-0.11187126891126624],[-0.018580688835009448,-0.065880667396875675,0.021631085888884981,0.017325214026245397,-0.0328438076540436,0.020530862753143482,0.11198894449499178,-0.095307594962427813,-0.061965242862300166,0.035411459572828576,-0.013123223366567117,-0.12024788979514225,-0.049637017874870383,-0.035027109912677282,-0.011685355566374043,-0.14202921631342355,-0.073458061647755382,0.10672089102192231,-0.055531339720543381,-0.022789000990036213,0.071331131328828942,-0.04350609359231742,0.043867991129350206,-0.094268982430215739,-0.089853216676359454,0.017552083652112648,-0.030857756603125012,-0.12264925466630265,0.024941909838469226,0.00277076548948975,-0.042635040770519585,0.043586322813192011,-0.096043829543552076,-0.05963433314763688,-0.021375667084676014,-0.1158528138578229,0.06258050777589555,-0.083240869287113523,0.0617396490709761,-0.096781421975688856,0.10349665189049226,-0.080602829878407528,-0.087645087157963833,-0.0047235249283402473,0.0864387855128309,-0.063001555784279267,-0.07272642004306519,-0.16517728766421763,0.067808242319783954,0.01632785363785912,0.1493296740674098,-0.11619291805874882,0.059099291595487158,-0.12291913420529708,-0.053282662634416389,-0.13762355597560089,0.011566151756608141,-0.039197913933799636,-0.018589644312952087,0.065733682727724577,0.012597076838250291,-0.013941758405948615,0.019977185829409255,0.088793075158258655,0.1047988791461191,-0.073315794018857655,0.0295202394949371,-0.090592404655831918,-0.047119219332301593,0.068624288343210049,0.10549337775888885,0.00033987699519387238,-0.17755929330144435,-0.016689144716936666,0.11425137146633831,0.073388134514893122,0.0796232856005152,0.043834170771592962,-0.041754558059830936,0.12722931044902772,0.0045978841149381926,-0.059694842253738528,-0.0072559120876504145,0.12153952728634664,0.03870563531787366,0.037930258388788683,-0.018147791800040489,0.039240135355456923,0.012643124570448487,0.040167896187751274,-0.026825961742842127,0.010078948712098771,0.014457406336355469,-0.043652312000304415,0.04583766246549846,-0.045402108674475451,-0.020024993218695775,0.076944037566329976,-0.007778962980985132,-0.059026492222948312,-0.053721443624261643,-0.0098520275309671862,-0.14640054105471775,-0.072369051010921073,0.13372371289120652,0.065968720401432007,-0.006366869882185996,0.099808020478663509,-0.041022909644221249,-0.0030829519695733608,-0.085952719271752687,0.079645380322456327,-0.0043560308743591531,0.044421188062603673,0.016269729742474183,0.060808835172318255,0.086965009716244851,0.026258965000262972,0.033416403699367991,-0.017270649712411417,-0.017713483295499943,-9.711162539695956E-05,0.048354427613601342,0.078831419936093952,0.026522171215340794,-0.10170002160135576,0.0098109224660814318,-0.013850015357558495,-0.13701339008534011,0.034311137292822334],[-0.030018460811365191,0.031113750073867966,-0.036391246432169892,-0.0408884517099086,0.063978686292846851,-0.053546837111298234,0.010597794217453681,0.083072105759051662,-0.037346805410756717,-0.027753595230980171,-0.018822143195441534,0.020573736483961422,0.00057650014182191822,0.0737334686832921,-0.0042408925137639216,0.0039214360844984373,-0.071336828182274187,0.036031434303959373,-0.019610380393751153,0.057900820371331332,-0.04574625873956,-0.026885238380559263,-0.057946345093277278,-0.08793979857979739,-0.03024652840772428,-0.018265561625859152,0.084934260699062958,-0.013947123338215406,-0.10669293200036593,0.061603650086366292,0.012430269255028281,0.0769498295162282,0.0024686252298588476,0.054763735843416567,0.086113443597086448,0.0907868724120274,0.064981334797902551,-0.097152938458784074,0.066784562977407216,0.041369236301506143,0.051404757331060216,0.053870021728818211,0.034559848695484008,-0.06654457644050675,0.0277978183728227,-0.00010897061408561829,-0.013873358193301657,0.09528118749990197,-0.0072004567724836405,0.21247567621485111,-0.11146449300747906,0.044476152131118822,-0.0417890041334277,0.086515310941787743,0.026691427892423333,0.023966494501986003,-0.036905424041472963,-0.16259057690242942,-0.030170271148673454,-0.065803629739655742,-0.062026742897063468,-0.044753525788812892,-0.05626944580637025,0.09852300108152591,0.029032041108746444,0.025134062470384785,-0.009849691434444684,-0.11392829753072327,0.0068226445633172306,-0.000781234275632097,-0.10569863081731215,-0.050896322646399518,-0.014559028034361321,-0.11537065526302359,-0.13618997636196639,-0.07399730687452806,-0.089137649222924525,-0.079231524343682677,-0.02764021043724299,-0.050310825698121807,0.01605059927670964,0.046135212739851231,-0.08340429581789495,-0.041123431643200786,0.064218697823336585,-0.026074431538307952,-0.020161666269475544,-0.0245508613452894,-0.092467627828560578,-0.0389069367665824,0.038249354758623788,-0.12270850210806808,-0.0034391212364024738,0.10444609298198031,-0.097052284759985216,-0.045259114597961413,0.035962938640295344,-0.022244217917616195,0.13081093028985133,-0.14548881007243644,-0.057961214921640115,0.020300363244391294,0.016312171284100337,0.077387868768139481,-0.0070968782593126712,-0.0907252626946349,0.0975379463082208,-0.014309940701548937,-0.036207851365745093,-0.0028547734862304037,0.0026236882215782712,0.16799700873225074,0.080521261142927819,-0.020199283624842697,0.018549225852762318,-0.064171108969690666,-0.012365720662356115,0.025502150905770293,-0.089758240560933747,0.0098551645072987824,-0.0044714972096206512,0.12165722300206185,0.068848442584055591,-0.038404680704170767,0.054806185049229808,0.067198649672606553,-0.059543109742527557,-0.037747254636009822,0.066159071669137176,0.0054975840426031439],[0.00058128026669147293,-0.020891031330133578,-0.016636457527515896,0.026138146688441971,0.039086611547724831,-0.12100912187841105,-0.11965109720230577,-0.0083808300839133387,0.017396426353277043,0.067949833077987173,0.017083823832326522,-0.066664116939197257,0.0621394823423806,0.0067692558664887792,-0.10702901961148324,-0.046533434745412709,0.00343498730077161,-0.030576000267864709,0.050896839200887875,-0.0068174337010133658,-0.025952644428955569,0.052261971042038259,0.091746352863338335,0.040557879528965793,-0.097033602886021378,0.13124544369989558,-0.046784528840772908,-0.035299145305566083,0.060498077800418271,-0.12797087201715968,-0.049471999317246489,0.015209344502840396,-0.010635918064423095,-0.0626120122085179,0.022656573806921404,0.14842434465304707,0.018175322950803152,0.16711824924635044,-0.034656812370936228,-0.0093900858674129586,-0.10109641586305555,-0.0327143867956446,0.047309217686709468,-0.064975666398798385,0.073350892049132074,0.01337751790062921,0.063708502957379939,0.17813589809970146,0.096314521555400379,0.041923470523150694,-0.017463290979009893,-0.22534448367113591,0.094108011474942438,-0.038940702412741481,-0.042688875382466393,-0.10455026721952181,-0.04545996001844374,0.046140967956128265,-0.12020654410203785,0.1077645540173371,0.03617767252706907,-0.12252567742228585,0.057425057379427817,0.027518933293597472,0.063863695501692727,-0.0099337059421645973,0.054755691510083582,0.14273077712241511,0.032427273346611787,-0.10936905332658847,0.010281279457244115,-0.013991677975475562,0.095071692230891014,0.04868219931411942,0.054603636445835858,0.10198976315829449,-0.1012415053197904,-0.052143376668792318,0.012161323673322219,-0.12051819255472925,0.0019899095557130353,0.11695681770053168,-0.10023501895075312,0.014242009583356691,0.10966956244321233,-0.039077380130499613,0.00911511549446317,-0.054947354655624357,-0.12011452434207506,-0.0247342645128433,-0.050476962548485077,0.044765820779983756,-0.02493699584523245,-0.022437264232446658,0.04314411949208706,0.049575973809986,0.0342093693854346,-0.035744310676074781,0.037508744383308652,0.0070378949122992295,-0.11431416678806385,-0.0661733410960258,0.11325559573689686,0.1377196246909661,0.08000446566949164,0.076155980457552286,0.026278546232147825,-0.21262323164946556,-0.011403496159341905,-0.025995679287503418,0.072684413174348525,0.10212975562937711,0.0851065298437742,0.029850583255146283,0.080841007400591677,-0.078333353995606356,-0.0068404017887256537,-0.012582011295262445,-0.099452416446396658,-0.0379277689780782,-0.072861484922341083,-0.0414819005144845,0.065772341840007562,0.10024392957798185,-0.068607771099115089,0.21436143162481222,-0.01559702228771293,0.0160575136968716,-0.036665244073265789,-0.046262604936973331],[0.043645630993822876,-0.024607794936227032,-0.025656638650524696,0.11209297886858309,-0.046113131793548166,-0.089364398104272935,0.044166880584137515,0.14806085478948802,0.079935173387136613,0.0085716758044133787,-0.07616340522254568,0.023317369761730988,0.073075052724481337,-0.059330413976811026,-0.14175904171851714,0.022806155472143645,0.098690213581570888,-0.0022967428429068034,0.033448627173378195,-0.077863029079465351,-0.031719153534146192,-0.023198844859225517,0.0067250819547466124,0.007533489877705116,-0.024478101481305983,0.032707276650609574,0.095247221799810114,-0.051027436844617489,0.03660760002244326,-0.060253460325941727,-0.0051840827148052371,0.004030157037247648,-0.14106394320091364,-0.00023994110705165649,0.0600161803826954,0.036566416608057074,0.051604761949585069,0.019243410588629353,0.10163873810557038,-0.010194264745810809,0.12882439584388095,-0.022042184658440874,0.0022473131935484294,0.010019889172075771,0.075002604702187836,-0.022981866822952609,0.043703934747625288,-0.050184281806208715,-0.0091060851294637347,-0.02067263985711712,0.01861312582220747,-0.088902515000896826,0.11394408231752246,-0.12516188918560933,-0.044295052144149062,-0.014149322813027738,-0.02699107454606952,-0.051303422060201817,0.018230819095152725,-0.092157259711258988,-0.036533864289191129,0.1303709376882744,-0.016693569338506992,-0.0236211010888665,-0.0050775395140998355,-0.075585298468338655,0.0031921278357271757,-0.028847189693675931,0.037033939930100193,0.093214243577008263,0.090358163634271155,0.033381502200897549,-0.020389932593096249,0.0076965229380657231,0.053191775145530848,-0.085720492152885686,-0.080140660374770634,0.068151374724042785,0.050215405687564149,-0.097863031782804685,-0.022276877902460645,-0.15092244552637463,-0.063229754988379933,-0.019495356178897971,-0.16559547957630727,-0.0068892549146368576,-0.082762126860205662,-0.02399071712153681,0.0019442079789228734,0.062126150120575707,-0.039601358691104017,0.023047291492262336,0.010774041748170905,0.11544176776461218,-0.042368899412650506,-0.10991269559600694,0.14142598010340454,0.13554940974773164,-0.10018767279966816,0.036673276023305959,0.0225432961353122,-0.050313727768545848,-0.014082849680114182,0.053609201372097286,0.0997569943984426,-0.020823270871669453,0.047804226059329359,0.0703514820064784,0.075067786399354089,-0.036137843236226506,-0.050196745635849672,-0.00519087881304216,-0.10744936851579903,-0.016832237893630128,-0.049479805935897854,0.045690213368401324,-0.12113621112037136,0.04045231306149543,0.037329689586381158,-0.077539469434577055,0.052475296793626537,-0.058780278388733766,0.0057104371531088004,0.051404007218917483,0.12189582940825877,0.015518220331493792,0.096152192460338251,0.19571983532037726,0.029260608037383323,-0.050110213761247108],[-0.010367185682832751,-0.0879607552702342,0.20828190611135264,0.056134494508076,-0.17584090227695168,0.048116800690749577,-0.10664400840240833,0.19011736734277437,0.13872930164860603,0.021668163177308089,-0.054390404988442241,-0.045179329671047513,0.21279624936188799,0.027138593649411992,-0.017870441725186148,0.087441931161707009,0.21451024209195843,-0.10283902929462145,0.0097270681361681238,-0.010356948107158643,0.0328580244113801,0.057106683828124352,-0.18813172629113181,0.067226468186168911,-0.05401273388716743,0.0255054957311425,0.044747357795123781,-0.04134987711296724,-0.041288294158046704,0.076678240647052268,-0.036258939875066121,0.04283398591133878,