{"BatchSize":200,"SerializedLayers":[{"Bias":[0.0,0.0,0.0,0.0,0.0,0.0,0.0,0.0,0.0,0.0,0.0,0.0,0.0,0.0,0.0,0.0,0.0,0.0,0.0,0.0,0.0,0.0,0.0,0.0,0.0,0.0,0.0,0.0,0.0,0.0,0.0,0.0,0.0,0.0,0.0,0.0,0.0,0.0,0.0,0.0,0.0,0.0,0.0,0.0,0.0,0.0,0.0,0.0,0.0,0.0,0.0,0.0,0.0,0.0,0.0,0.0,0.0,0.0,0.0,0.0,0.0,0.0,0.0,0.0,0.0,0.0,0.0,0.0,0.0,0.0,0.0,0.0,0.0,0.0,0.0,0.0,0.0,0.0,0.0,0.0,0.0,0.0,0.0,0.0,0.0,0.0,0.0,0.0,0.0,0.0,0.0,0.0,0.0,0.0,0.0,0.0,0.0,0.0,0.0,0.0,0.0,0.0,0.0,0.0,0.0,0.0,0.0,0.0,0.0,0.0,0.0,0.0,0.0,0.0,0.0,0.0,0.0,0.0,0.0,0.0,0.0,0.0,0.0,0.0,0.0,0.0,0.0,0.0,0.0,0.0,0.0,0.0,0.0,0.0,0.0,0.0,0.0,0.0,0.0,0.0,0.0,0.0,0.0,0.0,0.0,0.0,0.0,0.0,0.0,0.0,0.0,0.0,0.0,0.0,0.0,0.0,0.0,0.0,0.0,0.0,0.0,0.0,0.0,0.0,0.0,0.0,0.0,0.0,0.0,0.0,0.0,0.0,0.0,0.0,0.0,0.0,0.0,0.0,0.0,0.0,0.0,0.0,0.0,0.0,0.0,0.0,0.0,0.0,0.0,0.0,0.0,0.0,0.0,0.0,0.0,0.0,0.0,0.0,0.0,0.0],"Weights":[[0.038041690038878286,-0.095514033434155973,0.40199716153660231,-0.052916360589534021,0.510219078405162,-0.2271118977290415,0.28999508235467369,0.18514417280776341,0.63468849706654,0.45047869028010978,0.49810446965522043,-0.44197609958155293,0.76906081981894236,0.37067115836568049,-0.44807747841353329,0.43026966488557766,0.44208346176516977,-0.32799615306640684,0.25346571034446591,-0.55127398074597678,-0.6336412887272509,0.544580550442177,-0.85494127761117533,-0.551446975800172,0.34991469407433351,0.595150997116639,0.50554519158231215,-0.39260107144115269,-0.67083185308476734,0.37586265004054847,-0.033130244673212343,-0.3768334073976079,-0.3050148708039318,-0.070859331364446637,0.050463265838838735,0.19021071173486837,-0.71602808591050138,0.31396624691893427,0.14487847574596524,0.22873315257977411,0.34325184627579769,0.4070561040566269,-0.65627298841994841,0.61461390518184222,0.5718632313195301,-0.50082081818600455,0.49272299791909019,0.0189066903570013,0.083904040510701286,0.29827816315190514,-0.56789083519628791,0.16280830861371029,0.4515919070319932,0.082631697374683455,-0.54618855669781108,0.47874366654463435,-0.41939710292653065,-0.00949074259436835,0.062592370022493515,-0.68701128666537958,-0.32088596795682678,0.035617739778000611,0.1266513190157377,0.42492771497617055,-0.25210605398285807,0.20835372406353217,-0.250750758618522,-0.085990505081019977,0.22922760421772098,-0.79333726480974531,0.0044532978985991865,-0.32050248189783964,-0.062026566674648363,0.042010017505029411,-0.021990749398248525,-0.0880018811032169,-0.06286969803379068,0.41711995201015106,0.0319245052458183,-0.55728795516861607,0.31532774371559685,-0.063444722994130828,0.17671094058529385,0.10477274707327774,0.18366762580649945,0.92313159695918634,-0.11140671594451398,0.23045561827007671,0.30468505971743964,-0.86226646745768787,-0.035362525995799268,-0.074182574022832182,0.10934359358983502,-0.53566909120166151,0.074150051388042051,0.50583357113119221,-0.22119540423785977,0.047433394007930556,0.19109932593900214,-0.098452293617186951,-0.043621215171975328,0.11000546281452724,-0.10071048387932834,0.14128579561470972,0.35068926256318911,0.44187552850335149,0.02885570867344648,0.74928063942157319,0.29636922569546564,0.13958400892628506,0.27535727362321316,0.33473715539115612,0.093590970605397047,0.099770002872291125,-0.11573499448713688,-0.60372686627364469,-0.12335051882706265,0.20375988033944559,-0.035122221466091057,-0.45443192189047465,-0.077366621857231366,-0.43129962030261559,-0.75603380689953958,-0.073079260156660525,-0.43865856657853947,0.30960099513092432,0.22492649091434333,0.308142515175014,-0.48377151639591015,0.28399100579397119,-0.23750909398379941,0.30343064546035731,0.1559725762874552,-0.013898858076046407,0.28683569628585,0.2562425596084798,-0.063126703529955655,-0.16248387796007993,0.25896148502410271,-0.49762596935738812,-0.47092166470288749,0.79641277023024182,-0.65539958973936441,-0.085771121508041143,-0.055897742668180823,0.022187871990110585,0.49955483574440346,-0.747032104745363,0.12446205470013486,0.094717962592627242,0.37918731494807534,-0.024963533469453059,-0.3290663425661029,0.3903778035093311,0.2500834685956172,0.041158797480178456,0.48018727862460908,0.22038925675837229,0.77731022021637763,-0.095688340235915992,0.47006711911716126,-0.54926408640094493,-0.13271957472124821,0.31935305085873122,0.30721071382421122,-0.580316594929092,-0.35091540922149977,0.33862774809275803,-0.00840625466404481,0.47145722594500084,0.20841378519768869,0.70861068144432371,0.016270778104329062,0.1524831242200681,-0.095513203125583465,0.23448652171239448,-0.81630740365596055,0.87131225799988787,0.4163737907047792,-0.061715224989810274,0.19954921170624834,-0.26195783397460121,0.1954167271267766,-0.14467873478668192,-0.37648721076494285,0.046478071647104734,0.012768821140863555,-0.024477377306306308,-0.13812929882595365,-0.16443663780199783,-0.74288078506080524,0.15038769093306773,-0.2263867477667226,0.64525918675366589,0.44778866114680005,0.10366043547522211,0.32992718710521085,0.96748296348584217,-0.224683907939992,-0.13290255881296492],[-0.853296104654468,0.13979527334469474,-0.25379535279453724,0.081161521531584735,-0.56716327311126458,0.2108857024668252,-0.60451318849565772,-0.12322794839950385,0.37302296472182989,-0.22750922158610692,-0.62569007730341475,-0.075381619568425554,0.37170577071520561,0.00751001052401142,0.29572223998630565,0.18965522533780091,0.036216447559651026,0.15682800663163662,-0.11734967812524184,0.29618132602951663,0.61675772520635608,-0.70982051690447179,-0.0017305090532183664,-0.52848136098149623,0.31685744317012327,0.32411721194280435,-0.016276521211847333,0.75332335918526738,0.41939717697707529,0.076362019870701736,-0.020085152852940956,0.84638976145599021,0.27875021069821038,0.6461747390812258,0.16536814514640086,-0.080796902621563887,0.63678923433603574,-0.14527571632952541,-0.19954994704901172,-0.53821067728975747,-0.44636786801106743,-0.567200900975195,-0.0814535950636636,-0.050541246739238217,-0.12944392860197582,-0.024559000911587255,0.3651550384588213,0.42185609994601847,0.42119800849270822,0.43175614973861426,-0.29400961604405534,-0.22091463675051196,0.45508395729100792,0.37910608366061005,-0.10633944832888428,-0.31741962390556117,1.0517670918582791,-0.22865012488213407,-0.99510239466565864,0.10365400938381009,0.071950669770049963,0.60519000141325174,0.48076022246202021,0.038616300908078459,0.064148727945808365,-0.8026921874779408,-0.037344187754927843,-0.079660142569981052,0.6809031995185868,-0.17279324306598254,-0.50937097639374718,-0.24617675217327167,-0.31163209203735887,-0.45446990104818347,-0.36736998890581335,0.16770135014677454,0.10552621087117876,0.27499214229619573,-0.41017347254459163,-0.18234032489867916,-0.25420677604908443,0.066510363031322614,0.10166892251867897,-0.46363358147547346,-0.23015217928360363,-0.53636342540847837,0.19837772225871489,0.14542778857912833,0.27316133556349886,0.061982220600884187,-0.00035715560233491182,-0.93210014233281913,0.068638477410685031,0.15524010627463397,-0.48893869878591123,-0.36606125896923425,0.12571582717974558,-0.05329775323593855,0.02689519627521525,0.33910312071608573,0.10738621585102944,-0.64778979293499572,-0.5119274146543763,-0.36391114189840529,-0.795214491166534,-0.47747138490139984,0.75865343900571858,0.25152786727267634,0.072796800808314882,0.26843073042204574,-0.18371419110115697,-0.083907743599706652,-0.14077283647394223,-0.24653592960819118,-0.24917003937407453,0.28198581155903624,-0.17738467161285537,0.014969120841963808,0.19488572212408239,-0.065872967548158093,0.2160394214963634,-0.24088680145187855,0.33942314834221143,0.49849041635995955,-0.11453848055701939,-0.39158646077927506,0.10412247484639581,0.064662641518381719,-0.18459529134063996,0.37753855695149346,-0.80829531186421411,0.80382528003191933,-0.12149070751558762,0.16976492209370286,0.386071737862569,-0.59140514398323374,-0.230420302264841,-0.45721086560042684,0.39165046206799331,0.27246252629313389,0.36007755739332337,-0.3455627693557245,-0.75428848713176544,0.34425055894016826,0.44911493438596012,-0.023073608643468715,0.42372781967974271,0.076423479737375122,0.37639419097220056,-0.052865536644529816,-0.3004476633217586,0.54046790739737072,-0.52927707135455282,0.2460481058484067,-0.1308190775668244,0.080089082457251576,-0.25598894379748088,-0.085964804220774016,-0.2621990791153142,-0.090153587196585658,-0.051636937093597672,-0.18747112948519373,0.017969008615067891,-0.31737175375243143,-0.46987126507319871,0.18655565392117687,-0.36608959251076584,-0.013562326368575703,-0.36981478257161843,0.92893333957154334,-0.2133509622652903,-0.05733333467653929,-0.42150977711877141,-0.678701551530852,-0.13915228889886866,-0.416569644489234,-0.18356630460745133,0.1037751858486444,-0.64340472347823074,-0.27764462544450791,-0.0543117784926201,-0.069914461213609336,0.23792262233371653,-0.47394160083989545,0.30573599081989694,-0.5453909171422876,-0.55738776831356307,-0.0031498566462406451,0.20190632206581663,0.2750581658304862,-0.23457705154530248,-0.047262449768694079,0.34697942685496,0.04163800554128079,-0.20518290412816756,0.43500434280030564,0.49730402496036491,0.4838101476688334,-0.32214920407715036,0.22079653708891625],[-0.29676106518178819,0.17926723912705042,0.67199662552163464,-0.23658457375540154,0.4818886798610838,0.67420907363119853,0.2233564559530295,-0.18187466245192718,0.37095517781958975,-0.068290138051812027,0.079888275979461312,-0.34982427374151992,-0.08041242924962809,0.11599664904421303,0.10455173682221214,-0.48643604374104182,1.0136180547957294,0.0090631931154013,-0.48676866351583808,-0.14443922197551226,-0.061692400009365912,-0.43219098861925975,-0.1517014258301807,0.4542446336320129,0.38538469918726531,-0.022559414345437494,0.1572908654118591,0.22641519109962477,-0.34242446045482455,0.19948877395075057,-0.000210609929142916,0.61592477258112666,0.42121422528802116,-0.21041767568855871,0.11245274608373228,-0.11289434879656356,0.40658099859456487,0.33848227282481391,-0.44893720228100381,0.011001227290442115,-0.547647914374201,-0.451690066419913,0.071622412690873286,0.14895895924069014,-0.0892468951834206,0.59230111255622486,0.11252827237835229,0.94686768505768615,-0.14209737295250127,0.4561746698020957,0.029688810235438338,-0.05846193116791544,0.045881414077376947,0.082467854281794484,-0.00075725131813874876,-0.13251852532208081,-0.13308480534270725,-0.079477835911553024,0.12715559467546778,-0.25342937504267748,-0.48038537194299014,0.715660797395495,-0.087336619807467986,0.4137477223446846,0.26521302505206823,-0.47733005676881862,0.014080033579626563,0.080910404164901834,0.74631516071927839,-0.5648369231527619,0.26688540828441853,0.45130181230975142,0.04722931314931144,-0.095476094536341136,0.58397752641672707,0.77806231607594944,-0.078284126055504888,-0.36241973631226321,-0.016575441777266064,0.22967459928090636,0.82832926293032483,-0.32235099934577316,-0.36265891920930288,-0.26212590885348835,-0.29574430860172424,0.32888938167351772,0.46741040893122715,-0.37510077887039334,0.11218993974985997,0.0354042540066302,-0.087048925377278319,-0.49940564792616349,0.49073168085507862,0.25757383819207119,0.51771284570955844,0.43806230458175283,-0.21194012064935902,-0.13031783910527459,-0.71783444758381,-0.42172198814091266,0.12325809765339225,0.14864889672353673,-0.19707632986340773,0.68567729586627,-0.38693995344587534,0.32144740335439631,-0.87652516083066545,0.927874607377941,0.72534418893506891,-0.12967704600099195,-0.03650366238477986,0.67667382922344887,-0.064419640811160875,-0.1200376228586262,0.026010194013808753,-0.35051021690208484,0.0027017984339309247,0.606107618823634,0.13593921615478374,0.29875356225160832,-0.77162208138221922,0.012403344026966212,-0.089108284648129463,-0.084148748931772988,-0.047807354382033533,0.076227218346866576,-0.36781397298844309,-0.2749697810891113,0.27888445006513174,0.16542123991448032,-0.08555944820260597,0.56133167722104083,0.31227640214142649,-0.12735524049491295,-0.093743499449987264,0.77182808856993779,-0.010514855281480393,0.10631058586441471,-0.17896496113548918,-0.32648348605021604,-0.010056524644333577,0.14637048903304034,-0.37900952456818737,-0.17086140446391754,0.28482619560487277,0.36848699426682352,-0.26791180274800791,0.17727424744238285,0.56858471029033519,0.30460270689480445,-0.22908021327885486,-0.34393764128349086,-0.21394468469263578,-0.36798494680857646,-0.0642803496076744,0.38937094887490481,0.17090239202630267,-0.29179750688882466,0.84660495349633325,0.2705836184179119,0.077677729101809589,-0.46423611808479065,-0.17560289577801619,0.21777164822362807,0.26905813916051907,-0.34212775288022451,0.20682409001557014,-0.64807193242860084,1.0768860153324875,-0.67954862021691664,0.35523119073056642,0.3343415300547482,0.13181828895430173,0.12047233121325429,0.0053651240452498418,-0.43025295492069887,-0.014795774120981169,0.0067330378797777661,-0.55439568719413057,-0.37338736390794636,-0.40460329391851607,-0.84156944586542592,-0.16039642949331978,0.0026591435888203147,0.38759379080776979,-0.32362627533298749,-0.0071131632074490723,-0.286125283527376,-0.1754043290737938,0.079877839904504783,-0.097178072314306543,-0.27509316248437754,-0.20677061842626543,-0.025098278018570702,-0.17468595454614186,0.021530968593163113,0.59264065368760521,0.059303646673322982,-0.12620891915149327,-0.21981388408043767],[0.069840883214610974,0.44428336883279274,0.00819625101555904,0.084194395169391562,-0.168723450344022,-0.11049957327289774,-0.813937484978065,0.43046510464985094,0.17144679708966365,0.012281313730637176,-0.11074834148306693,0.0073510667773919016,0.26261469947977856,-0.13188955003235695,-0.357111729659029,0.1405415681605979,0.4690620596980003,0.32655973280652068,-0.39400376821260946,-0.27835953611347769,-0.89230071036302938,-0.52900429786518921,-0.53523633087925493,0.54921819180834641,0.083515004013079819,-0.36024496176559456,-0.11680682657402415,-0.75587501850983851,0.69815312448306321,-0.093791246967287953,-0.086538990435238425,-0.263395774810415,-0.22120635951615925,0.11689931652871757,0.66511883941766814,0.49715681137746986,0.1326014142277992,0.510135572778206,0.32898381833561208,-0.4341629361845642,0.23627248360491143,-0.1211542428058625,0.28601974520293683,0.18208857796582958,-0.38187294282398848,-0.35703851523401547,0.29032031528681906,-0.076033555481405654,0.20429866097475413,0.7286486869477562,-0.15761057837761117,0.23773974777948087,0.23559585380246956,0.31559769351036648,-0.16616483623782186,0.15333941961854894,0.2147312695099653,0.24888048942991464,0.252396438179645,-0.0823266383758635,0.074276173712014268,-0.0036425631440454229,-0.184667686131057,0.34108368770314723,-0.51910342028252676,-0.2861836955336044,0.18677351440546555,-0.44808370739645925,0.49094808163391213,0.33004714803082513,0.31588195126456964,-0.19604325576275378,-0.17860137309626567,-0.36736241002604469,-0.18376594635503843,-0.33667658192479943,0.00011918213409177264,0.50415630679274692,-0.22394034775432287,0.40470331620022759,0.21781225355035347,-0.62458764292404934,0.49718777920740742,-0.0088327006619214523,-0.0360156946338019,-0.5457766885207167,0.0075541223051351662,-0.23050490180891442,0.21680836162782671,0.15113497705742351,-0.2033944459580567,0.37014138522095458,0.42917231614869478,-1.0193842029398119,0.13842010565356913,-0.46510681877405408,0.14971465551904867,0.663379413576892,-0.14040205843732379,0.034418271755783859,0.23867999321663261,-0.28128337476055354,0.024207991336954615,0.011628678066212666,-0.21825920490334524,0.37197464447535339,0.075552358176425943,0.067842369568121924,-0.018999783032695453,-0.19934009727442575,-0.5237546004257404,-0.44341079835453306,-0.44551136854276818,0.34804861616759669,0.088672636087189477,-0.19965322089298293,0.21638996698576463,0.24161970851295711,1.0883174317602584,0.19216223967598886,-0.12230553144160559,0.43405690788278,0.91410019728810377,0.63526969751930273,0.12444846711381834,0.40699672717256347,-0.13499765379128809,0.51441176938588107,0.22861877661605184,-0.020332406284744937,0.12759085008028612,0.058842266516268053,0.012279753525504037,0.31399989014543933,0.055757805936097818,0.43437602958362787,-0.35139165532010297,0.0068173706955272214,-0.70670483689507568,-0.33928531987620886,-0.098688521668386375,-0.20804328121262433,-0.098225455857300747,-0.497550799415842,0.22407480930354265,0.2470176328668115,-0.08075838281051835,0.045689192999835045,-0.49531418561702173,0.15845608157600041,-0.22180431363675818,0.33609143519391443,-0.31396080741283294,0.54735521311723734,0.19109638128666184,0.547880294461562,0.33043661883518194,-0.26744049536359565,0.45331648859381379,-0.2237901509602197,0.10242012205520905,0.31381282890346718,0.0011420235341532596,0.61666921502771854,0.39289852906525014,0.1815559492513816,-0.24010908978005979,-0.32785912957354524,-0.025463094054298432,-0.26913813268222575,0.12456762690635546,-0.20355612967325179,-0.068856466294446667,0.19450315667008519,0.34809641744364384,0.18575487911096722,-0.19879981571158684,-0.12345655300653277,-0.17087367100699305,0.17784438146371456,0.24268780269307408,0.18542108795710341,-0.263882894073777,-0.054493954644655646,0.095773915529230758,0.012135919687611008,0.069158940899503918,0.99397221236240585,0.37238263402919486,-0.31672871005873887,0.26647772251177143,0.402527600401604,-0.21852653190357282,-0.35778624747151572,-0.21491165237872789,-0.63365814915137209,0.10683981099759778,-0.1282121329415678,0.64957265746226411,-0.17079770113940934],[0.61039773153842,-0.28574670211778158,-0.246742368202697,-0.64630905981752362,-0.0209392781573781,-0.09242568037958504,-0.14535650959390892,0.096243414472333075,0.25978410171739658,-0.069319407472641537,0.0517816586652458,0.3932484458176958,-0.80679484242993249,0.22171783869905937,0.017688517144176311,-0.03091739887578929,-0.010988060222472276,0.35613419821346176,0.73682744116492,-0.063654677428465992,0.12711056867541593,0.90358356413063934,-0.36732664263788944,0.58203536438316994,-0.45399494415611291,0.2159627917327559,-0.43401688864540172,-0.055080424799778482,0.32639500175694408,-0.21347766847731417,0.10337524282625983,0.15821515391285243,0.19579193709489121,-0.05987466437793023,0.13874983724431819,-0.085113566519054454,-0.055082765713886962,0.3178307228780749,-0.0834044071669966,-0.10276687980285665,0.24623040449276107,0.44527892266838442,0.014681183994894506,-0.090180569952260842,-0.1047034946020219,-0.14993691341360887,-0.33660988874799042,-1.0233155687096613,-0.7184904235023869,-0.39745516289504579,0.591459032418787,0.081262303186715776,-0.12090416900246355,0.63698934743068836,-0.10595608837464002,0.16349539475491245,-0.40610422491060666,0.070954930792109086,-0.41955961668935471,0.38694266170088615,0.072805405903841741,0.19563723470569525,0.17180015602137672,-0.046006798028658272,-0.020703901649542288,-0.065791745873988158,-0.93819614616514369,-0.75319448254023458,-0.22623095184632741,0.18556672171331728,-0.25117354326542346,0.64066559231084674,-0.47733834955404353,0.098565038770233648,0.40907909785319213,-0.0064186795749066007,0.18984796378008004,0.27318396112974225,-0.0091022818524034172,-0.44983016554589073,0.20097355263033359,0.01492441856322827,0.16903153515876904,-0.53604546024642574,-0.59830957957655151,-0.082676282904126874,0.15298687264001315,-0.0066779786172697954,-0.76380705418951345,-0.0076548431005212881,-0.23452779950062941,0.15674720863686104,0.11429496670027413,0.53346429501307546,0.13356175872153728,0.46561623023042209,-0.31788535920951128,-0.69485740535710927,-0.35601373605782766,-0.62605493709523585,-0.60858936112143491,0.791335047571661,0.5114302987643462,0.45800412253174472,0.015213832927869432,-0.57486377688468737,-0.24172910331421835,-0.51098928311485736,0.098255719022774551,0.55866219905097714,-0.39548823267840127,-0.031181952812013337,0.48597340411064549,0.5385815506925713,0.13225693614549461,0.056522764605166122,0.1522100439829166,0.8497878069708501,-0.96671935713937707,-0.41991020388732692,-0.32704620275997842,0.62622756112283029,-0.48109192234333387,0.034031499449724376,-0.23434113184988897,-0.12100423826885723,-0.41026720341576212,-0.16154296446306754,-0.027337782614080239,-0.18249932147386688,-0.2181961758325339,-0.11984889987494531,0.38142570815000715,-0.092564080819527814,0.35436651437014938,-0.438561873835904,0.64821947038095207,-0.35628915952150231,0.030167851569314265,-0.0820060514891417,-0.45514381379092578,0.4381967651527407,-0.059903795081264193,-0.8786287196298801,0.226232839976546,0.25075204772300952,0.36551730976411,0.14144835710599593,0.36668112039724188,-0.40338499419871493,0.55016096954486016,-0.99972026070776676,0.70826931007452121,0.17954253900725775,-0.060683875904912858,0.62418893946309228,0.20147578042773284,-0.20176923976951178,0.27918482929896143,0.105164899563825,-0.39645083614780507,0.3337341763763747,-0.060587844653424,-0.26566877935372746,0.29414785079683559,-0.04128504239787719,0.094123833212786168,0.17588312649669421,-0.22394185662691896,0.0064995043992464446,-0.18607883757457538,-0.10044458509517613,0.10840699399637717,0.528449162069354,-0.33678253502551542,0.59461516665850955,0.57861939940264862,-0.4939328119839328,0.31531640581867537,-0.8261303547270139,0.37309932872161494,0.13048955709372118,-0.23183680724642311,0.15945886398553891,-0.15871636753225024,-0.0025029765402747573,1.032463260627382,0.27301438437122794,0.53997966355561333,0.15482738552170325,0.50553528763807976,-0.13950016044410485,-0.10148483432607446,-0.18753288321228667,0.4965893757991704,0.41325033762009422,-0.07842360933133366,0.073085309442739624,-1.0859595774919935,-0.37669943928617944],[0.11088019165906407,-0.28464195100618889,0.12129565530701762,-0.54297163717382124,-0.173720517568793,-0.039602555281911804,-0.26898868874155146,0.17500050027593234,0.012966718749401834,-0.021055721489089244,0.11414840904090705,-0.21436352170191908,0.57279970655852219,0.31447083039394724,-0.43590283340426939,-0.573789326398916,-0.055741672256909749,-0.088701498384927,0.79987357988224261,-0.12254737406796781,-0.26465374834047656,0.58785965908228166,1.019406516629237,-0.14631327342968106,-0.04850983525332804,-0.0971631073720475,-0.036472287994320549,0.4298320504380555,0.21138016766082754,0.23476026640816824,0.22953531807488736,0.13266984653642627,0.11871583158445605,0.71819390826566021,-0.36120708726591361,0.05865576608400893,0.32919403106363043,0.53794732366519316,-0.29581302316625929,0.137253846470587,-0.1828178954098228,-0.32921319348585,-0.11459420213216254,0.12158343421476452,-0.26183365603308417,0.21000547179040816,-0.39604015920716329,-0.61202446176253789,-0.48273625893450922,0.4876245027176821,-0.55712505607617169,-0.24537667425902748,0.28997384892820727,-0.2369415361118026,-0.74875743445007392,-0.4616035373257259,-0.32485752597929607,-0.42465040345969468,0.43849759800009119,-0.42652714197752456,-0.15708077042789664,0.73262000763869772,1.0415768182673013,-0.046067731519523848,0.28209935826495514,-0.0963920251498093,-0.61233507828037714,0.031318062731904184,0.44864800080303813,-0.52972362228541492,-0.16701199878884815,0.66589921592045631,-0.4653974327362031,-0.070953630778365653,0.37206949940921324,-0.10397487145621868,-0.30212598845729477,-0.330386085360727,-0.014780640697978012,-0.68516185491432036,-0.424315367777688,-0.25944040501129162,0.33996984589705925,0.13655463524719844,-0.57916908575688586,-0.21018051895746417,0.056348734836436279,0.21552808562278761,-0.51574474397272152,0.3631949658587581,-0.15510037883747796,-0.036402986914168024,-0.14295416750269357,0.54683964816785213,0.14617301216269396,-0.19697902462056094,0.1964078077186561,-0.027802483769179851,0.54593894839822166,-0.088170362105237668,0.21409921628017181,0.31578188524570078,0.13465237438969954,0.17458308266752895,0.49317911175776863,0.47891952034038965,0.0453319904050041,0.62825557352228467,-0.0084316411565147943,-0.28797758703211257,0.48337723885288408,-0.070724400742380567,-0.57322706396831824,0.097965925236670429,-0.25651131342727213,0.16113081535327453,-0.14444966373119725,-0.32476212831008644,0.014786143700108376,0.55743152287640785,-0.0071723502975122094,-0.28247458800362696,-0.04469369020440056,0.29461677715792456,-0.061304017332697414,-0.41526915763890571,0.56903154483054785,0.22556082572460426,-0.17109416983492556,-0.32522620029848931,0.88844548078272156,-0.42714692159733991,-0.11230020230087201,-0.031456110538600875,-0.19704532055042023,0.033236989450351459,0.054303868774835284,0.45806825597415107,0.97694376344246647,-0.080932653371639782,-0.32791430381968456,-0.019560725541141393,0.49831210359988487,0.32993367613311536,-0.12515008338525355,0.45308019049043241,-0.2917979782298652,-0.27039519450786353,-0.40874807462414248,-0.077271051608565608,0.43170492484433742,0.15593216439952706,-0.11556762754684208,0.67221011821415244,0.3579049040924055,0.059751365654694008,0.24822185464982155,-0.1446726386909252,-0.14961345223424369,0.23640436896362738,0.95243100627195232,0.24304243320478358,-0.50213895964140542,0.12670693987902149,-0.26469103285084838,0.58326091101583144,0.051093915023950144,0.47726127631798576,0.014455400894462383,0.43742552139319613,0.1069475882104811,0.46084742253964694,-0.46352729756690025,-0.087009272356945652,-0.653792170951977,-0.65604909224555641,0.27574918410147847,-0.069259638781872579,0.10767398688741629,0.16796291849399717,-0.29107206597463953,0.19964524466511,-0.038592707872830825,0.050814870135789822,-0.4740565345560882,-0.24298550531820889,0.82682884932909573,0.30961162719474838,-0.43062144345636072,-0.21730773795096789,0.09256536325620536,0.30915957972926167,-0.11462608355908961,0.72837238195775922,-0.40043517477301976,-0.51181723235930654,-0.14432031759891661,-0.26643366286276665,-0.33900302683448419,0.1617541071915059],[-0.025594864839540727,0.011358324990593485,0.092946686752200441,0.6251675793189605,0.22690872573604856,-0.32472285257014627,0.64045335552977356,-0.16458517660536254,-0.52996340362871264,-0.21383179724591017,0.22231534363966807,-0.42525499539331213,-0.11779579490963721,0.36286091457219943,0.42733637855471507,-0.50429676879070828,-0.723685978248012,0.21999754657159215,0.42809670239842051,-0.40551626900855231,-0.36714020366777467,0.3184019855297357,0.0895863799982188,-0.097354360826221911,0.49731845870756447,0.56334565274563042,0.22824957753295236,0.47601963394110874,0.338228481891016,-0.06783479164532423,-0.11856963051436219,0.13498034887357527,0.28679899616162408,0.23350418636906212,0.27830161197800685,-0.12014894224854039,-0.35359372238992565,0.51795409695061434,0.55576314177890984,0.017498676023376642,0.082957858597600562,0.15502901616792356,0.045409838778351544,-0.010848106624911005,-0.067946004396422385,0.0804063842791219,0.43815576147554691,-0.13827676409585396,0.1775464617274484,0.66225896430970754,-0.27286989090134378,-0.78595103310632175,-0.23280599558973034,0.64002398306085717,0.19682340302199858,0.2629390549355472,-0.23569490646275867,-0.20793760487453458,-0.27339695874570535,-0.13874481563132196,0.27782967531713709,-0.31224947635711964,-0.33570059245743517,-0.306413195447941,0.064690361318980621,0.86672000521307557,-0.027512161420772629,0.18660914983759974,-0.17260566616022338,-0.25417842158532122,-0.99625849757167662,0.17299952122448284,0.17366502817620055,-0.19820361850323875,-0.31815765831870529,0.19535128282235895,-0.015754581277114519,-0.084407442995739476,-0.12602635349966074,0.23531203260706754,0.1696353402488946,-0.65796394412820913,0.030493541471359711,0.50557554084538459,-0.53464714222968446,-0.12477778720528224,-0.47621687904246779,0.48034836354607685,0.29706332444419509,-0.35381678852036136,-0.209113212957692,-0.01935454232646858,0.0056239271637213957,-0.23752646761216081,-0.089073193903911052,0.14260746998333498,0.2826541621294491,0.17036110054089348,-0.2417770546932031,-0.33121657817311306,-0.29671726034566442,0.18184910652270853,0.27100019927692726,-0.33338973537265554,-0.35624309398966647,0.15827890319043386,0.44231985903364496,-0.69442772898978344,0.13046725407119877,0.13939623344309185,-0.1103537275403757,-0.24694410425173755,-0.32467905063988639,0.11213274928574953,0.18942453828015843,-0.24600758639539316,0.37940857721011156,-0.32884424927842604,-0.27585202618549531,-0.01358581041913824,-0.26787024658644221,0.5457891667713991,-0.31371166997388117,-0.11050237013624999,-0.48266844285192317,0.51607283296928519,0.0099769489301699717,0.61276058495687624,0.2659907032506732,0.29499039668319976,-0.46139366628694967,0.0925477897728507,-0.256459384932275,-0.010765354053706461,-0.070222631849030076,-0.2816357596919889,0.12654574564900267,-0.1841884793247974,-0.32206266627925817,0.73464463069257968,0.77134891780799564,0.25888203899338819,-0.066522550912051115,0.17837855462242075,0.0076420558326419641,0.21600789321546327,-0.17848763085563174,0.74071356794271892,0.32459163555455467,-0.15727599544664503,-0.15588715759173791,0.058346301771751673,-0.6431347243767358,0.037590688710752593,-0.0053592071246501127,-0.4116658038023438,0.79526800003783737,0.56982289210314963,0.29329958526712019,0.17990522049682048,0.24957529152122693,-0.13380412632100264,0.070329890455731681,0.68762521213415828,-0.16814789934062374,-0.30594936590937089,0.56332921877741116,-0.46004366199139929,-0.620681704514206,-0.4165425068208341,-0.42581536097944472,-0.21326967623277154,-0.32982440169020755,0.26313155286985074,0.15350643525560181,0.56867596045291724,-0.302158580959596,-0.1425058836957914,-0.14380960710315213,-0.50071960854913622,-0.182070220853398,-0.30457243519673688,-0.18260376035223969,0.30106513348251324,0.21084505948442184,0.0452334350896403,0.076876394015010313,0.2269862287351726,-0.093399214424007615,-0.55942585690779267,0.27067749082922238,-0.0449318160972261,-0.24941801555255841,-0.47229007906198089,-0.67519463797042123,1.1081495530238084,-0.61438683355069179,-0.51069880259774636,-0.16650003310579689,-0.93529666540919787]],"ActivatorType":1,"GradientAdjustmentParameters":{"LearningRate":0.1,"Type":0},"Type":0},{"Bias":[0.0,0.0,0.0,0.0,0.0,0.0,0.0,0.0,0.0,0.0,0.0,0.0,0.0,0.0,0.0,0.0,0.0,0.0,0.0,0.0,0.0,0.0,0.0,0.0,0.0,0.0,0.0,0.0,0.0,0.0,0.0,0.0,0.0,0.0,0.0,0.0,0.0,0.0,0.0,0.0,0.0,0.0,0.0,0.0,0.0,0.0,0.0,0.0,0.0,0.0,0.0,0.0,0.0,0.0,0.0,0.0,0.0,0.0,0.0,0.0,0.0,0.0,0.0,0.0,0.0,0.0,0.0,0.0,0.0,0.0,0.0,0.0,0.0,0.0,0.0,0.0,0.0,0.0,0.0,0.0,0.0,0.0,0.0,0.0,0.0,0.0,0.0,0.0,0.0,0.0,0.0,0.0,0.0,0.0,0.0,0.0,0.0,0.0,0.0,0.0,0.0,0.0,0.0,0.0,0.0,0.0,0.0,0.0,0.0,0.0,0.0,0.0,0.0,0.0,0.0,0.0,0.0,0.0,0.0,0.0,0.0,0.0,0.0,0.0,0.0,0.0,0.0,0.0,0.0,0.0],"Weights":[[0.026596767197217416,-0.10871555059842583,0.044330990929539446,0.0045509354999108964,-0.0051196833130620675,-0.0682226390379949,-0.057773828487327573,0.0040159098656407655,0.10907367117861068,0.094315151705684719,-0.0061577524296897558,-0.0088039919746532476,-0.0191161992516397,-0.035587188464127714,0.074688178939077726,-0.069324398740862492,-0.031814762335672805,-0.054188773737686553,-0.075418376637108667,0.058399400255922267,-0.10073348868648417,-0.13976765439897368,-0.066966349499337788,-0.088622157182875444,-0.10854282640135216,0.01574136234849903,-0.14984710538439916,0.0074845047886207515,0.061019560396312462,-0.070913542534838919,-0.0390435617111855,0.12088013080395792,0.085158167992086961,0.057552484338942542,0.15596248947381655,0.069530210718128718,0.0094011124556819311,-0.016515487533425983,0.070974033649095,0.00578944701180664,0.034732623453426106,-0.071655533534649152,0.005770272781348354,-0.045966039160911513,0.063525529347377652,-0.013848985099423516,0.05893004838554329,0.17151468750376378,-0.042660604951334211,-0.058200841976875077,0.036355744215314227,-0.049687822404362023,0.029161969915794537,0.0862528988407012,-0.025644331174094866,0.12129815686721028,-0.027446029728280988,-0.13884859601277377,-0.037151325689729738,-0.062519856176367156,-0.011748817064563481,-0.0028197473826693281,0.04863250353388588,0.051183587949436955,0.05193602036751048,0.065829302196506331,-0.014118193040094245,-0.08605010525955821,0.1723684725282833,0.0058163261650614074,-0.14766359680068014,0.14518637311657795,-0.030639175077657187,0.00092955287272336519,-0.017671730871689977,0.067072987442130028,-0.15298886546227863,0.039344972997770018,0.058952440624822473,0.0047604999626945721,-0.037641679595321081,-0.097155812971895086,0.012023717106662692,-0.010414966539740934,-0.0088737313452112877,-0.072371703581164612,-0.0061226879465951312,0.11838117151935416,-0.015093251644331573,0.11160997524681887,-0.0015086982415866647,-0.1440833972494357,0.089527758847879349,0.030810036769145007,0.038327724935738557,-0.015492345313817447,-0.042429770991680334,-0.0013604653437115832,0.014596656874076972,-0.0488915356382803,0.149307284536625,-0.017347319972394002,-0.0072162890928354042,-0.0785345503883208,-0.030868597956707693,-0.16192950346849652,-0.022966748480508122,-0.00824726545650392,-0.094037524586628979,-0.036758645386082131,0.00081680893508178439,0.12861772977142894,-0.0017612470516000193,0.060762289193042877,0.0628762750123379,0.0072103200677331794,0.034947896769170685,-0.038262483409148847,-0.037252083062199064,-0.025674193805432816,-0.01031513655219163,-0.0603541887563271,-0.075711576053459489,-0.073481026189829268,-0.015436463207726502,-0.036236543153248174,0.015124537154702597,0.093265614528528579,-0.060534164606992694,0.010134315409780095],[0.017372305890629634,0.021270401245695066,-0.013683905190928363,0.094282085079206879,-0.093606412900893748,0.003608580557572902,-0.028432833497781203,0.065284901329028616,-0.00889816104032397,-0.074082872892767854,-0.048852155932814369,-0.050861291789767157,-0.04848381378967654,-0.013702115429155171,0.055495622217758812,-0.08149200267222656,0.024273556654752983,-0.1598759735250618,-0.032978108179386519,-0.079200761102887624,-0.11553022028827682,-0.0074617114283627058,-0.14715565515525603,0.069679826331667652,0.10633450765884386,0.03582894391318122,0.14157781267297778,0.14213477318318923,0.025628553655739027,0.060306027441494249,0.033321405365038859,0.02340541185684444,-0.037953135475031839,0.030186612898566029,0.035859298809712455,-0.0060317836428546451,0.01030664962841395,0.034833823201509725,-0.081139075818997167,0.095199663335531093,0.028288854410547737,0.022529982605290183,-0.086167789604871731,-0.041746299187947533,0.014137905043108056,0.01716530192032354,-0.033784880109048586,0.0070866644861787243,0.14011055940279804,0.0897502424877921,-0.12023966449185776,-0.12970368845977887,-0.045968532878877144,-0.044634745338791866,0.014369632874384475,0.033910731365470938,-0.013481481379030188,0.0674401289511281,-0.025261110090797914,0.018905164164399975,0.0688545534456105,0.020493126039660376,0.023856245073946888,-0.057065030814634536,0.038503955484955749,0.056301844565271673,-0.093418140864064664,-0.081576876253405456,0.052903894077812159,-0.059041881473937623,0.009234058126942897,0.1335125419054122,-0.22180671695341345,0.028770058651036889,0.0877386657681201,0.067085764714593724,-0.12809583802192137,-0.068469552569790829,-0.010165468534565599,0.0021746810455776345,-0.048059816331523973,0.021393437051368955,0.08341728609251807,-0.059232049094524376,-0.10780665261971979,-0.025459412083451573,-0.010612874320389296,-0.027638265212994378,-0.0089321871603721664,0.021455062035888497,0.11999123594727697,-0.037747988274204718,0.11704805821028338,0.0037713171142698169,-0.01247973647689643,0.086330480699327874,-0.011185953465781957,0.091891175751109264,-0.062238797120144192,-0.060899163989040508,-0.1113031056138111,-0.068889332783813526,9.474303295634212E-05,0.038779248525289807,0.048549166867302734,-0.02940345756917186,0.078351709596261074,-0.10244384603011177,-0.068711490814643908,-0.03782975788355563,-0.064289257570902827,0.0049480955580811919,0.0081450114575379318,0.091988965455255964,0.039026642353520852,-0.018707962330901825,-0.17584338787756987,0.093960745176691118,-0.010851896488206704,0.018724817029312096,-0.012229234169318558,0.0019745407632837694,-0.058011022738108479,0.036486034406792392,0.014809722964239656,-0.018584576201252988,0.022379460038929738,0.0095682774568126832,-0.035170187452193427,-0.04999521204909383],[0.020675324954590783,0.088557267056448785,0.07630551909651867,-0.047587745109289079,0.058431673728009011,0.080625562160466763,-0.14587991320331142,0.1132646329432359,0.078210711859928686,0.036490793425514589,0.0036301416378397107,-0.083855790256441659,-0.12272825478732906,0.070124948110564314,-0.043878285610714933,0.035820502667666489,0.013817912779729711,-0.082474123177484329,-0.024663389379625238,-0.000574967658341753,-0.15534009718075711,-0.050571938844836267,0.00073607562657138146,-0.050362569624568712,-0.16664687532210365,-0.0044890094182360989,0.081672974215404981,-0.083293092895945081,0.025415771342820609,-0.026420617818188295,-0.0010458942500264738,0.20506951459146641,-0.073573275155511569,0.019759999539628904,-0.012256033543369226,-0.0648956669312556,-0.14118158872003167,0.072492934753651983,0.067589915780214976,-0.075618669733870436,-0.086850147988498771,0.056642050661670218,-0.0685178221011585,-0.0032205667911532039,-0.05894037211239582,0.099256882228426921,-0.086760759141410584,0.11675385134441604,0.06756881672321885,-0.027535816255991274,-0.055653265707311717,0.079080181385456388,-0.033250977025897986,-0.14197106577976029,0.010338907465683847,0.040464905777177915,0.028901422327760912,-0.083392074734081278,-0.0623752867108761,0.020719528475673498,0.097183458165389938,-0.024243875972281781,-0.010045263616994584,0.059078244287753455,0.051449029160232161,0.14445332173115166,0.0099674596444080475,0.087415313433336375,0.0781745526525561,-0.013156985429440262,0.10705150442027703,-0.1143790789986994,-0.068015708702948444,0.059667959656188076,0.037579074311037214,-0.045967894969882989,0.062737390847677377,-0.068238602181540778,0.017336152335704767,0.099995139773881345,0.093062159141827,-0.098436555572287865,-0.047121388474887796,0.000133423499670077,-0.025592397630802313,-0.020346482792171067,0.032734123608586872,0.032639747049060273,0.0073614592093644371,0.13954516790927285,0.029825798188045344,0.068179743152824671,0.0075318245608245,-0.05311026363592946,0.032023189127860195,0.032691480459455087,-0.010040386575044623,0.11573868924768256,0.0050905194190938073,-0.041162127689253585,0.11531885188573841,0.07485253540468563,0.050877243225426513,-0.076275959767887119,-0.033965419654128588,-0.045596888299643465,0.027834286425718717,-0.01419201057191727,-0.020235000258083623,0.10116353198748003,0.09649464547615022,-0.072045616168081569,-0.026297387191497993,0.021077156423702347,-0.00503713080986258,0.025943311778065956,0.057677431696460862,-0.18199353910030131,-0.090041025959239476,-0.023119909475500591,-0.028390767494282345,0.047102644438890666,-0.015405163191403981,0.025481472177871604,-0.1339465631133451,0.045218964341124282,0.066313594423447891,0.13699166070959928,-0.054762855832140481,-0.046304078584516323],[-0.020852285547177954,0.059348049102463378,-0.015469363728076566,0.13690844718828668,-0.026730101704628619,0.0055995665346450932,0.068508337461575114,-0.033598038587322521,0.095466725706125521,-0.049848281456595173,0.0060957933472403462,-0.13594992522807287,0.096821521251934189,0.0053522413863215483,0.033290211955675414,0.026991533386461181,0.0813529166794373,-0.037043393497043872,0.046246068881562588,-0.14249716196611345,-0.0988612284418498,0.0030937711118810846,-0.10686941806091817,-0.020177209488285348,0.0041256165614362208,-0.067047073240543237,-0.075634734793103162,0.010304873687595488,0.053425353002395516,0.024780461604762584,0.079819214367698982,-0.023531661577953392,0.018394175550137615,-0.025738924723114592,0.10405121758364967,0.0018723755955567028,-0.11622415858758212,0.099118297596454477,-0.066728544414615329,0.0857470357616008,0.066608091702328481,0.037727226699312014,-0.02220078427362655,-0.09747058827855723,0.00019910832847409374,0.0047171907802935967,0.044482600555109136,0.0078510677103412942,0.022329558871762363,-0.0065905884570976458,0.0061411689730511334,0.036735615093213519,0.021124576085504609,0.17264100803289847,-0.047667548300990105,-0.0052106819648844475,-0.11265291863874456,-0.0014469554839863525,-0.045046864303008562,0.096368598751159051,-0.10376524924329564,-0.0651247654345485,-0.0021482468990296497,-0.07245858488347727,0.046115610679506758,-0.029653200488717363,0.012177663382752401,-0.016250654811751187,0.18604609033863606,0.096214912923521731,0.02628293815927139,-0.068800317581994577,0.0035976811792820906,0.048799694989370208,0.020505150754146242,-0.12263477856132488,0.033686405058924174,0.015644519006730074,-0.070571285177984389,0.056347050354731643,-0.055808597224995087,-0.031481095918088661,0.062539551518131412,0.067609218078663255,-0.079165625327728736,0.033297475274269829,-0.061511675729371676,0.08459692827411347,0.11753800199395119,0.0092209277487598634,-0.11232020979894251,-0.0081041415346919179,0.054323439159586311,-0.012894863038027182,0.091025588670640659,0.016665180909216683,-0.087286821744000237,0.0095332394678301832,0.11034207737379312,0.02192762703199308,0.15990832813146289,0.0040038629953888941,-0.053254209169664661,-0.071823749377018256,0.11626870621833725,-0.08209843940950079,-0.027659690398123982,-0.09253203770388313,0.018459023330293166,0.0784957029511482,-0.033996538040222742,-0.0080058213253896369,-0.086704266441242239,0.073445798580903471,0.008918175440226524,-0.095549448276618265,-0.052102430745809912,-0.042774360179598465,-0.078458933054242924,0.11737922670589063,0.038077225072903474,0.078537893160176314,-0.060390292739428558,0.03163780691304742,0.00069070752412875693,0.057660876432279969,-0.074862832493846315,-0.0028920105739515581,0.032452432407969974,-0.034149192046823276],[0.16237421081640341,0.043674336656875638,0.1492787167624697,-0.075761389338435486,-0.092736654285628051,0.03911807809514916,-0.022232216872787567,-0.020562924423460062,0.021864410745018159,-0.084639263375985846,0.072292824884166357,0.052013984561767493,-0.04019821550433908,0.06473465253727452,0.070408438917147778,-0.029664726852327451,-0.046371160799204177,0.012703046577766769,0.064232841220583509,0.038962007167001655,-0.053490387576379805,-0.0193029028184815,-0.018229756563818724,-0.030806377811391339,-0.052647344450936141,-0.0750880796114484,0.04870954032681836,-0.019803360397563963,0.063098428778467,-0.00050117681939139858,0.093700232849547552,0.0093498223145824216,-0.0409718156985656,-0.032310457585893335,0.042504918133623726,-0.16033113711043384,-0.12501604783710524,0.14557547212830405,0.0022530296858994307,0.007379576613597,-0.0031806650953708927,0.018888557042873007,0.013729402860449835,-0.061117420782972887,0.023495276713130724,0.057311009125790208,0.079536618992637,-0.080760289693954879,-0.1992655676078009,0.038130822301449811,-0.024898945045890478,0.0027235328869398387,0.035558309086462674,0.014089346048605048,-0.073536804195648647,-0.033612989955050084,-0.0851596309757464,-0.0014881727710670382,0.1333374184150915,-0.031489649617181009,-0.0028073644585040669,0.0499864201861965,0.013913407566882752,0.070739828492638351,-0.038450083240001223,0.086019428981753965,-0.060493679346811109,0.048293787680209872,0.0043796386701798152,-0.01258046467757103,0.0743950654766925,-0.046538225859959183,-0.022075028881501084,-0.090081669934938727,-0.12898186869175002,-0.059128319394288947,0.050250199124030413,0.10727901723224588,0.044807048033531784,-0.011922561683784777,0.0079091085228746912,-0.049715974373634668,-0.023754708805186042,0.13431180600083417,-0.0087625906446383069,-0.056595759966476346,0.00069107399627584519,-0.023199252809918657,0.0152911355112152,-0.043532904247718551,-0.11185913816343425,0.020844578538566479,-0.027352601777601248,-0.047716673755612164,0.047174154482272045,0.0071463859475604883,-0.032452632481155534,0.0255096894485101,-0.005549865300298034,-0.023457470453563424,-0.032327091875497406,-0.031550121182574165,-0.059883327536505153,-0.060949215995855545,0.031226030448238126,-0.11751775258280216,-0.057498923033277041,0.10375541619420035,-0.054592759432737024,-0.10315377761165206,0.052254647064921424,-0.0040315335318964821,-0.045844445624744434,0.11582069223925948,-0.005243010800182908,-0.032989634359508781,0.054739186776691831,0.0075185337124456693,-0.064990158517298613,0.028447482413209404,0.040540590828013333,-0.022048086925089961,-0.05784579913333715,-0.020634229298019727,0.051118320497966684,-0.027340861973145204,-0.046863382055406556,-0.070591542220734063,-0.0099161390544292051,0.037490827522113329],[0.021049616292426642,0.0269157946250652,0.015512682996752392,-0.10724078189224648,-0.039534577369769022,-0.095127215062021542,0.063923883571474577,0.0049269868234272677,0.1123371270716832,-0.0820489103078823,0.11977286548035064,0.017432573187591272,0.071720279038359716,0.012833190796585072,-0.039768354805381476,-0.089181911376683423,0.070012684407454048,-0.055463833685699841,-0.055630384876567712,0.0083746020670677716,0.028794096320600898,0.058338072426531565,0.12318323070561982,0.14369099832670271,0.0482969384551072,-0.053710198729412982,-0.0460923896183003,0.0007659224330875484,0.054365251587280922,0.063717581005180671,-0.019145361572679365,-0.042760608572300407,-0.11245836385425806,-0.074262265405146813,0.008107234299665745,0.0026201678465762371,-0.054541738719420044,0.075830514696684767,-0.11712342207322737,0.036362936003413664,0.0028736834857250233,0.088918591655156545,0.073733341741309133,-0.017677491504687351,0.01349788793276779,-0.069480331114252974,-0.0164134215153973,-0.14214709674896861,-0.068048800470652523,-0.052962117050379169,0.079817358464674415,0.054575249478155417,-0.012177094618815422,0.036400609409248323,-0.031779445222430237,0.0659176357907486,0.054503788063742467,0.029521683602575552,0.054506175396018888,-0.016781014612455396,0.02604660929144478,0.026018776143885345,0.044623476698326385,0.052608855209262347,-0.076160988887038844,0.028794161515190254,0.012654296626334272,-0.063388396826991211,-0.13730368691998826,-0.0040938985152764269,0.0014682770736387989,-0.046456220094702058,-0.032640059055978471,0.01052768763688129,-0.082295974055694859,0.10720573348521019,0.084950317264121541,0.091716449772889314,-0.043794118062783306,0.03592354357632193,-0.04889555540904128,-0.091821038001855079,-0.047032307550132074,0.076339658590244108,-0.034745216194812252,0.0045584163697572856,0.014307907309231005,0.10884959176513125,-0.0036852904579131734,-0.11216720920020563,0.017783235097590219,0.09921157661443307,0.07951602295440037,-0.065339440055526887,-0.085330226047492061,-0.055921731929271287,-0.02332495541922296,-0.037703061844843788,-0.079233404178671515,0.066578562318140175,-0.03066299338655731,-0.042962910693634837,0.01051739340342981,0.0066173407918498212,0.025767428679358446,0.082561259424467168,0.051287509067861364,-0.030587612907667507,0.010878109891442856,0.04252589166645681,-0.0028266290824812985,-0.051029971198023556,0.049687344929798365,0.11017810572018381,0.13248074652470449,-0.0984857495312349,0.013124340859584562,0.098287368653714735,0.036454517609318463,0.029776681673090659,0.018044767044652105,0.17180000748698665,-0.014053811118798644,0.095926651152657513,-0.010545470774740811,0.14791647351570192,0.023679834188712289,0.0518402569837047,0.032578327808169945,0.1335180124796701],[-0.032665100289970127,0.020185671757125344,0.035268055609198531,-0.0665269281983331,0.11840157407085136,0.20657954842874707,-0.089429007813044567,0.0079084930912152254,-0.14615319666555174,-0.078465454376254351,0.043747399567878653,-0.046082146085338858,0.081329947467422628,0.044033974153717834,-0.045978659757152908,-0.0010290643969512547,0.026324524515035044,-0.018233921667307359,0.055338284871535477,-0.046051207617974613,0.017459519309457595,0.1094320746884056,0.12426792103176187,0.13279409278160786,-0.077862673136273583,0.0031779509867203362,0.029772538046589858,0.07405355279993768,0.029323436602150126,0.015742984507887959,0.041311353404864692,-0.173523714386433,0.013726731250374654,-0.037800040243041191,-0.0066383399042232328,0.054304261344137447,0.015734637989800869,-0.052422294772945487,-0.096428419594584369,0.12407045183811964,0.009767576057049648,0.069929218761119877,-0.065330020080728968,-0.18728311420561081,-0.016561185687401853,0.068284201336781591,-0.015418123783751039,-0.084480521339304393,-0.088845765720499473,-0.029197125411511003,0.087534713296712335,0.054503040465984177,-0.12174737748823895,0.057138950547973362,-0.059395334400585441,-0.12130306734560446,-0.049863617204154768,-0.12207927582776665,0.016219719171370169,0.012476244986995332,0.035288847073136217,0.012952663209385262,0.063949953132516238,-0.057004700362573942,0.093665603445916387,0.034810935522229594,0.015723457402808141,-0.039676013994810411,-0.081966446169409374,-0.045862322777416052,-0.028082297474583528,0.061691744253136761,-0.066355202485938222,0.084913876575390165,0.13627258490630467,0.0056068939512177261,-0.051177576292645334,-0.074025189562584554,0.065102280254695291,0.0059214465974382511,-0.038199257980381429,-0.00979684406740797,-0.0910017970843552,0.032594858872865555,-0.007838762000486629,0.058536029929885817,0.0959059695541437,0.093578493016587425,0.00042476072718713743,-0.014692488674985862,0.086518314790026155,0.046730424024237181,0.061727924302779687,-0.090428578098372125,0.075837784371308545,-0.098615653796614119,-0.051095746657460139,0.10994282381361308,-0.017714603578197097,0.016870079118349843,0.026408854568373965,-0.067787626531807643,-0.012214706383324179,-0.01140963403766085,-0.036043695484981285,0.079623887668264948,-0.095747623719128858,-0.0685190108210491,-0.002228368379496538,0.035832621460446419,0.004454172980619826,-0.049786874625226164,-0.059828910057432315,0.042140571634732255,-0.050956561355000457,0.073378948761442367,-0.044236729692819589,0.0060728823087618424,-0.098376865197878888,-0.016831334093419067,-0.022529033273906547,-0.093851486747037124,0.010300688761021953,-0.053341980594573554,-0.021000886572837052,-0.078387516859997355,0.052937496325215432,-0.028956998463341082,0.020747359948754467,-0.051180163818995511],[-0.055290887322937306,-0.062146720500186485,0.0057970209526856135,0.050611363229594877,-0.010554706973679131,0.0735131867591378,0.067311917270127142,0.10091252004340119,-0.03729035039175195,0.059099572811379029,-0.14024427400072451,-0.018861097728316328,-0.03823671199796877,-0.0577060611322008,0.012404808558563086,-0.016721047636541905,-0.0186877228664866,0.07423514634806036,-0.0032635153210109303,-0.066101268120045534,-0.14480778551850695,0.00026860493123350229,0.056605504916154056,-0.020421996781290197,0.026627089056245962,0.081241825011158772,-0.028255852274477179,-0.14030595755697428,0.041063864719750445,0.058023881230175163,0.13791734967920086,-0.023451138424483417,-0.040862243710519955,-0.020582031207038456,-0.029255950906895808,0.099333739930909215,-0.088462053786530936,-0.14314653007446698,0.056274290929874,0.053698477107619373,-0.0038326729534786576,0.06115405687072633,0.058068477920813287,0.12255115065952026,0.045714573177063782,-0.044260399704482575,0.044344209138740945,0.0043874570494995936,0.067077489729063813,0.030546787611780094,-0.052712357396331025,-0.017034584009503015,-0.12562666123876889,0.13912769725487623,0.11442502704260829,-0.052028750996689965,-0.082106779535845387,0.076282640297703611,-0.0077835599096468082,0.014822569071350484,0.050063243872086063,0.088450501730465786,-0.0093193751606791188,0.0032326467822720775,0.065821646496781461,-0.044672971852428509,-0.02660678832691642,0.066781741777766745,0.021269564500389113,0.009530503757095873,-0.1009224608365961,0.089502612483132279,0.04139820478823119,0.075779660194639289,-0.02706481592420177,0.070270093437892561,-0.0065252095404492736,-0.00971776508957835,-0.012734235862967446,0.11687462458486457,-0.059447472654351921,0.10659978177454028,-0.050265043984661424,0.16490037879033975,0.15049422209911514,-0.080010427940965384,0.030215461349159905,0.052977548325399818,0.08821080833219877,-0.013648467033862733,0.05391302158078673,-0.085725288162061583,-0.017300766557998896,-0.086668167419284639,-0.061891087132261179,0.046401583098591742,-0.035037369598815871,0.0056380002642977918,-0.058310777400224917,0.099186192351189015,-0.11368105229055876,0.026632394588319362,0.030096540067181477,-0.051820178113832938,-0.076097084065396017,-0.10426110234806246,0.075415217717313882,0.060968589694092377,0.052757610706317008,0.011001153836891032,-0.027558151591033083,-0.050164074706980713,0.15003768368662657,0.08788446875382705,0.039171068874470638,0.015702372689885415,0.10176010670823724,-0.00890892989794973,0.043671091117685461,0.026989693296859341,0.021745937486396017,-0.02826760545465147,0.05354211164464949,-0.052043334847271291,0.061042210161714495,0.035439382927539995,0.043720694243534731,-0.094257924513665048,0.033011482457636493,0.041999501579109318],[0.053442434054197484,-0.021238621204300385,0.05338834256979922,-0.12096499877662947,-0.10185296864711627,0.052922695515723074,0.060308077215168537,0.18835540324692343,-0.092154695428993627,-0.0071361147777069854,-0.0050241098129963193,0.0043540194915454647,-0.024577316043831406,0.12997793934439481,-0.0028551175772940922,0.014813743734310918,0.011704561811612075,0.065232897517623858,0.087149414228669647,0.0851289815410848,0.066073997882065791,0.032810718833910062,0.075761268315629141,-0.036490991912537643,-0.020673879693442657,0.041304336383685719,-0.0074529302017339654,0.011873723265512516,0.0822865254131218,-0.016074327116091622,0.0738653176592242,0.0052440542847219506,0.084017498281585529,0.12341393948017995,-0.10496312483351573,-0.021596920400956562,-0.028342419883042175,-0.0195661228690305,0.077381560534577523,0.045441547555623685,0.016159691252410704,-0.017715529854924611,-0.0091209388012828563,0.12153393421532668,0.088190988363870487,0.047130657429701357,0.041392629031933727,0.038254171270298308,-0.020853647923927823,0.011794779465551838,-0.0027047154162392127,0.029658977226231946,-0.1568157043879129,0.035754230378957981,-0.10514993076079662,0.00978846361570738,0.06193881572995593,-0.039564254548180425,-0.067065116693849153,0.10519019599555023,0.10116164518011565,-0.071265516658166772,-0.015268651779939031,0.050014260668844505,0.079367001517089655,0.015471052961777551,-0.0073801254931915063,-0.14965759545754415,0.071091192354730923,0.10142980003299135,-0.10546673990804333,-0.052015994815262777,0.10623840130285582,-0.052546652407743644,-0.012524579213882397,0.089965178080577718,-0.13623771785969768,0.037984050218767738,-0.0039591622135960076,0.085783798237431527,0.11489392896670313,0.098823660765916449,-0.027949996757027872,0.021723029029337568,-0.014763797828910697,-0.14837344250094084,-0.034921996392617692,0.020720861365194632,-0.0067441168970571062,-0.06322492107891399,-0.065496068780581007,-0.028715269111645274,-0.013035833413544806,0.020323911132840142,0.082958237287419828,0.0083630118919698054,-0.06157747356527829,-0.0656387639437348,0.034968941142647744,0.075493176449933211,0.037767564152543051,0.0017139304389669225,-0.050576946117119756,-0.036924904617874114,-0.021912770275220428,-0.057573671043114366,0.017189980870266255,-0.08832151517825719,-0.041029364947562506,-0.030243182899173496,-0.034125063457073938,-0.052368155704603458,-0.12420412960035988,0.0821343152813784,-0.024220694725810711,-0.073305392870170155,0.032529889141084234,0.011300168625438015,0.093687794652052361,0.13198999735774489,-0.049941694945266478,0.14724328637317191,0.09436674188504536,-0.033481150917453337,-0.13937791405598535,0.01134033424692108,0.07687683711857235,-0.0031366270088700908,0.039277639731015807,0.071909615114102376],[-0.042891336588191296,-0.082691566426855517,0.076595827935542857,-0.0062002524268661091,0.044130912399623058,-0.032851206912836356,-0.045989326810657309,0.025605427750357304,0.11861723272890257,-0.034124596069831106,-0.039066164086657654,0.032421490849994232,0.010497908665808173,-0.11833736328201336,0.0455893788378123,-0.026481824946488808,0.057622081732460667,-0.038818903881362714,-0.00085026385698741427,0.051915522859175361,-0.051146122938834776,0.10950666867331355,-0.092327274969236664,0.043151203169326122,0.03695772644679822,0.10776535230127507,0.020455660659657295,-0.022660626230538317,0.10963851181566668,-0.0793213970653218,-0.058336764264621,-0.0960942916069633,0.09599347114608818,-0.0080281107321784635,-0.132839544017134,-0.10574810167109906,0.019427361507055842,-0.050288797013345266,0.097969810023979018,0.0758293977362854,0.018480547962405652,0.13221690601587277,-0.0889126531240869,-0.040829733320091842,0.040114950211624388,-0.13554608653308287,-0.0523436716875569,-0.12527078868255093,-0.13533098192741325,-0.03800004444488439,0.004345695049374051,-0.067503622207085348,-0.10861772279579071,0.07407846707007576,0.027896286867666945,0.088782786707878453,-0.057606588686203011,0.050179462933592087,-0.023261044328658904,0.029377097981280312,0.046605411851807048,0.076601948066490344,-0.012429980963725659,-0.13228708887353646,-0.033547384325896726,-0.064492658528972069,-0.019063067895494598,-0.12008411617698964,-0.059618790625145808,0.11279388783947857,-0.069314644381288579,-0.05582574063805635,-0.037840447604638429,0.0714535985845018,-0.0609360606467199,0.039730874122981034,-0.0016672544077645662,0.044800577103589138,0.06950918901485971,0.019171765794506156,0.063739185924867048,0.0080015194757823566,-0.076108261318857257,0.08221413256389451,0.058205034700077644,-0.014015330654066004,0.12561826003016058,0.0055121274823718468,0.086033818807694867,0.017532167766176242,-0.048906508822523578,-0.059201845451565566,0.036536333742270118,5.7439466471463341E-05,0.033621371625612143,0.027655771215288887,0.027983900478134142,0.15221609491601082,0.021796106223031447,-0.065820589797873766,-0.046651112072254045,0.017876764642083466,0.030316072135620487,-0.023630448384382257,0.067557209488307846,-0.011099147603190779,0.073236622806744145,-0.0628449798718221,-0.035304707970057962,-0.058887518902169492,0.058545133713010206,-0.099150273931866414,0.02487727522959007,-0.01298324976793965,0.029367995814758061,0.0092560280192772668,0.00071359366660226286,-0.018847935228519509,0.082118246467282829,0.063390717676609074,0.01754750120497358,0.12002919681450269,-0.043480631499661117,0.067303075680991434,-0.13050680715224308,-0.029109829271936057,-0.0076203348321277386,0.10998613339796666,0.074345515323007441,0.13944729768113531],[-0.072245721215599815,0.094096463029096536,0.15122230616060761,0.0042964904405493349,-0.020876855812129124,0.09414476334683082,-0.051723476670334063,0.021205806356008557,-0.049348173346127663,0.052059573967830244,0.057648467245075545,-0.085470930970620612,0.095305895681728911,-0.076547499975046882,0.096570016415682969,0.03336670800714453,-0.050706886115295849,-0.040123575215086096,0.0062726423634885328,0.19716423305868758,-0.075464258353394834,0.012466270423580752,0.10429442696421923,0.02256585647098568,0.1430208616815957,0.012217398208201821,-0.0034810037440594845,-0.0013020085680058463,-0.10337421769199631,0.040742912532245025,-0.033208920595540641,0.0027459155998701174,-0.061963700888919039,0.087062660296326991,0.023786509582797388,0.025167969115339389,-0.081143705535928,0.15445027680820647,-0.025180070564064259,-0.00037377853333329768,-0.0817181055033166,-0.01434009748677295,-0.057223936159680411,-0.09254224499020465,-0.089977829090798128,0.053771944797621936,-0.075878260820862034,-0.0045488029988670717,-0.092084618369649818,-0.002378524680308552,-0.036791255615539552,-0.055429079333558513,0.03186309238513052,0.13513529468751628,0.0845775285951294,-0.076827568332675053,-0.11516101713163598,0.071859405780408558,0.12704150761624189,-0.076002777138438227,0.0690034857043512,0.0070754503731383627,-0.06777188902779159,-0.066374835070745014,-0.050199538401898218,-0.027400751936959337,0.045646816392551789,0.1020706423156597,0.076562072640467563,0.066330235556465417,-0.055169849740584961,0.047693185128001928,0.041900016556685356,-0.17804093457624931,-0.12924411318873225,-0.050094732126707231,-0.00071852881887512782,-0.022059255665308041,-0.010887425526570552,0.13422612551547075,0.065841025481892412,0.14505844784307861,0.12995550669390421,0.074007004653354247,0.11235478789800726,-0.0049512647096475685,-0.015916318330608276,0.0334399952106451,0.071173015518073757,0.046737340271112364,-0.066884863189186211,-0.0183751670094733,-0.016587047560651279,-0.024942685233002453,0.016000080957762147,0.01663467106866736,0.081833339135146288,0.066414917775657445,0.027184819151881607,0.075644387520522674,-0.019781387785058703,0.048916596773671377,-0.013141619368204495,0.031355460778836677,-0.026167483278664819,-0.041592553324544063,0.017988141957689066,-0.056469549178439639,0.056128621381598541,-0.070429611166800465,-0.073617851658256725,0.12578220137645443,0.0055924307747751284,0.12148363133507033,0.013460155431082994,0.065887992466638,-0.067928614840710166,0.02803675405453206,0.0302994726137892,0.061858596181852715,-0.14333340882342985,-0.1087473654508667,-0.046142710438241891,-0.023342421591460927,-0.032724263748373554,-0.065022202447744537,-0.083846278968024324,0.0063790854199490795,-0.066533702756589083,0.00521390833477089],[-0.12104069326454997,0.093214921630953546,-0.043967163585351146,0.0038121600634343851,-0.12003218094250831,0.090565253879760069,-0.075133884549176674,0.024871152902227543,0.10806561951065627,0.00973573549008829,-0.078547424854760919,-0.019863688383312681,0.13808236179083155,-0.12220663778992694,0.0814000876874056,-0.022136130058845169,-0.089246198003221824,-0.041692384642693731,-0.054637644544790254,0.0093588845582712136,-0.061956643757514224,-0.029747962971692875,-0.029160089945255558,-0.0875674137475467,-0.089029571782382674,-0.14322187880517603,-0.0060616056240953165,-0.0031343652476619613,0.064394149463741168,-0.057740678392025423,-0.094650081881610712,0.14958501672072705,-0.042416591873533062,-0.039780686180374843,-0.0011563837427504243,0.036409172935238453,-0.11321961900452535,-0.049235334681935881,-0.01633581118132264,-0.020278633165704864,0.15506658769965884,-0.068151000785131352,0.021815287323473934,0.061526543176352609,0.089641017815776741,-0.027028616799967944,0.10140352127763826,0.050153092798151076,0.018660883650911918,0.014776235894802856,0.055935762638395684,0.0062774789782220845,-0.035913733003453741,0.062565447506575042,0.095466382970896158,-0.081708397908904259,-0.0685156815416958,0.11656761926922217,0.016896946757634191,0.058441607973211976,0.11255749273683276,-0.029010121243407429,0.06755026549493387,0.049181735730495835,-0.10216523945781796,0.17152561840344222,-0.0027321389254854303,-0.095951196103335579,0.14061978413306203,-0.056895407725669374,0.06720357040395071,0.012640341037814251,0.0026207540077516282,0.14385826402505364,-0.11545820110322905,0.075110486855465536,0.099191448770138843,-0.075246676148592054,0.015403900954099331,-0.075743138325801679,0.00034638854286103021,0.15414162863817352,-0.018712517782328814,-0.053661104528563423,0.0096147724079915179,-0.053005915092471587,0.028247364961937183,-0.0848593435770423,0.018207988415849457,0.082456511112296182,-0.00049113356039648414,-0.0637504186643136,0.033488985245680045,0.06598012374375388,-0.16341560247511736,-0.01881371576147306,-0.01823367319525078,-0.022594944033835482,-0.00621952392454397,-0.014542638597169987,-0.031911820272541719,-0.047567121898201961,-0.054826979578697387,0.030837939643330283,-0.035160140663291442,-0.066304615678839218,0.030115846160266031,0.094547173751378,-0.032344614380176349,-0.053938228926580283,0.019949949376674429,-0.05335821878598368,0.030057736285045804,-0.029044177915818776,-0.0018557785515770555,0.046205757969013911,-0.023494691672848043,0.14951659078590357,0.030196238482812485,-0.014959153893684468,-0.037209650399633247,-0.077049941910108832,-0.0012341679936627656,-0.038892630694344968,-0.033500119465426477,0.029910912788921488,0.067667636349579688,0.096685175339685528,-0.10140946328079699,-0.023378605009044814],[-0.085822493130954455,-0.064805663740490335,-0.041101026044072911,0.014180385028032998,-0.10273981219396831,0.010111156939696846,0.0032416432094831489,0.026027089519685308,0.15034766176283795,0.023617048488985128,-0.11104292384219983,-0.059345717967299663,0.01989608592043601,0.0338604596199244,0.058435043553202226,0.030294572267386844,0.086530220464784841,0.0070750389543709309,0.021799013783793866,0.055837402226283465,-0.11351248038359707,0.077628117988081835,0.12232319943229247,0.079411664806044349,-0.038741263721635083,-0.0035789173021009745,-0.0054423580617166479,0.010851232083694692,0.01731322624411219,-0.056545928031676018,0.040056972150710156,0.080580386418114769,0.032336877879337575,-0.060173507212096432,0.13491478754647537,-0.00087290412835750028,0.001829839763453303,-0.021231974715186685,-0.074045397235626031,0.055678012739482453,-0.049181573440145919,0.013764366079189291,0.079123160801589709,-0.06215338311391138,0.072006573316561323,0.016700671309936271,-0.0093489025096328213,0.017569753609912128,0.10041461803875355,0.019124689378036484,0.088712056658732039,-0.090032122716204949,-0.084230319361602551,-0.00084051547513612924,-0.00069784733556436246,-0.053490393351844551,0.068464525826467143,-0.055690208190733233,0.054940560092613618,0.014457522760737546,-0.00083686592151030091,-0.037426030021504443,-0.0116201538221772,-0.02952132165520965,0.112173491611797,-0.17610917711415905,-0.00972860609869769,0.020473918198353654,-0.00053030067552460158,-0.0051719453281530445,0.073128994337528952,0.067283130052565185,0.080959011723016436,0.058659275219208544,0.1398807764248555,0.0051488240079160877,-0.02099669330442782,0.10852263420524089,0.012248838333022902,-0.04573341688213528,0.096276426782822611,-0.047022289269046426,0.012828974479962181,-0.047571262216131963,-0.0044830512224694474,0.078068484048544315,0.020257926855052486,-0.16224530191240902,0.030205005884463808,-0.018969532437801712,-0.028193753749731897,0.060421555316633326,0.00026929134611565654,-0.059333043292685891,-0.075465873500681471,-0.0322690404081839,-0.11168010753337049,-0.012896437000617383,0.0988289403441689,0.059528063251694165,0.047041633326433907,-0.053433757353114182,0.032298908557325742,0.081796453242422365,0.12012946281057148,-0.0019967088625551513,0.039891110505820143,0.024254781569585632,-0.14412643847350021,0.054325354104713834,0.027939029568389451,-0.05922435307200976,0.043818747744358844,-0.14105695153747372,-0.12163589801996823,-0.043177525781644792,0.085066412406231556,0.0774987784219635,-0.23405028051344728,-0.12707052135039176,-0.020694136914842037,0.023705322795045516,0.066813253549556154,0.03104399167319007,0.17838998970373293,0.084364159216365378,0.15148645172192488,0.016979468133879978,-0.15471271746957122,-0.16958500721223918],[0.10273519820459823,0.1173599789753805,-0.017647154502880374,0.11071031649252312,0.18040318614955611,-0.023575048124500911,0.13897284536974605,0.19215315830364371,0.10811454925349257,-0.094409332041819782,-0.011018535777296895,-0.1664153946501252,0.022722485674159573,-0.14147056220822626,0.04320707528956539,-0.068559520177465014,-0.048978084896332569,0.0038595498823274167,0.033156401368719675,-0.071552392631582751,0.015780429555152586,-0.047490146018007148,0.10423800683554195,-0.095120373966317354,-0.014375303248642037,0.01790364857082748,0.019545441320074231,0.063330456542798,-0.050098632185008887,-0.03587366563468191,0.024312121199655354,0.0029121058324605145,0.031291896977160207,0.016775212037306642,0.079267946501682771,0.092386988134510351,0.11594212717492347,0.03556413202647829,0.07518275760870842,0.12486586720737648,-0.12407611759919104,-0.01020676062527035,0.0080966767528659611,-0.038565833234859362,0.00078616384852502508,0.055733232742854334,0.10260644227582767,-0.037213849955787449,-0.1986317089890704,-0.057422788436309262,-0.039741975862713573,0.028227465114157697,-0.13540189245844356,-0.0025937698127493263,0.0700868473211626,0.057205312979806508,0.042260620826927879,-0.076504347518657312,-0.016245173746178631,0.057338391614514018,-0.11325399083260936,-0.032493391903070969,0.048736025938829142,0.11885640073832705,-0.03762535435221926,-0.018901054050215981,-0.14307123601797472,0.14146127363249073,0.065668013992415744,0.051932281029729764,-0.029038318966061214,0.013508248200456976,-0.087204495108164762,0.023526305611639778,-0.0393467070668584,0.018695431452207867,-0.03640442108935147,0.12024435149541494,-0.12685951840007473,0.02098813171554199,0.030279389076083397,0.040219193049975135,0.014612180203788199,0.014751069836272874,-0.021917164865181058,0.062005659585752458,-0.0620745892787886,0.14528240406799084,-0.034575715563583083,-0.070038601703389852,-0.013095856760719008,-0.058437159861512725,0.015422351141720844,-0.10422510646155951,0.01215124347965762,0.05889681807791549,-0.055902325980540561,-0.051550384126196717,0.0001085205616638764,-0.020129119263523624,-0.01013190967122404,-0.04546060062738453,-0.05898920671209635,0.10180374580466432,-0.02771257207990455,0.079136978180242332,0.065282219709730888,0.033594549253545339,-0.10136191835985386,0.0099832323159956462,-0.0049047032838946871,-0.12096421114323439,-0.065630586670696475,0.010551667077026176,-0.013432443239239532,-0.046400271438649311,-0.11571241300874599,0.030989288897688351,0.03518959384771464,0.016983475680530744,-0.070530348356043882,0.01469927727709359,-0.060675991423067586,-0.069505182537541815,0.00022305821033075766,-0.0678368972599541,0.16473077591021848,0.12458240123263259,0.036144025296032646,-0.014765051005836844],[0.12703872506892328,-0.051966097253682515,0.012335192155323679,0.080581008317172048,0.089124147435120107,0.068294092708846746,-0.078047251269492426,0.13289489151037714,-0.023463436792178934,0.071804407810236656,0.045026815970791,0.044283833663810078,0.051253622736774064,0.033751986149193336,0.12006237591683143,-0.058923106976587515,-0.057069851395316569,-0.05333431790318121,-0.078638135192555414,-0.11523237225601285,0.054152349309315492,0.042866042360050517,0.022430915950296185,0.035482610122496365,0.035840120806157755,0.023380467083669275,0.11448656071875013,-0.0089609907536856871,0.11005472187907013,0.030004901955078826,0.06341044343630578,-0.028123072162145768,0.026059367991889633,-0.068320330287811259,-0.10712548801542036,-0.022390259485106794,0.0091555316551165389,0.028284829570623986,-0.040517509155694575,0.047745377031362182,0.10832100566420715,0.015830396637881862,0.05072792525824793,-0.0038196092058751757,0.13369795252788921,0.038234203976089294,-0.033477635076147365,0.1016780076984615,-0.0031765370518620959,0.024907772222234587,0.063958769960747328,-0.001773111759624763,0.047351541598820684,0.056540438905131718,0.01089738774288799,0.0071111901180975325,-0.10189902373790161,0.012339091705632641,-0.024456178666558168,-0.036571240962876762,-0.077959747876536714,0.042149902786370319,-0.029531268046067878,-0.029116195496782696,0.055253024079939254,-0.0705422450547211,-0.0018787002604355148,-0.10166535576076251,0.026549747113489959,0.095649678012942219,-0.012759756308603485,0.11714854242760471,-0.041039995944446954,-0.0636484108554477,-0.00564194954146723,-0.10824968398838665,-0.0032855227211709679,0.037986796586210771,-0.05937119954346607,0.1117510954977877,-0.086728234208817118,-0.0443583830687894,-0.039673451555217953,-0.16803871162602935,-0.027916902665772472,-0.054433311513780877,-0.013045332541760119,-0.015432496200887503,-0.0068989453936393434,-0.064475369805194568,-0.076163700050813965,-0.0907962557499368,0.062814443065024844,-0.029828181037353775,-0.046851763897883245,-0.072050973524328363,0.059920328856187213,-0.049561712208724074,-0.05744506871547865,0.033459175338073181,0.056081647018307736,0.020923278187877713,0.0030296202898000865,-0.017229996615846042,-0.037646143486583072,0.03167695895503337,-0.066150332433576389,-0.072824914857148246,0.10194147954170285,-0.020227754072555181,-0.051997562136666446,-0.10464341582445219,0.0991214538179911,0.029613196474156646,0.019680855487872507,0.041649152657828606,-0.02598782518435332,0.016794147908732845,-0.0073828859915144405,-0.1353350456936927,0.0061247728004155261,0.097305568556852517,0.022083265804514415,-0.035100897421897419,0.034982384561661445,0.015885860982358207,-0.21927234632798248,-0.02168474296549756,-0.020986060427969536,0.025522985175587969],[-0.074465013723369819,-0.0052599724033913177,0.024184198950026096,0.055904581413643434,0.062116042048649026,0.082162193949477075,-0.042200942034421346,-0.036378951051174079,0.043824594789268409,-0.020853757845081068,0.12555680296525781,0.16586606997143005,-0.0052030921356185245,0.068477797585925357,-0.090473263323418818,0.060389553502843654,-0.066446352081395876,0.031014912385314543,-0.12459322746034676,-0.094895165025262837,-0.084194550385498237,-0.047534633315312047,-0.1046123927596988,-0.016087763720448831,-0.026325285980879579,0.049849844779573105,-0.0020147381038213793,-0.062034797061045574,0.0061989997869018962,0.016264872635233643,-0.035150837752295438,0.055619021092523833,-0.0565102946230478,-0.11697603796430767,0.089679109080515,-0.047079976653047265,-0.0536749977380871,-0.034019057204748321,-0.06705934834398522,0.060500965655101352,-0.072241964552353655,-0.010649183120310412,0.031259438542036687,-0.078573994158214963,-0.0659460993476916,-0.0024017369908418641,0.022403210985625838,0.013934624051805596,0.055169793654293295,-0.024326948143896524,0.015440826600194059,0.017257538053424028,-0.13860613384431877,0.006116582100147829,-0.068008425254566948,0.0033633048668009939,-0.08939899072500157,-0.031236638291112992,-0.017313580413917184,0.01357215212212551,-0.023237172666380451,0.021642916957383629,0.11578344309422416,0.075045237969817047,0.067522530285687485,-0.025683420055363945,0.11408181515545604,0.0790009392651125,-0.0093435846093232761,0.050187388277064995,-0.13492782491419014,0.14869057873623034,-0.015974201756082496,0.00809989636895102,-0.082848332609546757,-0.022543092719909386,-0.081701257881916567,-0.05337180652238379,0.033780129940887069,0.06729145324248248,0.03496368348043323,0.018859281020446726,-0.033214253217635645,0.057345603117711877,-0.0070430090614816742,-0.05022156908190293,-0.066548676793739187,0.12935209266689238,-0.047399638954240021,0.036788542226700971,0.1440995067481475,0.093948241671110266,0.083562803236558528,0.031448958402702037,0.047096746990166735,-0.0088633049526034759,-0.056012144546976582,0.040082518366810004,-0.16955860479290247,0.14921049962262908,-0.135915073115349,0.059421388813570619,-0.11242473322805828,-0.13890816126091213,0.028826262311834709,-0.20582269640131709,0.12824404414128121,0.1166743377479518,0.036109256805803784,0.13479680967087815,0.036902841103139232,0.0044289301634483826,0.082335317869513966,-0.086230484386324954,0.043962631832459596,0.10649571928163963,0.0580032933407289,-0.093941461543536844,-0.030637684610689851,-0.12120105555568884,0.0076017889341032435,0.11881259303937823,0.035554765562229119,0.12263958379277588,-0.0084207544649355839,0.00513959842940159,0.16248123793433875,0.031185713196273245,-0.021223518428793921,-0.0041237235442583174],[-0.078334302012613863,0.069454882415270466,0.018474078188942939,-0.022541394783092823,0.14018000215581863,0.00042768857377960441,0.11353730680458439,-0.013743889474231906,0.087580021830006835,-0.089510476643993392,0.065633213134256671,0.034429771139454328,0.074502407033312845,0.11186010931343464,-0.062274208674132185,-0.084218224398224864,-0.092918372860392756,0.024364924048132026,0.035693075767760617,-0.012082216258946664,-0.10319040454383914,-0.058405729148793974,0.0628715509152695,-0.027627872182241553,-0.053277094420626309,-0.03784709227142178,0.071587238272237078,0.10601809881962981,-0.10148847019283373,0.055028204328163861,-0.0418462851918478,-0.043646628686805293,-0.17576156963346731,-0.033106294636407,0.07504979935683892,0.026961375715691752,-0.018976430683005134,-0.054193707374366892,-0.065312342754939925,-0.012390466570009449,-0.055974737742373722,0.0076947008786170026,0.010665589134249347,0.025958029270537444,-0.029714121237854937,0.19097881458406688,-0.0069423527637867462,0.012508858553601069,0.017583845460417923,0.0020132484977177525,-0.023266437824345464,-0.016576008091026117,-0.044369757777906638,0.0263587631699237,-0.07496734452571932,-0.048901364280657986,0.070370567823946628,0.13201335557140795,-0.0026772773764073277,0.077844466336666918,0.091095123402214345,0.11925119487034028,-0.05374025456748717,-0.12717756873198954,0.06907005627835959,-0.030062851247740559,-0.052604393026904721,-0.075423497705358181,0.045539407101718582,-0.023028255382644358,0.10831476336804931,0.00062391720666345218,0.019413609528480553,-0.029256307743089117,0.026691379785234472,-0.033452495695269889,0.016291789772646122,-0.15169907594610824,0.069622379623715869,-0.056238422561605286,-0.088852945908259914,0.045215980665511538,0.076432140718427424,-0.048546367603040735,0.0017422689355481458,0.037556320283148523,0.042654007193265182,-0.040281824953764957,0.0027895062454268648,-0.05529024909685492,0.026897182608605963,0.074138650894472718,-0.018310678926330003,-0.021412543730011432,-0.02684388535493254,-0.040459283085094673,-0.052551256567575318,-0.026641564617518397,-0.067604717511521487,0.1084318276388541,0.061169650472892127,-0.040710835389356145,0.031150107044112856,-0.004566822922221392,-0.0057347668902136837,0.0055157886310749473,-0.14212787188866466,-0.03587901096287064,0.0035983795144245083,0.063889594073935074,-0.0081533635728811039,-0.1602847094911771,0.10569533026813985,-0.10521797470135814,-0.043189446159870151,-0.047806327301344938,-0.009797546550134777,0.0860070213780669,-0.039993902065895981,-0.1109217749393088,-0.017659823925634536,-0.025966236919393534,-0.011358824196341164,-0.097680005656776675,0.0083461782789253022,0.12043922844447053,-0.14269035959068396,0.027313244197693532,-0.019048666459149703,0.048471098890340771],[-0.036842077851189696,0.17242176419290012,-0.0058227499810440215,-0.0945759620484556,-0.12793542841797317,0.042232263350001423,0.0029784107612290116,0.10977318345939492,0.00098520996924205176,0.044244655312908457,0.0965229755338672,0.13224550649311107,0.00085494526965565118,0.085007898340662164,-0.0069180531633893944,0.04165408438021715,0.005035567575199503,-0.060029998365189984,0.0043990318276586121,-0.036245579100857767,-0.11214777630117702,0.037375221722975895,0.070628590031152072,0.091647808864693342,0.026522903225402059,-0.11634244731249487,-0.09276795189593455,0.14354203657403677,-0.069624252778548126,0.085318063970122038,0.043612978806679671,-0.0012719982858318021,0.022527936518200946,0.034064643520524976,-0.017011694711981992,-0.046416309542021507,-0.0073764119172421861,-0.095834134979056934,0.05041599365294952,-0.033737652826817788,0.054165490452835224,0.018788930271585052,-0.016517647537272185,-0.0079040261747210534,0.07383400865173885,0.07105904231572327,-0.0970488049578685,0.026329525046716904,0.09438959593615269,-0.054884374828692406,-0.020940476417666491,-0.10514835302985452,-0.068601321052188816,-0.00023635755839991935,0.071273231595112063,-0.10090446362973965,0.0108630069025852,-0.035248713608105255,-0.019010969250754513,0.073779555594554291,0.05374541596991976,0.05447432385219135,0.0561993928531683,0.084123227629021566,0.050488144434788537,-0.010907496726105387,0.033048915522496072,0.024273907566949412,0.037229635993208422,0.11230165832271985,0.0903806703929704,-0.053283189734913805,-0.038701521284697664,0.070026700110517065,-0.050135690001162053,-0.13309315613367445,0.0035415690636675014,-0.011930761873280724,0.088784806928409551,0.082893353979380441,0.12078296934673886,-0.032292374907696104,0.12398970090276922,-0.06461088632199545,0.050873435904467468,-0.093829682519726412,-0.030486949327666622,0.007760773098854719,-0.028995872298877276,0.045002683689942334,-0.00743770915992261,0.17532181572180169,-0.032855145044729854,0.055308886873238608,0.036048146291038141,-0.018878462903924347,0.15078715976683213,-0.074933080271806826,-0.012324840280079828,0.11698443189173036,-0.031208093107471076,0.0816094846209463,0.011047951955146587,0.055177754309620353,-0.08623255583406296,-0.13469547187863468,0.033737918112018796,0.019577051806195008,0.010755151362808756,-0.026876390165105762,-0.026336177245136295,0.040336952426306312,0.08838339287746895,-0.0064354048548761521,-0.11354171346490799,0.033508709500299681,0.043979655817816,0.054579019417099237,0.082947917422147008,-0.044398062643839387,0.028511171688747693,-0.0526757818414849,-0.046768643535424523,0.069563403491728265,0.079514134695360908,-0.047550793227815212,-0.061619179989677787,-0.027397300822900025,-0.091277945295997226,-0.053731115078140324],[-0.0031751871042865342,-0.021527601426616354,0.10337836915788054,0.042111119122646805,-0.020361068034624719,-0.014571199058221228,0.0046904411540038228,-0.041711398439818047,-0.035566438300482617,0.062309795388239268,0.046549218014722171,-0.021025217321138157,0.045603536562059607,0.067718822371488727,0.10620345293037579,0.012056058293151437,0.021643137701466093,-0.014174697570912546,0.04086164938685484,-0.19407758446449003,-0.032289208365272055,0.073279769703760808,-0.033123488519030027,-0.034012214169681775,0.0229076865609212,-0.029090758900968672,-0.0287070612074828,-0.062571383029052074,-0.12073049746666624,-0.089527565181172289,0.0051856382038849734,-0.12149885448950649,0.00042010932932328132,-0.0682614467832247,-0.048924569942480518,0.021205385548614484,-0.10454327710998795,-0.07593226866473389,0.011569542705833748,0.051101628434610739,0.05674971576784018,0.091088909541276172,0.1485176139415943,-0.104288118089752,0.12620938228047102,-0.065137864649611021,-0.030818586310897126,-0.046783214927347876,-0.009551467534317697,-0.063274463248849624,-0.03137260142448943,0.0804204169074547,-0.08352038761427967,-0.015570431883096477,0.048067612071141158,-0.055227668323557667,-0.11935835589483053,-0.037019386363047711,0.047512067226534747,0.0357443081931931,-0.10260566402719357,-0.018172871179004766,0.032336537622327556,-0.046495674046744082,0.060549507675371872,-0.088804584145081258,-0.051825179280943677,-0.038996901661326279,0.020409002292466009,0.037859171679186628,0.024335883534815216,-0.0561605303231516,-0.044805319018292517,0.032847858258807074,-0.059632067406169137,0.093017878322199821,-0.072507113161901227,0.051627529754450362,-0.027744143704551048,0.010197064188761491,-0.028290452066686445,-0.069012640288112076,0.044597910422346093,-0.054170536234299529,-0.066758753344990873,0.12169083117643589,0.02710385830757191,0.027817392027485129,0.011257198937742593,-0.00965375236137496,-0.029007038894411082,-0.10806041767848225,0.05883473657305157,0.053556290706764362,-0.0430064672348755,-0.011053918050981781,-0.19438157238399342,-0.029350870612861239,-0.080810204379274247,0.067675158897280152,-0.010894817825623916,0.074473077251858727,-0.066999620980203858,-0.069388609421960512,-0.088892278702493666,-0.11752905606911308,0.099652639165302925,0.0087842855588336367,-0.11834922854586112,0.0015602912673177646,-0.04192439025636624,-0.039234181144342205,0.018975644335975778,-0.026985534427105374,-0.017188854350491271,-0.12659698325479019,-0.12272567944182598,-0.060022914901803996,-0.017879474348970203,-0.024782230352147955,-0.026589029631594877,0.017053523877877664,-0.098518546171768612,-0.032267491615183108,0.071511326102558559,-0.025679504875815214,-0.018218403165306304,-0.070382466772134014,-0.090435977527926523,0.074017489790117935],[-0.011162784581012894,-0.076785336105762492,0.11475506001138008,0.15742312843142853,-0.062401807617482749,0.00578252037093739,-0.080936896740007619,0.03038068323652551,0.0046325044936108917,0.072251493821877524,0.02526486102679815,0.06373202080838912,-0.018688397448165309,0.10357356417551723,0.10320051242737893,0.0025762300482759463,-0.029136746722309158,-0.046394509790284165,-0.13697297096247321,-0.01821161712535202,0.15193837055769965,-0.10269979951454732,-0.0943328286970892,0.0061857159548521111,0.10111790907413436,-0.084489656761860377,-0.008932392082246084,0.035740689302451993,-0.043171832604742222,-0.033446037600881683,0.014083602090289638,0.19642686227301451,-0.01221952684153468,-0.031799536440725168,-0.0572215424456497,0.022781215789874909,-0.17541781868962356,-0.085947305138009036,-0.00094745823935061656,0.053702575795046441,-0.076906779701080175,-0.0026658720479429436,0.0016555969251836537,0.10126407535263031,-0.05608894213302134,-0.041826447709381757,0.060942098521462131,0.048727680197775763,0.036911573540507128,0.086225003960646834,0.025069109823262336,0.017265628239938866,-0.041934440015603813,0.096314921239704226,-0.03414485534628145,-0.059997954296638283,-0.0080120802862539264,-0.025844918326919493,-0.013649787649240446,0.034706312697938037,0.02067059260652563,-0.078546133771540266,0.0023376116421272696,-0.0060155238268685381,0.073367111738461555,-0.025001914224297487,0.035759435809356609,-0.075844152483507357,-0.044678001777809437,0.073223716156197924,-0.0089075037803484219,0.093141003339555592,-0.024664430183506041,0.01978895076384905,-0.034259375236799561,-0.03712473766070977,-0.028185165404941159,0.05542499825435452,-0.094726052877211836,0.069168866616348745,-0.1103447924828747,-0.099804839550160049,-0.027908702011428477,0.0684598465889321,-0.00021992464489433726,0.094845558951891548,-0.098765654357436686,-0.031048104115390492,-0.04059508559340539,0.10220843027137586,-0.0036271089127419736,0.012510379624474167,-0.02069725709857204,-0.21233390135048394,-0.037477095168646904,-0.030307081275365157,-0.14532164051117646,-0.039211949904844813,0.040410195915469412,-0.070050804733605546,-0.057550024414185087,-0.0055942965442930823,-0.029449845373565084,-0.04741250639415967,0.0225250445425799,-0.13096119132274633,0.12495363552266244,-0.030121018989331182,0.047205045988403749,-0.022902419061306387,-0.070852309699826851,-0.032645814717012521,-0.025387292911873693,0.045631020626517554,-0.01798955184936633,0.069774616233022516,0.037205301703262306,-0.053058665015320763,-0.15082345316894197,-0.0049453683055038118,0.017916528599288897,0.027201612244395032,0.072834647254896009,0.066729540189523956,0.01621330022039939,-0.00053618797744798023,0.0083965069958699522,-0.11840872020805578,-0.12187064861247092,0.12114916737227242],[-0.020330024155302263,0.1256885236097221,0.046490902539375753,-0.11772765724378424,0.12440578272060061,-0.13978146627930765,-0.11476153403488086,-0.10346115838464383,-0.13544535360731905,0.022904880614664072,0.11065060990590064,-0.11168731557681781,0.12515558528637208,-0.017738170111815343,0.13886038894827915,-0.0095462580099167672,0.039029088940361459,-0.035322376715915781,0.0086581804982954879,0.029961660372130265,0.056294590501996922,-0.061376005434350275,-0.038313955634615572,0.013390032645083911,-0.11873595871533056,0.072707369536079661,-0.052412834294848623,0.06881724240655443,-0.093906347698866591,0.061001683505584582,-0.0023498650033775192,0.087131200390923438,0.12421849323073872,0.041489170728641347,-0.17974451469878325,0.1426897875893817,-0.035794704014022849,-0.10444666764416408,-0.036066389393004605,-0.046196610877303486,0.032377966609150939,-0.11533407640143659,-0.0051345545283498564,0.029205649620023425,-0.0905276956111543,-0.044060361535715353,-0.11881534967241271,0.0532866398368717,0.0010025547331163061,-0.019832074785466142,0.018409131015522939,0.0860404811802722,-0.018295028311196327,-0.029440193856272365,0.053283276378090542,-0.037768350023010308,0.059703432819452326,-0.11541832455394727,0.074994174381977585,0.029445701196353539,0.028936479289745631,-0.029188613711968323,-0.041551278686710651,0.022524163705196724,-0.055262558639121731,-0.08838870499216768,-0.14007395560281163,-0.076478544291383552,0.029076373018393293,-0.0012115406623946722,-0.14832253157958225,-0.02581312253864881,-0.0838982111977845,-0.17591019221546372,-0.0011820511250401906,-0.09056125655138117,-0.044274195886049937,-0.12513656472840948,0.011119932761710765,0.093847929668239155,0.016370005816430732,0.0859163051743457,-0.041742372524704412,0.10147061798488376,0.0037160881243804545,-0.049751697616984544,-0.059307073347730256,-0.066434076132928871,0.12002495406937759,0.078306965572632337,0.019227155340956228,0.099671274948013242,0.012682390464159837,-0.12687808868052736,-0.11169041474769646,-0.14262226163705938,-0.033577366246360756,0.036749625912068255,-0.013595853368937937,0.019079480393665697,0.064800010691337326,-0.050254053127633327,-0.010945080676006014,0.051930021761058431,-0.0441043940817399,0.095755458788682191,0.033439091872908014,-0.043278322817573787,0.12241310271533074,0.02012733262399764,0.11208793541087725,-0.026817428037394109,0.0010819481511207458,-0.055484962649281606,-0.03956719860658553,-0.16401478760486224,0.082206041187106157,0.008946660126319398,-0.002528023122872476,-0.038328542188546012,0.085004461603979981,-0.00056955978755842318,0.032804438123234428,0.022764678040085608,-0.0881301091159788,0.090423784238929078,-0.06254603602482299,0.018501494049139876,0.038794480266461095,-0.048426106967944471],[0.018311795616975959,0.037257001440108413,0.048495547307508831,-0.063456898742095466,0.068613912840559885,-0.10706292542629255,-0.11866403368902335,0.00017402310671270365,0.050647299424339633,-0.0257078934947803,-0.05187864922855507,0.039333734811723489,-0.096967797995072658,0.00081360817833757849,-0.042920228467322248,-0.012821874056494766,-0.10075407184614997,0.006662607513636531,0.012598648078160805,-0.013634876228645197,0.057006889548145,-0.1225497153926568,0.057461442926744245,-0.081851060011577131,-0.004438111710519224,0.030541081794923094,0.000530101703893003,0.097776129299446068,0.072077125250790353,0.0740263442285088,-0.040452501180908811,-0.074162850434000213,0.060647926690606688,-0.001856947610010414,-0.045600891284574376,0.099193671282354193,0.015277499018343641,-0.028176553253205203,0.079408310706734431,-0.048301650913434066,0.061147611672050288,0.001405215223220057,-0.091433801693386024,0.0023061713405418639,-0.033624588457089134,-0.10001971641544583,-0.057820117613847873,-0.12194362123347452,-0.022064497636137007,-0.017065535075486166,-0.0697086837783411,0.026070253999532427,0.063212758357856114,0.11140438356197394,0.011679239065605805,0.080433248757234607,0.018305804900380213,-0.05089833369238847,0.02188840575103258,0.031132716703904103,0.12712037886857794,0.050318041179393182,0.076792848804416364,-0.091359598723487326,-0.040879697212539937,0.055738005608508029,-0.061162358523879905,-0.0478102484189119,-0.038790895764119315,-0.019735533360674677,-0.09070434062994534,0.0045026775184056084,0.10763759547052325,0.042145771016640882,0.18201060916472206,0.0026165742130927964,-0.023725286985314679,-0.035040630252009694,-0.081560413991563316,-0.01309047041957215,0.031451683347768052,0.0621799799525691,-0.037311677153276483,-0.16340233452464339,-0.061105335644346191,0.048455074801844779,0.18083237509262121,-0.0990739104826876,0.067156025525747537,0.021114300575027282,0.045788796585126364,-0.077473596014669771,0.10056116439806713,-0.026040567584846172,0.012305555294745059,0.048153517264807377,-0.093367059819065512,0.12152722160565493,0.046172880624456389,-0.075125721561221159,-0.0048070886110659688,-8.9799193013111623E-05,0.04144677787333164,-0.039354790204159058,0.012878903473561467,0.040022814222270657,-0.1206464593239384,0.011780766772412374,0.028767098097149155,0.028660022892889294,0.0029830148108706423,0.031828689791346822,-0.16200007615687592,0.16007715907697198,0.041161047776779085,0.0081432601713748859,-0.0075909755300046337,0.0065976026658631556,0.062855763352542879,0.0328934875401875,0.050564960602109,0.0841257156262699,-0.088757968899993739,-0.16201391304502996,0.059234437654917441,-0.025985391344126734,0.12604492894466521,0.058365976083339911,0.0054617576020662634,-0.070930708496579911],[0.062552476778672927,0.0019559185868873825,-0.082464882951042678,-0.092669583409103473,0.08226631265961791,-0.020053774400041677,0.072697562309778641,-0.052731004545651029,0.021921824171767974,-0.1072067768988665,-0.10959132792288111,-0.10710399684583262,-0.092127721084740918,-0.047927973559428322,0.11959137880318593,0.011105821347561492,0.030415515892671274,-0.014279031890519297,0.10768829006458405,0.0075358579446319924,0.13916773952627184,0.017195279309890787,0.027561701036884507,-0.14441147457640766,-0.0310624791106265,0.073326898075846053,-0.032867243489000136,-0.017227801802081534,0.11588926572768413,-0.081693021467005009,0.088051005468835056,0.036836851704452465,-0.01655789139756034,-0.020366003598612868,0.00864147942894499,-0.034354220304982225,-0.0719686905113097,0.0002153131839889382,0.15147248484892398,0.10760529015565404,0.029238422989123852,0.071439683229292283,-0.033526229049128838,-0.098634897399428656,0.19660258723775839,-0.11653265154395055,0.032035744159651658,-0.10511812847827917,0.016228784879698352,-0.066932363484785956,-0.0439631729941749,-0.026768184462911838,-0.051478048419721631,0.030547025115628929,0.013942024896351803,-0.090959869270960919,-0.050458610827316432,0.079472262766139876,-0.13634824175062305,0.039458227764941,-0.046379110601017424,0.038369302273498648,-0.056611047022735381,-0.045957804468117057,-0.11115955119745473,-0.0118784295583891,0.094079983929885744,-0.00501754806762069,0.084272977200156848,0.021266888656449545,0.044650317357428755,-0.095724488346257353,0.080188807737001974,-0.041984284114672504,0.015149900913096745,-0.05478823945416441,-0.13462524689843394,-0.050345001441389724,0.045180754027844716,-0.079753715368607869,-0.015381547237880388,0.071981403179113418,-0.0019556718151200738,-0.077539850718294487,-0.024408102478454541,0.11729697987355128,-0.0099235622250983552,-0.13101261786908697,0.016590784853619107,-0.12699754636143229,-0.055241499227365744,-0.11447192506415682,0.07505817764947538,0.0060630924852183481,0.068746474260905119,0.0092486617510205271,-0.028838112899800039,-0.00024064115787047685,0.0061671174721414524,-0.10867926788579772,-0.0085419505583001522,-0.066603081871979816,-0.017746716712014953,0.083323768890330691,0.068661312171329272,0.11052086990456138,-0.13287933301864774,-0.033027084061538078,0.090458956123086035,0.025774004708018321,0.037700584319832177,0.018534156312240656,0.0030858015861300347,0.052028787283516884,-0.01259788166362863,-0.03844937176731044,-0.0016283768347447696,0.011817076066094768,-0.009412074355061556,-0.021337951555903265,-0.061393326458606158,0.011818193101727935,-0.06350905288631481,0.079389718324707384,0.050116034875429351,-0.020073482684236036,-0.041091201184244468,0.10754856112882945,-0.033821654925653623,0.040386611336432496],[-0.16378262615786229,-0.11764259989930441,0.075408860967238436,0.08010971803166278,0.089316666859157678,0.045698565903500625,-0.10898339463733416,-0.19994513538503081,-0.081579680338121213,-0.031731593755515083,0.012630807267235162,0.0035907650661837491,0.05371816666954863,0.13156334415816692,-0.0052175913569248644,0.085093571552054284,-0.1356645316933183,0.025096535978298067,0.060223639988407358,-0.15874470628140761,-0.099904731572053942,0.051245554195552621,-0.054271583859581252,0.0318412009400161,-0.11753888369240141,-0.026504408951760119,-0.010105009973387912,0.0521959972119721,0.11022690167765833,0.1658752193719451,0.008443015884938513,-0.083108150212915483,0.07184508740019091,0.14749335136570324,-0.035370149758393095,-0.068199533595895423,0.0077462073845012058,-0.089447591585519279,-0.13392210686932765,-0.00753571625446672,-0.0010729178729699362,0.04538923453155435,0.088330555358670126,-0.035127445647867961,-0.048988825792741,-0.052466231244949584,0.0701768844478169,0.10631725471787792,-0.10555747756824976,0.10039166563785247,0.12200184696302928,-0.021152304196414423,0.020989618926303587,-0.11544495765623616,0.028985671409164197,0.064434194064878866,-0.076418770915422859,0.073682332229949687,0.047088366599827305,-0.068549758292951929,0.060977421862995387,-0.0064250474246305153,-0.096009191077557718,0.018721978320107684,-0.043626078506197263,-0.090712080482103483,0.070674198755318954,0.087286910105654064,-0.099157629639216913,0.0032912459664791263,0.024719878596787835,0.10839104834416144,0.05740294057487802,0.092363363213395333,0.029778886146001923,0.1527239045668489,-0.1530608024760792,0.023931835728071015,-0.079894952129850039,0.076626520675105572,0.078308266327389617,-0.082065904483873478,-0.091699388833266934,-0.029784614836735078,-0.032605368397600906,0.016521535967431021,-0.03599941787931786,0.038802052943670423,-0.073646344549375117,-0.056679550876340135,-0.029113504334747697,0.10333873343750365,0.054610970172246649,0.082719428810611645,-0.0149792248169539,0.04272478542396016,-0.26925251853323051,0.070106356373332,0.068661540131347176,0.043277542940201426,0.061295067467779164,0.044273018685136882,-0.026802830284807455,-0.11601167251517362,0.08038211995473736,-0.070131549338565025,0.018785538166363212,0.15157835282398063,-0.048228914031893728,-0.011448543750438869,-0.058402002109985252,0.14595719286453107,0.021699380736305923,-0.030853295828240656,-0.0073567376245812161,0.018227810559273468,0.070526493738226115,-0.041020960644175437,0.0792079747401086,0.055253598229079978,-0.14386770507505148,0.073888532677005708,-0.049099562047608424,-0.0498847911245659,-0.02252601701411654,0.028957580492162009,0.0818744975370041,-0.023281918171679648,0.01330751395429278,0.010673404053709456],[0.014144034723601795,0.0007558436693003098,-0.05292290126901706,-0.037774016032791909,-0.058783595288224876,-0.083127156679937475,-0.026320105742086295,0.062019009285862937,0.04787977043664611,0.035525401807691044,0.10734973266206356,0.066244837471889959,0.0890095062449699,0.067596319080481859,0.033855151290130121,0.049384792654126396,0.0019313581660355438,0.10092530223935883,-0.023163773540897051,-0.023329969165122443,0.09588411814135947,-0.16013112919656547,-0.070312294173461437,0.069448119883334172,-0.045938502936125121,-0.070037144677570939,-0.088697540509688755,-0.053313401210231239,-0.19439350012828444,-0.029679366153796596,0.054190178133111694,0.025806725244559858,-0.017705819926576171,-0.048672730648144029,0.022438846107134224,0.043250761117650881,-0.0820360150959102,-0.0050509910787527833,-0.073812865190102481,0.051856409350647441,-0.06027439982036225,-0.10141006639987531,0.051910106992455608,0.051377982507981319,-0.011096668411377483,-0.0805677678127254,0.046003329277091991,-0.021320486040763396,0.014639946327132093,0.085944093508443078,-0.050095094253891158,0.053053843837767733,0.0049660817353635762,-0.13112648858756845,-0.040608918103449174,0.047022493758498415,0.015377707483428841,0.071448818333782443,0.063221771723704481,0.051038325555019651,0.089659584841056766,0.053371589250402078,0.047655155333698733,-0.099831474081405525,0.15792580568582731,-0.027223560987919851,-0.0502778949339491,0.020174061132942768,-0.0045470532355467285,-0.050988059792263354,-0.043179673628508212,-0.058495941737385239,-0.020531885323740354,0.16421391006087968,0.057704496912578028,0.062267473567159,0.12286438852122324,0.030077046943027427,-0.079982066395932069,0.030280667823672437,-0.047340603244031595,-0.01169106482897176,-0.046679009876875434,-0.030180316248767117,0.074660074108081814,-0.069558022320843849,0.10565163409867094,-0.09642109824586087,-0.11744598560599362,0.0325861213579268,-0.041726653097072144,-0.078446486663327653,0.055018210618347212,0.056819198630489613,-0.011307367471958955,-0.10289599021271993,0.07603019425377032,0.10429057342916041,-0.019569174338734823,0.01063775513045143,-0.047251351442413207,-0.021769958734721647,-0.051196610048332154,-0.018456300549777531,0.0394193243012956,0.018716246374001277,0.085072274854490829,0.096901984618975728,-0.022089666938142728,0.024929033420874002,-0.085232206960216356,0.025797287343094027,-0.0058205730966281758,0.025363349769552231,-0.0928545014426012,0.016053676612061973,0.020350351068323672,-0.035394795590793018,0.015287199337933856,-0.024010528688571422,-0.1052705048313663,-0.032163063706533018,0.014748825016921031,-0.043529011726688743,-0.072205508070105326,0.13646554408511155,0.027247832994410054,-0.042699037305566928,0.0011764026116361124,-0.10492776615464267],[0.051189984461787193,-0.088630160626402041,0.047179011522050694,0.03968266259387019,-0.13767568505914091,-0.020502728079502361,-0.024083538665326084,0.065744353569275341,-0.042530953962397249,-0.0010711627381970389,-0.08270054066786571,-0.084087203979336028,0.090729353106873273,0.098503335713409274,-0.058415004267496524,0.024873133707346666,0.11693109315737847,0.10998160875976355,0.17447415018110557,-0.044145432615865933,-0.096521782841850937,-0.070975069356881443,0.048573335666863143,0.013717574200495835,0.070277480034528245,0.024635278911844055,0.022122355204843326,0.079807436291713885,-0.060107041856358075,0.073449307855330617,0.047280930224232257,0.099316120124383664,-0.078744727062162886,-0.07083036779084613,