{"BatchSize":200,"SerializedLayers":[{"Bias":[0.0,0.0,0.0,0.0,0.0,0.0,0.0,0.0,0.0,0.0,0.0,0.0,0.0,0.0,0.0,0.0,0.0,0.0,0.0,0.0,0.0,0.0,0.0,0.0,0.0,0.0,0.0,0.0,0.0,0.0,0.0,0.0,0.0,0.0,0.0,0.0,0.0,0.0,0.0,0.0,0.0,0.0,0.0,0.0,0.0,0.0,0.0,0.0,0.0,0.0,0.0,0.0,0.0,0.0,0.0,0.0,0.0,0.0,0.0,0.0,0.0,0.0,0.0,0.0,0.0,0.0,0.0,0.0,0.0,0.0,0.0,0.0,0.0,0.0,0.0,0.0,0.0,0.0,0.0,0.0,0.0,0.0,0.0,0.0,0.0,0.0,0.0,0.0,0.0,0.0,0.0,0.0,0.0,0.0,0.0,0.0,0.0,0.0,0.0,0.0,0.0,0.0,0.0,0.0,0.0,0.0,0.0,0.0,0.0,0.0,0.0,0.0,0.0,0.0,0.0,0.0,0.0,0.0,0.0,0.0,0.0,0.0,0.0,0.0,0.0,0.0,0.0,0.0,0.0,0.0,0.0,0.0,0.0,0.0,0.0,0.0,0.0,0.0,0.0,0.0,0.0,0.0,0.0,0.0,0.0,0.0,0.0,0.0,0.0,0.0,0.0,0.0,0.0,0.0,0.0,0.0,0.0,0.0,0.0,0.0,0.0,0.0,0.0,0.0,0.0,0.0,0.0,0.0,0.0,0.0,0.0,0.0,0.0,0.0,0.0,0.0,0.0,0.0,0.0,0.0,0.0,0.0,0.0,0.0,0.0,0.0,0.0,0.0,0.0,0.0,0.0,0.0,0.0,0.0,0.0,0.0,0.0,0.0,0.0,0.0],"Weights":[[-0.5805966584603629,-0.22159768100885546,0.35798966050852293,-0.32061928961951797,-0.66723207032301113,0.1425592449333902,-0.45323291209507049,-0.39776232039331405,0.22948714887699728,-0.24563915635013023,-0.043830741741360778,0.26734775154117324,0.96058183305332245,0.569835145852946,0.58419707976002366,-0.26953038305723509,-0.26027964040219703,0.62007434015395413,-0.041978617094875464,-0.48124062722642957,-0.041438645937657607,-0.40417259055651789,0.10567946139389876,-0.75518836843204729,-0.43128607480972259,-0.40878646886691994,-0.2196836048655724,-0.013786087915351455,0.016877822931847673,-0.16067548254796446,0.031882366112670521,-0.034496766458254939,-0.11279136263580071,0.64639925619880378,-0.30713273963421106,0.089113194795483533,-0.089696989842488944,-0.42507740353318418,0.012484070480910905,-0.15476206686110486,-0.48606513366548554,-0.36919363100685554,0.26983116708640914,0.15680441649714658,0.1431552025479842,0.55736777781409563,-0.346505479136973,-0.57400616141621008,0.18892541456814518,0.27082375083399113,0.0961026802160218,-0.00566128534285522,0.254971356923642,-0.15567042072951592,0.15309081336552957,0.040797915769127807,-0.64578916981348577,0.528954131004216,0.12787773343684766,0.54726111239057185,-0.322074794832988,0.25396644018584347,-0.073965135416082822,-0.022666508380330921,-0.38928257961056417,-0.66999152458539091,0.031711663703658161,0.1162160466493314,0.052314803103820938,-0.044990561686227622,0.20573001027284,-0.39929674575031537,0.52068737837778767,-0.22991156380765321,0.046526501969695919,-0.3386388407671721,0.54047779028780385,-0.070622922022422513,0.077250754403317481,-0.17938732637886365,0.25230936352885747,0.3084842573693945,0.16548533075722147,-0.39230683622000123,0.28277425148450835,0.08816554549045226,0.13506009065300909,0.67395276999391507,0.20712875260224417,0.20275905567526728,-0.32649798663624596,0.49856332173534734,-0.27154273209130503,0.33255167074933856,0.36202088498304669,0.57798554152032,-0.28038178574717865,-0.535647707738412,0.40650218903689056,0.20213747217515837,-0.049461033194608678,-0.51682733017478155,-0.28568802203673405,-0.25755023518360209,0.14618233319857676,0.33505019157276356,0.25513899414371238,0.73180210681730151,0.046108266132883553,1.1463394815326848,0.081122042896614455,-0.97577234491118647,-0.41897776174495954,-0.10537577219779364,0.546661160150863,0.51098382405170928,0.047169772672673582,-0.11199432329641923,-0.62322161277336519,-0.33049171642916608,-0.19059929406562029,-0.0004513957429395437,0.41898041229484373,0.24179253213763338,0.55970865671651659,-0.038051906076279604,-0.98135180020627444,-0.034874469338784263,-0.1671867575192062,0.53335177829371061,0.10357012304762045,-0.55433017805140083,-0.43588234964845068,-0.11283158286871209,0.14986295377959197,-0.19053355067288577,-0.26465080111311029,-0.11138312772856009,0.064289830289431513,0.69749090809877912,0.29527375916850812,-0.42280807847346052,-0.389645028111233,-0.17328648799417165,0.81392973128737378,-0.12057185754924149,0.54283338825932881,0.044243573737119977,0.38248829872834222,0.83517312953258194,0.11653558325805134,0.15815202524548661,0.1280196236351559,0.39740449783070997,0.14512004226705219,0.36826335833410573,-0.50070860017693086,-0.539449040599304,0.45274904122815984,-0.40007456227704541,-0.037135156402209879,0.25712760261681067,-0.078205923046961737,0.38824451360080237,0.17624607733019779,0.20457581565097324,-0.24989711640270038,-0.34369274108261194,0.53131504955532682,0.12062495437852061,0.60272277584749123,-0.32583970078712832,0.31108827918183063,0.56633918525038285,0.47687578627070187,-0.24134282545447153,0.12178790554042318,0.67098407058275411,0.38854466008256305,-0.64686805611612341,0.32427756995978851,-1.2011110672431886,0.020805640219165211,0.029507414286846567,-0.42179216346935372,-1.0666435613145229,-0.47039180365925437,-0.80063009942553642,0.039004518520946212,0.044612046539303556,-0.69880436867497786,0.62201650748435711,-1.0522916941429001,-0.33183254941509421,-0.046503425695491596,0.2824393648969043,0.0023601898941434476,-0.45912311099383535,0.91858144338701919,0.34582582032112907],[-0.369891775654467,0.17975018577261684,-0.37126577482927792,-0.12285960848966747,-0.069268093389797933,0.38857835425430126,0.66463828959340554,0.52484806395778094,-0.042229692906722106,-0.46308024585850821,-0.78603787259387659,0.0373539897844007,-0.20845047188370311,0.30816650870317214,-0.20936990758729018,-0.53253925700999183,0.19942955985730532,0.30653546085654243,-0.033723872362506645,0.36307793519534737,-0.067921991134720569,0.18633367557167763,0.031147634147624049,-0.58284499986422134,-0.1202238241388849,-0.37071530286205895,-0.014984551214118524,0.5224987334624942,-0.48848176655406739,0.11854272441158285,-0.12124274233467279,-0.21632406111828706,0.19661755689282184,0.0056912164940813963,0.051246700392929376,-0.13657841558354431,-0.55238192095367666,-0.2529558694553084,-0.33206964239408554,-0.13926950153823903,-0.21263975731855903,0.38957099722151073,-0.20427856565397284,-0.073693163229487157,-0.082503163982278915,0.3685039488195247,0.17370004782780069,0.63612248977201269,0.72791165073203234,-0.15421939349014646,0.14694221934629764,-0.10289402758004981,-0.2046036464920338,0.21891082433559977,-0.11095393542701007,-0.39931093787425476,-0.32129411581049044,-0.155830422802683,0.19678459890237446,-0.26470594946969161,-0.31230932322447963,-0.058006320363319888,-0.06684726657481814,-0.2815655134444156,-0.035659127877796994,0.14124610271327986,-0.39934198922197195,-0.50839733129434006,-0.015262241472286412,-0.8326288591793426,0.49784397380124273,0.20198005993913598,-0.26903450542925189,-0.060198191662368783,-0.415497275307644,0.444324714374326,0.21273991525926722,0.55461313542685009,0.54303405171155683,0.064749339772469008,-0.40914966779723105,-0.45049051279278368,0.039910734366885928,0.26188134528603169,-0.61271292975528013,-0.25480237959630136,-0.47355458615077239,-0.057901339883095045,-0.024176365359418642,0.49670588718095654,0.097282404733073355,0.2927868330081323,-0.078011020684760762,-0.21649750040480223,-0.15749064137030189,0.59997372679725713,-0.08038337772924968,-0.051646893689809445,-0.16835032580072207,0.15927651789780989,-0.1841619107740152,0.19644123116766918,0.34509839886566696,-0.833599193037891,0.015762241439773624,0.23624587063460503,0.10708683727020955,-0.16069827515710689,-0.70594325515082879,0.1482217972859966,-0.71899349426514669,0.00292426114655484,-0.60530930885080392,-0.044234479007164554,0.5973673249711442,-0.03021271772989299,-0.39735944529715633,-0.042107932135029447,0.0327544903208933,-0.037672437471314844,0.14555327080394256,-0.53106491627471852,-0.32623476976444749,-0.13505915090939935,0.016385807659154449,0.53176811774588006,-0.28613343617386527,-0.07397405597496208,-0.034512617631067555,0.30688129191641744,-0.44333446359992057,0.55042582675944574,0.14859112259452317,-0.13178560293972913,0.31149372939115066,-0.42750758823495627,-0.14300007276559271,0.38951749155007737,-0.18591298873196349,0.12159367215339242,0.021392703056837,0.9677406100094752,-0.21552427404909555,-0.19101865825805267,0.69267051840471972,-0.39704676027651553,-0.16660778529974649,-0.20434690535328384,0.535093670872836,-0.29675833162086734,-0.12966004521110247,0.89975587085947173,-0.71784028584402393,0.17452738879769364,0.3717333663093963,0.6775469765749188,0.40831353390231945,0.17456760501138036,0.42214728770521776,-0.43662212268884154,0.20467047456110152,0.6670475932290012,-0.49764593806468671,0.86483401124072767,0.098054091989767583,0.41959642406198311,-0.30899252977131664,-0.16525982577024323,0.29790376655550505,0.12318929731175767,0.01705775111748015,0.13494190731744196,-0.099529220188583067,0.17857236257185655,-0.44497888500656646,0.011569770828267977,-0.38401132106641866,0.34696173138887748,0.39083629726472113,-0.75325493113742747,0.53037572681465661,-0.094205109110712379,0.28273392891661259,-0.32090920501505404,-0.43574957952183557,-0.58781118039513769,0.5200379855714552,0.55413618899382477,-0.13184429084863295,-0.30016739731542014,0.69292396341299967,-0.29452288723682873,-0.008555370597163818,0.53002389765549174,0.22992035603659633,0.2583406592867159,0.06064866333301501,-1.098457027282995,0.12191431920613208,0.33598162374387025],[0.25977644221185209,0.391559236156764,0.36605545427191138,0.30885638150984196,-0.1022648306736515,0.17806288692699859,0.29569270328081476,0.039011851956128468,0.41641668647546548,-0.24873724500185079,0.12832258538122485,0.027586940401804351,-0.35141552165804946,-0.89120051479725448,0.31625453061307535,0.068596073571584912,0.10502441918184927,0.28953235074071532,0.61279292342502534,0.12925427717575957,0.23974167084184672,0.21815007020905383,0.39636981972414015,-0.071555084340046773,-0.23243499762674971,-0.043767868740351476,0.63894999091643656,-0.0085508147515169514,0.12346686981831001,-0.047926529964764479,-0.031622768796245648,-0.35442467938290034,0.13043517280318714,-0.0088682660503740622,-0.49479022163656949,-0.34010008584008594,0.14316226117592107,0.11153869433494712,-0.0050234824600649316,0.076596319201481619,-0.19501088372119402,0.45847277893786587,-0.5203578826878934,-0.11229687136588334,-0.32773200504754096,-0.18821930224688988,-0.10441780757765107,0.3834841282158491,0.50019301707423491,-0.19835200775186998,0.44472188056830558,-0.22750951081394524,-1.0333955855245,-0.5337088907083295,0.04235769178270217,0.0012759605685938899,0.013854939817385887,-0.58763362770654481,0.51044517854158244,0.38723554350905831,-0.34295063505599493,0.54230542506978441,-0.30533327768649632,-0.15262891576262469,-0.28992985542084881,-0.35759663006574927,-0.1568989929737393,-0.30726585436585918,0.43855130859312341,0.26887850537941793,0.76176570319809223,-0.073658339685544832,0.24298940284943188,0.039057355858532684,-0.60250566450385268,0.36695481970447497,0.10597847177188895,0.1910301772317432,0.3388625264292307,0.10919024338367134,0.14729713192714022,0.29247327887973246,0.506284955621331,0.36623641067372847,0.43193041624286005,0.52356848679691126,-0.18207177331455815,-0.23139501035623158,-0.58219792136770543,-0.15205550171362506,0.10837174455681187,0.19791110330682185,0.62903635619561937,0.49479677407854605,-0.79038240662741777,-0.4478114670045546,0.17680932985714004,0.35264314718412754,0.46461350530127482,-0.43551929103227682,-0.28023662209463662,-0.054598179585767459,0.33836497421161804,-0.45636234649176544,-0.6732377357558,-0.077579213526254825,-0.0034789823972855068,0.17139498072720663,0.19693459484437076,0.086079658011140758,0.12510339422410863,0.33326734969680116,-0.39872388925363478,-0.37904128886664751,-0.26288542058132641,-0.506861472638618,-0.1194116248821301,0.82962173474226375,-0.20446882198735139,0.31634254916806348,-0.29778613118514058,-0.21667886551201682,0.36349894710379044,-0.073986348908865032,-0.30240911793782382,0.82984900823179963,-0.5470743599665161,-0.045374467680944816,-0.49346596092634087,-0.58443408989100565,0.15003094133810857,-0.15361348487552495,0.87290258567203038,-0.28232049497249745,-0.32447228833384423,0.33611766789007708,0.062154584500924766,0.046568764528406033,-0.50771632508923048,-0.141323541006454,-0.091054535157822261,0.41292195152409339,-0.35773628329115381,-0.084472928710946915,-0.042346054700241983,-0.22240958401601649,0.34370414529976256,0.22379286069317916,-0.0047064406969206905,0.036289540334722488,0.23266749794108321,-0.15464740341102798,-0.06763745931671096,-0.17769504104856196,0.30411995206030173,0.55267261880055019,0.496025328986146,-0.025074307945428233,-0.13918558556844207,-0.179521589006979,0.5427851238658814,-0.1004111038611773,-0.17271823774996983,0.28754553321398485,-0.019422246456874591,0.20987412298521421,0.25222239848237155,0.13346656406216145,-0.68503988802103288,0.62178557933119871,-0.41112973915611228,0.85138913640395364,0.10118093476852293,0.47368414419220223,0.45244257337137034,-0.015959454298179163,0.25575568397254406,0.28452489784060386,0.09085600540889735,0.23096274242143169,-0.061100896537837089,0.24630218036053858,0.17508435949708912,0.10135173532687332,-0.27882468801126153,0.22935574860805261,-0.35052863498025288,-0.24805592696461296,-0.74522278604601055,-0.62766758353055629,0.21727840117153277,0.80998173351198277,0.43704082924512261,0.18769248102891636,-0.035145717038226026,0.16711054705673523,0.47794517824321892,-0.048626702929582148,-0.12743045846377407,0.573959761789345],[0.022459184950848959,-0.27296425628603527,-0.3786825003466302,-0.082095928402014753,-0.44168172794150995,0.79671900061742962,-0.41093101415757105,0.075804445285964139,0.67857129599750765,0.049595329252632568,-0.078184131464046722,0.032028374559661385,-0.10476263621559058,-0.21653072237886431,0.63337851990723637,-0.69021488516855323,0.36662769380273641,-0.73057840991662,-0.2543548305502516,0.44414523100417913,0.18637303858139054,0.65862665571032275,-0.10249525400816952,-0.20392780149740286,0.13054259349933797,-0.265748425199498,0.45143178385460503,-0.78465823672163071,-0.46522686340027275,0.22745733897050979,0.097013253674475386,-0.036809913818713992,0.085230701516386842,-0.18457318245835128,0.74819143896413787,0.68233920206318643,0.45301920539174073,-0.10354566458461792,-0.060905388232996516,-0.1261101038842023,0.19234784412750691,0.20860917233951862,0.34895654211598504,-0.13906814658036121,-0.034561302815254033,-0.23585725075244965,0.33360379599008361,-0.2609340574751281,-0.20995748806956369,-0.15426063580688509,-0.36056068686397635,-0.59256431808372656,0.024609216345953658,-0.65433475336656644,0.35961342997083784,-0.26589349966844122,-0.025897156709543141,0.03822594578996065,0.10034278810172488,-0.47940446967382294,0.28480560405904759,0.30251174377018075,0.50029624392311223,0.6824983200872996,-0.10893000411970709,0.63100166626902976,0.96832374647070851,-0.18800602084570461,-0.15501660795004349,-0.09465358853680074,-0.29665859269789768,-0.68011750863006737,0.0044545738605708948,0.057534134998975507,0.2860072685243964,0.32625270979730708,0.10321542731921783,-0.33799835337184586,0.70039394975636726,0.018548635249455558,-0.46521373074532324,-0.26416875500775061,-0.19852849078787058,-0.53941969946924762,0.37277379661906906,-0.45643453647305415,-0.17581255383044211,-0.11327006717664205,0.30468474460844808,0.39386451462284189,1.0442039416944309,0.50426687180555663,0.0821955973888997,-0.015635108283065406,-0.45136649213865476,0.31017267044593094,0.0649535227577067,0.25281939179960133,0.15575507650082077,0.53245167895531109,0.38306311315580127,-0.82191045302022658,-0.29253160349293239,0.26063874583064417,0.3392846321231095,-0.34938226232984676,-0.075646440241992616,0.0661339551156958,0.28696518330377957,0.051377682120713163,-0.057515028747627435,0.69451143835059037,0.29348888052422717,0.011637307646309986,0.35506207448918309,0.21250088064776151,0.24463518395430364,0.38330098626499159,0.31115594771397825,0.13176167221726709,0.59017073058252556,-0.073269927845414778,-0.24183175200607926,0.23883995174893632,0.16091771685503964,-0.35742116629288756,-0.20123392546630231,-0.23285297557141654,0.51123502235180862,-0.00049571701302716226,0.26153994854824736,-0.5660221703041951,0.0091926585036641011,-0.79201790166353969,0.21189123344336344,-0.30288246527871143,-0.80664793725361339,-0.029544257334038402,-0.22823762227112132,0.41314228091223,0.059861757896220225,-0.33376630311725,-0.4376860277723878,0.94508208135356608,-0.29156248501106441,-0.48425569267301644,-0.16471740200231433,0.90713294379495868,0.19754589401844008,-0.66095329784671963,0.00347160753992433,-0.018859904556850195,-0.45953456953186139,-0.10720926084874598,0.12029560786276358,0.71810173496314389,-0.5671121646722731,-0.13686268922772049,0.042427112517835666,0.03299172036433435,0.19503031939628956,0.21483599034040124,-0.704001844862204,0.49244706529310067,0.29304262903664258,-0.18404848640530627,-0.0023747824909982305,0.21240087684940834,0.2148432399497528,0.47448409372776951,-0.38847779351053791,-0.28140105716875363,0.10426068313247226,0.11031792228222981,0.053716976422561416,-0.51476476085330714,-0.044841654645081545,-0.080331486743838693,0.38020830503315539,0.27177152988347086,0.23333309359886678,-0.098472880100809623,0.0113679753667995,-0.077719820164049949,-0.3289980310470525,0.5605371985694374,0.58112534742614819,-0.085607715818992874,-0.14594012141878243,-0.33746783386896478,-0.23152086630669297,0.018220463442523458,0.18308775795733479,-0.12906569992491032,1.1233201844996275,0.11684112500692148,-0.30760587951194324,0.14282715211735278,-0.2119430480894097,0.28784611410551408],[-0.35080023449615233,0.66889313851734988,-0.090113439525467035,0.22460576289222264,-0.47802643777260617,-0.44941084746991561,-0.60280290027850369,0.234135134353647,-0.49755089006528647,-0.094437990936459687,-0.32572050143430803,-0.48864281581543351,0.063515238019168321,-0.23238193025865819,0.54524697419243962,0.38310031692048491,-0.37074884729494667,0.3767053973324056,-0.0022973616050165646,0.044169936108989491,0.36137786003203531,0.62563597057558551,-0.40188649792286141,0.01918146115899649,-0.68689210173667192,0.17059660262506216,0.22087332837595625,-0.28010905675370623,0.260854961424205,-0.30746145997239827,-0.0383738670763628,-0.44935193352967434,0.53021689598917776,-0.15419995381961291,-0.42754172805391216,0.15715063745873112,0.527638231600504,-0.14995146222149908,0.29652344365011746,-0.026421445334609175,-0.68492024362487292,0.24011923533651028,0.06857159899972505,-0.1647406914353583,-0.4928400939482826,-0.27156655370471106,-0.54864543665750176,0.36550146888403356,1.1004076053791063,-0.37700010795853256,-0.37255427035708782,-0.11872000989178866,-0.056079931897338009,0.28752281001139807,0.45788139786262116,0.046885233728805806,-0.72409943843782842,0.10219324042846371,-0.35148440852941537,-0.20534795600199851,0.78376562827081531,0.54688435809946134,0.018656625643579894,-0.73734328187945408,-0.0034280461756911922,0.15447171315787633,-0.36108483025583366,-0.35383769714866081,0.44921363214658566,0.17178673879251916,0.032234732944031314,-0.3729385961423588,0.27910502883795074,-0.0027332029310673423,-0.46222988713640112,-0.30393462933347221,-0.076715490544791959,-0.55196265653655019,-0.43553753835815023,-0.22933272544255695,0.19276553967121304,-0.0334439307342189,0.27551846623202564,0.16142438108308227,-0.0343486879623836,0.29893767194356258,-0.21155082272465067,-0.4423788530275603,0.17720896614014375,0.12868204089260682,-0.04239693675241489,-0.61919984419827356,-0.34820157517444827,0.24478143598530916,0.42780505680996711,-0.67390750435675,0.15059468032683807,0.0028627806352923145,-0.21853348499367553,-0.2996034275606263,0.36193992724210694,-0.22910518151257114,0.18373638874307524,0.45001326264412894,0.32615911887982435,0.010119071445925878,0.12971608390709347,-0.28845791993712838,-0.35138434729633178,0.090298988715894785,-0.12907146805843017,-0.24101852638938021,-0.27510861095001393,0.97223426636417887,-0.24014454979553387,-0.69298235081207138,0.17803883792395317,0.255394367463108,-0.431939356454159,0.00395216218359422,-0.32236429644757292,-0.11992341689569994,-0.19480783368389637,-0.29669536730544643,0.28901434850749341,-0.45726164014776005,0.04935444466682995,0.56310840397906625,0.67634276821069528,0.31231008829305734,-0.29945874838021924,-0.030501069062462208,-0.093624519302229259,-0.32059803831443118,-0.39298347259046296,0.077066313472202039,-0.21656990360066372,0.16624643546771559,0.035537850676025461,-0.060470407307402427,-0.15622454772666161,-0.077770879703541657,-0.054023190923985692,-0.33656113695074508,-0.39881692305412947,0.27681064336941053,0.27334651446453578,-1.0975974480831299,0.1178914126952781,-0.32302091204985034,-0.035321231961139982,-0.22369403839884586,-0.50350447359432449,-0.17353231637964312,-0.64824178071165151,0.67717124640916848,-0.44436413973637423,-0.16179523777910879,-0.16865764403231628,0.13694878890915152,0.043954783892971853,-0.17294869307770713,-0.30252618096259565,0.13712181116840339,0.029976465512403263,0.18172399494808619,-0.57053742058099632,0.0032339318870912154,0.097283770003085621,0.38345019247125317,0.12154367140481652,0.54391126375861432,-0.10594250864737206,-0.11907623689001849,-0.26835191398110386,-0.17172408501558881,-0.02041795400961214,-0.20566881142738083,-0.39847297697021755,-0.57687345025646752,0.030786126017501234,-0.81163353486691969,-0.69999283172078053,-0.21582261092845953,0.31637530025183691,0.2897004035940966,-0.16502962453989462,0.051099893967132833,0.20709078149532584,0.0051685489100391467,-0.075670096606335932,-0.3184161123223937,0.33159119006038718,-0.3385946611206459,-0.044279565678705377,0.19367934290900923,-0.26150726370761534,0.16756891323358664,-0.18896399577211237,-0.66644285280814108],[0.13649131747516044,-0.38799540762734,0.20517396365873794,-0.665654605328113,0.42621804219177317,-0.62548902038012888,0.40404511952588312,-0.75273509195658428,-0.20875827255436597,-0.055033395586196104,0.35080341464342568,0.06320607306222005,-0.36619502777705065,-0.38014184188441053,-0.31163451223532335,0.46022952535984413,0.070840993057569746,0.61541106659756872,0.00759479447868889,0.43826156500929375,0.22322107988346657,0.22789916933723503,-0.63035389968450906,0.29783289703175636,-0.352414100864774,0.62905934252468543,0.38077155795775819,-0.17484396865984472,-0.0017010897117322003,-0.58950054739409907,-0.740026906154516,0.34547308861042969,-0.27582019067993296,-0.098677612315063931,-0.1113564758209032,-0.092214904030571809,0.63644557299060356,-0.22575388717735936,-0.23104131683175896,-0.0590619552610749,-0.75064626555071046,-0.76041921535282464,-0.063242953401876356,0.38040258046841158,-1.366886400895007,0.042849192380145493,0.41886628210828469,-0.32703930025610717,-0.16157107456804218,-0.2339171273129953,-0.25038582424674793,0.22510059296153684,-0.0919860371957129,-0.06344144296045906,0.39079263615478987,0.43762882456526569,0.080591357613227582,-0.80861177825551245,-0.53523375409006257,-0.72176243900665771,0.19290623784939229,-0.50711779303617244,-1.1990426709426378,-0.048505663254597937,0.501293558184908,-0.12594474323690896,0.1493437910977,0.22897241986808753,-0.34861155090826551,-0.35800127269445414,0.63414765570906351,-0.35129674197487976,0.15272071655670638,-0.12496946037874923,0.28110488323229288,-0.34415166934148644,0.21010689964284696,-0.0039637794936917617,-0.044851495043544985,0.36375040504789097,-0.042069642313564588,0.36463429745413867,-0.24246782839321618,0.77490547591060666,-0.36732034736083236,0.81531769841885293,0.27834420511660118,-0.32542173480172709,-0.58969248612431158,-0.87103397915791958,0.030652560177607379,-0.0070062991730162946,-0.40043723750649896,-0.036153415365667456,-0.51793059844686129,1.1761138771363247,-0.15932485858737375,-0.34880901876916637,0.51837770184868348,-0.41287048781983737,0.44529271544631904,-0.0413557375041792,-0.45179654480887932,0.29705573434229648,-0.0010758012232638886,-0.41116204184070843,0.31758350017637071,0.22490599145406839,-0.26481158861356774,-0.0453647011433181,0.04249205016637117,0.21683971141970387,-0.520863801575467,0.30990795997152482,-0.51382119433305373,0.27615479805737941,-0.03052394649833369,0.817140478833813,0.67332495034902584,0.12225690060294134,0.29027392875903207,0.063784050054802324,-0.25713192627387949,-0.12235240880572103,0.10896909244438556,-0.00783901613541721,-0.079896063610396612,-0.14235205463210782,-0.414263188191413,0.35835819006903025,-0.06075358198498905,-0.28557874369691449,-0.58509218897462489,0.44137443843173968,-0.30740905932409968,-0.038459429505819029,0.14922682942518928,0.9172802916234879,0.25629594736157774,-1.0286540909114408,-0.36586983249088617,-0.37641857326024275,-0.12779811981679712,0.049378902352280825,-0.2360897828112285,0.19358573185778807,0.31767283376467287,-0.089108039533726938,-0.17532621315346597,0.27123097498075505,0.13889913170485552,-0.12961355695722096,0.28583412716949053,0.51168663402277637,-0.25976124924618432,0.58638191849552135,0.052384313522374167,-0.11652518498100967,0.02270015704943569,0.29663666247903331,-0.21601447984907538,-0.19242542702266827,0.057523498323304743,-0.34362018742298878,-0.36853325497401096,0.37691827739255457,-0.64329154365215624,-0.21730182700607351,0.043595961736695429,-0.15411383079641505,-0.11458525539995643,-0.15675929074983983,-0.41576537456687979,0.507708648060356,-0.69274045379564919,-1.1391232403423519,0.36311639881555308,0.26802039100326647,-0.12755017210215136,0.12970085641964854,0.11280612645546741,0.043987445730248168,-0.70339372097595654,-0.45870964057114677,0.02891436347147221,-0.65832283957103155,0.40555277911254428,0.22381832972608079,-0.00914332352864315,0.46281931977853924,0.54908019393417518,0.12294341417863697,-0.12395049795626174,-0.064352718131646933,-0.12285197261882805,0.12563576289556463,-0.2144833608024431,0.0095332243520160551,0.47137182403177891,-0.12063370281009389],[0.5100194732235539,-0.2060752282258361,0.170942267541304,0.052408131371904441,-0.27063687913443896,0.21118625486585718,0.0794132581274762,-0.13235623878686373,0.55229240528799917,-0.4586620858635137,0.3400625496315593,-0.52237607949768072,-0.564680342525188,-0.15656710777180927,-0.0076259239475603268,-0.082186906518213462,0.22238940441663402,0.4316661798371153,-0.21363762872642175,0.14900204447408944,0.52464981256292642,0.59348612908788712,0.0051997704799908893,0.019520302834188517,-0.31826925095694092,-0.36054617180384685,-0.1752480435078296,-0.30842923665267463,0.05080894228326821,0.43630469721101406,-0.14645454718008252,-0.47663571963785989,-0.51222221368672471,0.45509925083090852,-0.22762264019504158,-0.24557005666891804,0.0075060072390825093,-0.59912895015917755,0.0068741564741346961,0.48669714306826961,0.4376546309020195,0.018800946628233655,0.12300561427863978,-0.55436510908767012,0.69045322963099343,-0.4494823978122266,-0.17953797289824827,-0.0374768340861537,0.31080511414137441,0.45003406209382435,0.30443111963638547,0.55386886830863846,-0.26034212667777079,0.38557975956430429,-0.36907048820340982,-0.36508634135718976,0.041246118689032739,0.060392742363437425,0.020207874832662721,-0.1685558684287414,-0.68655965581470513,0.439456747975509,0.12135235511372275,-0.44769643137794018,0.43522497087953382,-0.28907592313454483,0.0097028778134009737,-0.33324364282862673,-0.34083120009634593,-0.3629814435370558,0.45884237714771858,-0.60573090128778717,-0.2493647600393111,-0.22028370878268347,-0.43287638557167257,-0.45364355710376864,0.26426982819008643,0.64416824745796386,0.33754384942303362,-0.01728076280948836,-0.090968469510286962,0.062848875621006092,-0.09836553467169841,0.092237724184011355,-0.4302744676375686,-0.061718610363441527,0.28178597435980074,-0.037487004140067219,0.23758075396930142,-0.21360582287040408,0.30271234592803553,0.26650072242393424,-1.2172675761414979,0.3127610378900797,0.012126192655716616,-0.37876804665788055,-0.056986530536953961,-0.8380986357384741,-0.27599228843662904,-0.327000350052333,-0.18427187464039535,-0.049751023906458268,-0.027534532691932422,-0.43214931618225116,-0.085728820418191284,0.14102562298469296,-0.36539737237356013,-0.22380146801375617,0.2238985035848729,-0.76097503136164113,0.77233924692739764,0.44593806917001544,-0.037218168117800939,-0.79684596260204887,-0.5492325956138987,-0.38305066136251814,0.61889627533625191,-0.49039963988034124,-0.12497782960211862,0.086049076227923751,0.35367219254231946,-0.40389049785401593,-0.82983666666944866,0.0038865631524606513,-0.16312244745184062,0.53293281298987016,0.32131025060670304,0.051797724643711206,0.49188415516490808,0.2364481495996866,0.35881174639371854,0.17942880326516647,-0.79052793842392011,-0.702598240930568,0.21401883443897468,-0.42675258489056084,0.24577666743209,-0.45098977709153437,-0.44610706338434358,0.37280824144207897,0.61974237223108264,-0.18264877007568445,-0.24138416127984413,0.51843105404030165,-0.319443287897315,0.20008810336373262,-0.030125507708219579,-0.31622347366428039,-0.19338443923242174,0.62731311957835312,-0.76509213076784877,0.691088077674128,0.071434221272379431,-0.066992787333609263,-0.97545764658090728,0.45193264218887097,0.45960928056050726,0.046936578587385806,0.042842858962454732,0.38694174783093821,0.32242002626823474,0.74738361599553127,-0.41401100178103656,0.14282904701465085,-0.43713922985010378,-0.37518962569193282,0.998064581108632,0.64970265995964172,-0.30503966025951074,0.56792955044184656,0.31070800227898804,-0.51941119453706619,0.639055994337749,0.14815108210558356,0.30853183225716097,-0.052703842310765268,0.24638713043527727,0.006520682191997848,-0.37047841902376477,-0.88471328905824542,0.33858457229625832,-0.22959436168951536,-0.28213999028777109,-0.43062444838993008,0.053020415207983396,0.33111890168720925,-0.32776339595437659,-0.87399249144460234,0.16504631960439822,-0.1730391747981713,0.20266584813147048,-0.21666177212085705,-0.21316252210116457,0.12027960333319507,-0.48665482162483248,0.68560886450011127,-0.0568370420988399,0.33422407728440773,0.44044633102624525,-0.32221803128506155]],"ActivatorType":4,"GradientAdjustmentParameters":{"LearningRate":0.1,"Type":0},"Type":0},{"Bias":[0.0,0.0,0.0,0.0,0.0,0.0,0.0,0.0,0.0,0.0,0.0,0.0,0.0,0.0,0.0,0.0,0.0,0.0,0.0,0.0,0.0,0.0,0.0,0.0,0.0,0.0,0.0,0.0,0.0,0.0,0.0,0.0,0.0,0.0,0.0,0.0,0.0,0.0,0.0,0.0,0.0,0.0,0.0,0.0,0.0,0.0,0.0,0.0,0.0,0.0,0.0,0.0,0.0,0.0,0.0,0.0,0.0,0.0,0.0,0.0,0.0,0.0,0.0,0.0,0.0,0.0,0.0,0.0,0.0,0.0,0.0,0.0,0.0,0.0,0.0,0.0,0.0,0.0,0.0,0.0,0.0,0.0,0.0,0.0,0.0,0.0,0.0,0.0,0.0,0.0,0.0,0.0,0.0,0.0,0.0,0.0,0.0,0.0,0.0,0.0,0.0,0.0,0.0,0.0,0.0,0.0,0.0,0.0,0.0,0.0,0.0,0.0,0.0,0.0,0.0,0.0,0.0,0.0,0.0,0.0,0.0,0.0,0.0,0.0,0.0,0.0,0.0,0.0,0.0,0.0],"Weights":[[-0.011584352562250698,0.0087036059537681718,0.18101904956654405,-0.075576420059022723,0.015277607491691674,-0.050064463853120716,0.027525736897778909,-0.0020411172189258218,0.042426223190708337,-0.14771205725506353,-0.047317904163647034,0.077111610935209018,-0.018115008327414577,-0.10110632777990578,-0.000647046187751975,0.1140476880195635,0.0012817382090304444,-0.063160566398791515,-0.016235951644128766,0.020715343554124681,-0.11522217634690207,0.041473794694996964,0.026679947305927928,0.0058628853011611325,0.10474039812881902,-0.0353114607855119,0.19580549707252351,0.047275570078686963,-0.18053910224902039,-0.021511598074501335,-0.072801587252904171,0.087201681539121584,0.06043460689368254,-0.041848762320018329,0.013932584097990494,-0.028142157994165178,-0.042829064061421861,0.15072754316364279,0.0088852958332811122,0.12301738527231423,0.014395211576715411,-0.021467139728166947,0.0632869083788564,0.027532029871245374,0.030468327296785239,0.060724408096659556,-0.073365996928653587,-0.031471713392618124,0.048490684293083626,0.030182738421765679,-0.0098462321186600452,-0.065294109188838448,0.04732248214870232,-0.027126059511440474,0.059887556531099478,-0.0428081800776308,-0.070728350490126615,-0.066922633051798325,-0.071336963704988585,0.034374731326386014,-0.020971780906474845,-0.14473438990983281,0.054909252824097005,0.033263876570069247,-0.039705385350757849,-0.0082951117024018441,0.10483886570651496,-0.11658781585281898,0.00946331146074436,0.028532770262705388,-0.0409268527914185,0.20237002450884539,-0.005694220225516587,0.0048896401293176831,-0.012394571713398656,0.016641538758004521,0.0010306238613012777,-0.040569181122299451,0.064502417193845085,0.0033813822490325303,0.00055067764641226569,-0.040592035880736364,-0.04701976218925695,0.066674015947994839,-0.097073140507630343,0.085377314323266854,0.028178820338530856,0.018732553756693068,0.071875663864577846,0.056482798721499396,0.023377269700429602,0.045484357811465183,-0.12038055836721973,-0.0058665631534647175,0.021846472172707462,0.080131387126391174,0.052599607061707292,-0.044740393771621631,0.030795514784726787,-0.019465989488232995,0.025625413475755105,-0.026578560650929693,-0.04676591244687936,-0.050274164421501781,0.0059306097480190927,0.041386112096168839,-0.01003098147229081,0.016719134147327279,-0.044193427977796518,-0.13187153200295126,-0.028826426675715732,0.0080508275773184985,0.10854393092966513,0.019280410001735342,-0.060992148737995085,0.052404975160637406,-0.067471426487295233,0.085129734868200066,0.035146468607234686,0.0226123036314015,-0.032550213133216988,-0.0706533487659814,0.088284184903212021,0.036871757636492565,-0.061121343638884794,0.0041087514307838894,0.053764206501881788,-0.075208980152071545,-0.0545020061828912,-0.11284708220767339],[0.045302806276092115,0.076259663142568754,-0.052600359720463473,-0.165142462342043,-0.0062861372834534619,0.017121179441122476,0.0058957669207233771,-0.020818186421954411,0.15310487216354179,-0.015365411896589944,0.022653401273727065,-0.012604579465766177,0.041249814956225594,-0.11531016222330298,0.12580242553862076,-0.05149386430996028,0.15335867357361685,-0.020747520893329291,0.042285301980998648,-0.094637911708696412,0.030483492275586884,-0.050046386083544829,0.15948086938804534,0.083532316190915154,0.060603612153438943,-0.0048610398691393258,-0.010489132671391697,0.01537394037210511,-0.018346053285724973,0.019887042285264233,0.01737532461961494,0.01720031605461424,0.066935900478800867,0.041936599678085419,0.032041573595813347,-0.00277469830294878,-0.0018424041272878573,0.015883723523502789,0.0004632237992320104,-0.070009367752675883,-0.066362639532876855,-0.056411163294839375,0.0092462365257473377,0.11562919049531896,0.00634169829516644,-0.14094764883651767,-0.018778678585907642,0.00380276916563224,-0.0086152247518518875,0.047136036123811065,0.14714524552274341,-0.053333850942173029,-0.015684327554642479,-0.010205400189376004,-0.13628746148776105,-0.015232738370392769,0.0019925439176691692,0.02900079408259491,-0.075856873423255977,0.081868757003384571,-0.070691103278445758,-0.032482009798454468,-0.072514770586313171,0.028328278262139104,0.0044333293217490334,0.026178617452147269,0.076728528190513082,0.0019858249135777163,0.083874627012554451,-0.12269625070833071,0.011128029245186523,-0.049036183906480665,-0.09602213720647905,0.0062430262390325555,-0.0925932753824553,-0.060846070062235053,-0.0037173043217656513,0.10395931679479499,-0.11327844132935017,0.023577178194395389,0.070796925738594529,-0.080170411586833662,0.0588846732774795,0.0278776857156846,-0.064216744161131989,-0.016949287851652964,-0.051258579349460917,-0.036928588807893348,-0.026789269923070062,0.081022914795652171,-0.095479564112629353,0.088401421784297385,-0.11581994513426742,-0.1593982125849146,-0.0074977762720721455,-0.0018176000616087111,0.13742651436859488,-0.056897595011332326,-0.07080214563903639,-0.0064809685804859216,-0.00019169830964038798,0.00623142770027838,0.032932611853890993,0.058403665043922789,-0.077875197126767631,-0.019542318521337917,-0.014567999605626616,0.024455025607812531,-0.012399314069671636,-0.008586735049858716,-0.00053252020158912135,0.083869030067906,-0.021530525996783189,0.077110610933794427,0.056331129913572316,-0.037071920736372325,-0.15248544647340626,0.017450741640862719,-0.1312517145128862,0.093513566116370031,0.034505327969324234,-0.066083401437774372,0.031491285867606862,0.13541717025212427,0.0040273273856616543,-0.077853752749131866,0.019596045424838639,-0.0868130648490871,0.0089849863036985788,0.01223899955345603],[0.0065002895464729444,0.020300302849842938,-0.061229971002568273,-0.042530376592910243,0.03226630286060074,-0.059849394574814224,-0.0077259266984405642,0.099824800416165815,0.024135811905642523,-0.068932781776467819,0.056214880654378407,-0.034810965325891376,0.06675871915437756,0.045750802384935986,-0.035727753930033572,0.12061744398778913,-0.049022993988296133,-0.12557621828244495,0.1134119641131906,-0.077805171285201744,0.17015217455693182,-0.015938035296535376,0.072161263177668911,-0.022394129227260019,-0.091017636829922324,0.10535457243686189,-0.12338352551268984,-0.10414850785304815,-0.033598058689629312,0.12120463886428469,0.025381281226652574,-0.048458254211685349,0.032367793942543008,-0.076137503753036087,-0.037572716718600463,-0.14849143800514553,0.10442798765180741,-0.10784763370382393,0.076425954636592019,-0.056217377751162353,0.036889164990388759,-0.037317270053563882,0.022130248972082423,-0.064314861481097621,-0.1215568817670261,0.030812651681327578,-0.033116753524570261,-0.049419966300750816,0.0048559638379659167,-0.00010849093099111494,-0.028264102014373304,-0.2018527337013932,-0.019612583945870985,-0.05795909457072651,-0.033745064982395011,0.060071696728212963,0.0577452713603459,0.0058117286086707669,0.12590124628201374,0.089695395466899572,-0.043364162343585914,0.062624185458834844,0.16008626873564033,-0.1132223179689129,-0.093333576742719929,0.073014668612566058,0.0025707247331736979,-0.023219159866900648,-0.04191413034784354,0.026730692766663185,-0.0086131291161174774,-0.047617814072830542,-0.061052001001350636,-0.099895584430733639,-0.092898700834827277,-0.027997730213340819,-0.013402126192711056,0.0055234935639821413,-0.077767140551492864,-0.045053960660854174,-0.0034460544491688862,-0.013491059536136135,-0.0745125545187004,0.10039145933181271,-0.022740702586350813,0.1303290174839144,-0.090836555530820429,0.027825554950095265,-0.00047664387858436044,-0.0563456159217587,-0.0060606663100038092,0.068835673933261413,-0.049668485151315056,-0.060749216310487325,-0.090679084540279634,0.047999650282944561,-0.015271801939803863,0.0061157165661099083,0.00460419490397913,0.1022669047019172,0.10880987859562981,-0.13238946192987811,0.09385712757490236,0.091977822261114964,-0.10303102218985993,-0.012361153234076014,-0.016544682966119224,-0.066846477328937129,-0.018758224652751492,-0.058264387571719325,-0.040155281558288056,0.06308591987788173,0.066559264573848684,-0.00082255802692275031,-0.018308144672160735,0.012269807817496471,-0.045069230042364475,-0.10494199087008654,0.052783105060961066,0.029828214770671931,-0.10863174795183117,0.02988271214280892,0.034540809542784344,0.11725629089288907,0.017150694954547813,-0.065993311896142742,0.10781713562346641,0.012704146503197176,-0.060229234488611366,-0.049600833310287765],[0.0083004104015207275,0.13350572250415979,-0.087703613983538223,0.0073072556489203111,0.031825618804221176,0.029747690054156454,-0.0099308527973838521,-0.027216353758299196,-0.016359175712818398,0.0863487581948728,-0.029218137379547617,0.024018454040159572,-0.034690255539457,-0.091022202178170919,-0.11167116009135492,-0.0266523538183104,-0.10589442046455007,-0.12780957063521412,0.094866712922195243,0.031977209456418569,0.058230098395984219,-0.024831080984354152,-7.8664617430280911E-05,0.13183155081708725,-0.081354986982154709,0.033387443457985173,0.11376441246012689,0.028148917712989177,0.058107780560998017,-0.024747734931486257,-0.011119243445442441,-0.048663803163641335,-0.057498383366156619,-0.0016207868712268328,-0.0044437205664400493,0.081750871686311552,0.036183993607855347,-0.089152367080718678,0.050454595203960291,-0.065254371377290926,0.020245758304099325,0.13312792971710333,-0.087573679680489791,-0.00599416738874686,-0.032337880102762166,-0.0045745736293469142,-0.14255886132504961,-0.02706348146502938,-0.17609345146306263,-0.0042659023874541437,0.028346229566716723,-0.0024560272366033506,0.0766548187887326,-0.088837322152040141,0.039070419188676229,-0.09601253341982223,-0.006875823377899431,0.0060715075864870207,0.042681167147559616,0.14516038804835582,0.036404073873643437,-0.055401197387221372,-0.012702094740817824,-0.033437800955896296,0.031521991070226782,0.092628591835664437,-0.062623530457149343,0.061430005115229586,0.018462060682260778,-0.13995528003082708,0.130509699056998,-0.058245671318250113,-0.019586306792967648,-0.0659994703960231,-0.02107427758222636,-0.043154327371566145,0.077283652292068961,0.019292165281155814,-0.16254471961114,0.01406285922218365,0.023802455920305481,0.056357058440519137,0.058685906332139881,-0.018842518321085546,-0.14580247920722786,0.0065689572996111114,-0.13893515768398274,0.010724204334474699,-0.033574777555645835,-0.078110179666469728,-0.043499056512407264,0.0779134434590615,0.10925880397525326,-0.0055621923923596236,0.10784970929683425,0.013267054535000468,0.022430790648622977,-0.049322649856205915,-0.094532641833498326,0.064928746967833545,-0.071500381803841037,0.007188331210479351,0.1420160911507343,0.050572462617019934,-0.085130994029909715,0.045773638934927773,-0.10906435114487283,-0.045645033951589906,-0.073793042804413192,-0.064415418943113353,0.055334200392601084,0.088463457740190682,0.1028506446629992,-0.095658820862347574,-0.047809725410728865,0.078145919806038217,0.026014236640840561,-0.018520238997939295,-0.087407756169084472,0.00527275170866319,-0.03742220118216525,-0.041061075458756688,-0.018276446858805768,0.06356014924239016,0.040958942492507068,0.066556501745566071,0.074088602810607945,0.061678580230056075,0.005762200654768344,0.065565740782454279],[0.062763029961354,-0.048228605319869118,0.024337544746133154,-0.0492618454214213,-0.03328077643121416,0.11330612143356438,-0.04775081119583769,0.012712407530293722,0.038572955194299277,0.037105926976010548,-0.037100688923580517,-0.04273826382540781,-0.0020920856359583242,0.038176495629412666,-0.13110835810819413,0.013628487448717886,0.013465778283915925,-0.069155007987046588,-0.096677781255324724,0.064836420359414074,-0.00824835176464158,-0.017216008147921454,0.065821063696022988,0.034341257746601017,-0.13055229874884378,0.063321939966311844,0.021194592941662177,-0.019868045943810381,-0.076088831350642441,0.071583864797436114,0.11498383556740034,-0.014557450421656135,0.0206080549329069,0.039776894062790544,-0.0045704414475564161,-0.16832331715598234,0.034048094592514365,0.024189544603147404,-0.036086705594528964,0.0077408238904171679,-0.0031364155235236967,-0.012637353972503375,-0.037044678124613845,0.0017725688161347,-0.0059330855737665779,-0.04943080899508269,0.12205619018565524,-0.0055471146596388224,-0.11088498874102536,0.02421281362094858,0.12744813524950535,0.076343580921512152,-0.045247043965278705,-0.0028394784255648467,0.027333133204881281,-0.027961072000376737,-0.034304652484325314,-0.012298061117942637,-0.026691216527821936,-0.021204919720264323,0.11549615555212722,-0.022131828723398615,-0.13545694807990105,-0.024674209999744807,-0.053556473817171,0.028483272369980838,0.10118123006676077,-0.073051272808372314,-0.074892561626371368,0.054317473208366211,0.034739821668168525,0.085479638608423655,-0.0708610568150282,0.0051776545112742914,-0.034801759250935982,0.071253866321203313,-0.025623794698639884,-0.034767880498187249,0.029188945059678815,-0.093034993824822165,-0.046634880506693205,-0.042634304032137353,-0.14398806302214953,0.013126154865546087,0.040644775193151524,0.17241998277126647,-0.048248221147472396,0.013076946555236783,0.066683224452634332,0.016372992915737978,-0.096156089521201957,-0.046439852681170207,-0.04519285462950421,0.011560706857808243,0.006139911174968901,0.04521004337817873,-0.03657052006160004,0.09106305783819367,-0.10071309414583067,0.056305266708452338,-0.11575519116622481,0.084841940427352186,-0.081356067196977314,0.014988710949064905,-0.0021570733915564745,0.0025431337981557996,-0.051345065635797014,-0.06521044021538247,-0.031969924177192133,0.0616915719265342,-0.007558318135399345,0.11636868246841715,0.095300058058839621,0.079834225078379,-0.076304308078977437,-0.052359033277742266,0.0461814054028425,-0.0058849341520070212,0.027771643635769182,-0.048679684654692371,0.045900741270830235,0.02947803228515377,0.0573137723631755,0.017651119049533742,-0.0012995671436964779,-0.061504433346828986,-0.096712730502442557,-0.14777873103896855,0.074518799550738007,-0.042235564192158848],[-0.061748583012886805,0.0056946452879751116,-0.046353094413837725,0.089549068091934719,-0.049513213560451429,0.064984860065509478,-0.13509811126229068,0.10640649103368777,0.035524619616777352,-0.033284996603014538,-0.046364153840060492,0.014029117900420505,0.092070733411604225,-0.0047843151700691679,-0.0074585246803839473,0.042016531141302209,-0.13571688060882767,0.047152518992110024,0.11005959517135107,0.093106722442367312,-0.095118971376206965,0.07601801425205211,-0.06932780232157619,0.05935520044467342,0.016614590234654024,0.0059140341453129356,0.017833370944716275,0.11835456781714804,0.030535774573367681,-0.013907896784119682,0.013228511339595579,0.10706554465778725,-0.045702993504103541,0.056630935334782515,-0.0334819891661119,0.036162392199315031,-0.0088872832668319239,0.027852771490007072,0.016210782775063076,0.021963754736567982,0.03873391330896702,-0.050405342728656523,0.057504718519230336,-0.09182029631117565,-0.056409760432327559,-0.058066917809320141,-0.018560777568332937,-0.062095990719600758,0.039323793389253951,-0.011333758756224888,-0.10154168220665366,-0.035516136630027777,0.091084534498165143,0.07229347635791171,-0.15541616475744788,0.11753949860591058,-0.06105801275175532,0.045097726776576065,0.06710383305197079,-0.059645234105439641,0.021907532307978948,-0.031496885057797082,0.1143145760728829,-0.016563837566442578,0.015462215962608114,-0.10778686810278841,-0.080716633343579064,-0.0027491121063916843,-0.041181233515531483,-0.068411215218917312,-0.0088003779479739527,-0.055431416281523781,0.066529609141586621,0.14491444851666785,-0.04990754822622713,0.12130803593151383,0.00650779006670137,-0.006975296716740664,-0.040659619815784712,-0.13561904251641888,-0.089976807847147677,0.0851707493595838,0.049664093798234311,0.11411769534868839,-0.095181954075079275,0.083125635481132928,-0.0017761391142806719,0.058575257309948149,0.1098364749255806,-0.10528463498669209,0.042581574338321236,-0.00053844204558142175,0.022797821475187652,0.059552149183273041,0.018089491502794611,0.0428500179392498,0.010082092614463965,-0.07479794772771374,0.10916481317452793,0.042662961919187149,0.11338939479787046,-0.026580041721604303,0.062771221333471669,-0.067799480482235649,-0.063065764266011945,-0.05385467854807649,-0.11306326407470217,-0.00144626590402103,-0.033867372221146913,-0.10755781984200161,-0.054221818463042783,-0.030306873878191164,-0.017316802014026484,-0.0035251166349713012,-0.077016152109776637,-0.019593970221934282,-0.04740941061492538,0.0759116253040428,0.085726093034633022,-0.071660305914904229,0.075299895224260324,-0.014031939269984107,0.035754929575187722,0.031665093179607265,-0.084917867532819213,0.11673226633080656,-0.09111700118030458,-0.04785364840287297,0.0022034876202573508,-0.181507307991578],[0.028428387427214853,0.10047172132521585,0.031055756739734451,0.01065533185723053,-0.021468597129385841,-0.18173906811974661,-0.050345823815720572,-0.027764253932732134,-0.0013140905685676992,-0.047113923590781835,-0.11560415466874212,-0.031813144792824863,0.088065467442474,0.0083593055445213039,-0.00082867693818746986,0.024757142212185421,0.0609573767033619,-0.078592960696444128,0.076099506138365844,0.073553168861226079,-0.095087101813625424,-0.010852906970688818,-0.18296214547359849,-0.056515620157502451,-0.056128059071211642,-0.018932561792438976,0.13916760671700834,-0.034541546243114674,0.018123817763031385,-0.038129155189840565,-0.054838410610046032,0.070431652022059477,0.015365611488661128,-0.077580663044190784,0.0724893252606933,-0.020800952355088276,-0.044787067664729792,0.074870504182594874,-0.051634882018289439,0.020656528192720246,-0.097560002201710613,0.0856927764153428,-0.044086025676099878,0.067385379362451328,-0.0232953344822889,0.01132563706719643,0.1020580323142513,0.090748420238344327,-0.034740508445946804,-0.13121944959102092,-0.058597790181564552,0.0012610826665764294,-0.029921564328820552,-0.21990133807681614,-0.077416992335036558,-0.099769252434187314,0.025006498728006688,0.038834008742482523,0.025320605161164991,0.015631264336131104,0.1561921258238699,-0.17357498746699845,-0.091756924510179264,-0.10408262521532392,0.10432721084583127,0.053856183549848335,-0.12739983521141418,0.14796519373550787,0.032179585039264845,0.072575178013964223,0.095070242257006415,0.12651138679080609,0.016925119477151557,-0.040026019231614307,-0.0551059709219619,-0.0035945486867863495,-0.11773695712282477,-0.034839721141138112,-0.020407058514720165,-0.0629367878798516,-0.10902110109462763,-0.15077482328624944,0.0625086456289648,0.063255700221271083,-0.16681052312905861,0.051136603961411058,-0.11515333875852203,-0.09276310619004717,0.0849985821807713,0.089983082699977776,0.0043694295024243731,0.0028429988238577578,-0.19357312135853166,0.0579689102969579,-0.029396172834334447,-0.036219803346901794,0.090180926172789583,0.031195936229980854,0.10834786012890997,-0.027613051297195129,0.0099293721929364018,0.0531382399005003,0.045015501233002589,-0.052912742719942979,-0.0062711269551011441,0.026610839094019453,-0.040688906067349845,-0.047410542212804108,0.05072222229695806,-0.0064804578420794377,-0.011830304098518433,-0.14966512805404439,0.047089663533081319,0.081354443511358426,0.0035858264698546472,-0.045107526184928505,-0.04784006370653586,-0.014805575307134168,0.0459547755277116,0.025476925084226481,0.027197770872313381,-0.030932201250042764,-0.083828097837508872,0.028623760895802344,0.015278468645230419,0.044549808121472086,-0.0943536049055418,0.0085854756399506987,-0.095319420869281,0.036573558037108649],[-0.01321507098455579,0.065787291152209521,-0.027000773608009433,0.018620160502864674,-0.10707180580018254,-0.020136090723589874,0.051715529545507975,-0.19073773708511013,-0.17096820482672587,0.12587104254137524,-0.013793328375065802,0.00021698483012851658,0.070073507449319047,-0.060334126758560473,-0.027957964000546915,0.0638953519503883,0.084439502201900468,-0.069694959574634063,-0.080973307927354909,0.099476705971553669,0.13113448385179841,-0.046408823149802991,-0.021877047515954654,-0.00040160787208840551,0.11729784221255844,0.11050383071502515,0.013112431811994223,0.0070169318873192785,0.074690860618589414,-0.064258355769865549,0.1312003872181402,0.04920099205912027,0.097440896888043985,-0.036923049805681105,-0.027683367974844032,0.063391782638320945,-0.036158147382530204,0.037301140383952554,-0.031458504707367059,-0.099918721061340934,-0.0071124141667662918,0.080603600855039023,0.071900926887106656,-0.0042295737752692268,-0.10514305019086732,-0.051188899452639568,-0.029598730805999209,0.020835135258759074,0.019277245339356156,0.1384244883622987,0.13668189160936581,-0.11827896268281755,0.12700345819921383,-0.02451793283589453,-0.05868805952465074,0.084330135593180255,-0.077272848259555743,0.070541314571436309,-0.00094812457239256656,-0.070808935693551261,0.0098980913141167824,-0.052542009953951994,0.0642429679524054,0.013590591204619137,0.1271238012998297,-0.01834060084878187,-0.022117769075779718,-0.043999772403107193,-0.036410826444847937,0.060053057563390445,0.010970488968425078,-0.041990543624818917,-0.021182942975073921,-0.031232137829286143,0.066665191435929444,0.0253707648611794,-0.02005027301148055,-0.09173121995712423,-0.059224934293517315,-0.062929712741461585,-0.21331959536302259,0.025363124457869559,0.011397755523138249,-0.075549391119793544,-0.012436169586402757,0.090208169650782544,0.0044425145648284434,-0.11839111712819027,-0.02156055590189597,-0.010873150221313349,-0.14977125121779639,-0.048693761446867344,-0.055283202481321812,0.089050186804426987,0.0093944769771515235,0.075481482996436353,-0.059138604664422806,0.059969846596011081,-0.037223597060426716,-0.074370000848663631,0.14396479171464091,0.028167987853313651,0.031128150186638739,0.033688164588828486,0.0033362919097489475,0.035224420245995029,-0.057167259675165304,0.061628436558026849,0.16773453465113927,0.016281034217876272,0.13201956840510384,-0.017861652806676089,0.087417879685603689,-0.046987686450708346,0.023388582260875576,0.031919143699394116,-0.0067597034153681467,0.099541805929203517,0.10655694988421709,0.096216545496443318,0.012400827732522374,0.017858808724797805,0.082181629552864011,-0.0605819743786312,-0.080103505167775382,0.020633678039213996,-0.0016814180294387991,0.082577534899626673,0.033545069364755251,-0.13505411398084477],[0.0315576592635535,-0.00503113709736349,0.061530997964569449,0.11452033699448981,-0.031066900967887449,0.046799164947675616,-0.069854549309653111,0.10801683756709002,0.07525166835193256,0.013679244156422655,-0.065773999718943793,-0.14024876865774758,-0.1661750982698485,0.1288570285772066,-0.049753862208672027,-0.10018162073853909,-0.043008153072193175,0.181817919732248,-0.1061241270412616,-0.030769559114865109,-0.18833752686477442,-0.019586139898068167,0.035088669081397621,0.039834695848513277,0.11872527201131299,-0.043784691009419459,0.081381773522617065,0.010861076636827114,-0.07891341145435167,0.0017093165731739794,0.002805393128680324,-0.060028872509396439,0.22377159222757956,0.056163504555548915,-0.054094630953737788,-0.0090202579188212589,0.0081604784455931011,-0.012363264521492041,-0.087092284883648716,-0.14661508996578243,0.012611164181773252,-0.012117684965663053,0.098693128889355011,-0.19138662032411472,-0.0024248882033412228,-0.10178200909012576,-0.027808024499037368,-0.048219560560639925,0.015141859243999779,0.14095608175208724,-0.094272382467130961,0.0086209144143414018,0.031363145255864325,0.097818047192902186,-0.024242126334653797,-0.068913034470752449,-0.0162586383650983,-0.12315152974116486,-0.035526874904892862,0.061506980901633056,-0.024113763284153968,-0.1185017831737997,0.13039106186758245,0.048611047378094505,-0.041722045507067741,0.15266447925890936,-0.1603518085997645,0.087308097324310718,0.17637641345663738,-0.043716699748902139,-0.060584285720491737,-0.039816760353000975,0.0060487506684868738,0.10788694761809813,0.081972371899418445,0.0045423355119211112,0.0016017331980290662,0.0065249757574368161,-0.011717731318312219,0.13000950821787383,-0.060484232483738652,-0.0385081318937684,0.02021919991766102,0.02943244996017776,0.0060294864995532127,-0.04992694024641179,0.035791232425040266,0.030172625479539281,0.014508679053190667,0.05829936875480575,0.0334873500487391,-0.049836042480315479,-0.017075515959561107,0.037941070468380543,0.15763673205441198,0.030658873895928748,0.053310011810703009,-0.047706574465360432,0.01957442888701991,-0.045528849000986776,-0.043322539503693976,-0.054136086725695032,0.035966955986443117,-0.011915859244881536,0.063432403390010508,0.011379950731334243,-0.067384863105279,-0.034112002752933711,-0.1204336272246738,-0.011938190986676646,0.063932520815247765,0.045445726991796338,0.045881673541231856,0.01751063328145221,-0.0044180236640563725,0.050583380948819465,0.017107709115646238,-0.077092088733801092,-0.02964580033121807,0.033187043772782907,0.089255571000366338,0.071919428120537268,0.091327025856099753,0.052856573541258375,-0.03515897738955804,-0.026759107954042332,0.041571599447994011,-0.044909356872357621,0.063218057698193886,-0.068765369713830862],[-0.05699248188809225,-0.089648026578874718,-0.028257180482511059,-0.060073705124626751,-0.038182500885323864,0.033524684097131219,0.032943849520133565,-0.060405000311306141,-0.081982543890792112,-0.036700837916719485,-0.017870577980715025,-0.0095379513724113425,-0.0766896181208712,0.062385251080959728,-0.04999286591415919,-0.0327152194449316,0.007086495401471141,0.05491277453393531,0.0038208881870096922,0.0053880952109183547,0.050589374470212042,-0.019360221655282273,-0.02595719978377584,-0.019568092365225376,0.0952153966261724,-0.0095137659218447919,0.0045710452769800155,-0.089488386252085564,-0.0398251831910806,-0.050947296804606516,0.049441983125228794,-0.054135088287200692,0.025153935539216972,0.011202872518193161,0.033867454261355387,0.018267946244255519,0.053418660454711164,-0.023524885247068125,0.0707198129520632,0.017983712076909377,0.03955026570285694,0.047592463815971972,-0.061011710146664795,-0.1711025673737539,-0.00416631133288065,-0.061691499106671689,-0.11121951844036698,-0.063408166343333211,0.08683633319247043,0.020249056793332425,-0.0071929205082108694,-0.10171881445144056,0.16439443493587302,-0.079110625672920584,0.014315576059048105,0.005494386045052182,-0.0693421054727797,-0.11010471780893461,-0.0038156429557855659,0.048733759079550167,-0.065048982275041814,0.12902103177715343,0.11508571594536883,0.1922599331881939,-0.033711282482194835,-0.055463143566373857,-0.0068315280836001831,0.057943310465025169,0.071092812322696639,-0.02280608300920961,0.07327335893604639,0.073578447597666852,-0.020639550791184923,-0.019796075077522349,0.020929827324375115,-0.011616795736216956,-0.0430406265710466,-0.018753678548468978,-0.077759259224412666,-0.051369415900383325,-0.099284990384380128,-0.028246639047188476,0.0475526496401407,0.072591484017716076,-0.076454229573354252,-0.062901591133071588,-0.0050193596941749043,-0.024692765590246874,-0.058021405627532663,0.0089585148046010012,-0.1008026608874549,0.094293831642561374,-0.12418115677085631,0.014981033431683669,-0.056906410590258423,-0.01081079148749288,0.021779574407582113,-0.0056558152499173349,-0.00061019535982899007,-0.063502430039108118,0.10033241325978846,0.076981808018156975,-0.024583442734866085,0.068927682337892385,-0.13742320399661379,0.010234326032892501,0.080083596343227079,-0.0093537559880380317,0.025129226384545469,-0.037652228172724893,0.039086147547880222,0.10144035539823501,0.038722332151936087,-0.0026635449388045527,0.00583546731371258,0.018536949107806441,-0.056514318773942793,-0.019753051020113668,0.063315530241260909,-0.0485590916884612,-0.022670300141575565,-0.091776820554032121,-0.048785512141401005,0.0631996662415018,0.04997855389631025,0.038012718603890445,-0.072164472757052719,0.040380012091991248,0.0908586982460006,-0.0070227392147625212],[0.027651153410696828,0.027876149347342144,0.099193790959475073,-0.052175022213976685,-0.057643496179399678,-0.075816695066583853,0.04811467752447899,-0.0020308624129759525,0.069656138217628033,0.029140954542973739,0.14362323613900999,0.073176209579071325,0.067417218885019656,-0.0050846083988546212,-0.12514376204903241,-0.013043584419552605,0.020130098092846122,-0.021452723497985091,-0.073759652856990154,-0.041101337756610359,0.0029813634478853446,-0.0040865500175967032,-0.034597674423320235,0.057414866260483012,-0.014602692853704918,0.092159563367149019,-0.027882169874247426,-0.067057030199539208,-0.029788411514804738,0.027187601530302606,0.00026117727828317154,0.046446864187962039,-0.0884788221551428,-0.080230050192277136,0.04886229511401103,0.028387329497174,-0.013163615988197337,0.0351738300922432,-0.05886451292426894,0.1131878783515279,0.028031129044853022,-0.069606703113097773,0.010972917897982335,0.082496241767868211,0.10072151382939268,-0.026104853832527992,0.04389882972673554,0.00842869929561461,0.076675123636169129,-0.026313986098291105,0.091340776192499515,-0.056010735231349036,-0.021955278794860814,0.024642837998622349,0.035848208597986132,-0.029362860004513054,0.09030644720633739,-0.042817472949741565,0.015783013834688622,-0.13100309469345736,0.13117300542307819,-0.032589950413195547,-0.1480293265720336,-0.07517261049583987,0.0075737506749421306,0.04533189364745175,0.12563532175086817,0.019675644826114592,0.0085772382037133145,-0.076832329240435759,0.032507585448187749,0.037102989389562573,0.0666181421380814,0.10263546707438166,0.099160137933798478,0.1133081935581939,-0.0058725074432587022,0.070303225118304349,-0.028783016505166372,-0.0024433125259347107,-0.0092107869554321382,-0.0014819226972419546,-0.012757591822628308,0.10554768226282218,-0.1947375189221893,-0.041850510882873615,-0.060624619204965056,0.013038957537494744,0.0015893573308989673,0.015114890343724425,0.033577199095861314,0.02965655407870741,-0.029506125148167032,-0.090383081637401455,-0.01313883486119475,-0.022245368494510181,0.057275215883262315,-0.081753524847521186,-0.12185386802439421,0.050799214591393319,0.1339631109822593,-0.0088996730187113019,-0.029558556420593095,-0.0012694039812862264,0.010481985827937218,-0.14364914672423851,0.015689727057425242,0.017798746170611661,0.022587416366964888,0.031536402286874335,0.15919834727689278,-0.0475241567510678,0.022654115253225825,-0.073452736581522779,-0.17632796028791686,0.085447773267572025,0.016843619367927713,0.0067607108614680328,-0.14111254963130437,-0.11201058581249924,0.023250393124222134,-0.068426925118072662,0.061047875930155412,0.19417991911256208,-0.11104741495902074,0.096122177288568381,0.028135348450903489,0.070537022593973847,-0.13235986681622286,0.014756802632357131],[0.0063650738354851461,-0.02590773863693575,-0.0034534291740478647,-0.04144938403921123,0.12877327025660593,-0.055574936005223022,-0.033970657737914925,-0.071082044470665948,0.024028635709443441,0.045816238381410739,-0.00077383812234343714,0.023514627867610313,-0.10933579683538831,-0.032828545781757638,-0.091699143653884041,0.10297156725539164,-0.02058657568982333,-0.063488939597203323,-0.13399259503963021,-0.0052384095357051021,0.07316175615250621,-0.055891940823672943,0.00054692203219254966,0.094615123406255483,0.002395190974135728,-0.018660558885987055,-6.8691814598307574E-05,0.077016098756937712,-0.00673956942977161,-0.054609593392595447,-0.027617297372315362,-0.049714939585387231,0.034141438229443995,0.1089799066031312,-0.028238450453401783,0.06061506845254578,-0.0903857013869016,0.0099803454853179385,0.061950207453560648,-0.026772012813097226,0.057810069621031857,0.0098375987732918346,-0.034020005731573356,-0.10054566407994019,0.14278687149036259,0.075899787835123078,-0.03962371682063108,0.010739052793028628,0.2088584623298955,0.061787118273360205,0.013279191123438226,-0.055526113598456876,-0.065642718352972682,0.004497610462828326,-0.024369213549549133,-0.079185357121046754,-0.1225067357375552,0.090791322726820375,-0.039450468364600741,0.10129391939758614,-0.015427911411334148,0.022838729226084292,-0.031787264281241241,-0.12410481194645269,-0.053735218234228395,-0.038383920994903259,-0.012259078021388791,-0.04718639792691106,-0.041962709993604158,-0.068904262431154092,0.1844467710641815,0.011453531032731871,0.054588909812009638,0.11625308922939304,0.031345379157756273,0.098912232493781227,0.045976758433098619,0.0022433943899976224,-0.032842022099712112,-0.005930536130851395,-0.047981088596435406,0.034860720507228243,0.019489253176372713,0.092443997372231967,0.00444069925496364,0.18587343797095518,-0.06774563486817875,0.051529225989899313,0.040766403859446139,0.057867639527223826,0.032997151370433457,0.016153801208579018,-0.099544361815319879,0.061939728436630238,-0.013011295862674631,-0.054297042063090044,-0.016206367105114729,-0.16534991783431427,0.033999190963114954,0.026706504410221245,-0.0028988719236387071,-0.00069615489865275956,0.030905181243539907,0.0045592813385062561,-0.074836158057551241,-0.0069130353347315694,-0.0057851176301108934,-0.023330599705169371,-0.062292060588101369,-0.096933842585582339,0.021469055609455185,-0.03012041504120944,0.082924750686336368,0.017945444291881562,0.0059006943268451071,-0.065381683338480281,0.091885719445079936,0.042365325518728368,-0.033270041687649479,-0.060606063723937981,-0.1723099669334304,0.027983114891867267,0.014361312908177444,-0.0662953240859633,0.10715778908143528,-0.084271922442615665,-0.045340067798091334,-0.027331259005173011,-0.070916174225869169,-0.0036769739156300584],[-0.048793398958121473,-0.0093110142848170426,-0.00042983379117209167,-0.034621483197322812,0.06381523378061621,-0.017616044611414177,-0.0060112624325283611,-0.018744231919767446,0.054124223942294068,0.0057130657307683805,-0.011121551583812495,0.037318556672659466,-0.11129368967850721,-0.039294180291341629,0.08785377580286842,0.011279323763206246,0.060000851448474862,-0.090275928246617593,0.10422136683421532,-0.096086446678035967,0.072731705771631017,-0.063273237720977329,-0.034008279836838552,-0.10592893711742836,-0.022726833583655816,-0.036743905348760236,-0.1744013162505704,-0.06192060320041054,0.049120023738534385,-0.022515003378095016,-0.061899158846813594,-0.097703474412904584,0.17512069937643482,0.045516522328438516,0.038483482841204661,-0.054687904247924413,0.061380300626068404,-0.0034277910479434551,0.042716233930532567,0.0884933648704991,0.0023842780537108518,-0.024714873554522881,0.05858433085493997,0.0027674354019590988,-0.016887193340784878,0.045652555404747372,0.11466021729361663,-0.077724147229250334,0.0026554462891039614,0.030252024701005582,0.015558633531953801,0.0099615403164823434,0.075620163430409018,-0.03739679177800502,0.10811741735797618,0.06437585442850087,0.13537705431006103,0.157074792566408,0.034802662755490918,-0.11480704478679424,0.015083483841513767,-0.0046211674157366983,-0.059136224768676776,0.081599678625765254,-0.0011958925732820605,-0.075521271101863643,-0.12526051842955754,0.04481029818668867,0.1523888954008594,-0.027579360648684135,-0.061263790317256275,-0.077240070834722341,-0.01997059171589461,-0.077789014395822337,-0.054493726258615045,-0.143216114617351,-0.13447969734166182,0.080486411536229374,-0.043705213519360957,-0.07651855906781857,-0.03477411251069875,0.050283299299721675,0.07758739757032955,0.052674310630683951,0.037092647241010177,0.083982854540720478,0.05303782884684799,-0.021057881559586055,0.046568648641898448,-0.044368158338365715,-0.02900384038242371,-0.064930082369783454,-0.12553262904050813,-0.038437800247882778,-0.083356887836084192,-0.012413011936324974,0.043844752383867959,0.068358669548629652,-0.068748439907630021,-0.038921139995719313,-0.22832357322676211,-0.084577434242467969,0.10042467033211944,-0.058655746342659076,0.11265245192253931,0.01883428215347905,-0.00802820004907782,-0.058498012631072273,0.052995713085216362,-0.096590068561326042,-0.089304366252921347,-0.088296437571536,0.13570840094533465,0.00691748185752503,0.059298440852271588,0.075333604761235157,0.032980233220654,0.098313851745251618,0.19514559511526139,0.10667441935775682,-0.049302877848074127,0.002360873327602138,-0.014665061885180979,0.048204174741757866,0.14192084226955035,-0.077108465378341845,-0.04544586206326056,0.0105326721997796,0.057838297544625238,-0.034277493497415733],[-0.071472925871967408,0.015388164058476194,-0.039305275562285878,-0.076264813744917337,-0.099811809807847138,0.064746028483685936,0.0613173799078234,-0.10131715720479337,0.11628779754592074,0.0057263368380374279,0.038960959120575553,0.040211573159257351,0.1070244033257655,-0.011507363587552787,-0.045400658526521941,0.015638219451532546,-0.040911613203326008,-0.12558963124974856,-0.018319104977862384,-0.041358995162922622,-0.036404624412467432,-0.043406885521739588,0.024179514799289269,0.044531913608621458,-0.19280000796585589,0.067924588021191959,-0.11140147538473871,-0.041615763298037782,0.048043287036551446,-0.043130529833977804,-0.020588834859156305,-0.1811216624933604,-0.010980747915132314,0.065450618590521287,-0.10113815305426478,0.026243658372562116,0.19033937057034822,0.13363928121564808,0.013255089430472803,-0.040652111774287826,0.071553251853001987,-0.029679247168482324,-0.0666634271974352,-0.017078468599216214,-0.038433738287177867,0.042439907136695605,-0.1048163650887667,0.052336955758953828,-0.029666091817744735,-0.0296688650125179,-0.021784212645582533,-0.023970730872410383,-0.063058220323440273,-0.028393134014599232,-0.072426964594020732,0.081920326960329165,0.056135611354670094,-0.03931839680361339,0.033566616943115517,-0.053939608465564129,-0.10887312726513486,0.015869232486227489,-0.193741237850302,-0.024641482448145343,0.086791667007196011,-0.0323134540997477,-0.014193092048346756,0.013230057627694207,-0.010141317075345279,-0.055739917731360368,0.00072739186758906036,-0.068838806846969122,0.046250631845649391,0.075292573487426989,0.0505508835356041,-0.10206264506173582,-0.036122646585424481,-0.03481008608744933,0.036449706249175144,0.11245309993280443,-0.091692373142108152,-0.10688672064497626,-0.0067877337203842755,0.053932433471961264,0.00220846909830036,-0.1336832481177215,0.045648720701513205,0.062493365981719375,-0.029248408142153227,-0.10958340917688809,0.11971540527233179,-0.039673475574793955,0.010557610688872848,0.0029058860297165932,-0.022127847074516583,-0.13188554343805428,-0.027621914807605372,0.038062819518802894,-0.1468915925133574,0.16230624195506327,-0.0476857291399778,-0.0019723413914412148,0.02329072568904713,0.067104040063641637,-0.017257331091027363,0.044819160937331785,-0.058558032148771741,0.038726771529681792,-0.13925474205097879,0.014886868131983812,-0.015257095205164082,-0.033241837272513258,0.047100711348828192,-0.1111065965865892,-0.094560478728885386,-0.054178198118205692,-0.091532364863692289,0.0097275199512698654,0.11624411568282216,0.027952719606590657,0.0707922666370135,-0.05836730233556043,-0.089215858850305446,0.060706616494530331,-0.035534106746586559,0.001138669354269673,0.1644575641275165,-0.012428024169435404,0.071318651722202753,-0.099342465388731427],[-0.02112265926785557,0.082165738122342374,0.035589761620838656,-0.014551518918817789,-0.0084868777915407326,-0.041792545885923738,-0.042936248194555084,0.035798204284149954,-0.01096079259885345,0.00063031247468252317,0.19333792025327748,0.10605046965024981,0.0071886561349783877,-0.16188180332669924,0.050367713416021379,-0.028472254507866723,-0.017467621105650127,-0.015405698794411289,-0.0036985535909724817,0.022648198346514697,-0.023426284767203223,-0.014934906148160733,0.060180680475067805,-0.045052242410988257,-0.07640626217855212,0.0078744369700676047,-0.053916174690514726,-0.109960704470748,0.073930789167956,0.095259065676463431,0.0720221956871794,0.04399570479064091,0.13177692762849033,-0.094267334572288364,-0.028637024384127265,0.15007086399752065,-0.014188885902527166,0.014193640662723871,0.047667766892282831,0.049324221934202793,-0.0082714821382639959,0.054631384298788367,0.012943943430067353,-0.0087134162402197311,0.0875284585243213,-0.030913061165398371,0.022187776540651748,-0.07681040377663681,-0.057500051589959057,0.02571628749636724,-0.0021281403884616679,-0.0667887438682405,-0.14515148355741733,-0.010501206711352252,0.035187413230122637,0.13145781562881564,-0.026048023812176115,-0.096343468653927247,-0.095274814654201345,-0.034594071922326865,-0.0027951826848424555,0.0028718014170671696,-0.033891105837206774,0.027505485513568982,-0.01582163061334687,0.14882914336329958,-0.047862231690720763,0.0928728839320127,-0.047696273757146961,-0.021222593861037132,-0.035131442084410769,0.1054329417861985,0.029936785524949376,0.0033117919426936542,5.6794385734804773E-05,-0.0035884186043071615,0.096443004309505073,0.080036270416114316,-0.053630912752736119,0.027694172307895771,0.078784000129920817,0.043737949887866862,-0.10852917095025678,-0.11526314532167475,-0.08682265185421259,0.095127100156907729,0.041125441019704216,-0.060687254143340745,-0.10643989761320806,-0.031736341375387958,0.094256616605143173,0.027520015365125713,0.099277831898417976,-0.0175689208221786,-0.0048538243733614811,-0.0096597677763349786,0.030845691701067091,0.020143284178576415,-0.13775140775321193,0.018171982618580818,0.0119346055153642,-0.020603725837212136,0.0084160424922727455,-0.055687160992857067,0.013489881422225028,-0.030845372066819216,-0.0984891854322372,0.0489045827235761,-0.024744941378736177,0.027284060316861307,-0.027337667903187809,-0.018719053624104379,-0.0079407532917997181,0.093951850783370511,-0.050983051589186909,-0.028286785423955203,0.15077995117469378,-0.025309630226508357,0.10730988899920571,-0.0048631678674250665,0.07068707076948666,0.059665171918486561,0.044173200755383162,-0.0812418861683129,-0.022992074385954752,-0.0013381699266514469,-0.016156488173715924,0.030017749227383123,0.059460069191143279,0.03028423394354373],[-0.17372952058646998,-0.1190150456040758,0.0054769277712751561,0.015687661099025817,-0.12859565214137086,0.11761575021360667,-0.036703453703522272,-0.051393276508493319,-0.1064595840756787,-0.07355686765067336,-0.13130945573757996,-0.037707310890498565,0.0042476124949000814,-0.036796795190695855,-0.22326322000744031,0.024305550553976797,0.1002745030784928,0.06508405466505153,-0.061013569063714385,-0.00845326415634835,-0.0656847090234833,-0.010467401125219341,0.1114895764221958,-0.12106050164543189,0.095492600868063229,-0.046984099616572954,-0.087086434080890576,-0.071675503028815535,-0.042816262897687564,-0.0068938592526755866,0.047574759586359469,0.033487028496940269,0.072833096313177415,-0.10539994959041595,-0.04373778817230612,-0.101962484633708,0.020510125557913983,0.10133735461634189,0.020601743146242128,-0.07508291882390554,-0.011264626935913062,0.017050950099607061,-0.0035933711106716109,0.094137419372359657,-0.052558823003188759,0.048877037336153353,0.05319533718183863,-0.039446498123368666,0.038681552227134708,-0.085731468107605457,-0.12633214626269124,0.010097786691424316,0.025550336701840076,0.011155691579160134,-0.015749306155627477,0.068516570309372013,0.033077459363865511,0.054938996672356022,0.023057543207878544,0.085759583185523874,-0.0040030942652706089,0.11231123557462244,-0.0392410010335397,0.15330950517340022,-0.036989801586154329,-0.062696316443087888,-0.033747297609853857,-0.092921017201487113,-0.061530026285360896,-0.065871323962432476,0.0632179678313346,0.04005952981490761,0.018258062502040019,0.0051759029516036089,-0.050639821618425694,-0.019901913028883104,0.021332529504755678,0.011430490064498226,0.08252249964625985,-0.018999948144751474,-0.024656025466967487,0.0753755339127833,0.0067315061351106752,0.055472838250788067,0.0841342304518847,-0.099812063612367052,-0.010718056131201734,-0.033596181951842184,-0.025670703771245217,0.014331932700083844,0.098249893731657476,0.022783965646551708,0.030233066560423308,-0.046167801984214336,0.014135180507119418,-0.093897210042240983,-0.073573332399751543,-0.052219014349750507,-0.0056404659259214462,-0.039245732561630706,0.011185270941723955,0.056405499152426687,0.14264419634444453,0.08413973613988121,0.086456863902311165,-0.016674820294295491,-0.00345392336502848,-0.10942295654215135,0.021914030739739004,0.04335360751415851,-0.086901390312497426,0.11380511547795363,0.0569091167025933,-0.043188406200700608,-0.035236099754159859,0.085119568785881686,-0.019002770442929705,-0.01798446285393485,-0.0307176780373522,-0.064397420623659371,0.0061618786491863722,0.0039294577523474135,0.05601833390367273,-0.11519935449028909,0.11434586174136638,0.0861769217553332,0.062181484317437849,0.12378218529370134,-0.042883337362053714,0.03029642720905143],[0.038081296362585934,0.079998384457654823,-0.0092255077895072486,0.17711734655441891,-0.028149546593038994,0.072052933859590676,-0.060297535854135539,-0.049767650751951296,-0.083016481140574153,0.058316847263678348,0.10016020073073093,0.16268883411614266,-0.071241345169785156,-0.06644235219229834,-0.0012566851297685889,0.027897546583986792,-0.11536036288311397,-0.0825811449400252,-0.000578764702963285,0.0656858322365873,-0.020926748126851944,-0.058241085597143118,-0.032835390005590943,-0.043563631168126934,0.070066118161723173,0.017695874751251346,0.12953834628183228,-0.10359089668221369,0.065646229453518681,0.066969134909831932,-0.036389219243849517,-0.039832891522211034,-0.047323760847372623,0.053172815560874373,0.0049532548384462506,0.014274101356066491,0.046858831462732356,-0.055623253236377963,0.092432050726799053,-0.016396422522820121,-0.0050071997670597026,0.041603411455133708,-0.0090180594136372617,0.098662917514054788,-0.009871162663573867,0.1040096090335377,0.050198754798114191,-0.011486249675646152,0.047645282320016892,0.092752884602809726,0.08480678345135953,-0.072853822982166846,-0.06830297749008335,0.0375096865931898,-0.077137182983231883,0.029266315653167185,0.060146825938825234,-0.033206114754511781,-0.00034927762742390726,-0.024410056423344251,-0.0640031814075745,0.016461985041063679,0.013350494894981226,-0.0404672408645952,0.034810532622807318,0.0310253723073658,0.0742962528691084,-0.12519173127854558,0.010646129768974709,-0.094486601803499617,0.10819295148753914,-0.0669897460908983,0.0091403303456055168,0.058107420684705383,0.083554451404096147,0.069764298170610264,0.14090828953303095,0.0043205082446414519,-0.038695147804236552,0.06164496612211199,0.052021861267834278,-0.056936270275880205,0.048537967736003274,-0.064639390758716844,0.017094298561724671,0.010726364199224516,-0.0797237585139712,0.0909812139128901,0.116601205958372,0.036467154523649729,0.010529764972315767,0.075213338201195939,-0.030894163203600663,0.0925373648751321,-0.031636757067553839,-0.074902116544817279,0.058196429953954909,0.02400196303352119,0.024275940136918694,-0.0026103070267260056,-0.072270077868157659,-0.033041467044723175,-0.037123021254310204,0.046604352054169462,-0.022342674849766413,-0.069581639111759769,-0.0774389328971418,0.068871796927843509,0.096792004325835762,0.053269678456368139,0.11567541376705413,-0.063498156085116511,0.009563888347218016,0.080030551735894809,-0.097110774943949957,-0.073804608179465866,0.01779505540953185,-0.0570689542111289,-0.01695188081532073,0.042518738881320871,-0.16446055215698494,0.14871680168915138,-0.035208934537837466,0.088285099359768665,-0.00088947657552053232,-0.17314102307331561,-0.088754209520805885,-0.098750242780808642,0.002273562182395948,0.053738500430516888],[0.098022323265108929,-0.039726580667714451,-0.13976536766456557,0.0037358361013580853,-0.13604648997690894,0.0050441183815476357,-0.081550687070564509,-0.021118327949338319,-0.027939600084312833,0.13906316691728185,0.19900429417512441,-0.083378365463735865,-0.0069657071353510262,0.14630025607963296,0.12979614411238136,-0.012184326022596836,0.12766040539231735,0.031629394764180148,0.011852111975736681,-0.097696232522275883,-0.043110592971051992,0.043357092760719994,-0.066419647090954437,0.014668246863591897,0.0077461186052544678,0.061284161747857009,0.11524220845423826,0.080530188508384365,-0.0801767868453189,0.078112383368359059,-0.066679799728450784,-0.15549793339745019,-0.0012767763710751757,-0.040942703791455148,0.045642309400145541,-0.0042333078361476793,0.046536518621694126,0.068667711462474718,0.028920362913159289,-0.1241070604695378,-0.08276796931628394,-0.065116140102127129,-0.0854401814505389,0.01325951320833299,0.035092459346839806,0.038579037944413745,0.024775152406585645,0.0095944731440570918,-0.1904137669604275,-0.07790911239514256,-0.00044590208430177658,-0.021675393703747648,0.08150134742655106,0.042184903427869687,0.019490745677900725,0.042792583982716507,-0.049271399670509995,0.044042892096835672,0.0088795514612092352,-0.066281517014255234,0.044315457303601209,-0.021262265013053696,-0.076072954667272874,0.082113886700301938,-0.024372922858101862,-0.062341775331808826,0.041862066598916857,0.021314780487400733,0.034956126581836076,0.086183286611406118,-0.043254837447769603,0.051364301922945048,-0.094448650082742919,0.032785083442018734,-0.05407662837025945,0.088901587104182153,0.10480934557008853,0.11483954263072806,-0.030872999904716574,0.085483044175597156,-0.047783443280653731,0.067133898016763227,-0.0274944054571139,-0.068103018867466766,0.045620744029233426,-0.13607296448040782,-0.048605820670687569,0.079736391387453934,0.08620156680912823,-0.05069812456650067,-0.039159996374369219,0.082326472481082061,0.19042127380698304,-0.01615336316597946,-0.047970793487249787,0.0054733150903426651,-0.015663933738770494,0.050663586041803405,-0.099933087752420741,-0.11715216573911125,0.0093648112970371,0.09005489891531851,0.0099837264323177476,0.10717807109762809,-0.047959687283981006,-0.084211562318158711,0.01771759751838824,-0.04944593914178582,0.030207451294316845,-0.0952933117695302,-0.12758699674924426,-0.12052680890863159,-0.14499854529656361,0.072461877492135118,0.027580449788910368,0.010014849293491628,-0.066759357193354754,-0.017552515725060131,0.096708401076490411,0.14601881802031164,0.10904522723184643,-0.094394505845052323,0.041237149566910804,-0.031502074424896831,0.03834972160176895,0.14329947282943667,0.047536076425997137,-0.091004118168780929,-0.0087630504347777464,-0.13389053382155358],[0.011659033935306146,0.012734897034088538,0.051456668369208189,0.063943577604346685,-0.11941334369489244,0.0020225083007549497,-0.165290511247852,0.011707640321307496,-0.12276755681438695,-0.028814319085991469,-0.10283532830390789,0.085212362393087271,0.085709947219156174,-0.023796858202761204,-0.046068494548291671,0.1424834782166487,-0.0034655877748962622,0.043789533945186462,-0.10778688299794993,0.021929055637466031,-0.01320252049074703,0.12784365798105404,-0.16045068958636319,0.022462656938315777,-0.062962075535659315,-0.090497266116346731,-0.078727819244409539,0.045528250423472506,-0.15537547900011295,-0.11408289396332678,-0.037269022823614661,0.0089297637658607119,0.0801108083735162,-0.087320900288592948,-0.14789541379879026,0.087656447538626545,0.08023720309245011,0.099413243147278452,-0.0033799677319179349,-0.09940950099730024,-0.1096424371749878,-0.11117788679461416,0.055964949856675515,-0.025905233286389332,-0.049180023320827895,0.00867980842583807,-0.042728201206195027,0.072274089732367222,0.0662340378154822,0.14192842760381269,0.0077089975668309845,-0.0031244363398355689,0.043095425477960511,-0.026224982137400508,-0.002091248939630769,-0.011224747766568261,-0.045557182008234269,-0.10860631464857941,-0.088113282849928629,0.12105565190365308,0.061465965788156982,-0.10868205319423252,-0.048117533231803081,0.12729696433355586,-0.0097491891208378589,0.092518243028379354,-0.021832235605526447,-0.0072537085372469251,0.077156261230946488,-0.088766783279403211,-0.046804476007915978,-0.0177496520581855,-0.031536391052825179,-0.058231199653252921,-0.04826534778872453,0.024114819101612305,-0.097877463839188938,0.021206500816162425,0.049887990141859843,0.0668338110488981,-0.044663100820900185,-0.01136031357263554,-0.052014906640864569,-0.030819339143137447,-0.13773687731598169,-0.028096880396262344,-0.038040312092227385,0.038932977261815362,-0.10187862274388994,0.11559736506321752,0.0857024096163354,0.042515057827651505,-0.0041408705566360424,-0.016803742554659898,-0.066278610804581,-0.057445828205128419,-0.13268821735546821,0.032014021976289324,-0.023680596319081572,0.0054433436792499313,0.030293360668696485,-0.084198751744125444,0.17058116344534668,-0.078621689779578952,-0.042625121422339644,0.0051459868277965205,-0.017253964747884241,-0.0737952559649631,-0.037811784135159565,0.0024344223976802571,0.031602709026592742,0.034456142910908358,0.0655161248616152,-0.044279509911701743,-0.04758316999111957,0.04333433155688797,-0.020291031790419078,-0.0512735052059734,-0.070389537586166034,0.10527934551337093,0.015415009103654039,0.14649247369254029,-0.033532607977520078,0.037828408473590557,0.032222271345838896,0.044330324504937277,-0.085860282670415081,0.050763738688376955,-0.0059941210601143413,0.021839783258702037],[0.0863527557491635,-0.00017827784554716206,-0.015200001750636785,0.032407746061856056,0.14484461922468075,0.019813539230881652,0.04896782782506498,0.033415966671833816,-0.025873267769990507,-0.051466461803342,-0.00721294949526274,0.051231906684619168,0.086697703818116187,0.093045118917074857,0.031467734653794294,-0.040559476056150082,-0.10360662074753615,0.14560212692202793,0.1212343885247386,-0.056418990201538087,-0.11571891258260804,-0.045756984783454982,0.032725402204711186,0.012018940076096954,-0.041460921222762515,0.075802393808347579,0.12677943670054487,-0.069090822570728086,0.15348138367663991,0.069292094599150658,0.0041646775937097718,0.013500146446562378,-0.0016718481101825095,0.0047318868890583472,0.034405903557533937,0.10096714519750479,-0.033445999309944477,0.020918765508312138,-0.028905885911163429,-0.019117513686733208,0.1047377117611006,0.11499434639032326,0.03343777735757833,-0.062891840424605869,0.028472029740111426,0.010037861001176613,0.0015720913620122813,-0.062295061323224994,0.05416870245654231,-0.028277917658426476,0.049897265033851508,0.0076838334350782635,-0.019026240260892221,-0.04587009055349163,0.032953827054609149,-0.19691695502025791,0.0053721531700353133,-0.00045179516799968042,0.0362612991661311,-0.045980230491699345,-0.040775874861449478,0.085868663297586675,-0.0645318499152957,0.11975510743950237,-0.041625110906971352,0.046979319798216478,0.027779726888263131,0.11796277357267204,-0.03650564190538063,-0.20059012281431329,0.0909147922871582,0.008285761401816881,0.069798382607449458,-0.066586059743647022,-0.027426731204158478,-0.15469893023482598,0.0051247843678886131,-0.055918175790367147,0.040309127810336152,-0.020930220178088176,0.053630515976499919,-0.086351291885261014,-0.0027457753994780962,0.0067346319120493289,0.061057140918358628,-0.053537008020159205,-0.041501899456373115,-0.056965491274870043,0.038955788566210077,0.11285512374672752,-0.041188075649419648,0.0030381810152847921,-0.033709272630676405,-0.022374354658818523,0.037169985280983489,-0.18683905978856649,0.072314512419644691,0.075064453821097665,0.023966867619394233,0.010478397840088085,0.096464328647585029,0.0074196047017618914,0.092729132190501939,-0.0040535508554352777,0.0037761093639244246,0.11939572138931606,-0.020056302301803872,0.022224426375357719,0.023766993040578235,0.094439660656771091,-0.076692244134307155,0.020012696461066903,-0.092320229225761663,-0.041085705846535162,-0.003257408330673491,0.07415264216604868,-0.00430420165844895,-0.024752773510688792,0.077304932340874,-0.016774873244528667,0.12510348413932595,0.00023704505231367248,0.040316997016699205,-0.03705794377522386,-0.088895671367519233,-0.048877480680746779,0.089827418031978329,0.017268393828923544,0.1044443649559323,-0.069345989055897519],[0.052014284291797025,-0.020340597928875277,-0.0057249331232844562,0.012386248687290857,-0.015409240453217621,0.18677728967710996,0.039368016536439544,-0.064915387051892148,0.0027792555832187879,-0.016066558175772804,0.034139486638779637,0.019923283749709305,0.0067722517841821541,-0.0717334218580123,-0.032127016748307424,0.001223438663474031,-0.038327113550561967,-0.08646678733491453,0.0373703977246698,0.044744622973600857,-0.0600331806395723,-0.0227469785318488,-0.093858201525787416,-0.044296167463804423,0.028607536166809052,-0.088199367525696085,0.010997228212904678,0.017224067717367446,0.018345545061782976,0.19965526878605547,-0.053439782554914356,-0.044277636147579021,0.0172040424746599,0.085840749868633645,-0.11858398395575789,0.05169821167639143,0.00020565639179896222,-0.09164059964607256,-0.076955352931160986,0.003595307302692603,0.11563795495453755,0.0075013822058278522,0.011122106433793176,0.045434165328810908,-0.11408850432577175,-0.045560265688925496,-0.0044433266602999563,-0.067570599963782188,0.067735325147804518,-0.018503782641110442,0.21430437222635485,0.00562062053931284,-0.049030434222814209,0.027789222490374705,-0.02096288691176091,-0.051119413099277193,-0.00082590674063647983,0.043784653656093742,-0.0039911230032552408,-0.012333370832141069,0.0056522835240314278,-0.032432530289722088,-0.03982601430023238,-0.04014273901390468,-0.0085753542685027828,0.058273112332862823,-0.038238972805730041,0.070751018195611581,0.059107985081777475,0.0596749981038532,0.11232766630230454,0.035465681213749017,-0.06122159154902445,0.09206591372284384,0.13008925654737422,-0.16807808583315845,-0.0562886344415752,-0.036135761355719172,-0.13292325655883139,-0.012168853306117529,0.0404350914977788,-0.070920674695483465,-0.02903747008731198,0.028945966318420974,-0.017376008692136312,0.02842413520349037,0.059452802951022433,-0.018468903800666785,-0.044328146367997992,0.044905981734307716,-0.13119843083539118,0.074359867427796919,0.010014183786455392,-0.030276137991785572,-0.021756940439519951,0.0018491903011051962,0.072033551422184872,0.035788328183177988,-0.0021675974212487775,-0.11816328344683087,-0.023132695260550312,-0.15963660463397092,0.041581676268780662,0.027411497740868238,-0.057738160671800522,-0.1581429247130105,-0.022513837202137392,-0.011837054898966467,-0.18574212569620804,0.16726248454224363,-0.0882862462630016,0.00093663714115559311,-0.0044727469002945539,0.014740013850847009,-0.11429258100605171,-0.07898115340985154,-0.035883676953479826,-0.077514212799146068,0.018756945838470259,0.059282740241588472,-0.15223610553389746,0.049407029750527132,0.0456438819197333,0.02825169995468373,0.044677307946464843,-0.15496288396059635,-0.086211667151611521,0.055032648953385173,-0.089378769326287022,-0.027999588325581755],[0.057343391926951606,-0.072707148144846634,-0.0012352559425740366,-0.015728059086288465,-0.022178245896835903,0.082825944567751178,0.05185792344797769,0.027707762756030742,0.12911152468245649,-0.077814174142563058,-0.072104227746689953,0.026397798955796012,-0.031269015305474129,-0.027925804314306031,0.057185067649734488,-0.072184984525307749,0.069391210045981574,0.098396109466200254,-0.06972382944712803,0.12706028137842698,0.035956961663146624,-0.019231752318134607,0.045636804228286997,0.080919350786363572,-0.12001375273658275,0.050817985893270939,-0.088776457847645054,0.042356263915310353,0.093627311796643978,0.0886055399049198,-0.10776615958406123,0.013105046781233856,-0.053009269696585815,-0.043921539352353343,0.099642790904611284,0.023311550368192872,0.010295058666902505,0.0088281333533196654,-0.098840674857769054,0.099076409803496343,-0.072184221354780337,0.020836405101493344,-0.013080591792255016,0.13699138079996504,-0.10093522949145437,0.060428331810066523,0.0881853133334444,0.023591771447859667,0.019285482177419818,-0.10764226662582524,0.012809149880001152,0.032252666977942331,-0.084513974177354539,0.0099248586912335686,0.17244586424711977,-0.067651505743801632,-0.10573511546461571,0.079525718399165071,-0.040496785346709127,-0.080414862860911429,0.094425309599732943,-0.072678229218020585,-0.0122115807060304,0.025055333835074731,-0.0945000504344134,-0.022933421475968878,0.090066212305407664,0.0077630375098254947,-0.070678222119136172,-0.011031051632937635,0.096336313640603161,0.0031979376252362752,-0.047698753951838285,0.034447069203742582,-0.064141022755989582,-0.0914665608757936,0.026180754802214493,0.020490966720820781,-0.065727700996116162,0.19738614411962921,0.010028550701090676,-0.083845619493939136,-0.039372572249274318,0.018602521235281205,0.0012731931851814456,0.049754408944343041,0.047614806134447969,-0.1163033305257533,-0.10259263109563097,-0.085756079720950548,-0.097827232527627164,-0.00517389259968278,-0.11426964235839253,0.030460764008279764,0.062818849110780783,0.027330921371531459,0.045595517044374284,0.13331664343807873,-0.022435394070923056,0.0895306436500048,0.021494311383920769,-0.060727271610040504,-0.041835295000454929,-0.14877372069801653,-0.041918298106315983,-0.011207174716151036,-0.020930779888750767,0.026409304613814195,-0.086964734647844683,0.021499775702626941,0.095741375319332162,0.045995297319283215,-0.13518796580982709,-0.00041881611878598178,-0.092245724532273643,0.032910863400369583,0.0011949556237034543,0.054432841535725134,-0.056591432261027953,-0.15700266979852753,0.025245660177666995,0.0037811531176049039,0.024880598042346214,0.0021692872622397887,0.00076500226575671175,0.12397293468641048,0.17095700378023113,-0.0098847237916065,0.0014883622988127643,-0.066861352231229756],[0.028158154029218896,-0.0832140571828235,-0.021311902614614877,0.16955633751380428,0.015003804390086591,0.088752547939801557,-0.063359501117310923,-0.018805147978592333,-0.039138822314721523,0.079937697916490011,-0.093119829855195291,-0.087176669624342576,-0.023679842913938681,0.16871519043796848,0.081602933684361667,-0.12605023465946352,-0.085037554109318972,0.0058538816212631174,-0.053982753286371365,0.046758134050776806,0.03465426488816864,-0.00077144746244862548,-0.018390923056159175,0.075652268099085873,-0.029573256873347619,-0.047263730524949345,0.0973633565531828,0.041095231731218235,0.097507853826940744,0.057695827500742848,0.095602454112868676,0.01285067439142005,0.023348018766918107,0.04555847263521777,-0.083729522760726663,-0.02015975463246893,0.038571855662528728,0.0031716724082672312,-0.019413244393054595,0.0053720084053254782,0.28843391428704351,-0.01646673070618096,0.018405312766401671,-0.050554882920824953,-0.095862260558138221,0.021892831410951104,-0.10538311790773686,-0.098635351085164677,0.059960960686172522,-0.015224362585741011,0.020464265992751605,0.11233083303784819,-0.00063692519288238562,0.19607243386787687,-0.023019078608420302,-0.01468388643330637,-0.046045982317780655,-0.056509773540378234,-0.043046395587745014,-0.060572453371817062,0.058170238599173196,-0.0036075278057429438,0.0098389987550006833,0.05358478457399498,0.0546850730725891,-0.00026247948599019739,-0.10280051231415716,0.096850421436975,0.0025549841814094306,-0.032621754762197086,-0.0906946981537545,0.22251539936179435,0.0028848037776812003,0.15497011514667528,0.031665604906102318,0.078217783328669868,-0.022218775964030039,-0.1200384539358382,0.045221336158325763,0.086552922924627476,-0.024205061105200574,0.11639178299697833,-0.07860080125183877,0.096044472729528235,0.0044107384923327483,0.024709567483683255,0.17921523731854838,0.097054478113517945,0.0055102906762831711,0.0707940003554449,0.0091938180781020729,-0.13580309201126026,0.08715555636391864,0.11928217630356028,-0.044142211252134245,0.02694971213708524,-0.14545895504274628,-0.069264235343369618,0.039334599134243378,-0.091889131372835567,0.061219615402607827,0.0052082847127221639,-0.011445726737645727,0.1194687154384519,-0.024906263971811577,-0.084459920554159434,0.010853264036207932,-0.0032478516685360685,-0.098282028854627765,-0.0019225648752035952,0.045467463218396106,-0.04862647061572048,-0.043660388554403309,-0.050600566608621583,0.0372901549436869,0.036779980409893248,-0.018552232420990973,-0.010447759984797671,0.023513934950887567,-0.067172995114361589,0.044083922111975066,0.0493639408264486,0.011464381281359149,-0.01155803490648131,-0.13713531203447912,0.03405905741935697,0.023185581478049815,-0.051579963426930567,-0.10194063113563677,-0.087872942547648158],[-0.0083837598019174831,0.056725927868038414,0.11449116896441487,0.069552250423580417,0.013134620467008144,-0.023680960953246181,-0.0470566136607823,-0.012752102422925604,0.071851334473466935,-0.095737969811846554,-0.1017245433033873,-0.0097194509566884951,-0.20118739521482368,-0.029928609580847879,0.033152373204056645,-0.049691224445324346,-0.054855317762475757,-0.13178254498453282,-0.0030353919876370174,-0.061685071628831495,0.0012481881080344912,-0.028522221372655972,0.00021657781091837162,0.093182791423043518,-0.10815592475481091,-0.084239170371212785,0.09434043474221411,0.027722380274604736,0.059778082054265505,-0.041366026856904013,-0.042149775782594968,0.032553128922748337,-0.02187786279218561,-0.13126531249299658,-0.073139413383428276,0.053663056705322461,-0.04685807926317518,0.014179282834181345,-0.0071955480471557779,0.018660660034585295,0.066630812434420775,0.065438363946563521,0.013900095965706726,-0.0928875765778379,-0.017066961656093151,0.10481911872401395,0.051533430528109471,-0.05374621172308755,0.10609968811693619,0.034838666942368993,0.10972799645425146,0.07328982939175531,0.038498615330802122,-0.11873158319062592,0.0015451422437395038,0.025368435985589341,0.061123180219624887,-0.00937033748624574,-0.028163950341307076,-0.02794469444668474,-0.052459780716475515,-0.029806911632839203,-0.0764010359895914,-0.049504345728955249,-0.06093101706431997,0.013187303722326191,-0.02514007069117517,-0.041003696388625832,-0.030581715803346621,-0.038011439018367447,-0.0014962698393788489,0.027299274440576667,0.084645881577942353,0.14085308592197898,-0.06582861413662347,-0.01166611801540527,-0.067120820703126041,0.020101833685574531,-0.036748432563949725,-0.012509241218576729,-0.0705640033721479,0.0088311518674974721,0.11134390720298344,-0.11811753874404081,-0.048342743303784456,-0.0030726422774373166,-0.11161569212390352,-0.033455483761239926,-0.14581435217041835,-0.053743117934683116,-0.15415036448208447,0.013921713084837462,0.019259920666245347,-0.11194198994229639,-0.001221275295583851,0.015013641885147148,0.11415025058337561,-0.048211712530204537,0.034205559303910629,-0.022619200878040657,0.025182941009452894,0.10073663949438511,0.026404717351791184,0.0073488213444917756,0.016406561696154655,0.082201600451391868,0.026065426064232854,0.1294907483831545,-0.016300131658835558,-0.033817020490875815,-0.061519794229296688,-0.089154968474748908,0.090637139399093444,-0.051594969722121832,0.0081158995466967011,0.12883368649228347,-0.13602662613218827,-0.1598049944784217,0.18219312905608395,0.097846214567977166,0.06299993334248831,0.063411647254585965,0.062592774379784361,-0.087487273826100789,-0.12457269708252063,0.017698761242143916,-0.067069048495588937,-0.12840218585161192,-0.058430477821382526,0.19666697509573403],[0.076858042702935239,-0.073644340213023726,0.061797799821250429,0.068643414271514269,-0.004720521008785894,-0.10178553653065582,-0.016649021222251134,0.0573212527744004,-0.033415030018814969,0.011553124887852831,-0.0979955140043731,-0.073412568338404982,-0.036832943021486132,-0.035263584618332143,-0.054951276736510742,-0.026056471343333394,-0.18381376281678014,0.011659614760542548,-0.0071189618901295821,-0.04428148534705887,0.030385114747029263,-0.017504002987293647,0.05028810016343857,-0.030965999996755072,-0.010374510214687018,-0.038543610863835551,0.0038367422065230194,-0.11305790396621676,-0.043341012853467,-0.046613200532108268,-0.1037977682492128,0.014928220961113735,0.028916945010171575,0.029059172194085256,0.085095650501869055,0.0513244879028052,-0.056165866051859796,0.031445093085438004,0.03175018832399859,0.013472070255967071,0.06456283537224726,-0.010328518404654123,0.091884781733329618,0.073361931535454311,-0.0299691665872847,0.020449660484378185,-0.10489784423348116,0.0056885051087276848,0.21742082194032425,0.030418540853229179,-0.0050674024558763249,0.16860978465604939,-0.052582006759509935,-0.13991905304279681,0.025356111248297859,-0.015373349296500381,-0.018409673412167177,-0.082084290142245,-0.03840356036355666,-0.0077133045243116911,-0.11105567154156248,-0.080851037218573729,0.088990745241328592,-0.030822965178944627,0.00880989036512714,-0.02615029195680563,0.07949552230803518,0.040242680845382149,-0.0093277954872087471,0.1226594746883313,-0.022415616622066224,0.08168179272256923,0.022947858011689911,-0.048289191843811356,0.066426888522643238,-0.064054350777641239,0.13423054445166804,0.019999075153486576,0.089222766531543152,-0.12246363504625191,0.15161499469040157,0.084883446758921482,0.0355905443272745,-0.076404550089747031,0.02179902613551489,0.052467980338424626,-0.11041246308114162,0.11756136939075956,0.054101246914852,0.073890700901913936,0.0050135421192917789,-0.024267505842250507,0.041122238795633384,0.15431705399481996,-0.00620030303285349,0.0010547808797385996,0.069324859750699228,0.015077824546501407,0.06653963302438852,-0.16428497271016851,0.10289164011630447,-0.05455193021282756,-0.022548646660326997,-0.10959067092881453,0.072804060728032263,-0.068770821902730372,0.029276856880605936,0.073303595727779641,-0.15301770415583696,0.018863624934492305,0.032780717811882784,0.055636549436587655,0.035170263931770168,-0.057235497980026473,-0.014110998828182687,0.0157294145260434,0.011247069233516717,0.10424990795420774,-0.0073070834052163629,0.10415698756176466,0.036883144680653179,0.047769199253592937,-0.036061660712656957,0.036229752156572675,-0.048839413655882236,-0.065213648105475017,-0.047767536171096282,0.0078433377745992672,-0.0010541808323208256,-0.04867630847004089],[-0.05583501775286482,-0.15481113666873886,0.029239947888822351,0.032150439256828714,-0.00053750653180809538,-0.09131218042583035,0.0388250488430248,0.0020401497048614971,0.0014981856246337711,0.00686593381129848,0.00510482461264401,-0.0061828826908208135,-0.027690966139852922,-0.073879098849349609,-0.013178299480835458,0.00882827542162147,0.1630743951066693,0.0239468068296093,-0.019039304961859644,-0.092354790423019043,-0.0155613181721287,0.08346943773858867,-0.010745628042413229,0.12419734981957065,0.064996068333159213,0.062988485940450978,0.035194635485748207,-0.036846320356953656,-0.014329746221781238,-0.013266208366868489,0.049215645396319327,0.15393660544935117,