{"BatchSize":200,"SerializedLayers":[{"Type":3,"UnderlyingSerializedLayer":{"Bias":[0.0,0.0,0.0,0.0,0.0,0.0,0.0,0.0,0.0,0.0,0.0,0.0,0.0,0.0,0.0,0.0,0.0,0.0,0.0,0.0,0.0,0.0,0.0,0.0,0.0,0.0,0.0,0.0,0.0,0.0,0.0,0.0,0.0,0.0,0.0,0.0,0.0,0.0,0.0,0.0,0.0,0.0,0.0,0.0,0.0,0.0,0.0,0.0,0.0,0.0,0.0,0.0,0.0,0.0,0.0,0.0,0.0,0.0,0.0,0.0,0.0,0.0,0.0,0.0,0.0,0.0,0.0,0.0,0.0,0.0,0.0,0.0,0.0,0.0,0.0,0.0,0.0,0.0,0.0,0.0,0.0,0.0,0.0,0.0,0.0,0.0,0.0,0.0,0.0,0.0,0.0,0.0,0.0,0.0,0.0,0.0,0.0,0.0,0.0,0.0,0.0,0.0,0.0,0.0,0.0,0.0,0.0,0.0,0.0,0.0,0.0,0.0,0.0,0.0,0.0,0.0,0.0,0.0,0.0,0.0,0.0,0.0,0.0,0.0,0.0,0.0,0.0,0.0,0.0,0.0,0.0,0.0,0.0,0.0,0.0,0.0,0.0,0.0,0.0,0.0,0.0,0.0,0.0,0.0,0.0,0.0,0.0,0.0,0.0,0.0,0.0,0.0,0.0,0.0,0.0,0.0,0.0,0.0,0.0,0.0,0.0,0.0,0.0,0.0,0.0,0.0,0.0,0.0,0.0,0.0,0.0,0.0,0.0,0.0,0.0,0.0,0.0,0.0,0.0,0.0,0.0,0.0,0.0,0.0,0.0,0.0,0.0,0.0,0.0,0.0,0.0,0.0,0.0,0.0,0.0,0.0,0.0,0.0,0.0,0.0],"Weights":[[0.075774103844001489,-0.37948836636092237,-0.42691584779693592,0.24282175198513026,0.16169590898786129,-0.23768207016965579,0.26249344251858781,-0.61728064220018841,0.19442111752472596,-0.012745826353846889,-0.18030378737107181,-0.326115409675378,0.31418290841882407,0.40406549798247171,0.29196936016554981,-0.26980988200950756,0.61562101038177819,-0.15340085490315131,-0.20474380159102087,-0.257950818821958,-0.98048724749068528,0.013965937246693054,0.20011694510995839,-0.22920894575426223,0.34557416180080164,-0.20511174928772327,-0.01711361222756155,-0.52312685491932975,0.862960355985845,-0.70595857229291814,-0.062952551278509933,0.17192275677384597,0.026345879363411432,0.41952917058832923,0.17936154955624611,0.049756895074664111,-0.37291683123790553,-0.11383993636811153,0.26881639731173967,0.77945435797573748,1.0778739844112242,0.11286937792853205,-0.0244965978364271,0.22309186029921937,0.61794585108328481,0.012796652068077733,0.38849759590200822,-0.3334774976997289,0.66005309687731473,0.28158091017050069,0.33784587649677367,-0.12699522275336794,-0.2271773167921583,-0.24253405993837165,-0.33368493351818956,0.88508468291187292,1.03399847444705,-0.24705519949931171,-0.0757772551713227,-0.35104920476215284,-0.24145094856665222,-0.2510191734461063,0.027892986968006506,0.12935092963295269,-0.54713924161544081,0.44912187672667847,0.003960057707836185,-0.472984131550181,-0.40150948563417832,-0.09629821622220032,-0.33386244442690693,0.1454592240859221,0.94227706311057047,-0.59888530102743,0.18101481911767425,-0.41869653590489758,-0.031180848837858374,-0.15962747380864029,0.031309551929284578,-0.12727062567265896,-0.45256016816193434,-0.36859157166467726,-0.55299856070075348,-0.15791027587056555,0.27222580351918718,-0.23700555265766757,-0.067503732209118539,0.14903495219417806,-0.21296564739744323,-0.27655833926451895,-0.015053259930032864,-0.0864058322770423,-0.41597684743941449,-0.29813164768660566,-0.40427684273660536,-0.33869352820689075,0.0652207608959544,0.011016515499401167,-0.11997720394770964,-0.33241983120398089,0.38964963536519531,-0.46342998153116371,0.00084973947354627735,-0.35296286640714286,0.163922863165031,-0.26919711776746341,0.027505482457663488,0.0025695199787548338,-0.088311516464920553,-0.10236935571933042,0.45277209303008847,0.0752929873613811,-0.54526976833343643,0.30766967796715444,-0.0091185355242662351,-0.17386476426696945,-0.15560571762989203,-0.23942854021691565,-0.058854955504074144,0.93993423397131137,-0.33568257909680582,0.13733244859020588,-0.13248385411721408,-0.31653673781276753,-0.44540769511933725,-0.0649752247385376,0.25631193374979871,0.455468600337101,0.090056944308939665,0.27971887848924709,-0.22459498197255087,0.012285422720481654,-0.50342982073765952,0.38027292754218051,-0.68594688196666465,-0.15286079263449778,0.38257299058172417,-0.46133739417217146,0.56401847289014373,0.47844165862203314,-0.074973934974166517,-0.20420462065102887,-0.10290954820777692,0.66280222405527711,0.29534127783456021,-0.18299811012949471,-0.68387220514353719,-0.58224276454864943,0.018924530879200364,-0.11724676845974158,0.0054777385160973639,0.24293675611630652,0.25312164113552849,-0.58329127351249366,0.27596685463276754,-0.052393572602647327,0.53860759231307387,-0.4863431882002387,0.47687049479835963,-0.099029424352939807,0.11452425490470343,0.25392532009995006,-0.62224965391384646,0.33626536489940356,0.26568391166571709,-0.455304115548715,0.096809415234245341,-0.0941438840807648,-0.39479789308142349,-0.016936218559386457,-0.17508507675488097,0.11736787505427361,0.030922979056518089,-0.472856900256666,0.63056454625273117,0.060996410163926644,0.15705886391400914,0.034479758280255048,0.14009595530328245,0.087399986928458392,-0.071641325995786515,0.27516738788952355,-0.70288821284184966,-0.15491803808677965,0.062936913704745939,1.0257862594236717,-0.095923916804035392,0.31246280576669772,0.164818750307806,-0.25630056388032241,0.49706066322133841,0.033757884884885181,-0.16430535752570605,0.004016062305614518,-0.54353628746371918,0.64302008813040568,0.25231529832213734,-0.17304367167413881,-0.006308870057184765,-0.063796265524259238],[-0.77550167269695947,-0.21190532695186132,-0.32393886866656324,-0.84619062731566119,0.062044308227595192,-0.49643064343145915,-0.43516521487364235,0.12423394277619966,0.28083127993670953,0.33390405234126308,0.35740947075681823,0.12862327246396965,-0.098117514177015211,0.17157024523392392,0.79843571969010585,0.039951367346399626,-0.277607430047239,0.32261316177252308,0.26143850264845869,-0.18242800891310002,0.23182660240382572,0.19468883548010449,0.33649118007107021,0.76468655470433833,-0.13911019044821066,0.089250129331119782,-0.03890791124158989,-0.17551462318728792,-0.31954954848759787,-0.022793108214121012,0.11569827528073116,0.022180314374246064,-0.20174727804453754,0.029348099043314632,0.12258729336951954,-0.22282146783002046,-0.39696456238491556,0.42136545136443215,0.12861443257558758,0.77355607833448858,-0.054578565919931231,-0.067794006445231023,-0.25678098502132296,-0.12512090061474823,0.046897536257011048,-0.56750096535425509,0.099011115754978951,-0.34114128994168563,0.43864262352209654,-0.24426511146137878,0.70253106342348948,-0.30603021315811391,-0.25559119241796879,0.014989956650683518,0.32455017703632955,0.16579418403188276,0.21371342899075946,-0.16835672021392092,-0.65582415018036921,-0.29586472336246517,0.10612193444453397,-0.08574666941697795,-0.37082067311220429,-0.1439037553461569,-0.028392543430600728,0.604062553178691,-0.28334102287458041,0.26962905360710471,0.39126514166086118,0.35610754991463722,0.058899875417683809,-0.173567219075695,0.17680436139261285,0.12903203140058733,-0.1964084804179406,-0.31240686352747565,0.29343956420207229,-0.18383742244568924,0.77308401842212315,-0.43690820340020575,-0.14267274946848468,0.916668680269746,-0.025308396689498375,0.60283032740363451,0.38152410335203119,0.30262757942740415,0.71411010668924568,0.40459669537167964,-0.046201080342477691,-0.12936957544040481,-0.41997020775502519,0.27612041555428957,0.22533274190544489,-0.22427089760559035,-0.42593555554415624,0.35554315783321511,0.034386049212544144,0.21419616719459778,0.031723812410811181,0.052445755511575827,-0.2322446051384135,-0.3448381138357246,0.13924363639369952,-0.27960737882096248,-0.28411945995597765,0.073434918364712512,0.19297477917797695,-0.34644512563393692,-0.34413289934317648,0.099416535325116323,-0.21917671320512011,0.051371694524568391,-0.085926392394566412,0.57345552273890854,-0.10083038811546705,0.40651134138391082,0.817079563556556,0.041461834327816763,-0.46104010874904322,-0.44099117677243072,-0.078713953141251028,-0.11362268994686633,0.13506420542656725,-0.643894692834762,0.05032024769765573,-0.02849919154979759,0.37977677465590814,0.37240739437669534,-0.031006091954249897,-0.319414473686818,0.393920623279501,-0.37174178534490704,0.15607170007171861,-0.02223631449355995,0.59583753839565179,-0.38739599337108788,0.58748070188096735,-0.022810622601756467,0.50438512080457565,0.012976187459974399,-0.11319946355636493,0.056117668533559192,-0.37151022783854415,-0.29197805274096789,0.24612242158459727,0.2228779162756738,-0.56257311669908139,0.54347432503976245,0.40826965168950335,0.0084767804022758322,0.12781896552553271,0.0393960065571105,0.32364006802857015,0.18711158734991656,-0.30166397337572542,-0.3116148759904227,-0.27692221610353979,-0.43701373863386944,-0.11181185904932763,-0.11457570237205457,-0.3169670399944855,0.59489810127998988,-0.0408583139112759,-0.23637945899954679,-0.60262671897347742,-0.072338194753013313,0.43871428405613039,-0.34202577134933743,-0.03240813205078763,0.28362471449475218,-0.0026721849716826907,0.72709669519984865,0.38948626678464804,0.55065161554737152,-0.46411608977819546,0.84509837666575593,-0.49641504645131124,0.051128981768641939,-0.21119371557243968,-0.28515755135393134,-0.11510447316598452,-0.26244728775087911,0.12287295280688759,-0.29806007875637913,-0.67981003970226883,-0.04073703621532699,0.3366984737225448,0.34888374292524893,0.23756729985785371,0.030868692481303476,0.37176460389173976,-0.18579526950424083,0.06288938784873116,0.15668643875947466,0.39893901319617886,0.325294459997285,0.939374484528951,-0.99448840328947608,-0.29021696862519564,0.25391566167475144],[0.32023570636247167,0.110140475965659,-0.54698101134369226,-0.42767462548420071,0.50947554290482089,-0.61968610775880373,-0.015302458896821773,0.12339071476673454,0.28018517891393591,-0.628270962512668,0.03056057216447022,-0.24048550519588954,0.13876616874517761,0.05025460956574699,-0.060122050438692828,0.34317602883386522,0.29529910316393782,-0.73344328186652641,0.31823738832341625,0.20742787271159111,-0.35282888954367941,-0.019880606828104622,-0.16814787588706762,-0.16008431188150085,0.61328404764201161,-0.18514954731323374,-0.14807655062552666,0.40610308143791107,-0.17672927035920813,-0.40872275510933864,-0.40729578794973,0.52569833293696544,0.23371542358530403,0.687905764040624,0.48898519965865667,-0.082407391890450182,0.73556835294982126,0.028629676666177727,0.10869185110001965,0.10769398446904042,-0.1510548061402934,0.049763073396203193,-0.50503805752448838,0.834347403603778,-0.32426644786946635,0.55249027338696166,-0.555497096344308,-0.44617796521066039,-0.256069670597424,0.043922479201787608,-0.3134526102022982,0.23346904489585607,-0.27603948295696651,-0.1798454352263342,-0.53236319470003712,0.46185617613968061,-0.045227258614083138,0.093951254079325142,0.26011813446073895,-0.37717185751375171,0.20386021344557312,0.024011347815394105,0.27877210437378724,-0.38952968507903474,-0.40521114830476379,-0.21516416408562311,-0.22404728406906496,-0.026120048519482915,0.13310631044369298,-0.70253576523308758,-0.35691144392895707,0.1806726519129726,0.42087214880549845,-0.5703014913680523,-0.056804239598358522,-0.051405722532449828,0.11554100253871104,0.10570008384246189,1.0935449980010277,0.075979843776871808,-0.44184267727662729,-0.40615485813889951,0.10045511932897965,-0.050616114927905055,0.31973662788765106,0.54823914676000218,-0.12939819794091456,-0.021436746395667068,-0.0084082482505813076,0.40714382653328146,0.2477709542979635,0.5023294299890283,0.026998402068995255,-0.76680563039178418,0.083386003495075092,-0.041361933262441378,0.46861220580829288,0.6263944484551669,-0.58926129283205431,-1.0850291729173229,0.094070138268355835,-0.35159114929345142,-0.30129800453597116,-0.38829777903110957,-0.19649117262682483,0.30343862850761122,-0.88508348379470159,-0.53740301774417654,-0.033340206364418666,-0.4146714759727555,0.39729965686434904,-0.26668282168205731,0.050779531524075446,-0.38426230617596213,0.032935844113738739,-0.50836908797724012,0.14848346052390693,-0.57712779743579412,-0.663635819881142,0.70978902342016315,-0.14291083479023956,0.33433769391619705,-1.0677828423955307,0.11378864715306578,0.46634124362332757,0.70983215679377676,-0.51240366696569184,-0.3347154764857585,0.51867719855624828,-0.503681105405577,0.5615830374585723,-0.64409607244740363,-0.33281633375621383,-0.2076174244498453,0.31307369024317161,0.34034306661181657,0.40633583966920561,-0.13726928939635402,-0.082243048120352075,0.37351765198835118,-0.079201542538011829,-0.15330711519691367,0.25230533993372206,0.30800039473388968,-0.48775265325465,0.20569144473966713,-0.70457066052709583,-0.52837980689439124,-0.18090549990460664,-0.66428141816689734,-0.2414961051423343,-0.58575681709811522,0.44437382919965634,-0.38854651975327753,0.23700763234229758,-0.5211930830661734,0.35424618742324382,-0.17940048826940747,0.76893151918733049,-0.16138467634219558,-0.085741523737830172,-0.39332047457590963,-0.15515644588576957,0.11970242740902745,0.5123737960316791,0.50825660816643925,-0.12205225598386461,-0.42073635181316815,-0.79618189386771709,-0.049278018633022155,0.14516810442579553,-0.25865674240040859,0.52671841864914948,0.3227735760899062,0.35089570779755458,-0.61630094485765419,-0.73001496008681865,0.088513265916547665,0.2258774673159874,0.22133820677045107,-0.24361454998233725,-0.36387791240796297,-0.33169559949449984,0.12942544783540202,0.68895605405438487,-0.23931917153184737,-0.061126427933027264,0.34198976789859464,0.78198929456749311,-1.0524917762409189,-0.18277333242604876,-0.47694958742535232,-0.27235820049203924,0.17109163655109896,-0.29890789915305271,0.16428396495078704,0.19945249613111488,-0.22106596460117023,0.0037001642921894473,-0.018173107156998655],[-0.41208204290849587,0.31790442070257452,-0.09712368109051682,-0.51225589389568693,-0.061246400871939922,-0.19405997208887593,-0.36592622581515483,0.14101487936877014,-0.40725271990416151,0.13419236971544202,0.17487466422034609,-0.10476579539756545,0.30376866790403856,-0.42758967673087467,-0.32159428351931957,0.6236865489460276,-0.30739176533004353,-0.34165671786506785,-0.514212032895917,-0.43548969010106164,0.38298407218791247,-0.365929805044099,0.37455580871291927,0.021860622835754597,-0.34182284968949761,0.17562263530134942,-0.0539329130925176,0.0027510742177327017,-0.075501631651941487,-0.0047621959169817487,-0.39573930854447081,0.099820136029080131,-0.32406244848358606,0.64424299526795425,0.0032209246968668646,0.46010361348653889,0.5264601688547289,0.067126114520009592,0.13789158934715753,0.280153832086357,-0.179625645210735,0.18061247694410448,-0.23729920023509965,-0.43260068376773025,0.36528955962388115,0.10773994321500707,-0.16643163193568186,-0.90764073177651461,-0.080297836090687538,-0.21827305237842556,-0.27886711695663868,-0.15615510282940803,0.29548846606309204,-0.020297931605588682,-0.042460024129402037,0.20868154057723248,0.54872227486763236,-0.022773865261047681,-0.073404881312721548,-0.020716830122032168,-0.60069189509737686,0.73554555142987077,0.2252266961372589,0.12980307165110583,-0.38641257924047567,0.0059486334101664833,0.093212453985249979,0.39518179856532665,-0.074671351107330142,0.20065719758869782,0.23822866995669242,0.513794501459219,0.50210636107668793,-0.53302535609481216,0.82390281735235282,0.23041911246240002,-0.12280881187522855,-0.11336474836561096,-0.19016276454262968,-0.17194613442723344,-0.62329938592968293,-0.024630462199974782,0.60654593970024151,0.2381081575202286,-0.20080712235241274,0.0021815400911647915,-0.30303993139763274,0.1692539017546485,0.43228709070784738,0.14521375257124872,0.082392867486889718,0.56835298101696763,0.19272932383101737,-0.81501464997014006,0.23775179888849146,0.59500049342647754,0.36654222468178888,-0.13069996828991962,0.12124176617054625,0.31669519701184795,-0.085500613117545726,0.010358142355728441,-0.19380204289670033,0.016610015289140124,-0.73044284805813142,0.25776159845123942,0.45229349084974185,-0.039103546528063658,-0.43950005320620855,-0.45127696998061839,0.0048813027773158893,0.24895391091729019,-0.32957067101266047,-0.39659369598552963,-0.3132224327707549,-0.19198081247072205,-0.48131419520690782,0.053421475991478111,0.31718776557526246,0.39295232655933476,0.18844519356769693,-0.50636851668703986,0.43651416812417015,-0.61360605410506053,-0.18522997377136916,0.1521293329868465,-0.064539975048135828,0.42043694970926709,-0.26774054688558685,-0.25426858316443196,0.73509346498639561,-0.67824504961022614,-0.43773260521359791,-0.079202044819706136,-0.059697733574341758,-0.11918850545421571,-0.32361647963488516,-0.18542377699426754,-0.1723934778630476,-0.044694368992964986,-0.25412525064234609,0.052465274183371567,-0.077431081245996639,0.36449378059152593,-0.014839039447434329,-0.33069883239974068,-0.17464117561689252,0.18848513686795945,0.026390454820360058,-0.62414293715937585,-0.025951886114733924,0.30568168206676311,0.20480788106234135,-0.055706180240972007,-0.1924598292689563,-0.51764967287104446,-0.33386852270741341,-1.4817803042076476,0.2557221694629338,0.21972022051518383,0.068270960009104889,-0.41531849250326547,-0.29276413315103583,0.029787236410186744,-0.030697609563936711,0.071134535174881067,-0.62892751648819056,0.21621439568846054,0.35860849692467667,0.1486201516454474,-0.302805794740401,0.37822886447705,0.40963643309300718,-0.0917113264043324,0.81849181037346264,0.71546394121308743,-0.13441561286983389,0.16929906900940614,-0.11873289682854586,0.55233682979274989,0.18577046802392747,0.17673683538984034,-0.33602980253031595,0.22501467751225882,-0.18075939510772787,0.54917659757918069,0.79658410485522757,-0.080670821271620688,-0.6216670939333051,0.28584568017154904,0.069561865108607776,-0.491230846169735,0.29793584533802964,-0.44176187466505068,0.30323526461553174,0.5772771218227134,0.35959195030579022,-0.30308436661348065,-0.25676944879799,-0.087762280918830121],[-0.31130842246472185,0.57616234786927067,-0.049582515911282293,-0.065587597984968424,-0.33080462399772825,-0.21320310256230179,-0.23757774748284996,0.13508723870054631,0.078531181842342618,-0.45523364992168436,-0.18549191838975204,-0.96584736805264648,-0.27408156753115631,-0.37560248742298713,-0.15140142459494765,-0.25861149306885078,-0.20308318341030476,-0.17033471026813774,0.38995994674374984,-0.30488898871169051,-0.23212037434410962,-0.22104136296220261,0.39412727919657115,0.63622213717738851,0.51399503082403386,-0.0868998198860435,-0.0420534710846146,0.44205898611921307,0.61302508505639119,0.18565154487425919,0.61977770119583064,-0.020484945263822614,-0.861653948080294,0.42580761701127889,-0.10025693292644926,0.14226659516185911,-0.52039288753190616,-0.0021391422134262967,0.46176644466423028,0.31404793814806176,-0.34915461729460484,-0.37876488932001307,-0.19583702678590872,0.20846382140323924,0.338391400995399,0.0777359146689584,-0.0835596886245852,0.491368375638288,0.55336865501824906,0.044136565388061343,0.13042704195575833,-0.4022790206734258,0.371298990915442,-0.54747879334348526,-0.15492717408063517,-0.11077298255873976,0.030840536906216617,0.11456689838829161,-0.33537931940542087,-0.45032818885509635,0.31230701445274406,-0.919584486350177,0.018511495976182138,-0.31988443704563557,-0.4103971749647421,-0.033761060974919349,0.14187236418839336,0.71766278159644215,-0.1244821663082186,0.17314943001025032,0.22604505926795915,-0.33057525779266334,0.069684235254418345,-0.15970508570270395,0.085421108536828314,0.10356490807538275,-0.47872568757750406,-0.20569376899500519,-0.39517024143073309,0.14169550300355605,-0.27124498460449986,-0.32478610760398,-0.25227305127350452,0.18016668848652187,0.10271427431458113,-0.62667527839298121,0.87249534227080672,-0.25051603235640435,-0.61821165317276328,-0.29386257048596354,-0.080221731526872619,-0.052286850243251755,0.13219957356338852,-0.029620050348242596,-0.4393719662790404,0.56387704817079354,-0.35532691765384422,-0.00773804831039689,0.068856628525336611,0.18529706406572888,0.22417435488862417,0.20782580495941894,0.14867694567840445,-0.19771884523354713,0.31812262982754147,-0.046963203564783854,0.086274838541552323,0.36112719555963974,0.37059974608544688,-0.28950629003859668,-0.43719150957584807,0.038307847900821909,-0.0531057623046176,0.092768143089030572,-0.081644291303607008,-0.26799069329750336,-0.17070674516394613,-0.27451506097910977,0.31025297352461206,0.013470005433684384,-0.02977808490241832,-0.13990739692454637,0.1808741437813185,-0.7324150340694684,0.65511825803235857,-0.35616935012662859,-0.010264733317963017,-0.097203149227110847,-0.10237501556625717,-0.702796382968041,-0.10511468085226454,-0.33687593855878589,0.18459933011065277,0.14549022693732941,-0.14267769039670916,0.39454842094500686,-0.57141371639798155,0.0126309293238122,0.070930095696830342,-0.11230182115918297,0.031087879287042292,0.23489617501887486,-0.3022688073818719,-0.46670211871585043,-0.37314413376660449,-0.0038662648468152068,-0.23304471481318209,0.29765730682961411,0.2955067855919819,0.54126036349943829,0.13040170593018152,-0.67356475416280559,-0.48601103498088383,0.13222606134891896,0.208720696218514,0.0196084946511821,0.34776954272751465,-0.34036743408491815,0.1037660580000208,0.38134288618197465,-0.47425462501504306,0.36282663793260234,0.80229378317400846,-0.017413422079342076,-0.45757835469557273,0.52669808578259847,0.35911656377657991,0.56044153917978889,-0.49127543860748835,-0.31460605981261686,-0.31836721973946064,0.16652775779289733,0.084226068297121856,-0.026824032400687804,-0.28159709882475925,0.036781046493418422,0.62388832068106714,-0.47993277411103979,0.50852212765036542,0.26644048679136084,0.13723264492835124,0.23367138167169996,-0.17321080525435745,0.20111712630889655,0.22438396225748145,0.087524752220160124,0.20726316375709847,-0.86921782849182816,-0.4293779820221808,-0.09050958431222042,-0.017675501480838508,0.19180579640562551,0.12947724346924894,-0.31930252877143472,0.0815248743503846,-0.151814809920374,-0.11818727946421295,-0.25091798267627979,-0.13250589094353232,0.46168153891738706],[-0.46071531053860459,0.17976739180419513,0.31829138561475306,0.25410331900359462,-1.2062653214989645,-0.4331835912305021,-0.27935048720475025,-0.15016344608343563,-0.32902936317776132,0.4638628257003154,0.38269520431369453,-0.10640762181974559,0.39195472488969,-0.57621912041535894,-0.26028339461640093,0.2848206241112663,-0.168960711523501,-0.72430268101546191,0.55017148665531646,0.021807738582779859,-0.038265321897707025,0.34493607756277805,0.26409993517048941,-0.0028008969198107673,-0.031896364338033063,-0.0893981210544248,0.433748756984624,0.13781866304468227,-0.1641900956449435,0.072015407335433462,-0.082128845076654911,0.22519375178964254,0.20388364040691853,-0.086265091879568268,-0.29380351304000119,-0.369576753473754,0.27255966403373449,0.46753295257947014,-0.058675789353633316,-0.21702112908200918,0.28462335205688322,0.99054583821445641,0.47406147186521819,-0.48166349850715479,-0.43252343367175533,-0.011131970335386777,0.026830406312928257,-0.25224888580503285,0.27612038131375066,0.46452469465322382,0.3510701224718818,-0.79690235196324588,-0.1590109197928275,0.59122755313094666,0.48834491081281545,-0.15296626806324129,0.57190633677681157,0.55317556024605474,-0.00830052697490176,0.27911719121548828,-0.30371708868383285,-0.013664374978052144,0.6185094428694502,-0.065894535046068431,-0.436130971770645,-0.0970048347873649,-0.64669749899275542,0.5305584368535553,0.20333632242580926,0.69091821324606562,-0.074395745855846,0.38063826057674283,0.12576307386161922,0.47931827035467889,0.731566394541018,0.000754288207047472,0.20527353948689131,0.664738112927942,-0.31108011376009964,-0.091955187461848845,-0.24357634898166061,-0.26321937488445796,0.16277235042600177,-0.037887870649854383,0.0014756422781763753,0.41669073717355093,0.10657438410147403,-0.24130523073338014,-0.83617763601967543,0.26299470428741417,-0.015934126420211331,-0.24795321861940822,-0.43798871767726111,-0.075032752175515111,0.040122384872524425,0.61850146086709834,0.32987341535117204,0.074544441184988888,-0.026808567061304876,0.32412724035082535,-0.25717960340663176,0.066027658398760125,0.46386696999160054,-0.38306080156789,0.070673037953231835,0.58103520837949318,-0.1782895460552727,-0.02280593519939739,-0.16522900933245502,-0.59713230460656885,0.21213977929799818,0.013384458940307091,0.10480387402544482,0.29983778615947565,-0.22048386542110027,-0.10402454477998789,0.633288249414813,0.15080849531860166,0.18850825994498202,0.31356275268461437,-0.22185294620147092,0.16907726507229362,0.31094373675920833,0.12925261827055798,-0.25700387575245659,0.087550282394226422,-0.61346386713340506,-1.175546213123311,0.33271232169695408,-0.038479736702887388,0.40030968551818585,0.2755022159017626,0.1071859437928355,-0.39723747783553975,-0.1367076442188736,-0.017734053056065444,0.028577885164946307,-0.093802837910945666,-0.039842285668631884,0.1196262143682582,-0.063792935461528547,-0.79029872293837922,0.017398916092140341,0.72243970779541278,0.15861751559752244,-0.036132720410239259,-0.68515663259581894,-0.063034222659407516,0.14678895210366919,0.26591683929504278,-0.61298140359463482,-0.18842250920007495,-0.059580438575549545,-0.20271506174236267,-0.25435028504539869,-0.10886890407078539,-0.3191108260965993,-0.23206015073479916,-0.036799148696115218,-0.15333562028896186,-0.032108762462999291,0.1546128469091283,-0.68008325584911578,0.56074622439623056,0.15147589332128411,0.23960596264499956,0.39636649812582209,0.146813908424197,-0.32022981303340842,0.22195532506644788,0.041667831649988669,0.60485014701893292,0.42710026464007739,-0.42953246399529904,-0.1137195314592139,0.50997106649985813,0.11498510997270633,0.19430273055656683,-0.23451805288768207,-0.092829133489068849,-0.12156041411799652,0.31734520802837796,0.38305214392725079,-0.42648023113609157,-0.17692196105737595,0.68030754910828117,0.33582632668169432,0.48827239247190291,0.49102615690167961,-0.12131996981072993,0.054103617631341153,0.58747471613504121,0.65113297689450556,0.17778931513450705,0.15870470110097049,-0.3081445251501595,-0.027961241455525154,-0.45286028395592032,0.15513324367180506,0.49794200107933245],[0.13066272100136583,0.30794297410514188,0.58888223788699223,-0.16647364370772966,-0.59868123386744176,-0.05605401739471446,-0.46858000828003521,0.14016935224913116,-0.32667067626970747,0.21298381998134863,-0.50273487452032528,-0.60765178556512989,-0.1135337679229,-0.029725020379932434,0.37614586389049348,-0.07094814854395716,0.093722452247677474,-0.17052112258686386,0.63150193986201675,0.45298241514324478,-0.049674070184671994,-0.20405744936256837,0.45501254558886822,0.12616503459109457,1.017292815442135,0.1961653144464281,0.10642699717759845,0.0086126256422827674,0.19870135606973963,-0.67836677554639813,0.21671307952242661,-0.13701904013554059,-0.40775579742305162,-0.029590768926702475,-0.38334672064800085,0.52416483050679263,0.31952680792505822,0.67425402443561611,-0.28865733005519,0.033145068484544238,0.43941717295581906,0.19100323566411942,0.12976991948960964,-0.35006392615516024,-0.394756560951542,0.23826412661200466,-0.0058179485013058075,0.60508040756917336,-0.45810835535059213,-0.23038649703961539,0.2527800163040243,-0.34244971669874052,0.35240408695256048,-0.041974438564414671,0.16895063342266814,-0.23523262262791309,0.24229830057234983,-0.54898150332710671,-0.3617231110947316,-0.13031345362202837,-0.13869622141393356,0.13165743639606739,0.13609305602436894,-0.4894521802147736,-0.01048790739339397,0.2628331046422942,-0.16328368184753064,-0.027402782919505916,-0.058595125037072857,0.31363987335683469,-0.34540926414199769,0.26457463097088435,-0.58587795618911809,-0.2232458953211115,0.29427634536085129,0.46426685537495288,-0.093960165137061527,-0.24605434671229298,-0.072914734639479437,-0.646974563865814,-0.24831431274781318,0.28810663203585873,-0.024794050475127911,-0.2289265276406699,0.2074642172062037,0.7835003381668415,-0.25042689702406,-0.16149519358399883,-0.26325684456319676,-0.55093271264793653,0.17791206091407663,0.10349309784720248,-0.49888424602451431,0.33920426277448323,-0.27212655108557687,-0.098649667975213379,-0.22827827220209776,0.4667806429662561,-0.083089317363676238,0.37565711335112029,-0.24217746921717143,-0.09764423303178138,0.24433250732163869,-0.85223546098650693,-0.027266944293874721,-0.70244105066939511,-0.027081509744830989,0.058692750809929958,-0.81024480506988017,0.21055730334335118,0.33871475360458009,-0.2785030850065503,0.24127011682580962,0.25876564810881864,-0.103086385423516,0.7304392177209621,-0.11814252514765324,-0.40499826958259677,-0.15179776050187502,-0.0054799647898260183,-0.15724183141161446,0.090788224833761408,-0.21463931130997171,0.31459324215616441,-0.207873598452181,-0.50857342435960773,-0.061386874486006465,-0.095430788524881738,0.0332961324330574,0.23104809168407106,0.24825311492177235,0.12181304094423666,0.38813936474662825,-0.632794099962454,0.095612384600368014,-0.19966774627089087,-0.078261222652147439,0.41383248987089749,-0.025965730628567864,-0.5889008607310755,0.14889881291283943,0.39554823367126984,-0.0033438572610190462,-0.12413755606094834,-0.67175308295151348,-0.57915639545689446,0.21765108155455346,-0.52397676142236227,-0.36259878462513462,0.5767154629345117,-0.30874944046280806,0.0015989760034322859,0.45367476008603586,0.27703364333007829,-0.10766441735826655,-0.24565351630400834,0.30335377404408925,0.13970554617664518,-0.53305867964859854,-0.45939844016514442,0.32226603401448517,-0.028270205757209604,-0.01169555689672328,0.14450744456549045,0.058597363328108672,0.39254203318739794,0.1159979047620925,0.028885233181938582,0.037496573234372159,0.32581392557632854,0.020074697055221198,0.26348845588446551,-0.17103740253486111,0.26368451536608006,-0.12992612170014864,0.19324811228099742,0.016469038048476103,-0.74703059626049273,0.34248129459930482,-0.11894426830807493,-0.27449772860781174,0.43542552122956552,0.015111674339734225,-0.27188445212284851,-0.184148284252451,-0.36800885783776854,-0.54741633259702516,0.015635350297534385,-0.89966783698292285,0.14394020499269181,0.6797042648554158,0.052228654328281235,-0.16630099356596645,0.020907746321404408,0.8642501487528077,-0.34335014473547476,0.11785225650509346,-0.18623460463362127,0.15327363418880913,0.18192072659591127]],"ActivatorType":3,"GradientAdjustmentParameters":{"Type":1,"StepSize":0.001,"FirstMomentDecay":0.9,"SecondMomentDecay":0.99,"DenominatorFactor":1E-08},"Type":0},"PenaltyCoefficient":0.1},{"Type":3,"UnderlyingSerializedLayer":{"Bias":[0.0,0.0,0.0,0.0,0.0,0.0,0.0,0.0,0.0,0.0,0.0,0.0,0.0,0.0,0.0,0.0,0.0,0.0,0.0,0.0,0.0,0.0,0.0,0.0,0.0,0.0,0.0,0.0,0.0,0.0,0.0,0.0,0.0,0.0,0.0,0.0,0.0,0.0,0.0,0.0,0.0,0.0,0.0,0.0,0.0,0.0,0.0,0.0,0.0,0.0,0.0,0.0,0.0,0.0,0.0,0.0,0.0,0.0,0.0,0.0,0.0,0.0,0.0,0.0,0.0,0.0,0.0,0.0,0.0,0.0,0.0,0.0,0.0,0.0,0.0,0.0,0.0,0.0,0.0,0.0,0.0,0.0,0.0,0.0,0.0,0.0,0.0,0.0,0.0,0.0,0.0,0.0,0.0,0.0,0.0,0.0,0.0,0.0,0.0,0.0,0.0,0.0,0.0,0.0,0.0,0.0,0.0,0.0,0.0,0.0,0.0,0.0,0.0,0.0,0.0,0.0,0.0,0.0,0.0,0.0,0.0,0.0,0.0,0.0,0.0,0.0,0.0,0.0,0.0,0.0],"Weights":[[-0.039553982847189285,0.014276685284172197,0.01998254507426556,-0.020051764782538815,0.03245843087388009,-0.063040102346948845,-0.11284310502653061,-0.040410291373780223,-0.051360293962365418,0.015788061633083543,-0.041288767537856881,-0.0038969389611555562,-0.10819865836604846,0.04668082111300835,0.000553525686004734,-0.0071305683629895589,-0.087069339363820192,0.12841539628384738,0.0046427400034485681,0.019842983791911909,0.10830019226590551,-0.0054827062703956828,0.0011000127708314007,0.094006626042105662,-0.0038593069560809729,0.062187378847275758,-0.047335538316387531,-0.0028175275541727977,-0.013978939829778681,-0.0891891655108902,0.14708483843500347,0.0167174903620545,-0.0037436254372157033,-0.033241622007774883,-0.059685659412097712,0.071792009597111184,0.021469908173822393,0.1314549427144979,0.009069496387142972,-0.068832706384051562,0.06834546800507027,-0.03152883630118556,-0.0020254896348345396,0.012920333867173497,-0.12960853506529999,0.010652900976557855,0.035661342045249955,0.035033938441508462,-0.056156522946674482,-0.050171777657805443,0.012869635296150803,0.15845117490922195,-0.019814466352362194,0.094688706019702043,0.095537714772159832,0.082051016492701384,-0.0810078910083409,-0.0041397762254357347,-0.029064405600533933,0.060270414421277917,-0.035057323401714496,0.031748243964829753,-0.025746880331938286,0.070093501124318308,0.079204006086930026,0.10906569041520778,-0.022435889600638283,-0.069246430154630861,-0.055337314427994021,-0.016040240497676581,0.0015358464287550456,0.027238054734296382,-0.01169497424093578,0.0042310326345920569,-0.10148972856822905,-0.13957606118358515,0.059814218366070426,-0.026991086873217662,0.042571726278592986,-0.10215842753556233,0.040892260844269113,0.062386446010797562,-0.047953006059377946,0.055087925480562981,0.061811000192883825,0.0566296764088299,0.028594000291966747,0.094055919330032559,0.086825169790780532,-0.077201353759243946,0.002799806667551983,0.085329061256741889,-0.000586310185792689,-0.11260236079957604,0.026632706965192009,-0.029047479867809263,0.13421732130146205,-0.029697155661929243,0.048940795654115188,0.021429256552152168,0.00308152466072563,0.03924470913532789,0.016465719184206858,-0.03260204723535081,-0.087596800035436378,0.0012411224112492797,-0.088614800083769124,0.062510387285788685,0.067661564933127347,-0.0498170697083904,0.12776679944940406,-0.10567153480477852,-0.072282162394793945,-0.034036917328642342,-0.021213954512115545,0.028925564787228322,-0.034457457244483486,-0.047221170109388561,0.038023079655335384,-0.103757027655729,-0.0282283267266862,0.012356131075123988,0.030378940978370746,0.025524898244956594,0.04268254825026669,0.047013275109260788,-0.025029905234911727,0.020250106851806792,-0.043881011585460282,0.077612728154148075],[0.147330486761879,0.012185175381697016,-0.015389074389514283,-0.0070013074727111706,0.058840336570768238,-0.089966324584571572,-0.009482734325151853,-0.024282464497327926,-0.0661919396310226,0.025309651719729362,-0.0034246166855450419,0.020771236977595434,0.1247379475137412,-0.15650744232409941,0.1740179142475814,0.081190720829339869,0.02344565531509046,0.038677777081260675,0.071532608572198328,-0.077800458661315644,-0.054489105384469744,-0.056570382979424849,0.090676327788495853,0.023441934976702029,0.02777019655879804,-0.029781139364001768,-0.041715664520974367,0.07926140745724071,0.048533740687220793,-0.023057834480582587,-0.03769670257922899,0.017263803933202811,0.0085592304992642091,0.097346142656659015,-0.059898132947444657,-0.05688848088694097,-0.017042753698262362,-0.085970486621781916,-0.059206410730906975,-0.063502825259312265,-0.056483276770178573,0.092774438267606188,0.041491415222535966,0.0754478386084766,0.09503851535568246,0.042623960637231804,-0.063657689347021193,-0.064602302425662589,-0.0046989962651286963,0.055154646992995028,-0.027668897976162947,0.047759755981642595,0.024145646856548721,-0.10784268493719525,0.054391814195618032,0.0866076141434378,-0.011100926981975644,-0.063749148545126338,0.025492219987069405,-0.072437967010108739,-0.03609589976090103,0.040278535651642966,-0.075856773004603972,-0.1264804441602651,0.083144322820789984,0.0079403506178796247,-0.099462204877781388,0.0082248446476989312,0.0429747069535073,0.07029090294914371,-0.10935714219213967,-0.031970786723161379,0.090711181438005592,0.067549904953442569,0.089034284113270079,0.015787734278747054,-0.0350533371796938,0.15590765221991026,-0.034144115706224047,-0.076554318172571731,-0.017632692422055143,0.0010476225734696526,-0.029431286169917747,0.053064529678879972,0.044625386586815842,-0.13807733663333713,0.034884538393370218,0.056119229614809994,-0.072993027397409121,-0.060629570616645818,0.013193428814328596,-0.014639802836986326,-0.069440608486347408,0.10786905559117931,0.018040689986460027,-0.051158679190420733,-0.072418771734285445,-0.1820452657830029,0.10294236878761838,-0.096104296314232021,0.045453074176789225,0.0901173005746637,0.0024191385000332669,0.036395398270463,0.017031648649916752,0.0031437288681907638,-0.022300703605672153,-0.16281194027960347,0.0020813012357827855,-0.0094410928173178175,0.0306646043532148,0.00236949876003157,-0.032961334239340216,-0.069974493732685453,-0.040794701702767215,-0.00953779850633166,0.095618791785432408,0.091008516366334988,0.078556368767597182,-0.019595459984886449,0.10528172518062468,-0.057161499886750088,-0.087980739316387363,-0.0077714565087100042,0.0080694238434804062,-0.0661986365152964,0.0038669126279633585,-0.07953586440614592,-0.0817054460552528,0.099010347352452954],[-0.148413539423979,-0.012801627623115149,-0.056527782426624963,0.021139358109769329,0.075797265113857717,-0.00683977619584839,0.0054500943641703709,0.021068887267089654,-0.11680185341476747,-0.017572729047472535,0.0027206726582659408,-0.046663770901561714,-0.0090354684120504663,-0.022031165026750357,0.045980573620463733,0.057769663657866163,-0.018194358882983614,0.0072980468900193966,-0.14701720820034026,-0.06004791818762948,0.070977643309037608,0.0910806305172654,-0.074869887747755617,0.11043959463338147,-0.021522887222400346,0.033432759530653375,0.00035339848517526779,0.017954415419975698,-0.053267858054022253,-0.00471600699172807,0.10990583244010539,-0.034544659091934389,-0.088948835474265534,-0.0089712249771967158,-0.011546734748468977,0.011623969441220619,-0.13175943623023567,-0.1586570387477651,-0.03328047422959992,0.014047717903722138,-0.055197232056462604,-0.050638305647315751,0.054575267398775267,-0.071444196517305866,0.093181783630876272,-0.030676926108040976,0.0911018317324398,0.12431237630899619,0.01300661160292468,0.013407190508009774,-0.01003720338380334,-0.11353166300836202,-0.017321733792259781,-0.0078024888015001083,-0.0688451343134323,-0.076501926403201165,0.082789298807187481,0.093826786888658836,0.054616604344331215,-0.032966807725788007,0.048952255697622162,-0.1373063424627789,0.0049373896092982355,-0.038335994515969196,-0.030475826193000804,-0.0709697468604679,-0.015209653638610847,-0.059743847474744059,-0.061596411003087,0.0090760763296558987,-0.023898641934477542,-0.027343471955384762,-0.058698672873616249,-0.035729083155843569,-0.067487233133633515,0.055852219423195432,0.0066413200149108573,0.026934108111422477,-0.031254326902593776,-0.018937922347023149,0.016988901408015,0.10040427883494828,-0.022734367910813017,0.054350445967405105,0.081525942447288807,0.10099382768668226,-0.017191431527235776,-0.11911274083218831,0.068631957332694463,-0.055774754289490185,-0.022582734751472957,0.039782523248496217,0.005839740372104431,0.045685896654360611,-0.076486568079516759,-0.045316452477870875,-0.033444617303128359,-0.07168649097305177,0.008110816311594455,0.045876421988829588,0.01351428932396616,-0.11701480266836843,-0.039542047770175885,-0.10804059586125564,-0.090102034795544086,0.056490325250470243,0.034375303123016586,-0.01781213150825741,0.012192777275102193,0.019512242964675772,-0.066107097728904274,0.0669119457237937,0.077280720941767453,0.086038844195742759,-0.024677639289155881,0.079793080835544428,0.14503742245670764,0.032545345330494684,-0.036309658898363038,-0.060959821783810195,-0.037028718586874891,0.020303614019622572,0.047465780515701349,0.0664321138033973,0.021067752110166572,-0.020808416739808926,0.04252271522926547,-0.067218041942689558,0.012814096617045292,-0.02599638273083207],[-0.049211372609468063,-0.048975776132955492,-0.094188098123495656,-0.021475410836150583,0.071305366011699983,0.031881179694682474,-0.019545586975519051,-0.016037633727364085,-0.14692995655726943,-0.019004136535641307,-0.00553037919525907,-0.0533010842671857,0.059529973670568642,0.023260913358337059,0.042037089134410753,0.016937319249899319,0.061444437425534307,0.061823855691133862,-0.0701873298695262,-0.06266334951749479,-0.056287683154757504,0.0081965972116669859,0.018163729925984775,0.0046588390876291241,-0.031929902552556295,0.040748317886358215,-0.053105125746755279,0.081141069387843892,0.012208271240283229,-0.074913958666122438,-0.029981334458540784,-0.027410016351564353,0.029457811051298795,-0.058639435555881969,0.06084932385305581,-0.025227827124728177,0.010965322825593489,0.066378288976756891,0.060120417882871577,-0.065686044795609452,0.083800537722505758,0.04039338669471388,-0.038349470165593182,-0.14942067483516619,-0.073280513224123933,-0.0550916497085243,0.032274840113233352,-0.045276886815492988,-0.021044822476442279,-0.021775486119406308,-0.0072178553933915646,-0.093636275995306245,-0.011603493277361736,0.029741253711188732,-0.0020663587653464506,-0.049166398985661566,0.10930523228796436,-0.069010921217240132,-0.0047513696421446275,0.023272597506977105,0.0027862496826229137,-0.072444179307790429,-0.048808463814608218,-0.066295890216337264,0.070214807332514992,-0.091278728315407981,0.0040705122494014432,0.089779064766152911,-0.10961685613409945,0.057460105342122945,0.028628107951140368,-0.17437819500740726,0.044645705532259342,0.051913085650776909,-0.0090700935766958521,-0.006958252057954117,0.00880252113137207,0.11106282721871646,0.14853272758187891,0.062485093368697509,0.030927235554622928,0.044406849045248678,-0.030840017393960025,0.028515050884026318,0.020701880431742717,0.039957896215637861,0.089253203655354,0.015530934022933089,0.036247045978038281,0.02140157526148365,-0.03561110267713654,-0.067973196174728537,0.035366592302676754,0.049784245799148925,0.0095539809053289178,-0.089215448946507153,0.076124242723299068,-0.092146211628077859,0.0057233064857372612,0.0012764302435115326,0.036546739188841514,-0.076891380296218642,0.055804114500781328,-0.066083004328347211,0.022720712054805393,0.085967098295149341,0.19552382121295109,-0.029766527158282111,-0.076227151011613259,0.02545007885913984,0.069546590362507141,-0.020884952583108681,-0.0081694226719630329,0.1215446739615472,-0.016585500336475285,-0.065734905382956829,0.010452797845368997,0.036749949382158524,0.0058768795226093913,-0.020858735991078441,-0.045544353694249626,-0.053168484689964657,-0.013801571699408722,-0.1556479471969619,0.037992834790929381,0.059591046445030188,-0.018101280239177529,0.0043020145594190318,0.029164752498922523,0.01202455738278992],[-0.004425216480003635,-0.040815524581754317,0.062064273039072859,0.10036663313349782,-0.04528618535814663,0.0070594632299451673,-0.095268032359898641,-0.055294132263358491,0.11944005276809988,-0.16595548956218437,-0.057942956396863227,-0.010091468044947847,-0.063154308146120886,-0.070435241673158983,-0.077676387042401651,0.10691904906413227,-0.029261006294577674,-0.034822507364976683,-0.083752514351196,-0.0094142507678049749,0.039143075283459762,0.09826467653176886,-0.041342831563200434,0.0029487264722019677,-0.019567981846603091,-0.0091499049930397688,0.15469527250512014,0.040730193397764618,-0.0025337041737808403,-0.010347186525998512,0.0039513793818457838,0.049428062681167374,0.0092003259951134141,0.028190441186892574,0.016540329265430129,0.082353609547202764,-0.038283025989937838,-0.056468442355565578,-0.0471010404128491,-0.0093911603834955365,0.0327423603762526,-0.0697456262218993,0.17584946092996878,0.049307662045734058,-0.088107026191868359,-0.058360669953508346,-0.064803422527793961,0.021440212056242008,0.085779482516599947,0.03866119560685987,0.046087040705296393,-0.030672074563697957,0.052641844969193594,-0.0568140215146139,-0.097696654397113974,0.042630755850665912,0.031652838728342451,0.019649891697688337,0.11918053911684894,-0.068933418111191289,0.0081105998769384711,0.060973860100918431,-0.061798146394212876,0.055369045874384175,0.19446874224698588,-0.097644819036131023,0.088900527890036565,0.00699165645511875,0.080999538984804831,-0.18885837168054573,-0.10040189658320656,-0.045109983070778618,0.0088977043622131338,0.071695427425992178,-0.0649005290628865,-0.042950875383867285,-0.039244728991691756,0.0040904085185876063,0.0635834126952964,-0.044497142032066422,-0.065047365276615338,-0.067259060485085453,-0.012896290875487835,0.016317668643404715,0.15922277999655504,0.109404698178246,-0.042357110200429496,-0.051610995288921824,-0.071067342189993207,-0.15049929970864281,-0.048548340929288315,0.015004325707338437,-0.0021083092577443927,-0.10070793824627247,0.15441077075884896,0.096491835949510815,0.085850850216621977,-0.064524279203057255,-0.026049060725637629,-0.041400002683586637,0.11451576020329073,-0.021309906651340423,-0.019564989426080259,0.09062774737290491,0.062142700867201681,-0.063506011794396661,-0.093416922957885382,0.055961883994174164,0.034121790016490315,0.11582396950993508,0.0059060919101295694,0.07447439748971868,-0.082038150194038428,-0.0043676286487881822,0.0077442680334443422,0.050517771435285685,0.16083003810398033,0.13573636542736536,0.10015958582603644,0.048732842261029904,0.00700021445149373,0.12139706820271355,-0.014012522758129781,0.0040926431058857038,0.0061097054722320937,0.03430128463536105,-0.043419537078085824,0.049783424279062738,-0.0058236108310321388,-0.030669574852800183],[0.0098659557363037168,-0.043626198897619831,-0.018413153751862314,-0.12148757716532749,0.056038198170750272,-0.01997989940990617,0.024088189757391364,-0.055234921047373133,0.088584942170517322,0.045385639240819252,-0.10776301514389035,-0.039545161761433863,0.035192427796770072,-0.050395893655004284,-0.05800478019502929,0.084613499118742108,0.037651234804658311,-0.017738630217377122,-0.0033553258709836738,-0.140156530591312,-0.042971687937205065,0.1428864363185266,-0.10571604323770317,0.0049945076821368622,0.023348278146775928,0.0043403416980333153,-0.015142927499346362,-0.0081356416312133636,0.070873349325453583,-0.047726114245170537,0.098365750830632009,-0.052097269262280539,-0.066310531423466962,0.089268716912249663,0.032288249813697753,-0.19255627114410137,0.037897836015292542,0.14145091608128987,-0.014974462457328829,0.066851410443829126,0.026020514380585766,0.069532956636806142,0.015298947765416203,-0.0042717836487270221,0.1459250293285386,-0.0097526919320530016,0.085202434793705734,0.13472327845481616,-0.055260089766177405,0.0010622601793654199,-0.040437075682213816,0.050743122043590487,-0.00014181692194945421,0.0509755548029493,0.14428430459202779,0.08123897659426263,0.080012768473959134,0.11565448054920764,-0.028043866086060052,-0.0962615183889044,-0.033515985894901019,-0.022402019359459954,-0.028412792046407353,-0.030003472068852833,-0.11213215357590466,-0.025276169920787205,-0.049727878535957989,-0.016199112448426155,0.091813418275187256,-0.097197200770004155,-0.0634132590716888,-0.0263231275831535,0.0050044846234619314,0.09379416505353752,-0.012738545332040526,0.0042686177991955489,0.035134311433610628,-0.061636217871507623,-0.026929421269905086,-0.046874502076095108,0.055168683122578048,-0.049274630460459878,-0.10903181042839776,-0.071255515818563722,-0.1357846689439233,-0.061146451999194273,-0.050167838788331032,0.033802401447742443,-0.04041478119559503,-0.053748691240815,-0.031610891315118093,-0.01455564489680586,0.011173201929259318,-0.12411686850908379,-0.013359340501307515,0.031175299438184093,0.014963847537139587,0.0014166095152636903,0.023407678303565282,0.011294533953032725,0.018547396334236708,0.043571958779963386,-0.081404550995923641,0.055018720967561011,-0.04540508054619366,0.069681695258653933,0.17806110882694784,-0.086606438010724235,-0.019204899134759167,0.039210222052206554,-0.11467546775778457,0.028511942059535892,-0.053118105341193177,0.044761513781381067,-0.0091845876695804286,-0.0046166175761295641,0.10648190259115413,-0.10481225988914814,-0.1344492914615506,-0.10790096842382882,0.022627575860585281,-0.01606278847585196,0.049489365576870288,-0.11125350264879944,-0.010321695657811648,-0.16267998183685917,-0.10890866609299839,-0.041617693743397327,0.06913618424970687,-0.096871201541176885],[-0.012313038570011656,-0.048661377875327538,0.12065292728379806,0.0048791468815595779,-0.044394063630708094,-0.012724214277596352,0.051048173985699385,-0.0797809248469159,-0.072114943320533545,-0.04976016397268062,-0.059003746493039945,0.11336326106317202,-0.020010741321619403,-0.0016821486348048544,0.0051874297133995551,0.013538995216109163,-0.0093203356043622225,-0.062454073657751706,-0.0431528885893966,0.03778082913584873,0.0063883905438750924,-0.018590788835505613,-0.024890013237031786,0.017750550228131358,0.0080014811688285236,-0.0433359291015416,0.011123029197609716,0.0058698649772671941,0.11362415830534303,0.01326087469134676,-0.0021941716255005793,0.059158335923674282,0.017754338424560683,-0.0083417056998176618,-0.044258058700891008,0.039671814647911849,0.15934415971664667,0.051776165160130026,0.078084201802832293,-0.044531767561527345,-0.0063955319650634114,-0.037764415941421332,-0.015906926617072145,0.12003873553007922,-0.085034013373971734,-0.012958210069313402,0.052828664129011341,-0.059208602332228855,-0.027394744629864444,-0.023648538771705085,0.038194413440189576,0.1346322199487224,-0.022667116832661094,-0.015183126022913553,-0.057246153343563241,-0.15825977801857807,-0.041735529625673409,-0.10614137307654863,-0.048759283379467708,0.062847926569821785,0.065614988514359276,-0.10392460668253725,-0.075598017298241893,-0.023163285629151389,0.11083998586431888,0.068964102728292453,-0.010590267521194194,-0.0749469862052253,-0.059123573708719936,-0.070087226480386747,0.0045381102639383275,-0.048610334193038271,-0.094279124559922489,-0.023216356576276933,0.013032163836648092,-0.0039265262331026141,0.10004471190417202,0.11697611417553379,0.079940133895247137,0.13626217983355479,0.055246787702091939,-0.0675340765715567,-0.10440180712658212,0.077042550235356055,0.05901034035227503,0.020736650987996309,-0.069498473016203155,-0.16829803689665288,-0.12303143577917415,-0.019817762626673917,0.03909272557426087,0.14072527383197597,-0.067139593316450835,-0.049488605418666967,0.064947014892726571,0.066550076061860031,-0.03149492854568639,-0.063037487400979711,0.042019241406376036,-0.11456331228944472,-0.029893553966123143,0.051637539364760163,-0.031025774891832621,-0.044206834277812732,-0.089357251392750081,0.067285768368605128,-0.056283928982392976,-0.092130101954373475,-0.168750923319117,-0.013676496010922022,0.079016185219668481,0.016184500502733689,-0.080681076461786863,0.0094918958709222546,0.096982799739085579,0.0800560220212105,-0.057893306506873021,-0.10892001152894279,0.11096046666335933,-0.021111639841689636,0.0962171607991767,-0.031059519388155422,0.070602684564426088,-0.11445899131626652,-0.082254209662606353,0.015646072780990988,0.0084300830081050146,-0.0074816308783094082,-0.014230640688696663,0.1162654492913239],[0.016438112219441171,-0.058057754345054592,-0.086929843912111421,0.060832745043681538,0.11046950744625564,0.0089334482286337856,-0.043104902134702514,0.0036890104074031021,-0.064562559151301629,-0.096593834236112716,-0.14909684918432889,-0.045395590151567973,-0.0757622042882258,-0.061464249321801792,-0.008961104316031995,0.070747633219258935,0.016142619325958289,0.046907789915895434,0.1365513916667836,-0.0045221025585295222,-0.012311253572244682,-0.11501077065447095,0.043215208120181758,0.044092275764793284,0.052833439956434171,-0.041093657652722243,0.084987669188183165,-0.0043953614519742935,0.019442739757023396,0.045729811695770055,0.0091859957652952462,0.091789385818124972,-0.11007948116071926,-0.013986039649713337,0.095394544379772669,0.20408421158256487,-0.078830412413804313,0.14878939088256787,0.0071997663669327435,0.01880957742524136,-0.086895677392214918,-0.066295962167835079,0.11005324986131361,0.0097167235226542272,-0.0067473779764264637,0.024134205860300437,0.026071523224967804,-0.14457334996452043,-0.040586882298765371,0.0039521913123758828,0.058303000972698783,0.04736666749554392,0.095715640262049165,-0.073348030163188777,-0.08308778340184346,0.13864492779549575,0.087539091865461868,0.026264462476428056,-0.027989689798679263,0.013520464670800203,-0.076377408309974026,0.053102625443568904,-0.00784427411365179,0.059423200316795204,-0.0095520965446877441,0.086532091837147551,0.066027637683828522,-0.022588805550195084,0.049585321451919843,-0.20712217165485122,-0.003177717224948938,-0.0091542340337398571,0.0641069831614421,-0.11078707003423589,-0.021250885778782338,-0.09874261223858688,0.086074955552218349,-0.014993327806327212,-0.0906301591321913,-0.065680607295718216,0.046053875939677268,-0.012586236145113991,-0.085938681973323355,-0.030964407110360623,-0.045933786745723522,-0.071699336959993781,0.059256264842205787,-0.056988292879987995,-0.043579236946125754,-0.020109789655413338,0.021388316897547083,0.10133079648055253,-0.0079754800408879962,-0.067264098156131449,-0.00624176771314234,0.040893854974563382,-0.011011997926275116,-0.021639455878632006,-0.031702032690330582,-0.01013826869132849,0.069566599442211191,0.03480855595881284,-0.0732765706758565,-0.015851003811173877,-0.022710454131103622,-0.1016542853603688,0.031371306663034275,-0.0062426839429292873,-0.10421867899690486,0.18081891795055083,0.1180553844145283,-0.019707889855712,-0.071321237949399624,-0.010520501825512884,0.029335899152345343,0.069290683098760283,0.094181534894225469,-0.095515872044068056,0.072034148239067952,0.081038762984295021,0.063890169764718119,0.056015993727958485,-0.013906472787508156,-0.026558413566604985,-0.0045047907500700025,0.13716742742610585,-0.045753669613518635,-0.06037384985472536,0.028285944626052249,-0.015312384010684322],[-0.11138967814961745,-0.0052581134414768169,0.061146718000495044,-0.01598856697708749,0.0182838355799777,-0.011589746795480494,-0.016747965437739334,0.010116782431821935,0.021187992451096135,0.10936003299269978,0.031103849749573403,0.0065494726883074759,-0.019066307045904413,-0.037717357768222708,0.11519097785602014,-0.0024002244579833733,-0.019877743628716391,-0.067460630286922285,0.016663480510247977,-0.090706011367442718,-0.00095632964944078144,-0.07909268664703803,0.12619898014406664,-0.016743792852036463,-0.050705265484778481,-0.10409278652652114,0.053647449010898844,0.07705429815700901,0.0656139717139555,-0.074669158233862387,0.10735514952821193,0.048558698403214917,0.024362648228850162,-0.0090501698049502716,-0.086161081427060207,-0.084664763816039726,0.02990647729483159,0.093180117029872778,0.02728871896453695,0.12381527573799483,0.15477378511538853,0.018622934080077262,-0.044072018937790093,0.0510230695831794,-0.0715562113925786,0.040787146866067374,0.032690267235409146,-0.072247002414296727,0.070841776031853473,0.012062485630370176,0.012381517462717593,0.054407714061400547,-0.050833810798648758,0.051524822098476031,0.049534081291850288,0.018271350214739652,-0.013142098611517843,-0.0481579676660794,-0.069875459402498064,0.079322324358896412,0.12822293000065524,0.01972418636694015,0.10730569849039102,0.024113845348044987,0.00511446151374016,0.12835639261772272,0.075791634129072416,0.030075626917787937,-0.053500213562951794,0.091697458333814347,0.10285243453995002,-0.057280474862731724,0.031506966709618757,0.10063483540541264,0.17919920712073312,-0.038905075670840929,0.14870748138845913,-0.030064341349834871,-0.094507587992553113,0.089136562470362835,0.037226749210477493,0.11819858157312502,0.049495889002051457,0.0050463238271612953,0.0077548518296319362,-0.072921845469624214,0.097380322016772755,0.019771259331401895,-0.066892525412042131,0.0339085209287074,-0.15307246063723634,0.066362867077277038,0.0046341773501067975,0.037456214687166534,0.0013098079485852343,0.078562543797959641,-0.018532776959500084,0.0598140250623261,-0.037373909869558845,-0.050804393880451749,0.03787836954362242,-0.079331907186897643,-0.0061971155732600813,-0.10319520292404771,-0.00895252049877896,0.06592008284014135,0.065426125741315178,0.0645514222339436,-0.12101556024688108,-0.11652057240396795,-0.0049485289861422675,0.066494104290082373,-0.11241179246756586,-0.021855371502090274,-0.089684225300871542,0.048731888734176616,-0.033604299430744347,-0.11426445466283002,-0.038780332451812276,0.00094978297489349886,-0.027140627879615815,0.066025477906462529,-0.070145784564693822,-0.052946605499954329,0.037011271577132306,0.012084715844604597,-0.063784609695948208,0.0039274123279108763,0.0290836256197693,-0.12692778758126039],[-0.059550443684940439,-0.15794375364134741,0.0040607149840871408,0.0315541808860293,0.0786967706103374,-0.10563037845891972,-0.033686270870526121,0.06004232783773817,-0.046068369353161616,0.024198875530936512,-0.025475582789544694,-0.08688961946382337,0.048351965589958384,0.19834070909172943,0.073915818813373182,-0.075887052370015778,0.025466702851615012,-0.097645828405050414,-0.050147662592673094,0.02508546320692509,-0.00934655417560593,-0.00734181975774843,0.080582622242913626,-0.0099240183044823783,0.031827170433765282,0.00733656495543417,0.023140668748343488,0.0684522061616157,-0.11983382806100418,-0.07766613737521913,0.005981284212495064,-0.15678639187996502,0.044436877143329404,0.021977672944331852,0.09101218296835481,-0.048926427382508957,-0.065267201505703032,0.068089983246872723,0.0024058812095007812,0.017549012064853479,0.012273125114454768,-0.020845958069571603,0.062626970640418417,0.054408025923811207,-0.060231930750537184,-0.04441087640480082,-0.07096960086068603,-0.12454950283685641,0.03939544247522879,-0.008113661083629424,-0.0797526526732134,0.00282181274351868,0.054903092892725776,0.041196903537525392,0.045652924093252258,0.11858082085061569,0.039665070735601028,-0.028033775010964327,-0.088074231810045311,-0.032154238237353673,0.045993852558983875,0.16016895588647889,0.070331436006291853,0.030807979452728881,-0.049981641729743821,0.040883878138438058,-0.062517147980004711,0.017001237746350047,-0.15253530731943707,0.031743521227745666,0.11220516121945624,0.11496286945737126,-0.057102642871564482,0.10679941959437891,0.13718198258083211,-0.05385654980147097,0.12657627527707049,-0.019407402686500385,-0.15700474683805979,0.040551478757579563,-0.06998284770360938,0.024905358239744997,0.01629314581331192,-0.097899698619864445,0.015634585932316751,0.0036955436317700646,0.022311267132899514,0.056267221834924067,-0.072163951118174516,-0.074006566008149935,0.048498236142123216,-0.085891764145737,0.028851033688889194,-0.05345251091400624,-0.016305524676169872,0.0700044807054512,-0.063607801457945576,0.014362987538050378,0.086572255892833266,0.027874491009856825,-0.0781060963598598,0.069150138007524287,-0.065194256384277907,-0.03696896779517285,0.0028675716946986365,0.02516824608664775,0.120599660521625,0.00025161425467449617,-0.017834382907266678,-0.060285595463781337,-0.030122686294345863,0.08145320509297381,0.0089961927717485384,0.11840866675079684,-0.051964108571599346,-0.086749828636183884,-0.0046827319230236895,0.0052969602960200885,-0.011705931681011314,0.03070859211163806,-0.06692705496467205,-0.04255377974513111,-0.018580257029434041,-0.084608113788829917,0.014879027953214528,0.017393408993560146,-0.10899998750023578,-0.050356179798998715,-0.091454349290101267,-0.017617087187918386],[-0.092264249119246439,-0.054701839052152139,-0.0033069343092899219,-0.048711497406465236,-0.040145691175316051,-0.011183999530586526,0.0459610712280047,0.016747695535720943,0.061451542488166894,-0.097022940226642873,0.051902810504546447,0.048561903758119,0.0005204792757067747,-0.12089216027240778,0.020029940615783923,-0.013148299369785416,0.044321181927381395,-0.024567703138775505,0.085483949319661454,0.021629602423010076,-0.028524935752660192,-0.10768562039062336,0.053927154661104808,-0.041920350915280076,0.025693250384106053,0.042623342570653484,0.078518541047185253,-0.0668307969620904,0.042465132510105946,-0.11901851169952638,-0.10623732519329368,-0.020174644601969313,0.0967539934417183,0.055587687648052823,-0.10778753268252717,0.11408032681392863,0.043778546367594748,0.11632211199519749,-0.066038505842516915,-0.049477577424898361,-0.149775369054665,-0.053549667751559636,0.025042360889752247,0.0009717833692349673,0.016430391306453022,-0.0420621277519533,0.054124715146127933,-0.025228962100010237,0.029668913645171786,-0.001170880909184883,-0.095252274947185217,0.013826103073270667,0.015244739968589,0.10575323247647658,-0.071750795062927183,-0.021746689279476192,-0.041686497081866454,0.0155520826203154,0.13853736445764811,-0.065015107752632348,-0.086974682933144573,0.028183928260366847,-0.10889983774522738,-0.017264523049156193,-0.0084775544771621986,0.0013374539320060688,-0.028231955682046526,0.14953101709674074,0.03057000231162103,-0.047038659260296385,-0.0604199569677428,0.0162382499377327,0.029776232743671104,-0.049589837741936642,-0.064027725296367188,-0.0059221955707785406,0.097414163145074659,0.066247999715320458,0.12360814915319576,-0.034717705829840892,0.079284390717620681,0.02875995323403659,0.032211141121177962,0.067008716104424673,-0.0028341102569447133,0.09925690680628306,0.067698223463575014,-0.014172915324188079,-0.063847989775627612,0.020710364103693282,0.044754220802174234,0.076940367428581083,0.0428223555795645,0.062075168036604192,-0.064528340529129952,-0.06202945876972682,0.05914427984210828,0.025522565211582166,-0.048871323368642229,-0.009700096098820615,0.024214630419505508,0.071919484508900941,0.05321179484816848,-0.031466770516482771,0.047766389626258537,-0.048865400053169382,-0.10413421939769178,-0.056028366052063114,0.0041452889401708244,0.096504793013962961,-0.036362493079315439,0.046875727456061556,-0.0027835717463661988,-0.029973458234588218,0.038077151864059265,0.040776777452105839,-0.089284350240173949,0.0096949596369132422,-0.08318376071674384,-0.040740414918207173,-0.01061302314415255,0.065343643393831752,-0.24271042226040418,0.011838447767021478,-0.040598642944087354,-0.070164473959434037,-0.00544506891863136,0.069882238855455192,-0.030589587425668009,0.055711064279013289],[-0.063105553158802147,-0.064630856086118724,0.044973205340999925,0.077396978179513937,0.16785300879584264,0.0025672782328377977,-0.0052273307346159485,-0.08941018633409055,0.024298614746938004,0.032489905860306534,-0.032617810248078576,-0.032679365249670321,0.0092509602514614653,0.089709050133777626,-0.074665285837778067,-0.051624004550899931,-0.05629491264317836,-0.0054069488791858291,-0.050273926131016188,0.081651863070028613,-0.0011414987651656311,-0.020800926761743724,-0.0015213744826274279,0.071545495530381475,0.084389990869976464,0.013418674035928493,0.14863084341558175,-0.044455616645047595,-0.066360250355508077,0.057106137769507827,0.0232307689990764,0.15119029334024961,0.030997099173066089,-0.070873610000366613,-0.036564417232799351,0.030070613177054728,-0.13124924332254526,-0.071973690549361521,0.084048639660981375,-0.052485159821760885,0.056521471848514943,-0.056585687346842085,-0.074373625512298439,0.034050315054896585,-0.077605115558452425,0.1505234572179186,-0.0030526242175770058,-0.026056392814149086,-0.03733340132156842,-0.034130825723508285,-0.018671683615428612,-0.076999085142254189,0.0083441897440403069,-0.13580759194791314,0.081342202569342811,-0.018460287981577755,0.039803105762875809,0.049188771468791088,0.016065079152556033,0.10996400342999992,0.055022004489896019,-0.0445641553475493,0.041743913876767312,0.069367721895656875,-0.12330409523157013,0.039385003151538311,0.01673121292983426,-0.045885342913188479,-0.063946580786150342,-0.060432230363679,-0.058617274577202533,0.056810889916972952,0.079015223308748883,-0.015034442172275807,0.0357898802351453,0.070799361013598031,0.0054694358243771541,-0.049480081208341305,0.076935906213719138,-0.012838191843825099,0.046687674894336985,0.00872218573487024,-0.10774748782264768,-0.050975605157885039,0.020645024962195179,0.0760317072935429,0.049347570967868029,0.044696813632833773,-0.0055118134373923246,-0.028163268098746905,-0.083090284029480252,-0.068011379671183467,0.14579570938995304,0.0064189686069571466,-0.057043142030122791,0.048340102750252904,0.083449882921433516,0.0026604963867772951,0.10926158814069348,0.10585272538939451,0.0382040114342737,0.03865217119644225,0.019636590337344662,-0.055994278532247678,0.039526296141026977,-0.03470850110074223,-0.010270501998397715,0.10223159606899532,-0.011784874964488368,-0.067114430856943477,0.0082958656062156848,0.081168645920570562,0.0636433161941557,0.039519084597361108,-0.0047316747257857093,-0.065231944921723836,0.017055515988083893,-0.042491413494686221,-0.090506347737253565,0.12612999271132971,-0.0725361199786592,-0.063645976657036266,0.061966258401779641,0.0907759476521524,0.029342077811844131,0.01363818228142364,0.064813208939348679,-0.10590460174341891,-0.0055189929186712627,-0.035983255391364752],[0.074691132082787368,-0.13254300552006285,0.050368329570694238,0.10013369014775922,0.026988246584719305,-0.0050696289543831121,-0.08545429986225242,0.092823625073844049,-0.11122120389473378,-0.0023449631364250794,-0.19747618055043428,-0.026626022247812346,-0.002248190353635114,-0.061260346090560969,-0.04965159574880787,0.090524494499639313,0.0940891598403564,0.078566518754466033,0.057959218614536734,0.030783693019678669,0.043765247252495,0.0119281208450007,-0.028900980735103825,0.013836865378011274,-0.0097645826996736931,-0.080417060577364557,0.077945827082770439,-0.021797839518307469,0.046940417612390095,0.082153880616818789,0.0762255034077256,0.0087381318520457791,-0.057812484386818977,-0.07702164282379223,-0.053493591037193769,-0.039550985478222021,-0.086592428760623549,-0.0091317925893175111,-0.021297163069882472,-0.061750284159218537,-0.012939983379549365,0.11174456455987925,-0.11854735235291224,0.030883303314950823,0.019044065403700558,0.085129982681278,-0.12899803137069757,-0.093447354353306339,0.13782765651769649,0.052431953039295272,-0.022107208931002802,-0.079934800446643778,0.040738461231173993,0.062627168862495641,-0.030980169182002804,0.013191001907554923,-0.1220592025359126,-0.10833526616085622,0.036493667751099586,-0.0012578769961501999,0.048711702446374953,-0.067287524765314688,0.0053751300488264469,-0.077723806404045928,0.037234655030436985,0.014799711928339248,-0.0799027440137761,0.078207393865551339,0.025040743608969504,-0.083646937972893257,0.030620369702502592,0.056288573715060207,0.092492530510445134,-0.013303424646145175,-0.015262716123551706,-0.039535497731967788,0.0061162443442521943,-0.011647044206253808,0.063596218914022784,-0.0704487554473327,0.0051781899357219406,-0.10126906660908321,-0.018081332225816395,-0.0018399489807405603,0.01548897296705158,0.1134401761850411,0.066352105808080764,0.0073911267226095707,-0.023164267305176577,-0.086767533650868034,-0.025852878296253098,-0.0011681874058362737,0.026258272535446783,0.057689170398904165,-0.079011804732426721,0.029785176351504412,-0.11054341587909759,0.074822357722774582,-0.076699247589238823,0.16281974543988834,0.17322339736920558,-0.068636410456194466,-0.0014273114319028005,0.033305031013162179,-0.17558358938503232,0.082406503839708559,0.019516650420689438,0.10653576027492794,0.0041464987736286613,-0.011921286194550832,0.085302206708143008,-0.053706132037204785,0.0026243319687858958,0.034822786617092212,0.052517063458764973,-0.068537599660520962,0.0590657237329643,0.00066868223391043668,0.011857969659623444,0.083969758111154452,0.041491813659340716,0.061355996512755445,0.099687932863048362,-0.0061614435711880881,-0.067188493115880155,-0.014165633883807444,0.063794264987776725,0.15828464763563785,0.025760022227222686,0.10018936328815999],[-0.035918167816356365,0.03625969610265465,0.04277782388446856,0.067587379753745527,-0.0052394789099887351,0.063166735617954592,-0.00467145951062494,-0.019758465178120063,-0.065626079648724467,0.082480028989499674,0.12959753738255361,0.080568348530259584,-0.016404579849453583,-0.013383648432606204,0.055226117137182312,0.04846051372857426,0.029715463836165818,-0.0086258374408360577,0.011846782470662351,0.072285492170968677,0.0051033647550079546,-0.057491185384558108,-0.081649011287799084,0.013732060675789054,0.011748874999461494,0.00028816467174493993,-0.036368156096898169,0.068184862012011432,0.032918853205302863,0.090595131610192614,-0.018933829617240053,-0.014073407626029955,-0.063171966178791075,0.0058542981837074164,0.031440782597986605,0.10180376700555044,0.058550509598924862,-0.0269361874706245,0.043224743727748323,-0.084752491705898256,0.028596831080215285,-0.14435024832423282,0.11742394957223425,0.061195588767415071,0.099260624109639456,-0.0039030168567265318,-0.010792821731829098,-0.081877815019676212,0.059543066645595513,0.045824217092967988,-0.00837343976586843,-0.087620278653783024,-0.062033677069180074,0.036254494241998232,0.050242937732474506,0.0905996124059773,-0.12242419054986187,-0.0074320186083280853,-0.10598535214399003,0.13948279942728054,-0.0799345706592766,0.13373073641531447,-0.060166727062734592,-0.092867846816562336,-0.0048740394700735636,0.12620959184786615,0.05600359618895491,-0.0046179402768879232,-0.012409405038619044,-0.037849467410415685,-0.054960385477879785,-0.079228283059728746,-0.027070472564335323,-0.014247012548914827,0.044235219325136986,0.032741996726540275,0.0028640889620699817,0.034221733809435634,-0.05164187656170955,-0.038549854948578363,0.078870429742262479,0.051837340585098514,0.037459837393592807,0.054764795794003542,-0.010865466901810898,-0.031793722904382621,-0.037726590075289758,0.069533067215399952,0.0031091899107555418,-0.14380623747682994,-0.030511484395345522,-0.0962431040528625,0.027396353083515398,-0.14384994976074969,0.11379003641578621,0.017790092115466213,-0.019578221773850477,0.0577406921841381,-0.060957900693673649,0.012862405547574344,-0.0033995169127150034,0.11284255116572575,0.006490596577538487,-0.03704838499544133,-0.080772351175200485,-0.038118801467562677,0.03288891860890561,0.13279591808758021,0.069765648864156163,0.061362071490670619,0.048393666611233288,0.04650553022740575,-0.068619407353910838,-0.0065296384143086316,0.048077751630741981,-0.035274792285067517,0.004082428471532641,0.023261829034957139,0.025000830945603979,0.0046440686917974009,-0.041445978130380527,0.040919109359612321,-0.090701821736283911,0.059036373181572448,0.0763953566009023,-0.049159518102635934,0.0932969891981338,0.097885476901713508,-0.0023975456699681839,0.030680665859201033],[0.015869975236532108,-0.01980651126092901,-0.0171228452664857,0.014361974065769206,0.089170585565609889,0.049902438165063859,-0.0075754193386301906,-0.12240961332971531,0.0057590500557561991,0.013262280094758891,0.1237885318877075,0.06376701457601272,0.044019893456180119,0.12253804489761737,0.039507164333837066,0.015204159958865041,-0.040401046801336549,0.05881510738532375,0.066691390944012385,-0.10253002510942028,-0.073231135329292249,0.031981081789957067,-0.079091356792832107,0.18264136709831319,-0.065111880155834828,0.042914903828194406,-0.13487001463157952,-0.060778953336062792,-0.13246715603259876,-0.020964736919883827,-0.04948925247362556,-0.00027582049007988349,0.00039260977495201357,-0.075174179228411672,-0.0063485046010256828,-0.055217701875110346,-0.04091306956908939,0.04233083054393811,-0.055316610145343094,-0.10993988962827334,0.042167187350091534,-0.04243698291405415,-0.010223686884160714,0.012451418362129988,-0.0073271905636508013,-0.075844065118047588,0.033484295598717344,-0.043888662390757616,0.05800073123871223,0.019597285927147611,-0.0072269510845902546,-0.017799601957799744,-0.06945534005070389,0.044966846767874137,-0.050187756042915373,0.01707201732931516,-0.12648228869837377,0.054806674067287328,-0.048484347775655585,0.022284556590916379,0.07469341628236284,-0.039787149476629063,0.074131265329761289,-0.021212382857566988,0.066267616863737958,-0.055971876775897267,-0.032653018775045881,0.07872534388658281,-0.012710165316677772,0.037603140781023461,-0.11270202497269373,-0.022722950250888149,-0.13653461665559333,0.042687328344722719,-0.0063180575233205373,0.0073472997343200222,-0.071240898734788144,-0.050258455886499208,0.023227170923438473,-0.016349873152190091,-0.14283851287412458,-0.0041380725913015655,-0.013154729885433265,-0.021464380851516567,0.070919974027590649,-0.049907871888392637,-0.026481408718788273,0.0815945813758394,-0.071857860585291977,0.076134849639777014,0.074602857109720561,-0.11559671181700486,0.0098168392042751514,-0.018186526035719203,-0.027695882723592923,0.12602312945095395,-0.17488297886985463,-0.048244651809846405,0.016250197546990183,-0.0091400323490119957,0.029966332958065889,-0.058766278122694554,0.0091900389530742768,-0.023312329524724718,0.10130539669910213,0.047167935193501022,-0.0486605845407828,0.14474797991193666,-0.11950642602694099,0.10734220795150086,0.03548849980912884,-0.057378210093387248,0.19512791925115475,0.0833024567732498,-0.055568394557256588,-0.099944815510915663,0.025187248661160525,0.099050164031923613,-0.022708379612488,-0.040761547047168639,-0.016528952784802032,0.098070249700124387,0.043429114776839375,0.026179874104653719,0.0053436435396636024,0.064781546661716274,0.0094679583044588057,0.17124814726613863,-0.039063963049474404,0.028039479850489726],[0.0995207598161772,-0.022982566715640688,-0.023050947162354812,0.080661075233033,0.012111519041160793,-0.059480941385642985,0.12310986211357188,0.068775599869363768,0.10545590908979528,-0.077842928104931888,-0.019688040020683504,-0.0712169710959266,-0.045039394671823593,0.0019297247113276182,-0.042706224437139437,-0.0053638283977741844,-0.032484281967751466,0.051417991356529025,-0.079234126846416147,0.037822346760819282,-0.083794182624543509,-0.1183459197444094,-0.20551762604653598,-0.12971835987098962,-0.065456247623429775,-0.031383553032004061,-0.10265548167471911,0.020354339890847305,0.031622219094380691,-0.050793736076858477,0.054307737155427006,0.020822853231088564,-0.045601020153638025,0.12431032152783403,-0.081633140930331277,-0.080417819323368819,0.096751847277431122,-0.060655879869858473,0.13128181061354025,-0.16751093790637595,-0.015530250606177866,0.045594370933546131,0.011041919959346898,0.078262650242994891,0.10993916718635474,0.034723828984331413,0.03766592871778382,0.10518490642042987,-0.13031481047534427,-0.045226679323913006,0.0011356446368638769,-0.0708040151695387,-0.035336927013218167,-0.063206929866045522,-0.0013424175456568481,0.0030909711754948353,0.084380082547337865,0.015411345474877597,-0.17645627391040283,0.0060111021426036138,-0.0637026781400069,-0.025902137505581097,0.080004947015330508,-0.0008446929115791819,0.0972521432903066,-0.065119237181032824,-0.16829368683526857,-0.029940636994972548,-0.066297301366237418,0.02371934710933293,-0.12091870436313286,-0.018798656151279316,0.0036973665221515864,-0.0042456463595472275,-0.019548880159295325,-0.057546071209740417,-0.038431811468186666,-0.02473855274085628,0.0075663246602128741,0.089178420766846678,-0.10175094809824438,-0.025124098211166151,-0.025006426565367373,-0.063572829345435136,-0.11713547474490145,-0.09482394943852647,0.041436676432740391,0.05017789704840548,0.10839192135248861,-0.078078730375345753,0.1918752793534349,-0.029064735064845602,0.0698018006218509,0.027405227146674913,0.017924920117351306,0.0739125018713193,0.064615226052590277,-0.022632768033526759,0.14504339803300867,-0.11831423548556921,0.01825965486090186,-0.027691394711119404,0.096603198237691867,0.042485711299792756,-0.084235470903310586,0.020599944021595758,-0.017691246149958297,-0.019660350422761156,0.016637267745623043,-0.042967113495348548,-0.031662707539027848,0.044454329514650733,-0.079478283697980989,-0.013053295648102011,0.06096753789664873,0.10534422156691725,0.0499328542290424,-0.060033976981913838,0.11274383431433384,0.00347217723747216,0.036847030694480913,0.032768379523794654,0.11409324571128399,-0.063617146883639467,0.033113719990431008,0.0032715268119044407,-0.081107964406069863,-0.0010851440653191263,-0.038352878826162555,-0.0375489092229437],[-0.065502544684099,0.069332880066752839,-0.0604742730603336,-0.048047554761765268,0.088103062618676425,0.064153974421769566,0.042597252388862569,0.17735537520168326,0.15647456311459213,-0.002720236511807265,0.09655685504652145,0.0557950024878743,0.085905749920280411,-0.08378598602841715,-0.029039100627859558,0.00065893317562031647,-0.0444882770697784,-0.026033967053387362,0.18936075338188296,-0.074508054919178321,0.015562571864709295,0.10857931486840207,-0.0704152740337269,0.047843094964750289,-0.001154095910343544,0.073200593303267336,-0.015580499434267672,0.018912152185928965,-0.11382657314135454,0.027532311045130185,0.00026264690433015932,0.032923760991091892,0.01858700179607993,0.02599900419537245,-0.16574008421070363,-0.078582517240023381,0.08103725187521231,0.085103359506770157,-0.068240087481220429,0.00096022219746726611,-0.15606602006576156,0.018787777221829356,-0.032079321964976322,-0.052631130037748053,0.018361426956219593,-0.035743122503497586,0.12474132176404613,-0.00982415730254829,0.0047394972387440034,-0.047975357463432206,0.0073874783344903289,-0.064479398976918276,0.095058770663404374,0.11805700497065991,0.17936032263778737,0.056010262670057924,0.21298575434953912,-0.01726256358189119,0.02623520222250984,-0.056455464938175909,0.12950451889627018,0.0011983466843149043,0.046973480399776883,0.15845684787859699,0.11132669860035203,-0.00082248283567233464,0.032229168544576317,0.1195152991922912,-0.081758769639872025,-0.011959189152802372,-0.014009599387440033,-0.04234689516815781,-0.05997984388333498,0.058688231225738026,0.04855325579272305,-0.018405988418344947,-0.040097885383731206,0.10263271723764561,-0.086633747475862763,0.023128091643387225,-0.11521993462314589,-0.10508704680634456,-0.063131823191291875,-0.0026436231972788529,0.087953292550429676,0.13199735786286485,0.048445858020113204,0.077941708575466118,0.078608318656920473,0.016152233675852751,-0.11802363167593526,-0.099354262696867715,0.079590521626632119,-0.099595102495785265,-0.0014604303633092377,0.0021925490591020265,-0.013372982678854721,0.068891710505633183,-0.038345269559249454,-0.02103298175420831,0.10200617876663685,-0.13473656586398158,0.071836327321573967,0.063874717889217669,0.098777397527129732,0.05336878418262081,0.023899695098451634,0.0303741267794363,0.093027040432602986,-0.033872089710332294,-0.0029063487297878712,0.046258405207511753,0.03123684842195203,0.030128165594207296,-0.017907694072378629,-0.045344485089313769,0.0939270030749719,-0.0093341389957139,-0.031483929764054161,-0.029330781568018112,-0.030044829928399186,0.06907529900884779,0.034520814618316305,0.089809611054809071,0.093777194460712143,0.1378860011827979,-0.00521060304271592,0.053698744116489075,0.018232298832618767,-0.053319249574741316],[0.02212140931131807,0.050821629913390155,0.052217798302447466,0.0086938401722078534,-0.0718476517795372,0.17182309034702109,-0.083675903264826185,-0.21590963842269376,-0.017682836352958569,-0.025240461515126961,0.013885440305119451,0.050872047227253969,0.024223108917485938,-0.14568501834731867,-0.056823450892959496,-0.063438096843542416,0.033490255346581448,0.076264614911340831,-0.10361677977024682,-0.034074171554933037,0.054465338072198208,0.0015659748983467977,0.10363337551794805,-0.016787452515870806,-0.033869548116641265,-0.025667857871484651,-0.055904212856434057,-0.0318644397587871,0.011194487206256704,0.072933565925145466,0.1300432451129013,0.0064538047595099936,0.041343890788572209,0.048853527101981507,0.024284304621194165,0.0057247948124678075,-0.032564933459646624,0.067733937382527171,-0.031838909177266894,0.0060216047107793042,-0.024978340264964018,-0.050197112370326383,0.028113855007409046,0.0917896355736786,-0.091314930986428511,0.024105244438052467,0.0053950780410673546,-0.045553846755122245,0.0023315828004582717,-0.13630967078001086,-0.01381503918073535,0.036362993223490618,-0.1652789332851661,0.056075571250267263,-0.011871576186993782,-0.035554497673346411,-0.027187722037399959,-0.056014180953753177,-0.060752962773893943,0.011086520550138691,0.072536520021376741,0.010478184909139515,-0.037358176404494729,0.041882350789258754,-0.076450705930134519,-0.020330081193146478,-0.02856682628950474,-0.058105182301500635,-0.12750556656946144,-0.017138899855139698,-0.0049625886439822681,-0.07678988297766573,-0.015296094960369558,-0.021382982362366292,0.027541854615405245,0.086570794446880761,-0.14027614270692859,0.018289235592646776,0.034234824066942823,0.00646241380509341,0.041549827388947282,0.20566573014548026,-0.061615584474294459,0.035761246110897565,0.049438060214603487,-0.044602717157430929,-0.024255939315453997,0.0631986403268204,-0.01899906557664827,-0.024708909380805843,0.15631809685092249,-0.12217498170833277,0.050076869149772579,-0.0073445489304933631,-0.072396992103294658,-0.0553034750178807,-0.055331615771624418,0.06186142351932232,-0.0055405702284709755,-0.068793141311884867,0.077077363380677374,0.074747871395933682,0.11603658274573005,0.00071987037190791772,0.059514689903225081,0.00909722729298818,-0.094719182151369749,0.10006972354825357,0.14094139426444502,0.00091784213423277928,-0.061249666862688908,0.062714304471460855,0.025942840030458103,0.025639265006952832,0.0845286762481627,-0.049105603428172377,-0.029453846742624641,-0.13819319074089637,-0.019175006914084705,-0.014675314534168756,-0.062255830871515129,0.050662872216074961,-0.0314411832922429,0.082972336323275123,-0.12772612020024135,-0.014434614671785346,0.054972945327661754,-0.1027065518402676,0.075868412996545578,0.048431465264297105],[0.043611699708610771,0.0014425667879553687,0.14791560822906802,-0.088033482496399709,0.18250743355855323,0.11464508436334223,0.0074687155011952892,0.017505971963962367,0.022391145586220705,-0.072559504096284824,-0.062273709318996492,-0.00646637653974209,0.12911819193420682,-0.013948700484884016,-0.050546782166326139,-0.076033525269256261,-0.056216394230851355,0.083162678340064633,-0.066241346049040209,-0.0068250589189943122,0.088581772744215526,0.12711834881297651,0.028256540576130425,-0.035478464915086404,0.0976619716748404,0.034084508658075587,-0.020061102783441875,0.053563120643250646,-0.069162234955609511,0.012947692149118459,-0.0053311939501474708,0.022184513881298617,0.058462145611365174,-0.12845721383321898,-0.015153971790792045,0.010375859586986369,0.047712714490048817,0.08472889456499666,0.0359289699438085,-0.044088987652794995,0.084041585600964974,-0.13064571339477885,0.21620297148199541,0.17208522764177209,0.021592363937623871,0.00720283907073558,0.012315763269764876,0.0212589449770613,-0.021284946717618144,-0.020234506238163193,-0.02116809395225841,-0.046733767897085741,0.023120310390678914,0.0442127826922585,-0.045773406115151564,0.07457109427056853,-0.10042226696654004,-0.0038652633843934006,-0.025737114655113781,0.021200745523503341,-0.017975961657158944,0.093186298571916279,0.0467569145047058,0.074613958886199025,-0.089648487476985492,0.096189835802556245,0.0087297925722260254,-0.16574236172258869,-0.10309386432107025,0.067027496235438966,-0.011577956877233207,-0.13560452994219874,-0.020916416986998608,0.13473163887254305,0.041338263792564958,0.12634059293012037,-0.079892762221473415,0.049068179529780542,0.030658991116761451,-0.12476054221142439,0.0981147767117611,0.15646262778411024,-0.023145564424789586,0.15235670152945782,-0.020347324057073794,-0.10911673011219061,-0.021314503238408625,-0.0048341760198621639,0.0713629886238924,-0.0054836161355113254,0.089384670247023928,0.017846989490901657,0.014747359370630772,-0.086599548988199729,0.058758649933578426,0.033420190436573807,0.10404502562819898,-0.10936621421383141,-0.042784693474263162,-0.015089155284761452,-0.01890532621582585,0.060833315391004637,0.052889233948043159,0.080150123750055272,0.0986735237756188,-0.10759558034603246,-0.00670717556767429,-0.13683643179729532,0.04772514006049533,0.055964803711277364,-0.01041468373869945,0.07216021995425316,-0.067791143656941125,0.057034458673721568,0.051563443545060879,-0.09611900096243825,0.10768446119572099,-0.11169369345541105,0.1027146262642166,0.049051513239564783,-0.001800445063963554,-0.042159610007511034,0.017569184022082022,-0.046919327343550983,-0.07937639718873854,0.0851392670168027,0.087940519688431779,-0.0014668927585383719,-0.0704454377500416,0.074340820642245328],[0.031729333586418586,0.055738662430427119,-0.064619587623490821,0.094245916300480514,0.070817806941348746,0.005817981514839545,0.084171617173707039,-0.013917353264773141,0.15660899966530004,-0.014228160257053379,0.12039535260928519,-0.023631208781306669,-0.068532125600169691,-0.019796558511340264,0.0555269079715563,-0.079022951504141334,-0.041143601226764075,-0.11061404127125357,-0.046971433408244105,0.082319801719664493,0.036311311976681693,-0.039740928852484522,-0.096512651397630933,-0.094570113452934826,0.013124459922532611,-0.022595530571270769,-0.051958052946126411,-0.0447493313546352,0.17736965806986096,-0.0063179384100258132,-0.090935061300594172,0.029636150746360765,-0.17649983205028075,-0.051364339382035662,0.059127136712725029,0.063829638317370888,-0.017861030601035461,0.15136826497461328,0.14770196347178527,-0.045482734503456627,0.12303724778390453,-0.055070428233859652,-0.13805380837178122,0.018231306558007851,-0.095658008214221782,0.017967688977381335,0.18435857268850051,-0.087247660590594842,-0.10522063584865848,0.00071046383332151774,-0.011956142980045451,0.019207691110436072,0.061050208844834086,-0.029131833527461445,0.0014940640103824419,-0.019586420517341774,-0.17110288566979959,0.02323302237250267,-0.034215372631575064,0.13092036806509089,-0.0069092160970035755,0.0582885950337473,-0.08857937821708646,0.025543443258765813,-0.093352246368057057,0.03900127358112767,0.019157393243288353,0.061295945817032217,0.039843076080723815,-0.049413235818112675,0.031420908954242585,0.10197832437572879,-0.0348840661960961,-0.041118519797135156,0.032335637733724894,-0.046799310296827705,0.024250319076597818,0.049852128596796837,-0.017851075143787646,-0.021369093241000378,-0.12339887726364264,0.0095159867761080517,-0.0011428560790962368,0.013455341480196774,0.055727832293696752,-0.11824948152492318,-0.007549867004326416,-0.022336393064737937,-0.075557778289518818,-0.083432793723485152,0.036513314850716669,0.066770139179396351,0.074831470345560133,-0.075579273532281777,-0.13505989425268533,0.0069515922121977242,0.1068487531402056,-0.0572956087590113,-0.0384215529781111,0.12009453066253599,-0.066837334938967943,0.0087992560776850026,-0.01500480361838023,-0.0057391720389561593,-0.047392375065999137,-0.019338993320257541,0.13199640866349896,0.0690428831101619,0.02645491858073518,-0.043030785649530147,0.077547169385572587,0.041480941300436273,-0.057429491840618636,-0.012713740385889114,0.0672694952417639,0.038293820952684833,0.04962730838274209,0.099559247222475458,0.031383359841302187,0.0036580300202365855,-0.073502690949853164,0.017573907796305861,0.11064429821241781,-0.032073614641550452,0.029337699383265352,-0.05394275064119719,-0.15263014291784691,0.14221716435058721,0.084954512489806316,-0.0099817271015483263],[0.10133046621625746,0.14214238670455862,-0.10275481979773905,0.11387434200664712,-0.09201901696730036,0.10930455167092314,-0.093152044488816324,0.019348710122065207,0.0066375708554352571,0.067680461358675989,-0.0045732807493560415,0.02165128523226981,-0.020702303401774834,0.010584850446846494,0.011855916804707141,-0.0932796707396778,0.095304330851223487,-0.054217516190094552,0.068266187191444935,0.05726722645516933,-0.078590883573905382,0.10893265115555037,-0.020448841872647918,-0.041487323155160488,-0.034681237570031234,0.091692283722989654,-0.023802957394907936,-0.11793571164569039,-0.056673960150861208,-0.0081365038198364225,-0.014728589147196155,0.10494484059115948,0.012339265564075353,0.0067776105795469528,-0.1685839179472845,-0.13989891223440323,0.0764968866076959,0.0467254161454813,-0.11565999056225336,0.13045936155396798,-0.10830549774524727,-0.075699475383932263,0.13923418280072167,-0.037683046347135513,0.10754060708884185,-0.043019206031032667,-0.036017179999623311,0.022831709322707137,0.045464119343112404,-0.024812891952782,0.031164829964770421,0.042144080983995094,-0.054515012660156022,0.059470294631385721,0.085871280371655645,0.017674359328901119,-0.12917541181356204,0.009996319457879637,0.036624352504270832,0.056084571000513964,-0.0400159444505541,-0.013264907464860034,-0.00797794920777548,-0.017346813528627381,0.0658563668428598,0.076501753395434441,-0.034102384248511884,-0.14953229370954208,0.020597816447534844,-0.03094462068312151,0.043879144135805473,0.095753473754958573,-0.049149398377285616,0.0565209465158403,-0.11299398991605518,0.015466524521991102,0.0075058955452260521,0.0552068423569861,0.050681240674635905,0.23411987199770462,0.0027479940141777576,-0.021679376692649646,0.023230644713594571,0.031847893844671807,-0.020369196080794495,0.009633006738234532,-0.11449770646979504,-0.11181026291950189,-0.040993603140144018,-0.041027223570175,-0.14278575016936623,0.018765189368023696,0.058346944073667827,-0.163989049343341,-0.085761678495698948,-0.0042978242803364463,0.00979110267769234,0.10956711992082464,-0.048429801930156148,-0.071400050066012688,0.0053596730019528768,-0.071696568819812151,-0.035708120647364144,-0.089451369013100468,-0.012420160997452833,-0.024464719619872052,0.01084337043334103,0.032208482657178079,0.10416519231627755,-0.01038398863121099,-0.0096571624965469983,-0.1460482761996873,0.0020216756107438107,-0.017235218323000165,-0.054636058561652538,0.055418893255085568,-0.027205502618772765,0.1624308660830231,-0.012745078288194076,-0.10782044294385014,-0.063681338784972952,-0.11190770103377415,-0.068645636436343638,-0.019562989255719723,0.0092188295786960767,-0.16049584667888583,-0.029601875228472827,0.089333372774503178,-0.029832711348508893,0.059833624404699651],[0.0011883351013664231,0.0673727360473347,0.0271077676139005,0.089247833878016422,0.0040321324162486951,0.087798827976039787,0.012365437612700423,0.16608336830313858,-0.014718853930289672,-0.055021579411857452,-0.053962788289065325,0.073753333703584709,0.033157884131041641,-0.054978155719195669,-0.030405618059334585,-0.099545641764300252,0.0071643178529962638,-0.045503635329287778,-0.011008368712035772,-0.002848550515627101,-0.0087026053022261976,-0.11124857720147231,-0.00381272356661423,0.057623777764158779,-0.043322527804174935,-0.031534203709663255,0.043808050456074242,0.10846453714389345,-7.1114668273987536E-05,-0.037874926158193219,0.11302812692970793,0.014093727931435058,-0.069006875288400771,0.015240413619051298,-0.049500267641377486,-0.056493994312830642,0.022540513229652219,-0.077659849086440649,0.0631472376459778,-0.080081295647044415,0.035068646549155646,-0.10524319464710216,0.025916419297750896,-0.0336399906983958,0.0004729088543637254,0.04335530607010879,-0.051445810846186629,0.014438281390847739,-0.041484174916782066,0.0030891455203635367,0.13812066985005395,0.089828984922654453,-0.10077892200201927,0.10952764475624356,-0.18055844797674331,-0.0870003028442016,-0.0054701819088949681,-0.045781772882029149,-0.037477923279192062,0.072672106780333118,-0.012550462647767754,-0.032161314028422643,0.10252921891465322,0.044900448698785268,0.031864806397887739,0.12863986061640509,0.033329053214233718,0.007544226409418541,-0.0711516334272854,0.15540450598690045,-0.022166625479085426,0.1339867453072689,-0.012925758259308855,0.036706943810703462,0.00515349524614856,0.063203161864343743,0.085986365349183511,-0.045642223210895651,0.0013289865619494623,0.0066270989872548852,0.01753895998682926,0.032946808085956368,-0.0284388254437945,0.12158104933847466,0.010182794046207809,0.03694247858693149,0.044369943262359768,0.10716360717456641,-0.10884746055013905,0.048181647216650116,0.029950437565527285,0.0015652863816898086,0.028301698520219076,0.00747480107377697,-0.015928059436665937,-0.045291956084950784,0.10435914736837935,0.02772318832251312,0.042125831385881711,-0.1755183350839071,0.06473301470230898,-0.063891655973326564,-0.010281823667286616,0.047801893476500941,0.086393207535058164,0.0090613852701783553,0.012813184070002511,0.055109396236771808,-0.019523183831332395,-0.015346070813328332,-0.054708633893634104,-0.13360046726816344,-0.012406793320990593,-0.04684016299620012,-0.0019990713274114515,0.0334404001531326,0.011434615199473749,0.077235990363745871,0.00052597946739565082,-8.9298924631856674E-05,-0.05577251506160949,0.11136157260224561,0.11814006164808535,-0.00094762114200570434,0.044133359779381466,0.030566243602947067,-0.010043926453306337,-0.15109960931713035,-0.11632076984653408,-0.0016696383741912045],[-0.059169743331335845,0.0059424251135909443,-0.071818231878541264,-0.080914501632863609,-0.016917951405201036,0.018569545974676603,-0.0004085953691469406,-0.10407167573272798,-0.091154447037107317,-0.10102054614889337,-0.039989722050678349,0.06716907378806547,0.002029079073827717,0.095980504690671431,0.0626051848637611,0.032776456789948651,-0.010120158710009703,0.046923590536317582,0.022585007962665805,0.11226187141540615,-0.029486754548081421,0.029854657747426322,-0.053139178334494705,-0.0028182848635099787,-0.11052772119772929,0.0843785856652243,-0.1065565195957337,0.11645926144715846,-0.0057156944936230759,-0.015962337525343966,0.031928252955000104,0.06902296157566995,-0.045163532932805658,-0.028662738222442537,-0.066730830532862356,0.073703572784863489,0.050504777582854446,0.031734310815824264,0.064758695399638341,-0.04692408576362031,-0.022988631904613546,-0.0771620118213609,0.046429984890038446,0.13750984107828418,-0.044290229523849672,0.001339542191612035,0.03775913951902625,0.12530012143906549,0.047488125199270412,0.058557424561669326,-0.12856630049454709,-0.048973845598318515,-0.015683054989079858,0.11313543670221159,-0.020170218066779117,-0.16427686705107589,-0.015798869246716259,-0.13971203382919165,-0.00762838297359158,0.10003868502922714,-0.09007090679015152,-0.0085299295253227162,-0.033048698342048,0.10637395730323584,0.011275731502597504,0.0079624098851067623,0.0057324204210694885,-0.006095415330050963,0.040220040575835128,-0.08113472575344767,0.0568262345039178,-0.055470713397292183,0.060489697832883729,0.030098843738330498,0.0093788917857422962,0.18764146926575345,-0.0792571492708206,-0.11690920749950831,-0.056076173724667472,-0.077190106723753649,-0.044117324519646312,-0.072388586667771135,0.069746725179746422,0.0019374062112535368,-0.048317093668445839,0.051474024269275782,0.041351418747869913,0.012782324420632098,0.10677288025565529,-0.029387623455926798,-0.05562261525434737,0.058413001629554692,-0.11965525534296652,-0.03571092956631533,0.052972987609331286,0.055666428714588212,-0.028967027039097464,-0.12392502555466729,0.038500935418612513,-0.0700824668459457,-0.010525344005405316,0.019986879553246625,0.05003115591282499,0.038199732175827027,0.003140068102382675,-0.071316259994581369,0.0039385942659154313,0.11429103820277418,0.036540580854535459,0.0037470820956730755,0.04165355355647047,0.024154622699703678,0.083571256881159559,-0.014419917778970948,-0.048353542362810129,0.017583447589664052,0.0084126461868037957,-0.087399607066098409,0.092033577217695908,0.092597629665548867,0.092933381094926409,-0.063770028891527455,-0.034035240444563263,-0.022008184996952562,0.093435278319503962,-0.0071447043888574462,0.026193867441990787,0.034977104464481774,0.0638733936076437,0.029988824643992797],[-0.037924998604641595,0.0063897731736093184,0.0651143539494912,0.10307348172167088,-0.14910917684840308,-0.019247615295980038,-0.063955117187213972,-0.095417454046444639,0.010942996346343973,-0.042734318012920547,-0.06429691331373677,-0.083779949692888975,0.089079475962637683,-0.047864820042417773,-0.12401086221825518,-0.0024063063268123458,-0.016148836082380658,-0.010699697859778621,-0.028865885114159964,0.09024191088578748,0.0089747178393088222,0.098060699745705526,-0.022523673664641933,-0.0013166760001139843,0.094340985712557016,0.048854580607431961,-0.069415720854914723,0.021838947724198466,0.062908492009761258,0.026139099957156051,-0.016563830141941693,-0.044648062727418857,0.074830498992717528,0.019511620959470469,-0.049551400877513446,0.040754816060327957,0.0260486582660296,0.026441398457385284,-0.13790475241801256,-0.03391047618194136,-0.039740950086136213,0.090043000145431415,-0.040135134942974396,0.064439896106869163,0.13804595135939454,-0.029662597538829934,0.0886794005986181,-0.067970511091019759,-0.090630893529300954,-0.028052315884292377,0.010240048416036483,0.064086724799435876,-0.054856176823806738,-0.073873289048758992,0.028166329683273032,0.0756043553643721,0.11244540801094012,0.027122107060470545,0.012763823514233405,0.0317618995708068,-0.04885534052751464,0.099144989778923817,0.0016114768097285777,-0.050946161266764864,0.10458024357769928,0.13704448102132941,0.064826654511509929,-0.073933862092126421,0.0039700122110000414,0.012516061734337438,0.013678859611675186,-0.018361667893388958,0.18157906807823526,0.098417212586701039,-0.064988533775759527,0.084671429346266841,0.040771367685187888,0.034475023988816085,-0.015925848501828578,0.033012869082749141,-0.042100976633409191,0.027740749350838083,0.029082758485692382,0.075771163120114365,-0.029358690775421626,0.048305463348805415,-0.0240214934328617,-0.063155718576529463,0.03482618181788686,-0.048696508510368039,-0.088301599382149612,0.046226144897391658,0.048896240737866255,0.14270617479914155,0.008635236510475288,-0.0019508214371716987,0.13019174768638014,-0.046530070361688249,0.0046728923180100208,-0.05341712244572544,0.0026163703691835919,-0.15765989681305109,-0.10960313194975933,0.031816489808616441,0.048963393706381669,0.021941621148704103,0.053401584643273395,0.047645150631107844,-0.095837892220785453,0.031195642926964317,0.12274709434618976,-0.00549054609827603,-0.069644739504710132,-0.0017697894900420969,0.012580528472193596,0.14115887482836484,-0.046464508511401853,0.012978026484276171,0.0047406724932537092,0.10376494810849558,-0.05083663433560439,0.035403544010565578,0.13218026830455645,-0.076887937599030953,0.04234239831709103,-0.12856962660663868,0.024488534195503391,-0.082970397079609209,0.020423535282476916,0.1602448762038845],[-0.058873321724417504,0.0068522767448102612,-0.11880465660669683,-0.10118061172755549,0.18898446178305114,-0.026953093194479839,-0.042256101943341721,0.064398286764267745,0.049384540962729234,-0.032216588127041416,-0.12781897976739015,-0.011182370313844239,-0.13649731412802885,-0.053591988537750088,0.026022740607214892,0.14808011248562536,-0.032839759950636573,-0.10939697064072691,-0.11084478149178083,-0.10834269709981181,-0.039105393986944209,-0.12779266186282512,0.0058241768608859766,0.032371126847652823,0.027160102644790917,-0.011828034778703627,-0.059895387530731772,0.012466015590331416,-0.11117536734693022,0.090280911818916523,0.057543612272799388,0.16656786648367555,-0.12113852254585734,0.029047287441947837,0.071289559912172326,-0.097435366428382617,-0.053796031140794384,0.050176817446614827,-0.016307488799119928,-0.011061820670476506,0.013448704421908974,-0.054346351074704778,0.0061954558061286342,-0.076899569222984951,-0.053688059201824109,0.15839331747104138,0.0073346978084983215,-0.14494109692032117,0.039674761426640427,0.052620188170980263,0.060911329442955207,0.062416448138082323,-0.10118320816187219,0.024164101130653769,0.066336661766382365,0.093405507293744361,0.036467227704472707,-0.15769667416791874,0.021808259878011427,0.072143790437774608,-0.054645753854677681,-0.036865842616857582,0.081954235712297513,0.015113602482357109,-0.087411116281188236,-0.022679565455676357,-0.051934536730352046,-0.030833700684666468,0.03788609010401061,-0.041290919154485822,0.054873737539761172,-0.045958834474031394,-0.044035423139100721,-0.11698180441078225,-0.044508267824324384,0.054918861590649778,-0.091414759331876663,-0.049616626267493115,-0.10182958273025869,0.055927433614406476,0.13607442520729624,-0.038890023016299631,0.0026563260546094178,-0.036137132399704452,-0.047908703186691125,-0.060120409511658056,0.050897020446417841,-0.10671618644116064,-0.09488416111659978,0.026313026084863616,0.054831501800155079,-0.02230675349974862,0.03081900556863575,-0.034689637291797568,0.000275064003356564,-0.037973961084299956,-0.00205974866182893,0.11452029729222969,-0.17645755516035813,0.0034773916212518931,0.052468078003282528,-0.028097406000409844,0.0092870519032461525,-0.051952979571960135,0.11063274259691,0.019703134278875135,-0.09890962143536923,-0.094234047878927654,-0.045980756968750085,-0.080361793225824651,0.050923784812024912,-0.13715258451960061,0.066800888028696659,0.097374536602798739,-0.048470105909721818,-0.047003235309035774,-0.036673642537123463,-0.061963726283678654,-0.022517812795080968,-0.038365508495561813,0.010938897070392507,0.01072251233237752,0.0706870154140949,0.0728726993042789,0.0668964974814248,0.047459995817843659,-0.04364691553221519,0.0254394537803078,-0.17228091380945654,-0.0088844617974409915],[-0.030571734530060669,-0.1760174633976799,0.071993413922910657,0.12603124093907672,0.042057176558973057,-0.030741536879195754,0.029735975513465195,0.14570055331991014,0.067122291956420554,0.050063078370587911,0.0024993756465605393,0.047203722373109616,-0.023396368625485928,0.093548717892146485,-0.010277584540575256,-0.035765348494324195,-0.084994484989877925,-0.08253678285991102,0.01891103364515484,0.13200187419569026,0.0095681021851287216,-0.092543543861408131,-0.017398655289727283,0.046768436370482551,-0.0331570037644417,