{"BatchSize":200,"SerializedLayers":[{"Type":3,"UnderlyingSerializedLayer":{"Bias":[0.0,0.0,0.0,0.0,0.0,0.0,0.0,0.0,0.0,0.0,0.0,0.0,0.0,0.0,0.0,0.0,0.0,0.0,0.0,0.0,0.0,0.0,0.0,0.0,0.0,0.0,0.0,0.0,0.0,0.0,0.0,0.0,0.0,0.0,0.0,0.0,0.0,0.0,0.0,0.0,0.0,0.0,0.0,0.0,0.0,0.0,0.0,0.0,0.0,0.0,0.0,0.0,0.0,0.0,0.0,0.0,0.0,0.0,0.0,0.0,0.0,0.0,0.0,0.0,0.0,0.0,0.0,0.0,0.0,0.0,0.0,0.0,0.0,0.0,0.0,0.0,0.0,0.0,0.0,0.0,0.0,0.0,0.0,0.0,0.0,0.0,0.0,0.0,0.0,0.0,0.0,0.0,0.0,0.0,0.0,0.0,0.0,0.0,0.0,0.0,0.0,0.0,0.0,0.0,0.0,0.0,0.0,0.0,0.0,0.0,0.0,0.0,0.0,0.0,0.0,0.0,0.0,0.0,0.0,0.0,0.0,0.0,0.0,0.0,0.0,0.0,0.0,0.0,0.0,0.0,0.0,0.0,0.0,0.0,0.0,0.0,0.0,0.0,0.0,0.0,0.0,0.0,0.0,0.0,0.0,0.0,0.0,0.0,0.0,0.0,0.0,0.0,0.0,0.0,0.0,0.0,0.0,0.0,0.0,0.0,0.0,0.0,0.0,0.0,0.0,0.0,0.0,0.0,0.0,0.0,0.0,0.0,0.0,0.0,0.0,0.0,0.0,0.0,0.0,0.0,0.0,0.0,0.0,0.0,0.0,0.0,0.0,0.0,0.0,0.0,0.0,0.0,0.0,0.0,0.0,0.0,0.0,0.0,0.0,0.0],"Weights":[[-0.39967682528863641,-0.16979505298919026,-0.078310385782385208,-0.24306960350343618,-0.34843589047593559,-0.47058135111301347,0.74171291902667991,0.075738783426503642,0.030899832732454429,0.2613638477021557,-0.13250790373015253,0.98766973465379015,0.24371219220343943,-0.24850753731637851,-0.54832158337608206,0.32404601629147,0.1031382200002344,-0.46129882491942586,-0.35533254573339879,-0.04989139329977918,0.026045855200460565,0.48475076349633317,-0.2976071746488364,0.15835551968020789,-0.20681923584046708,0.20662515303105777,0.18849634049630712,0.4637070833111383,-0.353847204653499,-0.18207092128940478,0.14510608651680071,-0.15109826965969184,0.26016041528764189,0.556758218357998,-0.079913078671056931,-0.045494730981001444,0.6216784311128688,0.054834170663596984,-0.744557130801861,0.044917274486073452,-0.57990605852113675,-0.0926212295592924,-0.048635790713183386,-0.38939751902349917,-0.18117127046485243,-0.14256284818057921,-0.065050475569985361,0.60525367000581676,-0.97499853248132218,0.30590858486794226,-0.3303802782391777,-0.76360851663087259,-0.19919173401344972,0.60894438714904942,-0.19163157479146642,-0.71688371808665552,-1.0401617280833786,0.087536160397358828,-0.79143259924100906,0.5854654198565844,-0.72963522165396433,-0.49455711373671818,-0.17703664830846463,0.15987678757606427,0.13336477277232797,0.32888233703697561,-0.28569370387239751,0.78676172072357087,0.531136254483554,0.3442535613522007,-0.31556362222760026,-0.0344649671730617,0.23800885303372921,0.039841124139020925,0.057653569379408381,-0.65008562459773789,0.21587068561840328,-0.54949592392661029,-0.22957809631845813,-0.38172027856814933,0.059813018548050295,-0.5783602063256954,0.2357114748913387,0.22698737441107583,0.1174351215354735,-1.0085286903160213,0.085128328708590939,-0.54925616892222318,-0.14440382735033924,-0.6931457137465501,-0.31175897251853085,-0.26158585347750829,-0.50370707592533381,0.17965120864988352,0.24841132239110214,-0.13383065047881571,-0.45942698219531414,-0.39297750999415088,0.65339703409308247,0.22172834411375283,-0.46555767282445548,-0.21637625136260116,0.31431793023752097,-0.16350497047385521,0.21756266438433364,0.66425425677197325,0.033418955676512048,0.57820589440345349,0.477253546470876,-0.59690022852710889,0.64136782793380476,0.4138654771333905,0.19547495991661124,0.13707769012855672,-0.34608735805241408,0.10582659090200718,-0.05945239673503766,0.3433361023318458,-0.10519044184142899,0.16109221673731333,-0.31507316997771784,0.51553186959873409,0.20417002655521258,-0.26491498493973847,-0.06794910112216565,-0.10857090830380455,-0.22385547647510445,0.4641100433485561,-0.0643945121065276,-0.83805468384578619,-0.39337455632158114,0.528503885774344,-0.372254949706945,-0.0586274956760365,-0.12987874848919809,0.74961668306459961,-0.40510713079892774,-0.25458192506605454,0.63983629934419417,-0.0073598891694841954,0.082839010466168428,-0.19801223065019535,-0.42307795175277968,-0.29084388356168683,0.47550998007650891,0.47838893206038047,0.050979914986418275,-0.4286766477756388,-0.17935196939816597,0.348269928316206,0.65137217281057447,-0.34259392223039492,0.53358673343684271,0.306134264083795,-0.9377917873435937,-0.33288950411627211,-0.21629258589332417,0.153982465548267,0.656669802266293,-0.33686577860852046,0.16515375844855809,-0.22730907123226857,0.0068300079893148184,-0.96108384124594026,0.152640012917043,-0.30358063777169841,-0.412693916420963,-0.11777004852774019,0.23701036259005387,-0.63354654335778515,0.037608636136947475,-0.46117995248836463,-0.658328963949556,0.62491224015009961,-0.091481424878275666,0.11367497594213877,-0.16832887079725759,0.36044872832648878,-0.2099303763221512,-0.24197524620832636,-0.058188644811442466,0.30993132585495914,-0.044558884123158983,-0.31130328761568371,0.1192947899821178,0.10147718410974808,-0.64389357780111434,-0.24336787675297938,-0.1370524186568669,-0.4436468738475301,0.12432731252695582,-0.19776065012137456,0.028213339751115316,0.077490271648802692,-0.22870648510626959,-0.94811773234556307,-0.14101859883354159,-0.4023300318618277,0.060446797977161654,-0.15161826899818962],[-0.35108941142937544,-0.50354814561584826,0.24228734971040905,0.15794657075509874,0.58069162354163839,0.034916065774891536,-0.0829193460731278,0.20318415078691268,0.48058258039622986,0.1620229569319751,-0.27552143569854937,0.34875651092562954,0.63286715208563427,-0.0061179269429091371,-0.3034781417229051,-0.72703890205489563,0.78483830285710909,0.25205177593420947,0.38240220367630218,-0.67219775507028157,0.035178496658130949,0.35294993264430691,-0.52741564714815437,0.44095230629366039,-0.33506631280649463,-0.323906739104327,0.46560567622150539,-0.028763342974835304,0.35923954980536849,-0.54211348437030749,-0.47842970494128872,0.021603740116866502,-0.36854484924717767,-0.27157019691418077,-0.87292442176640339,0.11919749585387604,0.59598661077468928,0.16176485772014038,-0.83592078142731641,-0.48564888388203387,-0.39067637854048953,-0.28909517653420286,0.025836885259758167,0.16439366816136919,0.30998268418302033,-0.49112938291227531,0.12519668693234975,0.003993679954796792,-0.10071110270991235,0.60880653311790434,-0.44029335891682714,0.81147989143348687,0.12591670768987037,0.091508646561610577,-0.20036720941293462,-0.012501163610408709,-0.41211274337990478,1.0819160297844503,0.087657003562948,-0.078605074128307889,-0.037559028653085212,-0.15438735102615095,0.12200392882918136,-0.18380106060638057,0.27166704428252497,0.10987572316451426,-0.24355203556991803,-0.034934392940233434,0.1192852708722259,-0.27584866777263878,-0.11308761720482277,0.19317485765454551,0.35320214586383103,-0.28229908762544348,-0.4798861596461077,-0.49614654978504158,-0.18279115870979726,-0.059295587663870608,0.2277700605070638,-0.48793385637305647,-0.37481798075352507,0.38824217667441629,0.19947174871724926,0.25368470109845742,0.56743253342029687,0.156224736033396,-0.1625207812720651,0.66152718540439814,-0.13092539299240519,0.049970845904851187,-0.50827704989502176,0.050685385944056381,-0.5530518932282541,0.3919619848813678,0.0523297217732639,0.37479568470639046,0.23814680158776841,0.28999353699657271,-0.21960996338553576,-0.84413861489098008,0.14700000651068898,-0.052186543030952687,0.29466997584755378,0.21945501186339089,0.071383702196277085,0.33238953559455142,0.22597631827722681,0.20178018989049354,-0.012899107192126343,-1.0464719625223937,0.23936870873817473,-0.1872142292106049,-0.64604708999492677,-0.40322745304534191,0.059077970006830682,0.71761894371363877,-0.11998095489113837,-0.37143019427366458,-0.86052557607406666,0.076659920057119635,0.079906559902098134,-0.43243564078798863,0.15386424556565645,-0.22864082245241496,-0.378197235894329,-0.31804868586731233,0.034198021421216154,0.60776786966378349,-0.41614308898067665,0.60709187926829178,0.090560590946936775,0.2502991156555775,0.18677596923590883,-0.30502559578757821,0.044366247586848935,0.31795384457786829,0.48287380678753777,-0.025740063678848395,-0.1694185581913174,0.86432206044627724,0.52599090660586956,-0.27133174610543087,-0.81219630507854612,0.27269391392105152,-0.026345877052371423,0.48400589791890752,-0.1171998133280487,-0.30418382254192738,-0.22789396789108926,0.46452170628952344,-0.064032942252455066,0.48171544752380668,0.076174982329769686,0.45969536458208926,-0.18623364973033102,-0.081420349279175,0.26321842927784783,-0.016539332949387586,0.14623709390651279,-0.28420362185231268,0.13143170658817749,0.042116904344134634,0.00729616086083142,-0.52968496710368418,-0.088641802381521542,-0.0408367114907801,-0.30577943419073206,-0.17602656172985468,-0.1332991520488058,0.88621842460340283,0.22565338387777367,0.48438310884937263,0.15754960633504286,0.69944175216745486,-0.71035371320486418,-0.12121190785502423,-0.18326263028768805,-0.16035555265932061,-0.014471957133177985,0.014473805329031494,0.17428137371094443,0.0071798554721807326,-0.20723303967441153,0.40914190575228715,0.01085330810582294,0.29328059969818338,0.081449514701340514,-0.011923899567698189,-0.13802539292807156,0.06910246223669067,-0.67317806330196506,0.2601992413439535,0.16401678941626688,-0.3433161922272141,0.37718810988512375,0.037854821671046875,0.38175439599515676,-0.065258321400704478,-0.10489001588837985,-0.45246980724174068],[-0.14280078693096768,0.12925202997408711,-0.077122134337108891,-0.3468111571959655,-0.27253108849572361,-0.44729401613315134,-0.69460878642291846,0.0849052509435314,-0.52864746615823721,-0.44148279752290503,0.19215148361694592,-0.48709812692928844,0.39553813396128013,-0.031168047844424698,-0.25600711663735043,-0.0092292319967948854,0.053317848129786759,0.067714984557010124,0.750787899508621,-0.18773083845723559,-0.35981448060372145,-0.36587057079908103,0.15712720039848305,0.507711040678005,0.496926026462561,0.066808728387237684,-0.55841994881500767,-0.13337354369717874,0.18487188351289963,0.11087945983580649,-0.08498017751925066,0.61775294149614757,0.19085130877425111,0.087351446832484927,0.19531328134243783,0.5364369414256831,-0.33491443323864112,-0.64835086046770363,-0.0093392600805363834,0.1742120046630648,0.13367409924589765,0.60091430704793158,-0.017515716252480173,-0.16466392691299225,-0.14283954985999794,0.33512533281318091,-0.17642895304760564,-0.26684937204631376,-0.21320741873471621,0.026552481842850525,0.21170364828614194,-0.6649378244330808,-0.19316125617722793,0.25038340419511113,0.062152420094723541,-0.17531323022567105,-0.78921373124745287,0.10422183759434875,0.13444364390791286,-0.3535279775057662,0.72163768741420065,0.018971537032504586,-0.16946690350609253,-0.35457141578154239,-0.43471163136042706,0.22786080039544523,0.0792856813628995,0.092516693685130449,-0.14292564191631657,-0.23191292941315111,-0.10109137870423336,-1.1592476649934944,0.011481546795005515,-0.14313753757669898,0.32447063410291044,-0.63519367868664212,-0.16082231257083682,0.46809611792549072,0.31148097793281859,-0.27867276478033892,0.25597011174086776,0.060509710347520791,-0.042823110006062343,-0.12022805123886801,-0.053325852464637,0.14781275408344383,0.052607024208541617,0.053482770381152157,-0.099117026943369019,0.093609733004403561,0.23790179751558785,-0.3190760528972183,0.028737897976857434,-0.31702597139050548,0.18340580709752874,0.47253012639680464,0.23848429334976565,0.43951110020460876,-0.42069613331092837,0.23533464852070241,0.63649607093686966,0.17884741632926904,-0.92393448348305429,0.8238803726885281,-0.50858869931976747,0.25004858383894557,0.016582217013380481,-0.31030876051045686,0.021501489590875816,-0.24672748143039583,-0.31299598399012291,0.26400187009934467,0.4268217219029235,-0.10797596215957851,-0.13931230783895879,-0.075073940105781875,-1.0490431048125208,0.3771774626331551,-0.57407051087677641,0.020914885589275366,-0.47247512381546181,-0.56668280981212171,0.0018276689645485456,-0.27852288670779024,0.09945846646813708,0.24038810643787095,0.4800097843749967,0.0845759364902586,0.51680909598944857,-0.12165180282175489,-0.8540283385849311,0.5479425023121467,0.075890579570523337,-0.18512883657013157,-0.43184432295710568,0.72380565698167554,0.7577493598921401,0.15920738100513771,0.7448905844357786,-0.1904537010705501,-0.37903671031466518,-0.10040647295223322,-0.44326743214633807,0.44192643854433239,0.095127434660275331,0.57019181095116778,0.53245017507740655,0.26545203295445241,-0.10124393639188979,0.10119738954005814,0.17398451615861021,-0.1685829894785538,-0.20098809721075672,-0.51769509733430152,-0.64810772592256694,0.38357346304120454,0.064859087522151262,0.48697342341788646,-0.0785813959078884,-0.36078382653108954,0.10931723988322835,0.1612506317874336,0.24309156850035549,-0.30032678723974354,0.76077889829641054,0.20501973777114455,-0.020889883284110039,-0.18873284489694894,0.18207766379429843,-0.069935485730434246,0.24870680021034225,-0.01449456013859356,-0.20460059508177625,-0.026754236587223319,0.28948624762215769,-0.32399699105024354,0.16979370585833598,0.48847034386471849,0.067811589244128542,0.13861678041016831,0.0288403288567972,-0.73418643005107753,-0.024738461353219835,-0.062051197252824319,0.025250770425228188,-0.21874853985920251,0.066791944719300056,-0.077719027476010533,0.20814932319846732,-0.20217024988982921,-0.45475143135013668,0.0677974909380258,0.24171404329951887,-0.38478856627464286,-0.32306662371282252,0.89278252469896024,-0.26402145238287777,0.35640521364988581,0.47418042070603439,0.60466185662838257],[0.18697768488488809,-0.27967270249774606,0.33961625908933174,0.354470189346632,0.034445629908752946,-0.20774239823723442,0.4929529302778991,0.03748663534601266,-0.11351342933246855,0.20732520054335546,0.12611616592905,0.0065377285546214248,-0.14420675128083982,-0.04014997345894715,-0.21832427696912066,-0.20763271030304548,0.25527709803935877,-0.060522521814921522,0.6395862189302417,-0.023595617793476669,0.10406183116905224,-0.071908547321160254,0.3452124546407086,0.42093672065962545,0.062601990430158475,0.64787710417414068,-0.29102449899432048,-0.38407384312880954,-0.65224066292354155,0.089793741284275627,-0.427588466932019,-0.70558605023684717,0.41501763660639274,-0.53124218750359486,-0.54506963425835075,0.14345359390566173,0.44974093816194766,-0.92474621868431861,0.18314530267845439,-0.23273540780853072,-0.44228478618858275,-0.45783062268207697,0.1308009097998418,0.66681089299058516,0.29142697996297046,0.24255682731241496,0.0768158254150309,-0.30486170527833106,0.34462703540808048,0.19649281251186004,-0.0054396589390917566,-0.2202035346511316,-0.72226983436380188,-0.43444675695956109,-0.3293152489356963,0.677702993574221,0.3215267964207752,0.26298310564809341,-0.12516803452970834,0.064965871201539724,-0.15366857396713468,-0.67609569525445523,-0.18133617583819225,-0.27920636042381042,-0.04976512599246237,-0.017130494813244888,-0.16020889195748025,-0.11042050199867236,0.80104619845741876,-0.21578450662829699,0.037820175815053446,0.87489772135412835,0.15411893102727695,-0.36462409418725716,0.52027341274469707,0.37380708768236537,-0.019362979957763708,0.16507322402225805,0.36066424341345188,0.17066920934236396,-0.14937007169363087,-0.7383782551842003,-0.80237823214152182,0.16806359773211457,-0.77424284576740132,-0.06037851752198619,-0.15887725860658114,-0.30037802152741794,-0.68572555630143062,0.11960598948658295,0.13749953350727392,-0.2236844919051548,-0.2118307227180912,0.18924392956768124,0.12835313785340335,0.51443968232094184,0.49390612126999733,0.51052686713726469,-0.21292237636992872,0.19028939198008474,0.30272656527062458,0.01242913449410654,0.5757462228648772,0.26623660739525806,0.78777255717148054,-0.14700655014475492,0.46904921178670805,0.96364485829718971,-0.15474577320418437,0.1016161549687248,0.23271804026477061,-0.365272552816669,-0.12401286544669982,-0.1037030192666699,0.22037669966025378,-0.14774677562446381,-0.025790674577364014,0.38456045237368769,-0.0708159115617401,0.3500373091100108,0.13941796727844261,0.10841623905723934,-0.094103133742338946,0.078288596787025475,-0.11855045927597875,0.38955951763775343,-0.028846955795541317,-0.31474897263621165,0.59395454988073082,-0.22862916158047364,0.6430082961241731,0.14433724752320296,0.35130895060926148,0.10997134474708073,0.18554867671318162,0.21797902322186949,0.509283125382599,0.37805367922986138,0.4670918613330603,0.3430491197331848,-0.010490378322445218,0.15020643756286398,0.21020435295452267,-0.87379555169100542,0.18740467093941926,0.30252129985402226,-0.71412123831641883,-0.77116369827694853,0.070783892407085491,-0.4330108507785555,-0.64252026228359693,0.21750118888499442,-0.0502769604287604,-0.27934392644300254,-0.12710377882511703,0.088169089160571465,0.19719355269040562,0.24333356958759378,-0.13669504672429347,0.0092552305837328829,0.20943080127715796,-0.47818828616989817,0.17803305563927641,0.26386496601209153,0.40582385905139012,-0.11543346301309042,0.070945801623511,-0.081036482541349292,-0.40619787301202193,0.6566401120119596,0.099521703460699565,0.36385690373026958,-0.25606686142626905,0.036993911999300549,0.11381525933179565,-0.15185656499174141,-0.5077315962626876,0.34149277623615842,-0.25066513612311825,-1.0793709411883408,0.16023097096450298,0.11756003247457082,-0.33002223322081065,0.12608606344767012,-0.39827124600430452,0.7790056418659167,-0.20817846697130876,0.22204343543649288,-0.553680964833815,-0.37750515058714496,0.16579668171685041,-0.072217223103996864,-0.014955240609715655,-0.00104883820524676,-0.36638112526257072,0.12500241894726716,-0.25944066718637077,0.60065039645985074,0.033235574389695904,0.88236310700990439],[0.0015766428363719043,0.6069066926372656,-0.33677024510213721,0.39517402422959741,0.12193821741734011,0.52133271929811953,-0.072470539446346377,0.20670786375320177,0.028657633588429623,0.33000955791772446,-0.11194953595148874,0.39368346028069634,-0.55487906671248233,-0.21537683009041958,-0.2447224453495685,-0.15090922498630624,-0.29306426544524017,0.67109787323306058,0.56842366977961234,-0.615753850152238,-0.80917450678972247,-0.44334098586815446,-0.41431980233668964,-0.31361709698720436,-0.13374780085077753,-0.75653159828510541,-0.094112638035547452,0.80415847192850476,0.36632184198853263,-0.32649164295027305,0.39076937675305,-0.34541596826456472,0.47946822137027068,0.6712116131896434,0.58555589146714626,0.10219933198881823,0.18614573674106116,0.034914691904519513,0.22772157403381549,0.012275945544675112,-0.93506464430092662,0.1239402996143804,0.033469130934662437,-0.296005025480538,-0.31887599034301833,0.39277975329321885,-0.75708882843958192,0.30530672905150369,0.038839281874393304,0.4491925516012556,0.33654001201274886,0.5218343831533846,0.95396907337768722,-0.46688761568850268,-0.11013084319686274,0.63324513988852826,-0.01085002855452894,-0.33672013149453167,-0.48557767164156646,-0.076446412739739858,0.36791818005348648,-0.4657101699579862,0.032584868883252287,-0.53181780794832834,-0.28081041591338146,0.35124452165622289,0.55014649548987993,0.13013366132326479,-0.53831312168765166,0.51363688448307954,0.21112485155602284,-0.22313597471790897,0.51647014101399047,-0.10815898784145883,-0.38613601449276264,0.24580199529143454,-0.21841137792188287,0.56204729610252746,-0.42282561428200255,-0.20339550322600922,0.47850141023030351,0.30744634833993628,0.11955837420644587,0.031410954038456035,-0.17165729937042396,0.28042385594084107,-0.91046510949476656,0.43493628451343863,-0.49348843277369153,-0.42067179814891437,0.0081057967278720163,0.013072201956579189,0.023132420892875042,0.67773230249016359,-0.38897013763130533,-0.25394848558151822,-0.21096591717630703,0.042764932928067531,0.091741651329199439,-0.098185894956205985,0.0893273305598091,-0.58165558022714325,0.97371847149967528,0.11608982927003822,0.27087426543826437,-0.42855280856814237,0.29353605894072071,0.57357729934068813,-0.16337252768341548,-0.0899055343255898,0.783385643935195,-0.44699207483075409,0.20158789095499916,-0.12892179127783549,-0.571856489625779,0.25905831900209331,-0.78083744560193435,-0.41730892873478664,-0.71705979933815112,0.048620836531218868,-0.51109389652087445,0.069612077870181713,0.36679562317821973,-0.21890341544943021,-0.38891772929360585,-0.31508914596669607,-0.68517550480350686,-0.21097555871581603,-0.048409445935876455,0.04376065516908053,0.20555009239402428,0.11733600578583577,-0.4290324824851568,-0.29899853190258247,0.11994390495382969,0.21090612604611522,1.0166372479295616,-0.36179610762728653,0.25093979348703493,-0.55309312492582119,0.099514312177015937,-0.4351872666701202,-0.28098650826577987,0.48417493019110275,0.50798455222261518,-0.015755012697111864,0.085022225997809189,0.098339483866761279,-0.17556722046270676,-0.30054894445682273,0.27539681638356456,0.60243682887005945,-0.22545205034441282,0.42350513445467008,-0.079228227934641529,-0.65456195004345863,0.5054674197086364,0.21771874213159428,0.15025137240774431,-0.066519273761541389,-0.77165445392461607,0.56632218638586984,0.370331030784288,0.49220017136058541,-0.41780786388400643,0.16893460114565773,-0.27131802798242061,-0.4040712635059569,0.10300161695979876,-0.35534807116878864,0.067898358789722724,-1.0860815417169021,-0.53167880211725893,-0.039499061878273747,0.11863923308132962,0.099730375346041386,0.30441629828187405,-0.29974434071405021,0.22982607206274039,0.12712902762937475,-0.31298901718804195,0.48461331824667131,-0.038599366509601017,0.032914929423824082,0.4585671667995454,0.2879432868665131,-0.21508764177962561,-0.13749074265048636,-0.49588401331876436,0.020939788168260653,-0.359515565213978,0.012153344267984657,0.13734734891673256,0.23001323101106258,0.554472956228306,-0.2762538782835936,0.40488366362558065,-0.080429024812329011,-0.558814326742441,0.13551718679550404],[-0.32779587578252867,0.10966631547479916,-0.13951227591559126,-0.2890387064971881,0.048754562817180595,0.72369818687100929,-1.1153901993955615,-0.1465509296896772,0.085432613392954937,-0.26692489241226858,0.29169757581001665,-0.51531193536292486,0.18492338438940534,-0.27114143178123068,-0.24778774165383888,-0.40168684315181169,0.22026994799914787,-0.24013191141097998,-0.33786012986564939,-0.39042994465389558,0.37398079815498375,0.76107641452819175,0.41788583299542803,-0.076839021019776979,-0.12573727953531327,-0.033566207323792868,-0.016452865571670607,-0.57215605329100994,0.57399602071630607,0.72112912963977482,0.11719766615600206,-0.20935184325372902,0.21571430817942497,0.10947412500078443,0.58193983213257328,0.34279755913824378,-0.033470236725888586,0.21026027738791692,0.33290005209912354,0.52313543741499491,0.675106389417206,0.43876815656705487,0.0250825747027519,-0.20048199871523684,-0.49998938837718043,-0.45756646410173896,-0.20143816710922094,-0.91922993027924982,0.0093869777709201675,-0.19000769623197189,0.18245617899190589,0.31729314253836605,0.052227349135059664,0.18399190947822564,0.075351728038890356,-0.43864619889262169,-0.48595799143635621,-0.012470965391801373,0.63763037103200826,0.43883563395823844,-0.054805838924968209,-0.542977542386796,0.098906209630253122,-0.23290982893279694,0.38352452212690763,0.26794932808083838,-0.05048054725924804,-0.2060250940429911,-0.70531687009216326,0.0044018338819018,0.52714836510312035,-0.06237277103290869,-0.532281196065676,0.16604418160425016,0.27953308689873485,-0.36771973017703996,-0.34109649208980697,-0.14247020602686927,0.41849355323570031,0.088755315282263866,0.86828346919745425,0.43455253054602921,0.22783362476195709,0.058339864923296104,0.1314347424892337,0.018009961381143635,-0.0024905319203501006,-0.12286547464302357,-0.35552610684633718,0.065566971931866558,-0.718445852914622,0.16449646127339704,-0.28395620426034074,0.5056917013045179,-0.14501918699021857,0.26101795009279621,-0.12922377176490579,-0.159848383193509,0.00047611170432811036,0.17733944224748838,-0.296345366757706,-0.89508236829534471,0.3701534983477332,0.13645222550218283,0.15597468826963273,0.27449668689418827,0.32675122095652981,0.30668185499810274,0.28686521435564755,0.12532417811493815,-0.25807717145330483,0.2668635051553111,0.74090643123694322,-0.1104441800764935,-0.3005761814878869,0.011847632320334688,0.50306345298795085,0.5041835779343028,-0.36645703877998159,-0.50443046648144774,0.24421315888202194,0.28051033908288847,0.41967171124086911,0.39842342199710057,0.11826851051321577,0.14562768890697345,-0.370244330571585,0.0709464092495037,0.14127373334893414,0.586483477240721,-0.070369568081723663,-0.085882919418720047,-0.0618430319169528,0.48471229680172556,-0.095120501677652125,0.20721853148417954,0.527427659218039,-0.075744311248309215,0.75385741760382752,-0.40328100315062987,0.23716542459607262,0.33382516963145253,-0.462467416450496,0.707255141680447,0.14895004629329697,0.79570462342287762,0.08036290318372856,0.10806617484581288,0.59156637145696633,0.71704955521652991,0.15936388396004472,0.32260271866445323,0.14130791728498737,0.10232995179246777,0.025412901587454111,0.6046770574025232,-0.30592551234439275,0.21615548240175711,0.58906284414566068,-0.44934272569306877,-0.48298894186181912,0.13465648866067187,-0.64484871761656926,0.57171039971983728,-0.52558959304076436,0.31594566029086052,0.55605058641212868,0.036594347895093172,0.074287584999928324,-0.3158259117019056,-0.41790464322834892,-0.46865365582309443,0.23770346816124388,-0.41120208418358173,-0.21996460171221291,0.13937778720116784,-0.12804272552131629,0.070697673563769547,0.75908814733731267,-0.11579811279754018,0.3815965355899551,-0.75428054816879564,0.012203926513528272,-0.13513630802834545,0.71213650743528545,0.16708345049101239,-0.170810109817616,-0.24989851234100835,-0.21453677293904988,0.40433944533686694,0.56511344601227276,0.5939931617586609,0.49649127033515744,-0.47298715923888895,0.28552605306574069,-0.020889095808668327,-0.96615951744634687,-0.40939713645100134,0.4281604991053482,-0.31416169407289957],[0.32847084600393323,-0.03105045301627871,0.22473060027447725,-0.18949185414542671,0.062939378021083389,-0.42733336284307843,0.029752087205781333,0.027472870258797858,0.27775662979576277,0.30991773592103672,-0.33511501661472087,0.30118592438517489,-0.61435866596766919,-0.2838904699096067,-0.0077868018336667219,0.41476514812614118,-0.423274617778168,0.15589912580811494,-0.39038064543207474,0.28836309640088914,-0.26798277480199734,-0.32921755366785455,0.47585058164056854,0.37334614317442166,-0.14319361970804842,-0.34596329357744365,-0.3604723778734199,-0.79090556121850875,-0.64274857830155,0.46595999549843564,0.035790153752298007,-0.07097369025077159,0.23437821877770809,-0.14851191429456939,0.15633314092840209,0.81619978675636751,0.493184519220698,-0.69491239518454,-0.12540995619832487,0.027084397122231908,-0.48882320438556465,-0.39500741424065167,0.42805453013473121,-0.3791574596227506,0.17428282020083141,-0.15297558057869465,0.38094354454912938,0.048061975940628172,0.84533003768179249,-0.58418295344109494,0.1597126075195533,0.337089747090366,-0.12534135177112754,-0.1078570035348171,-0.99333805012399712,0.29688679139382662,-0.53142530756996187,0.1471710176246997,0.27775896001888978,0.25960017810096181,-0.0070821119883468934,0.36883220463418259,0.39946573893797782,0.27741562916593165,0.13666686946277928,-0.53427059386014286,-0.069723463062056082,0.44463111647508086,0.27837172584210074,0.34452397782925531,-0.59403789618947012,-0.22406878524097335,-0.31462429706533285,0.57572646223531221,0.36680534640542561,-0.059212056325466889,0.146929170863846,0.069506308829818952,-0.24010190019904262,0.19508894813444883,-0.39754377940261437,0.051977802451001955,-0.03022053922819121,0.32621187688946363,-0.2397466191779534,-0.32086746766554658,0.48856795361759575,0.61947823910797351,0.080595794676777868,0.41938321930108063,-0.049383482226387054,0.6052820077961919,0.053840555408735849,0.57748997414024128,-0.80768477995332677,0.4604644223566261,-1.1518255061235394,0.045117223697052483,-0.18287282136057612,0.031984897076255354,-0.28850754378141941,-0.27571457406795968,-0.28298716543040975,0.27930124779560705,0.11223845364189035,-0.17435260027326174,-0.40844453792226293,0.65988867767796633,-0.92135366465327984,0.32603431387975479,0.1759441205005732,0.31045624635955849,0.013616414445614703,0.37091194630627261,0.00391930049801276,0.31093672296275354,-0.085992690892143911,0.16711596691626152,-0.26442852948555529,-0.019472307034572662,0.38679126383428358,-0.2607335268413854,-0.013116274260884443,0.33706281623503909,0.12774231982973369,-0.11436828419129122,0.050238493835625446,0.42416623539125292,0.3949477534181986,0.35072367081860328,-0.293134113698211,-0.0244379327431611,0.42788385247232169,0.61650159743777411,-0.37591897055420059,-0.30013864806208607,-0.91189327219289851,-0.28830225264608611,0.64583987527812958,0.0059367182807934533,-0.42858794268696343,0.52537105896344516,-0.18254345447762999,-0.39836897148111039,0.035528236313782387,-0.13579164730847168,0.21851110718243808,-0.031886614478700628,0.1044265988141761,-0.081591618242483982,-0.29188132265658279,-0.19456849700697368,-0.38459318200954468,0.56548744179136279,-0.29690770868240962,-0.18412271611661052,0.32275560301588196,-0.087280035102326972,-0.0804098966155409,0.76218438547455225,-0.33195745176193553,-0.15018034834422964,0.58918842513297531,-0.71827870710650854,0.73642086643306492,0.051872548862281265,0.21577978649900156,0.13423217426158618,-0.31945116364580567,0.23038051052239505,-0.5501107031940059,0.41662279509412908,0.740305434366532,0.036599735847117947,0.001568816081120909,0.26388293293596693,-0.037463795312219557,-0.10075679517515246,-0.26062418008530441,-0.73655756038181552,-0.2426430832328314,0.111246592378942,-0.12761991168078116,0.24703450647613429,0.76013466846005984,-0.81697438422278923,-0.53524762737099951,0.24541100549482611,0.2751235326534609,0.25512324178300594,0.13269372093518389,0.20023401440644739,-0.21610594277034381,-0.37915415709807021,-0.68928428640070394,0.48165554768288382,-0.32156494508609157,0.6451642882962948,0.18216444096251747,-0.4187093972938235]],"ActivatorType":4,"GradientAdjustmentParameters":{"Type":2,"LearningRate":0.1,"Momentum":0.5},"Type":0},"PenaltyCoefficient":0.1},{"Type":3,"UnderlyingSerializedLayer":{"Bias":[0.0,0.0,0.0,0.0,0.0,0.0,0.0,0.0,0.0,0.0,0.0,0.0,0.0,0.0,0.0,0.0,0.0,0.0,0.0,0.0,0.0,0.0,0.0,0.0,0.0,0.0,0.0,0.0,0.0,0.0,0.0,0.0,0.0,0.0,0.0,0.0,0.0,0.0,0.0,0.0,0.0,0.0,0.0,0.0,0.0,0.0,0.0,0.0,0.0,0.0,0.0,0.0,0.0,0.0,0.0,0.0,0.0,0.0,0.0,0.0,0.0,0.0,0.0,0.0,0.0,0.0,0.0,0.0,0.0,0.0,0.0,0.0,0.0,0.0,0.0,0.0,0.0,0.0,0.0,0.0,0.0,0.0,0.0,0.0,0.0,0.0,0.0,0.0,0.0,0.0,0.0,0.0,0.0,0.0,0.0,0.0,0.0,0.0,0.0,0.0,0.0,0.0,0.0,0.0,0.0,0.0,0.0,0.0,0.0,0.0,0.0,0.0,0.0,0.0,0.0,0.0,0.0,0.0,0.0,0.0,0.0,0.0,0.0,0.0,0.0,0.0,0.0,0.0,0.0,0.0],"Weights":[[0.010843530284548921,0.029657935271595624,0.020677108327667476,-0.10229041564284068,-0.027039800383686485,-0.082951812318317469,-0.055828860194437141,-0.075463078324227661,-0.029716720205086034,0.037272007801357511,0.08111234753329799,-0.126207947117954,-0.040682241872062062,-0.11023043066617204,-0.072840203916590629,0.025307830496760487,0.08601493097641906,0.023019459463676235,-0.026017271090161886,-0.0087382287267564474,0.018048732085297888,0.095261033514455765,-0.074995839576445122,0.037704855566723004,0.022633151975614479,0.026026387819722836,0.14992156872440421,0.051785068320706881,0.12284504552143705,-0.045102200637822304,0.16714873001270883,0.064715464033898371,0.13838406795696354,0.010845419987363613,-0.094888792455020979,-0.070700879468412331,0.13492641639560071,-0.092542774483165516,-0.052722878472928662,-0.096281149119858425,-0.045415849141825136,0.015323152855309028,-0.011661327693780971,0.019103052428902919,-0.063900365669704765,0.0889991509732227,0.13209104504952585,0.032408878189022806,0.0063629356912544592,-0.1709680995986658,-0.027062000337115786,0.0073427121916262109,-0.0047668295073456796,-0.099185176704486,0.094424974771861472,-0.062800090598210831,0.067775089622653772,0.013002034073483614,0.041015098018753957,-0.0670678555115516,-0.014888596104573276,0.012827059432296778,-0.12651675000753784,-0.00084028355561374657,-0.095528323952683653,-0.038173542765015583,0.11521424479555402,-0.071377836958058216,0.029740585766615368,-0.041348839428761851,-0.092143606619852311,0.014225497276893878,-0.077982618070417842,-0.14050918949343316,-0.0099252267168935312,0.0053649555625135447,-0.013220417160509626,-0.024575177434636067,-0.043786688050781973,0.097782795628862731,0.11528471483997291,0.043029363185482,-0.062141045561578886,0.018006496564266356,-0.004069452794692693,0.020332830949744956,0.027284377552289015,-0.22792750202257547,-0.15913194990079929,0.05095667177574513,-0.11661549885625477,-0.082553673794237309,0.039344597955012675,0.067052665222070915,0.023820792543019179,0.021953481682060027,-0.11321524693953684,-0.073669588616240775,0.1102534016613123,-0.002071077433444919,0.054643338356798084,-0.10726110333042885,0.060015355741859025,0.089884573198536308,-0.03225992210328843,0.011793909977988813,-0.045711270384987547,0.049484694411096215,-0.0065225823934674243,-0.047199225647763951,0.00568979350474744,-0.077340970839876788,-0.12977159712337694,0.13301317578126384,0.029653607142530583,-0.0891303674692418,-0.059232446239801867,0.1321808093555133,0.026529777242945959,-0.1023317789279193,-0.017962168044125152,0.017422780177648502,0.054639833213256585,0.023741391762357421,-0.028693723043576529,-0.067825900712912252,-0.05815532380906667,0.073780314706107561,-0.031456144282562638,-0.065559824794818686],[0.042013561812833666,-0.036892673790701595,0.059479979581754765,-0.12480227320611832,0.033597612198957794,0.010941902086390634,0.17015615519787072,0.14578229603320889,-0.13504716779728476,-0.0026793630096935226,0.01128995196650189,0.13402673311168381,0.095403879890831558,-0.074263837279352471,-0.028359444192009836,0.06532124707222417,0.080374670386579278,-0.050184705637046981,0.0028356278219684376,-0.10805111389028538,0.099929634352468433,-0.06378749437065219,0.033301619617188215,0.048343367266868852,-0.039977572913184246,0.034149460946958005,0.03930761342855324,-0.053589323987606047,-0.0065107549355385907,0.011570622325144074,-0.0043574015759693446,0.092270881058060791,-0.12655375511090997,0.10290581853490784,-0.12028913131796483,-0.013170243413064081,-0.081408590563098834,0.036586674148418215,-0.034310785831431087,0.11614556132547738,0.034688636525386007,-0.028385453088271489,0.018351308991439372,-0.11275144046307552,-0.093923353337876825,-0.026953194253647141,-0.0069742499676104441,0.101468291610449,0.03546773836222715,0.018690438908987011,0.091865170560914242,0.039321467192248556,0.047809157077275288,-0.1136221544014806,-0.034631445214010362,0.024434247510509245,0.011223453808803094,-0.013726006961427775,0.088253748071122781,0.062438898881594096,-0.058165596192841874,0.0078642874196198451,-0.062169505736705676,0.042157098287025567,-0.12830006189052573,-0.049548187390033478,0.12273497398541761,-0.03176219501558062,0.0029143677196057424,-0.055717300092323278,0.091676097029985526,-0.0051075361210144218,-0.10140874303972881,-0.048356332931983062,0.015273301731647534,0.0050971386259231069,0.10156704683907397,0.084253117247670234,0.053057314952125817,0.014860651193944653,0.098344401095427553,0.035630910316510847,0.11089875797571966,0.002155406622846248,0.04274329690160087,0.015910484001425803,0.054701312119526821,-0.0088581191958523788,0.10881186531178032,0.0064773426503344136,-0.057839610870874733,0.038668194800237671,-0.054960742167386077,-0.0030825533589476776,0.060233731064361244,0.0014526945036838566,0.028289734092909604,0.043455840762184735,0.05799438106598518,0.12511303658435566,-0.020084316689802383,0.12723168053571132,0.023350506295554966,0.030169868543235456,0.038730329687625804,0.029928421506561918,-0.056701350828541247,-0.043990842593858312,-0.1331523232657415,0.026141196730301464,0.088391719998464,-0.0058588283115079427,-0.068783682215034156,0.10912236374434678,0.0849701523313341,-0.065304876251810626,-0.0076297112529403266,-0.12653183879992969,-0.012525225275921936,-0.10686422214066609,0.056068488844716727,0.084485393482555779,0.052825698684189834,0.075323111269279958,-0.016295366878134061,0.02482010553265011,-0.077402276904785919,0.030585273675463202,-0.03981733234653307,0.0048133418579131854],[0.012842909767311259,0.064352754125015052,0.11606493766272343,-0.061311423036008568,-0.079447161149744636,0.11347260366078721,-0.054559841005196563,-0.0014193215374106447,-0.024891074773342639,0.056663709914379891,-0.0033375058531723407,-0.057926436836593855,0.05313927838798909,0.018097049480343044,-0.058763817677764778,-3.6561902822823965E-05,-0.13590065267151086,-0.037875143984694215,0.0632169177268343,-0.032450993181501679,0.073189972456125948,-0.055322129957227066,0.0847680959729011,0.042989756787523245,-0.073827762549025636,-0.097986330223545,-0.14550707107956309,0.18966907729490551,-0.14179114743992147,0.016373953789693519,0.042815074497452005,0.17638729640436526,-0.0329645487417927,-0.051325789572953195,-0.06989622277344916,-0.07538852687606569,0.016290199529866344,-0.0532394250327534,-0.053506172588681324,0.026960481214947148,-0.22503129558207616,-0.082176817843031269,0.02108862887061147,0.036280181666388092,-0.052600490664547604,-0.03371536607616011,-0.012833244789476722,-0.087488171602726691,-0.057107471445893676,-0.022621067052201529,-0.0372595849545819,0.014515012930491185,-0.017943677916577087,0.029875879425294339,0.011709197148675262,0.03054718616089137,0.0083011812473725161,0.13937335920910174,-0.07338142663206712,0.0682768136507836,0.0023591149447732243,0.0036588616173999634,0.11979791298258324,0.025703487170391535,-0.063448693926309363,-0.12255456086000525,0.14704300314634444,0.019456652942711244,-0.012642281374607371,0.037676040707536523,-0.052278771070387337,0.0371962994442205,0.012433753070441702,-0.054493957069317561,-0.042288596833043451,0.11299515087863842,0.073280738240048063,0.15127105955867784,-0.075017384389078678,0.030639495913452709,0.0780829465437275,-0.044302735686305612,0.036775865556329349,-0.081019502928076123,0.062747365456030477,-0.098793912550739563,0.046707217990117976,-0.10664895537090408,-0.0419478750380392,-0.014040731108214662,0.0013202264491827612,-0.072041576716428385,-0.057959585384120237,-0.16848272221523566,-0.040350457330078096,0.14539876750230132,0.0081799873292359524,-0.11978438346504694,-0.0928059749058024,0.070741865720756775,0.0082118486401660581,-0.12468613169193157,-0.026378911370550293,0.045487381181147347,-0.043716793457904073,0.17033487852372925,0.0097292045058079285,0.0020857197869661257,-0.0078094356422414623,-0.15447299205933554,0.036832289721201644,0.025760051222754272,-0.095523835884455857,-0.024131667446920132,-0.12668020695476434,0.079018251731411651,-0.12899972611946531,0.030817982364765757,0.0017548430992967256,-0.043930379269750484,-0.088316973524519171,0.050735793928732724,0.08439756483788223,-0.030494485904383903,0.020357671314512282,-0.03208478209664084,-0.064850182527222036,-0.053805573985538563,0.043918894902396,0.075986345016652343],[0.033574792782858305,-0.059660018126781129,-0.046257716646289519,0.0088435744868566347,-0.034133630753830156,0.06882109874353326,0.0711605252039876,0.010824625399672922,0.071131304931861344,-0.022727263754829603,0.018115750856292506,-0.019580727802946649,0.10901098587713996,-0.089117588339695325,-0.0032617131133643928,-0.10639302636442298,0.054514369416678622,-0.027889963281925088,-0.135460335507622,0.09787132980515785,-0.017180118922165158,-0.041924866934846906,-0.010133257575141821,0.03459111026171497,-0.054871958697160904,0.00713697041087404,0.072064945918568574,-0.0892009772591406,-0.021432077544035519,0.026449547109155279,-0.016246086246608532,0.017560141130403158,0.071765481600926162,-0.0074560021863421316,0.042336151184570639,-0.0679828345760871,-0.034118716226887433,0.001413432814708771,-0.097304309850658452,-0.011019385290781161,-0.020609986510256809,-0.1193441756913692,0.0058796487955812739,0.018597479684906316,-0.066076185510080862,-0.00094179843452315312,0.055214593174099151,-0.021061880908144138,-0.024945798641478358,-0.023143909816882639,-0.022957888857969424,0.11579530894120592,-0.040543866670997547,0.00078538069684617562,-0.10923926690099554,-0.018076677110013765,-0.13313971555804705,0.021918969806495135,0.023783241842987315,0.020416264117049519,-0.087088891780210426,0.038086524522215552,-0.071653694824140593,-0.041763314150139404,0.023275948061175319,0.090764031543298429,-0.023291225583197975,-0.0038535244154820902,-0.046855959386774344,0.014965624594292674,-0.0034226161007356046,0.08326033594604057,-0.032994390629247916,-0.070852845705763265,0.0459071731238735,-0.022229104766493393,0.089325165894299133,-0.061260711856989211,-0.076872637484677347,0.039269726934088985,-0.0076048082804311551,-0.1303864155408421,0.01651225148098074,0.0048319085138918512,0.041636510021266566,0.11024551844720062,0.10567293766248996,0.07108684800615836,0.016919342344326356,-0.020800170154882315,-0.06257598697873841,-0.11151744585860388,0.036681810563459351,0.015959373708180971,0.15637456513250297,0.086233668807491989,-0.13033444594143137,-0.10870458908752179,-0.017233491598270791,0.11428005807420827,-0.044577828255663,0.039433005023871787,0.084487283653921372,0.076781370407553173,-0.0076314562154827532,0.055904773517197907,-0.022842968919212486,0.047505235483338681,0.10102858142055547,0.052297249361936464,0.037104068661105674,0.095312616096605365,0.032120742906195279,0.0990760781577319,-0.11368622704235717,-0.024429209663277315,0.086155556318018744,0.10610385609730484,-0.10477316207168338,0.021338959838372223,-0.062699507929354248,-0.063170569567562465,0.049397996990875249,0.074832549734334591,0.019007949361034834,0.012001521013908842,0.097045988811407427,-0.012994655286502862,0.099278150187779926,-0.054759382030267825],[0.043285392128443755,-0.0406775468264729,-0.0069222214241689006,0.078431732155932674,0.016267763695759902,-0.07723445666543384,-0.0276662473242385,-0.025029399382083154,-0.050096465590899926,-0.056426900157144258,-0.0625456061829028,0.15302923607627761,0.03969375629710907,0.044894845158443504,-0.13400226726032416,0.040314887330611109,-0.019088078745661458,0.075123116602063361,-0.0060236090177022816,-0.084924596004863878,-0.0719251628323459,0.0077881386312229359,-0.019460513641885831,-0.018871640320708531,-0.084349807605748978,-0.0025198965528661073,-0.012101659022169628,-0.050753614887660073,-0.05438311305107893,-0.0726992454428607,-0.03294493966812382,0.032975674021829056,0.0042198652871360594,0.021405764151565466,0.017824329517700483,-0.12444685520650042,0.0059412902506969486,-0.013709408191404754,-0.10059124891056676,-0.010597921754922371,-0.05383639006419598,-0.017198989636426493,-0.03582693286908939,0.090386779704962,-0.063579869280004864,-0.054236811445733848,0.022991206384906315,-0.01230991953191341,0.03978278699323444,-0.11843970991063275,-0.063784114372507431,-0.020481656367385217,-0.090281686092664459,0.048244993153446714,-0.048057325327786934,0.11239384780433394,-0.06205244056585462,0.049837535804328308,0.036981024382322918,0.061009936260011846,0.060819775253901691,-0.032185977463556309,-0.042548615628623741,-0.012312690154764173,-0.0019801988484041302,0.13601578993390939,-0.019749733201698219,0.026777941683417142,0.033571114554275465,0.058439168760441709,-0.021622741840291341,-0.059468793972596426,0.038102169113111692,0.015823735261671239,0.088648053882698,-0.025908985826632785,0.15648969618031888,0.036495952990560569,0.013110828213551083,-0.07138041281336395,0.001577337204195663,-0.065361982969333793,-0.072085949272301331,0.047952854565409486,-0.015448914028669693,0.12164191331572645,-0.023411973751159533,0.14137866741623523,-0.043412339417126092,-0.11891816675263814,0.026990046012680971,0.014052896712577291,0.059030745469322375,0.020774548657174485,0.0048403314697175424,0.024978543549609978,-0.075780577987974,0.098655824168978293,-0.083410894666967939,0.071317859547849943,0.10969879028644454,-0.10718528649852437,0.052817774024256844,0.0839366746833162,-0.13785597467242869,0.089209154528276144,-0.14821594520560608,0.12784865848856075,0.053376512134345036,0.042864450785760275,-0.074891771754535208,0.067088944168385081,-0.053816845110134515,-0.011569411001931757,-0.0058277778781081055,-0.049329257332930448,0.070977074529131531,-0.0068887135179467925,0.11280017035160354,0.030424001578594012,0.016819726527473104,0.064626229056601564,0.11728843298498445,0.012392879137059614,-0.034421534570584167,-0.010640926147858673,0.026940630885147823,-0.11509871687286949,-0.047169639590985656,-0.081710049476660968],[-0.020029691070389245,0.1110700089080644,0.032884009184151769,0.015156251210086567,0.0041086933542101986,0.023253665430407414,-0.055945930185299975,0.014347999507127123,0.040080698212970868,-0.0565135974888634,-0.072964792659301572,-0.030401132963259761,0.068335962455501761,-0.14648425249554506,0.10244681213342764,0.075707602837082361,-0.057252227525494206,-0.057661610359071275,-0.099705309299417122,0.071526281773709219,0.035334866864504912,-0.01619730114459823,-0.014171184542729608,-0.012772757998613554,0.089295101753209621,-0.0850169672224623,-0.08087997803611173,0.015663653650350624,-0.10771964705119765,0.083153878649955049,-0.080658495493708571,-0.078071726372067052,0.0069563404168898543,-0.015008266232726894,0.0014673659466707257,0.00052600160019833429,-0.0062731455319097228,-0.0374824288335286,-0.035362275819052096,-0.050893832600121341,-0.077141902899850734,-0.085734208421861621,-0.048504702142668284,0.050125233063056912,-0.054469241552777874,-0.001351458294793923,-0.12882668349060233,0.05725613451961796,-0.030951215883510273,0.032422026491676893,-0.045266526200580429,-0.0096177777641970313,-0.0032634136420459764,0.052069533879324552,-0.011891161281817981,0.1175774741441859,0.075476105720134579,0.026417992501550937,0.060679555397073912,-0.05208412646699101,0.14448924415529524,-0.0886280168572195,0.06289643125411036,0.028394982783811421,-0.03243547989383315,0.05496708145352483,0.091347101232848033,-0.1555223481685292,0.098488072087457634,-0.09933362507519107,-0.0764599135462151,0.043618454706254257,-0.049617615325378069,-0.11910016327130829,0.016310433848517058,0.016073227777873105,-0.026204882545737461,0.055524749670330865,0.0055983266458729019,0.0069285194017389964,0.066869514694659155,0.017021055442472406,-0.0091025264992547639,-0.048658496082416638,0.075140067134103108,0.063516729775593042,0.033432936005229785,-0.04916452589818944,0.045916057042116348,0.033119946881194316,-0.0086345768931756148,0.0878868009536888,0.044860996957009146,0.1197288149304989,-0.16365012597441739,0.015870297740064872,-0.045798646239898974,0.12630850280490685,-0.043653398650247539,0.053446494425215672,0.087924680749628573,0.00070686214684278581,-0.034265869703156059,0.014500886987115363,-0.10789050680873889,-0.085665260810054711,-0.047595109016148787,-0.14954825681455919,-0.079921124790415438,-0.037068293553879958,-0.069750208204226061,-0.070671247452053249,-0.18202470610080684,0.031510666184731279,-0.0032357623595950457,-0.020097864334801641,0.12496178011694298,-0.026604586583357865,-0.035144620386061656,-0.021022281942913005,0.070317759828215046,-0.0081999534800049623,0.020015215243544444,0.052132310217696806,0.10806229354219835,0.12729294680358758,-0.038170707040503689,-0.036137443610372452,0.048221952670695643,-0.0064134518751696552],[0.16100836099702603,0.17807902744523982,-0.026793142687567641,-0.20193417329752791,0.095468463285553987,0.025806856636654767,-0.033430850372695289,0.00225481870473011,-0.10977351718689223,0.0511744169302074,0.020278793252673833,-0.10985373913738997,0.044020606981176526,0.04109650409333207,0.153165843237389,0.1239287918537238,-0.038392473545960461,-0.093883471971067459,-0.016503556886629016,0.0040184365761015035,-0.018203941154792177,0.018733446627075594,-0.023231842104091543,-0.0011351650049244021,-0.057758017567412064,0.089388325731241169,-0.06881407273812877,0.021986344995792825,-0.08023341686975026,-0.11852664540804557,0.11440480428706691,-0.045278945294262386,-0.053950570127139288,0.037997773575503144,-0.048956360724695613,0.10747476383381172,-0.12151225357307098,-0.1193708312722272,-0.034813730629836122,-0.082495889722796714,0.0064067524615991642,-0.018807512962086919,0.076358917759280859,1.4294327825753098E-06,0.021013306940533279,-0.012233386547110476,0.12008437396682473,0.085861551816061282,0.037984026714101594,0.05316465303953493,-0.056111265582649582,-0.00036442111622766549,-0.042407557969501762,0.043248809979826663,0.040507693005550939,0.049124910688476679,-0.028156185403205882,0.12936227076206569,-0.057459858663097163,0.0875019419260736,-0.022679430808919925,0.11685898983603622,0.0076817555524330942,0.021833785105414984,-0.18315089472063165,0.012182980192738802,-0.0047446888036634877,-0.014456741889433423,-0.13447727062483694,-0.030905410626303993,-0.0690010827141909,0.12985234773297205,0.043057821443320626,0.078092347271708426,-0.073147703184019863,0.034794798253739836,0.11543786301482176,0.0784535137687308,0.004252101131936914,0.11120619859641683,0.011474134818047046,0.0209806398949964,0.015062657675352401,-0.046616985400833123,0.098365383161765213,-0.019749074300798329,0.07309120455573212,0.018426289460904504,0.0348354692359282,0.0342288103844437,-0.0368311685713562,0.068124454101906928,0.12672179745454557,0.11862891771757379,-0.11160692511398049,-0.017368114052169318,0.03583740856297269,0.0031068299669386804,0.062157891261726966,-0.098890334832355445,0.063547715852680209,0.00828392008132459,0.043407886031599181,-0.065472493859747016,0.065316679656316018,-0.059097973365993144,0.10330049179788897,-0.017797224307465956,0.13012822342883978,-0.10493752815456914,-0.052259109779692871,-0.022866475766634378,0.037710398574740844,-0.022253735840545533,0.0099458743661461381,0.063920016177620553,-0.053823403149829939,0.053315213130693158,0.022695861525123519,0.11845706420182003,-0.0669980782312943,-0.0949063045206844,-0.05725672929394441,0.11422185726751979,-0.020684010860199314,0.074935026938831834,-0.0096624828308083353,0.11186951586901062,-0.020564080185205873,0.02103581114512925],[-0.020880177093766893,-0.074290001325163724,-0.085839420677780415,-0.018380332696295489,-0.012522611539818717,0.078356700505282983,-0.038318801998133638,-0.041277664176175566,-0.077704900427470622,-0.034882449229154157,0.11143949285527033,-0.16238026094103963,-0.0347138594596158,0.040611761152122533,-0.13597085944509244,-0.053544845144072865,-0.00443318502508134,0.052708609754634518,-0.027322953675962838,0.14131288846448228,-0.038975440464913851,-0.10446414790495079,-0.022431337031624341,-0.03434639477822192,0.021973372489952455,-0.092762326280257212,-0.057536669788670572,0.13298578406603043,0.083902705839767028,0.033310851277540715,-0.0855065598980133,-0.029696048336323413,-0.030014352778728763,0.10015112445038789,0.18363175263133957,-0.12214276740618475,-0.034167231075480788,-0.075896189834642233,0.14860835496209782,0.0050920484578396551,-0.021209667809546504,0.0877461251084694,0.0021527876881883468,-0.087359244240990438,-0.056699406033645351,-0.02842104783597698,0.00442565410404574,-0.017759919825656542,-0.055613766311255738,0.046898787616066064,0.08886760596372445,-0.0072935648272200067,0.045481698367125317,0.0017206227805553155,-0.082627965844247309,0.001813380333435588,0.016107161265958632,0.014683871657269185,0.042282570401255354,0.03537175328537652,0.036353550185097346,0.087908291360896229,-0.01662376087969028,0.056074383125845187,0.018011108385872537,-0.020922036761910824,-0.151446865660214,0.09890589168092917,0.11244862571924098,-0.029851011589712827,0.052913521077725685,0.08456604502944573,0.01108152601709147,0.056693023986251048,-0.0640171325817265,-0.025420813736551109,-0.0038305771840776797,0.065468217474018278,-0.093318080336172421,-0.098839590234521685,-0.019610419674108013,0.050377756142461337,-0.13608435124907589,0.09620127014479038,-0.016809332267085912,0.012788256512306093,-0.10307264010441472,-0.15646165638722431,-0.17216792760831343,-0.041005348749397853,0.13042157771167909,0.057317668957726865,-0.069124022673118971,0.19440646521265972,0.089188760377056309,0.025243279762073797,-0.006029962636845237,0.014889942187662656,-0.016605205553160231,0.18229569240495575,0.045367571242083633,0.058839429322706464,0.001040611126063121,0.090499018168973142,0.00082490685190346957,0.029451459460424094,0.08589946319771942,0.00779869068390178,-0.010296652633749605,-0.041588573177444216,0.021935723944834173,0.026620001050366604,-0.0017657552948485127,0.070773132394392049,-0.094465911905280989,-0.0074169847297499885,0.044729630616805065,0.015650572910654092,0.091528163591022407,0.052642321348101553,0.15431221996792241,-0.12071336278108456,-0.0092532024307564031,0.12205991624610575,0.11120523169376065,-0.14731754143712642,0.046556385916725923,-0.093472077950679286,0.033955026884101076,0.12432312008751346],[-0.073416517342894824,-0.03572401925297948,-0.11286790194076814,-0.07496423303281001,0.071540984905515581,0.011943754909522812,0.043841546604404182,-0.09506919563784974,0.0057676805391991409,-0.15323149952563747,-0.076711010447293726,-0.033297005515984579,-0.068863912815430417,0.050774937204149016,0.020453367677742688,-0.10244752050583357,0.040070894788533151,-0.019110324044176855,0.032676262493872246,0.015300615842024355,-0.10433052485701888,0.098063109560705408,-0.0526202045199974,-0.11134985321392707,-0.028080425073819963,-0.10031436196068251,0.017613157634967205,0.03833958012540558,0.069962225520532037,-0.0024965535385944441,0.098431267683301682,0.064064220440245734,0.077049353906288462,-0.12033501805632042,0.046562068824574442,0.06899689833504026,0.0035249363852063675,-0.013879253187141741,-0.026631944843200736,-0.046744176182557863,-0.097618912581259182,0.07365668236623478,-0.22647747081019842,0.022382285621988091,0.13274043069094318,0.0025311018896696574,0.014650798987521327,0.039843120061734363,-0.082281688800262265,0.051390546010325541,0.084986822953325936,-0.0062703773739383063,0.084685325715431539,-0.040931681467299023,0.02789823157083807,-0.05945060077040621,0.069268714460616512,-0.065868490527411921,-0.050496959941092309,0.092704130228327464,0.0016326957168994192,-0.025583543659204379,0.057265639778017387,0.069171078119016211,0.05730518433813768,-0.098669536701697508,-0.015546893572447635,-0.014356375767685612,0.01812604789341336,-0.05100040034881341,-0.13745618466429571,0.0417960867020971,-0.026260903441454046,0.0039963305086049379,-0.10927881521569136,0.084200571826201359,-0.044999688844525966,-0.0015847952780225804,0.032930610288632048,0.094443847127032673,-0.075066307317976241,-0.068911459375453038,-0.089254595772824324,0.029928810626144269,0.049637962323733936,-0.042309914166085406,-0.027696404564021178,0.076035468465805556,0.018204174743442224,0.022931953517604933,0.013587759286488702,0.044957432632629239,0.18815276388238431,0.010415667523418331,0.015099890680536526,0.049339650560903205,0.085124251134785056,-0.030019626093356903,-0.047033552471251391,-0.16088783555385861,-0.021960478690384626,-0.15565435608715639,0.087807011081886086,-0.096757915541229589,-0.021024574247575707,-0.1103916420180161,-0.08906285855612503,-0.035283066942225119,0.083341148916113161,0.077582423195346931,-0.014755373873756899,0.023890807977393871,-0.038475058688674256,0.012863272406104099,0.022319888631892774,0.095202134200339655,0.094927563710028709,0.01958054291309232,0.017715007636378163,-0.12509817211965146,0.010578524646520714,-0.07335630334967902,0.10079617514792455,0.093626715515394351,0.090745171822396054,0.0031883595957590445,-0.10454294721864069,0.023875040512682039,-0.078495845534099232,-0.0017176537864977844],[0.0024346996615598089,-0.01220076872201406,-0.098703694155045707,-0.014489302950604388,0.092070661709320725,0.085172709519167708,-0.023696767131274325,-0.029963971777150485,-0.047021697747401392,-0.0556077989511712,-0.0038240783305064636,-0.020289507668835631,-0.087933523552870929,-0.062335882317588714,-0.12722654603251285,-0.10006568403638025,0.062474611242288779,0.023298244951441411,-0.037720508835539575,-0.045689008867686079,0.029895390066316731,0.012523724621795206,0.0034630173556179831,-0.032472826396998583,0.0560971293908097,-0.020898135187613891,0.087077755197296172,-0.020668334298775105,-0.11387943640891304,0.030852870600518063,0.023891015614975974,0.078800360020805788,-0.076135221203662118,0.087558318261341986,0.052223993745509983,0.062158014881988639,0.0048459781807232,-0.1146724067469929,0.029167000560980257,-0.030595746877296718,-0.17835698827193797,0.070188443497329889,-0.16669163441515575,-0.13368246346912402,-0.076490804210841853,0.078894603342824887,0.0022925065895982753,0.034001973162266587,-0.08749211590131202,-0.02478658316730541,0.026898879417999254,0.010784179937808417,0.010797398576973486,0.096696121779808977,-0.0921133306982584,-0.06802035192746704,0.014974920598487641,-0.018533726437916953,0.023644684717676105,-0.071212328091058111,0.029001117857667891,-0.032325017621116461,-0.11765361234891854,0.10859917058139196,0.038398717701738951,0.044019784804659304,-0.078569192136013946,-0.14532993490616106,0.23213064177852349,0.016895071609378424,-0.03866552903481961,-0.12322693579196678,-0.038913499123608371,0.021403551948611037,0.03973369588679948,0.025216743214791677,0.091053918374063944,-0.018722241480678265,0.040058877871639663,0.14284310497496577,0.0018139613865270471,-0.063601335408917617,-0.019925162140049229,-0.08007037528614401,0.090897993075595276,-0.13099723356827472,0.055096083257107326,-0.034940947213440314,0.039019353589454117,0.09145565635282156,-0.11668814272868543,0.13175852116978795,0.10727463665051785,0.023019195318401579,-0.042016247496026705,-0.09270942152972371,0.086911052338145334,-0.04870383509908166,0.011690588692537626,0.1006783836761431,-0.051369912341179665,-0.042711022826754215,-0.086575696353414069,0.084689359059237121,0.067821119995460533,-0.0092176911294023379,-0.01743970103179,-0.079480955404185566,0.043754696241199355,0.13300797958729935,0.05674666929892945,-0.019013803692487525,0.016170848362128207,0.0759484777778067,0.035407206358334456,-0.0473863298681108,0.045305521434968105,0.0478170074181419,0.10742105186187637,0.060497590664462447,0.027728739413942605,-0.013275519674179375,0.056614941872753816,0.091489039453553744,-0.061868693788031726,-0.012973399203140413,-0.08641642531713685,0.040092687101139626,-0.014145241015259375,-0.030784925703342521],[-0.022904824367838833,0.004801275393106672,0.054689847444990516,-0.065810382559697192,0.031962827942568127,0.03537782217474026,0.0014970038570605213,-0.025479492922740984,0.015314840855865965,-0.034236097499479513,-0.0083304203796029045,0.000993611364259908,-0.040554770893805159,-0.067330948697045492,-0.0077580382480891977,0.043887601068325351,-0.10987795823649837,-0.068174161663497948,0.030514965546127659,-0.11716883823222751,-0.094154841428904693,-0.038583785800142455,-0.13790835698228027,-0.012353942456811217,0.027428268571237372,0.050132915134089344,-0.014369915230395207,-0.056923051059643869,0.018965040564797423,0.12005645249830377,0.01787041255024065,-0.086143283997747622,-0.028130874200476053,0.02579026597437881,0.06488766333748279,-0.001408042087094067,0.075265612647045524,-0.019834058717691932,0.030241349508216865,0.11328407409999862,0.026950052099385637,0.071034730158206341,0.084691722005087733,0.16788623519573087,0.085042612945704227,-0.11783223602046225,-0.0025816249461009214,-0.11902888864938109,-0.011761965283254303,-0.048040915632144819,-0.03340756231371788,-0.0050821271958483216,0.0088252743268024,-0.044242940783583339,-0.042735896191967285,-0.12868665712552266,0.055072178209966648,0.0159680238772274,-0.0065502308452272621,0.0483707402741473,-0.033883049312518093,-0.053254688792527358,0.02097295270317822,-0.018747282234561055,0.016546300762791632,0.10886201164093222,0.096062549996735289,0.11889344540797771,0.019286104866607551,-0.020512162188151488,0.0766709250903879,-0.046053574669349548,0.066709700920124571,-0.021788158784055937,0.034232150186119727,-0.005965550583373864,-0.063447527257042724,0.0023362510382366297,-0.026065821519537562,-0.017284864688189617,-0.089382485640202958,-0.069408137612560539,-0.0023063218190185562,0.14762502724482221,-0.036817004854068774,-0.051676643688452463,-0.14468789062548906,-0.080553717430761659,0.054402065662219778,0.033284831833522759,0.0059119629657448883,0.025769395644312992,0.035727629708263348,-0.018222318400539481,-0.02340970816087783,-0.053878895185829979,-0.012585916118287781,0.019230287111692716,-0.11299317795569226,0.10158604110397859,-0.048708324624295196,-0.012997795421359362,0.064945212447015607,0.11279516978818349,0.00093019655990133059,0.049604000755288112,-0.018894934776065717,-0.091959228712390012,-0.15861842091115397,-0.04607335579432166,-0.00078077505657688472,-0.073063186993690132,-0.01102469403540415,0.084700057607877438,-0.15916595006303533,0.075217927958371775,-0.051392854313532646,0.021985114649197775,0.057806320486027733,-0.053607990715458652,0.0057067066832229858,0.057023699453173378,-0.06859949758340593,-0.0460620513355871,-0.0766324157397029,0.033700372309765934,-0.0030316764938101508,0.016142117528339519,0.009991135394786398,-0.014617635897782217],[0.014947177505337514,0.1589990496841219,0.063702772572209368,0.067055350785399676,-0.2384685983831559,0.026128037601767708,-0.10767339275456093,0.07923862984549547,0.086891693194853861,0.049173569763079662,-0.094026043053482888,0.033094410592813643,-0.0097084691248381632,-0.014332582379969965,-0.069535131927200067,-0.0088032462961193658,0.0053516952914146433,-0.010383905620822547,0.12501318787389154,0.045410516532451366,0.10218281261024027,0.16838016580126083,-0.084580605497553876,-0.077944915397112846,0.10069790279334298,-0.11200722197492974,-0.02008963245052273,0.15595328903529365,0.042852193817413065,0.026092620930122233,-0.010791881818099956,-0.032172184989363924,0.13017576216721946,-0.00894514258487567,0.072981564883973213,-0.021310832274664019,0.065515459979849158,0.029991066606955538,-0.0034135628935237266,-0.11980131668764785,0.044439039216754156,0.11267736158333448,0.04527915298424872,0.0052741060019276436,0.050248885036658371,-0.06096317940836609,-0.015376522466605338,-0.04367396130960411,-0.003486460540367432,-0.026474361324496456,0.0602649367541408,0.00052841887809214263,0.0916420126585736,-0.0053564867238721633,0.04076855581034472,-0.09009525308816696,-0.051053529070984205,-0.020172768883308295,-0.027791885882149404,0.032493491783765552,-0.024156950274082281,0.048335718290261787,0.0360461552977398,0.025957025245905319,0.013732321081751106,-0.13456586079013941,-0.071720438111771034,0.095686593823197108,0.065573924187609461,0.0095019782721130538,-0.04786496866407975,0.051444343756772183,0.12884715574562433,-0.15836882683785125,0.035331719407732026,0.078630029886643971,-0.015916755989118788,-0.03775861881945751,0.099553728864906182,-0.097152580826769377,-0.066144495279504917,0.088677983436126137,-0.1284927241394245,0.024968576679610222,0.046242094796504984,0.070016774884923041,0.0069195636793494561,0.0100917473119706,-0.018868513542972105,-0.089542864627144961,-0.0074273002422725965,-0.017173497722598036,-0.028962334022472298,-0.05702018929952881,0.0024873732611788986,-0.04080636454770608,0.04157376388678112,0.14024890637386428,0.074578339298914373,0.029700400763383261,0.15800989704705193,-0.056019653037060128,-0.038753797743588871,0.10165863541438112,0.10313440732273313,0.02608632749880074,-0.0010991518702496079,0.020885487842938089,0.089201298093332673,-0.046175057812937,-0.03697807452971591,-0.16891389056980818,-0.048928826759993195,-0.020493537543857361,-0.047269995458968116,0.030266295546564095,0.0039009614592381129,0.036490784421755983,0.0039553893581659493,0.077554115238942567,0.05123326465839554,-0.10246413163036182,0.080440172762649989,-0.0495710525036269,-0.040824224735768105,-0.017409227060329293,-0.0829399015081913,0.033236156615019684,-0.02096179944914817,-0.02504141547469858],[0.02784204828213337,0.065495262955020325,-0.00038480604778298917,0.045269061156008358,0.10991297973549712,-0.11532999147743228,0.01499975092966286,0.084049595625964729,0.065996992047791608,0.053338754615145791,-0.044428566442764682,-0.075155434134016874,-0.049017053692963206,-0.043303105258459151,-0.017974983600600597,0.12554050443572262,-0.021621167501839185,0.0077463890044731157,-0.13649908799375149,0.01792273070772335,-0.029582400583508667,-0.0075983011246630464,-0.029379563866221016,-0.0084062491161380239,-0.0052058363602741934,-0.036992132086007865,0.056939794102002075,-0.16723662153065758,-0.067877111943099422,0.050831690574097158,-0.051072935201593408,0.093102923277391086,0.057243085625187214,0.028363001253505556,0.030190676569910733,0.12839405878873997,-0.065420749095787531,0.091123163504979537,0.00050706586481939092,0.053034648369359019,0.029429660859263546,0.1402470394618463,0.00941255032812744,0.092639428679237579,0.005607200374076411,-0.048920976665849991,-0.11666693548465183,-0.13702217415090065,-0.023637005852681,-0.084373131959435715,0.044249402941189078,-0.068946953072015385,0.045783733036600313,0.037741808765842023,-0.038918136780413434,0.14481326350656817,0.047009537546041175,-0.0022893214249490373,0.03488578435943606,-0.024050785922231567,-0.031956023176668145,-0.09864280444216586,0.084903601383034669,-0.046557831102240314,0.037791528940025312,0.065105712947527331,0.090428504531744308,0.045061680699632366,0.011877576598592904,-0.086904194117529768,0.05735221674321065,-0.14129147202184481,-0.0079019612617166717,-0.047496337882899121,-0.022413948978850719,0.14366619480595005,-0.086358110416986253,-0.013103104916240772,-0.021324635138683014,-0.0075264739014274506,-0.0224868996731117,0.11495070324567136,0.035895575124120921,0.065899051496939157,-0.022889754084845965,-0.0045155445575447463,-0.10317802134429856,0.017607515783628121,-0.05072940892759447,0.063816069071096271,0.044791723532593863,0.0051956156061141344,0.0030426599446692873,-0.098963332844718976,-0.1271650654556532,0.038465781353031733,0.083749562228430371,-0.015610118185623191,0.026337170474533961,-0.032763018199742734,0.035377817054812646,0.035915828312199694,-0.06627305334821,-0.15732928882758249,-0.073025440158135752,0.088148988829924391,0.036450153996262773,-0.078362499571266453,0.0361389738386176,0.007755644036587221,-0.035995113872341666,-0.058852003617977426,-0.055013789167537484,0.10343280657464735,0.11791190198552443,-0.0021896438274262324,-0.13742574995317811,0.021245249402091482,-0.16664596154144054,0.11190987939520537,-0.04153802517273647,0.01752821445318542,0.0016885240154421164,-0.024172319082076735,0.028727242291590186,0.043102383938005313,0.0679881697593401,-0.0972622439650278,-0.099922841922864492,0.021253947158084457],[-0.054411727227266823,0.020442666389577941,0.028702906699563605,0.0801760958046284,-0.025966714832498478,-0.0058915153885138382,-0.034516567442496385,-0.0377440949464259,0.034337528239123012,-0.047117734640107538,0.0734802979754284,-0.00990763448677593,0.026329294000901175,0.046910356155545077,-0.037643416890953546,-0.03452047163717685,-0.030068839999906311,0.13124330901075831,-0.00032810359225822581,-0.050996670420152566,0.12931776561148492,0.0047249555126950751,-0.010877512527166334,-0.046215855834684523,-0.058868024977214217,0.012812940719068619,-0.05688262797156915,0.023646088808705796,0.14264197562166334,0.087514663343308374,-0.060219972591393674,-0.051875491365542835,0.07645289619381973,0.10852264123909393,-0.079258456787221709,0.04072588964540564,0.022147416243853135,0.0767346062913171,-0.022717302082294263,0.040615109701720109,0.031825780710734795,0.030225303617354957,-0.0609373584695965,0.076135006022633178,0.0963674198094353,0.034785362974128708,-0.16978412181691155,-0.052020326706594983,-0.065983097361963353,0.087575453307955728,0.049724017555153953,-0.060310991585169255,-0.091993827853380533,-0.045313381815281044,0.052170922359916147,0.020042859224489961,0.049531003470593513,0.094029060726584984,0.033741185140086789,-0.0062022130761899743,0.010297437932262822,0.0065320591494388951,0.022700830565345935,0.10515577929376999,-0.057832329647391052,0.14329760104685194,-0.035801480444538653,-0.076543066013677566,0.032325961042129939,0.020197638772466449,0.088619412406732545,0.028617638473223288,0.077303065744479774,-0.1172295434275121,-0.019246214831862056,0.14446855172777373,-0.032220156740255079,0.13347325199818569,0.023577156883464477,-0.015458286770999145,0.0015482316667462129,-0.018600632063846625,0.068986796326205607,0.01362034236543091,0.004749379171722092,-0.031197157421096411,-0.0082263445106684138,0.022886030653189941,0.022679949964144078,0.067277430175912034,0.16686910724187809,0.039070712908818937,0.03741887357667989,-0.0069387804011316091,0.10014502395191215,0.048330783755841204,0.12148754522079744,-0.056528482301300177,0.0046784456367193533,0.0040957688220752677,0.050669862559782182,-0.044077825526569026,-0.041337027065611556,-0.022425031185494104,0.017224183507589974,0.092342718076304051,-0.071009087371132554,-0.050884683712743073,-0.0024088217359622,-0.017903904066636486,-0.041734280541730437,0.1084927190856648,-0.026614179770882655,-0.039436446940454083,-0.055143896872936228,0.015103621987119927,-0.19816974668063137,0.016104181848232816,0.028225808923474333,-0.032098631879446352,0.10847396443530195,0.19786553342669047,0.033137129605506514,0.022995668057778341,0.00333560038754341,0.064669342254904533,0.11601069461150179,-0.044165944531546417,-0.067722958262673369,-0.04373005535439764],[0.07158047276869603,-0.13824566516475653,-0.025361974252537688,0.032845131827052947,-0.0026078215345719928,-0.00549057360261003,0.026306172751583763,0.060095761991115965,-0.026843010550516161,-0.010203855649118193,0.013873758762973743,-0.056139062646669027,0.040260973996135131,-0.048194057765339804,-0.18824935277199739,-0.063347364533732908,-0.031905234424846191,0.10207050452689974,-0.021358001475642617,0.016353751981709259,0.13841097532576471,0.0025072228860703212,-0.066867415380991585,0.12296644882958897,0.048096012464222716,0.02485176364160685,-0.054507909136152416,-0.011860365390623627,0.14716901243638675,0.081117570877566658,-0.05445176048387293,0.16866526795315537,-0.086761049565042644,-0.045523284457405513,0.031464178462933957,-0.0846729030422486,0.074291600347471537,-0.19203504791969162,0.13847106784703217,0.053277308446935137,-0.031563537837822959,-0.024201946212455333,0.03634020077214202,0.064248344527383691,0.019331839102137136,-0.0477072834616838,-0.123515571027688,-0.083678230892505853,0.041725913424393871,0.049485740114900409,0.018835365773411997,0.15215870472847246,-0.05961894467506746,0.053757450913024855,-0.077930854936447441,0.088496898013264422,0.14729407636220418,-0.041404490530141613,0.025477425851955678,-0.027293422888025987,-0.03839493243358074,0.020486179429211063,-0.047993738022525004,0.078298768327230331,-0.081747098104997445,-0.042711513801658926,0.098838442897379031,-0.048053258069549992,-0.072003679210187715,0.029564478983759503,-0.057161528122009996,-0.0024219491808908627,0.06372629859945407,-0.033831999041318755,-0.078441526308690848,0.0991576989791636,-0.10853461466907266,-0.027566607095066857,0.016413741740992503,-0.008359575596937268,-0.084329310915971331,-0.01205995760806782,0.10961476668697687,0.00098276557823194326,0.066579447916480169,0.14152736738148383,-0.11661342420407038,-0.097087038619797561,0.14915785049938996,0.038151745075002935,-0.051340347073068171,-0.037918390858065448,0.10977184575111762,-0.088101940326602651,0.035908334658588816,0.089764993385859054,0.012104073421179813,-0.0012850361922674483,0.10870830593640557,-0.077172668387660223,-0.066504357025721786,0.064064281940423309,-0.093209297917315984,0.11198471031755962,-0.00059173180551980707,-0.10269315668365792,0.095683234950298623,-0.029419117979268928,-0.061705988639221013,-0.03352436024352938,0.0963588182705769,0.077942532539065218,0.055528375016953811,-0.033411650939097107,-0.0018597182877499821,-0.069896498272059487,0.0024159710873444479,-0.033396511875262075,0.11564533375102314,-0.039431351365037039,0.0657622856687759,-0.050889707531158859,0.057386895975934049,-0.00048769966393777441,0.015022972728184316,0.025910597633269382,0.053008681223957341,-0.1337814544971975,-0.041790403520742925,-0.003667859784685389],[0.02371274929391828,-0.00061665791664307606,0.037695595481181919,-0.10043052701342448,-0.098129732581859141,-0.029224666580918889,-0.062078035327028228,0.025941385301318714,-0.0722245186695331,-0.0019015429723228407,-0.013556011720639419,0.012404848914351528,-0.02006310418082893,0.10313973682552796,0.061824791548054217,0.026364770678147704,0.011931459483153469,0.14358856594101149,0.0026528531861762911,-0.014376071704611994,-0.11726683959702242,-0.003258511334284044,0.077126657668366252,-0.0081117048347919534,0.0967970434303147,0.0024790257295826857,-0.049252535808700711,0.02588989449966007,-0.0589085920159275,0.038589708502561958,-0.0032040324592891682,0.061762422246227765,-0.0366466844845038,0.069191867034284538,0.14287393616862673,-0.010197188953013804,-0.1342110232754524,-0.0012235473298309624,0.031929559595211619,0.043788532625643715,0.13463702840610961,0.035506384421347466,-0.0532487769514682,-0.028636420412358574,0.079811479317602074,-0.025021467742981564,-0.054783488937086407,-0.036080265225235081,-0.049687899107302584,0.052904376888501289,-0.077150217488990161,0.055089323019988506,0.01918144455361722,0.074613816524956647,0.069382497608510882,-0.0069098828197942967,-0.091750048978502266,0.05199645593068801,-0.0027998994899745,0.13514229757166837,0.0013948665373338591,-0.016237414551722885,0.03981288410209672,0.014586538416247671,-0.025870322944039334,-0.0014570575084893657,-0.05157279158270988,0.0727477884880638,0.075528143196154973,0.047558747387764472,0.0027117514108481898,-0.16671901514788862,0.076244887454725283,0.063808174888523056,0.092574525097024254,0.0099353635326708337,-0.079774344366513109,-0.14818814365189989,-0.039395541275491171,-0.022213950213736306,0.037511500536200393,0.045311621081115472,-0.044829877193796518,0.010581178250223856,-0.0934888313907229,0.046092275316573991,-0.15282242059367585,0.014426616512207996,0.052415139585109294,-0.055066064913787759,0.060598260224602359,0.028695585339428141,0.040942716237823855,-0.097778184693651668,0.033229447237248411,-0.069702457866234746,-0.004555588050817687,0.10318961583844728,-0.087156194246042026,0.0161095872341183,-0.017102444970223913,0.05724047843796163,-0.12178132975398956,-0.0905981991820055,0.068519622306085617,-0.00059651428624880507,0.0336196590558235,-0.072780159311646483,-0.097115496884980015,0.11275401892342839,0.078376728059340164,-0.0222648262850321,-0.086603768870447878,-0.0040042385510881918,0.034000195008469576,-0.15125766498253523,-0.04687588859541135,0.13948503019744896,-0.022536828094043091,0.036432633003812914,0.0476249592153715,-0.055045799904595322,0.0953022521364645,0.082187783152391017,-0.12373229121870892,-0.13948974795771171,-0.00494610571232827,-0.094639448091134087,0.035157934931831357,-0.052472868530076724],[0.12844105098630096,0.0373116716412581,0.053939504358569111,-0.075608883591565215,0.058371506224994991,0.067488010534998463,0.027391339995332147,-0.010663144057186685,0.027204142429979775,-0.0087461974877464377,0.0235752741685704,-0.0950311304900976,0.031054569609228883,0.028244024080210296,0.1026527395587216,0.01196189018428458,-0.0035604985279722827,-0.026689328961611237,0.013723465668256309,-0.048228383090833916,-0.026328757560245254,0.033844374189845788,0.10004482103062608,-0.14149272403870483,0.021737558891608614,0.0084462658033141631,-0.13002919625141474,-0.031802153574263352,0.037955226660274413,0.11407881105780975,0.026267150105963488,0.020549488911358466,0.00545368063125911,-0.0018733521498043976,-0.032108522785677517,-0.0019058963611542847,0.0030643597639289709,-0.063729614019375644,-0.076211704009957013,-0.0030531319364664718,0.0399109608825924,0.057721749071058918,0.00794597089869133,-0.10391395845005223,-0.019731507055368379,-0.079303017798483089,-0.036625445799295026,0.012024170815271915,-0.10534664570583936,0.094982398991762279,-0.038852700579064779,0.056845594349319316,-0.012015851002853666,-0.057527347200917636,-0.037759289905921367,0.049824025089562511,0.094024883420855049,0.072135376610346288,-0.14831610655579333,0.051259706335416717,0.0031265377045428836,-0.0821521492771503,-0.12048686070458922,0.038554737104304571,0.057421588259086068,-0.091871385201216377,0.014084131699818417,0.044094762501208459,-0.042590258684042495,-0.014996468668651007,0.097307500316463874,-0.08923446866933675,-0.012918611314358983,0.11893094705757264,0.068382512699410383,0.077269235993605634,0.093534011907818362,0.02408900163393193,0.018205592985794244,0.036113965525571938,0.011929115270069601,-0.0317190055789736,0.016454284751348879,-0.091606257223109819,-0.10142955815991768,0.017009803640238345,-0.02423890297958296,0.041224325630961581,0.13895906718398668,-0.056909125695234986,0.0013386113694869261,0.053489479553329715,-0.093851227331171946,0.13027766571601229,-0.072159186700561123,-0.084953728890554567,0.087036674712755321,-0.027101244028194822,-0.088608154051377064,0.03045513225391213,-0.026922693967659797,0.022959519445447617,-0.086260547460638076,-0.13877864650712751,-0.072287940981648632,-0.053956096959297734,0.057150826383831066,0.15661146273268614,0.019726076191904016,0.034099690002831112,-0.00022748676047947992,0.086068138069277239,-0.076519626338937746,0.010011205770513204,0.022973619057630089,0.062336869520012578,0.09340878548040947,0.10614161115159562,-0.03344485523624692,0.16170969833919033,-0.077881920122118711,0.025353335164344497,-0.045869553555565108,-0.03132459719583907,0.065263724234451259,0.043008271058528294,-0.17675556408246471,0.00013223057085975102,0.074491333745003649,0.051711750120412868],[-0.0011767783414734559,0.020721923413347911,0.042500702638902071,-0.070104809677030283,0.041503860208206643,-0.039288627178158141,-0.02949153390012766,0.036902183320313142,-0.032571764331747653,-0.11918182209212316,0.14440677988997486,-0.05878034612992189,-0.059265885498614182,-0.04421185389967601,0.07080799986873719,0.11408666887893509,0.046715737902490964,-0.065062000967324965,-0.030512213808342688,-0.055066614635808447,0.098311813719042171,-0.06701776434930079,0.11017474517538224,-0.089121510126415948,0.011157081842122649,0.028471888898602266,-0.0082173383313886381,-0.028043938810539765,-0.002967205753061245,0.11483253666037979,0.021859299193601869,-0.050311275878215073,-0.0016020210339760467,0.0022522930827458972,0.019061766229871963,-0.013923805534254109,-0.03370471124426383,0.034890343188914458,0.059401237805404461,-0.098744717664818793,0.072621725850674848,-0.099910515111853768,-0.0337727040079772,-0.052461988290156039,-0.12918543635215757,-0.056603928923166034,0.083190164637844954,0.060025697877280022,0.080310362692095419,0.18495797350518473,-0.0648376338138852,0.068733409042381954,0.058994130771792011,-0.047066445483041244,0.046200113071029773,-0.0013495606662315177,0.022999680527953398,0.064871486416632845,-0.088646397483958181,-0.091211827443067925,0.03788624554877372,-0.034290666788892296,0.07145227451283126,-0.056285034296399292,0.077030919236828546,-0.12346716811506579,-0.0077335862892046027,-0.13281418748750828,0.036216597922357881,0.088351941597521924,0.023800576819393529,0.001960968486924051,0.0080033510544450688,-0.0025821934219661144,-0.11674416680522595,-0.027815736967804216,0.079852897731008857,-0.052789868686651358,-0.045455918582191723,-0.010084533784324768,0.005194934071249783,0.01374502759359122,0.10412402877241278,0.11450579148371685,0.083186778982526757,0.14201116150772888,0.020802038774019847,-0.0842992572035752,0.045495099916855609,-0.062295578046792414,-0.031904745322130487,-0.088528397002620413,-0.023437504434510082,0.02363578315510961,-0.09826463980573219,-0.093121906439514221,-0.021249378651397154,-0.04161882831857782,-0.055943725580215306,0.074938111885473238,0.090726994715848719,0.016517958286768466,-0.09045945209845864,0.010903947929674165,-0.015305798268993618,-0.06035019858309567,0.040254189918724606,0.1870627596190968,-0.099636332434414832,0.06759211609325308,0.040584184017658363,-0.16540754363902155,0.045782949155580795,-0.00051895022743029564,0.026703181535079421,0.087187317755622815,-0.019411097881650366,0.034070283064192179,-0.073600930717178728,0.085232091918378217,0.016090114483195521,-0.04046861655117729,-0.0062178760509757833,0.10849776218328229,-0.042440940975968622,0.026223296209282248,-0.015191806245847313,-0.038121927652895148,0.028860688895335246,0.0099565332223866647],[-0.061471279440022071,-0.0078273824516588864,0.14576222345779238,-0.13809880020152254,-0.066050285960853772,-0.027107825832378758,-0.18048791121115157,0.097608264015154725,-0.032739304848322659,0.10255054282648378,0.0070637019653251656,0.058839706302121368,-0.034094530031708092,0.035729556463118851,-0.074149809680912129,0.00012667973351144764,-0.012042052564715699,-0.051121250340783055,0.024897218720961827,0.040712504928298865,-0.035291755851083947,-0.018420394352383681,0.05401236754994404,-0.12263065184307023,-0.007651287199727813,0.07205147839771088,0.013463084365082962,-0.12086896541066558,0.0435074279934204,-0.16186541849608291,0.091367317702052128,-0.038291846244615187,0.040925339713877261,0.0050773550385620212,-0.0070663975704918173,0.077593513015117216,-0.016472210931708343,0.025000388228539946,-0.042080796897232042,-0.065942192837154551,-0.0634342757296172,-0.069738633041768583,0.010580744761818563,0.0642914298988604,-0.010680301403698795,-0.11962674518391682,-0.047946217865073866,-0.025518626487035748,-0.0069215614848168574,0.056109730329584245,0.12378631418901513,-0.009275038116262976,0.19376807550339556,0.02480416615914938,0.032280408598705651,0.049247709486027816,-0.039979555469320374,-0.0057330141277468528,0.022363784026284615,-0.048052817450048378,0.011275163620404934,-0.14555097736927064,-0.010883986020992146,-0.0082905456287121638,0.065347686140193359,-0.038201335974189406,-0.0491705218581896,0.0026828206941548493,0.071708624364208245,0.0088836982347208337,0.027936284780212369,0.039965098547633832,-0.05331819158080451,0.071203327142127945,0.052645188131935187,0.13659353239746191,-0.18494980666417218,-0.013391718540124893,-0.078937923116406253,-0.004362479232109532,0.10269560345874595,0.090625447121044353,-0.092505642284895079,-0.057823767509357069,-0.12206433238975549,0.093712554168907586,0.046515510927794,-0.072231866801302114,-0.022619086219252033,-0.12001651877508414,0.037572131938170515,0.017158981255475644,-0.13698196786725625,-0.03349885298331743,-0.04811878443246026,0.070703579101474928,-0.077851093863243917,-0.035038640276950972,0.072837879030910518,0.13006573930136639,-0.045926637366568546,0.087939696412064283,0.076517446411961648,0.0040682917605619458,0.0506943311834338,-0.08329713041712207,-0.0610392360821822,0.064677288567018251,0.043509072074563677,0.028718650759248683,-0.089378321343762265,0.067199794205158661,-0.033448268875919514,0.05243717964317169,-0.11974341032251479,0.024086111597070831,0.18292828075996737,0.13456964508025068,-0.058441796053549946,-0.17135351935653997,0.082464519437238745,-0.059891012050555886,-0.19025661817026343,0.044207472506140114,0.038926370377250073,0.0050796752681710258,-0.00763347082448203,0.0351550453642096,-0.03324027888054365,-0.060791217981541537],[-0.1500353751599163,0.049868910583746866,0.067572838363018459,-0.062839706699484243,0.11570125234353679,-0.027667413050885832,0.024283284723345955,-0.10943373399974053,0.1133037157902263,0.05521099503298299,-0.0089039537856210622,0.11687553858148152,0.061535907303838712,-0.0064569105141110261,0.094031087118877768,0.07909749539411641,0.025034899900469591,-0.030278747067309181,-0.051719104409229021,-0.077071955726665572,0.032253132919322275,0.010799014248836716,0.16349842254819186,0.060136756183725791,-0.052393676922432575,0.013563283026453118,0.010491038931180178,-0.053556606933366668,-0.052822128822082384,-0.020468918836086161,-0.088718114670052625,-0.049878446247659108,-0.16184740847148377,-0.030118056417926267,-0.057488695134751855,0.10531975918312034,-0.074943725557330462,0.066275659491161112,0.11973559168543013,0.032873234929880639,-0.030175883668905036,-0.060219177464666471,-0.059127178278812129,-0.09245220800657851,0.019939923078935322,-0.0073659255125901628,0.087521754019621686,-0.00905586621437668,-0.023940746461286657,-0.0035763599431844085,0.029186939607215367,0.11843971981096046,0.11425034516901679,0.038899646354725557,-0.066314149939961167,0.012267657858676957,0.05444602567029453,0.0012251896112260559,-0.0036923062039530405,0.069887198085445912,0.075491760650532244,-0.019849419470152552,0.11159412152337941,-0.0844171926748202,-0.013499666548177466,-0.063639097884466922,-0.053073273679334849,-0.11444006804907672,0.0031005930089465518,-0.12765669196097024,-0.0080704633256671755,-0.11513990898103141,-0.012218209304611006,0.058147719606325962,-0.0066317958748735991,-0.049196824921728277,-0.035347405940633632,0.007049963898403953,0.012523944288202004,-0.012718395726925385,-0.032994505794190956,-0.064272261432067074,0.011498522143443097,0.0357992771826852,0.074588014121351215,-0.028883254974185351,0.065631376314573844,0.022601906198142334,-0.00441238528056785,-0.040495453694644086,-0.0719123218848641,-0.10697645866650891,-0.028367377348666317,0.095307550818163722,0.0051282885508527366,-0.10298383750426819,0.048303377592363549,-0.080034095113843712,-0.017368212227650847,0.061434015395030246,0.0054622768917802263,-0.04017534054909408,-0.014006657622080525,0.012542848587870558,-0.07856097646542555,0.057168291849965289,0.059096431405796096,-0.087505524627398176,-0.046552529623650481,-0.012461777015202791,-0.016803920600901967,0.063986591008672655,-0.060142764841786343,-0.09225461349571254,-0.11860052629705374,-0.03603807071945158,0.10410245673030126,0.10693667510149336,-0.09741214784926229,0.13540962039510446,0.00275561212399386,0.055414659512771865,0.072313936876667539,-0.12994359879868214,-0.070933419224022548,0.015757538153453713,0.056369680073212143,-0.0068059904831950105,0.093268366361421759,-0.07896595719130077],[-0.040584164327950215,-0.11925049645791171,0.02118628632610265,-0.012514283592225794,-0.01897079989632456,0.11005404627575882,0.0092659416148262938,0.0126358798726546,-0.006576788477042227,0.03681035878353283,-0.049473512703334728,-0.033669520231051735,0.072163022989785927,-0.08415102603372332,0.031478985440788962,0.13600160852769155,0.025486151097953495,0.078777426921728,0.027124623520754485,-0.074597158904287086,-0.084298221190877737,0.060682942953579691,-0.10232720733186973,0.050361103133389713,0.026293506029462378,-0.027376374252642721,-0.050028846594226482,-0.052608427166137693,-0.029397788210996825,-0.024394760331311161,-0.11525147070537745,-0.075481877566001568,-0.055001876870304119,0.024905270714719048,0.0014551160653797309,0.0038822319934314438,0.057797526030733293,-0.032973028199995494,-0.047793582995760808,-0.00814844011005285,-0.022169326502980924,0.013552054854911766,-0.035574287370501924,-0.050821657308223654,-0.12847769755982283,-0.0029519660845162472,-0.014538995815698166,-0.0042814540085220872,0.016827331449264887,-0.079642615140211231,0.058500287784381357,0.11832570055404451,0.025150224010913224,0.05656531108308005,0.053268642677726373,0.047207973325320771,0.017435586748037548,0.079192785246087208,0.056853987245256893,0.13478429372459058,-0.0552759214886663,-0.038964310551767231,0.030465697624012127,0.042881179301722722,-0.11523783412423591,0.051329120548869178,-0.037692939767960496,0.044042316957524488,0.048285374115953919,-0.14306863480246465,-0.043860169970783444,-0.020307499025980263,-0.060268946940379389,-0.035003354525814885,-0.0072174632509433767,-0.0222999280397856,-0.094339994946701783,-0.10566516350216344,0.0012093542644805748,0.022635282749219821,-0.054855216735330711,0.016081270580361379,0.0026935066191269624,-0.122911425507988,-0.16437193136281217,-0.032656033892680771,0.022839495060383155,0.053357733290790542,0.026122952039168063,0.032801883355366247,0.021607559817912982,-0.027113241671127646,0.016543221525778376,0.0479260913247305,0.056756899897255943,-0.0317137355017081,0.052047734369706729,7.0495877022706826E-05,0.0030208461784678908,-0.014519222038257647,-0.070080310229294035,-0.13830055118779353,0.029993915492690697,0.0081624467569182436,-0.029478004065149256,-0.055987376180768669,0.0428014253642396,0.03767712166454551,0.082506441500240862,0.068344774966426047,-0.0074569349293818823,0.0026165584568026445,0.0460504164702082,-0.024110318580247425,-0.0025876112612134281,0.0726961682205093,-0.032784323612997851,-0.045793373031316989,0.026261267934719879,-0.041476400023779732,0.038524440166601885,-0.065073156329031684,-0.14071077135757951,-0.010496956956521766,-0.031490810083387291,0.0859333036176064,0.055264910736926555,-0.047661666313209526,0.046332276256274028,0.082301361919265292],[-0.04211130802594399,0.10308721374192868,0.0680250903393275,0.054541256258220455,0.0088199533739553183,-0.032229172280780323,-0.082357097880001728,-0.045952286053658233,0.076673686352294448,-0.025491018317118138,0.0838194448641476,-0.0056770532042486922,-0.050268929671071112,-0.074649330693065272,-0.022549957842640612,-0.13154961488356079,-0.026742834061962293,-0.060691146315288227,-0.016643103601987983,0.0055730197984919542,-0.04060122002645402,0.02164289082885858,-0.0052848359203364432,-0.033971951682552896,0.071795094626834283,-0.024011789548209834,0.041697867416581519,0.05328243890591508,-0.068764141856186053,0.016994247301890062,-0.074886693787699993,0.044499176942674065,0.031891009293092812,0.0023252985090118109,0.060885929180148679,0.08347835526443774,0.043826737170960958,-0.051161192931554779,0.055079375332120005,-0.022273544001036504,-0.063770808927475636,0.058612523581393482,0.064185023239721986,0.022855965865601974,0.083356443203394179,0.074586633125853924,-0.060446768863043919,-0.0683668079739548,0.12286503722645907,-0.047664985635756191,0.0019236668677883812,0.01407817691773818,-0.015719613060605368,0.080724603548566559,0.020725598268626914,-0.016123670838872086,0.12182927488653901,-0.12175159739999586,0.039255583793188623,0.010106442244148304,0.058560300813694545,-0.021434108267767024,0.044570465394058477,0.10124255533523277,0.10200312260481544,0.046881332352973745,-0.025049929591180353,-0.072978648933947746,-0.057594064809555333,-0.062956459067507908,-0.053033525247655665,-0.027228739910416327,0.066987157986585708,0.096394577182365479,-0.07663274357151488,-0.0636389850473791,-0.031435393634552271,0.0064430684899898583,-0.001398671184664636,0.017653585829932358,0.064765991761440059,0.00481750717829549,0.076605008004742084,-0.0755244751389228,-0.017879974958439342,0.067808208417621127,0.0935413185730462,-0.053354191317319624,0.017997889003104457,0.00406231518114795,-0.055163796794654309,0.015399904901559611,0.071091728951910876,-0.0042117993707002279,0.0092419841968523347,-0.050043898733039056,0.031100546271180727,0.087359023785717,-0.08151569393768994,-0.021354315815921576,-0.093132923528890965,0.017710485235132727,-0.1902944053743835,-0.14941454166467738,0.09625613823322858,-0.0039148484402118551,-0.06905180849324824,-0.12968868722565041,0.11672084480489248,0.019751248656809314,0.00821677485610685,-0.0018144230929125484,-0.0670492188348759,-0.10092135231782717,-0.072816225079503777,-0.08205481941149706,-0.0931029774091567,0.057393046972495768,0.028586040559624808,0.078662606203772814,-0.062365774597799531,0.06695245639523989,-0.044749870367096774,0.12613339499559173,-0.0659233776764847,-0.022118677763570974,-0.011812881204680445,0.13679093697800676,-0.00933601813039256,-0.044488548888830352],[0.0056274055014509834,-0.012228230235490424,0.10242044097033722,0.03331049988608966,-0.069124147643790351,-0.060565430156208834,-0.027452594573580645,0.062392847469252846,0.031534652835439166,-0.020373670795352881,-0.034094042358449463,-0.020249655139266628,-0.044939155034728728,0.11463904928285559,0.07966265771800643,-0.045072205950619504,-0.053198647171461493,-0.025214633172134602,0.013500119751806261,0.013787287292486098,-0.008891735876859987,-0.073283688983778683,0.070620188398686445,-0.044550679811290309,0.11005203862769324,0.039736837469854576,-0.0043798794769959234,-0.0022580995838045268,-0.0062722350286195669,-0.19682841631593892,0.066866260817164708,0.027195776304471606,-0.01126059249566394,0.043984974824682249,0.067099400210072546,0.11208172272914414,0.070176450137263008,-0.016644258908467081,0.050664234687785942,-0.11006319986778014,-0.0087186024191999514,0.17195943075732173,0.11534828135879409,0.0441701202048251,-0.071434211782926971,-0.00529340494853909,-0.10556689334093401,-0.059269152304869718,-0.062881796852057512,-0.04471602350046025,-0.0033383812606803207,0.096999599292065947,-0.018152863349380644,-0.058478689512862857,0.024086061562596964,0.12195545406832468,-0.1571109211237601,-0.037292151741314616,-0.053948681327785374,-0.043606947668795783,0.027980765983621696,0.12219257993719046,0.066761044236251788,-0.054890606488931036,-0.087097230002432274,0.0626521377118453,-0.098185337507441642,0.04312659555411881,-0.0216202192972877,0.038000077061548239,-0.053617346368572884,-0.020251515863737354,0.10090274659015638,-0.056710122878747396,0.027942613798613906,-0.012630690333199728,0.02530735388191269,-0.018297251116270341,-0.027481370499781714,0.033625077244316827,-0.045894804337006871,0.0071033513589265915,-0.042197264086112511,0.00876267582511899,0.058296487295903185,0.0722828632345505,-0.0705750481379068,0.040802939836328142,0.022017957138819783,-0.011018490502741341,-0.07000924908210715,-0.052246554900736819,-0.12531575574954751,-0.20040471634312604,-0.014656114506526125,-0.1039768903510105,-0.065194673991087027,-0.13257202471565194,0.05788305120999835,-0.07418919957852084,-0.018802497664815988,0.11090037030034555,-0.014096742946593034,-0.015039371441565514,0.090074055470319159,0.11679739779656795,0.0027253494307618686,-0.0052009067351050315,-0.032501850625563114,0.094703984798312657,0.058253739632877118,0.010313110345267818,0.015680065190702187,0.19495099566190285,-0.078710830536898174,0.078881527215580338,0.038302318848958669,-0.056635122272142305,-0.0097007453070194621,-0.055315155588807674,-0.0061973987379936252,0.12334872742170237,-0.00865267716126253,0.0635010024387691,-0.076891749816421134,-0.00035310509589107095,-0.037755997677497051,-0.0494860143602995,0.12316117543313396,-0.058623978310889668],[-0.033414682350475289,-0.032727561675350382,0.063384741287268689,0.014342548552710891,0.029632190957212465,-0.040858715266098883,-0.095396926420231468,-0.023236108660134727,-0.0022010033970978494,-0.091195796814672492,-0.085249186978904545,0.047969634438734025,0.064008509895809057,0.0030445070620703603,-0.096896633083652942,-0.10257340227457996,-0.028470166206418842,-0.019031420159839954,0.0532639873949904,-0.050085520821759356,0.031395719380225007,-0.033238139403009008,0.023692025780038945,0.0024830943846191056,0.055033940642721151,0.0033072069571012047,0.050867611135557704,0.010565851754390758,0.023351749524186404,-0.051211187743410456,-0.060090064935672885,-0.016592078330632729,-0.063678014099554273,-0.0883500774958931,-0.075195228366756878,-0.094688728573454034,-0.078949905504930348,0.033524940387878885,0.00527434128479419,0.062227984003164045,-0.0076118926337386912,0.0062103698407853227,-0.00056111812353678572,0.0307851722749949,-0.0646275593259439,-0.0060479566438343775,0.032523671333694104,0.07532305631346474,0.15241292294044523,0.016607404486097925,0.061083813194798095,0.014265372746764838,-0.0792082608365876,-0.091398478523129781,0.0023993056455267831,0.046181389266455528,0.019588506625675246,0.0804669392906669,0.0088079093176723442,0.0027548061714932014,0.044067037686912905,0.015587949851895449,0.014868740308973432,-0.042660569327367955,-0.00070729752040786162,-0.032298825612185493,0.012834954194004317,0.011175364584167498,-0.019735234909665719,0.0784223613041457,0.00049297774593753279,-0.061583366217050531,0.028731669537813097,0.017401521933773732,0.00056428026397625981,-0.017190977751757961,0.032222063133281055,-0.070926903983711667,-0.028764684058810365,-0.010115102703050584,0.029886552807282165,-0.013653204078137173,0.042206214902771454,0.028374848258897554,0.035708001995339078,-0.13003331813075159,0.0674784302240304,0.0329127070869179,-0.079614955190825815,-0.00038560542073649455,0.0077521800250056165,0.096493145839548641,0.0263153683293243,-0.0915169836042463,0.0240382281248587,-0.063452128308152625,-0.012234436530473954,-0.048486059623641775,0.046916228538654875,-0.066201473606306085,-0.043647810270889757,-0.11691175607376646,0.027179571524799939,-0.038422414541775973,-0.030776447352490969,-0.00044612138242328331,-0.066598554422620138,-0.014423302042795617,-0.02578629054873675,-0.00726817183940298,0.058479433802906662,0.050298342569637736,0.095288077724924536,0.15925255157436,-0.0959612497985768,0.0776553192668265,-0.049561136128333211,0.021312738296922498,-0.096868915930423738,-0.022821887044530319,-0.051048413067154477,-0.0130031187942279,-0.030790755323338609,0.042332900485861691,0.012053134086533199,0.021247152203729625,-0.18280767561963343,0.0964029074897384,0.0080326618539837118,-0.0657576291531296],[-0.067535970883308052,0.035820825677225505,0.17361657542245815,-0.0080385723509888568,0.12177021835567005,-0.00045570091233154697,-0.056852158024108208,-0.074010636202986868,-0.010621556169202623,-0.045888626715881377,-0.12300968402787389,-0.028260093956349895,-0.107334997447526,0.057805230109114446,-0.055846762879488088,-0.00663138674186134,0.065175805959078834,0.055040810609059042,0.03529112691642345,0.022108746418205205,0.09181673992187156,0.079690413449514566,-0.045109917596357782,-0.049668101340784442,0.08089298061604161,-0.042526980599276322,-0.032261030200862469,0.045481704272193627,-0.0086052556589877854,0.081144157836303535,0.099199238341082227,0.022750801729670454,0.048419619158370605,0.12902014226728309,-0.0752420324195689,-0.0496975770565588,-0.030023777986413158,-0.0742439206116298,0.095768487017435386,-0.16208880829633826,0.055326448614093887,-0.10886245215531633,-0.085373502782993174,-0.14271389883622734,-0.15566816410208331,0.038500257017814787,0.02640850210510538,0.03902227421916666,0.086460090088147923,-0.061862575725336134,-0.099387918388104679,-0.067219601305183688,0.0027896826305911066,0.032029294244434618,0.072033934731707633,0.0047518488215832263,-0.13965459759673721,-0.02095412280161555,0.15517545454401269,0.021249985343679875,-0.00559656687747485,-0.021122177292247843,-0.0010942272685919175,-0.0084179926536289921,0.028181898879630594,0.038472157961202416,0.088368749709341887,-0.066390509525170463,0.010105277168074139,0.12193588518184273,0.04585620621133453,-0.053275445394915785,-0.07150703407750568,0.065947040459889583,0.0729865938706757,0.10557921876737386,0.09914739040284,-0.04154974716226402,0.029871914959131378,0.018647417561928319,0.13684663053033075,-0.083405228163894229,-0.028330791791643838,0.028983050410622085,0.0084395817108165513,0.066021532364617261,-0.055743583946714109,-0.11559636097087703,0.021771405710502813,0.049712458469527945,0.1000212873048258,-0.034529169106199846,0.055981119443280485,0.043752963015366693,0.027693267376078294,-0.07339852537361953,-0.014518093156615633,0.012555853272683944,-0.054305098941414179,-0.062469963540385788,0.032605700362352392,0.032925764656584658,-0.038467838853812893,-0.0046508134137366224,-0.08211727960179431,0.029941953537991974,0.14643590406285592,-0.082734080178814243,0.143734156183851,0.0541620809458346,-0.030692642736576573,-0.056986065945432589,-0.15539616403533402,-0.27888100512929354,0.066641662019884459,-0.0075272016221034953,0.023373436887565675,-0.074359694357606268,-0.051937684761719206,0.0079200679313657773,-0.052049449453471688,0.048097415738431237,0.032948821792859351,0.039741432324263561,0.090356727014454824,-0.037962424802694891,0.014639094691343394,-0.0069564175655511384,-0.035073273701287232,0.027924662414300808],[0.000755689654885791,0.12403448302458328,0.11472879000902128,-0.014436893643781429,-0.16505392885645862,-0.05276787062926637,0.050619421122852323,0.047418526326759428,0.04107550996780935,0.026800586593351883,-0.062508301745960976,0.076577222923845889,-0.019396169324091675,-0.0039101306031805744,0.0772748503365164,-0.033379060367516283,0.0054872414236163463,0.1207718471798262,-0.10847165638233441,-0.0473623379234284,-0.071030601843062133,-0.051610702486233805,-0.051870238258220631,0.060776179876537224,0.042378204967616476,-0.068644531303069162,-0.11756160755213072,-0.0095888794394860116,0.11888503698565532,-0.0017580083536339682,0.04059611065057827,0.0038591834472718922,-0.045554726700796,-0.12152782519893252,