{"BatchSize":200,"SerializedLayers":[{"Type":3,"UnderlyingSerializedLayer":{"Bias":[0.0,0.0,0.0,0.0,0.0,0.0,0.0,0.0,0.0,0.0,0.0,0.0,0.0,0.0,0.0,0.0,0.0,0.0,0.0,0.0,0.0,0.0,0.0,0.0,0.0,0.0,0.0,0.0,0.0,0.0,0.0,0.0,0.0,0.0,0.0,0.0,0.0,0.0,0.0,0.0,0.0,0.0,0.0,0.0,0.0,0.0,0.0,0.0,0.0,0.0,0.0,0.0,0.0,0.0,0.0,0.0,0.0,0.0,0.0,0.0,0.0,0.0,0.0,0.0,0.0,0.0,0.0,0.0,0.0,0.0,0.0,0.0,0.0,0.0,0.0,0.0,0.0,0.0,0.0,0.0,0.0,0.0,0.0,0.0,0.0,0.0,0.0,0.0,0.0,0.0,0.0,0.0,0.0,0.0,0.0,0.0,0.0,0.0,0.0,0.0,0.0,0.0,0.0,0.0,0.0,0.0,0.0,0.0,0.0,0.0,0.0,0.0,0.0,0.0,0.0,0.0,0.0,0.0,0.0,0.0,0.0,0.0,0.0,0.0,0.0,0.0,0.0,0.0,0.0,0.0,0.0,0.0,0.0,0.0,0.0,0.0,0.0,0.0,0.0,0.0,0.0,0.0,0.0,0.0,0.0,0.0,0.0,0.0,0.0,0.0,0.0,0.0,0.0,0.0,0.0,0.0,0.0,0.0,0.0,0.0,0.0,0.0,0.0,0.0,0.0,0.0,0.0,0.0,0.0,0.0,0.0,0.0,0.0,0.0,0.0,0.0,0.0,0.0,0.0,0.0,0.0,0.0,0.0,0.0,0.0,0.0,0.0,0.0,0.0,0.0,0.0,0.0,0.0,0.0,0.0,0.0,0.0,0.0,0.0,0.0],"Weights":[[-0.32448718878786553,0.28673522742220264,-0.54932525112296515,0.2430661294155379,-0.21109621924717775,-0.39545771775925154,0.080941724634142051,0.79672957122983346,0.44636561322608848,0.018129525724754254,0.0054174840349211937,-0.61759730632599119,0.50063544059713572,1.0110714245106107,-0.36640892153188126,0.22063630996205741,-0.16803767937181785,0.18681481737509542,0.17380168932768209,-0.11662884483057387,0.51542862902870978,0.26217264914605443,0.3124285502065724,-0.36222032754374806,-0.38950028518284291,-0.45688025850517988,0.5239961071604643,-0.025421548285452081,0.36111015297318461,1.1128421993989217,-0.44260806991473878,-0.67234774084010562,-0.26403331273582786,0.068686668035335519,-0.27513471932300521,0.37257635164762642,-0.63858467742881386,-0.040025072863040939,0.013413356179636684,0.35620318895833486,0.13035318429993384,-0.24116835726060654,0.40948759413148011,-0.51455952351627821,-0.49226533498046487,-0.12990816436665406,0.26818746075916317,-0.063225656855086271,0.82539859442517016,0.74217917499903863,-0.34246370607203247,0.19352600726760025,0.012562922746103697,0.20113456922708395,-0.094935995042568791,-0.031003756016158408,0.13498691398590246,-0.47221585821865153,-0.43550953395212871,-0.24977782284913591,-0.095406300495365484,-0.40673648766893561,-0.35524818950696951,0.27806368183969865,0.086069101003924467,-0.58046865325172026,-0.14185249078051126,0.47525195810556842,-0.30123679565426525,-0.070897900699049651,0.91004407227527973,-0.81563776565039436,0.49408840862674452,-0.20616465356323988,0.17242603420943969,0.0676645437730516,-0.062096448961496034,-0.34433241954663624,0.19854193943309928,0.2035001596873289,-0.094163267994549438,-0.74424895636973765,0.080762776396427149,0.33708768240414388,0.66850822649132757,-0.2127025684039203,-0.098153241406627442,0.14481637290837165,-0.73605090555081076,-0.24518401008032892,0.37605344469025065,-0.1993189977947675,-0.23834916856926086,0.18059170194316021,0.0055857407968730351,-0.3163681967472643,-0.41113620550890734,-0.23865111659643692,0.51595047747200373,-0.069106975994159756,0.59485362350382309,-0.020362937743565464,-0.31042606175822024,0.12156665774827979,0.48295822868144611,0.10460011212459087,0.40035044293495003,-0.36737103807379357,0.2549356454132724,-0.11842851731481471,-0.10739167280990004,0.44625467176111461,0.53358118675397659,-0.83636276007828347,-0.1465761028092448,-0.036035509078763586,0.51744701709891094,-0.27824670595357126,0.61752088931057,-0.2388082017684087,0.41135558587251964,0.10295039588309964,0.56658357082811939,-0.019830896882750831,-0.20658417787463523,0.10249037020408144,-0.21586640525484735,-0.4961233072976744,0.43536669590935551,0.65601103430976337,0.44250644821893564,0.49451731577218894,-0.089436823134261989,0.43737645255550694,-0.034049348397268406,0.14836241691089011,0.1769428434814157,-0.45737508705111724,-0.52031363676533415,-0.091588464616258608,0.55261983019900784,-0.3043982214355983,0.056165657627415246,0.13008787680917314,0.4027283664613972,0.15607368857514051,0.3044591937846457,0.42022611132953136,-0.372990212617195,0.28588259404757371,0.21426306084265348,-0.19364913801043604,-0.31239810456032296,-0.69685485192656371,0.11924204509404487,0.49553611805883141,-1.0099065636039397,-0.258102131778682,0.55157980048849631,0.19815153169688121,0.038460610489933739,0.023708610614946189,0.23540608186234896,-0.299243631144234,-0.33159623361880919,0.77403918235125535,0.93578422817865337,-0.67130416120725689,-0.25020939462166442,-0.16099680139037953,-0.11789323766545262,-0.0023269611551200689,0.10981865461798306,-0.38775913664145145,-0.11668295371968597,-0.67781847726086186,0.32858045575867684,0.22004070996403227,0.29423826177777457,0.44024041071402836,0.28630111095511496,-0.23663304741795138,-0.20951449226335961,-0.25393361980726042,-0.030974256583243622,-0.48869090425225992,-0.29394891164526149,0.57546050320966824,-0.36510736186237674,0.22023739870542852,-0.37506790054786759,0.14801521816622493,0.06898054202588362,0.20641494251407455,0.029897846577167046,0.83943446252997433,-0.47539764425310088,-0.099448246228507273,0.23165044910616556,-0.45277150445979458],[-0.263488164993263,1.3252176661295045,0.21521100448115463,0.073704221097371486,-0.72032930967250242,-0.073212312885446315,-0.040596175511997568,0.575550211008227,-0.055954718205868906,-0.28471784593805177,0.32056515819788256,-0.63377079767265609,0.16746454577476547,0.38233021885177959,0.674448236762773,0.20265616172646073,0.32779162568047276,0.63755274379939775,0.17143711953971505,-0.26156846441975135,-0.016613225955902984,-0.45012157136134423,-0.092496299479679855,0.36163502397941494,0.11703290146521009,0.75301980390867451,-0.56868849452302284,-0.43110124607317757,0.22226322137336504,-0.22470401214865371,-0.22147430529732015,-0.72126411702871029,-0.36239422709101349,0.85770054400125106,-0.098524813102286016,-0.38990813798417268,0.21476840016110982,0.070832593410411565,-0.34745747759982293,0.23308611134644819,-0.20851084017282778,0.42513622568057691,-0.074576938217884942,-0.6521812134024656,0.59060057419019019,0.306305410741232,-0.010631422122952013,-0.27551416343340812,0.7231108878777992,-0.0066879067387987023,0.36971436667173641,0.0668598950826478,0.67230737390590545,-0.18441147999457744,-0.36285892269424624,0.79491839901257932,0.301611805484388,0.34606046222818876,-0.25221451821221264,0.0424838022015817,0.029544665280679179,-0.35179193191271024,0.021672102079288047,0.041783663602735263,-0.42085143486497018,0.66646908194393317,0.1231458574271744,0.30272681108040417,0.53186965519211427,0.62325475130155916,-0.013136196503003588,0.33434949262585978,-0.12892901856680589,-0.71106525802976517,-0.3001747347288567,-0.35804418150993572,-0.934012971558622,0.2381548515091988,0.31276805014362175,0.45153609054326649,-0.20988665136954277,0.22150087041427261,-0.42529505002924894,0.57277026132126885,-0.54081181655377863,0.77267371106314442,0.22873549887998607,-0.32470145350947255,0.069563678097170886,-0.475828506451273,-0.44269782817016723,0.014476717376320161,0.19186832775532375,-0.10862522832551216,-0.067814664219525408,-0.11705894988503116,-0.99932454278559746,0.45594271196926583,0.18519526372489256,0.25143718129649995,0.038748266959724581,0.41693691914805592,0.38956342770343666,-0.30555281468179873,0.091098352084441031,-0.34020552239844243,-0.57805209747889774,0.039046153203251208,-0.20798657240064408,-0.19739002300414588,-0.33307888340301811,0.45787343576889727,0.41144169343101139,-0.22123433319156227,-0.23238357593268585,0.77059091182568884,-0.023149041439162285,-0.32815140237437451,-0.350237674426282,0.49330799793357655,0.15727166107982435,0.22722082253586487,-0.17625615384581495,-0.457267340695857,0.0725673479688723,-0.038408723393958268,0.58001263496173161,1.0900824839539081,0.36837455966544663,-0.77064116353422485,-0.03722657281741714,0.27707979004996264,-0.693305850701981,0.26269701643233873,-0.13062625551214274,0.1868296822323158,0.11054493047172494,0.24325231012638079,-0.23541676688097066,-0.42383568581124043,-0.2428156911431717,-0.26744795047658437,0.12668327435201907,-0.54784059324180445,0.53538767589948422,0.073914232842312064,0.42194468412104896,-0.22235522469356031,0.72023649125381761,-0.16173765777977542,-0.40769412916509917,-0.16229564927267798,0.1112888110321818,-0.017667600619955079,0.52066448198134607,-0.47122102717942194,-0.32098579173911135,-0.386480940642058,-0.040249080193848513,0.27188890204919114,0.052450163204945284,0.24108185247560979,-0.59218489918431816,-0.57817124409788012,-0.3675653996250709,0.13178678136471786,-0.3722130741228849,0.3837219985356356,0.12347027947745826,0.49125097949964186,-0.36654578874859617,0.22349111236801489,0.46867409875126204,0.16365187046524626,-0.066489279387027728,0.10522543557355484,-0.34463369420404089,-0.49619836851140475,0.32441989735397175,0.53673037128794854,-0.17438078454879769,0.31790554912837549,-0.33477903674003784,0.224117243359409,0.52122504950681381,0.50971112164502042,-0.16703270114243202,-0.25585262679042631,0.46127534643179274,0.015885454649177583,-0.4618287351960576,0.13492858302839225,-0.13828110664058732,-0.29120206307853091,0.027903395441642793,0.17625652693952598,0.008802868863778469,0.27515240042869543,-0.34328522468897432,0.71326067042213415],[0.50939712267824355,0.035003720925237007,-0.45433201056414035,0.89573650664044779,-0.24550691451938669,0.28770060701600286,0.2703364413253771,-0.34075531573056422,-0.38104632235170888,-0.47008470465994506,-0.37625216395602068,-0.15545880922392935,-0.29602692952286153,-0.25355029971006726,0.0904504402841518,-0.43241147909144428,-0.40128179958661897,0.46582793846709597,-0.077024304554419332,-0.17252880570494597,-0.30070571055823886,-0.12941447777701742,0.40551748902000878,-0.033992838884729107,0.099835322991939812,-0.32553285795109593,0.42686845924266137,-0.16247854574324547,-0.095940427966818329,-0.27289424354471048,-0.19280549986713888,0.13182040404350578,-0.06023882770534026,0.62347505584744622,0.73920991782901546,-0.22526546565819031,-0.22881168223783416,-0.12021173529708229,0.35416308460871709,-0.15308140664214426,-0.22581855323412955,-0.24600375427275267,0.25791312647858183,-0.52658539732334742,0.55048690320681593,-0.052933625833679887,0.44264079846898446,0.029632079142525754,0.30643363431393533,0.28072783274497071,-0.41924043021092011,0.18134906142141541,0.095349347736402967,-0.04576230239503716,0.045118783142810509,0.09465873993651551,-0.79650500153867454,-0.637757249265539,0.15831679556456829,-0.18520133788354468,-0.42174995702183576,-0.39400368381863354,0.00917617715275902,-0.36620405418110369,0.1589344408249804,0.48569935982959833,-0.65543910827081464,-0.14600535021930058,-0.35455222651805585,-0.42422941632174127,-0.35264027674225451,-0.338598303265901,0.25048988676416373,-0.074061194482660922,-0.20118125809566298,-0.27361559999520224,-0.38748178738125583,0.0065722647905251041,-0.31193505834765495,-0.18611340749637623,0.43042030137491438,-0.34467171470991226,0.50349475653046338,-0.15510633823777853,-0.1472715121769923,-0.41927612558418004,-0.25684364778269891,0.19489965007714052,-0.18198185949438214,-0.59197438089688159,-0.10912474251402526,0.16362864135626143,-0.29057977083338626,-0.8506591494685396,0.079617369829138418,0.065198344796113916,0.47144976271851213,-0.19843804273680932,-0.1960988474866712,0.63906904484060112,-0.32393098609440624,-0.27869478597175534,-0.275561279236397,0.10239539407592098,-0.19835180084056109,-0.03314884932788454,-0.32114344313503129,-0.32610666267851984,0.27560422221998337,0.35971381729660173,0.0128723961768632,0.22329198179676613,-0.12090049383698424,-0.46994903215396588,0.22118364527146897,0.36852724725297614,0.10930462983369078,0.12709006891282793,-0.39998176770263938,-0.060219714286007066,-0.12340348801021688,0.12763559469724678,-0.41978449716269611,0.39902045939940156,-0.58050050452020263,0.12188875567785665,-0.473185685157514,-0.12311096058290039,-0.48129568785546317,0.60384116980144631,-0.052487802998549125,0.076392639247944927,0.72146363345726128,0.34377734379379771,0.57011876642994663,0.27614019939832224,-0.30683282812680912,-0.46070428104629463,0.76749638695798161,0.046129093299672588,-0.706410303787695,0.61646983230584129,0.36384858145514559,-0.38227799938907348,-0.050793615043604565,-0.035265573080572592,0.494740333773768,-0.0015706387247156083,-0.22209901157445797,0.17340174178847254,-0.7468681724475581,0.22458871574139708,-0.749375253150288,0.29350182750327553,0.39944719346949159,-0.030364258146987115,-0.527794582226412,0.50588684906277215,-0.57836541584436729,0.13401533684874128,0.056344242530770264,0.40078470354623952,0.44523184866913612,-0.76195759863607115,0.37720777077659323,0.13711221350891439,-0.036079269333851444,0.054680997091569532,-0.57982319410349759,-0.014511089854122814,0.0055966730608734252,0.39163117177898243,0.23980671537052514,0.18547281757038722,0.096646265724702848,0.16752010971945647,-0.087591980295269822,0.26479422060631,-0.13901817467858735,0.4680204250814945,0.28364667347470374,0.27389827728700294,0.45551419923792263,-0.39210234477999606,0.11182310989222573,-0.072636028462265426,-0.3771342235541929,0.36762294601100709,-0.056164871538979325,0.60215028175899132,-0.27550311593022492,0.21626401230621042,0.21236367960351568,-0.95324057259333661,0.12666040707405879,-0.19576237257533269,-0.37893883984299959,-0.18258026990578846,-0.33153578846798432,-0.45004099324267055],[0.66371095822468706,0.28438401613549924,-0.63577836694833645,0.045910719810279055,0.071145376484666553,-0.549485148732283,0.28559478078030076,0.049514565555831121,-0.62876083235558944,0.065937422734141132,-0.43717666906108132,-0.36567790575932085,-0.24155462005900705,-0.1456182094980204,-0.59946930951262756,0.69868136973836859,0.78417299242391092,0.53127205075226669,0.34169032901357088,-0.23878377264294895,-0.17222434276623438,-0.51146467462226786,0.59540246526151352,-0.1569095492803467,-0.059543667905555292,-0.40609235306269709,-0.39039848375277791,0.46904047394006504,0.068441063691953824,0.10137272138380551,0.23360408659248697,-0.2542917973478046,0.19037454286998642,-0.095369960885376859,-0.58555261717429585,-0.25504568005084,0.51435566404393507,-0.21707273151805864,-0.31406124723465995,-0.42087057374234293,0.27748731700209739,0.2519158835247377,-0.0034217634533732326,0.034651678466435715,0.40120014318846375,1.2771721262009652,0.2896440537784562,0.38088872667222146,-0.0013479477736449753,-0.6119558614345485,-0.40003624642853536,-0.2125262452838792,-0.31006009989074751,0.15827651855651151,0.632340290587899,-0.036519251308205575,-0.012161721206324649,0.22444844690348192,-0.11681495746183192,-0.4790564113339994,0.21390237710864452,0.18930494865843831,0.24187483625051928,0.29413548182246468,0.067768284926655986,-0.27231003185805386,-0.073607455592735127,0.19304835212590543,0.38090300640904229,0.36392013590824296,0.091485034953356276,0.061655218888324953,-0.19680053018778085,-0.047306327021080993,0.37932846947596244,0.44992802789860808,-0.087612985604577226,-0.50178897549307078,0.28759117504969312,-0.65334753575060545,-0.13537126322916859,0.53360421442604766,0.30803492716309783,0.14482570718627119,0.020832475532173367,-0.13284021539502128,-0.56977509271813631,-0.0038903080215452451,-0.035995337864531754,0.40786944568887185,0.78153904660786644,0.21462511312223923,-0.024226537783752857,0.070785597848181878,-0.32632632266772749,-0.14301269972879815,-0.72837550755540215,-0.67911137631131746,0.30317575898456611,-0.45694929379774424,-0.46112137282701926,0.6884036660545203,-0.15016747864828434,0.3511628000910767,0.22549272494828149,0.13945006373412563,0.1104515690310757,-0.16308439984825532,-0.91992936396089842,-0.0989271827584851,0.31552197682487693,0.22185337549722181,-0.5368169933675303,-0.32671023975206454,-0.014236434403444125,0.21695955629498545,-0.58968754959292824,0.054163172062016582,0.10657323791753055,0.66197378886176361,-0.35265732691256224,0.54737720254603983,0.035836630263127334,0.16288787607549965,0.4320475339182076,0.32837111411676789,-0.54390022559604245,-0.3889095455621136,0.55342153135710226,0.22431546894325069,-0.36686847252621452,0.63476729919959052,-0.022945897413638703,0.47215664657358863,-0.96758112345542935,-0.30670055758874459,-0.084847660234212557,0.231754924874316,-0.61348653083504689,-0.049397164353880633,0.39740883027784829,0.45004184460919783,0.37309416111414645,0.37029582358686142,-0.16483303457743193,0.19578921607399361,0.0038097457556405976,-0.28363123181567435,0.24600086728543621,-0.15402362490555702,0.02503907481839807,-0.50642552074787128,0.43137752379919247,-0.67772840921625432,-0.44586524636539371,0.49851991801914169,-0.13614452703207694,-0.12883152811792065,-0.1720640771712236,-0.0090116904027570943,-0.65783360925111645,0.14045401733339988,0.081959599196587157,-0.035424808181116173,0.077704186571879122,0.081490164354926647,0.085398068753539863,0.24281654745178638,0.47128720671899305,0.2696738184581326,0.2410517042729301,-0.012324368946724378,0.14269254335110687,-0.27880583505350964,-0.48668721450950925,0.60474770716119752,0.0460272666674642,0.52312716867086639,-0.16175818203131206,0.006406984164091134,-0.42149936294563423,0.28662980325733739,-0.6744750174947125,0.4441893197595338,-0.17777595205058258,-0.019498881880067678,0.42472111602932727,-0.34798783601655003,0.16325980053019443,-0.67514671654676961,-0.23262389942712797,0.17911240085446933,0.28369763487922506,-0.57509444684088851,-0.17879304619558303,0.43531155250698195,0.48680071386079615,-0.10883235159976754,0.034721340000220778,0.7166419883980939],[-0.040486850185429767,-0.23021612499880742,-0.31822967115638351,0.28303841957966508,-0.2929478079783156,0.31945729476678786,0.009564894686210558,0.66589150052759982,0.20963123165369405,0.28568555829995629,0.046022139928051632,-0.12479951927333596,-0.39387231070723394,0.27145954098826941,-0.17437478574701207,0.3761556093189441,0.053236358195794933,-0.045286999066242742,0.12571073443313593,-0.33829610565467366,-0.39807774729395407,0.45772723777399332,-0.73491910695731166,-0.18545011763811381,-0.11739151759211382,0.29043965916445913,-0.79358318948185047,-0.67689106131247057,0.11340610346520286,0.12232706583283737,0.959689475242481,0.83651729373273986,-0.31981723935511142,0.16252670454881454,0.13804139522433717,-0.31014420868629888,0.076797045941739625,0.35723760796399773,0.067595421251785137,0.48193058177527159,-0.32048574807008307,-0.071726824690677454,6.3021125578321781E-05,-0.11131613273017772,0.51089036438712321,0.35520576251900804,-1.1424198236961798,-0.11383347532331399,0.10513142583228802,0.71274134564381486,-0.69160730479256338,0.22495644539364448,0.27034177414794724,-0.58915570625731883,-0.37819026144306173,-0.46024942193912038,0.56772204217588207,0.16615115178544584,-0.341152197953259,-0.13639303274483497,0.2513470332426912,-1.2334171114339749,-0.67960380771265727,-0.16651137579356773,-0.1739734864950552,0.40007686551500143,-0.45029244106649335,-0.18184117249390314,-0.46913684664427285,-0.44496882639199048,0.40425131458515617,-0.71078158548615811,-0.067049119678755556,-0.32940865958523957,-0.15670007139007178,-0.61478390528938565,0.85600454204717458,0.052312573302861466,-0.0040070407177588722,-0.019442248617157546,-0.238959301987971,-0.42132237916537363,0.33263580227658518,0.91118566113952759,0.61801041437050208,-0.068689933694315267,-0.98984098209144211,0.34516373318767885,0.22398876279877841,-0.32630414724019985,0.0038959489013440747,0.18036904116359936,-0.47304831798213443,0.026952471273831508,-0.052827274556007338,-1.2255529480321397,-0.77758359990087356,1.0098252173165339,-0.42447997251620689,0.10491483364377748,-0.1160360630104746,-0.5071155392078035,-0.644976769763756,0.22554419026892625,0.16124482027743017,0.407575630989598,0.26546327111627493,-0.26398756518139266,0.27510632170973487,-0.26554928767730673,-1.0520374577251406,0.12650316696978747,-0.012819831240329078,-0.10481290148703672,-0.20794664699589452,0.16992444710084786,-0.70516395717004543,0.43960262458838539,-0.34520785203544635,0.22180766515951481,0.049061572105988854,-0.20339634438674584,0.15974337175491465,-0.046923711100625619,0.12299379228952377,0.34038395124744075,-0.24571052827598985,0.549732766340085,-1.1941047494987418,-0.31861429470053693,0.15328661877390373,0.27919806693611665,0.077901852221405554,-0.29906780903378427,0.16439015998270706,-0.38645707054291573,0.22078832061235268,0.045188519629528509,0.47281550095072034,-0.18488846004807888,0.59212091299928671,-0.15797075550626386,0.38550062176445782,-0.21517343635880534,-0.24969747884615329,0.92350624159680028,0.27961889830660253,0.071135931605410554,-0.51169809291169188,-0.011366482526921578,-0.24882277452544652,-0.46458190594380633,0.69074304024503375,-0.4135471975886697,0.14560758893366052,-0.041480242496174442,-0.096880945548004679,-0.146084799302259,0.03458357744002058,-0.148300563882367,-0.22339959171362642,0.42267331210325587,0.55128373695564348,0.15211525168708415,0.24766297835626192,0.18945406727236058,-0.832360683505812,0.1252223101901396,0.1666352793754011,0.082574277478513813,-0.2639722268903531,0.14152195432195583,-0.0047980340934351,0.75573359473180723,-0.072025112953541082,-0.55363421340484609,0.2821858773526173,0.091509141227145749,-0.70307647298680076,0.21702596830582471,0.027883202875139245,-0.55897378148511889,1.1923596517006898,0.11166804801959705,0.51733835419428553,-0.063678216231027235,0.43418941815046319,-0.06116584066173978,-0.14011462657620813,-0.15889056713698888,-0.11024974694633426,0.07745963951299957,0.74186725734165171,-0.014249731541924011,-0.38432798595132633,-0.20087597093954915,-0.054526622219860023,0.3644324950070037,-0.10805869301583723,-0.079112927583241149],[0.079135273516226484,-0.15314517224092566,-0.31628918025898473,-0.7813900646094748,-0.28245145702930363,-0.2295641422298341,0.39230792014974758,0.70978793994569489,0.37957849162015384,0.09938497232883764,0.23705171463174196,0.11500455375342991,-0.35817932666319008,0.048740846876699218,0.150625192613953,0.25639341764255874,0.20172314632892843,0.082447825645215814,0.2456844952100874,-0.58251030095235778,0.16829351266436157,-0.42140544760973137,0.4324815779590685,0.03749025335167902,0.21324661214123958,0.241823343394066,-0.013808842700372769,0.64754162263138337,-0.16723373253273047,-0.0094161751462665,-0.64471914485925153,0.45127219173942956,-0.15551088873856997,0.23344326336153859,0.50041222353809445,-0.14753289949828236,-0.55160842549705846,-0.3417479649306322,0.030043884136492772,0.11872519992137341,0.011445817307022871,-0.23346182391689474,-0.51634885327015556,0.39171324693965387,0.065863713169979729,-0.002907432541553638,-0.16144862266087903,-0.38077767867486279,-0.2633272233825304,-0.30485544069601855,0.033543893124682492,-0.18517661593111637,0.57050040278097991,-0.010143088838670628,0.09176222986074091,0.24492851763936951,0.071274006928714551,0.37059291961280616,0.22393494741746414,0.086770330921472155,-0.47430874816437546,0.083016679547966377,0.43031194625748037,0.32412474697689475,0.046428541585576862,0.00672775844206071,0.37676070671486944,-0.40368928382499419,0.47658484858413147,-0.016156032477368673,0.32309190210290295,0.10634558775046979,0.24746345735137776,-0.40793786389952352,-0.36330008404562547,0.57175472181646614,0.097719789437503243,0.6810970193950916,0.2671728618776405,0.24073520883230165,0.34699999099376938,0.090633960191119342,-0.11697897409867585,0.10090882190329595,0.62697958526178432,0.36838257322689877,-0.1558987542124535,-0.74687242505905627,0.502590807207937,0.10286757710462353,0.37783240588403422,0.39854408573120681,-0.52763968794855165,-0.4144368715378432,0.11279176782327577,0.95733230604704811,0.44299095571872754,-0.58036879257190654,0.34892764127617693,0.08411703832892771,-0.75798850145064323,0.18344772951863855,0.23492050954876273,-0.12753657395970891,-0.24642934459836166,0.81482174239370087,0.060942862132961031,0.013443070379542125,0.28547191947734291,0.061731401493075558,0.129961058498134,0.56316951518605973,0.46552903360908976,-0.38953353304726,0.13891768037893432,0.075438595479662043,-0.24117689422146751,0.363218318451946,0.3046884944594383,-0.3523549210766751,-0.43186473182836804,-0.11878201905541869,0.20506493162802586,-0.75577793095949386,-0.22428484079803668,-0.13347954713932106,-0.10681709651907655,0.65557416249906475,-0.54023094446521835,0.19199180548978917,0.13887737712787471,-0.57023182565550523,-0.24506633920140525,-0.1662589068139709,0.19310259331522484,0.30760086715254614,-0.18875107401716207,-0.92643088559622078,0.67867071338675145,-0.052365353089091744,-0.19907737710237039,0.3397215723394168,0.40312963642298122,-0.047343602541826076,0.38153437632521287,-0.15789004758673925,0.3131565434657077,-0.37942016423491448,0.090277483632859437,0.27729407631919328,-0.21703743001307743,0.79072188628610562,-0.0249278010396001,-1.0038268654836198,0.75846323654240011,-0.17043254232546506,0.23378033321601524,0.20147016417027844,0.020918630546896352,0.30691637961252238,-0.026777485104096655,0.43655852726297389,-0.47743792210952818,0.33676312989490614,-0.70577288177076136,-0.33564275744177791,0.26868081081359968,0.1695936294742981,-0.23584915300445411,-0.1302174856117462,0.015787863655739042,0.29126466737893747,-0.20873408658556389,-0.311833026047935,0.80120156373276741,0.29143845418533326,0.34253590419290864,-0.46903885171228038,0.40957671648127209,0.018640625865305672,0.13274654813424627,-0.46208025239729028,0.16916182352093728,0.21123097596713111,-0.46395485583014978,0.46379283264968224,-0.17491956622858768,0.1127848731613784,-0.35837986957523216,0.068556923842041248,-0.10724433995754931,-0.23410801547511836,-0.55731049217524087,-0.036526929873594224,0.803057075353465,-0.27672796427734314,0.081417351114104447,-0.27995776521991339,-0.16235412111494751,-0.1381886747464699],[0.3264637897899535,1.0704945123117202,-0.29363827230871109,0.46342511777869194,0.07674402454483048,0.11266355978702732,0.33135273288401523,0.45968324364683327,0.33799738869209561,-0.36029736800638795,-0.10655938170517727,0.4212045855420497,0.15689331691141639,-0.54363405723683089,-0.34668273681350514,-0.095659958859156569,0.62429387152835814,0.66327528812868186,0.44644626820296712,0.44696699045323551,0.0821777627772108,-0.32342192213455329,0.18029011948581347,-0.84895145848890863,0.026411793115212488,-0.9845761570827426,0.04242325640666704,0.12656903178250858,0.12894590935294081,-0.30335545932620239,0.27449167308822375,-0.0809071576863531,0.36057682367673544,-0.30486887980702082,-0.3230462317802803,-0.091301613534491469,0.13592948497943813,0.029952121123667477,-0.074365316628839,-0.099132783803434765,-0.19751950577664038,-0.61574780456672284,0.53759896078373537,-0.26790317531039531,-0.11505179812321723,-0.51865619597562163,0.42681289964324076,0.20769201218560626,0.031909800987338768,-0.34495893400142164,0.22646599519847524,-0.6531710191284561,0.3083383408575785,0.22474296427966245,0.42856254709135994,-0.29575776836212436,-0.19385634522912831,0.27608197635654641,0.42644187183202192,0.25124763094934704,-0.36941092630839756,-0.63113619153961542,0.093688090657413,-0.31701383978667241,0.38554743487746235,0.013427654197876195,-0.55060401884371757,-0.68154310140157814,0.385656312777623,-0.14256842693953317,-0.160717935266482,0.28617657673725944,0.050379745836892149,-0.19416852143383212,0.0483648880427734,0.81646150526466676,0.27415990475594609,-0.27088749500344922,0.44541628081542195,-0.20356867722110372,0.02180985727769431,-0.32068632596003888,0.12895389606751423,-0.16139346135298893,0.51648214585127139,-0.62355429164907006,-0.24780735615809554,0.22837681655950512,0.13586935815399684,-0.40455335193648739,-0.383232444764123,-0.28164385228726391,-0.44400046830327849,0.20998270646221373,0.11977172150103564,-0.2632014495344619,-0.062424154248392025,0.13948313757280836,-0.21777587536221557,0.32293542584373908,-0.40429817765210874,0.39454723293117522,-0.30679774738649618,0.16033042009585569,-0.30246317444077969,0.0404709561447682,-0.20489680255613957,-0.40614073091126751,0.60615433188061374,-0.27737726829156073,-0.10062307014554464,-0.076101130201175066,0.239574788788018,0.61984544459800306,0.0034329036933549752,0.39947624867771592,0.12915736099741254,-0.078799408708024488,0.33567575045955811,-0.45684154759118784,0.76373428221575834,0.3036736326249399,-0.19223515988221965,0.78689885437141982,-0.552917780057254,-0.12457759145778327,0.16155975313277524,0.19285469086718016,0.52782381225134256,0.2938935057886472,-0.21783558676564138,-0.31349685455928533,0.26742999895560854,-0.29790499363857753,0.045714770553618049,0.58322050626311051,0.61383139289385125,0.35610504569861179,-0.39667457390541971,0.0012350655374559099,-0.017055596885973669,0.020728210002095404,0.040045252656751795,0.18191689343228548,-0.4380415231473806,-0.26337838822638365,0.22484561948241297,-0.48072405663880913,-0.372187942673122,0.0028205554957181043,0.13460663686852814,0.61969387844992363,-0.26445622006787695,-0.1165057805586904,0.13866813117693266,-0.16551517692329509,0.060708293191148531,-0.57997096250479885,-0.21462635402875896,-0.36382726651698333,-0.7542281014618939,0.4869544032360697,0.42418766844141909,-0.15365713040858639,0.30026409848470936,0.35306826658149087,0.061448522330106843,0.14135810432252904,0.15961077975574439,-0.49484968062127843,0.27215390213897322,0.12920680887980088,-0.28950879735675794,-0.10454145305213096,0.17633294689599491,0.27382635528717258,0.27854392103299619,-0.022516899106672615,-0.13412761171400675,-0.45921299318938219,0.11676112583256151,0.71768062639212638,-0.035773356311254959,0.02156427669194573,-0.20425859206419755,-0.077534004011395333,0.0095039884011459269,0.45460552665594595,0.015366245895434873,-0.12939684184531622,0.15469658427161603,0.15619160928279718,-0.075313146041467507,0.14387068525931776,-0.50856568689815629,-0.37147716657169444,-0.4129290125196457,0.21444341566821132,-0.62392267041868466,-0.031806054563255276]],"ActivatorType":2,"GradientAdjustmentParameters":{"LearningRate":0.1,"Type":0},"Type":0},"PenaltyCoefficient":0.1},{"Type":3,"UnderlyingSerializedLayer":{"Bias":[0.0,0.0,0.0,0.0,0.0,0.0,0.0,0.0,0.0,0.0,0.0,0.0,0.0,0.0,0.0,0.0,0.0,0.0,0.0,0.0,0.0,0.0,0.0,0.0,0.0,0.0,0.0,0.0,0.0,0.0,0.0,0.0,0.0,0.0,0.0,0.0,0.0,0.0,0.0,0.0,0.0,0.0,0.0,0.0,0.0,0.0,0.0,0.0,0.0,0.0,0.0,0.0,0.0,0.0,0.0,0.0,0.0,0.0,0.0,0.0,0.0,0.0,0.0,0.0,0.0,0.0,0.0,0.0,0.0,0.0,0.0,0.0,0.0,0.0,0.0,0.0,0.0,0.0,0.0,0.0,0.0,0.0,0.0,0.0,0.0,0.0,0.0,0.0,0.0,0.0,0.0,0.0,0.0,0.0,0.0,0.0,0.0,0.0,0.0,0.0,0.0,0.0,0.0,0.0,0.0,0.0,0.0,0.0,0.0,0.0,0.0,0.0,0.0,0.0,0.0,0.0,0.0,0.0,0.0,0.0,0.0,0.0,0.0,0.0,0.0,0.0,0.0,0.0,0.0,0.0],"Weights":[[0.085501616430359917,0.061377253646863313,-0.13425786925914654,0.069294044995970791,-0.084935527288980545,-0.069511453506699891,0.1171182177572348,0.075829377128292685,0.072196844756614018,-0.048099875441428262,-0.032792989184750591,-0.065337536717230291,-0.10715486116079073,-0.0029307183619870078,0.074167948775132733,0.0584490029228151,0.0041183884693519433,0.029777395051883638,-0.10721950078951485,0.029212559021580185,0.051256689221409323,0.07691154040218319,0.16976810709993703,-0.099582331949402164,0.065191222934736351,0.029861158291190633,-0.016978690195665284,0.055037375061733236,-0.0096011794316255977,-0.00405563567959732,-0.078544507248188622,-0.14098654357738455,0.015927019427589804,0.1343186549180993,-0.09179467560546245,0.055854740587857651,0.037040001659648242,0.063218247951845677,-0.11206401478191154,0.1066917734556988,0.02849312259222974,-0.019976331869152545,0.038932558036240357,-0.096048498973358529,0.000188785876942009,0.13141505407668844,0.075684729638569467,-0.030552158212751864,-0.0013119287169504512,0.08302453221276726,0.1062056813268554,0.0532938459442917,-0.18625204252132049,0.031778083933471347,0.054148148050170805,-0.050766754331062362,0.063434212516088231,-0.0016352351269453716,0.033122478696021619,0.023939443507597857,-0.04971752295855307,-0.0055074945046779122,0.064312883664611534,0.029343236717926498,0.083631404622726682,0.069364649197716358,-0.074320267573568,-0.020757245268133922,0.16465462943674417,-0.12245531484804723,-0.052570096576196559,-0.0734837889042346,0.0643797047112668,-0.042491162834701307,-0.10550411671263045,-0.058732499129411773,0.031526614342904019,-0.054287373643800811,-0.024469754395619353,-0.069913258763923722,0.038762036759296369,-0.05023319768984659,-0.046739730846589153,-0.040842772097652885,0.0487435605640867,0.03996039791760661,-0.037832076101308482,-0.085753784354203222,0.037658213024124178,0.031665811836917954,0.074026518679725067,-0.092234664187153,-0.0317499669821822,-0.022494348051935925,0.0014260765842106188,-0.090745408609027828,-0.025818516115887702,-0.027074693190897472,-0.0046231703861656483,0.089865846796517351,0.0379619768553878,0.070057894706962609,-0.059775546070007284,-0.023851648372718852,-0.18985399924856369,0.050298575766198471,0.054929230091953392,0.070809599914852861,-0.021137016564986365,-0.073685614279683287,-0.0024327390853035929,0.0050643264343711806,0.0553886203164385,-0.042684723437339464,-0.064900416908207512,-0.046842383356268738,0.0194518182525891,0.0035158392597677128,0.079933699865435609,0.043338450123889177,0.0096851836046233288,-0.13474591912729508,0.045570681593667534,0.041796748754073854,-0.0947318064914902,0.0027601591392868315,-0.00854936821448751,-0.025509317502625618,0.051893232510765566,0.010659054331611857],[0.0042738762600194827,0.027355132369413875,0.090054710010708722,0.11803698884907891,0.13135117481471742,-0.033252413216749738,-0.035266097943723165,0.079926199030294243,0.0072701014785154306,-0.020097533178013688,0.090449589343573764,0.096006246827400638,-0.029981314886549291,-0.033929828073513635,0.11107706363014643,0.05464227200624195,-0.0286804563834659,-0.0054590533829054419,0.023838682850522205,-0.15933330147705291,0.18233562250084717,0.079511116848799773,-0.020918906169743592,0.017021252768376106,0.058179075776773712,-0.10838064987226022,-0.020757380071444134,0.040739971896920149,0.10324837004462105,0.0021669118520977449,-0.014808843687276418,-0.051402058040411369,-0.089705303394022953,0.003394697044901209,-0.065140389980494914,-0.015553972200864238,0.023098294002294191,0.061595748778726943,-0.029111780623363569,0.030874735412340166,-0.061124970589563128,0.024832725074654484,0.029880903591388237,0.13335012317986308,-0.079369195391343128,-0.00074856038225436813,-0.018455294386954181,-0.048023721940462019,0.092727777476363224,0.042559537742769105,0.078479266349143192,-0.023250640162761,0.017296868718248468,-0.083507921453051817,0.053058725089291214,0.025183883153289878,0.076479529241218452,-0.020697350282511427,0.050518595227896181,-0.032916838657179349,-0.047918360427781838,0.017842211422881185,0.11596407286262385,0.018444239446083185,-0.040291619288307906,-0.042662149414002176,0.05806984580947902,-0.022559938585259315,0.10206835557806307,0.10933149553244762,0.00981532530103814,0.059180083979931686,-0.056224417176323115,0.015506059465512241,-0.022032841753512576,-0.054975129714311205,-0.037663792178812584,0.137350804518783,0.13651040189825645,-0.078397797216359463,-0.063185346861001246,-0.054390251751028774,0.063607226859049487,0.11454493857566075,0.04109360715611364,-0.05385322706553216,-0.10652077792555299,0.020734119569361973,-0.0089054564673587151,0.0697842916605465,-0.15876375295657821,0.091818425628097985,0.14420920704449838,-0.049309645659643013,0.094777127112125187,0.0091853121586591719,-0.15594738642099273,0.038349934287019292,-0.079225258127654352,0.041756567044642763,0.12571495892215617,-0.067568135407129,0.0074655615256815511,0.009561318467688441,-0.083005886865205741,0.0083964216088301524,-0.020887429512058804,-0.011507056504290819,0.056737276249186376,0.090671041696117227,-0.06821830605520933,0.09400877892441413,0.0036125222599958338,-0.0084498912450241877,-0.029005386878136873,-0.084930282036452587,-0.036300234713268362,-0.0934782873063963,0.006980804294862932,0.099586597037295763,-0.041200677592764808,-0.023495698435548686,-0.098575515218658635,0.049252696553399852,-0.0995262768313855,-0.063971651785863559,0.08879298993221868,-0.12636337851233737,0.015005353703036878,0.076141985906476764],[-0.019752209855384915,-0.0097844493115277625,0.026738445990286509,-0.072464992409682322,0.20898919665820367,-0.1129304195375046,-0.0063685780471967662,-0.013418308388640514,-0.074987426548589725,0.013265586744045736,0.1473991109009607,-0.10707499332789593,-0.065827030563634176,0.0811977708203505,0.058494585173247939,0.21463192964010064,0.0089106246921937145,-0.036646575151418524,-0.15992227405821263,0.020171897058059364,0.044666379349520689,-0.15954857084533305,-0.018673011344415874,0.14354002809272889,0.028062431790237236,-0.077058262666028887,0.15333483311484542,-0.0037334249682971403,-0.065890417309174762,0.065652278641648049,-0.044178431995828854,0.024085685301295279,-0.014671626760128204,-0.045227353275281053,0.020704948302694554,0.053464065901057477,0.0087988851027054962,-0.042973935112065507,0.04537606186325123,-0.034462523866039367,0.062182398644815472,0.035495886436512941,-0.016623120954547353,-0.057106211712976168,0.012825671506826989,0.11012864080520929,-0.015276656476157283,-0.043665797023745651,-0.0046762080621185467,0.054579154865151726,0.10381639399305301,0.0014642025804223031,-0.0874988310532806,-0.040538438544191042,0.10307383670924286,0.014292866842915692,-0.025851289727792437,-0.018538527832491429,0.017884634447446056,-0.15455826198025607,-0.010289220663854837,0.0093730399746495222,-0.03445174621343166,0.0018306295856204075,0.037768737069331683,-0.097403267965124385,0.10920134827977782,0.040347488534604604,-0.010342495317312787,-0.041716359936763592,-0.043857590091470104,-0.071382212319621066,-0.013341901838067148,-0.12594857365656184,-0.044538096917710442,0.050678176554067145,0.052723336956618183,0.0013622163789277903,-0.00032149181095402087,0.10598522641384628,0.082722735088093219,0.0099152219194762279,0.22076398427638136,-0.13671121558255231,0.059685456771406596,0.032595871352445439,0.15458826421673833,-0.1475508625733131,-0.09033071355918347,-0.15196905525079174,-0.067986902629810664,0.10223208348886534,0.0067025756983882306,0.094331740851538448,-0.13490686929924728,-0.0089897698164662435,0.049659009165738371,-0.0026786593070191114,0.0832361913507591,0.037469487536132995,0.097980784559635159,0.062027216842261285,0.041863764074381388,0.022306280564265833,-0.012349357627764566,0.0096004221070674824,0.03971083111380052,-0.13274965721079549,-0.07493431392093787,0.026549809012367927,-0.011368305800563146,-0.049587382810565746,0.0035796457885931788,-0.03401332210567222,0.021290875471791041,-0.049373902224602209,0.055433490684482847,0.022746262324835419,0.07457114353959203,0.14615900131380863,0.013953834676322548,0.063889743798722573,0.0010701287622840909,0.048312092055905094,-0.018837641184780003,0.0684700769277662,-0.025611334988129369,0.0877538460467129,-0.0835117339887452,-0.0090687543264871585],[-0.13499542490976016,0.086824833553354422,-0.085109283991400428,0.00021154938412808728,-0.0078433277463495314,0.016507422912315155,-0.012564053704635312,-0.067468750042706152,-0.14542244288015183,0.0054304388868895758,0.017705126327392903,0.13240748710825143,0.10930329986030996,-0.094875345731217892,0.02734930820032239,0.0764160747814729,-0.07814442350275716,-0.023897345223288818,0.048683849317682763,0.088234254073668222,-0.028058636793062367,-0.064242288819074567,0.082520706508552477,0.16415046415179255,0.036813642609061753,-0.10356130711558215,0.0958634870474962,-0.091820467246428117,-0.043169302133491204,-0.0027090532721756795,-0.10385131377248012,0.051339610516716858,-0.00435292666829319,-0.035334845949417666,-0.1046064354744139,-0.074542859537196721,0.11550563117430354,0.014189565610163636,0.025867861628143182,0.060248193511436378,0.057269266260177136,-0.036157929494343592,0.067621648383763916,0.0456252628235504,0.069878165046319232,-0.041380895869949509,0.036263677754615545,-0.16117531589958581,-0.0312059829747931,-0.053195581858477087,-0.07946875700910451,0.054442578243515526,-0.0091407022309641355,-0.048423047068488718,0.047025596490353684,-0.024680240248997995,0.11483776605952721,0.020265066527102884,-0.040097403918062893,0.038608689769073147,-0.0077740269732230229,0.015402230739336303,-0.047494543090355654,0.072678065249453763,-0.02629972443533667,0.020546531232783,0.07694560330775238,-0.034427828988883136,0.09064875757851501,0.077593035554357953,0.17250880803427915,0.05973147598692987,-0.037425790552053993,0.15310235026696731,-0.11025022934844612,0.0219217313399173,0.00046909820714780497,0.046435519389803878,-0.01774753358901562,0.031988800260727313,-0.11679159785608276,-0.17770798455678141,-0.084506365485776849,-0.0010304871757480171,0.081929955211994268,-0.10836732515533508,-0.023800447879627536,-0.0491416310720178,0.021323760053759269,-0.024524344563691292,0.030929922717307969,0.018736942949058605,0.1185963748546396,-0.0072886245322348869,0.02812209249241221,0.013534915670719341,-0.0040843636031605212,0.035071801845783852,0.0056925944505341105,0.081101338147021682,-0.036363873573257495,-0.13610955909452965,-0.052741835104033033,-0.022119625932053417,0.037302192968066486,0.088022393236096189,-0.014483451945307858,0.016800536134391288,0.022479297716089329,0.11866351346631848,-0.01688001488566257,-0.0078708447366421068,-0.039779525292764545,0.046682294389258229,0.02012307654876655,-0.065472280157932813,0.10018257124470639,0.088838510084402453,-0.058944304473576355,-0.017408402821754453,-0.081148643689251621,-0.051620135912211554,0.0078545294900456038,-0.10188193178937734,-0.049302882866177185,-0.019630643192910718,-0.046379361569198106,0.17748368479242566,-0.058685992352151245,0.10142207053970923],[0.010225904145358542,0.035406544126525004,0.041426179773622764,0.065953773911890071,0.0821699404209875,-0.016583202636871758,0.0097981775696689942,0.049048884214873342,-0.073603805570682773,0.07845931293484365,0.041764044348488856,0.040912386827431119,-0.018710258005343264,0.05749667572291018,0.072049355789832584,-0.10676323109562258,0.099167904256802136,-0.073343617624088656,-0.010286888111683214,0.123754039095291,-0.0619677187026707,0.050404744872842952,0.004440204150185618,-0.0497037796074895,0.04079736237801572,0.012856233157353667,0.026029591624545337,-0.12187696264050905,-0.026986955137654582,0.096447248170492952,-0.056695555920277252,0.12583803538761479,0.084274517054262588,0.098179191507970942,0.079455895028226392,0.020334381132070162,0.092865014796738851,-0.0826034498371957,0.13338653582410712,-0.017133359643893641,0.037205245453148537,0.060224575638488674,0.075127235164212186,-0.1117608618360814,-0.049963790255942393,-0.15838844058498935,-0.058208325154357983,-0.13924147268449749,-0.023055616377083688,-0.0928151250934043,-0.13987527084389517,-0.0055051401799792983,0.087683391816122919,-0.079641423783996732,0.011413028734733875,-0.10591002261160958,0.13714614413421267,0.15310216915319375,0.022918181784073351,-0.0032316703171556245,0.073086183546066552,-0.092297499259622939,-0.035488325787134407,-0.042328137196104842,0.073831373000822043,0.012306981191122064,0.11195546210765626,-0.10433519348139159,-0.037268766435916256,-0.12040907361806455,0.014809234149190781,0.092133958018797465,-0.20514103142747128,-0.05219396162596357,-0.022199725883309856,-0.087579914592026589,-0.11316183861285684,-0.10140343505586687,-0.041463094401547912,-0.11282683225650428,0.053872024240096794,0.031988798875505493,-0.035606028423632773,0.028085777780439594,0.028687751246875694,0.065352720262560615,0.045928422745974674,0.1205379943898607,-0.13801495052510632,-0.0060599617339478166,-0.04108180492086233,0.040808378318817243,0.043003920514298043,-0.020182113749793566,-0.031226534849674872,-0.060525782150683334,0.033722590240980392,-0.06684455614448119,-0.028487741179826904,0.24138669147299932,-0.028176444558772641,0.062426771850019908,-0.0099862373479434885,0.081662014313743633,-0.036318525749253,0.07584712255974338,-0.086901227325093089,-0.043709957464544529,0.069009750452159652,-0.061762255481886248,-0.041141132593166416,0.028618223796954046,0.069128092654780843,0.080328524872808157,0.013229096937891989,0.015103408021234596,0.09005058873826767,-0.026390033686477295,-0.083478757844847568,0.047045280049096527,0.056504076360425114,0.07208062474500028,0.080693174896950173,-0.08207629814114159,-0.0026941592584339368,0.086953415081691715,0.020918044296715673,0.036392086122346547,-0.034667250490627133,0.018842059447832696],[0.11664173843660189,-0.049835582476437879,-0.047938613187704947,-0.061287485084009552,0.024281868630012277,-0.0940015787680279,-0.049610777426729473,-0.036811557986276257,-0.090479861944735035,-0.0746646909713683,0.037851852309738844,-0.03547686822107874,-0.0032481192814816083,0.003849250924361918,-0.076660349760884539,-0.055385737793629285,-0.0049087263462093559,0.012171376163967879,-0.054690681170231632,0.021748136361687379,0.096530289773129024,0.098183848100744472,0.046198813627795425,0.045422842389246224,-0.19531103754479529,-0.017464105459635521,-0.0082948119685498523,-0.025384658249643758,-0.12822987612255313,-0.027857775227173559,0.043426532279369545,0.11989405301106984,-0.075023171580909584,-0.030165384033665366,-0.097208038487037574,0.060307579518953672,0.035004583518738017,0.026130835323910261,0.077783309038405121,0.071757306911852212,0.045081192159146542,-0.090498952124405285,0.086162543718809464,-0.0034831912640891647,-0.042357323288271687,0.078547126824839719,-0.058508280365005681,-0.072432396543074692,-0.003423559793008746,-0.034411313944300838,0.010226288002055713,0.11948739709312455,-0.013943468506495076,0.0831612386979539,0.073141887702037736,0.026845770743481729,-0.098273448771774519,-0.071104415178316838,0.12888148974543751,0.13411005531039819,0.038899579565625217,0.010397658454300735,0.12224664795345744,-0.0137479692354683,0.013532226634926927,0.075517680076534754,0.12609564831018374,0.080132533202913275,0.07935910644582557,0.005355635663953924,-0.096583844867976915,-0.024297194373066506,0.00784917152709613,-0.013220627672139646,-0.11657963843308113,-0.048588103407329448,-0.024168813006829191,-0.02157748321634995,0.019082213371798811,0.0053813959152757725,0.085351563802483,-0.043220169488948121,0.0016077280633948463,0.044294136164572569,0.066552190979039264,0.033051940740422753,-0.069888570556883828,0.047434555359607618,0.070252298128022181,0.01541147346875767,0.069669678176561625,-0.17662538883461562,-0.0676877042614671,0.19714232345995766,0.040402139444654324,-0.1052078836161409,0.0017056148022733645,-0.044705830812084263,-0.0475939255205798,0.029555536619084079,-0.009307283843828236,-0.026952540927674674,-0.087695182973705349,-0.12598959221240036,-0.019732595889190848,0.0014806433305748694,-0.025269117102933454,0.010493664613870963,0.073971122772825734,-0.016593924029199902,-0.041236799489532405,-0.068524959828216048,-0.010102931249519413,-0.072817925600466335,-0.03816076561274933,0.1184108755941114,0.028683472582920123,0.070266871691578081,0.032042704169523074,0.023580648044920213,0.0742825108691195,0.079554736942938,-0.060618203172395045,0.063960612800862127,-0.12280334986452883,0.076197144669569089,0.060483612554874978,0.018707351025003718,-0.19376120399306335,-0.024195171319290287],[0.11614438125172089,0.027249251967323796,0.023278522250376445,-0.043044923265963195,0.053206135080419666,-0.090280735649664531,0.013437474888150674,0.041321115422124653,0.16563947479306418,-0.078264316788049487,0.059042253422624057,-0.16610342884834325,-0.0056952849728686738,-0.031918618130642146,-0.059554401965579179,0.0592359256973534,-0.024832503571869589,-0.11785073915995825,0.13559583372153558,-0.017669340152580659,-0.026254245856331817,0.10935090280182964,0.057491826663387785,0.010429051748500437,0.059858359718845247,-0.16306450312659,-0.048555546884066027,-0.031478878654207121,0.075585609050985061,-0.025418034502991561,0.016322558579528534,0.02293653247737663,0.0015231701716722952,0.058629828182480907,0.022292269850029075,-0.16554820114338736,-0.05570804146179438,0.066447195072036488,0.0042303960711848965,0.013577568413566176,-0.071274414275711767,0.0021103584278209494,-0.016271067818385974,-0.021886983670250996,0.0013777335866235999,-0.085272307714992612,-0.00075743183017911114,-0.0558099676627549,-0.01582851736326419,0.029037836826297611,0.013147891056911266,0.062335289624197106,0.050841562870346184,0.078203319136566016,-0.07689584474477755,-0.012439683272134988,0.10125020081713687,-0.02815390289442311,0.043202288677855,0.07377222054169999,0.026754628635992466,0.080690779935375115,-0.019457552533665393,-0.068477626714276082,0.084058213850332,0.028673798593546053,-0.033019096406384757,-0.040840276879977266,-0.010797632290646243,0.001431602787326887,-0.050279844993632875,0.026740827852823057,-0.060374296153404471,-0.050414657503183823,0.061197105999344865,0.043636195339449096,-0.037579818083965384,-0.061743400940083494,0.056152513398285496,-0.054871370592547361,-0.050326855744794938,-0.0703993727580632,-0.046761915570405828,0.037810282962513514,-0.030715291521973265,-0.025013457167728056,0.028324399986152771,-0.061143413591733538,-0.065951754721771769,-0.0075068609042646308,0.020435003119387229,0.029450307627365519,-0.086242286702277626,0.098168932626493954,-0.029643812951414394,-0.041759167828379344,-0.081874005854340071,0.0016876582084696683,0.021636423657588364,-0.011359676568862102,0.024356064902618515,0.077515116082160537,-0.0027513981965186485,-0.035919369201000063,0.00014072217531363134,0.0056033764103565163,0.060383144413501962,-0.016167641093704114,0.13643628880843942,0.044119878660516657,0.013453618143003046,-0.036089530066716384,0.0068333409363827346,0.071076870274687731,-0.012586409225371301,0.035110679536445963,0.051547400112801338,0.022828255285313157,0.096536676911273087,-0.017747366509217363,0.013814540507292538,0.027458441994816431,-0.18047418807716961,0.024303064329447698,-0.069907095933358518,0.096503500132077077,-0.0088758457172111119,0.00063317847119211915,0.029566769266438694,-0.082210794831463943],[0.087285711649695369,0.0804371343842116,-0.015361812116487308,0.0082063459588461417,0.049943638790752268,0.041900688826400634,-0.089447721710529018,-0.015010954688998946,-0.079479348150602966,0.050915727480653448,0.020786331327007797,0.024560319756855332,-0.11082076758994246,0.12135569961496164,0.042740539294658049,-0.035691732408318876,-0.09174738876944466,-0.042705287758964407,-0.035913686876682983,0.16391754924720453,-0.02673429846252821,0.11928759420854758,0.10309730680529571,0.051137997556235743,-0.13600552801805227,0.018326909194504037,0.079395204053566037,-0.0020769165233378217,-0.167326714561797,-0.00081744169512045612,-0.0026885463872671315,-0.018870653129107903,0.090838361866389022,-0.10758864955769687,-0.0082281680053048409,0.07363999734993909,0.0333057390814841,0.062409187290828894,-0.027931146599324982,0.053260643841788691,-0.014607756695276161,-0.065259855294759458,-0.039109950863475504,0.037175788969527716,0.023631511223627045,0.0680463210921285,0.025849649333772373,-0.021993124338089514,-0.065625232308723233,0.025836690828745096,0.06282606716138521,0.051189744725424827,-0.087290724407153311,-0.024470593192050593,-0.084122999471723511,-0.080292025783624876,0.032387792907503252,-0.0094124786030758932,-0.03262492747004235,0.089970149455729592,-0.016344446788992929,-0.091439575176897964,0.068955575951266071,-0.032307693980985513,0.016189419894351513,0.029110549935549814,0.1219585613365472,-0.031539180952174117,-0.066266337317181956,0.019267755312300988,0.039882455431380276,0.08672087724790449,0.056801627061558772,-0.14642296950639014,-0.0868354210569327,0.010906539442983688,-0.018969775125369709,0.001935866342934602,0.026240528983919115,-0.12745940419991972,0.03021097641743882,-0.0944498821644093,0.19296579420501531,-0.0098988363037542486,0.10126822628069221,0.027260625057891071,-0.019763424772210415,0.037237278755728631,0.0036668853889477767,0.00097777817399429131,0.051574533177321094,0.0291518863959052,0.021625447505986689,-0.093064316921790791,-0.012876415987824212,0.032447030009900096,0.021594263673720627,-0.0086909747407397462,0.1277469200234741,-0.15772718109813474,-0.031151991292369976,-0.032761408077533673,-0.003547610466710868,-0.051195355885071,-0.021458094408092189,-0.14929727223288741,0.11727390408139662,-0.032484471920050308,-0.21282373463180346,0.017130344645749751,-0.029108437058221935,-0.083484468652577082,-0.017535434777067371,0.024673276084434655,0.0051255382494632719,0.1386553042371716,0.022120326079623349,0.07166108655420432,0.0255040516320638,-0.0034654435396069519,0.12066721356697627,-0.056631982497157493,-0.0049605495355216182,0.042102871545368764,-0.056477197605341686,0.024292018709335516,-0.0057606859923327895,0.057123333479446745,0.021015548937517947,-0.0064795464897150724],[0.051161604473537625,-0.093743907657072828,-0.034755558233410692,0.03039401812311408,0.044604651768506566,-0.10716751302614676,0.04085214605116913,0.066980123209724643,0.038421204011972965,0.0876486543324505,-0.028769014454010752,0.027511960631838684,0.15476716372814015,0.008746586143652443,-0.014218218832025065,0.00602629892486098,0.062057291558541054,-0.0013413008033420347,-0.060436060802334948,-0.076075468529872944,-0.094784887278548349,-0.03094156549672997,0.02652910087778608,-0.052038554732539273,0.027339672734777418,-0.012069902838280638,0.0982656002625651,0.055662666036962696,-0.077171681978140644,0.067471739533010638,0.13884391351077063,0.10676952792818008,-0.022577379875512813,0.068042810142481647,0.111809077836401,0.042707355798574209,0.08378006632257913,-0.0014642221184900074,-0.0684976925915478,-0.091393515724730048,0.044266756743768225,-0.0019325871231815055,-0.047707961689251482,-0.0088964651180370568,0.0054842299480922065,0.003234535262631455,-0.036671206360262117,-0.036360585917369778,0.018476676262802721,0.013303677915173003,0.10135125868368025,0.023658791680567906,-0.06266416847078532,0.020467814475993589,0.10933134719605588,0.00459404914182456,-0.029618765412477696,0.019960001953532768,-0.083152084212940625,0.085580872479113557,-0.027809021738456355,0.070650319466167663,-0.0519383579858272,-0.00967243155944999,-0.050876700954348125,-0.11331130158614093,0.044406662121681442,0.067975799230608272,0.10247666872953593,-0.057892069005065959,-0.12570128387705265,0.013435302226790668,0.054796501875879269,-0.1346503086551738,-0.090045034119910661,7.5844879622921093E-05,0.038945870585885736,-0.019277098664774929,-0.0862277788504598,0.082166300881777884,0.10347799412455873,-0.0563009962363029,0.0439849660594516,0.078997369107294033,0.085297578861280893,-0.027071192148896694,-0.0023052504722098442,-0.051370023538350344,0.05221738948543176,0.037286865232210087,0.12259426925240684,0.0017264842411481203,0.058473889084380837,0.050384838882279438,0.081529308174544693,-0.063429829755374062,0.021289674092356679,-0.087246449116772054,0.034779783081066828,-0.013138232313711102,0.056706183850181467,0.094133109844002832,0.0954507471917556,-0.074518289573022659,0.060721667803472788,0.027848772588157131,0.020717883268220681,0.097546817406532926,0.066931179257072745,-0.028157597399968148,-0.054822411874896226,0.022935886521927629,-0.0769012394189506,0.022276278579753069,-0.09169811965867046,-0.041843706232248583,0.026373574888298931,-0.02319819021924906,-0.025310146109988937,0.040658911233124706,0.0144156737541989,-0.031365796755142533,0.051080295791272753,-0.065513482171414353,0.062454746358630756,0.035387404641845491,-0.069217050855369278,0.08662577683800872,0.025234542185075502,-0.077833962119534583],[0.053325648725271887,0.022572026777121227,-0.015980802428054271,0.093874036582940343,-0.022806553245314169,0.070494368865375842,0.0439505915077947,-0.021734028322199832,0.00834488164525617,-0.033827792562339677,0.12940755119122963,0.10333189248293505,0.099230369124186549,-0.038645085763041424,0.19123605210721029,0.0019026055480380994,0.066527882216999318,-0.018530924900162813,0.14150258845776095,-0.0081814726392923712,-0.077841164876084529,-0.026791513928862153,-0.056090427272170833,-0.03057065885524048,0.0618137633815555,0.092849098935381388,0.00859942337631119,0.06956505145029851,-0.015732595259358169,-0.021817391160016162,-0.1319022982792207,-0.063729928019037874,-0.12632237870056315,-0.10099883772199952,-0.031956055239708923,-0.073287071078772276,-0.098061257460880985,-0.05163733698156811,-0.087011133188205192,0.079413378717101163,0.0089136719578343064,-0.042225596118136012,0.140717449356513,0.061805647028541119,-0.10312541172130207,-0.053195725060513926,0.079235333094314742,-0.15198325771210108,-0.0085698016034469089,-0.00200230815397784,-0.054676489014558911,-0.053247095122342512,0.01717399996828152,-0.04824269876621351,-0.10441516433829759,-0.033370130036838447,0.024829454783075886,0.011791726325339823,-0.042025270797811667,0.095133416306118129,0.017188920794042429,-0.1443169480302807,-0.027516590935792718,-0.1284180858478447,0.085407400868218117,0.060045223621651891,-0.042130092304977128,0.021247333561037154,-0.02483591327480756,-0.11495404660859468,0.033182470471447616,-0.062797314800239992,-0.022368779019561431,0.060927728189367078,-0.0503325129407369,-0.15624061266701966,0.048916645367404095,-0.034828640543901009,0.064772101679650487,0.011709624588288505,-0.037097890606040566,-0.0985174952998119,-0.060167324512523733,-0.11629269130895682,-0.011260972200626631,-0.034605909895403637,-0.1117401483974959,-0.017163445608041051,0.062595210993730666,0.035143795878356893,0.053171220294839221,0.055498321430620889,-0.14440725806208293,0.03680918370293039,-0.0021068284948860621,0.21024838383245229,0.063328846549392775,-0.0580013893960245,-0.0089722265162724777,0.02882782093237797,-0.023386308361399138,-0.0771843369334336,-0.015052026300514594,0.10815946805544366,0.12786271167671098,0.072586323249604609,0.018686879492607649,0.00704462909352794,0.033868817211458485,-0.020060479668708248,0.098769032789764566,-0.12011595632020823,0.032565268837566552,-0.078441178456460869,-0.057713472583979269,-0.030269416002484874,-0.044699301400307929,-0.040981777363080264,0.081588622938391489,0.056093372522882615,-0.048024498825794,0.15621335254723653,-0.045128823752689576,0.056748546380763043,0.039468208836823088,0.033997609158888754,-0.059903798384037928,0.008180921788391143,-0.046750159897759082,-0.00802988051371307],[0.013918376335584414,0.078513619350926253,-0.033366211081080489,0.0475879803615881,-0.019877664723564527,0.10758196444591227,0.075577799515553476,0.019498672666621225,0.0090593792428020244,-0.060716894534820917,-0.012435518302151848,-0.021035644018145408,-0.00012754296586250569,0.026465858520509422,0.053749121348967213,-0.069767027302963122,-0.043230289912380968,-0.075239258265152778,-0.0095344310531062983,-0.10613087345422562,-0.043324101787476928,0.0149116269522908,-0.018837517083626663,0.087280897096298313,-0.09624420576649069,0.065190830036128342,0.059296863110668944,0.059032100859601117,-0.056853643325675052,0.026528271340010092,0.064080795062882848,0.02871352324091405,-0.0472385379210904,-0.0091534811644853244,0.097625513873782252,0.11783842563780657,0.051925163182691081,0.034683206618145945,-0.087458402334595453,-0.055883207857367972,0.093459098444081456,-0.15607336629187604,0.029662651398750073,0.035686196875673218,-0.11277386209999885,-0.0898405890971169,-0.04154744766103427,0.0019173629972011911,-0.1905829639821558,-0.11248396768421869,0.014969696140811417,-0.079040636630243022,0.0042890757255448931,0.011525443171721132,0.11496623195256409,0.12101444292416848,-0.0016298201011227477,-0.069273419504617059,-0.071679230940380215,-0.084642210964715012,0.034932012505516717,-0.083487020556808053,-0.1039582507410695,0.0065562808696672621,0.050822475689118067,-0.064714134154875147,0.037774773777091326,-0.0041192189667354868,-0.087709911340886362,-0.080478996345813153,0.080745456128639745,-0.012807608966557681,0.10655588534531113,0.066524154521491283,0.031741265992725393,-0.0481133402813612,0.064567938814945991,0.022252576055834819,0.098415985932839442,-0.019876789517308303,-0.034377981098007028,0.023131943952740923,0.013957575618939677,0.02431944030260123,0.052780042026225958,0.15641323084188158,0.018342171308742633,-0.064300685018449252,-0.0795114654292599,-0.014806461180877367,-0.095294110901097642,-0.1099096716204083,-0.06827041615806774,0.012169118686391605,-0.048807070956716873,-0.13276915309666729,-0.00847288287011831,0.067801936403379323,-0.099099978948015838,-0.054296361737536131,0.052595692721315424,0.00444893248646574,0.079671981877453654,-0.045320106531876958,0.0080654021317512134,0.0090708329548231034,-0.067313849150023766,0.027414028766424039,-0.043994089590732546,-0.07735642692115155,0.095188659495110434,0.079284684998996824,-0.0062984784338250771,-0.05918821795668678,-0.075199873293310585,-0.090238577899950323,-0.023909796260095855,-0.12586236291208594,-0.052603800469416,-0.062505869120188448,0.082891893547451523,0.026279726555342248,0.018243188121197247,0.0075605486886478716,-0.10687537429071135,-0.034727513592660013,0.094930729779083539,-0.024438555990926591,-0.023507160392481324,0.14265491553894361],[-0.019917212878251496,-0.0045349814276166075,-0.092662510420248756,0.0561202124182445,0.089298920769135023,0.10810788396663963,0.036600612274652965,0.016662870993277252,-0.066019316629376448,-0.001833256938817956,0.14901084023337829,-0.0034325854756059302,-0.01042769594619785,0.025549788647948563,-0.026055955314842515,0.083173163100824107,-0.042362953096412852,-0.015185964275277802,0.014196482961005135,-0.0075699063352422944,0.14637871482466849,-0.08289359002165976,-0.073566288150051742,-0.09848315926725032,0.030232568671420545,0.0013008775649980201,-0.06692856554729236,0.021343770944818884,0.015653127641693194,0.098154874088021635,0.14978681671805794,0.0044396066764167772,-0.041730140117628385,0.010755214823217497,0.001714999066299199,0.0021681098689653061,-0.035567746741922215,0.058824923535426406,-0.12415563427082242,-0.0096221573207428,-0.041371250446712617,0.013524593853111982,0.08517251536829111,-0.069645907730339157,-0.041884862869329159,0.066248686607228935,-0.006076084036497972,-0.037117497244490386,-0.089121874611040569,-0.00882393687382664,0.017473085951757023,0.053515470127095781,-0.034022361213993192,-0.025887129217584483,0.094700828617697366,-0.084986677507659161,-0.008333619681041949,-0.012326320599225227,0.063616002805548924,-0.11406882875876312,-0.12553266064740873,-0.071604691357534722,-0.018298479380532872,0.00017600454805151707,-0.0046287956829919024,-0.051933164862024275,0.09641531835061766,0.0018465974169812173,-0.11161075084434984,-0.01063092914235346,0.048663279575086628,-0.11477893538626337,0.0022449937081335377,-0.0081629624692467519,0.086880046419253967,0.033349614257119756,0.017440774241175475,-0.020486759740351711,0.031849144936158376,0.020226081761301432,0.06902193632211906,-0.036564223945907172,-0.048391759142732631,-0.010667967253236486,0.041450599292339796,-0.0832045451243717,-0.012610344092059666,0.087119397802023837,-0.1347861541271147,0.051409948919343355,-0.013371542929503055,0.0013971330555478001,-0.011398654143480676,-0.051052481889430609,-0.047746049962752453,-0.022685589302929923,0.071663763917189677,0.0685318546443602,-0.12839763263160584,0.07320792816460292,-0.07943079922739095,0.0034362701589407585,-0.044456617903539858,-0.076071827142279141,0.0033294560976240787,0.12800740823514464,-0.1312152855419555,-0.020276177403764726,-0.037462894831875537,-0.018905628255332138,0.015679888812857392,-0.043151698089314232,-0.015785191123893448,-0.012092349146235597,-0.08614471399770475,0.031770057330084193,-0.027370330267345405,0.062248430948254267,-0.071077621061625934,-0.17881871883797054,-0.0075813745267022834,-0.06816992106992889,-0.079505338834873485,-0.015053006368447903,-0.0012592704751346743,0.0652277126910442,-0.08720883975818676,-0.030352292168880367,0.035052702316213,-0.096848401694972525],[-0.070341097909508765,-0.016425186811313164,0.019254087816421121,0.072342422079936158,0.030592927487865223,-0.050317323629170109,0.028053627823484518,0.073791051122667234,-0.11036283814225065,0.072969390963270875,0.066538703068442562,-0.061717899136583189,0.010686627964618336,-0.031138413561333702,0.047520601883305,-0.04975758171580421,0.041457432709618471,-0.061309112495486276,0.026522423944590916,-0.0015737639010044745,0.036591470379094541,-0.021206541061173798,0.041134522256250104,0.0016437847372805961,-0.017705090194230277,0.074248357966664028,-0.046414788875089361,0.06479206892720929,0.073895217706029137,0.009884013486018469,0.038369000696589342,0.11892220339964363,0.06444915627754165,-0.088035854403789041,-0.040715607591448016,-0.019837595504170118,-0.12932719976756632,-0.046801281118128542,-0.039246587472170344,-0.054413889372069688,0.19273342500653357,-0.042905531121486574,0.046957639452000009,-0.028489723265035721,0.02782693529983242,-0.01674119312191245,7.8239874537753962E-05,0.039613077221737576,-0.037907503714761717,-0.014136991638123988,0.016643146950889875,0.00077588663648156216,0.013882671425272235,-0.0069869785359925642,0.11179707566933717,-0.042707750660878112,0.12217094246321415,-0.15692264297536368,0.021967204200408055,-0.02689399756318505,-0.00961891052954814,-0.02993350979397311,0.12257467120121772,0.0905340916783105,-0.008860204383792156,-0.065724865620242018,0.026132032391125559,0.0091399191155565589,0.061412284435061054,0.038955825348078656,-0.055460992921820856,-0.0095613469728313555,-0.031915148851021223,0.086484527287845211,0.04552848391215647,-0.038279354380182318,-0.050506131271286524,0.096205674907608979,0.095013022512913423,-0.02764159087220951,-0.054225338778794319,-0.041785575272835176,0.13111103670641788,-0.0016394911090574199,-0.084159512963060942,-0.03352729380161746,-0.027730873859371487,-0.0061765538118920549,-0.038378355490669341,-0.0026884752756461011,-0.11959075619468641,0.00058419116612841188,-0.024971353306456178,0.010697971726797,0.085122770019896279,-0.04016483943657681,-0.042435552154446825,-0.085190122697405238,0.1943561710549481,-0.039609278190984087,-0.075992306594050665,0.011370038762813457,0.18692876601521444,0.12550515915923444,0.10935707334416282,-0.13531973381961698,-0.077068150537914673,0.029733145724459759,0.034985924965292736,0.000412244300477408,-0.01846536639831927,0.048882048391782972,-0.017747116137357046,-0.10883284832530087,0.068586439321623713,-0.042168254411678353,0.028470001230921822,-0.036470649384488324,-0.11223877878720194,-0.09474059537649239,-0.11987293094272702,0.004960779417805399,-0.058045476263455069,-0.0059511177326806329,0.08454348165598842,0.063964621812760247,0.073552959111700386,0.026716419073745605,0.047165560264805451,0.073886774947491018],[0.0786051709241912,0.025351712781160361,0.097454036652039888,0.062309625552782674,0.029398253779471688,0.0084811490261043326,-0.045083555942098605,-0.033025826889811767,0.0049187558041859265,0.11052275718438155,-0.02792558930488093,0.094473599257639318,0.017012478629079775,0.049307002811037365,0.12072093507391904,0.086735787992584787,0.04834372416626357,0.097623117611708124,-0.01511156555343208,0.081981144064691466,-0.0512048674073545,-0.14230656681640583,-0.015266044791288663,0.0243277125274791,0.055788839649193546,0.12467632454724656,-0.076139446234486236,0.060152937359604322,-0.11007610809327169,-0.071501362491191,-0.022143250536751161,-0.0077937253218374192,0.024195756571451822,-0.023853817032322078,0.061019207706485661,-0.051996981981532658,0.12655125093935823,-0.0434459351085999,0.027091742498164911,-0.089311023009382734,0.0430136329556205,-0.0057947404860454153,-0.021900864316419997,0.046033801070770632,0.015985477004110439,0.053048154618211135,0.073945602636690561,0.096186393718205754,-0.096883002908118215,0.025451003191337869,0.027451682024845596,-0.088287679150783324,0.068094860805634858,0.038607079732622535,-0.083469018160409442,-0.025295869743617513,-0.061492459435914984,0.12483012569419777,0.076145777709383231,0.01317427023246686,0.00032710201550325803,-0.054636143615375561,0.15620127231910061,0.034907998187413594,0.065089606867608576,0.03878287754313494,-0.024499465334077139,0.0035751944078828103,-0.12114366442746542,0.007003597632835523,-0.019248679179919449,-0.029356021837233869,0.018977499186415139,-0.042990462259992882,-0.089669035165622357,0.073986517967628271,0.055231113503501551,-0.10359486594498758,0.11090753585559966,-0.029679847224990039,0.057153381373259149,-0.0014740403030653567,0.095904099715403576,-0.0039152927158316786,-0.010034918827548476,-0.0643902750547307,-0.057990582640692824,-0.022757395453627063,-0.075904692895894174,0.032184210533894017,0.047439518984559934,0.1175355873694325,-0.072676360450296171,-0.05285711872093346,0.14421858810752944,-0.036444971759870062,0.0010328889491634892,0.073361969041469743,-0.027028694304968983,-0.043879342414153553,-0.051426145694615434,0.040697025270234957,-0.010655202182404788,-0.042245434960893613,0.00039454601400864967,-0.032057183541254718,-0.00087923991911361256,0.051145126893371168,-0.090974928317037476,0.042386123695413974,0.01531500153465927,-0.052696795564309118,-0.087187070546500822,0.044575262017546725,-0.10390044604319448,-0.11811024443750239,-0.14154188317837538,-0.064081089134250355,-0.010497554090040037,-0.086411960643576632,0.025361747490959069,0.018046977171726927,-0.048971434279289024,0.017598370798746345,-0.033029978675657823,0.022001641188539194,-0.049600775307186977,0.081847710205039143,-0.053323658466284382,-0.036578939787533432],[0.020045211273085995,-0.032005579072367431,-0.040180793860325366,0.11959725967869803,-0.16660844213184065,-0.12739268034705897,0.00858412078430399,-0.030085918203377551,-0.022072047717877876,0.065380499702112946,-0.075514717369886727,0.032833145774642032,-0.010303875588721954,0.0022453750322244505,0.04161289544978606,-0.14466437825191661,-0.05989985959589289,-0.0076302796034251989,0.090830308248573841,0.075230327594466517,0.02867302350176644,0.021087080841331127,0.01077757395881352,-0.039905880609968372,-0.14486104699642174,0.027209415293189015,-0.050678721465288026,0.0978825001579832,-0.045642987794935058,-0.064872448747566563,0.11497185770457082,0.061848223107768177,0.096351979451715961,-0.13725398955108142,-0.055876594519816178,0.05229578971099761,-0.11286939482586915,0.012376207391383917,0.046473770073237351,0.017143921823155325,-0.075934422038110613,0.19096490636478389,-0.042151331320344106,-0.045491612995337952,-0.042996253579817525,-0.018377951894185625,0.0037784395700240954,-0.053638750929916448,0.053433906187760359,-0.012885451208055624,0.02231924237283622,-0.058655078573694029,-0.019838412690844236,0.075713072431945777,-0.066943925109189,-0.012470533640176961,-0.08162255832355382,0.14071453572597034,-0.11397853568583645,0.032638325309874545,-0.081944386336946062,-0.041861842834204507,-0.0061369371943339451,-0.0177935012791659,-0.095494517614557878,-0.0364601198053428,-0.067960108379241824,0.083058077067148531,-0.1049522681346514,-0.026462523645315223,0.071383571066120061,-0.060827684365473408,-0.018875474029186923,0.00069663328956360931,-0.014279928697400024,-0.13868244734846064,-0.04336470755799203,0.0083998391295626376,-0.10849600188795612,0.022001854669530523,-0.17492268657328439,-0.075868745015861744,-0.096884013922816981,-0.053330125009469577,-0.00047200323387315871,-0.085054807244591107,-0.12463801766583932,0.016185181274558796,0.0358504107800401,0.055244741725185668,0.015344358377718529,-0.094537981489356215,-0.022672245750370273,0.045301844800207214,-0.081014094443806209,0.0779468008413163,0.016981306967276462,-0.083366718327350139,-0.17957095483066021,-0.0043223285682291905,0.038045799713136104,0.012052439439971906,-0.014829356830468337,0.16490954670682989,0.00557417205507347,-0.10083322998284908,0.027894462810150532,-0.025615491105703027,-0.0021794363058202553,-0.10072876648366294,-0.10854666095903756,0.087257707190385364,-0.019428586665971689,-0.10821679882326908,0.058061322987074643,-0.028295090784821321,-0.032495707140960853,-0.044147030781893,0.037669988169624517,-0.01167376636159911,-0.024127333487488172,0.041925034886859724,-0.1277293969017127,-0.081457080684367453,0.0549616014526309,-0.029254892898959512,-0.11176539830889917,-0.029261638740947157,0.073728293154163987,-0.010554613392936662],[0.054656092641064122,0.016351903337191151,-0.13238429643753111,-0.015522609544020323,-0.02706777896464433,0.024132291363713712,0.065878163322522984,-0.088796513367381619,-0.04027765354370879,-0.0089845333668911124,-0.0590156107882475,-0.0094642372872026075,-0.018222879902873624,-0.014479024898042404,-0.063139274845372864,0.079040074963858037,-0.01999405967513837,0.12324017558914149,-0.015107791763879375,-0.014119517795899969,0.007514527512677476,0.0386774646589853,-0.098276986669595917,0.016047231250353608,-0.16259148490261535,-0.063896481584286027,-0.023260912827881921,0.073557970944413784,0.076907896030961514,0.1091496149987311,0.067160869541053367,-0.013611576085093724,0.11140000309105969,0.0174296070828968,0.0045903684065406805,-0.031793711219722437,0.0581496217304325,0.00583091875968488,-0.0060125720038899681,0.034471681529697096,0.068343393748804923,-0.088129471904065532,-0.0037881413459656811,-0.0712717577562522,0.061587702532380072,0.096787095286692756,0.052686826626397315,-0.029168769555704958,-0.0028544087124612125,-0.046634480407017155,0.047458303153898422,-0.13062966122429004,-0.094121768436131917,-0.10354503670588447,-0.15908546264685214,-0.0074407561665670733,0.077718623516146015,-0.0647433460177948,-0.079963535324761054,-0.11150473351940156,-0.075396211118103379,0.0493249264509116,0.11986587876933064,0.016973710295755954,-0.054885375882004331,0.0682924358798889,0.0073988275420066385,0.032717310383326988,-0.11670962914489229,0.019705117035209694,-0.0026199499756266904,-0.06882173946003288,0.005084493496034851,0.04776591403513604,-0.012623734202428551,-0.089547909807676976,-0.053750461920570737,0.043103854629982473,-0.0089176902137050734,-0.012330070780829785,0.067928888716039526,-0.010333224112057449,-0.00011917536969748459,-0.072703649436502815,-0.012647885378029942,-0.028884608556386363,0.021010863598276339,-0.016205893791626281,-0.093474756999141081,0.029167431047927909,-0.037705783941921624,-0.034394233138353374,0.04402821512718981,-0.043915880723846244,0.036803007036644353,0.060476790189925543,0.072911796703783283,0.048964054343726172,0.030220324994309766,0.022356364822560315,0.093296852309887407,0.07442496729367129,0.11442349051396618,-0.05273602248456484,0.011730656381463514,0.086210342216131844,-0.0025141459847010778,0.0042673652704617862,-0.061182460972964009,0.067728010758591958,-0.099445754700080741,0.061384820666100189,-0.084687750309422286,0.085721004037374413,0.0057551050688145573,-0.048284788133050725,0.028120079571766803,0.061356085314729192,0.10384314705052117,0.097951582285781408,0.079997556875960663,-0.12072307824095988,0.10714348073685073,-0.0594599395187445,0.12210301857139518,-0.04612612985319825,-0.16603118126931352,0.12755121704942307,0.079932314864375811,0.0578855720488973],[-0.069836984566876481,0.021451088768526725,0.048032277873154242,-0.022024773504462029,-0.093082087912937567,0.12386258810883674,0.026036198589623961,-0.041409924921481142,0.00694075395195672,0.11311172350800373,-0.20247904525272006,0.085889897130873374,-0.06548873762503693,0.065461957394838108,0.16822727042819524,-0.055175965594742131,0.010436526903287401,-0.042115376540724954,-0.014989995140503403,-0.060684305428770263,0.023528673963916214,0.0060947977654452045,-0.22247451175480448,-0.022273520052041529,0.002458260616778099,-0.044633655563577547,0.063868515148640767,0.060759661044268068,0.025143577601050654,-0.16611384556834374,-0.0627172514662079,-0.12677645509188557,0.035954720354380833,0.09782199317489082,-0.11576237104928069,-0.0372232867795633,0.031209947614463798,-0.10588461306329769,0.028469383838491024,-0.017482879031121331,-0.068162134476427855,-0.033269507867120296,0.003654769489992658,0.064197152576173852,-0.0042424188908119671,0.0089759726565405082,0.0098781648921254326,0.045943079769733462,-0.064165804891445868,0.065495569806019338,0.011154710474030204,0.17090344125510057,-0.081435537350431,0.063924882620539789,-0.11284874115804458,0.073876734038731587,-0.029111984349755031,0.037353511946535682,0.017305333055744561,-0.083305990098249821,0.013881828709475746,-0.022634426048768759,-0.019151587218672259,0.093409253849620025,0.011529127957325379,0.043246927030691266,0.06352077354006383,0.006900929438425546,0.047093217154368795,0.014635699623103083,-0.06407187031067893,-0.10589509157212937,-0.040996934270211623,-0.084243023049367469,0.066731876058157877,0.022553940661382728,-0.08892079679749619,-0.0047694583607159431,-0.12161454272516799,-0.028875828098504051,0.072894999089115745,-0.048305473691240233,-0.031054033923120162,0.030639061914123654,0.052466047339429327,0.0081839319675078917,-0.046237412396926608,0.023866336222009125,-0.052460688561873657,0.021604107444631308,0.0035464683295974683,-0.036287212819262268,-0.17916728429545087,0.075164932453357036,0.056748662522110159,-0.017079920427202078,-0.00512701702607491,0.061617764058085306,0.01748235396157171,-0.072251403145770582,0.029973720712102771,0.03059164159959742,-0.1435898837878325,-0.020814572201955539,-0.050093159092136574,-0.11596938302483213,-0.013815079232632383,0.055830320126738525,0.072820702664567749,0.0283034231236608,0.057677043430658381,0.092587430460206968,-0.054572284650698369,-0.10979840469504003,0.096653065556787557,-0.035505190324164979,0.0013010368051757535,-0.097983391352174334,-0.11787202384452775,-0.023587301799464548,-0.0071034258704428142,0.042134568135685654,0.0049372272014013415,-0.10060852033033248,0.14200349592063219,0.00054682763595191044,-0.12656060624388732,-0.063542489516348263,0.10033811962443981,0.037954895549407341],[-0.034901315404010529,0.015546202684736813,0.033266631311642626,-0.10948858922117923,0.011701952829563591,-0.050926417887404082,0.079547665612773669,-0.028119319488239078,-0.063557224741188689,0.0868401656930473,0.17150565235066745,0.036649326955780596,0.077446729901516367,-0.028038511992780259,-0.043760729198456916,0.069560344025446072,-0.00890162831002228,-0.07017716938413486,-0.06990983129255561,-0.035898317549381588,-0.076823344460575524,-0.0054320208137574461,-0.11531348818379293,0.14098893429266635,-0.050360105866933069,-0.0047469533286996221,0.0916794980848831,-0.20999214613918887,0.084909931405797487,-0.049381964344611055,-0.059190080107919055,-0.024638302009962157,0.03412572294876081,0.070355242961584838,0.020417622871935475,0.084048432468852546,-0.078876365697214082,0.017120671913465328,0.033095783891061624,-0.097918243323073667,-0.13130758514037247,-0.030042639530649038,-0.089357308553306869,-0.023040618592865006,-0.10168256354806474,-0.13624211707665956,-0.06706601218863,0.036092276743192389,0.00175597802254427,0.0081996293618671837,-0.0663716575255797,-0.030400766164895836,-0.088006096212163293,-0.021696986607642351,0.049214511447815475,0.10112579905541828,0.031948443822205588,-0.1223707139078587,-0.014455784545321258,-0.11975944155897614,0.10348214753598621,0.022308633463797578,-0.012388573136504799,0.0668188246346768,0.051155608515635262,0.0026892289821827931,0.0074676666810103926,-0.090255794151479621,-0.037956110292185923,0.053437267527467448,0.088865766062061508,-0.064745737938539508,0.011038760151747712,-0.14523204362722586,0.020744929657345066,0.0068214819417411234,-0.064146902147495008,0.019732059262981948,-0.096283756319066591,0.14269019641861502,0.043890218715595113,0.11886567988473946,-0.0094475982134415177,-0.030251112848049138,0.10112927851472599,-0.10664347006133923,-0.11699294716943691,0.015242946303236377,0.014641760934611952,-0.027608384720171259,-0.073363552324282308,-0.075249485777020245,-0.05343990074761696,0.0460550226032928,0.02871799895255096,0.075190229815965376,0.024286354659414536,-0.096657110283907721,0.011696676328665315,-0.12096784646974773,0.077850148012103423,-0.00079698752763179208,0.046535751706623822,-0.016881357478004025,-0.019764128677088915,0.074082868765362658,-0.064517257677376566,0.010907054825732272,-0.069451933230539414,-0.056073799979561419,0.04263467622884435,0.029931875287949571,-0.061868834882896753,-0.0698011735224884,-0.0056800634142256451,-0.079055251290819348,0.032861665732289033,-0.002539066007407774,0.1054531301677534,-0.0042714838602109463,0.051294649828896359,0.16037983549443216,0.028695145582215694,0.058304714921303069,-0.14060505007586649,-0.043247206280964706,-0.06071378621980919,-0.018154438432327013,0.0740743697817162,0.043708112329354093],[0.022451350431601742,0.091481073596972981,-0.061211453846056044,-0.075958097025746948,-0.10037976867218916,0.00023809632133937124,-0.045970467958900078,0.10539184512975282,0.053182745312286152,-0.086833070027821618,-0.066392776175443272,-0.1207545701452574,-0.035539497032592765,0.010520239618282992,0.089126018153052725,0.016242552912308163,0.077172865869480009,0.042526155116128846,0.041205827912470752,-0.002835777451984896,-0.010920291587331779,0.024448239496543824,0.068550389592588717,-0.036189026893302313,0.0400525255893692,-0.13632711843828924,-0.074574103474988371,-0.12719858088370728,-0.073174224513049488,-0.093785076150369517,0.10596740958620689,-0.057657211267698967,0.039552478941449316,-0.062986839245775958,0.034140432420757517,0.041838238359898042,0.010209924411712612,-0.00989557649448402,-0.0043652709907682895,-0.041536004855145948,-0.048088156796356286,0.007621929393056631,0.1212090859622883,0.0019942360850925878,0.029473846267053145,-0.12018988189450089,-0.015158800566351983,0.036964510270969211,-0.052142116455911804,-0.037217282592871846,0.021388408256788345,0.058864823470640218,0.003090060658557001,-0.034026240733500579,-0.088603584969958127,-0.027596490047766434,0.041536049526836975,0.2090642601795267,-0.099002783157695173,0.097532534946271135,0.005009575128713876,-0.0011650042990872173,0.17573298419109357,-0.011921030471766783,-0.040213955899316152,0.04744639276686128,0.14261736490379162,-0.094680046528310829,-0.016690905248927808,-0.028838119031165343,0.077483956057231879,-0.13682151727486175,0.087644510518385566,-0.17745118554355535,0.0044594202019564858,0.01505842103396454,0.0017099766341187918,0.023308500631862954,0.02433458335431973,-0.058278177308686369,0.066742632563126292,-0.021242910658867659,-0.08216388609031991,-0.075539133164451364,-0.02284689653631344,0.031131739246978513,-0.057910864687364526,0.05095389296698067,-0.058870596502674094,0.10992262446424293,0.003572957434374891,0.038303387944860136,-0.080896938481436809,0.16259227316170843,-0.061101195365691939,-0.026182278159750265,0.082844960753611127,-0.089300771992443309,-0.0623643793541858,0.06721425436024,-0.062249020220109814,0.12096907051956617,-0.01438412389924983,-0.040841696622599413,-0.071403048429524288,0.051930611535552236,-0.035470382296091313,-0.030443061990905684,-0.06123619530219903,0.018670075058462059,-0.090605236820898966,-0.02974669503852025,0.098485492952400083,-0.085696359332269448,0.021275501922927684,0.051908908281921004,0.0098600719999411644,-0.038379879174773819,0.010125844920802811,-0.12583964033546435,-0.039760074592439167,0.15132558040634958,0.030383755378940093,-0.10020566698315278,-0.078748614950476276,0.0981707613215312,0.12309238283811289,0.073346006728270324,-0.00015046345494386425,-0.024950334318230509],[-0.1372530820178034,-0.18826745581760765,-0.11370023342254504,-0.093992599682431066,-0.068859032294736347,-0.13489022574174384,0.022814349392177854,0.056998346558890779,-0.10855632503207476,-0.060180235010932323,0.0061198385991087954,0.17643746322448867,-0.082241602879026182,0.095081316705643626,0.022402617580800446,-0.026294053994539338,-0.014460721735427165,-0.044815641076801367,-0.053516973916570024,-0.14669175740271276,-0.0049925372612080968,-0.10209506933446452,0.10887732805664124,-0.0704659795610365,-0.0059198203494309591,-0.022017639646336934,-0.035126016617582856,0.023468369343976971,0.039376801214805565,-0.011110103630213072,-0.016875737130775836,0.16230368161200373,-0.005268568514638851,0.0062798523278167215,0.0031727991088454158,0.15802951061828049,-0.080964335753282962,-0.039513305247484337,-0.13494553842972698,0.035026182879412546,-0.10375908846644787,0.020952414927815646,-0.041716910171881845,-0.05698223146697632,-0.16728094705951707,0.048121874745533755,-0.10351067751202192,-0.15498861524886354,0.0017388585914559248,0.0128971734368469,0.00713447009201908,0.074897714355179987,0.076598290040182287,0.00552675559758121,0.036387445330601217,-0.12531879289219683,-0.081108172200796427,-0.0031954332124335566,-0.072191988863774412,-0.038663617839137278,-0.0012796530830810396,0.042671485291086733,0.14081861220201411,0.086522338782325126,-0.068917389091871714,-0.062111492822830537,0.1136180692543259,0.078198257406117716,-0.038413510990266186,0.050877803353582191,0.057399066370314916,-0.01797195312579021,0.0075055740741286668,-0.059293172271684035,-0.069602276790610942,-0.071511602435035473,0.025885327559196442,0.054797117398813468,-0.10972224504338858,0.20947679745082717,0.097570848104205868,0.042567175912527559,-0.096131247082369489,0.0060132506093301796,0.0340492187901921,-0.039472621125659815,0.01915579180408173,-0.017810356409989635,-0.11419884858121336,0.054322175616481942,-0.0033222062478615757,-0.031638466844607423,0.027756339419015476,0.0023763054903903559,0.12451630181205996,0.02764132782390084,0.00722396431632658,0.01482256158776895,-0.0903088666252448,0.098961904381119889,0.065110655048542618,-0.016568988380389352,-0.12667948362926421,0.036809479228007147,0.069458084131517675,0.10915061870626394,-0.067534923457420737,0.04494566441610981,-0.13992407254594386,-0.088857322062740121,-0.08573638253147127,0.053116313112501548,0.0088955211472523561,-0.11725664921510093,-0.081994474700535183,0.15904856641173992,-0.12708428525922236,0.11554734313423315,-0.0011155109101516326,0.095028115715057149,-0.14327539891293575,0.10082129530370577,-0.04888679396153639,-0.033476002504873613,0.0087031375188810923,-0.023694439527871675,-0.11562001904623688,0.11047541621843648,0.054887969271624315,0.00817833874543121],[0.026879041032276365,0.044771302801711564,0.023497184337982063,0.011061762050565872,0.0039155461388918084,0.046581185191450436,0.055381032357726415,0.01823164105463165,-0.043610481047282754,-0.07880138175030918,-0.059540195331249816,0.079008756866256025,0.041391576885230943,-0.0038374434224263815,0.050233941246245251,0.011159487431083028,0.077692530029216472,0.11218851397772864,-0.030573898265953331,-0.050798544304682579,-0.18070218840896857,0.066541262672384957,-0.033096745142532323,-0.021007695994169216,0.041541950804770376,-0.028175276863110929,-0.0063048249437654231,-0.050632892788454946,-0.056015402652804018,0.068391211048242709,-0.11596287367423477,0.030873458969310007,0.10404532020810263,0.010728879569140006,0.060099362981280893,-0.017285972738105011,-0.00867653263150548,0.12788398908447438,-0.099984006129233874,-0.054579074650300395,-0.073102053685959942,-0.12027536045739865,0.16843084011954138,-0.007560543816189768,0.0015541335743112373,0.063134994282817561,-0.10504071799384927,0.0488945181072237,-0.0011950056494305903,0.056934332087873525,-0.039235067448988137,0.13750144806732756,-0.095596252124527145,-0.057718129722574174,-0.037499080179672468,0.075297755249235085,0.10429104806238509,0.0053784518222784123,0.070432568250132041,0.034127569569773843,-0.0059645799401611488,-0.054209991684997148,-0.019250219439132629,0.0018708147852581558,0.020290312287772311,-0.0093751048189147767,0.080475379597959987,-0.13117461437246766,0.012813049421255805,0.059802141659556426,0.018569136088979789,0.011102204232294482,-0.073759981435991939,-0.0044004988623457921,-0.11039541823678092,-0.08998839266751292,-0.014864468625526265,0.020259128099205048,-0.13602390770532838,0.012593865244241075,0.087587465091206892,0.0020433604165520842,0.01182267298318372,-0.024335859615873562,-0.10453856365587225,0.03729020557125045,0.047088074194569632,0.015549910106130592,0.10350772356922054,-0.077058150624619043,-0.016192182918774098,-0.059227266074459432,0.0188009158680329,-0.097444666504643951,0.040650800137512676,-0.16126378842912126,-0.064328211978673513,0.070467262123383181,-0.063158788996267312,-0.041242415508999576,-0.028156455960674651,-0.1021942853901352,-0.096075344627795073,0.0053971732907425844,-0.046343386155409914,-0.11917875598228275,-0.07365056635255833,0.044119329854869542,-0.015812756392497927,-0.074055895337690178,-0.0048984096864134966,-0.057008092747277236,-0.023162570157515747,-0.00052324371121340962,-0.0055153833281830983,0.066738870569006972,0.13452959481305576,-0.10243517091213446,-0.11681477998598143,-0.050589402320908312,-0.020509275232500082,0.0070230646196609448,0.043893499724782938,-0.059612233173596686,-0.095736856542670987,-0.016145376209747059,-0.0057016932907926017,0.041413893820243151,0.036175836292884615,-0.010033287667416291],[-0.064127040808383037,0.12989286720087059,-0.051517541200867455,0.077697267689310762,-0.11361112627561967,0.11108216057198103,0.091034652574561822,0.091207225881416137,-0.10576974102346108,-0.0453251017857932,-0.068113845992222047,0.049871443966821222,-0.04769551015227004,0.058762193719503357,-0.060385257092759138,0.10844163230253055,-0.017998878978344648,0.098733279775950158,0.030529205591102563,0.10495524326437271,-0.02759585840494724,-0.0655841809466192,-0.064508273164065155,0.11559797637019184,0.030483272374797629,-0.10720298806720133,0.051569249015270831,0.012515441695736106,-0.038550836801159435,0.01994650702516438,-0.092236483104372033,0.027420340262995651,0.016805640613959377,0.12689813103782618,-0.053046266656641625,0.018255784642885596,-0.0896625492798047,0.075041989161443515,0.054754932179059926,-0.099959230184215569,0.029458850664797906,0.0068118409905762066,-0.0863928834544937,0.015821009692142778,-0.15037080507005482,0.0894469944336497,0.02540538070065167,-0.076229038225367585,-0.12534783022311055,-0.054437841573496161,-0.055776559700910271,-0.0043777945954516957,-0.045963449132650047,-0.0888891568640405,0.024521243890468478,-0.021913152729912441,0.088807601736655639,-0.027683588477121379,-0.04140501706663953,-0.015992377876019398,0.077223648765551628,-0.13765600530613661,-0.026317941253003619,0.0581552814113559,0.0072326806045803372,-0.00141864539477035,0.016348681880246133,0.050843596488649757,0.016854755289349866,-0.039296182741787859,-0.023378693100924469,0.040063012428745208,0.17083211004508614,0.043759232236809484,-0.14267611402844474,0.031306983707643822,0.0015001093251261945,-0.079006346045931791,0.15291523948967359,0.039285638514214224,0.044895042946673014,0.1154623664939726,-0.017509182437841816,0.11333714721968094,0.049446471581238681,-0.10686774332704138,-0.06129136311379231,-0.18664300107070539,-0.13294750396843286,-0.042989196869944825,0.013361579055320037,0.049706548656161954,0.11666473433536771,-0.066433558959308178,-0.014451816976811,0.071817284894453673,0.0851757577299486,-0.028481720609544563,-0.11872613558405232,0.13307251478068094,-0.026362430537543769,0.061187384182516638,0.02285021416143846,0.075649576600609558,-0.011334321227236989,-0.0014425202384917239,-0.020334312891496092,0.025741851697998273,-0.064758294227017,-0.094636357184112729,0.0066652595147636126,-0.025618963354748388,-0.11655456525334235,0.0021308172803889071,0.026202968347184444,-0.045681677968018579,0.011975355486259866,0.0049036480115565821,-0.01488889983063166,0.07131237291595223,0.044242798179345059,0.02315948197416445,0.12020809205810856,-0.0019018752122169991,-0.0087761241812181721,0.051838330207259954,0.021924549318143905,0.057154325783048937,-0.0668723489067393,0.11349913575478715],[0.06849803462169772,0.02654277300436941,0.046550999278816833,-0.073894662242322551,0.073641754256856637,-0.12909659224161163,-0.0530513664532478,-0.11157489232467464,-0.069152867952187044,-0.11128155427792306,-0.030622089737357038,-0.083979746557363691,-0.018029042302490118,-0.021674915517980984,0.015853015683016,-0.032066535564473267,0.004971040829127105,-0.026418608088319907,0.072050883067128049,0.030167943154288994,-0.094439465908647019,-0.05843359956835352,-0.026952231611998976,0.116351367285055,0.0751854704979776,0.036844191786933815,-0.19000673933583454,-0.0091225758286155277,-0.057042819114910756,0.047552062796975346,0.023137441682456572,0.024165239799780813,-0.00251888575488624,0.047753442486457395,0.023611064849992647,0.027766284047559774,0.25398907767809953,-0.0385297585382235,-0.031907815800417183,-0.021841793840186908,0.065236873047500046,-0.011195038159990062,0.09263889448228943,0.12657501872575819,0.042324707189099954,-0.14270353980152334,-0.016362238867919071,-0.055959762408572193,0.094231025783663117,0.099323094710852808,-0.021303726116045398,0.011873142465702202,-0.066885235037790369,-0.1009595945177572,0.019059958673567832,0.0082357836420160774,-0.11811767456623984,0.089090106360571242,0.047119875463334217,0.030544738753574614,-0.10100154541924658,0.042985760699258573,0.063503471795196276,0.0037978205124475192,-0.013612840768992588,-0.067519168902763008,0.036022130618721143,-0.0020672010775738964,0.10245588670538666,-0.059296194029481324,-0.12964215652293126,-0.11238783106295319,0.076722503166096842,0.052306618976169734,0.037770861885888948,-0.012746943641706291,-0.027723045051122452,0.043340525523541652,0.11084108287614397,0.075167986152543526,0.01039427664259002,-0.018654835218747921,-0.028922088408610828,0.12709107959526356,0.087333318979381083,0.057326832215000942,-0.019627341785736451,0.039248567577979815,-0.049760873481258662,0.010649574348631471,-0.03232500395042584,0.024518813889872176,0.022568089980959268,-0.0646447058909849,0.079161372590988668,-0.034736279378074462,0.16854213299904802,-0.038547644286090088,0.026905161461263184,0.089319615492683607,-0.018819763562410521,-0.064925420431424866,0.10434405971463909,0.016978393625014975,0.048602163344215465,0.030626098102480431,0.0042612404826356688,0.0025322208029366238,0.12412119279415002,0.059946403030069789,0.051483541320464753,0.085522445359913032,0.030355323852174446,-0.1641923596308876,0.076643504273530907,0.030566771235947292,0.080472250806676013,0.012091419764354872,0.030441297067725553,0.081992472034236347,0.030040150240289727,-0.015781320740340471,-0.11456312798439616,0.088129967509611259,-0.014581349455769685,0.00072045567500241816,0.0023123834590978174,0.0014714718713120445,-0.016654619149043044,-0.071075844653469583],[-0.0066206932981306924,0.052143755844140535,0.030227178124415291,-0.028348571719315239,0.086709729997005935,-0.034652962622665165,-0.066345074701310292,-0.082681154266798174,0.084578429075322675,-0.089197991311724956,0.12972239087157153,-0.10567470383182138,-0.090041434447999891,-0.048086320486476104,0.0087167528938947234,0.11681028347994057,0.00070391873537543209,-0.028134255734608711,-0.010930484936465857,0.069239012797672972,0.13501253211874212,0.031917667176274749,-0.025985421108423733,0.0070475731740714236,0.023557255701383065,-0.046885659282878661,-0.045862008636852435,0.16329928903279445,-0.055135499936821167,0.11011477857777512,-0.088618667099048934,-0.051313222543131372,0.0706762890803862,0.024960615979885702,0.0658221858079881,0.14673951066926311,0.10220291844198821,0.026816013790626623,-0.055624424111372014,0.050726633194106675,0.046105105551682131,-0.13812695126566538,0.058626131830282757,0.036085623920700069,-0.024787348309596537,0.018953714385931478,-0.077862505222147271,-0.10851993414995369,0.03061001730509692,0.052563930825649821,0.065358514368705017,-0.0031748712263429675,-0.067012605268873385,0.020239285794430479,0.043713152197096608,-0.085946743530250821,-0.00077491961564903869,0.10599919900959098,0.13202884274078763,0.078636389270817342,0.018041795449394864,0.065458116092077051,-0.050421643550146847,-0.086708561260764927,-0.13648439927983425,-0.10615912626932869,-0.028518170601219521,0.066866814199513666,0.018147034827160562,-0.0095318502955610979,0.037512038369839608,-0.0827369424753306,0.023491033482714769,0.027209291139016271,-0.048314780578622964,0.078463855524808,-0.068430527486782869,0.065262622761699016,0.032827822497177923,-0.0298539591359001,-0.053292148514921214,0.029996216369461912,-0.0087846281718203,-0.062458754589528452,-0.032286245250303158,-0.0078037934029065587,0.027689196244419456,-0.10026143975041807,-0.10988135572353558,-0.13838706831856587,0.011556698905478866,0.057339716757136831,0.082854509635312684,-0.033926891100452709,0.07246676757643826,0.039459474624358649,0.21813057191987714,-0.11676132829143021,0.032474716976927734,0.067662967265760182,0.13074518283295467,0.019837662014433256,-0.012563791532108017,0.087901734923323191,0.025051838132336447,0.0078682096361466277,-0.11670690819413879,0.1510254912527555,0.018415126010994973,0.099732445512112411,0.057247472993565619,-0.045930621903297914,0.16913155471257502,-0.10314049604007103,-0.0928964094266461,0.0817016307770895,-0.064096552961975653,0.019765566589913672,0.055175082806684872,-0.066068817041040229,0.039746152527572957,0.0067785959352324654,-0.11273056863603007,-0.13552198347820205,0.15226623548266702,-0.025674959477718858,-0.060322854359934286,-0.01501620114579863,-0.10031193496410186,-0.081638592598380924],[-0.064033713253159957,-0.057287192640905753,0.04258331231469558,-0.048273903047373765,-0.14210035662320142,0.028799624788947802,-0.020655488195128465,-0.09158664715649624,0.042799459986876238,-0.056677797572813139,0.067147224608199385,0.09707241847449026,-0.023101834425367635,-0.056572064327446575,-0.018519757082691268,0.099387154191758281,-0.0050850631238531325,0.099141182286985277,0.10061174371842122,-0.021576785072217806,-0.076081959054588658,-0.048513735406730707,-0.024064136842418125,-0.03554702728625083,-0.015036668355707793,0.022604418728196889,-0.0090491349188596623,-0.036805732617486986,0.056607356942774974,0.1029182036778668,0.019787800600755755,-0.063315877426602579,-0.14397937503663522,0.082465924935014229,0.046089429087327459,-0.043652002155690608,-0.060546970221656393,-0.13684411682859829,0.10525403656726294,0.0224618765151348,-0.035437592806071977,-0.11644244303885186,0.067144511678246491,-0.04010599548398152,-0.053436216467927879,-0.0098016485957260133,0.11808044870853046,0.060659871701297913,0.028349522493324564,-0.038223462037433625,-0.06863791138811999,-0.048146242640405165,0.0027475566713089775,0.017191661994724345,-0.0076376832179602351,0.043602002562525319,0.056485432021727539,-0.026786301299204368,0.01172958951662661,0.020814190770103446,-0.12629709548882118,-0.11849819692455416,-0.080680567663995478,-0.022690411785613793,-0.041905867363887531,0.00170620526637682,0.015937799999512187,-0.0081820066718331363,0.028833749427391166,-0.039969036778126917,0.18776792425985481,-0.068752923100945565,0.0375672971050901,0.07242362058440531,0.024685737728133709,0.085573814458503261,-0.004435726709454817,0.040620308440463757,-0.10991422950635701,-0.073742149349019653,-0.043548463147583191,0.027921679361667982,-0.1744358030667206,-0.017442364937421698,0.081059586110508342,-0.17911549456245154,-0.04764645428534646,-0.046507360778367188,-0.11936711780675589,0.021903673405712358,-0.072977792335968128,-0.071826857684915063,-0.087617916632276846,-0.029175060572805521,-0.10362703820396046,0.047411266332543889,-0.083039471317432986,-0.057513322514917739,0.018675812055960035,0.00495679713224311,0.068905883304191548,0.034335423723408982,-0.081839497619408064,-0.037768401809787758,-0.046816874878438046,-0.033869230761114894,0.050186696089935035,-0.020011330821717788,-0.089497620862073121,-0.010297864802156061,-0.00079382373454080311,0.059143655238848833,-0.012053676011736415,0.0845306698679415,0.017132710608725038,-0.056955356508637908,-0.0730484863924038,0.031981006509872754,-0.057272990173613855,0.0046565516932177619,0.071612311413995558,-0.18008334780233942,0.010667195387746901,0.061035565245491412,0.0062938131697450189,0.066021060952122568,-0.0619890663019328,-0.15588048471287344,0.044432261676977031,0.066065993173372431],[0.096938737632270289,0.059552693891067973,-0.014699099493007413,0.039001591660898963,0.039992547286449374,0.067195169819071268,-0.11914829547117194,-0.007582910791462171,-0.10119017831733647,-0.0484197973775679,0.013769463925791554,0.10221415739816292,-0.069655503233375632,-0.033901714045164434,-0.085123851301378436,-0.027383015221893254,-0.013537858196771469,-0.11504905967353327,0.038693062703039086,-0.04944664873215749,0.060017356747849721,-0.097279382504295575,-0.060206438789869421,0.113614853790021,-0.11926906798280504,-0.12059491331793323,-0.028757232563854884,0.0016619084927659606,0.066500454526580155,0.01843877885278588,